on kingship 0.2000000
sovereignty kingship 0.2000000
yet kingship 0.2000000
t kingship 0.2000000
’ kingship 0.2000000
greeting greeting 0.8000000
your greeting 0.2000000
NULL proven 0.0714286
a proven 0.0714286
proved proven 0.2142857
my proven 0.0714286
herself proven 0.0714286
prove proven 0.0714286
approved proven 0.2142857
been proven 0.0714286
coward proven 0.0714286
needless proven 0.0714286
falsing unsure 0.3333333
unsure unsure 0.3333333
thing unsure 0.3333333
issue issue 0.5000000
theme issue 0.5000000
kates kates 1.0000000
enriches richer 0.5000000
him richer 0.5000000
'st harp 0.1250000
harp harp 0.3750000
disdainful harp 0.1250000
instrument harp 0.3750000
doth distinguished 0.5000000
exalt distinguished 0.5000000
the pike 0.1428571
pike pike 0.1428571
thou pike 0.1428571
puissant pike 0.1428571
trail pike 0.1428571
st pike 0.1428571
’ pike 0.1428571
mansionry dwelling 0.1666667
dwelling dwelling 0.1666667
private dwelling 0.1666667
cell dwelling 0.5000000
next nearest 0.2500000
nearest nearest 0.5000000
near nearest 0.2500000
done taken 0.0144928
led taken 0.0144928
NULL taken 0.1014493
humanely taken 0.0144928
took taken 0.0144928
'd taken 0.0434783
deflower taken 0.0144928
'en taken 0.1304348
from taken 0.0144928
have taken 0.0289855
taken taken 0.1739130
raught taken 0.0144928
countermand taken 0.0144928
suspicion taken 0.0144928
quite taken 0.0144928
ta taken 0.1159420
marvelously taken 0.0144928
holiday taken 0.0144928
bestow taken 0.0144928
so taken 0.0289855
registered taken 0.0144928
relieved taken 0.0144928
captivity taken 0.0144928
provided taken 0.0144928
hath taken 0.0289855
omitted taken 0.0144928
alluring taken 0.0144928
offense taken 0.0144928
batter taken 0.0144928
screen taken 0.0144928
be taken 0.0144928
finished taken 0.0144928
london london 1.0000000
loading load 0.1250000
able load 0.1250000
burden load 0.1250000
groaned load 0.1250000
load load 0.5000000
conned misremembered 0.5000000
with misremembered 0.5000000
doth resents 0.3333333
bear resents 0.3333333
hard resents 0.3333333
agitation agitation 1.0000000
island dukedom 0.0714286
bare dukedom 0.0714286
got dukedom 0.0714286
bands dukedom 0.0714286
dukedom dukedom 0.6428571
this dukedom 0.0714286
delight joyfully 0.3333333
joyfully joyfully 0.3333333
with joyfully 0.3333333
disposition venice 0.0212766
calling venice 0.0212766
senate venice 0.0212766
all venice 0.0212766
venice venice 0.9148936
petticoats petticoats 0.4000000
very petticoats 0.2000000
them petticoats 0.2000000
catch petticoats 0.2000000
'd counted 0.2500000
prick counted 0.2500000
numbered counted 0.2500000
can counted 0.2500000
grizzled gray 0.2000000
gray gray 0.2000000
, gray 0.2000000
no gray 0.2000000
grey gray 0.2000000
masters experts 0.2000000
elder experts 0.2000000
some experts 0.2000000
by experts 0.2000000
reconcilement experts 0.2000000
dizzy inventor 0.5000000
inventorially inventor 0.5000000
conclusions conclusions 1.0000000
money supporters 0.5000000
gets supporters 0.5000000
made declared 0.4000000
have declared 0.2000000
proclaimed declared 0.2000000
known declared 0.2000000
our fast-moving 0.5000000
tott fast-moving 0.5000000
slander leis 1.0000000
blasting corn 1.0000000
could descend 0.5000000
descend descend 0.5000000
undone bankrupted 1.0000000
one clinging 0.1428571
cling clinging 0.1428571
samphire clinging 0.1428571
together clinging 0.1428571
that clinging 0.2857143
gathers clinging 0.1428571
setting settling 1.0000000
mi mi 1.0000000
unite unite 0.3333333
atone unite 0.3333333
together unite 0.3333333
gloves gloves 0.8000000
perfume gloves 0.2000000
here exercise 0.0769231
of exercise 0.0769231
me exercise 0.0769231
exercise exercise 0.1538462
s exercise 0.0769231
devout exercise 0.0769231
’ exercise 0.0769231
indeed exercise 0.0769231
day exercise 0.0769231
sport exercise 0.0769231
breathing exercise 0.0769231
with exercise 0.0769231
deform can 0.0009328
unlocked can 0.0009328
remembrance can 0.0018657
print can 0.0009328
see can 0.0121269
curing can 0.0009328
abode can 0.0018657
least can 0.0009328
makes can 0.0009328
overcome can 0.0009328
bringer can 0.0009328
give can 0.0009328
soothsayer can 0.0009328
what can 0.0018657
ll can 0.0055970
deny can 0.0009328
discovery can 0.0009328
paunch can 0.0009328
talkest can 0.0009328
vales can 0.0009328
pull can 0.0009328
tailor can 0.0009328
learn can 0.0009328
abilities can 0.0018657
expressing can 0.0009328
dinner can 0.0018657
true can 0.0009328
all can 0.0009328
razed can 0.0009328
is can 0.0111940
’ can 0.0093284
weather can 0.0009328
have can 0.0102612
will can 0.0205224
suspects can 0.0009328
lie can 0.0009328
supernatural can 0.0009328
afflict can 0.0009328
certainty can 0.0009328
forfeit can 0.0009328
revels can 0.0009328
art can 0.0018657
bold can 0.0009328
secret can 0.0009328
common can 0.0009328
's can 0.0009328
height can 0.0009328
can can 0.2490672
enmities can 0.0009328
ocular can 0.0009328
simplicity can 0.0009328
flight can 0.0009328
obtained can 0.0009328
comforted can 0.0009328
haste can 0.0018657
falsehood can 0.0009328
bully-monster can 0.0009328
practices can 0.0009328
thought can 0.0018657
lead can 0.0009328
remedy can 0.0027985
would can 0.0093284
understand can 0.0018657
succeeds can 0.0009328
can- can 0.0009328
compass can 0.0009328
might can 0.0037313
in can 0.0009328
malice can 0.0009328
quite can 0.0009328
perceive can 0.0018657
knows can 0.0009328
uttermost can 0.0027985
changeable can 0.0009328
may can 0.0998134
addition can 0.0009328
s can 0.0083955
bail can 0.0009328
feel can 0.0009328
sees can 0.0009328
thrice-blessed can 0.0009328
virtue can 0.0009328
affords can 0.0009328
otherwise can 0.0009328
: can 0.0009328
surgery can 0.0009328
assurance can 0.0009328
am can 0.0009328
get can 0.0009328
hates can 0.0009328
make can 0.0009328
legs can 0.0009328
answer can 0.0009328
sooth can 0.0009328
joys can 0.0009328
amend can 0.0009328
as can 0.0018657
desolate can 0.0009328
news can 0.0009328
why can 0.0009328
'erhear can 0.0009328
whisper can 0.0009328
know can 0.0055970
cannot can 0.1063433
dare can 0.0027985
not can 0.0009328
, can 0.0009328
milk can 0.0009328
dares can 0.0009328
shall can 0.0382463
rememb can 0.0009328
further can 0.0009328
furnish can 0.0009328
out can 0.0009328
pleasest can 0.0009328
sensible can 0.0009328
crafts can 0.0009328
high-sighted can 0.0009328
doubted can 0.0009328
covertly can 0.0009328
obey can 0.0009328
warranty can 0.0009328
must can 0.0111940
quarter can 0.0009328
do can 0.0083955
eunuch can 0.0009328
find can 0.0018657
pity can 0.0018657
afeard can 0.0009328
to can 0.0298507
whip can 0.0009328
kneeled can 0.0009328
enlarge can 0.0009328
reed can 0.0009328
able can 0.0009328
unmannerly can 0.0018657
effect can 0.0009328
shalt can 0.0037313
untangle can 0.0009328
stopped can 0.0009328
seest can 0.0018657
borrow can 0.0009328
now can 0.0027985
hearer can 0.0009328
scarf can 0.0009328
arrows can 0.0009328
canst can 0.0317164
enamelèd can 0.0009328
speak can 0.0027985
applaud can 0.0009328
light-foot can 0.0009328
advantage can 0.0009328
jest can 0.0009328
hear can 0.0027985
amends can 0.0018657
guilèd can 0.0009328
state can 0.0009328
attempt can 0.0018657
let can 0.0102612
wonder can 0.0009328
could can 0.0037313
read can 0.0009328
alter can 0.0009328
bagpipe can 0.0009328
failing can 0.0009328
fittest can 0.0009328
prevention can 0.0009328
authorities can 0.0009328
be can 0.0065299
honestly can 0.0009328
away can 0.0018657
jugglers can 0.0009328
borne can 0.0018657
remembering can 0.0009328
NULL can 0.0988806
needs can 0.0018657
merchant-marring can 0.0009328
place can 0.0009328
mayst can 0.0027985
are can 0.0027985
look can 0.0018657
disorder can 0.0009328
use can 0.0037313
cure can 0.0009328
long can 0.0009328
should can 0.0027985
bethink can 0.0009328
scarcely can 0.0009328
bald can 0.0009328
guess can 0.0018657
overborne can 0.0009328
hearing can 0.0018657
hath can 0.0009328
convenient can 0.0009328
hatch can 0.0009328
reply can 0.0009328
question can 0.0009328
troublous can 0.0009328
unparalleled can 0.0009328
retire can 0.0009328
nymphs nymphs 0.5714286
encounter nymphs 0.1428571
footing nymphs 0.1428571
naiads nymphs 0.1428571
men survivors 0.3333333
bring survivors 0.3333333
we survivors 0.3333333
way wait 0.0075188
waited wait 0.0075188
a wait 0.0075188
you wait 0.0225564
yet wait 0.0075188
laertes wait 0.0075188
— wait 0.0075188
, wait 0.0075188
soft wait 0.0977444
ho wait 0.0075188
leisures wait 0.0075188
pause wait 0.0150376
mark wait 0.0075188
bear wait 0.0075188
our wait 0.0075188
kiss wait 0.0075188
patient wait 0.0150376
peace wait 0.0075188
give wait 0.0075188
expect wait 0.0075188
stand wait 0.0150376
hours wait 0.0075188
awhile wait 0.0150376
thee wait 0.0150376
tarrying wait 0.0075188
hold wait 0.0225564
softly wait 0.0075188
walk wait 0.0075188
abide wait 0.0075188
hardly wait 0.0075188
but wait 0.0150376
with wait 0.0075188
reckoning wait 0.0075188
ophelia wait 0.0075188
NULL wait 0.0375940
tarry wait 0.0751880
temporize wait 0.0075188
frame wait 0.0075188
bide wait 0.0075188
good wait 0.0150376
patience wait 0.0075188
watch wait 0.0225564
will wait 0.0150376
long wait 0.0150376
exceed wait 0.0075188
attend wait 0.0601504
i wait 0.0075188
make wait 0.0150376
stay wait 0.1654135
there wait 0.0150376
now wait 0.0150376
wait wait 0.0751880
hot wait 0.0075188
over-credulous haste 0.2500000
speed haste 0.2500000
haste haste 0.2500000
rashness haste 0.2500000
swelling puffing 1.0000000
favor favor 0.1666667
favour favor 0.0277778
requite favor 0.0277778
NULL favor 0.0833333
hands favor 0.0277778
good favor 0.0555556
turn favor 0.0555556
at favor 0.0277778
christian favor 0.0277778
towards favor 0.0277778
courteous favor 0.0277778
loves favor 0.0277778
request favor 0.0555556
prefer favor 0.0277778
entreat favor 0.0277778
me favor 0.0277778
grace favor 0.0277778
bidding favor 0.0277778
favors favor 0.0277778
best favor 0.0277778
suit favor 0.1111111
tidings favor 0.0277778
boon favor 0.0277778
mockers mockers 1.0000000
miserable lovable 0.2500000
— lovable 0.2500000
but lovable 0.2500000
grace lovable 0.2500000
myrmidons warriors 0.3333333
warriors warriors 0.3333333
nervii warriors 0.3333333
pursy wealthy 0.1250000
hebrew wealthy 0.1250000
wealthy wealthy 0.6250000
sufficient wealthy 0.1250000
rocks merchant 0.1000000
come merchant 0.1000000
merchant merchant 0.8000000
cankers diseased 1.0000000
mallows thorn-bushes 0.2500000
docks thorn-bushes 0.2500000
or thorn-bushes 0.2500000
, thorn-bushes 0.2500000
a satisfying 0.3333333
gypsy satisfying 0.3333333
cool satisfying 0.3333333
alone address 0.5000000
dress address 0.5000000
once desdemona 0.0166667
lady desdemona 0.0333333
procure desdemona 0.0166667
NULL desdemona 0.0166667
: desdemona 0.0333333
wooed desdemona 0.0166667
wooing desdemona 0.0166667
riches desdemona 0.0166667
well desdemona 0.0166667
cyprus desdemona 0.0166667
virtuous desdemona 0.0333333
desdemon desdemona 0.0166667
desdemona desdemona 0.7500000
a fortune-teller 0.5000000
fortune-teller fortune-teller 0.5000000
lieutenant warden 0.5000000
keeper warden 0.5000000
sweet restful 0.2500000
drowsy restful 0.2500000
of restful 0.2500000
syrups restful 0.2500000
in considers 0.1428571
he considers 0.1428571
call considers 0.1428571
all considers 0.2857143
full considers 0.1428571
esteems considers 0.1428571
siege siege 0.6666667
see siege 0.3333333
admonishing reminder 1.0000000
cry complicate 1.0000000
a mild 0.1428571
NULL mild 0.0714286
my mild 0.0714286
mild mild 0.2142857
words mild 0.0714286
subtle mild 0.2857143
in mild 0.0714286
tender mild 0.0714286
leaves learns 0.1428571
it learns 0.1428571
him learns 0.1428571
of learns 0.1428571
knows learns 0.1428571
image learns 0.1428571
loves learns 0.1428571
smells smells 0.6000000
nimbly smells 0.2000000
freckles smells 0.2000000
improbable unrealistic 0.2500000
as unrealistic 0.2500000
fiction unrealistic 0.2500000
an unrealistic 0.2500000
most undeniable 0.5000000
certain undeniable 0.5000000
justly fair 0.0147059
fair fair 0.8235294
most fair 0.0147059
it fair 0.0147059
NULL fair 0.0294118
meet fair 0.0441176
pleases fair 0.0147059
indian fair 0.0147059
unjustly fair 0.0147059
just fair 0.0147059
oath oath 0.9032258
sworn oath 0.0322581
forsworn oath 0.0322581
deeply oath 0.0322581
at glazing 0.2000000
eight glazing 0.2000000
i glazing 0.2000000
set glazing 0.2000000
were glazing 0.2000000
the tragic 0.1428571
doth tragic 0.1428571
alas tragic 0.1428571
tragic tragic 0.1428571
tragedians tragic 0.1428571
day tragic 0.1428571
therein tragic 0.1428571
project project 1.0000000
burgundy ruler 0.2000000
rule ruler 0.4000000
governs ruler 0.2000000
president ruler 0.2000000
deprived deprived 0.5000000
are deprived 0.2500000
sense deprived 0.2500000
'd solemnized 0.5000000
solemniz solemnized 0.5000000
friendship advise 0.0625000
bid advise 0.0625000
in advise 0.0625000
do advise 0.0625000
entreat advise 0.0625000
should advise 0.0625000
counsel advise 0.4375000
advise advise 0.1250000
desire advise 0.0625000
blood cool 0.0909091
safer cool 0.0909091
begins cool 0.0909091
cool cool 0.4545455
guides cool 0.0909091
by cool 0.1818182
exhibition hats 0.1428571
coronets hats 0.1428571
put hats 0.1428571
hats hats 0.5714286
public streetwalker 0.5000000
commoner streetwalker 0.5000000
shares share 0.0500000
show share 0.0500000
NULL share 0.0500000
part share 0.0500000
place share 0.0500000
my share 0.1000000
commend share 0.0500000
note share 0.0500000
world-sharers share 0.0500000
whole share 0.0500000
dear share 0.0500000
share share 0.2500000
sicily share 0.0500000
but share 0.0500000
commune share 0.0500000
pioneers grunts 1.0000000
hour death-hour 0.3333333
's death-hour 0.3333333
death death-hour 0.3333333
good valiantly 0.2000000
did valiantly 0.2000000
welshmen valiantly 0.2000000
valiantly valiantly 0.2000000
service valiantly 0.2000000
humility option 0.2000000
for option 0.2000000
fittest option 0.2000000
end option 0.2000000
choose option 0.2000000
yourself hopeful 0.5000000
dressed hopeful 0.5000000
dishonored death 0.0050251
debt death 0.0050251
a death 0.0050251
judgement death 0.0050251
dying death 0.0050251
, death 0.0150754
instant death 0.0050251
reversed death 0.0050251
famished death 0.0050251
grind death 0.0050251
antony death 0.0050251
images death 0.0050251
head death 0.0050251
lease death 0.0050251
s death 0.0050251
proscription death 0.0100503
doom death 0.0100503
utterance death 0.0050251
starve death 0.0050251
one death 0.0100503
price death 0.0050251
fate death 0.0050251
felicity death 0.0050251
NULL death 0.0552764
fear death 0.0050251
condemnation death 0.0050251
die death 0.0050251
knell death 0.0150754
moiety death 0.0050251
dearly death 0.0050251
death death 0.7035176
dangers death 0.0050251
infants death 0.0050251
it death 0.0100503
briefest death 0.0050251
deadly death 0.0050251
blood death 0.0050251
single death 0.0050251
counterfeit death 0.0050251
talk death 0.0050251
journey death 0.0050251
slain death 0.0050251
tyrannous tyrannous 1.0000000
legacies legacies 1.0000000
courtiers courtiers 0.1111111
little courtiers 0.1111111
your courtiers 0.1111111
” courtiers 0.1111111
courtier courtiers 0.1111111
some courtiers 0.1111111
train courtiers 0.1111111
with courtiers 0.1111111
“ courtiers 0.1111111
meaner meaner 1.0000000
parrots parrots 1.0000000
trial proof 0.0285714
my proof 0.0285714
’ proof 0.0285714
to proof 0.0285714
in proof 0.0285714
say proof 0.0285714
imputation proof 0.0285714
i proof 0.0285714
this proof 0.0571429
relative proof 0.0285714
show proof 0.0285714
warrant proof 0.0285714
satisfied proof 0.0285714
can proof 0.0285714
ocular proof 0.0285714
lord proof 0.0285714
proof proof 0.3142857
prove proof 0.0285714
satisfaction proof 0.0571429
speedy proof 0.0285714
be proof 0.0285714
nothing proof 0.0285714
some proof 0.0285714
indirect indirect 1.0000000
feeds kindled 0.3333333
their kindled 0.3333333
fury kindled 0.3333333
disdainful inadequacy 0.3333333
such inadequacy 0.3333333
manner inadequacy 0.3333333
slanders lies 0.0192308
lies lies 0.6730769
errors lies 0.0192308
forgeries lies 0.0192308
NULL lies 0.0384615
false lies 0.0192308
gives lies 0.0192308
still lies 0.0192308
invention lies 0.0192308
traitors lies 0.0192308
savagery lies 0.0192308
wrong lies 0.0192308
reports lies 0.0192308
falsehood lies 0.0192308
lie lies 0.0576923
court flatter 0.1250000
dismayed flatter 0.1250000
be flatter 0.1250000
flattered flatter 0.1250000
flatter flatter 0.3750000
praise flatter 0.1250000
that enchanting 0.5000000
enchanting enchanting 0.5000000
funerals appropriate 0.0555556
appertain appropriate 0.0555556
sorting appropriate 0.0555556
a appropriate 0.1111111
otherwise appropriate 0.0555556
NULL appropriate 0.0555556
fittest appropriate 0.0555556
jest appropriate 0.0555556
that appropriate 0.0555556
fitter appropriate 0.0555556
fitting appropriate 0.0555556
good appropriate 0.0555556
better appropriate 0.0555556
belongs appropriate 0.0555556
proper appropriate 0.0555556
become appropriate 0.0555556
season appropriate 0.0555556
unlawful unlawful 1.0000000
rate rate 0.8000000
we rate 0.2000000
made gone 0.0096154
NULL gone 0.0384615
yet gone 0.0096154
range gone 0.0096154
is gone 0.0096154
avaunt gone 0.0096154
absent gone 0.0288462
gone gone 0.7019231
gap gone 0.0096154
from gone 0.0096154
long gone 0.0096154
great gone 0.0096154
hence gone 0.0096154
bald gone 0.0096154
out gone 0.0096154
mute gone 0.0096154
demean gone 0.0096154
perfume gone 0.0096154
torch gone 0.0096154
lunacy gone 0.0096154
flight gone 0.0096154
was gone 0.0096154
thereon gone 0.0096154
spirits gone 0.0096154
removed gone 0.0096154
grows gone 0.0096154
distract gone 0.0096154
lamentation lament 1.0000000
epicurism gluttons 0.5000000
more gluttons 0.5000000
gone invited 0.0833333
bid invited 0.0833333
forth invited 0.0833333
invited invited 0.4166667
he invited 0.0833333
do invited 0.0833333
hath invited 0.0833333
somewhere invited 0.0833333
single owned 0.2500000
fee-grief owned 0.2500000
some owned 0.2500000
owed owned 0.2500000
met ran 0.0344828
NULL ran 0.0344828
daughter ran 0.0344828
did ran 0.1034483
coursed ran 0.0344828
purpose ran 0.0344828
my ran 0.0689655
is ran 0.0344828
fled ran 0.2068966
flew ran 0.0344828
run ran 0.1724138
ran ran 0.1379310
started ran 0.0344828
o ran 0.0344828
make disciplined 0.2500000
lack disciplined 0.2500000
no disciplined 0.2500000
discipline disciplined 0.2500000
grapes grapes 0.3333333
NULL grapes 0.3333333
vine grapes 0.3333333
cinna cinna 0.9375000
NULL cinna 0.0625000
york yorks 1.0000000
made miserable 0.0769231
wretched miserable 0.1538462
tempest-tossed miserable 0.0769231
miserable miserable 0.3846154
s miserable 0.0769231
frustrate miserable 0.0769231
proud miserable 0.0769231
unhappy miserable 0.0769231
damned dammed 1.0000000
NULL crown 0.0677966
crowns crown 0.0169492
crown crown 0.7288136
that crown 0.0169492
perforce crown 0.0169492
there crown 0.0169492
right crown 0.0169492
top crown 0.0169492
verge crown 0.0169492
sovereignty crown 0.0508475
fortinbras crown 0.0169492
diadem crown 0.0169492
open-eyed open-eyed 1.0000000
cobweb cobweb 1.0000000
ionian ionian 0.5000000
cut ionian 0.5000000
whilst guest 0.0769231
she guest 0.0769231
NULL guest 0.1538462
guest guest 0.6153846
s guest 0.0769231
doth conditions 0.1428571
swear conditions 0.1428571
one conditions 0.1428571
injunctions conditions 0.1428571
as conditions 0.1428571
every conditions 0.1428571
conditions conditions 0.1428571
protection protection 0.0909091
friendship protection 0.0909091
universal protection 0.0909091
warrant protection 0.1818182
landlord protection 0.0909091
shade protection 0.0909091
's protection 0.0909091
sweet protection 0.0909091
shroud protection 0.0909091
' protection 0.0909091
bond penalty 0.1176471
forfeit penalty 0.1764706
forfeiture penalty 0.2941176
penalty penalty 0.2352941
judgement penalty 0.0588235
peril penalty 0.0588235
sooner penalty 0.0588235
recovery recover 0.0909091
yet recover 0.1818182
for recover 0.0909091
recover recover 0.5454545
quick recover 0.0909091
shame ashamed 0.2647059
would ashamed 0.0294118
ashamed ashamed 0.2647059
no ashamed 0.0294118
, ashamed 0.0294118
asham ashamed 0.0294118
'd ashamed 0.0294118
ashamèd ashamed 0.0294118
shamed ashamed 0.0294118
misgovernment ashamed 0.0294118
for ashamed 0.0294118
shamest ashamed 0.0294118
fie ashamed 0.0294118
blush ashamed 0.0882353
myself ashamed 0.0294118
touch ashamed 0.0294118
greater thunderclap 0.5000000
crack thunderclap 0.5000000
wi sink 0.0714286
power sink 0.0714286
' sink 0.1428571
bark sink 0.0714286
burial sink 0.0714286
th sink 0.0714286
sink sink 0.5000000
arbitrate outcome 0.2500000
NULL outcome 0.2500000
strokes outcome 0.2500000
issue outcome 0.2500000
hecate hecate 1.0000000
here disarm 0.1428571
disarm disarm 0.1428571
beauty disarm 0.1428571
again disarm 0.1428571
my disarm 0.1428571
unprovide disarm 0.1428571
mind disarm 0.1428571
struck striking 0.3333333
strik striking 0.3333333
striking striking 0.3333333
his reproach 1.0000000
sweating sweating 0.2000000
fall sweating 0.2000000
let sweating 0.2000000
thy sweating 0.2000000
lance sweating 0.2000000
education education 0.7500000
do education 0.2500000
valentine valentine 0.6666667
saint valentine 0.3333333
entertain employ 1.0000000
parting separating 1.0000000
good peter 0.0666667
peter peter 0.9333333
has barnardo 0.2500000
barnardo barnardo 0.7500000
NULL double-dealing 0.3333333
counsel double-dealing 0.3333333
double-dealing double-dealing 0.3333333
remembrances mementos 1.0000000
powder powder 1.0000000
'd hacked 0.2000000
hacked hacked 0.2000000
hack hacked 0.2000000
til hacked 0.2000000
’ hacked 0.2000000
harfleur harfleur 0.8571429
'ry harfleur 0.1428571
temperance temperance 0.4000000
should temperance 0.2000000
temper temperance 0.2000000
bellows temperance 0.2000000
throstle thrush 1.0000000
proclamation proclamation 1.0000000
thornbush thornbush 1.0000000
safest safest 1.0000000
know hear 0.0070671
partake hear 0.0035336
content hear 0.0035336
urine hear 0.0035336
hear hear 0.7243816
damnèd hear 0.0035336
mark hear 0.0070671
bear hear 0.0035336
him hear 0.0035336
music hear 0.0070671
prepared hear 0.0035336
perceive hear 0.0035336
this hear 0.0035336
glad hear 0.0035336
sorry hear 0.0035336
laughable hear 0.0035336
tend hear 0.0035336
fellow hear 0.0035336
heard hear 0.0247350
shrive hear 0.0070671
charmian hear 0.0035336
learn hear 0.0035336
embassy hear 0.0035336
hither hear 0.0035336
NULL hear 0.0742049
do hear 0.0035336
born hear 0.0035336
edgar hear 0.0035336
terribly hear 0.0035336
aloud hear 0.0035336
deafness hear 0.0035336
mourner hear 0.0035336
thrusting hear 0.0035336
distinguish hear 0.0035336
fame hear 0.0035336
hearing hear 0.0176678
shalt hear 0.0035336
suffer hear 0.0035336
dost hear 0.0070671
wake hear 0.0035336
apprehension hear 0.0035336
coming hear 0.0035336
ear hear 0.0070671
, signiory 0.5000000
signiory signiory 0.5000000
knots knots 1.0000000
hedges once-trimmed 1.0000000
joseph joseph 1.0000000
erring misguided 1.0000000
bird hops 1.0000000
hairs hairs 0.6666667
been hairs 0.1111111
which hairs 0.1111111
feu hairs 0.1111111
lead show 0.0225564
know show 0.0075188
laertes show 0.0075188
signify show 0.0075188
drollery show 0.0075188
sacrifice show 0.0075188
seen show 0.0075188
let show 0.0225564
keep show 0.0075188
render show 0.0075188
show show 0.5112782
boast show 0.0075188
prouder show 0.0075188
appear show 0.0150376
their show 0.0150376
be show 0.0075188
tell show 0.0075188
promise show 0.0075188
unkennel show 0.0075188
NULL show 0.0977444
do show 0.0075188
merciful show 0.0075188
ceres show 0.0075188
basis show 0.0075188
counterfeited show 0.0075188
will show 0.0075188
bring show 0.0150376
bloody show 0.0075188
much show 0.0075188
teach show 0.0075188
tardy show 0.0075188
bowstrings show 0.0075188
ostentation show 0.0075188
winged show 0.0075188
make show 0.0075188
it show 0.0225564
enforce show 0.0075188
go show 0.0075188
counterfeit show 0.0075188
then show 0.0225564
sport show 0.0150376
dallying show 0.0075188
depended depended 0.3333333
contain depended 0.3333333
life depended 0.3333333
fearfulness obedience 0.1250000
homage obedience 0.1250000
duty obedience 0.1250000
obedience obedience 0.6250000
the casts 0.1666667
doth casts 0.1666667
a casts 0.1666667
substance casts 0.1666667
noble casts 0.1666667
all casts 0.1666667
sober sobering 1.0000000
want lack 0.0588235
here lack 0.0588235
upon lack 0.0588235
sparks lack 0.0588235
forehead lack 0.0588235
leisure lack 0.0588235
my lack 0.0588235
children lack 0.0588235
vengeance lack 0.0588235
lack lack 0.2352941
such lack 0.0588235
mistrust lack 0.1176471
overtake lack 0.0588235
bids bids 0.5000000
ruined bids 0.2500000
this bids 0.2500000
you bridegroom 0.1428571
a bridegroom 0.1428571
say bridegroom 0.1428571
bridegroom bridegroom 0.4285714
wants bridegroom 0.1428571
offender offender 1.0000000
suitor petitioner 1.0000000
nave wheel 0.1666667
NULL wheel 0.1666667
fixed wheel 0.1666667
wheel wheel 0.5000000
wash wash 0.7500000
bathe wash 0.0625000
NULL wash 0.0625000
weather wash 0.0625000
clears wash 0.0625000
unworthy even 0.0024450
dignity even 0.0024450
if even 0.0097800
beats even 0.0024450
better even 0.0024450
herod even 0.0024450
mountains even 0.0024450
life even 0.0024450
e even 0.0048900
appear even 0.0024450
but even 0.0244499
though even 0.1295844
howsoever even 0.0024450
catching even 0.0024450
goodness even 0.0024450
bore even 0.0024450
void even 0.0024450
still even 0.0024450
pansa even 0.0024450
brutus even 0.0024450
sweeter even 0.0048900
have even 0.0024450
think even 0.0048900
thy even 0.0024450
estimable even 0.0024450
throw even 0.0073350
albeit even 0.0024450
erebus even 0.0024450
bandy even 0.0024450
career even 0.0024450
quake even 0.0024450
can even 0.0048900
thou even 0.0073350
fouler even 0.0024450
sport even 0.0048900
lead even 0.0024450
a even 0.0097800
heavier even 0.0024450
sermons even 0.0024450
lived even 0.0024450
merrier even 0.0024450
sebastian even 0.0024450
in even 0.0024450
mouse even 0.0024450
latter even 0.0024450
cause even 0.0024450
very even 0.0024450
denying even 0.0024450
addition even 0.0024450
bond even 0.0024450
dreamt even 0.0024450
sustaining even 0.0024450
robs even 0.0024450
worse even 0.0024450
convict even 0.0024450
cloy even 0.0024450
calling even 0.0024450
angry even 0.0024450
assurance even 0.0024450
sparing even 0.0024450
improper even 0.0024450
self-endeared even 0.0024450
amaze even 0.0024450
i even 0.0024450
five even 0.0024450
smiles even 0.0024450
assault even 0.0024450
blacker even 0.0048900
as even 0.0097800
inevitable even 0.0024450
chastised even 0.0024450
however even 0.0024450
know even 0.0073350
unscorch even 0.0024450
contents even 0.0024450
interpret even 0.0024450
, even 0.0513447
not even 0.0366748
that even 0.0073350
wast even 0.0048900
wondering even 0.0024450
happier even 0.0024450
fierce even 0.0024450
boast even 0.0024450
regard even 0.0024450
sweats even 0.0024450
sooner even 0.0024450
obey even 0.0024450
leave even 0.0024450
falls even 0.0024450
actions even 0.0024450
wonderful even 0.0024450
ethiope even 0.0024450
deign even 0.0024450
meet even 0.0024450
whipped even 0.0024450
maritime even 0.0024450
pluck even 0.0024450
her even 0.0024450
full-fraught even 0.0024450
enemies even 0.0024450
boar even 0.0024450
suffer even 0.0024450
now even 0.0024450
more even 0.0073350
the even 0.0220049
breed even 0.0024450
yet even 0.0195599
innocents even 0.0024450
need even 0.0048900
gross even 0.0024450
swear even 0.0024450
or even 0.0073350
'en even 0.0048900
went even 0.0024450
denial even 0.0024450
intelligence even 0.0024450
for even 0.0171149
vilely even 0.0024450
nay even 0.0073350
'erpast even 0.0024450
evened even 0.0024450
even even 0.1515892
NULL even 0.1564792
bootless even 0.0024450
jot even 0.0024450
corrupted even 0.0024450
scratch even 0.0024450
brow even 0.0024450
admitted even 0.0024450
tear even 0.0024450
should even 0.0024450
except even 0.0024450
edge even 0.0024450
had even 0.0024450
space even 0.0024450
puddle even 0.0024450
abuser abuser 1.0000000
'd dull-eyed 0.5000000
dull-ey dull-eyed 0.5000000
bellyful rumble 0.2500000
rumble rumble 0.2500000
great rumble 0.2500000
thy rumble 0.2500000
breathes breath 0.0250000
merriman breath 0.0250000
stirs breath 0.0250000
NULL breath 0.0750000
catching breath 0.0250000
breathed breath 0.0250000
being breath 0.0250000
bulk breath 0.0250000
wind breath 0.0250000
distraction breath 0.0250000
breath breath 0.6250000
exhale breath 0.0250000
but breath 0.0250000
gasp breath 0.0250000
marle marle 1.0000000
discharged immediately 0.0238095
NULL immediately 0.0714286
straightway immediately 0.0476190
time immediately 0.0238095
audience immediately 0.0238095
stays immediately 0.0238095
overthrow immediately 0.0238095
sacrifice immediately 0.0238095
expediently immediately 0.0238095
straight immediately 0.0238095
at immediately 0.0476190
immediately immediately 0.1904762
once immediately 0.0476190
it immediately 0.0238095
for immediately 0.0238095
instantly immediately 0.0952381
presently immediately 0.1190476
ready immediately 0.0238095
but immediately 0.0238095
present immediately 0.0714286
suddenly immediately 0.0238095
leading horsemen 0.3333333
peeps horsemen 0.3333333
horsemen horsemen 0.3333333
trinculos trinculos 1.0000000
our acceptance 0.2000000
pass acceptance 0.2000000
accept acceptance 0.2000000
peremptory acceptance 0.2000000
suddenly acceptance 0.2000000
breathes fresh 0.0344828
springs fresh 0.0344828
nuts fresh 0.0344828
reek fresh 0.0344828
fresh fresh 0.6551724
provoketh fresh 0.0344828
green fresh 0.0344828
gash fresh 0.0344828
reeking fresh 0.0344828
crisp fresh 0.0344828
best fresh 0.0344828
well condemn 0.1250000
done condemn 0.1250000
NULL condemn 0.1250000
have condemn 0.1250000
damn condemn 0.1250000
condemn condemn 0.1250000
afterwards condemn 0.1250000
found condemn 0.1250000
inclining involve 0.5000000
subdue involve 0.5000000
know figured 0.1428571
hand figured 0.1428571
at figured 0.1428571
but figured 0.1428571
not figured 0.1428571
hit figured 0.1428571
choose figured 0.1428571
gallops gallops 1.0000000
mason mason 1.0000000
attendant attendant 0.5000000
asses attendant 0.5000000
valorous bravest 1.0000000
woo gather 0.1000000
muster gather 0.1000000
up gather 0.1000000
levy gather 0.1000000
assemble gather 0.1000000
straight gather 0.1000000
him gather 0.1000000
collect gather 0.1000000
pluck gather 0.1000000
and gather 0.1000000
a crumb 0.3333333
as crumb 0.3333333
morsel crumb 0.3333333
eager nippy 0.2500000
air nippy 0.2500000
and nippy 0.2500000
an nippy 0.2500000
housewife housewife 1.0000000
bade begging 0.0588235
prithee begging 0.1176471
a begging 0.0588235
most begging 0.0588235
bootless begging 0.0588235
petitionary begging 0.0588235
prayers begging 0.0588235
vehemence begging 0.0588235
beseech begging 0.1764706
pray begging 0.0588235
giving begging 0.0588235
beggar begging 0.0588235
asked begging 0.0588235
with begging 0.0588235
gallant swinger 1.0000000
handling handling 1.0000000
enforce grievances 0.3333333
griefs grievances 0.3333333
stomaching grievances 0.3333333
wear wears 0.2727273
top wears 0.0909091
wears wears 0.3636364
yoked wears 0.0909091
wasp wears 0.0909091
is wears 0.0909091
iterance repeating 0.2000000
after repeating 0.2000000
needs repeating 0.2000000
echo repeating 0.2000000
this repeating 0.2000000
blows explode 0.5000000
this explode 0.5000000
rash thoughtless 1.0000000
juno jupiter 0.2500000
jupiter jupiter 0.7500000
rose rose 1.0000000
so rocks 0.0833333
chafes rocks 0.0833333
flints rocks 0.0833333
merchant-marring rocks 0.0833333
cannot rocks 0.0833333
idle rocks 0.0833333
high rocks 0.0833333
pebbles rocks 0.0833333
rocks rocks 0.1666667
heard rocks 0.0833333
be rocks 0.0833333
atone reconcile 0.6666667
reconcile reconcile 0.3333333
artless artless 1.0000000
stirring stirring 0.5000000
ardor stirring 0.5000000
peasant unwashed 1.0000000
pronounced roared 0.3333333
of roared 0.3333333
roared roared 0.3333333
boxtree hedge 0.5000000
hedge hedge 0.5000000
interpret supply 0.2000000
furnish supply 0.4000000
supply supply 0.2000000
see supply 0.2000000
possesses possesses 1.0000000
em em 0.4000000
NULL em 0.2000000
snatch em 0.2000000
up em 0.2000000
latest final 0.6666667
parle final 0.3333333
met adores 0.1000000
lies adores 0.1000000
for adores 0.1000000
that adores 0.1000000
well adores 0.1000000
prays adores 0.1000000
one adores 0.1000000
dearly adores 0.1000000
adores adores 0.2000000
nettle-seed sting 0.2000000
sting sting 0.6000000
stinging sting 0.2000000
leaders leaders 1.0000000
fond affectionate 0.3333333
over affectionate 0.3333333
iniquity affectionate 0.3333333
casement panel 1.0000000
queens queens 1.0000000
wonder surprise 0.1250000
marvel surprise 0.2500000
admiration surprise 0.1250000
up surprise 0.1250000
take surprise 0.1250000
though surprise 0.2500000
excess excess 0.5000000
: excess 0.5000000
marcus marcus 1.0000000
la la 0.6666667
without la 0.3333333
fleece fleece 0.6666667
fells fleece 0.3333333
given already 0.0096154
done already 0.0192308
cheerly already 0.0096154
burièd already 0.0096154
meditating already 0.0096154
come already 0.0096154
france already 0.0096154
employed already 0.0096154
cudgel already 0.0096154
in already 0.0096154
iron already 0.0096154
known already 0.0096154
offered already 0.0096154
prevents already 0.0096154
struck already 0.0096154
trim already 0.0096154
enter already 0.0096154
crow already 0.0096154
be already 0.0096154
love-springs already 0.0096154
embarked already 0.0096154
ready already 0.0096154
NULL already 0.1730769
plainness already 0.0096154
aboard already 0.0096154
confessed already 0.0096154
enkindled already 0.0096154
midnight already 0.0096154
tis already 0.0096154
hadst already 0.0096154
already already 0.4230769
long already 0.0096154
footed already 0.0096154
a-talking already 0.0096154
strucken already 0.0096154
dined already 0.0096154
under already 0.0096154
moved already 0.0288462
hath already 0.0096154
slain already 0.0096154
an already 0.0096154
'erpaid thanked 0.1428571
NULL thanked 0.1428571
thanked thanked 0.1428571
thank thanked 0.1428571
any thanked 0.1428571
o thanked 0.1428571
i thanked 0.1428571
in immortal 0.0555556
me immortal 0.0555556
longings immortal 0.0555556
thing immortal 0.0555556
immortal immortal 0.6666667
itself immortal 0.1111111
hush shhh 0.3333333
no shhh 0.3333333
more shhh 0.3333333
revengeful vengeful 0.3333333
not vengeful 0.3333333
murderers vengeful 0.3333333
here ghost 0.0312500
vision ghost 0.0312500
pin ghost 0.0312500
relative ghost 0.0312500
shadow ghost 0.0312500
NULL ghost 0.0625000
ghost ghost 0.3437500
a ghost 0.0312500
terms ghost 0.0312500
spirit ghost 0.2500000
is ghost 0.0312500
apparition ghost 0.0625000
compulsatory ghost 0.0312500
heap knowledge 0.1250000
intelligence knowledge 0.1250000
philosophy knowledge 0.1250000
deserving knowledge 0.1250000
knowledge knowledge 0.5000000
lena lena 0.6666667
speaks lena 0.3333333
lead danger 0.0434783
it danger 0.0434783
fear danger 0.0869565
NULL danger 0.0434783
— danger 0.0434783
lunacies danger 0.0434783
danger danger 0.4347826
wants danger 0.0434783
peril danger 0.0434783
means danger 0.0434783
controlment danger 0.0434783
hazard danger 0.0434783
lighted danger 0.0434783
colmekill colme 0.3333333
colme colme 0.6666667
sweaten dripped 0.5000000
's dripped 0.5000000
helm victory 0.0434783
NULL victory 0.0434783
victorious victory 0.0434783
where victory 0.0434783
on victory 0.1304348
sit victory 0.0434783
victory victory 0.3043478
triumph victory 0.0434783
sits victory 0.0434783
palm victory 0.0434783
have victory 0.0434783
loured victory 0.0434783
conquest victory 0.0434783
thy victory 0.0434783
life victory 0.0434783
ingraft second-in-command 0.2000000
second second-in-command 0.2000000
infirmity second-in-command 0.2000000
own second-in-command 0.2000000
an second-in-command 0.2000000
may cares 0.1000000
of cares 0.1000000
do cares 0.1000000
come cares 0.1000000
that cares 0.1000000
go cares 0.1000000
thee cares 0.1000000
maintains cares 0.1000000
' cares 0.1000000
adore cares 0.1000000
yours exchange 0.0714286
even exchange 0.0714286
NULL exchange 0.2142857
change exchange 0.2142857
me exchange 0.0714286
undeservers exchange 0.0714286
bequeath exchange 0.0714286
exchange exchange 0.1428571
frown exchange 0.0714286
offense insults 0.1666667
detract insults 0.1666667
dishonor insults 0.1666667
indignation insults 0.1666667
derision insults 0.1666667
injuries insults 0.1666667
saxony saxony 1.0000000
satisfaction square 0.3333333
make square 0.3333333
pulpit square 0.3333333
life-blood heavily 0.1666667
in heavily 0.1666667
measure heavily 0.1666667
great heavily 0.1666667
perfumèd heavily 0.1666667
stoutly heavily 0.1666667
good veteran 0.5000000
old veteran 0.5000000
a attractive 0.0588235
dwell attractive 0.0588235
what attractive 0.0588235
NULL attractive 0.0588235
do attractive 0.0588235
smiles attractive 0.0588235
my attractive 0.0588235
graces attractive 0.0588235
attractive attractive 0.0588235
nature attractive 0.0588235
gracious attractive 0.0588235
person attractive 0.0588235
dimension attractive 0.0588235
in attractive 0.1176471
become attractive 0.0588235
love attractive 0.0588235
luster gleam 1.0000000
triumph triumph 0.6923077
unto triumph 0.0769231
poland triumph 0.0769231
home triumph 0.1538462
dread revered 1.0000000
enfold arms 0.0400000
NULL arms 0.0800000
limbs arms 0.0800000
arms arms 0.7600000
lived arms 0.0400000
only full-scale 0.3333333
snatchers full-scale 0.3333333
coursing full-scale 0.3333333
lively reminds 0.2500000
does reminds 0.2500000
remember reminds 0.2500000
ditty reminds 0.2500000
blessedness blessedness 1.0000000
tubal synagogue 0.2500000
good synagogue 0.2500000
synagogue synagogue 0.5000000
caliban pile 0.2000000
them pile 0.2000000
pile pile 0.6000000
so envy 0.1428571
envy envy 0.2857143
his envy 0.1428571
with envy 0.1428571
envenom envy 0.1428571
knowing envy 0.1428571
shake doubts 0.1000000
scruples doubts 0.1000000
NULL doubts 0.1000000
doubts doubts 0.3000000
us doubts 0.1000000
doubt doubts 0.2000000
that doubts 0.1000000
lisbon lisbon 1.0000000
couch recline 0.5000000
do recline 0.5000000
it busily 0.3333333
most busily 0.3333333
busiest busily 0.3333333
doth astounds 0.5000000
amaze astounds 0.5000000
s surrendered 0.5000000
vassal surrendered 0.5000000
foix foix 1.0000000
show sees 0.0384615
NULL sees 0.0384615
shapes sees 0.0384615
danger sees 0.0384615
judgment sees 0.0384615
look sees 0.0384615
she sees 0.0384615
drowned sees 0.0384615
shall sees 0.0384615
then sees 0.0384615
doubly sees 0.0384615
his sees 0.0384615
sees sees 0.4230769
waking sees 0.0384615
eyes sees 0.0769231
foul unstable 0.5000000
vulcan unstable 0.5000000
virtue virtue 0.7428571
it virtue 0.0285714
blot virtue 0.0285714
in virtue 0.0285714
privilege virtue 0.0571429
my virtue 0.0571429
is virtue 0.0571429
hunts hunts 1.0000000
fuming debauchery 1.0000000
made deal 0.0666667
lady deal 0.0333333
affords deal 0.0333333
NULL deal 0.1000000
double-dealer deal 0.0333333
tis deal 0.0333333
gone deal 0.0333333
deal deal 0.1000000
bear deal 0.0666667
matter deal 0.0333333
in deal 0.0666667
business deal 0.0333333
bargain deal 0.1000000
it deal 0.0666667
match deal 0.0666667
changed deal 0.0333333
hand deal 0.0333333
faith deal 0.0333333
dealest deal 0.0333333
gospell gospel 0.5000000
gospels gospel 0.5000000
know personal 0.1250000
person personal 0.1250000
personal personal 0.3750000
stomaching personal 0.1250000
s personal 0.1250000
more personal 0.1250000
dighton dighton 1.0000000
compt disposal 0.5000000
highness disposal 0.5000000
commendable commendable 1.0000000
lordship lordship 0.6842105
our lordship 0.0526316
sovereignty lordship 0.0526316
accept lordship 0.0526316
please lordship 0.1052632
duty lordship 0.0526316
owner owner 0.1666667
parings owner 0.1666667
' owner 0.1666667
keeper owner 0.1666667
lord owner 0.1666667
o owner 0.1666667
exhibition subsidy 1.0000000
buds buds 1.0000000
smirch smudge 0.1666667
kind smudge 0.1666667
umber smudge 0.1666667
a smudge 0.1666667
of smudge 0.1666667
with smudge 0.1666667
obligation obligations 1.0000000
soundless soundless 1.0000000
erflows infatuation 0.5000000
o infatuation 0.5000000
songs seductive 0.1666667
me seductive 0.1666667
than seductive 0.1666667
timelier seductive 0.1666667
list seductive 0.1666667
called seductive 0.1666667
wart wart 1.0000000
orient pearl 0.1250000
he pearl 0.1250000
pearl pearl 0.5000000
union pearl 0.2500000
chopped chapped 1.0000000
coursers chargers 1.0000000
drunkard drunkard 0.7142857
dead drunkard 0.1428571
one drunkard 0.1428571
she dido 0.0625000
‘ dido 0.0625000
&ket; dido 0.0625000
dido dido 0.6250000
NULL dido 0.0625000
gonzalo dido 0.0625000
, dido 0.0625000
well beautifully 0.2500000
NULL beautifully 0.2500000
how beautifully 0.2500000
but beautifully 0.2500000
affection affections 0.5000000
affections affections 0.5000000
strangeness strangeness 1.0000000
anguish trauma 1.0000000
modern up-to-the-minute 1.0000000
had revolting 0.1111111
the revolting 0.1111111
he revolting 0.1111111
would revolting 0.1111111
world revolting 0.1111111
all revolting 0.1111111
but revolting 0.1111111
quite revolting 0.1111111
forsworn revolting 0.1111111
milch-kine milk 0.1250000
NULL milk 0.1250000
milk milk 0.7500000
hereafter hereafter 1.0000000
'd compelled 0.5000000
compell compelled 0.5000000
envenomed dipped 1.0000000
storm riled 0.2500000
heated riled 0.2500000
you riled 0.2500000
how riled 0.2500000
in earring 0.5000000
pearl earring 0.5000000
bedded ooze 1.0000000
kind nastily 0.2500000
yields nastily 0.2500000
answer nastily 0.2500000
never nastily 0.2500000
lady meantime 0.0454545
court meantime 0.0454545
s meantime 0.0454545
’ meantime 0.0454545
lodging meantime 0.0454545
vices meantime 0.0454545
while meantime 0.1363636
encounter meantime 0.0454545
meantime meantime 0.4090909
interim meantime 0.0909091
mine meantime 0.0454545
sweating sweaty 1.0000000
plenty feasting 0.1666667
good feasting 0.1666667
our feasting 0.1666667
cheer feasting 0.1666667
feasting feasting 0.3333333
in yellow 0.0909091
yellow yellow 0.8181818
saffron yellow 0.0909091
mender mender 0.5000000
cobbler mender 0.5000000
slips gambling 0.1666667
swoopstake gambling 0.1666667
dice gambling 0.1666667
but gambling 0.1666667
usual gambling 0.1666667
and gambling 0.1666667
adultery adultery 1.0000000
'st whenever 0.0357143
even whenever 0.0357143
NULL whenever 0.0714286
therefore whenever 0.0357143
leisure whenever 0.0714286
never whenever 0.0714286
kind whenever 0.0714286
patience whenever 0.0357143
at whenever 0.0714286
upon whenever 0.0357143
when whenever 0.2500000
soever whenever 0.0357143
st whenever 0.0357143
where whenever 0.0714286
by whenever 0.0357143
when- whenever 0.0357143
they exaggerate 0.0833333
a exaggerate 0.0833333
NULL exaggerate 0.0833333
are exaggerate 0.0833333
than exaggerate 0.0833333
varnish exaggerate 0.0833333
on exaggerate 0.0833333
double exaggerate 0.0833333
brutus exaggerate 0.0833333
makes exaggerate 0.0833333
greater exaggerate 0.0833333
set exaggerate 0.0833333
head hellish 0.5000000
hellish hellish 0.5000000
shame disrespect 1.0000000
act accomplishing 1.0000000
back b 1.0000000
it logic 0.0909091
syllogism logic 0.0909091
NULL logic 0.0909091
how logic 0.0909091
reason logic 0.0909091
chase logic 0.0909091
dost logic 0.0909091
will logic 0.0909091
thou logic 0.0909091
simple logic 0.0909091
fondly logic 0.0909091
breast breastplate 1.0000000
marquess dorset 0.2857143
dorset dorset 0.7142857
barren oops 0.2500000
now oops 0.2500000
marry oops 0.2500000
am oops 0.2500000
thus thought-out 1.0000000
tardy delay 0.0666667
NULL delay 0.0666667
delay delay 0.4666667
stay delay 0.0666667
by delay 0.0666667
'en delay 0.0666667
unwise delay 0.0666667
ta delay 0.0666667
more delay 0.0666667
twenty seconds 1.0000000
thee web 0.2000000
web web 0.4000000
about web 0.2000000
ensnareth web 0.2000000
in partly 0.0833333
partly partly 0.6666667
do partly 0.0833333
part partly 0.1666667
have enlarge 0.5000000
warranty enlarge 0.5000000
teaches teach 0.0303030
NULL teach 0.0606061
teacheth teach 0.0303030
teachest teach 0.0303030
counsel teach 0.0303030
teach teach 0.6666667
learn teach 0.0909091
break teach 0.0303030
lute teach 0.0303030
hornmaker horns 0.1111111
and horns 0.1111111
horn horns 0.1111111
horns horns 0.6666667
battles commanders 0.1111111
know commanders 0.1111111
heads commanders 0.1111111
many commanders 0.1111111
prepare commanders 0.1111111
commanders commanders 0.4444444
savors set 0.0163934
pawn set 0.0163934
NULL set 0.1147541
odorous set 0.0163934
not set 0.0163934
discharge set 0.0327869
gone set 0.0163934
let set 0.0163934
fire set 0.0163934
hoist set 0.0163934
much set 0.0163934
befits set 0.0163934
down set 0.0327869
this set 0.0327869
prize set 0.0163934
lawful set 0.0163934
prepare set 0.0163934
set set 0.4426230
make set 0.0327869
determined set 0.0163934
me set 0.0327869
doubts set 0.0163934
ducats set 0.0163934
afire set 0.0163934
rated berated 1.0000000
jig jig 1.0000000
arras tapestry 0.2500000
ducats tapestry 0.2500000
myself tapestry 0.2500000
tapestry tapestry 0.2500000
well-took job 0.0243902
done job 0.0243902
rarely job 0.0243902
NULL job 0.1219512
limited job 0.0243902
place job 0.0731707
employment job 0.0243902
t job 0.0487805
brakenbury job 0.0243902
enterprise job 0.0243902
it job 0.0243902
dispatch job 0.0243902
service job 0.0243902
affair job 0.0243902
office job 0.3658537
well job 0.0487805
ill job 0.0243902
talk job 0.0243902
was job 0.0243902
'd hawked 0.1666667
mousing hawked 0.1666667
hawk hawked 0.1666667
a hawked 0.1666667
owl hawked 0.1666667
by hawked 0.1666667
bow rainbow 0.6666667
heavenly rainbow 0.3333333
boar boar 0.8333333
did boar 0.1666667
holy pious 0.2500000
pious pious 0.5000000
gospeled pious 0.2500000
out stained 0.0666667
purpled stained 0.0666667
NULL stained 0.0666667
blotted stained 0.0666667
stain stained 0.1333333
s stained 0.0666667
can stained 0.0666667
’ stained 0.0666667
'd stained 0.0666667
blot stained 0.0666667
hero stained 0.1333333
stained stained 0.0666667
itself stained 0.0666667
so leader 0.1428571
sword leader 0.1428571
leader leader 0.1428571
unswayed leader 0.1428571
majesty leader 0.1428571
s leader 0.1428571
’ leader 0.1428571
seen met 0.0714286
saw met 0.0357143
trencher met 0.0357143
met met 0.6785714
meet met 0.0357143
that met 0.0357143
more met 0.0357143
found met 0.0714286
traduced double-crossed 1.0000000
tooth tooth 1.0000000
hairs white 0.0476190
white white 0.8095238
NULL white 0.0952381
flaxen white 0.0476190
NULL capture 0.1428571
taken capture 0.1428571
taking capture 0.1428571
entrap capture 0.1428571
fetch capture 0.1428571
take capture 0.1428571
achieve capture 0.1428571
they wonder 0.0322581
peseech wonder 0.0322581
marvel wonder 0.0967742
contemplation wonder 0.0322581
can wonder 0.0322581
pause wonder 0.0322581
jove wonder 0.0322581
wonder wonder 0.6129032
think wonder 0.0322581
; wonder 0.0322581
though wonder 0.0322581
counterfeit representation 0.5000000
presentment representation 0.5000000
persuasion urgings 1.0000000
NULL saint 0.0588235
saint saint 0.9411765
of susceptible 0.3333333
in susceptible 0.3333333
imminent susceptible 0.3333333
abhorring disgusting 0.0500000
NULL disgusting 0.0500000
foul disgusting 0.1500000
name disgusting 0.0500000
my disgusting 0.0500000
gross disgusting 0.2000000
s disgusting 0.0500000
’ disgusting 0.0500000
pish disgusting 0.0500000
kind disgusting 0.0500000
toads disgusting 0.0500000
fie disgusting 0.0500000
macbeth disgusting 0.0500000
abhorrèd disgusting 0.0500000
fault disgusting 0.0500000
sides torso 1.0000000
doth frowns 0.1000000
frowns frowns 0.4000000
checks frowns 0.1000000
skill frowns 0.1000000
— frowns 0.1000000
frown frowns 0.1000000
! frowns 0.1000000
from invented 0.5000000
fire-new invented 0.5000000
violet violet 1.0000000
walk gracefully 0.5000000
featly gracefully 0.5000000
obedient disobedient 0.2500000
as disobedient 0.2500000
not disobedient 0.2500000
beldams disobedient 0.2500000
'd unwatched 0.3333333
unwatch unwatched 0.3333333
go unwatched 0.3333333
betrothed betrothed 0.3333333
substitute betrothed 0.3333333
by betrothed 0.3333333
thane cawdor 0.0476190
NULL cawdor 0.0476190
it cawdor 0.0952381
cawdor cawdor 0.7142857
very cawdor 0.0476190
him cawdor 0.0476190
NULL dared 0.1250000
dared dared 0.1250000
tempted dared 0.2500000
durst dared 0.5000000
reckoning duel 0.0625000
desert duel 0.0625000
it duel 0.0625000
a duel 0.0625000
NULL duel 0.0625000
for duel 0.0625000
withdraw duel 0.0625000
orchard duel 0.0625000
young duel 0.0625000
end duel 0.0625000
satisfaction duel 0.0625000
challenge duel 0.1250000
challenged duel 0.0625000
call duel 0.0625000
field duel 0.0625000
bats bats 1.0000000
anticipatest anticipate 1.0000000
visitor visitor 1.0000000
freeman freeman 1.0000000
me doll 0.2500000
baby doll 0.5000000
protest doll 0.2500000
brow brow 0.5000000
brows brow 0.2500000
looks brow 0.2500000
aleppo aleppo 1.0000000
revels parties 0.2500000
pomp parties 0.2500000
masques parties 0.2500000
guests parties 0.2500000
exploits deeds 0.0476190
NULL deeds 0.0476190
relate deeds 0.0476190
quake deeds 0.0476190
play deeds 0.0476190
exercise deeds 0.0476190
all deeds 0.0476190
feats deeds 0.0476190
deeds deeds 0.5238095
calumnious deeds 0.0476190
mischiefs deeds 0.0476190
'd dragged 0.2000000
dragg dragged 0.2000000
rather dragged 0.2000000
drawn dragged 0.2000000
hath dragged 0.2000000
taunting taunting 0.1666667
mock taunting 0.1666667
very taunting 0.1666667
thou taunting 0.1666667
st taunting 0.1666667
’ taunting 0.1666667
swoons sight 0.0166667
NULL sight 0.0500000
ill-favoredly sight 0.0166667
lurk sight 0.0166667
late sight 0.0166667
apparition sight 0.0166667
face sight 0.0166667
hose sight 0.0166667
from sight 0.0166667
thy sight 0.0166667
hence sight 0.0166667
sight sight 0.6500000
avoid sight 0.0166667
spectacle sight 0.0166667
hatred sight 0.0166667
eye sight 0.0500000
sense sight 0.0166667
vanish sight 0.0166667
religion religion 0.3333333
sanctimony religion 0.3333333
if religion 0.3333333
most outrageous 0.2500000
monster outrageous 0.2500000
tyrannically outrageous 0.2500000
lewd outrageous 0.2500000
gallant gentleman 0.0140845
seigneur gentleman 0.0140845
gentleman gentleman 0.8028169
NULL gentleman 0.0281690
counseled gentleman 0.0140845
books gentleman 0.0140845
gallants gentleman 0.0140845
lord gentleman 0.0140845
gently gentleman 0.0140845
gen- gentleman 0.0281690
qualities gentleman 0.0140845
sir gentleman 0.0140845
spoken gentleman 0.0140845
deserved protected 0.1428571
ensheltered protected 0.1428571
it protected 0.2857143
walled protected 0.1428571
nor protected 0.1428571
claimed protected 0.1428571
tardy lateness 0.3333333
come lateness 0.3333333
off lateness 0.3333333
yoke oppression 0.1428571
the oppression 0.1428571
country oppression 0.1428571
our oppression 0.1428571
beneath oppression 0.1428571
sinks oppression 0.1428571
sufferance oppression 0.1428571
lack misses 0.2500000
shall misses 0.2500000
mistake misses 0.2500000
totally misses 0.2500000
so perfect 0.0909091
very perfect 0.0454545
perfectest perfect 0.0454545
for perfect 0.0454545
form perfect 0.0454545
all perfect 0.0454545
fullness perfect 0.0454545
matching perfect 0.0454545
perfect perfect 0.3181818
gods perfect 0.0454545
peerless perfect 0.0454545
rehearsal perfect 0.0454545
stillness perfect 0.0454545
perfection perfect 0.0909091
cobble mend 0.1666667
mend mend 0.8333333
threaden driven 0.0714286
made driven 0.0714286
draw driven 0.0714286
thence driven 0.0714286
moved driven 0.0714286
, driven 0.0714286
turned driven 0.0714286
rebuked driven 0.0714286
from driven 0.0714286
beat driven 0.1428571
came driven 0.0714286
driven driven 0.0714286
droven driven 0.0714286
chambers bedrooms 0.2000000
hand bedrooms 0.2000000
at bedrooms 0.2000000
that bedrooms 0.2000000
near bedrooms 0.2000000
unworthy unworthy 0.1666667
unworthiness unworthy 0.1666667
undeservers unworthy 0.1666667
NULL unworthy 0.1666667
mine unworthy 0.1666667
worthless unworthy 0.1666667
birth birth 0.1153846
whelpèd birth 0.0384615
a birth 0.0384615
NULL birth 0.1538462
born birth 0.1923077
breeding birth 0.0384615
burden birth 0.0384615
gender birth 0.0384615
agony birth 0.0384615
shambles birth 0.0384615
stars birth 0.0384615
rounded birth 0.0384615
transmutation birth 0.0384615
breeder birth 0.0384615
blood birth 0.0384615
minute birth 0.0384615
be birth 0.0384615
heaviness heaviness 1.0000000
cinquepace illusion 0.2000000
a illusion 0.2000000
dream illusion 0.2000000
illusion illusion 0.2000000
proud illusion 0.2000000
contracted both 0.0065789
tripped both 0.0065789
woo both 0.0065789
majesties both 0.0065789
messenger both 0.0065789
NULL both 0.0921053
: both 0.0065789
both both 0.7302632
two both 0.0131579
gone both 0.0065789
matter both 0.0131579
eaten both 0.0065789
knaves both 0.0065789
jointly both 0.0065789
article both 0.0065789
revenged both 0.0065789
give both 0.0065789
ambles both 0.0065789
yourselves both 0.0131579
covenants both 0.0065789
re both 0.0065789
sure both 0.0131579
graces both 0.0065789
but both 0.0065789
crab both 0.0065789
him signor 0.0714286
signor signor 0.5000000
signior signor 0.3571429
commends signor 0.0714286
flung flew 1.0000000
swain farmworker 1.0000000
make vices 0.1666667
vices vices 0.3333333
in vices 0.1666667
instruments vices 0.1666667
viciousness vices 0.1666667
you sailor 0.1250000
now sailor 0.1250000
sailor sailor 0.3750000
have sailor 0.1250000
no sailor 0.1250000
sea-cap sailor 0.1250000
digt dug 1.0000000
oyster oyster 1.0000000
varlet shameless 0.5000000
brazen-faced shameless 0.5000000
beguile cheated 0.0625000
false cheated 0.1250000
cheated cheated 0.0625000
turned cheated 0.0625000
slaughter cheated 0.0625000
unscarred cheated 0.0625000
'erraught cheated 0.0625000
bleeding cheated 0.0625000
folly cheated 0.0625000
was cheated 0.0625000
side cheated 0.0625000
seamy cheated 0.0625000
myself cheated 0.0625000
fopped cheated 0.0625000
o cheated 0.0625000
so graft 0.5000000
inoculate graft 0.5000000
proculeius proculeius 1.0000000
wassails hedonism 0.5000000
lascivious hedonism 0.5000000
pharsalia pharsalia 1.0000000
fellow spouse 1.0000000
general general-honest 0.5000000
honest general-honest 0.5000000
let harassed 0.3333333
us harassed 0.3333333
worried harassed 0.3333333
morocco morocco 1.0000000
mainly mainly 1.0000000
'd toiled 0.2000000
unbreathed toiled 0.2000000
toil toiled 0.2000000
with toiled 0.2000000
memories toiled 0.2000000
deep banquo 0.0243902
flight banquo 0.0243902
stick banquo 0.0243902
banquo banquo 0.8536585
reigns banquo 0.0243902
feared banquo 0.0243902
nature banquo 0.0243902
or anytime 0.2000000
now anytime 0.2000000
provided anytime 0.2000000
whensoever anytime 0.2000000
ready anytime 0.2000000
did plotted 0.6666667
plot plotted 0.3333333
NULL drinking 0.1176471
unfilled drinking 0.0588235
s drinking 0.1176471
potting drinking 0.0588235
our drinking 0.1176471
throats drinking 0.0588235
used drinking 0.0588235
pledge drinking 0.0588235
drinking drinking 0.2941176
drink drinking 0.0588235
would dangers 0.1250000
into dangers 0.1250000
perils dangers 0.1250000
dangers dangers 0.6250000
fourteen regular 0.3333333
blushing regular 0.3333333
that regular 0.3333333
wanton erotic 1.0000000
artemidorus artemidorus 1.0000000
pelleted pellet 1.0000000
take takethe 1.0000000
hour relief 0.2000000
relief relief 0.2000000
physic relief 0.2000000
therein relief 0.2000000
felicity relief 0.2000000
wet wet 0.3333333
in wet 0.1666667
bedabbled wet 0.1666667
woe wet 0.1666667
wetting wet 0.1666667
on twisted 0.2500000
made twisted 0.2500000
waved twisted 0.2500000
is twisted 0.2500000
vincentio world-traveled 1.0000000
to signals 0.2000000
us signals 0.2000000
astonish signals 0.2000000
heralds signals 0.2000000
dreadful signals 0.2000000
yes no 0.0008368
swoons no 0.0008368
these no 0.0008368
unbound no 0.0008368
greener no 0.0008368
damnable no 0.0008368
you no 0.0025105
cannot no 0.0008368
come no 0.0008368
flatter no 0.0016736
not no 0.0267782
that no 0.0025105
nobody no 0.0016736
whatever no 0.0008368
heavy no 0.0008368
on no 0.0008368
madonna no 0.0008368
gone no 0.0008368
longer no 0.0016736
extravagancy no 0.0008368
slept no 0.0008368
veins no 0.0008368
years no 0.0008368
race no 0.0008368
day no 0.0008368
anchoring no 0.0008368
peace no 0.0008368
lost no 0.0025105
chill no 0.0008368
out no 0.0033473
regard no 0.0008368
strained no 0.0008368
deny no 0.0033473
honored no 0.0008368
grief no 0.0008368
appear no 0.0008368
pacified no 0.0008368
impossible no 0.0008368
celerity no 0.0008368
betide no 0.0008368
love no 0.0008368
faith no 0.0025105
but no 0.0025105
too no 0.0008368
none no 0.0259414
stir no 0.0008368
perforce no 0.0008368
velvet no 0.0008368
guiltiness no 0.0008368
indeed no 0.0008368
men no 0.0008368
oh no 0.0025105
nor no 0.0117155
thy no 0.0008368
neither no 0.0016736
barefaced no 0.0008368
master no 0.0008368
it no 0.0025105
sure no 0.0008368
saying no 0.0008368
's no 0.0008368
stopped no 0.0008368
man no 0.0008368
unfellowed no 0.0008368
little no 0.0008368
truly no 0.0008368
non no 0.0008368
more no 0.0016736
horrible no 0.0008368
false no 0.0016736
a no 0.0075314
howso no 0.0008368
no no 0.5849372
natural no 0.0008368
inferior no 0.0008368
mong no 0.0008368
let no 0.0008368
in no 0.0033473
blank no 0.0008368
suspicion no 0.0008368
cause no 0.0016736
remorse no 0.0008368
this no 0.0008368
madam no 0.0016736
alas no 0.0050209
for no 0.0016736
permission no 0.0008368
meant no 0.0008368
me no 0.0041841
protest no 0.0008368
nay no 0.1129707
rather no 0.0016736
lover no 0.0008368
advancement no 0.0008368
teeth no 0.0008368
provokèd no 0.0008368
wailed no 0.0008368
unhappy no 0.0008368
chapless no 0.0008368
NULL no 0.0694561
jot no 0.0008368
surgery no 0.0008368
never no 0.0058577
believed no 0.0008368
rebels no 0.0008368
soldiership no 0.0008368
beauty no 0.0008368
at no 0.0025105
cease no 0.0008368
i no 0.0066946
undone no 0.0008368
first no 0.0008368
conqueror no 0.0008368
understands no 0.0008368
legitimate no 0.0008368
doubt no 0.0066946
play no 0.0008368
shallow no 0.0008368
sans no 0.0008368
there no 0.0025105
launcelot no 0.0008368
controlment no 0.0008368
hand no 0.0008368
falstaff no 0.0008368
why no 0.0016736
nothing no 0.0025105
nonpareil no 0.0008368
'm no 0.0008368
o no 0.0016736
dismay anxious 0.1111111
fain anxious 0.1111111
have anxious 0.1111111
been anxious 0.1111111
be anxious 0.1111111
much anxious 0.1111111
careful anxious 0.1111111
hotly anxious 0.1111111
called anxious 0.1111111
seasons mixes 1.0000000
agincourt agincourt 0.4000000
they agincourt 0.2000000
it agincourt 0.2000000
call agincourt 0.2000000
accommodation accommodation 1.0000000
your dumps 0.5000000
dumps dumps 0.5000000
gnats gnats 0.5000000
degrees gnats 0.5000000
overmastered lorded 1.0000000
the self-delusions 0.1428571
initiate self-delusions 0.1428571
fear self-delusions 0.1428571
that self-delusions 0.1428571
is self-delusions 0.1428571
self-abuse self-delusions 0.1428571
and self-delusions 0.1428571
question object 0.1250000
make object 0.1250000
object object 0.3750000
annexment object 0.1250000
are object 0.1250000
poisons object 0.1250000
the shedding 0.2000000
till shedding 0.2000000
bathe shedding 0.2000000
legerity shedding 0.2000000
'errun shedding 0.2000000
invent invent 1.0000000
tweaks pinch 0.1000000
over-red pinch 0.1000000
pinch pinch 0.5000000
me pinch 0.1000000
unwrung pinch 0.1000000
by pinch 0.1000000
tyrannically tyrannically 0.5000000
clapped tyrannically 0.5000000
woe woe 1.0000000
marching marching 1.0000000
beauties beauties 1.0000000
gentles gentles 1.0000000
salisbury salisbury 1.0000000
persuaded dissuade 0.2500000
so dissuade 0.2500000
have dissuade 0.2500000
mightily dissuade 0.2500000
chastisement go 0.0009001
forth go 0.0081008
wend go 0.0009001
requisites go 0.0009001
dwell go 0.0009001
you go 0.0306031
fly go 0.0027003
come go 0.0144014
prayers go 0.0009001
see go 0.0081008
broached go 0.0009001
hogs go 0.0009001
ireland go 0.0009001
fairs go 0.0009001
suits go 0.0009001
keep go 0.0009001
business go 0.0009001
slomber go 0.0009001
serve go 0.0009001
extend go 0.0009001
weep go 0.0009001
pronounce go 0.0009001
ll go 0.0054005
them go 0.0027003
bite go 0.0009001
savage go 0.0009001
aroint go 0.0018002
borders go 0.0009001
nunnery go 0.0009001
spade go 0.0009001
again go 0.0009001
commanded go 0.0009001
and go 0.0018002
rest go 0.0018002
stir go 0.0027003
descend go 0.0009001
will go 0.0027003
unsafe go 0.0009001
dismiss go 0.0009001
press go 0.0009001
thy go 0.0009001
tune go 0.0009001
orderly go 0.0009001
pass go 0.0009001
revels go 0.0009001
said go 0.0009001
going go 0.0027003
transform go 0.0009001
part go 0.0018002
wander go 0.0009001
whistle go 0.0009001
persever go 0.0009001
sauce go 0.0018002
wait go 0.0009001
haste go 0.0009001
fret go 0.0009001
forsworn go 0.0009001
privilegio go 0.0009001
vanish go 0.0009001
way go 0.0018002
assume go 0.0009001
circumvent go 0.0009001
relief go 0.0009001
pay go 0.0009001
— go 0.0027003
depart go 0.0009001
off go 0.0009001
soft go 0.0009001
wildcat go 0.0009001
contriving go 0.0009001
got go 0.0009001
in go 0.0018002
fetch go 0.0081008
perish go 0.0009001
stand go 0.0009001
toward go 0.0018002
ask go 0.0009001
caelius go 0.0009001
s go 0.0018002
c go 0.0009001
unwatch go 0.0009001
pack go 0.0009001
quickly go 0.0009001
cast go 0.0009001
resurvey go 0.0009001
withdraw go 0.0054005
hit go 0.0009001
mad go 0.0027003
after go 0.0081008
run go 0.0036004
begone go 0.0036004
am go 0.0009001
us go 0.0009001
get go 0.0270027
attend go 0.0018002
hence go 0.0135014
i go 0.0090009
farther go 0.0009001
conduct go 0.0009001
goest go 0.0009001
quiet go 0.0009001
unfold go 0.0009001
crowner go 0.0009001
heart go 0.0009001
sue go 0.0009001
minstrels go 0.0009001
back go 0.0054005
go go 0.3825383
there go 0.0009001
well go 0.0027003
everyone go 0.0009001
cullions go 0.0009001
woo go 0.0009001
forward go 0.0027003
along go 0.0018002
, go 0.0135014
not go 0.0009001
grow go 0.0009001
take go 0.0009001
gate go 0.0009001
on go 0.0045005
gone go 0.0117012
mark go 0.0009001
slept go 0.0009001
gently go 0.0009001
further go 0.0027003
break go 0.0009001
departure go 0.0009001
greek go 0.0009001
thee go 0.0063006
brier go 0.0009001
madness go 0.0018002
uncle go 0.0009001
adriana go 0.0009001
walk go 0.0018002
budge go 0.0018002
obey go 0.0018002
fished go 0.0009001
i. go 0.0009001
with go 0.0009001
leave go 0.0045005
here go 0.0009001
must go 0.0099010
visit go 0.0018002
meet go 0.0009001
goes go 0.0036004
do go 0.0054005
into go 0.0009001
avaunt go 0.0027003
good go 0.0009001
to go 0.0252025
incontinently go 0.0009001
oh go 0.0009001
from go 0.0009001
towards go 0.0009001
motion go 0.0009001
kneeled go 0.0009001
home go 0.0045005
set go 0.0018002
complain go 0.0009001
cabin go 0.0009001
repair go 0.0018002
&amp; go 0.0009001
comfort go 0.0009001
females go 0.0009001
pursue go 0.0009001
ones go 0.0009001
thither go 0.0045005
heigh go 0.0009001
little go 0.0009001
wake go 0.0009001
now go 0.0009001
proceed go 0.0072007
then go 0.0018002
unhand go 0.0009001
traverse go 0.0009001
bed go 0.0027003
speak go 0.0009001
beseech go 0.0018002
went go 0.0018002
about go 0.0027003
th go 0.0009001
this go 0.0018002
t go 0.0009001
lay go 0.0009001
swim go 0.0009001
slaves go 0.0009001
sojourn go 0.0009001
whither go 0.0009001
enter go 0.0054005
near go 0.0009001
abed go 0.0009001
ways go 0.0009001
nay go 0.0009001
miss go 0.0009001
be go 0.0126013
away go 0.0405041
NULL go 0.0720072
needs go 0.0027003
hasten go 0.0009001
therefore go 0.0036004
up go 0.0018002
amp go 0.0009001
look go 0.0009001
use go 0.0009001
been go 0.0009001
bring go 0.0018002
say go 0.0027003
counsel go 0.0009001
call go 0.0009001
fust go 0.0009001
saved go 0.0009001
hunt go 0.0018002
billeted go 0.0009001
moveables go 0.0009001
return go 0.0054005
question go 0.0009001
prevailed go 0.0009001
speedy go 0.0018002
retire go 0.0018002
air go 0.0009001
decius go 0.0009001
somewhere go 0.0009001
sleep go 0.0018002
seek go 0.0027003
wrong unaware 0.1428571
knowledge unaware 0.1428571
imaginations unaware 0.1428571
woes unaware 0.1428571
up unaware 0.1428571
lose unaware 0.1428571
by unaware 0.1428571
given toasts 0.1000000
NULL toasts 0.1000000
tis toasts 0.1000000
vouch toasts 0.1000000
healths toasts 0.1000000
'd toasts 0.1000000
with toasts 0.2000000
drinking toasts 0.1000000
welcome toasts 0.1000000
most brilliant 0.1666667
gull-catcher brilliant 0.1666667
exquisite brilliant 0.3333333
my brilliant 0.3333333
crowner coroner 0.2222222
's coroner 0.1111111
on coroner 0.1111111
let coroner 0.1111111
sat coroner 0.1111111
' coroner 0.1111111
; coroner 0.1111111
her coroner 0.1111111
chink chink 1.0000000
dish dish 0.8000000
again dish 0.2000000
well tree 0.0416667
tree tree 0.6666667
may tree 0.0416667
verse tree 0.0416667
pine tree 0.0833333
oak tree 0.0833333
cessez tree 0.0416667
NULL emperor 0.0625000
emperor emperor 0.6250000
imperious emperor 0.1250000
continues emperor 0.0625000
leather emperor 0.0625000
s emperor 0.0625000
good third 0.0454545
snaffle third 0.0454545
tertio third 0.0454545
part third 0.0909091
third third 0.6818182
play third 0.0454545
is third 0.0454545
to superseded 0.1666667
way superseded 0.1666667
may superseded 0.1666667
give superseded 0.1666667
enmities superseded 0.1666667
lesser superseded 0.1666667
baseness forgery 1.0000000
right profound 1.0000000
out imperfections 0.1428571
piece imperfections 0.1428571
ill-well imperfections 0.1428571
imperfections imperfections 0.1428571
him imperfections 0.1428571
unless imperfections 0.1428571
with imperfections 0.1428571
bedfellows folks 0.3333333
quick-witted folks 0.3333333
folks folks 0.3333333
govern govern 0.3333333
NULL govern 0.1666667
in govern 0.1666667
nonage govern 0.1666667
rules govern 0.1666667
'd defy 0.1428571
defy defy 0.1428571
mock defy 0.1428571
fear defy 0.1428571
drugg defy 0.1428571
brave defy 0.1428571
her defy 0.1428571
faithless faithless 1.0000000
pursuit route 0.1428571
way route 0.1428571
from route 0.1428571
hide route 0.1428571
shorter route 0.1428571
us route 0.1428571
safest route 0.1428571
the disease 0.1034483
upon disease 0.0344828
NULL disease 0.0344828
ague disease 0.0344828
which disease 0.0344828
up disease 0.0344828
that disease 0.0344828
s disease 0.0689655
disease disease 0.3448276
’ disease 0.0689655
pestilence disease 0.0344828
thee disease 0.0344828
imminent disease 0.0344828
dropsy disease 0.0344828
contagion disease 0.0344828
plague disease 0.0344828
pinched tortures 0.3333333
death tortures 0.3333333
torture tortures 0.3333333
cobbler cobbler 1.0000000
blastments shriveling 0.5000000
are shriveling 0.5000000
bellyful thunder 0.0769231
thunders thunder 0.0769231
thunder thunder 0.8461538
stolen stole 0.0454545
hast stole 0.0454545
pay stole 0.0454545
not stole 0.0454545
hath stole 0.0454545
took stole 0.0909091
steal stole 0.0454545
dear stole 0.0454545
got stole 0.0454545
lapsèd stole 0.0454545
in stole 0.0909091
myself stole 0.0454545
usurp stole 0.0909091
stole stole 0.1363636
this stole 0.0454545
didst stole 0.0454545
usurped stole 0.0454545
so accused 0.0909091
upon accused 0.0909091
wronged accused 0.0909091
accused accused 0.1818182
belied accused 0.0909091
are accused 0.1818182
bewhored accused 0.0909091
falsely accused 0.0909091
cause accused 0.0909091
wonderful unbelievable 0.1666667
most unbelievable 0.0833333
of unbelievable 0.0833333
rarities unbelievable 0.0833333
vouched unbelievable 0.0833333
many unbelievable 0.0833333
breath unbelievable 0.0833333
blood unbelievable 0.0833333
insupportable unbelievable 0.0833333
rarity unbelievable 0.0833333
and unbelievable 0.0833333
brine behind 0.0204082
left behind 0.0204082
behind behind 0.5102041
leaves behind 0.0204082
wood behind 0.0204082
NULL behind 0.0204082
pool behind 0.0204082
him behind 0.0408163
in behind 0.0204082
before behind 0.0204082
second behind 0.0204082
back behind 0.0408163
exercise behind 0.0204082
within behind 0.0204082
cunning behind 0.0204082
gifts behind 0.0204082
sympathize behind 0.0204082
hand behind 0.0204082
driven behind 0.0204082
why behind 0.0204082
boxtree behind 0.0204082
leave behind 0.0204082
hell behind 0.0204082
laughable hysterically 1.0000000
corruption bad 0.0060241
checks bad 0.0060241
damnable bad 0.0060241
pitiful bad 0.0060241
contents bad 0.0060241
untimely bad 0.0060241
that bad 0.0301205
portents bad 0.0060241
exclaim bad 0.0060241
fortune bad 0.0180723
witless bad 0.0060241
race bad 0.0060241
out bad 0.0060241
mischief bad 0.0060241
foul bad 0.0361446
brooks bad 0.0060241
monstrous bad 0.0060241
lest bad 0.0060241
obstruction bad 0.0060241
tell bad 0.0060241
hard bad 0.0060241
steps bad 0.0060241
humor bad 0.0060241
moody bad 0.0060241
pity bad 0.0240964
bad bad 0.2349398
extremely bad 0.0060241
knavery bad 0.0060241
takes bad 0.0060241
from bad 0.0180723
tales bad 0.0060241
abound bad 0.0060241
costs bad 0.0060241
wretched bad 0.0060241
effect bad 0.0060241
faults bad 0.0060241
man bad 0.0060241
thou bad 0.0060241
governed bad 0.0060241
the bad 0.0060241
unbreathed bad 0.0060241
fright bad 0.0060241
certainly bad 0.0060241
disturbèd bad 0.0060241
'en bad 0.0060241
wrong bad 0.0120482
might bad 0.0060241
sorrows bad 0.0060241
alas bad 0.0060241
predictions bad 0.0060241
else bad 0.0060241
ill bad 0.1084337
their bad 0.0060241
grossly bad 0.0060241
such bad 0.0120482
begun bad 0.0060241
shoes bad 0.0060241
thick bad 0.0060241
NULL bad 0.1144578
sultry bad 0.0060241
harmed bad 0.0060241
knavish bad 0.0060241
importunity bad 0.0060241
papers bad 0.0060241
lamented bad 0.0060241
totters bad 0.0060241
fortunes bad 0.0120482
naught bad 0.0060241
lives bad 0.0060241
marred bad 0.0060241
while bad 0.0060241
vile bad 0.0060241
mend bad 0.0060241
tale bad 0.0060241
grapple skirmish 1.0000000
bids occasion 0.1111111
arbitrament occasion 0.1111111
time occasion 0.1111111
occasion occasion 0.5555556
season occasion 0.1111111
the ashes 0.1250000
cinders ashes 0.1250000
for ashes 0.1250000
burièd ashes 0.1250000
dust ashes 0.1250000
tis ashes 0.1250000
engineer ashes 0.1250000
sport ashes 0.1250000
you something 0.0158730
contents something 0.0052910
not something 0.0211640
employed something 0.0052910
that something 0.0634921
see something 0.0052910
save something 0.0052910
dross something 0.0052910
mischief something 0.0105820
what something 0.0211640
laughable something 0.0052910
greek something 0.0052910
trash something 0.0052910
ought something 0.0052910
falsing something 0.0052910
again something 0.0105820
some something 0.0423280
promise something 0.0052910
leave something 0.0105820
is something 0.0052910
all something 0.0052910
followed something 0.0052910
aught something 0.0105820
will something 0.0105820
teach something 0.0052910
something something 0.2063492
sparks something 0.0052910
poise something 0.0052910
cozen something 0.0052910
readiest something 0.0052910
demands something 0.0052910
remembered something 0.0052910
now something 0.0052910
thou something 0.0052910
speak something 0.0634921
way something 0.0052910
page something 0.0052910
a something 0.0423280
yet something 0.0105820
neck something 0.0052910
spheres something 0.0052910
compulsatory something 0.0052910
might something 0.0211640
clothes something 0.0052910
transgresses something 0.0052910
policy something 0.0052910
deed something 0.0052910
this something 0.0105820
write something 0.0052910
so something 0.0052910
ignorant something 0.0105820
hideous something 0.0052910
word something 0.0105820
worse something 0.0052910
suit something 0.0052910
lined something 0.0052910
NULL something 0.1058201
: something 0.0052910
trick something 0.0052910
angry something 0.0052910
means something 0.0158730
“ something 0.0052910
spoke something 0.0052910
seriously something 0.0052910
note something 0.0105820
question something 0.0052910
smell something 0.0052910
commits something 0.0052910
positively something 0.0052910
thing something 0.0211640
'd cheered 0.5000000
cheer cheered 0.5000000
provender oats 0.2500000
oats oats 0.7500000
avouch gall 0.5000000
dare gall 0.5000000
germane pulling 0.1428571
be pulling 0.1428571
would pulling 0.1428571
ravish pulling 0.1428571
more pulling 0.1428571
phrase pulling 0.1428571
pulling pulling 0.1428571
drowsy drowsy 1.0000000
utterance eloquence 0.3333333
eloquence eloquence 0.6666667
a hot 0.0303030
NULL hot 0.0303030
are hot 0.0303030
chastity hot 0.0303030
treason hot 0.0303030
scotch hot 0.0303030
already hot 0.0303030
in hot 0.0303030
pitch hot 0.0303030
southwest hot 0.0303030
snow hot 0.0303030
heat hot 0.0303030
over-earnest hot 0.0303030
little hot 0.0303030
snuff hot 0.0303030
hot hot 0.5151515
choleric hot 0.0303030
come horrible 0.0142857
, horrible 0.0285714
heavy horrible 0.0142857
fore-vouched horrible 0.0142857
our horrible 0.0142857
liberal horrible 0.0142857
in horrible 0.0142857
loathèd horrible 0.0142857
unnatural horrible 0.0142857
terrible horrible 0.0142857
dreaded horrible 0.0142857
alas horrible 0.0142857
foul horrible 0.0571429
plagues horrible 0.0142857
hideous horrible 0.0142857
monstrous horrible 0.0714286
horrid horrible 0.0142857
dismal horrible 0.0142857
counselor horrible 0.0142857
and horrible 0.0571429
too horrible 0.0142857
unhappy horrible 0.0285714
affection horrible 0.0142857
most horrible 0.0571429
NULL horrible 0.0285714
conceit horrible 0.0142857
england horrible 0.0142857
villainous horrible 0.0142857
oh horrible 0.0142857
fall horrible 0.0142857
affairs horrible 0.0142857
woe horrible 0.0285714
profane horrible 0.0142857
tormenting horrible 0.0142857
sets horrible 0.0142857
vile horrible 0.0142857
streak horrible 0.0142857
as horrible 0.0142857
nose horrible 0.0142857
horrible horrible 0.2000000
beams beams 1.0000000
'd maimed 0.5000000
maim maimed 0.5000000
pilgrimage piety 1.0000000
greeks greeks 1.0000000
when hardships 1.0000000
hers belong 0.1666667
been belong 0.1666667
has belong 0.1666667
perpetual belong 0.1666667
slave belong 0.1666667
are belong 0.1666667
qual- character 0.1111111
to character 0.2222222
confirmed character 0.1111111
as character 0.1111111
ification character 0.1111111
name character 0.1111111
that character 0.1111111
soto character 0.1111111
been behaved 0.3333333
behaved behaved 0.3333333
unfitness behaved 0.3333333
so enter 0.0526316
NULL enter 0.1578947
at enter 0.0526316
st enter 0.0526316
and enter 0.0526316
’ enter 0.0526316
com enter 0.0526316
go enter 0.1052632
enter enter 0.4210526
foreign foreign 0.1666667
the foreign 0.1666667
tributaries foreign 0.1666667
fight foreign 0.1666667
alien foreign 0.1666667
scythian foreign 0.1666667
'st willfully 0.2500000
wilfully willfully 0.2500000
thy willfully 0.2500000
knaveries willfully 0.2500000
a unfair 0.1428571
wrong unfair 0.1428571
false unfair 0.1428571
as unfair 0.1428571
unmerciful unfair 0.1428571
bondmaid unfair 0.1428571
are unfair 0.1428571
land fairy-land 0.5000000
fairy fairy-land 0.5000000
lordship tolerate 0.1666667
receive tolerate 0.1666667
bear tolerate 0.1666667
brook tolerate 0.1666667
forbear tolerate 0.1666667
brooked tolerate 0.1666667
alexander closely 0.0833333
pry closely 0.0833333
quoted closely 0.0833333
heedful closely 0.0833333
scann closely 0.0833333
note closely 0.1666667
'd closely 0.0833333
well closely 0.0833333
swashers closely 0.0833333
close closely 0.1666667
pembroke pembroke 1.0000000
NULL age 0.0232558
time age 0.0232558
both age 0.0232558
decays age 0.0232558
them age 0.0232558
age age 0.7209302
prop age 0.0232558
strange age 0.0232558
years age 0.0697674
devour age 0.0232558
thy age 0.0232558
choppy scrawny 0.2000000
once scrawny 0.2000000
laying scrawny 0.2000000
at scrawny 0.2000000
her scrawny 0.2000000
plain plain 0.7500000
NULL plain 0.0625000
discommend plain 0.0625000
gross plain 0.0625000
uncoined plain 0.0625000
lions lions 0.5833333
rather lions 0.0833333
NULL lions 0.0833333
frame lions 0.1666667
beasts lions 0.0833333
issuing bleeding 0.0625000
bleed bleeding 0.2500000
sides bleeding 0.0625000
bold bleeding 0.0625000
apace bleeding 0.1250000
st bleeding 0.0625000
bleeding bleeding 0.1875000
reeking bleeding 0.0625000
. bleeding 0.0625000
sir bleeding 0.0625000
recover cure 0.1000000
remedy cure 0.1000000
expel cure 0.0500000
do cure 0.0500000
physic cure 0.0500000
good cure 0.0500000
charm cure 0.1000000
cure cure 0.4500000
give cure 0.0500000
so loving 0.0344828
die loving 0.0344828
obedience loving 0.0344828
surfeiting loving 0.0344828
nuptial loving 0.0344828
bear loving 0.0344828
loving loving 0.4827586
long loving 0.0344828
love loving 0.1724138
lovely loving 0.0344828
this loving 0.0344828
loves loving 0.0344828
thee higher 0.1000000
NULL higher 0.1000000
better higher 0.1000000
larger higher 0.1000000
tether higher 0.1000000
mounted higher 0.1000000
higher higher 0.4000000
upon hug 0.2000000
fall hug 0.2000000
let hug 0.2000000
tears hug 0.2000000
cheek hug 0.2000000
test tests 1.0000000
variance rouse 0.2500000
their rouse 0.2500000
condole rouse 0.2500000
if rouse 0.2500000
success results 0.2500000
none results 0.2500000
ends results 0.5000000
tenants tenants 1.0000000
tradesman tradesman 0.5000000
with tradesman 0.5000000
garland wreath 0.4285714
wreath wreath 0.2857143
take wreath 0.1428571
this wreath 0.1428571
the late 0.0222222
hour late 0.0444444
NULL late 0.0444444
almost late 0.0222222
steals late 0.0222222
into late 0.0222222
d late 0.0222222
late late 0.4444444
far late 0.0222222
repents late 0.0222222
on late 0.0222222
his late 0.0222222
past late 0.0666667
once late 0.0222222
tardy late 0.0222222
morning late 0.0222222
out-dwells late 0.0222222
wait late 0.0222222
crept late 0.0222222
lated late 0.0222222
too late 0.0222222
promise late 0.0222222
turk turk 0.5000000
turbaned turk 0.1666667
took turk 0.1666667
state turk 0.1666667
matching matching 1.0000000
bed-time bed-time 1.0000000
head nourished 1.0000000
times experiences 1.0000000
'send foot 0.0416667
NULL foot 0.0833333
foot foot 0.8333333
fights foot 0.0416667
dalliance stored 0.5000000
silken stored 0.5000000
let christian 0.0277778
humility christian 0.0277778
christian christian 0.9166667
burial christian 0.0277778
seen comets 0.5000000
comets comets 0.5000000
the plan 0.0266667
law plan 0.0133333
way plan 0.0266667
heed plan 0.0133333
cannot plan 0.0133333
directed plan 0.0133333
practice plan 0.0133333
sharp plan 0.0133333
business plan 0.0266667
drift plan 0.0133333
t plan 0.0133333
course plan 0.0266667
night plan 0.0133333
schoolmasters plan 0.0133333
blast plan 0.0133333
determinèd plan 0.0133333
purposes plan 0.0133333
tomorrow plan 0.0133333
contrive plan 0.0133333
villainy plan 0.0133333
with plan 0.0133333
and plan 0.0133333
treasonous plan 0.0133333
athenian plan 0.0133333
story plan 0.0266667
NULL plan 0.0933333
wrestling plan 0.0133333
purpose plan 0.0533333
place plan 0.0133333
conceit plan 0.0133333
all plan 0.0133333
is plan 0.0133333
’ plan 0.0266667
intend plan 0.0133333
direction plan 0.0133333
good plan 0.0266667
us plan 0.0133333
bassanio plan 0.0133333
unfold plan 0.0133333
make plan 0.0133333
devised plan 0.0133333
enterprise plan 0.0133333
it plan 0.0133333
part plan 0.0133333
play plan 0.0133333
determine plan 0.0133333
can plan 0.0133333
mean plan 0.0666667
device plan 0.0533333
pursue plan 0.0133333
then plan 0.0133333
consent plan 0.0133333
'd shag-haired 0.5000000
shag-ear shag-haired 0.5000000
wrong offends 0.5000000
wrongs offends 0.5000000
pin endanger 1.0000000
sums sums 1.0000000
erthrown conquered 0.2000000
NULL conquered 0.2000000
'erthrown conquered 0.2000000
o conquered 0.2000000
conquered conquered 0.2000000
of replaced 0.5000000
displanting replaced 0.5000000
diligence worker 0.5000000
workman worker 0.5000000
upon charter 0.2000000
charter charter 0.2000000
your charter 0.2000000
light charter 0.2000000
danger charter 0.2000000
gentle thrice-gentle 0.5000000
thrice thrice-gentle 0.5000000
upon ecstatic 0.5000000
dote ecstatic 0.5000000
on devours 0.5000000
feeds devours 0.5000000
bluntness bluntness 1.0000000
withal artfully 1.0000000
waterish spineless 1.0000000
us syracusians 1.0000000
mangled mangled 0.2500000
NULL mangled 0.2500000
thus mangled 0.2500000
splitted mangled 0.2500000
scarce scarce 0.5000000
hold scarce 0.5000000
deep knife 0.0909091
lucrece knife 0.0909091
knife knife 0.7272727
rapier knife 0.0909091
husbands husband 0.0068493
NULL husband 0.0342466
husbanded husband 0.0068493
woes husband 0.0068493
him husband 0.0136986
husband husband 0.7397260
sir husband 0.0068493
prince husband 0.0068493
house husband 0.0068493
hast husband 0.0068493
he husband 0.0068493
working husband 0.0068493
difference husband 0.0068493
possessor husband 0.0068493
lord husband 0.0958904
plight husband 0.0068493
one husband 0.0136986
their husband 0.0068493
obey husband 0.0068493
hornmaker husband 0.0068493
dotes dotes 1.0000000
hagar hagar 1.0000000
blanch blanch 1.0000000
hasty hasty 0.2857143
longer hasty 0.1428571
'erhasty hasty 0.1428571
NULL hasty 0.1428571
salved hasty 0.1428571
quick hasty 0.1428571
greet greets 0.2000000
doth greets 0.2000000
greeting greets 0.2000000
salute greets 0.2000000
sends greets 0.2000000
of distasteful 0.3333333
in distasteful 0.3333333
despite distasteful 0.3333333
shrouding sheet 0.5000000
sheet sheet 0.5000000
raw immature 1.0000000
turquoise turquoise 1.0000000
phoebes phoebe-ing 1.0000000
you chime 0.2500000
bennet chime 0.2500000
put chime 0.2500000
mind chime 0.2500000
honey sweetness 0.1666667
honey-heavy sweetness 0.1666667
sermons sweetness 0.1666667
sugar sweetness 0.1666667
paramour sweetness 0.1666667
dew sweetness 0.1666667
remove gets 0.0312500
rise gets 0.0312500
NULL gets 0.0937500
begins gets 0.0312500
is gets 0.0625000
’ gets 0.0312500
strength gets 0.0312500
to gets 0.0312500
deck gets 0.0312500
in gets 0.0312500
nightly gets 0.0312500
riseth gets 0.0625000
makes gets 0.0312500
undertaker gets 0.0312500
destroy gets 0.0312500
increaseth gets 0.0312500
quit gets 0.0312500
win gets 0.0312500
may gets 0.0312500
receives gets 0.0312500
s gets 0.0312500
gets gets 0.0312500
totally gets 0.0312500
with gets 0.0312500
shows gets 0.0312500
itself gets 0.0312500
entangles gets 0.0312500
consume gets 0.0312500
general groan 0.1428571
groaning groan 0.1428571
did groan 0.1428571
groan groan 0.5714286
as defended 1.0000000
the criminal 0.0714286
malefactor criminal 0.0714286
commonwealth criminal 0.0714286
knave criminal 0.0714286
NULL criminal 0.0714286
cozener criminal 0.0714286
find criminal 0.0714286
all criminal 0.0714286
villain criminal 0.0714286
try criminal 0.0714286
knaves criminal 0.0714286
villainy criminal 0.0714286
transgression criminal 0.0714286
arrant criminal 0.0714286
forth right 0.0022624
you right 0.0067873
laertes right 0.0045249
form right 0.0022624
come right 0.0022624
instant right 0.0022624
pit right 0.0022624
vein right 0.0022624
wise right 0.0022624
perigouna right 0.0022624
beggar right 0.0022624
persuasion right 0.0022624
fit right 0.0113122
god right 0.0022624
profoundest right 0.0022624
spirit right 0.0022624
wit right 0.0022624
vulture right 0.0022624
furze right 0.0022624
your right 0.0045249
again right 0.0022624
and right 0.0226244
pat right 0.0045249
time right 0.0022624
hope right 0.0022624
true right 0.0113122
briefly right 0.0022624
is right 0.0067873
scanned right 0.0022624
have right 0.0022624
husband right 0.0022624
think right 0.0045249
befits right 0.0022624
thy right 0.0067873
knocks right 0.0022624
commission right 0.0022624
hasty right 0.0022624
said right 0.0045249
it right 0.0180995
persever right 0.0022624
right right 0.0723982
talk right 0.0022624
charge right 0.0022624
haste right 0.0022624
chose right 0.0022624
a right 0.0067873
straightway right 0.0022624
— right 0.0022624
redress right 0.0022624
honesty right 0.0022624
attractive right 0.0022624
fitted right 0.0022624
in right 0.0090498
stand right 0.0045249
very right 0.0045249
me right 0.0045249
doubts right 0.0022624
presently right 0.0248869
caesar right 0.0022624
certainer right 0.0022624
word right 0.0022624
twelve right 0.0022624
upright right 0.0022624
solemnized right 0.0022624
council right 0.0022624
aimed right 0.0022624
rich right 0.0022624
horatio right 0.0022624
implacable right 0.0022624
collied right 0.0022624
i right 0.0113122
demeanor right 0.0022624
heart right 0.0022624
go right 0.0067873
there right 0.0045249
well right 0.0723982
mended right 0.0022624
thing right 0.0022624
why right 0.0045249
happy right 0.0045249
yes right 0.0022624
lies right 0.0045249
contents right 0.0022624
secure right 0.0022624
, right 0.0565611
not right 0.0113122
mark right 0.0022624
on right 0.0067873
matter right 0.0045249
apt right 0.0022624
scope right 0.0022624
out right 0.0022624
thence right 0.0022624
smites right 0.0022624
one right 0.0022624
softly right 0.0022624
fished right 0.0022624
with right 0.0022624
suddenly right 0.0022624
leave right 0.0022624
season right 0.0045249
goes right 0.0022624
conscience right 0.0022624
meet right 0.0113122
earthly right 0.0022624
imperial right 0.0022624
durst right 0.0022624
certain right 0.0022624
to right 0.0135747
indeed right 0.0022624
brooch right 0.0022624
home right 0.0022624
spite right 0.0022624
set right 0.0022624
forthwith right 0.0022624
invisible right 0.0022624
any right 0.0022624
grace right 0.0022624
directly right 0.0022624
now right 0.0180995
respect right 0.0022624
' right 0.0090498
spoken right 0.0022624
the right 0.0226244
done right 0.0045249
supposition right 0.0022624
lecher right 0.0022624
could right 0.0022624
wits right 0.0022624
this right 0.0067873
t right 0.0022624
th right 0.0045249
so right 0.0248869
told right 0.0022624
enough right 0.0045249
for right 0.0045249
carefully right 0.0022624
wench right 0.0022624
event right 0.0022624
ursula right 0.0022624
doth right 0.0045249
be right 0.0067873
such right 0.0022624
most right 0.0022624
NULL right 0.1085973
even right 0.0135747
young right 0.0022624
straight right 0.0475113
at right 0.0090498
counsel right 0.0022624
peremptory right 0.0022624
grizzled right 0.0022624
stop right 0.0022624
admittance right 0.0022624
masterly right 0.0022624
he right 0.0022624
hearing right 0.0022624
was right 0.0022624
prevailed right 0.0022624
mend right 0.0022624
present right 0.0045249
air right 0.0022624
discretion secret-keeping 1.0000000
the devastating 0.5000000
earth devastating 0.2500000
terrors devastating 0.2500000
answerable necessary 0.0625000
need necessary 0.0625000
no necessary 0.0625000
warranted necessary 0.0625000
tis necessary 0.0625000
needful necessary 0.0625000
go necessary 0.0625000
matter necessary 0.0625000
incur necessary 0.0625000
further necessary 0.0625000
such necessary 0.0625000
” necessary 0.0625000
' necessary 0.1250000
necessary necessary 0.1250000
those protecting 0.3333333
of protecting 0.3333333
seemed protecting 0.3333333
reprieve withdrawing 0.2500000
of withdrawing 0.2500000
thy withdrawing 0.2500000
token withdrawing 0.2500000
this testify 0.5000000
vouch testify 0.5000000
door doorway 0.5000000
chamber doorway 0.5000000
good monsieur 0.0555556
monsieur monsieur 0.9444444
apprehensions unclean 0.2500000
unpurged unclean 0.2500000
uncleanly unclean 0.5000000
takes reacts 1.0000000
madam ho 0.0227273
it ho 0.0227273
common ho 0.0227273
is ho 0.0227273
ho ho 0.9090909
given excavators 0.2500000
pioneers excavators 0.2500000
'er excavators 0.2500000
o excavators 0.2500000
jocund light-hearted 1.0000000
hawk hawk 0.5000000
argus hawk 0.5000000
pot pot 1.0000000
sack tail 0.0588235
hath tail 0.0588235
tongue tail 0.0588235
drowned tail 0.0588235
tail tail 0.5294118
horse-tail tail 0.0588235
fawn tail 0.0588235
bobtail tail 0.0588235
man-monster tail 0.0588235
uncovered blatant 1.0000000
a extent 0.3333333
bourn extent 0.3333333
set extent 0.3333333
heirs heirs 0.5000000
succeeders heirs 0.2500000
issue heirs 0.2500000
had ours 0.0625000
NULL ours 0.0625000
ours ours 0.4375000
of ours 0.0625000
decreed ours 0.0625000
we ours 0.0625000
tott ours 0.0625000
countermines ours 0.0625000
nought ours 0.0625000
own ours 0.0625000
pheeze fix 0.0454545
make fix 0.0454545
lies fix 0.0909091
you fix 0.1363636
of fix 0.0454545
do fix 0.0454545
redress fix 0.0454545
device fix 0.0454545
amend fix 0.0909091
mend fix 0.1818182
in fix 0.0909091
splinter fix 0.0454545
become fix 0.0454545
; fix 0.0454545
cold chilly 0.2500000
a- chilly 0.1250000
icy chilly 0.1250000
a-cold chilly 0.5000000
well booze 0.3333333
spade booze 0.3333333
drink booze 0.3333333
grievous sick 0.0114943
toys sick 0.0114943
NULL sick 0.0459770
almost sick 0.0114943
not sick 0.0114943
surfeit sick 0.0114943
sicken sick 0.0229885
midwife sick 0.0114943
look sick 0.0229885
pale sick 0.0229885
on sick 0.0229885
brutus sick 0.0114943
am sick 0.0229885
at sick 0.0114943
i sick 0.0229885
wether sick 0.0114943
odious sick 0.0114943
when sick 0.0344828
light sick 0.0114943
oats sick 0.0114943
health sick 0.0114943
thee sick 0.0114943
abhor sick 0.0114943
well sick 0.0229885
ill sick 0.0459770
sick sick 0.5172414
infirm sick 0.0114943
sickly sick 0.0114943
steep four 0.0500000
twice four 0.0500000
four four 0.9000000
tribute taxes 1.0000000
make introduce 0.1250000
friends introduce 0.1250000
do introduce 0.1250000
grace introduce 0.1250000
thyself introduce 0.1250000
present introduce 0.1250000
give introduce 0.1250000
welcome introduce 0.1250000
well exeter 0.0769231
thee exeter 0.0769231
doth exeter 0.0769231
love exeter 0.0769231
exeter exeter 0.6923077
house upkeep 0.5000000
prop upkeep 0.5000000
groans verse 0.1666667
you verse 0.1666667
ll verse 0.1666667
verse verse 0.1666667
chapter verse 0.1666667
give verse 0.1666667
corruption fire 0.0113636
the fire 0.0227273
prodigal fire 0.0113636
NULL fire 0.0227273
stellèd fire 0.0113636
drowns fire 0.0113636
place fire 0.0113636
, fire 0.0113636
soul fire 0.0113636
in fire 0.0113636
fire fire 0.7500000
smother fire 0.0113636
how fire 0.0113636
me fire 0.0113636
babe fire 0.0113636
charitable fire 0.0113636
blood fire 0.0113636
lends fire 0.0113636
inflame fire 0.0113636
illuminate fire 0.0113636
burns fire 0.0113636
deserved extol 0.3333333
from extol 0.3333333
vary extol 0.3333333
washes fills 0.3333333
harrows fills 0.3333333
all fills 0.3333333
NULL honors 0.1111111
glories honors 0.1111111
honors honors 0.5555556
worships honors 0.1111111
honour honors 0.1111111
abode attend 0.0769231
on attend 0.2307692
matter attend 0.0769231
your attend 0.0769231
hear attend 0.0769231
attend attend 0.3846154
depends attend 0.0769231
whirling whirling 1.0000000
reynaldo reynaldo 1.0000000
will four-day 0.2500000
peat four-day 0.2500000
four four-day 0.2500000
i four-day 0.2500000
upon weathered 0.1250000
fortune weathered 0.1250000
harsh weathered 0.1250000
what weathered 0.1250000
know weathered 0.1250000
not weathered 0.1250000
counts weathered 0.1250000
casts weathered 0.1250000
shambles meat 0.1250000
NULL meat 0.1250000
meat meat 0.7500000
capilet forgets 0.1666667
matter forgets 0.1666667
let forgets 0.3333333
him forgets 0.1666667
slip forgets 0.1666667
renown graceful 0.0909091
show graceful 0.0909091
less graceful 0.0909091
knowledge graceful 0.0909091
your graceful 0.1818182
in graceful 0.1818182
grace graceful 0.1818182
graceful graceful 0.0909091
the affected 0.2500000
penetrable affected 0.2500000
taint affected 0.2500000
never affected 0.2500000
hearers hearers 1.0000000
grows experience 0.1111111
of experience 0.1111111
taste experience 0.1111111
custom experience 0.1111111
experience experience 0.3333333
never experience 0.1111111
old experience 0.1111111
and individual 1.0000000
flatt daydream 0.3333333
dream daydream 0.3333333
'ring daydream 0.3333333
reconcilement apology 1.0000000
detecting escapes 0.1666667
scape escapes 0.5000000
’ escapes 0.3333333
true-love true-love 1.0000000
argument topic 0.1666667
nation topic 0.1666667
to topic 0.1666667
holds topic 0.1666667
it topic 0.1666667
controversy topic 0.1666667
NULL seller 1.0000000
bing stabbing 0.5000000
stab- stabbing 0.5000000
pinioned chained 0.3333333
him chained 0.3333333
at chained 0.3333333
made loans 0.2500000
moan loans 0.2500000
at loans 0.2500000
times loans 0.2500000
sapphires sores 0.3333333
declining sores 0.3333333
carbuncles sores 0.3333333
decayèd decayed 1.0000000
on blast 0.1428571
large blast 0.1428571
a blast 0.1428571
fuller blast 0.1428571
charter blast 0.1428571
methinks blast 0.1428571
blow blast 0.1428571
want wine 0.0322581
bottle wine 0.0483871
NULL wine 0.0645161
of wine 0.0322581
rhenish wine 0.0322581
exclaim wine 0.0161290
ho wine 0.0161290
if wine 0.0161290
sop wine 0.0161290
known wine 0.0161290
stoup wine 0.0161290
liquor wine 0.0161290
cup wine 0.0161290
bung-hole wine 0.0161290
wine wine 0.5483871
alms-drink wine 0.0161290
malmsey wine 0.0161290
some wine 0.0161290
pox wine 0.0161290
' wine 0.0161290
o wine 0.0161290
imperious imperious 1.0000000
bought purchased 0.5000000
purchas purchased 0.5000000
steps luck 0.0121951
luck luck 0.1341463
NULL luck 0.0243902
most luck 0.0121951
you luck 0.0731707
heels luck 0.0121951
take luck 0.0121951
grow luck 0.0121951
fortune luck 0.3536585
objects luck 0.0121951
speed luck 0.0121951
haps luck 0.0121951
at luck 0.0121951
thrift luck 0.0243902
thy luck 0.0121951
happiness luck 0.0121951
fortunes luck 0.0243902
success luck 0.0121951
fare luck 0.0487805
brooks luck 0.0121951
hap luck 0.0121951
may luck 0.0121951
waist luck 0.0121951
higher luck 0.0121951
s luck 0.0121951
go luck 0.0121951
fortunate luck 0.0121951
chance luck 0.0243902
why luck 0.0121951
happy luck 0.0243902
with luck 0.0121951
‘ handkerchief 0.0185185
even handkerchief 0.0185185
most handkerchief 0.0185185
handkerchief handkerchief 0.7222222
that handkerchief 0.0370370
same handkerchief 0.0370370
s handkerchief 0.0185185
was handkerchief 0.0185185
now handkerchief 0.0185185
hand handkerchief 0.0185185
napkin handkerchief 0.0555556
handkercher handkerchief 0.0185185
witness witnesses 0.3333333
NULL witnesses 0.1666667
witnesses witnesses 0.3333333
witnesseth witnesses 0.1666667
desired desired 0.6666667
else desired 0.3333333
type imperial 0.2000000
imperial imperial 0.8000000
protest affirm 1.0000000
the risen 0.2222222
ascended risen 0.1111111
buoyed risen 0.1111111
of risen 0.2222222
style risen 0.1111111
roof risen 0.1111111
writ risen 0.1111111
NULL listened 0.1666667
importuned listened 0.1666667
great listened 0.1666667
hath listened 0.1666667
tears listened 0.1666667
pitied listened 0.1666667
customs prudish 0.2500000
curtsy prudish 0.2500000
nice prudish 0.5000000
combed hair 0.0185185
hairs hair 0.0370370
NULL hair 0.1111111
very hair 0.0185185
me hair 0.0185185
them hair 0.0370370
do hair 0.0370370
mutiny hair 0.0185185
doth hair 0.0185185
poll hair 0.0185185
becomes hair 0.0185185
flakes hair 0.0185185
unpin hair 0.0370370
blood-bolter hair 0.0185185
hair hair 0.5740741
beauteous reared 1.0000000
strive strive 0.3333333
tinctures strive 0.3333333
press strive 0.3333333
tied tie 0.0666667
NULL tie 0.0666667
enforce tie 0.0666667
pinion tie 0.0666667
tie tie 0.0666667
bind tie 0.4000000
go tie 0.0666667
bound tie 0.0666667
fast tie 0.0666667
hard tie 0.0666667
melted melted 1.0000000
of enjoys 0.5000000
joy enjoys 0.5000000
wrong mistreat 1.0000000
NULL mercury 1.0000000
sweet-faced sweet-faced 1.0000000
knot thriving 1.0000000
jowl jowl 1.0000000
firebrands firebrands 0.3333333
ho firebrands 0.3333333
brands firebrands 0.3333333
withal amble 0.5000000
ambles amble 0.5000000
fulsome sickening 1.0000000
phoebe phoebe 0.9285714
her phoebe 0.0714286
usurer shark 1.0000000
offices jobs 0.2000000
slavish jobs 0.2000000
in jobs 0.2000000
parts jobs 0.2000000
service jobs 0.2000000
made chances 0.0909091
NULL chances 0.0909091
may chances 0.0909091
thrive chances 0.0909091
chance chances 0.0909091
shall chances 0.0909091
unto chances 0.0909091
be chances 0.0909091
deceived chances 0.0909091
hazard chances 0.0909091
likelihood chances 0.0909091
darkens achieves 0.2500000
which achieves 0.2500000
gain achieves 0.2500000
does achieves 0.2500000
swiftest swiftest 0.5000000
wing swiftest 0.5000000
intercepts blocking 0.3333333
my blocking 0.3333333
expedition blocking 0.3333333
rheumy humid 0.1428571
NULL humid 0.1428571
twere humid 0.1428571
as humid 0.1428571
— humid 0.1428571
sultry humid 0.2857143
haunt haunt 0.7500000
haunts haunt 0.2500000
tuned tuned 1.0000000
yare water-tight 0.5000000
tight water-tight 0.5000000
account calculate 0.3333333
— calculate 0.3333333
reckon calculate 0.3333333
columbines columbines 1.0000000
waste shoot 0.1666667
had shoot 0.1666667
shoot shoot 0.3333333
wrong shoot 0.1666667
no shoot 0.1666667
lead leading 0.1250000
leading leading 0.1250000
NULL leading 0.2500000
bring leading 0.1250000
of leading 0.1250000
conductor leading 0.1250000
officer leading 0.1250000
hymen hymen 1.0000000
misused abused 0.0909091
it abused 0.0909091
abuse abused 0.0909091
did abused 0.0909091
ourself abused 0.0909091
abused abused 0.2727273
was abused 0.0909091
deserve abused 0.0909091
didst abused 0.0909091
stony ruthless 0.2000000
piteous ruthless 0.2000000
arch ruthless 0.2000000
adversary ruthless 0.2000000
deed ruthless 0.2000000
fair virtuous 0.0434783
virtue virtuous 0.0869565
regard virtuous 0.0434783
of virtuous 0.0434783
magician virtuous 0.0434783
virtuous virtuous 0.6521739
evidence virtuous 0.0434783
full virtuous 0.0434783
eternally knit 0.5000000
knit knit 0.5000000
pleasest advance 0.0588235
prefer advance 0.0588235
harbingers advance 0.0588235
how advance 0.0588235
go advance 0.0588235
on advance 0.1176471
orléans advance 0.0588235
march advance 0.0588235
thou advance 0.0588235
away advance 0.0588235
day advance 0.0588235
approach advance 0.0588235
and advance 0.0588235
tender advance 0.0588235
set advance 0.1176471
it new-crowned 0.2000000
monarch new-crowned 0.2000000
new-crowned new-crowned 0.2000000
: new-crowned 0.2000000
such new-crowned 0.2000000
NULL temple 0.0909091
temple temple 0.8181818
habitation temple 0.0909091
the daybreak 0.1666667
of daybreak 0.1666667
day daybreak 0.5000000
break daybreak 0.1666667
foxes foxes 1.0000000
bloody bloodshed 0.5000000
constraint bloodshed 0.5000000
's calpurnia 0.2000000
calpurnia calpurnia 0.6000000
by calpurnia 0.2000000
hill cliff 0.0714286
cliff cliff 0.1428571
extreme cliff 0.0714286
NULL cliff 0.0714286
crown cliff 0.0714286
a-height cliff 0.0714286
same cliff 0.0714286
bourn cliff 0.0714286
' cliff 0.2142857
th cliff 0.0714286
o cliff 0.0714286
contradict contradict 0.2500000
cross contradict 0.2500000
in contradict 0.2500000
nothing contradict 0.2500000
so harsh 0.1176471
draw harsh 0.0588235
harsh harsh 0.2352941
rough harsh 0.1176471
bitter harsh 0.0588235
breath harsh 0.1176471
shrewd harsh 0.1176471
speeches harsh 0.0588235
thy harsh 0.0588235
hard harsh 0.0588235
question player 0.2500000
went player 0.2500000
player player 0.2500000
merèd player 0.2500000
poring engulfing 1.0000000
ensnared trapped 0.1111111
when trapped 0.1111111
caught trapped 0.1111111
NULL trapped 0.1111111
has trapped 0.1111111
thus trapped 0.1111111
one trapped 0.1111111
fast trapped 0.1111111
her trapped 0.1111111
course action 0.0555556
cowards action 0.0555556
fit action 0.0555556
NULL action 0.2222222
purpose action 0.0555556
redress action 0.0555556
batter action 0.0555556
word action 0.0555556
wrong action 0.0555556
their action 0.0555556
at action 0.0555556
action action 0.1666667
peace action 0.0555556
in ruining 0.5000000
all ruining 0.5000000
shadow hallucination 1.0000000
'd destitute 0.5000000
beggar destitute 0.5000000
once shine 0.0833333
show shine 0.0833333
shine shine 0.5833333
me shine 0.0833333
glimmering shine 0.0833333
climate shine 0.0833333
brightly brightly 1.0000000
