kingship on 0.0009452
kingship sovereignty 0.0526316
kingship yet 0.0019231
kingship t 0.0025510
kingship ’ 0.0003087
greeting greeting 0.4444444
greeting your 0.0004252
proven NULL 0.0000371
proven a 0.0002318
proven proved 0.1363636
proven my 0.0002262
proven herself 0.0285714
proven prove 0.0116279
proven approved 0.2727273
proven been 0.0042553
proven coward 0.0357143
proven needless 0.3333333
unsure falsing 0.2000000
unsure unsure 1.0000000
unsure thing 0.0068966
issue issue 0.0294118
issue theme 0.0833333
kates kates 1.0000000
richer enriches 0.3333333
richer him 0.0005780
harp 'st 0.0109890
harp harp 0.5000000
harp disdainful 0.1111111
harp instrument 0.1428571
distinguished doth 0.0036900
distinguished exalt 0.2000000
pike the 0.0001222
pike pike 0.3333333
pike thou 0.0005342
pike puissant 0.2000000
pike trail 0.1666667
pike st 0.0045045
pike ’ 0.0003087
dwelling mansionry 0.3333333
dwelling dwelling 0.1666667
dwelling private 0.0526316
dwelling cell 0.1764706
nearest next 0.0175439
nearest nearest 0.2857143
nearest near 0.0089286
taken done 0.0031646
taken led 0.0476190
taken NULL 0.0002594
taken humanely 0.2500000
taken took 0.0204082
taken 'd 0.0060241
taken deflower 1.0000000
taken 'en 0.1800000
taken from 0.0012642
taken have 0.0009376
taken taken 0.4000000
taken raught 1.0000000
taken countermand 0.3333333
taken suspicion 0.0526316
taken quite 0.0285714
taken ta 0.3333333
taken marvelously 0.3333333
taken holiday 0.0909091
taken bestow 0.0384615
taken so 0.0010493
taken registered 0.2500000
taken relieved 0.1000000
taken captivity 0.1250000
taken provided 0.0588235
taken hath 0.0032733
taken omitted 0.3333333
taken alluring 0.3333333
taken offense 0.0200000
taken batter 0.2000000
taken screen 0.2000000
taken be 0.0004108
taken finished 0.1428571
london london 1.0000000
load loading 0.5000000
load able 0.0769231
load burden 0.0714286
load groaned 0.5000000
load load 0.3333333
misremembered conned 0.5000000
misremembered with 0.0004717
resents doth 0.0036900
resents bear 0.0045872
resents hard 0.0128205
agitation agitation 0.1666667
dukedom island 0.0344828
dukedom bare 0.0555556
dukedom got 0.0238095
dukedom bands 0.3333333
dukedom dukedom 0.6923077
dukedom this 0.0004380
joyfully delight 0.0416667
joyfully joyfully 0.5000000
joyfully with 0.0004717
venice disposition 0.0500000
venice calling 0.1111111
venice senate 0.0769231
venice all 0.0008319
venice venice 0.8269231
petticoats petticoats 1.0000000
petticoats very 0.0027933
petticoats them 0.0016181
petticoats catch 0.0270270
counted 'd 0.0020080
counted prick 0.0400000
counted numbered 0.2500000
counted can 0.0024938
gray grizzled 0.3333333
gray gray 0.2500000
gray , 0.0000391
gray no 0.0006930
gray grey 0.0909091
experts masters 0.0185185
experts elder 0.0714286
experts some 0.0019608
experts by 0.0008993
experts reconcilement 0.2500000
inventor dizzy 0.2500000
inventor inventorially 0.2500000
conclusions conclusions 0.2857143
supporters money 0.0109890
supporters gets 0.2000000
declared made 0.0085106
declared have 0.0004688
declared proclaimed 0.0833333
declared known 0.0117647
fast-moving our 0.0010684
fast-moving tott 0.5000000
leis slander 0.0500000
corn blasting 0.3333333
descend could 0.0045662
descend descend 0.1000000
bankrupted undone 0.0400000
clinging one 0.0017036
clinging cling 0.2500000
clinging samphire 0.1250000
clinging together 0.0094340
clinging that 0.0005453
clinging gathers 0.3333333
settling setting 0.0909091
mi mi 1.0000000
unite unite 1.0000000
unite atone 0.1428571
unite together 0.0094340
gloves gloves 0.5714286
gloves perfume 0.1000000
exercise here 0.0011521
exercise of 0.0002135
exercise me 0.0003393
exercise exercise 0.2000000
exercise s 0.0006317
exercise devout 0.2500000
exercise ’ 0.0003087
exercise indeed 0.0039841
exercise day 0.0040161
exercise sport 0.0188679
exercise breathing 0.1000000
exercise with 0.0004717
can deform 0.3333333
can unlocked 0.2000000
can remembrance 0.0714286
can print 0.5000000
can see 0.0231729
can curing 0.1666667
can abode 0.2500000
can least 0.0357143
can makes 0.0106383
can overcome 0.2500000
can bringer 0.1666667
can give 0.0018657
can soothsayer 0.1250000
can what 0.0009886
can ll 0.0096308
can deny 0.0109890
can discovery 0.1000000
can paunch 0.5000000
can talkest 0.2000000
can vales 0.2000000
can pull 0.1000000
can tailor 0.0555556
can learn 0.0256410
can abilities 0.5000000
can expressing 0.1000000
can dinner 0.0377358
can true 0.0037037
can all 0.0008319
can razed 0.5000000
can is 0.0033085
can ’ 0.0030874
can weather 0.0666667
can have 0.0051571
can will 0.0106900
can suspects 0.1666667
can lie 0.0074627
can supernatural 0.3333333
can afflict 0.1111111
can certainty 0.1111111
can forfeit 0.0588235
can revels 0.0666667
can art 0.0064935
can bold 0.0263158
can secret 0.0434783
can common 0.0196078
can 's 0.0014451
can height 0.0769231
can can 0.6658354
can enmities 0.1666667
can ocular 0.2500000
can simplicity 0.1666667
can flight 0.0416667
can obtained 0.1111111
can comforted 0.2000000
can haste 0.0259740
can falsehood 0.1250000
can bully-monster 1.0000000
can practices 0.0769231
can thought 0.0141844
can lead 0.0107527
can remedy 0.0833333
can would 0.0102881
can understand 0.0317460
can succeeds 0.2000000
can can- 0.5000000
can compass 0.0666667
can might 0.0243902
can in 0.0003020
can malice 0.0476190
can quite 0.0285714
can perceive 0.0416667
can knows 0.0107527
can uttermost 0.1875000
can changeable 0.1111111
can may 0.2022684
can addition 0.0625000
can s 0.0056854
can bail 0.1428571
can feel 0.0303030
can sees 0.0416667
can thrice-blessed 1.0000000
can virtue 0.0161290
can affords 0.1428571
can otherwise 0.0370370
can : 0.0031056
can surgery 0.1428571
can assurance 0.0625000
can am 0.0008271
can get 0.0068027
can hates 0.0526316
can make 0.0019120
can legs 0.0277778
can answer 0.0051546
can sooth 0.0416667
can joys 0.1428571
can amend 0.1000000
can as 0.0011409
can desolate 0.1250000
can news 0.0052356
can why 0.0014903
can 'erhear 0.1666667
can whisper 0.0714286
can know 0.0069444
can cannot 0.2072727
can dare 0.0280374
can not 0.0002019
can , 0.0000391
can milk 0.0476190
can dares 0.0625000
can shall 0.0333333
can rememb 0.3333333
can further 0.0101010
can furnish 0.0666667
can out 0.0020704
can pleasest 0.3333333
can sensible 0.0555556
can crafts 0.1428571
can high-sighted 0.2500000
can doubted 0.1428571
can covertly 0.2500000
can obey 0.0156250
can warranty 0.2500000
can must 0.0187207
can quarter 0.0769231
can do 0.0051694
can eunuch 0.1428571
can find 0.0103093
can pity 0.0202020
can afeard 0.0344828
can to 0.0054748
can whip 0.0588235
can kneeled 0.1111111
can enlarge 0.1666667
can reed 0.2500000
can able 0.0769231
can unmannerly 0.3333333
can effect 0.0312500
can shalt 0.0363636
can untangle 0.2500000
can stopped 0.1111111
can seest 0.0714286
can borrow 0.0454545
can now 0.0026408
can hearer 0.2000000
can scarf 0.1666667
can arrows 0.3333333
can canst 0.5074627
can enamelèd 0.3333333
can speak 0.0049342
can applaud 0.2500000
can light-foot 0.2500000
can advantage 0.0370370
can jest 0.0250000
can hear 0.0058708
can amends 0.0555556
can guilèd 0.1428571
can state 0.0120482
can attempt 0.1428571
can let 0.0119306
can wonder 0.0133333
can could 0.0182648
can read 0.0144928
can alter 0.0666667
can bagpipe 1.0000000
can failing 1.0000000
can fittest 0.1000000
can prevention 0.1000000
can authorities 0.1666667
can be 0.0028759
can honestly 0.1428571
can away 0.0057307
can jugglers 0.3333333
can borne 0.1000000
can remembering 0.5000000
can NULL 0.0039285
can needs 0.0273973
can merchant-marring 0.2000000
can place 0.0065789
can mayst 0.1304348
can are 0.0022866
can look 0.0054795
can disorder 0.1000000
can use 0.0330579
can cure 0.0416667
can long 0.0056818
can should 0.0052632
can bethink 0.0714286
can scarcely 0.0909091
can bald 0.1428571
can guess 0.1052632
can overborne 0.2500000
can hearing 0.0540541
can hath 0.0016367
can convenient 0.0555556
can hatch 0.3333333
can reply 0.0666667
can question 0.0138889
can troublous 0.2000000
can unparalleled 0.1250000
can retire 0.0909091
nymphs nymphs 1.0000000
nymphs encounter 0.0476190
nymphs footing 0.2000000
nymphs naiads 0.3333333
survivors men 0.0032468
survivors bring 0.0051813
survivors we 0.0007764
wait way 0.0046296
wait waited 0.1666667
wait a 0.0002318
wait you 0.0005327
wait yet 0.0019231
wait laertes 0.0256410
wait — 0.0008177
wait , 0.0000391
wait soft 0.1969697
wait ho 0.0080000
wait leisures 0.1666667
wait pause 0.1111111
wait mark 0.0066667
wait bear 0.0045872
wait our 0.0010684
wait kiss 0.0178571
wait patient 0.0384615
wait peace 0.0060976
wait give 0.0018657
wait expect 0.0526316
wait stand 0.0101523
wait hours 0.0188679
wait awhile 0.0270270
wait thee 0.0018553
wait tarrying 0.3333333
wait hold 0.0163934
wait softly 0.0454545
wait walk 0.0147059
wait abide 0.0384615
wait hardly 0.2000000
wait but 0.0009709
wait with 0.0004717
wait reckoning 0.2000000
wait ophelia 0.0434783
wait NULL 0.0001853
wait tarry 0.3846154
wait temporize 1.0000000
wait frame 0.0714286
wait bide 0.1111111
wait good 0.0017683
wait patience 0.0108696
wait watch 0.0416667
wait will 0.0009718
wait long 0.0113636
wait exceed 0.1428571
wait attend 0.1212121
wait i 0.0001178
wait make 0.0038241
wait stay 0.1151832
wait there 0.0023283
wait now 0.0017606
wait wait 0.4000000
wait hot 0.0285714
haste over-credulous 0.5000000
haste speed 0.0243902
haste haste 0.0129870
haste rashness 0.2000000
puffing swelling 0.3333333
favor favor 0.1363636
favor favour 0.2500000
favor requite 0.0833333
favor NULL 0.0001112
favor hands 0.0086207
favor good 0.0017683
favor turn 0.0175439
favor at 0.0012579
favor christian 0.0238095
favor towards 0.0344828
favor courteous 0.0769231
favor loves 0.0108696
favor request 0.1000000
favor prefer 0.0476190
favor entreat 0.0140845
favor me 0.0003393
favor grace 0.0054945
favor bidding 0.0769231
favor favors 0.0666667
favor best 0.0065359
favor suit 0.0727273
favor tidings 0.0454545
favor boon 0.2000000
mockers mockers 1.0000000
lovable miserable 0.1111111
lovable — 0.0008177
lovable but 0.0004854
lovable grace 0.0054945
warriors myrmidons 0.5000000
warriors warriors 0.5000000
warriors nervii 0.3333333
wealthy pursy 1.0000000
wealthy hebrew 0.1666667
wealthy wealthy 0.7142857
wealthy sufficient 0.1000000
merchant rocks 0.2500000
merchant come 0.0008834
merchant merchant 0.7272727
diseased cankers 0.1666667
thorn-bushes mallows 0.5000000
thorn-bushes docks 0.5000000
thorn-bushes or 0.0014493
thorn-bushes , 0.0000391
satisfying a 0.0002318
satisfying gypsy 1.0000000
satisfying cool 0.0588235
address alone 0.0111111
address dress 0.1111111
desdemona once 0.0071942
desdemona lady 0.0079365
desdemona procure 0.1428571
desdemona NULL 0.0000371
desdemona : 0.0062112
desdemona wooed 0.0769231
desdemona wooing 0.1250000
desdemona riches 0.1250000
desdemona well 0.0010173
desdemona cyprus 0.0322581
desdemona virtuous 0.0645161
desdemona desdemon 0.3333333
desdemona desdemona 0.8333333
fortune-teller a 0.0002318
fortune-teller fortune-teller 0.5000000
warden lieutenant 0.0217391
warden keeper 0.2500000
restful sweet 0.0041152
restful drowsy 0.1000000
restful of 0.0002135
restful syrups 0.5000000
considers in 0.0003020
considers he 0.0004186
considers call 0.0041841
considers all 0.0016639
considers full 0.0076336
considers esteems 0.1111111
siege siege 0.2222222
siege see 0.0017825
reminder admonishing 0.3333333
complicate cry 0.0117647
mild a 0.0004636
mild NULL 0.0000371
mild my 0.0002262
mild mild 0.3750000
mild words 0.0080645
mild subtle 0.5000000
mild in 0.0003020
mild tender 0.0243902
learns leaves 0.1000000
learns it 0.0003323
learns him 0.0005780
learns of 0.0002135
learns knows 0.0107527
learns image 0.0500000
learns loves 0.0108696
smells smells 0.5000000
smells nimbly 0.2000000
smells freckles 0.2000000
unrealistic improbable 1.0000000
unrealistic as 0.0005705
unrealistic fiction 0.5000000
unrealistic an 0.0018182
undeniable most 0.0019841
undeniable certain 0.0112360
fair justly 0.0500000
fair fair 0.2295082
fair most 0.0019841
fair it 0.0003323
fair NULL 0.0000741
fair meet 0.0212766
fair pleases 0.1111111
fair indian 0.1000000
fair unjustly 0.2000000
fair just 0.0200000
oath oath 0.6363636
oath sworn 0.0294118
oath forsworn 0.0344828
oath deeply 0.1000000
glazing at 0.0012579
glazing eight 0.0400000
glazing i 0.0001178
glazing set 0.0076923
glazing were 0.0017065
tragic the 0.0001222
tragic doth 0.0036900
tragic alas 0.0082645
tragic tragic 1.0000000
tragic tragedians 0.2500000
tragic day 0.0040161
tragic therein 0.0416667
project project 0.1666667
ruler burgundy 0.0500000
ruler rule 0.1428571
ruler governs 0.2500000
ruler president 0.5000000
deprived deprived 1.0000000
deprived are 0.0007622
deprived sense 0.0208333
solemnized 'd 0.0020080
solemnized solemniz 1.0000000
advise friendship 0.0588235
advise bid 0.0066667
advise in 0.0003020
advise do 0.0005744
advise entreat 0.0140845
advise should 0.0017544
advise counsel 0.1627907
advise advise 0.1052632
advise desire 0.0106383
cool blood 0.0058824
cool safer 0.1000000
cool begins 0.0434783
cool cool 0.2941176
cool guides 0.3333333
cool by 0.0017986
hats exhibition 0.5000000
hats coronets 0.2500000
hats put 0.0049261
hats hats 0.8000000
streetwalker public 0.1111111
streetwalker commoner 0.5000000
share shares 1.0000000
share show 0.0064516
share NULL 0.0000371
share part 0.0057143
share place 0.0065789
share my 0.0004525
share commend 0.0322581
share note 0.0125000
share world-sharers 0.2000000
share whole 0.0212766
share dear 0.0047847
share share 0.7142857
share sicily 0.2500000
share but 0.0004854
share commune 0.3333333
grunts pioneers 0.2000000
death-hour hour 0.0075188
death-hour 's 0.0014451
death-hour death 0.0041152
valiantly good 0.0008842
valiantly did 0.0014728
valiantly welshmen 0.1666667
valiantly valiantly 1.0000000
valiantly service 0.0121951
option humility 0.1428571
option for 0.0004047
option fittest 0.1000000
option end 0.0092593
option choose 0.0149254
hopeful yourself 0.0084746
hopeful dressed 0.0909091
death dishonored 0.1111111
death debt 0.0526316
death a 0.0002318
death judgement 0.1666667
death dying 0.0500000
death , 0.0001174
death instant 0.0333333
death reversed 0.1666667
death famished 0.1428571
death grind 0.1428571
death antony 0.0055556
death images 0.0714286
death head 0.0079365
death lease 0.5000000
death s 0.0006317
death proscription 0.2500000
death doom 0.1818182
death utterance 0.1666667
death starve 0.0714286
death one 0.0034072
death price 0.1000000
death fate 0.0454545
death felicity 0.1250000
death NULL 0.0004077
death fear 0.0028249
death condemnation 0.5000000
death die 0.0056497
death knell 0.2727273
death moiety 0.1428571
death dearly 0.0384615
death death 0.5761317
death dangers 0.0833333
death infants 0.1666667
death it 0.0006647
death briefest 0.5000000
death deadly 0.0625000
death blood 0.0058824
death single 0.0833333
death counterfeit 0.0400000
death talk 0.0101010
death journey 0.0833333
death slain 0.0263158
tyrannous tyrannous 0.1428571
legacies legacies 0.1111111
courtiers courtiers 0.3333333
courtiers little 0.0057471
courtiers your 0.0004252
courtiers ” 0.0032051
courtiers courtier 0.1111111
courtiers some 0.0019608
courtiers train 0.0909091
courtiers with 0.0004717
courtiers “ 0.0043860
meaner meaner 0.1111111
parrots parrots 0.1250000
proof trial 0.1250000
proof my 0.0002262
proof ’ 0.0003087
proof to 0.0001711
proof in 0.0003020
proof say 0.0012987
proof imputation 0.1111111
proof i 0.0001178
proof this 0.0008760
proof relative 0.1428571
proof show 0.0064516
proof warrant 0.0142857
proof satisfied 0.0227273
proof can 0.0024938
proof ocular 0.2500000
proof lord 0.0008818
proof proof 0.3793103
proof prove 0.0116279
proof satisfaction 0.1111111
proof speedy 0.0625000
proof be 0.0004108
proof nothing 0.0035088
proof some 0.0019608
indirect indirect 0.3333333
kindled feeds 0.1666667
kindled their 0.0018018
kindled fury 0.0400000
inadequacy disdainful 0.1111111
inadequacy such 0.0020492
inadequacy manner 0.0285714
lies slanders 0.1428571
lies lies 0.3333333
lies errors 0.3333333
lies forgeries 0.2500000
lies NULL 0.0000741
lies false 0.0107527
lies gives 0.0222222
lies still 0.0058480
lies invention 0.0833333
lies traitors 0.0294118
lies savagery 0.3333333
lies wrong 0.0067114
lies reports 0.1000000
lies falsehood 0.1250000
lies lie 0.0223881
flatter court 0.0161290
flatter dismayed 0.1250000
flatter be 0.0004108
flatter flattered 0.1250000
flatter flatter 0.1666667
flatter praise 0.0204082
enchanting that 0.0002726
enchanting enchanting 1.0000000
appropriate funerals 0.1666667
appropriate appertain 0.5000000
appropriate sorting 0.5000000
appropriate a 0.0004636
appropriate otherwise 0.0370370
appropriate NULL 0.0000371
appropriate fittest 0.1000000
appropriate jest 0.0250000
appropriate that 0.0002726
appropriate fitter 0.2500000
appropriate fitting 0.2500000
appropriate good 0.0008842
appropriate better 0.0041322
appropriate belongs 0.2500000
appropriate proper 0.0322581
appropriate become 0.0188679
appropriate season 0.0312500
unlawful unlawful 0.4000000
rate rate 0.2666667
rate we 0.0007764
gone made 0.0042553
gone NULL 0.0001482
gone yet 0.0019231
gone range 0.0769231
gone is 0.0002757
gone avaunt 0.0909091
gone absent 0.1500000
gone gone 0.3989071
gone gap 0.5000000
gone from 0.0012642
gone long 0.0056818
gone great 0.0038760
gone hence 0.0052356
gone bald 0.1428571
gone out 0.0020704
gone mute 0.2000000
gone demean 1.0000000
gone perfume 0.1000000
gone torch 0.1250000
gone lunacy 0.1666667
gone flight 0.0416667
gone was 0.0013141
gone thereon 1.0000000
gone spirits 0.0178571
gone removed 0.1111111
gone grows 0.0222222
gone distract 0.2000000
lament lamentation 0.1428571
gluttons epicurism 0.2500000
gluttons more 0.0011669
invited gone 0.0054645
invited bid 0.0066667
invited forth 0.0066225
invited invited 0.6250000
invited he 0.0004186
invited do 0.0005744
invited hath 0.0016367
invited somewhere 0.2500000
owned single 0.0833333
owned fee-grief 0.2500000
owned some 0.0019608
owned owed 0.2000000
ran met 0.0149254
ran NULL 0.0000371
ran daughter 0.0055556
ran did 0.0044183
ran coursed 0.5000000
ran purpose 0.0156250
ran my 0.0004525
ran is 0.0002757
ran fled 0.1304348
ran flew 0.2500000
ran run 0.0520833
ran ran 0.2857143
ran started 0.1250000
ran o 0.0009671
disciplined make 0.0019120
disciplined lack 0.0172414
disciplined no 0.0006930
disciplined discipline 0.2000000
grapes grapes 0.1428571
grapes NULL 0.0000371
grapes vine 0.3333333
cinna cinna 0.8823529
cinna NULL 0.0000371
yorks york 0.0555556
miserable made 0.0042553
miserable wretched 0.0740741
miserable tempest-tossed 0.2000000
miserable miserable 0.5555556
miserable s 0.0006317
miserable frustrate 0.1111111
miserable proud 0.0322581
miserable unhappy 0.0500000
dammed damned 0.0416667
crown NULL 0.0001482
crown crowns 0.0500000
crown crown 0.7049180
crown that 0.0002726
crown perforce 0.0500000
crown there 0.0011641
crown right 0.0090909
crown top 0.0454545
crown verge 0.2000000
crown sovereignty 0.1578947
crown fortinbras 0.1000000
crown diadem 1.0000000
open-eyed open-eyed 0.5000000
cobweb cobweb 1.0000000
ionian ionian 1.0000000
ionian cut 0.0161290
guest whilst 0.0333333
guest she 0.0012315
guest NULL 0.0000741
guest guest 0.4210526
guest s 0.0006317
conditions doth 0.0036900
conditions swear 0.0088496
conditions one 0.0017036
conditions injunctions 0.3333333
conditions as 0.0005705
conditions every 0.0057803
conditions conditions 0.1428571
protection protection 1.0000000
protection friendship 0.0588235
protection universal 0.1250000
protection warrant 0.0285714
protection landlord 1.0000000
protection shade 0.1250000
protection 's 0.0014451
protection sweet 0.0041152
protection shroud 0.1250000
protection ' 0.0012165
penalty bond 0.0212766
penalty forfeit 0.1764706
penalty forfeiture 0.5000000
penalty penalty 0.8000000
penalty judgement 0.1666667
penalty peril 0.0384615
penalty sooner 0.0714286
recover recovery 0.5000000
recover yet 0.0038462
recover for 0.0004047
recover recover 0.3333333
recover quick 0.0238095
ashamed shame 0.1058824
ashamed would 0.0010288
ashamed ashamed 0.5294118
ashamed no 0.0006930
ashamed , 0.0000391
ashamed asham 1.0000000
ashamed 'd 0.0020080
ashamed ashamèd 0.3333333
ashamed shamed 0.0714286
ashamed misgovernment 0.2000000
ashamed for 0.0004047
ashamed shamest 0.1666667
ashamed fie 0.0114943
ashamed blush 0.2000000
ashamed myself 0.0047619
ashamed touch 0.0200000
thunderclap greater 0.0303030
thunderclap crack 0.0714286
sink wi 0.0714286
sink power 0.0103093
sink ' 0.0024331
sink bark 0.0454545
sink burial 0.0769231
sink th 0.0035461
sink sink 0.4117647
outcome arbitrate 0.5000000
outcome NULL 0.0000371
outcome strokes 0.0909091
outcome issue 0.0294118
hecate hecate 0.7500000
disarm here 0.0011521
disarm disarm 1.0000000
disarm beauty 0.0250000
disarm again 0.0034965
disarm my 0.0002262
disarm unprovide 0.2500000
disarm mind 0.0067568
striking struck 0.0270270
striking strik 0.3333333
striking striking 1.0000000
reproach his 0.0005402
sweating sweating 0.2500000
sweating fall 0.0087719
sweating let 0.0010846
sweating thy 0.0009804
sweating lance 0.5000000
education education 0.6000000
education do 0.0005744
valentine valentine 0.2500000
valentine saint 0.0400000
employ entertain 0.0909091
separating parting 0.0909091
peter good 0.0008842
peter peter 0.8235294
barnardo has 0.0079365
barnardo barnardo 0.6000000
double-dealing NULL 0.0000371
double-dealing counsel 0.0232558
double-dealing double-dealing 0.5000000
mementos remembrances 0.5000000
powder powder 0.2500000
hacked 'd 0.0020080
hacked hacked 0.2000000
hacked hack 0.1666667
hacked til 0.5000000
hacked ’ 0.0003087
harfleur harfleur 0.7500000
harfleur 'ry 0.2500000
temperance temperance 0.1333333
temperance should 0.0017544
temperance temper 0.0625000
temperance bellows 1.0000000
thrush throstle 1.0000000
proclamation proclamation 0.0909091
thornbush thornbush 0.6666667
safest safest 0.2857143
hear know 0.0023148
hear partake 0.3333333
hear content 0.0121951
hear urine 0.3333333
hear hear 0.4011742
hear damnèd 0.0500000
hear mark 0.0133333
hear bear 0.0045872
hear him 0.0005780
hear music 0.0200000
hear prepared 0.0555556
hear perceive 0.0208333
hear this 0.0004380
hear glad 0.0147059
hear sorry 0.0212766
hear laughable 0.1666667
hear tend 0.0625000
hear fellow 0.0084746
hear heard 0.0409357
hear shrive 0.2857143
hear charmian 0.0434783
hear learn 0.0256410
hear embassy 0.5000000
hear hither 0.0068027
hear NULL 0.0007783
hear do 0.0005744
hear born 0.0147059
hear edgar 0.0909091
hear terribly 0.2500000
hear aloud 0.1111111
hear deafness 0.2000000
hear mourner 0.3333333
hear thrusting 0.2000000
hear distinguish 0.1428571
hear fame 0.0526316
hear hearing 0.1351351
hear shalt 0.0090909
hear suffer 0.0333333
hear dost 0.0105820
hear wake 0.0303030
hear apprehension 0.1111111
hear coming 0.0144928
hear ear 0.0229885
signiory , 0.0000391
signiory signiory 0.2000000
knots knots 0.3333333
once-trimmed hedges 1.0000000
joseph joseph 1.0000000
misguided erring 1.0000000
hops bird 0.0312500
hairs hairs 0.3157895
hairs been 0.0042553
hairs which 0.0016750
hairs feu 1.0000000
show lead 0.0322581
show know 0.0011574
show laertes 0.0256410
show signify 0.0833333
show drollery 0.5000000
show sacrifice 0.0769231
show seen 0.0103093
show let 0.0032538
show keep 0.0053763
show render 0.0526316
show show 0.4387097
show boast 0.0909091
show prouder 0.3333333
show appear 0.0357143
show their 0.0036036
show be 0.0004108
show tell 0.0022472
show promise 0.0166667
show unkennel 0.5000000
show NULL 0.0004818
show do 0.0005744
show merciful 0.0769231
show ceres 0.1666667
show basis 0.2000000
show counterfeited 0.2000000
show will 0.0004859
show bring 0.0103627
show bloody 0.0123457
show much 0.0024876
show teach 0.0200000
show tardy 0.0769231
show bowstrings 0.2000000
show ostentation 0.2000000
show winged 0.1666667
show make 0.0019120
show it 0.0009970
show enforce 0.1000000
show go 0.0012500
show counterfeit 0.0400000
show then 0.0036452
show sport 0.0377358
show dallying 0.1000000
depended depended 0.3333333
depended contain 0.1666667
depended life 0.0041152
obedience fearfulness 0.3333333
obedience homage 0.1111111
obedience duty 0.0117647
obedience obedience 0.3571429
casts the 0.0001222
casts doth 0.0036900
casts a 0.0002318
casts substance 0.1666667
casts noble 0.0048309
casts all 0.0008319
sobering sober 0.0833333
lack want 0.0303030
lack here 0.0011521
lack upon 0.0015699
lack sparks 0.1111111
lack forehead 0.0833333
lack leisure 0.0322581
lack my 0.0002262
lack children 0.0185185
lack vengeance 0.0769231
lack lack 0.0689655
lack such 0.0020492
lack mistrust 0.2500000
lack overtake 0.2000000
bids bids 0.0952381
bids ruined 1.0000000
bids this 0.0004380
bridegroom you 0.0001776
bridegroom a 0.0002318
bridegroom say 0.0012987
bridegroom bridegroom 0.3333333
bridegroom wants 0.0526316
offender offender 0.5000000
petitioner suitor 0.2857143
wheel nave 0.3333333
wheel NULL 0.0000371
wheel fixed 0.0909091
wheel wheel 0.4285714
wash wash 0.7500000
wash bathe 0.2000000
wash NULL 0.0000371
wash weather 0.0666667
wash clears 0.2500000
even unworthy 0.1250000
even dignity 0.0714286
even if 0.0033361
even beats 0.1428571
even better 0.0041322
even herod 0.3333333
even mountains 0.1428571
even life 0.0041152
even e 0.0392157
even appear 0.0178571
even but 0.0048544
even though 0.2086614
even howsoever 0.2000000
even catching 0.1111111
even goodness 0.0416667
even bore 0.0909091
even void 0.1250000
even still 0.0058480
even pansa 1.0000000
even brutus 0.0049751
even sweeter 0.1250000
even have 0.0004688
even think 0.0037453
even thy 0.0009804
even estimable 0.2000000
even throw 0.0750000
even albeit 0.0833333
even erebus 0.1000000
even bandy 0.1428571
even career 0.3333333
even quake 0.1000000
even can 0.0049875
even thou 0.0016026
even fouler 0.1111111
even sport 0.0377358
even lead 0.0107527
even a 0.0009272
even heavier 0.2000000
even sermons 0.5000000
even lived 0.0285714
even merrier 0.2500000
even sebastian 0.0303030
even in 0.0003020
even mouse 0.1000000
even latter 0.1666667
even cause 0.0071942
even very 0.0027933
even denying 0.1250000
even addition 0.0625000
even bond 0.0106383
even dreamt 0.0714286
even sustaining 0.5000000
even robs 0.1666667
even worse 0.0140845
even convict 0.2500000
even cloy 0.3333333
even calling 0.1111111
even angry 0.0232558
even assurance 0.0625000
even sparing 0.3333333
even improper 1.0000000
even self-endeared 0.2500000
even amaze 0.1428571
even i 0.0001178
even five 0.0263158
even smiles 0.0454545
even assault 0.1250000
even blacker 0.2500000
even as 0.0022818
even inevitable 0.1666667
even chastised 0.1666667
even however 0.1111111
even know 0.0034722
even unscorch 0.3333333
even contents 0.0454545
even interpret 0.1666667
even , 0.0008216
even not 0.0030279
even that 0.0008179
even wast 0.0588235
even wondering 0.1666667
even happier 0.1428571
even fierce 0.0909091
even boast 0.0909091
even regard 0.0555556
even sweats 0.2500000
even sooner 0.0714286
even obey 0.0156250
even leave 0.0035336
even falls 0.0357143
even actions 0.1428571
even wonderful 0.0400000
even ethiope 0.3333333
even deign 0.2500000
even meet 0.0070922
even whipped 0.0833333
even maritime 0.5000000
even pluck 0.0333333
even her 0.0008467
even full-fraught 0.2500000
even enemies 0.0357143
even boar 0.1111111
even suffer 0.0333333
even now 0.0008803
even more 0.0035006
even the 0.0011001
even breed 0.0370370
even yet 0.0153846
even innocents 0.2000000
even need 0.0224719
even gross 0.0384615
even swear 0.0088496
even or 0.0043478
even 'en 0.0400000
even went 0.0208333
even denial 0.1666667
even intelligence 0.0909091
even for 0.0028329
even vilely 0.1428571
even nay 0.0133333
even 'erpast 0.3333333
even evened 0.5000000
even even 0.3039216
even NULL 0.0023720
even bootless 0.0714286
even jot 0.0526316
even corrupted 0.1666667
even scratch 0.0769231
even brow 0.0625000
even admitted 0.1666667
even tear 0.0370370
even should 0.0017544
even except 0.0666667
even edge 0.1428571
even had 0.0019493
even space 0.0434783
even puddle 0.1666667
abuser abuser 1.0000000
dull-eyed 'd 0.0020080
dull-eyed dull-ey 1.0000000
rumble bellyful 0.5000000
rumble rumble 1.0000000
rumble great 0.0038760
rumble thy 0.0009804
breath breathes 0.0666667
breath merriman 0.5000000
breath stirs 0.1000000
breath NULL 0.0001112
breath catching 0.1111111
breath breathed 0.1250000
breath being 0.0055866
breath bulk 0.1250000
breath wind 0.0140845
breath distraction 0.1666667
breath breath 0.4032258
breath exhale 0.2500000
breath but 0.0004854
breath gasp 1.0000000
marle marle 1.0000000
immediately discharged 0.1111111
immediately NULL 0.0001112
immediately straightway 0.2500000
immediately time 0.0028090
immediately audience 0.0555556
immediately stays 0.0384615
immediately overthrow 0.1000000
immediately sacrifice 0.0769231
immediately expediently 1.0000000
immediately straight 0.0140845
immediately at 0.0025157
immediately immediately 0.6666667
immediately once 0.0143885
immediately it 0.0003323
immediately for 0.0004047
immediately instantly 0.3076923
immediately presently 0.0769231
immediately ready 0.0136986
immediately but 0.0004854
immediately present 0.0400000
immediately suddenly 0.0769231
horsemen leading 0.2000000
horsemen peeps 0.2000000
horsemen horsemen 1.0000000
trinculos trinculos 0.5000000
acceptance our 0.0010684
acceptance pass 0.0175439
acceptance accept 0.2000000
acceptance peremptory 0.1666667
acceptance suddenly 0.0769231
fresh breathes 0.0666667
fresh springs 0.1250000
fresh nuts 0.2000000
fresh reek 0.1250000
fresh fresh 0.4418605
fresh provoketh 0.2500000
fresh green 0.0434783
fresh gash 0.2500000
fresh reeking 0.3333333
fresh crisp 1.0000000
fresh best 0.0065359
condemn well 0.0010173
condemn done 0.0031646
condemn NULL 0.0000371
condemn have 0.0004688
condemn damn 0.0454545
condemn condemn 0.1111111
condemn afterwards 0.1111111
condemn found 0.0121951
involve inclining 0.1250000
involve subdue 0.1250000
figured know 0.0011574
figured hand 0.0035587
figured at 0.0012579
figured but 0.0004854
figured not 0.0002019
figured hit 0.0416667
figured choose 0.0149254
gallops gallops 0.5000000
mason mason 1.0000000
attendant attendant 0.2000000
attendant asses 0.1666667
bravest valorous 0.3333333
gather woo 0.0204082
gather muster 0.2500000
gather up 0.0031646
gather levy 0.2000000
gather assemble 0.2500000
gather straight 0.0140845
gather him 0.0005780
gather collect 1.0000000
gather pluck 0.0333333
gather and 0.0001398
crumb a 0.0002318
crumb as 0.0005705
crumb morsel 1.0000000
nippy eager 0.5000000
nippy air 0.0129870
nippy and 0.0001398
nippy an 0.0018182
housewife housewife 0.5000000
begging bade 0.0476190
begging prithee 0.0121951
begging a 0.0002318
begging most 0.0019841
begging bootless 0.0714286
begging petitionary 0.5000000
begging prayers 0.0250000
begging vehemence 1.0000000
begging beseech 0.0312500
begging pray 0.0028736
begging giving 0.0714286
begging beggar 0.0357143
begging asked 0.1428571
begging with 0.0004717
swinger gallant 0.0666667
handling handling 1.0000000
grievances enforce 0.1000000
grievances griefs 0.0526316
grievances stomaching 0.3333333
wears wear 0.0400000
wears top 0.0454545
wears wears 0.2857143
wears yoked 0.2000000
wears wasp 0.3333333
wears is 0.0002757
repeating iterance 0.2000000
repeating after 0.0066225
repeating needs 0.0136986
repeating echo 0.1250000
repeating this 0.0004380
explode blows 0.0476190
explode this 0.0004380
thoughtless rash 0.0555556
jupiter juno 0.1111111
jupiter jupiter 0.3000000
rose rose 0.5333333
rocks so 0.0005247
rocks chafes 0.5000000
rocks flints 1.0000000
rocks merchant-marring 0.2000000
rocks cannot 0.0018182
rocks idle 0.0344828
rocks high 0.0175439
rocks pebbles 0.5000000
rocks rocks 0.5000000
rocks heard 0.0058480
rocks be 0.0004108
reconcile atone 0.2857143
reconcile reconcile 0.1428571
artless artless 1.0000000
stirring stirring 0.0714286
stirring ardor 0.2500000
unwashed peasant 0.0909091
roared pronounced 0.0714286
roared of 0.0002135
roared roared 0.3333333
hedge boxtree 0.2000000
hedge hedge 0.1666667
supply interpret 0.1666667
supply furnish 0.1333333
supply supply 0.1428571
supply see 0.0017825
possesses possesses 0.2000000
em em 0.0363636
em NULL 0.0000371
em snatch 0.1666667
em up 0.0031646
final latest 0.6666667
final parle 0.2500000
adores met 0.0149254
adores lies 0.0095238
adores for 0.0004047
adores that 0.0002726
adores well 0.0010173
adores prays 0.0769231
adores one 0.0017036
adores dearly 0.0384615
adores adores 0.6666667
sting nettle-seed 0.5000000
sting sting 0.2500000
sting stinging 0.2500000
leaders leaders 0.3333333
affectionate fond 0.0416667
affectionate over 0.0212766
affectionate iniquity 0.1666667
panel casement 0.5000000
queens queens 1.0000000
surprise wonder 0.0133333
surprise marvel 0.0689655
surprise admiration 0.1111111
surprise up 0.0031646
surprise take 0.0023095
surprise though 0.0078740
excess excess 0.1428571
excess : 0.0031056
marcus marcus 0.9090909
la la 0.2500000
la without 0.0074627
fleece fleece 1.0000000
fleece fells 0.5000000
already given 0.0149254
already done 0.0063291
already cheerly 0.1111111
already burièd 0.2500000
already meditating 0.1428571
already come 0.0008834
already france 0.0169492
already employed 0.1000000
already cudgel 0.1428571
already in 0.0003020
already iron 0.1111111
already known 0.0117647
already offered 0.0333333
already prevents 1.0000000
already struck 0.0270270
already trim 0.2500000
already enter 0.0217391
already crow 0.0769231
already be 0.0004108
already love-springs 0.3333333
already embarked 0.0909091
already ready 0.0136986
already NULL 0.0006671
already plainness 0.0769231
already aboard 0.0344828
already confessed 0.1111111
already enkindled 0.1250000
already midnight 0.0526316
already tis 0.0010604
already hadst 0.0370370
already already 0.7333333
already long 0.0056818
already footed 0.1250000
already a-talking 0.1666667
already strucken 0.1250000
already dined 0.1111111
already under 0.0126582
already moved 0.0810811
already hath 0.0016367
already slain 0.0263158
already an 0.0018182
thanked 'erpaid 0.3333333
thanked NULL 0.0000371
thanked thanked 0.1250000
thanked thank 0.0081301
thanked any 0.0038760
thanked o 0.0009671
thanked i 0.0001178
immortal in 0.0003020
immortal me 0.0003393
immortal longings 0.3333333
immortal thing 0.0068966
immortal immortal 0.7058824
immortal itself 0.0196078
shhh hush 0.0909091
shhh no 0.0006930
shhh more 0.0011669
vengeful revengeful 0.5000000
vengeful not 0.0002019
vengeful murderers 0.0769231
ghost here 0.0011521
ghost vision 0.0666667
ghost pin 0.2500000
ghost relative 0.1428571
ghost shadow 0.0400000
ghost NULL 0.0000741
ghost ghost 0.5500000
ghost a 0.0002318
ghost terms 0.0476190
ghost spirit 0.0634921
ghost is 0.0002757
ghost apparition 0.2222222
ghost compulsatory 0.1428571
knowledge heap 0.0909091
knowledge intelligence 0.0909091
knowledge philosophy 0.0909091
knowledge deserving 0.0714286
knowledge knowledge 0.1081081
lena lena 0.5000000
lena speaks 0.0156250
danger lead 0.0107527
danger it 0.0003323
danger fear 0.0056497
danger NULL 0.0000371
danger — 0.0008177
danger lunacies 0.3333333
danger danger 0.3448276
danger wants 0.0526316
danger peril 0.0384615
danger means 0.0091743
danger controlment 0.1666667
danger hazard 0.0416667
danger lighted 0.0833333
colme colmekill 0.2500000
colme colme 1.0000000
dripped sweaten 0.3333333
dripped 's 0.0014451
victory helm 0.1666667
victory NULL 0.0000371
victory victorious 0.1666667
victory where 0.0019194
victory on 0.0028355
victory sit 0.0128205
victory victory 0.5000000
victory triumph 0.0500000
victory sits 0.0454545
victory palm 0.1000000
victory have 0.0004688
victory loured 1.0000000
victory conquest 0.0909091
victory thy 0.0009804
victory life 0.0041152
second-in-command ingraft 1.0000000
second-in-command second 0.0208333
second-in-command infirmity 0.0833333
second-in-command own 0.0040000
second-in-command an 0.0018182
cares may 0.0018904
cares of 0.0002135
cares do 0.0005744
cares come 0.0008834
cares that 0.0002726
cares go 0.0012500
cares thee 0.0009276
cares maintains 0.2500000
cares ' 0.0012165
cares adore 0.1250000
exchange yours 0.0096154
exchange even 0.0049020
exchange NULL 0.0001112
exchange change 0.0483871
exchange me 0.0003393
exchange undeservers 0.1666667
exchange bequeath 0.3333333
exchange exchange 0.2857143
exchange frown 0.0588235
insults offense 0.0200000
insults detract 0.5000000
insults dishonor 0.0833333
insults indignation 0.1111111
insults derision 0.2500000
insults injuries 0.1428571
saxony saxony 1.0000000
square satisfaction 0.0555556
square make 0.0019120
square pulpit 0.2000000
heavily life-blood 1.0000000
heavily in 0.0003020
heavily measure 0.0370370
heavily great 0.0038760
heavily perfumèd 0.3333333
heavily stoutly 0.2500000
veteran good 0.0008842
veteran old 0.0052083
attractive a 0.0002318
attractive dwell 0.0400000
attractive what 0.0004943
attractive NULL 0.0000371
attractive do 0.0005744
attractive smiles 0.0454545
attractive my 0.0002262
attractive graces 0.0476190
attractive attractive 0.1250000
attractive nature 0.0086207
attractive gracious 0.0161290
attractive person 0.0256410
attractive dimension 0.2500000
attractive in 0.0006040
attractive become 0.0188679
attractive love 0.0013550
gleam luster 0.2500000
triumph triumph 0.4500000
triumph unto 0.0073529
triumph poland 0.1428571
triumph home 0.0141844
revered dread 0.0625000
arms enfold 0.1666667
arms NULL 0.0000741
arms limbs 0.2000000
arms arms 0.4750000
arms lived 0.0285714
full-scale only 0.0117647
full-scale snatchers 0.5000000
full-scale coursing 0.2500000
reminds lively 0.1666667
reminds does 0.0060606
reminds remember 0.0095238
reminds ditty 0.1111111
blessedness blessedness 1.0000000
synagogue tubal 0.0526316
synagogue good 0.0008842
synagogue synagogue 0.4000000
pile caliban 0.0454545
pile them 0.0016181
pile pile 0.6000000
envy so 0.0005247
envy envy 0.1250000
envy his 0.0005402
envy with 0.0004717
envy envenom 0.5000000
envy knowing 0.0476190
doubts shake 0.0217391
doubts scruples 0.5000000
doubts NULL 0.0000371
doubts doubts 0.5000000
doubts us 0.0016103
doubts doubt 0.0168067
doubts that 0.0002726
lisbon lisbon 1.0000000
recline couch 0.0714286
recline do 0.0005744
busily it 0.0003323
busily most 0.0019841
busily busiest 0.2000000
astounds doth 0.0036900
astounds amaze 0.1428571
surrendered s 0.0006317
surrendered vassal 0.2000000
foix foix 1.0000000
sees show 0.0064516
sees NULL 0.0000371
sees shapes 0.1250000
sees danger 0.0344828
sees judgment 0.0192308
sees look 0.0027397
sees she 0.0012315
sees drowned 0.0416667
sees shall 0.0008130
sees then 0.0012151
sees doubly 0.3333333
sees his 0.0005402
sees sees 0.4583333
sees waking 0.0625000
sees eyes 0.0084034
unstable foul 0.0097087
unstable vulcan 0.3333333
virtue virtue 0.4193548
virtue it 0.0003323
virtue blot 0.1000000
virtue in 0.0003020
virtue privilege 0.1428571
virtue my 0.0004525
virtue is 0.0005514
hunts hunts 0.2500000
debauchery fuming 0.3333333
deal made 0.0085106
deal lady 0.0039683
deal affords 0.1428571
deal NULL 0.0001112
deal double-dealer 0.2500000
deal tis 0.0010604
deal gone 0.0054645
deal deal 0.2000000
deal bear 0.0091743
deal matter 0.0054054
deal in 0.0006040
deal business 0.0088496
deal bargain 0.1578947
deal it 0.0006647
deal match 0.0869565
deal changed 0.0416667
deal hand 0.0035587
deal faith 0.0060606
deal dealest 1.0000000
gospel gospell 0.5000000
gospel gospels 1.0000000
personal know 0.0011574
personal person 0.0256410
personal personal 0.5000000
personal stomaching 0.3333333
personal s 0.0006317
personal more 0.0011669
dighton dighton 1.0000000
disposal compt 0.1666667
disposal highness 0.0208333
commendable commendable 0.2500000
lordship lordship 0.2321429
lordship our 0.0010684
lordship sovereignty 0.0526316
lordship accept 0.2000000
lordship please 0.0135135
lordship duty 0.0117647
owner owner 0.5000000
owner parings 0.2500000
owner ' 0.0012165
owner keeper 0.2500000
owner lord 0.0008818
owner o 0.0009671
subsidy exhibition 0.5000000
buds buds 0.2000000
smudge smirch 1.0000000
smudge kind 0.0090090
smudge umber 1.0000000
smudge a 0.0002318
smudge of 0.0002135
smudge with 0.0004717
obligations obligation 0.2500000
soundless soundless 1.0000000
infatuation erflows 0.5000000
infatuation o 0.0009671
seductive songs 0.1111111
seductive me 0.0003393
seductive than 0.0017889
seductive timelier 0.5000000
seductive list 0.0277778
seductive called 0.0178571
wart wart 0.5000000
pearl orient 0.3333333
pearl he 0.0004186
pearl pearl 0.3333333
pearl union 0.3333333
chapped chopped 1.0000000
chargers coursers 0.5000000
drunkard drunkard 0.5000000
drunkard dead 0.0048309
drunkard one 0.0017036
dido she 0.0012315
dido ‘ 0.0454545
dido &ket; 0.0070423
dido dido 0.5882353
dido NULL 0.0000371
dido gonzalo 0.0357143
dido , 0.0000391
beautifully well 0.0010173
beautifully NULL 0.0000371
beautifully how 0.0011779
beautifully but 0.0004854
affections affection 0.0652174
affections affections 0.1428571
strangeness strangeness 0.2000000
trauma anguish 0.1428571
up-to-the-minute modern 0.2500000
revolting had 0.0019493
revolting the 0.0001222
revolting he 0.0004186
revolting would 0.0010288
revolting world 0.0039841
revolting all 0.0008319
revolting but 0.0004854
revolting quite 0.0285714
revolting forsworn 0.0344828
milk milch-kine 0.5000000
milk NULL 0.0000371
milk milk 0.2857143
hereafter hereafter 0.0769231
compelled 'd 0.0020080
compelled compell 1.0000000
dipped envenomed 0.2000000
riled storm 0.0357143
riled heated 0.5000000
riled you 0.0001776
riled how 0.0011779
earring in 0.0003020
earring pearl 0.0833333
ooze bedded 0.2000000
nastily kind 0.0090090
nastily yields 0.1428571
nastily answer 0.0051546
nastily never 0.0026385
meantime lady 0.0039683
meantime court 0.0161290
meantime s 0.0006317
meantime ’ 0.0003087
meantime lodging 0.0476190
meantime vices 0.2500000
meantime while 0.0306122
meantime encounter 0.0476190
meantime meantime 0.2368421
meantime interim 0.1818182
meantime mine 0.0025510
sweaty sweating 0.2500000
feasting plenty 0.1428571
feasting good 0.0008842
feasting our 0.0010684
feasting cheer 0.0175439
feasting feasting 0.2857143
yellow in 0.0003020
yellow yellow 0.6428571
yellow saffron 1.0000000
mender mender 0.5000000
mender cobbler 0.2000000
gambling slips 1.0000000
gambling swoopstake 0.3333333
gambling dice 0.3333333
gambling but 0.0004854
gambling usual 0.2500000
gambling and 0.0001398
adultery adultery 1.0000000
whenever 'st 0.0109890
whenever even 0.0049020
whenever NULL 0.0000741
whenever therefore 0.0035461
whenever leisure 0.0645161
whenever never 0.0052770
whenever kind 0.0180180
whenever patience 0.0108696
whenever at 0.0025157
whenever upon 0.0015699
whenever when 0.0105740
whenever soever 0.5000000
whenever st 0.0045045
whenever where 0.0038388
whenever by 0.0008993
whenever when- 1.0000000
exaggerate they 0.0012019
exaggerate a 0.0002318
exaggerate NULL 0.0000371
exaggerate are 0.0007622
exaggerate than 0.0017889
exaggerate varnish 1.0000000
exaggerate on 0.0009452
exaggerate double 0.0270270
exaggerate brutus 0.0049751
exaggerate makes 0.0106383
exaggerate greater 0.0303030
exaggerate set 0.0076923
hellish head 0.0079365
hellish hellish 1.0000000
disrespect shame 0.0117647
accomplishing act 0.0256410
b back 0.0093458
logic it 0.0003323
logic syllogism 0.5000000
logic NULL 0.0000371
logic how 0.0011779
logic reason 0.0080645
logic chase 0.1111111
logic dost 0.0052910
logic will 0.0004859
logic thou 0.0005342
logic simple 0.0400000
logic fondly 0.1666667
breastplate breast 0.0555556
dorset marquess 0.2000000
dorset dorset 1.0000000
oops barren 0.0500000
oops now 0.0008803
oops marry 0.0053476
oops am 0.0008271
thought-out thus 0.0029240
delay tardy 0.0769231
delay NULL 0.0000371
delay delay 0.4117647
delay stay 0.0052356
delay by 0.0008993
delay 'en 0.0200000
delay unwise 1.0000000
delay ta 0.0416667
delay more 0.0011669
seconds twenty 0.0172414
web thee 0.0009276
web web 0.6666667
web about 0.0062500
web ensnareth 1.0000000
partly in 0.0003020
partly partly 0.5000000
partly do 0.0005744
partly part 0.0114286
enlarge have 0.0004688
enlarge warranty 0.2500000
teach teaches 0.2500000
teach NULL 0.0000741
teach teacheth 0.2500000
teach teachest 0.2000000
teach counsel 0.0232558
teach teach 0.4400000
teach learn 0.0769231
teach break 0.0117647
teach lute 0.1666667
horns hornmaker 0.2500000
horns and 0.0001398
horns horn 0.0625000
horns horns 0.5000000
commanders battles 0.1428571
commanders know 0.0011574
commanders heads 0.0555556
commanders many 0.0060976
commanders prepare 0.0250000
commanders commanders 0.4444444
set savors 0.2500000
set pawn 0.1111111
set NULL 0.0002594
set odorous 0.5000000
set not 0.0002019
set discharge 0.1176471
set gone 0.0054645
set let 0.0010846
set fire 0.0098039
set hoist 0.1111111
set much 0.0024876
set befits 0.1000000
set down 0.0103627
set this 0.0008760
set prize 0.0666667
set lawful 0.1000000
set prepare 0.0250000
set set 0.2076923
set make 0.0038241
set determined 0.0833333
set me 0.0006787
set doubts 0.1666667
set ducats 0.0178571
set afire 0.2500000
berated rated 0.2500000
jig jig 0.5000000
tapestry arras 0.2000000
tapestry ducats 0.0178571
tapestry myself 0.0047619
tapestry tapestry 0.5000000
job well-took 0.2500000
job done 0.0031646
job rarely 0.1111111
job NULL 0.0001853
job limited 0.5000000
job place 0.0197368
job employment 0.1666667
job t 0.0051020
job brakenbury 0.1250000
job enterprise 0.0555556
job it 0.0003323
job dispatch 0.0256410
job service 0.0121951
job affair 0.0769231
job office 0.2830189
job well 0.0020346
job ill 0.0131579
job talk 0.0101010
job was 0.0013141
hawked 'd 0.0020080
hawked mousing 1.0000000
hawked hawk 0.2500000
hawked a 0.0002318
hawked owl 0.1428571
hawked by 0.0008993
rainbow bow 0.0952381
rainbow heavenly 0.0312500
boar boar 0.5555556
boar did 0.0014728
pious holy 0.0256410
pious pious 0.4000000
pious gospeled 0.2500000
stained out 0.0020704
stained purpled 0.5000000
stained NULL 0.0000371
stained blotted 0.2000000
stained stain 0.2857143
stained s 0.0006317
stained can 0.0024938
stained ’ 0.0003087
stained 'd 0.0020080
stained blot 0.1000000
stained hero 0.0434783
stained stained 0.1428571
stained itself 0.0098039
leader so 0.0005247
leader sword 0.0086957
leader leader 0.3333333
leader unswayed 0.2500000
leader majesty 0.0126582
leader s 0.0006317
leader ’ 0.0003087
met seen 0.0206186
met saw 0.0074627
met trencher 0.2000000
met met 0.2835821
met meet 0.0070922
met that 0.0002726
met more 0.0011669
met found 0.0243902
double-crossed traduced 0.3333333
tooth tooth 0.1666667
white hairs 0.0526316
white white 0.5312500
white NULL 0.0000741
white flaxen 1.0000000
capture NULL 0.0000371
capture taken 0.0333333
capture taking 0.0714286
capture entrap 0.2500000
capture fetch 0.0138889
capture take 0.0023095
capture achieve 0.2000000
wonder they 0.0012019
wonder peseech 0.5000000
wonder marvel 0.1034483
wonder contemplation 0.0833333
wonder can 0.0024938
wonder pause 0.0555556
wonder jove 0.0370370
wonder wonder 0.2533333
wonder think 0.0018727
wonder ; 0.0006614
wonder though 0.0039370
representation counterfeit 0.0400000
representation presentment 1.0000000
urgings persuasion 0.1000000
saint NULL 0.0000371
saint saint 0.6400000
susceptible of 0.0002135
susceptible in 0.0003020
susceptible imminent 0.1428571
disgusting abhorring 0.3333333
disgusting NULL 0.0000371
disgusting foul 0.0291262
disgusting name 0.0049020
disgusting my 0.0002262
disgusting gross 0.1538462
disgusting s 0.0006317
disgusting ’ 0.0003087
disgusting pish 0.1666667
disgusting kind 0.0090090
disgusting toads 0.1666667
disgusting fie 0.0114943
disgusting macbeth 0.0158730
disgusting abhorrèd 0.2000000
disgusting fault 0.0166667
torso sides 0.0500000
frowns doth 0.0036900
frowns frowns 0.8000000
frowns checks 0.2000000
frowns skill 0.1666667
frowns — 0.0008177
frowns frown 0.0588235
frowns ! 0.0003234
invented from 0.0012642
invented fire-new 0.5000000
violet violet 0.5000000
gracefully walk 0.0147059
gracefully featly 1.0000000
disobedient obedient 0.0714286
disobedient as 0.0005705
disobedient not 0.0002019
disobedient beldams 0.2000000
unwatched 'd 0.0020080
unwatched unwatch 0.5000000
unwatched go 0.0012500
betrothed betrothed 0.5000000
betrothed substitute 0.2000000
betrothed by 0.0008993
cawdor thane 0.0344828
cawdor NULL 0.0000371
cawdor it 0.0006647
cawdor cawdor 0.8823529
cawdor very 0.0027933
cawdor him 0.0005780
dared NULL 0.0000371
dared dared 0.2500000
dared tempted 0.2222222
dared durst 0.0975610
duel reckoning 0.2000000
duel desert 0.0500000
duel it 0.0003323
duel a 0.0002318
duel NULL 0.0000371
duel for 0.0004047
duel withdraw 0.0250000
duel orchard 0.1000000
duel young 0.0070922
duel end 0.0092593
duel satisfaction 0.0555556
duel challenge 0.0769231
duel challenged 0.1666667
duel call 0.0041841
duel field 0.0238095
bats bats 1.0000000
anticipate anticipatest 1.0000000
visitor visitor 1.0000000
freeman freeman 1.0000000
doll me 0.0003393
doll baby 0.1818182
doll protest 0.0285714
brow brow 0.1250000
brow brows 0.0909091
brow looks 0.0107527
aleppo aleppo 1.0000000
parties revels 0.0666667
parties pomp 0.0666667
parties masques 0.0714286
parties guests 0.2000000
deeds exploits 0.2000000
deeds NULL 0.0000371
deeds relate 0.2000000
deeds quake 0.1000000
deeds play 0.0062500
deeds exercise 0.1000000
deeds all 0.0008319
deeds feats 0.2000000
deeds deeds 0.4782609
deeds calumnious 0.2500000
deeds mischiefs 0.2500000
dragged 'd 0.0020080
dragged dragg 1.0000000
dragged rather 0.0076923
dragged drawn 0.0454545
dragged hath 0.0016367
taunting taunting 1.0000000
taunting mock 0.0172414
taunting very 0.0027933
taunting thou 0.0005342
taunting st 0.0045045
taunting ’ 0.0003087
sight swoons 0.1666667
sight NULL 0.0001112
sight ill-favoredly 0.2500000
sight lurk 0.2000000
sight late 0.0151515
sight apparition 0.1111111
sight face 0.0077519
sight hose 0.0909091
sight from 0.0012642
sight thy 0.0009804
sight hence 0.0052356
sight sight 0.4936709
sight avoid 0.0500000
sight spectacle 0.2000000
sight hatred 0.1666667
sight eye 0.0300000
sight sense 0.0208333
sight vanish 0.1250000
religion religion 0.2500000
religion sanctimony 1.0000000
religion if 0.0008340
outrageous most 0.0019841
outrageous monster 0.0123457
outrageous tyrannically 0.1666667
outrageous lewd 0.1666667
gentleman gallant 0.0666667
gentleman seigneur 1.0000000
gentleman gentleman 0.5816327
gentleman NULL 0.0000741
gentleman counseled 0.2500000
gentleman books 0.0714286
gentleman gallants 0.1428571
gentleman lord 0.0008818
gentleman gently 0.0384615
gentleman gen- 0.6666667
gentleman qualities 0.3333333
gentleman sir 0.0011299
gentleman spoken 0.0357143
protected deserved 0.0344828
protected ensheltered 0.2500000
protected it 0.0006647
protected walled 0.1666667
protected nor 0.0029070
protected claimed 0.1666667
lateness tardy 0.0769231
lateness come 0.0008834
lateness off 0.0069444
oppression yoke 0.0833333
oppression the 0.0001222
oppression country 0.0208333
oppression our 0.0010684
oppression beneath 0.1428571
oppression sinks 0.2500000
oppression sufferance 0.0909091
misses lack 0.0172414
misses shall 0.0008130
misses mistake 0.0277778
misses totally 0.1666667
perfect so 0.0010493
perfect very 0.0027933
perfect perfectest 0.5000000
perfect for 0.0004047
perfect form 0.0384615
perfect all 0.0008319
perfect fullness 0.2000000
perfect matching 0.5000000
perfect perfect 0.3500000
perfect gods 0.0097087
perfect peerless 0.3333333
perfect rehearsal 0.2000000
perfect stillness 0.1428571
perfect perfection 0.1250000
mend cobble 0.5000000
mend mend 0.1428571
driven threaden 0.2500000
driven made 0.0042553
driven draw 0.0103093
driven thence 0.0263158
driven moved 0.0270270
driven , 0.0000391
driven turned 0.0370370
driven rebuked 0.3333333
driven from 0.0012642
driven beat 0.0392157
driven came 0.0073529
driven driven 0.2500000
driven droven 0.5000000
bedrooms chambers 0.1428571
bedrooms hand 0.0035587
bedrooms at 0.0012579
bedrooms that 0.0002726
bedrooms near 0.0089286
unworthy unworthy 0.1250000
unworthy unworthiness 0.1666667
unworthy undeservers 0.1666667
unworthy NULL 0.0000371
unworthy mine 0.0025510
unworthy worthless 0.1666667
birth birth 0.2307692
birth whelpèd 0.3333333
birth a 0.0002318
birth NULL 0.0001482
birth born 0.0735294
birth breeding 0.1111111
birth burden 0.0714286
birth gender 0.2500000
birth agony 0.2000000
birth shambles 0.1666667
birth stars 0.0555556
birth rounded 0.2000000
birth transmutation 1.0000000
birth breeder 0.2500000
birth blood 0.0058824
birth minute 0.0909091
birth be 0.0004108
heaviness heaviness 0.2000000
illusion cinquepace 0.2500000
illusion a 0.0002318
illusion dream 0.0163934
illusion illusion 0.1000000
illusion proud 0.0322581
both contracted 0.3333333
both tripped 0.2500000
both woo 0.0204082
both majesties 0.1428571
both messenger 0.0312500
both NULL 0.0005189
both : 0.0031056
both both 0.5414634
both two 0.0099010
both gone 0.0054645
both matter 0.0108108
both eaten 0.0666667
both knaves 0.0555556
both jointly 0.5000000
both article 0.1000000
both revenged 0.0714286
both give 0.0018657
both ambles 0.1428571
both yourselves 0.0540541
both covenants 0.3333333
both re 0.0769231
both sure 0.0136054
both graces 0.0476190
both but 0.0004854
both crab 0.0909091
signor him 0.0005780
signor signor 0.2916667
signor signior 0.0694444
signor commends 0.0769231
flew flung 1.0000000
farmworker swain 0.2500000
vices make 0.0019120
vices vices 0.5000000
vices in 0.0003020
vices instruments 0.0666667
vices viciousness 0.3333333
sailor you 0.0001776
sailor now 0.0008803
sailor sailor 0.5000000
sailor have 0.0004688
sailor no 0.0006930
sailor sea-cap 0.2000000
dug digt 0.2500000
oyster oyster 0.3333333
shameless varlet 0.2500000
shameless brazen-faced 1.0000000
cheated beguile 0.1000000
cheated false 0.0215054
cheated cheated 1.0000000
cheated turned 0.0370370
cheated slaughter 0.0909091
cheated unscarred 0.2500000
cheated 'erraught 0.1428571
cheated bleeding 0.1111111
cheated folly 0.0357143
cheated was 0.0013141
cheated side 0.0232558
cheated seamy 0.1111111
cheated myself 0.0047619
cheated fopped 0.2000000
cheated o 0.0009671
graft so 0.0005247
graft inoculate 0.2000000
proculeius proculeius 0.7500000
hedonism wassails 1.0000000
hedonism lascivious 0.3333333
pharsalia pharsalia 1.0000000
spouse fellow 0.0084746
general-honest general 0.0112360
general-honest honest 0.0068966
harassed let 0.0010846
harassed us 0.0016103
harassed worried 0.2500000
morocco morocco 1.0000000
mainly mainly 1.0000000
toiled 'd 0.0020080
toiled unbreathed 0.5000000
toiled toil 0.0625000
toiled with 0.0004717
toiled memories 0.5000000
banquo deep 0.0192308
banquo flight 0.0416667
banquo stick 0.0666667
banquo banquo 0.9459459
banquo reigns 0.1428571
banquo feared 0.0625000
banquo nature 0.0086207
anytime or 0.0014493
anytime now 0.0008803
anytime provided 0.0588235
anytime whensoever 0.2500000
anytime ready 0.0136986
plotted did 0.0029455
plotted plot 0.1000000
drinking NULL 0.0000741
drinking unfilled 0.3333333
drinking s 0.0012634
drinking potting 0.5000000
drinking our 0.0021368
drinking throats 0.0714286
drinking used 0.0322581
drinking pledge 0.1250000
drinking drinking 0.5000000
drinking drink 0.0131579
dangers would 0.0010288
dangers into 0.0048309
dangers perils 0.3333333
dangers dangers 0.4166667
regular fourteen 0.1428571
regular blushing 0.3333333
regular that 0.0002726
erotic wanton 0.0714286
artemidorus artemidorus 0.5000000
pellet pelleted 0.5000000
takethe take 0.0023095
relief hour 0.0075188
relief relief 0.0833333
relief physic 0.1250000
relief therein 0.0416667
relief felicity 0.1250000
wet wet 1.0000000
wet in 0.0003020
wet bedabbled 0.3333333
wet woe 0.0294118
wet wetting 1.0000000
twisted on 0.0009452
twisted made 0.0042553
twisted waved 0.3333333
twisted is 0.0002757
world-traveled vincentio 0.1666667
signals to 0.0001711
signals us 0.0016103
signals astonish 0.3333333
signals heralds 0.3333333
signals dreadful 0.0625000
no yes 0.0116279
no swoons 0.1666667
no these 0.0023866
no unbound 0.2000000
no greener 1.0000000
no damnable 0.1666667
no you 0.0005327
no cannot 0.0018182
no come 0.0008834
no flatter 0.1111111
no not 0.0064594
no that 0.0008179
no nobody 0.2000000
no whatever 0.2000000
no heavy 0.0185185
no on 0.0009452
no madonna 0.0666667
no gone 0.0054645
no longer 0.0400000
no extravagancy 0.1666667
no slept 0.0476190
no veins 0.1000000
no years 0.0169492
no race 0.0909091
no day 0.0040161
no anchoring 0.1666667
no peace 0.0060976
no lost 0.0252101
no chill 0.2500000
no out 0.0082816
no regard 0.0555556
no strained 0.1428571
no deny 0.0439560
no honored 0.0714286
no grief 0.0175439
no appear 0.0178571
no pacified 0.1428571
no impossible 0.0434783
no celerity 0.1111111
no betide 0.1000000
no love 0.0013550
no faith 0.0181818
no but 0.0014563
no too 0.0024213
no none 0.1076389
no stir 0.0250000
no perforce 0.0500000
no velvet 0.3333333
no guiltiness 0.1428571
no indeed 0.0039841
no men 0.0032468
no oh 0.0117647
no nor 0.0406977
no thy 0.0009804
no neither 0.0217391
no barefaced 0.2500000
no master 0.0042373
no it 0.0009970
no sure 0.0068027
no saying 0.0370370
no 's 0.0014451
no stopped 0.1111111
no man 0.0013736
no unfellowed 0.3333333
no little 0.0057471
no truly 0.0116279
no non 1.0000000
no more 0.0023337
no horrible 0.0400000
no false 0.0215054
no a 0.0020862
no howso 0.3333333
no no 0.4844075
no natural 0.0400000
no inferior 0.2500000
no mong 0.1666667
no let 0.0010846
no in 0.0012081
no blank 0.1250000
no suspicion 0.0526316
no cause 0.0143885
no remorse 0.0714286
no this 0.0004380
no madam 0.0088106
no alas 0.0495868
no for 0.0008094
no permission 0.1000000
no meant 0.0454545
no me 0.0016966
no protest 0.0285714
no nay 0.6000000
no rather 0.0153846
no lover 0.0416667
no advancement 0.0625000
no teeth 0.0526316
no provokèd 0.1250000
no wailed 0.2000000
no unhappy 0.0500000
no chapless 0.5000000
no NULL 0.0030761
no jot 0.0526316
no surgery 0.1428571
no never 0.0184697
no believed 0.1000000
no rebels 0.0769231
no soldiership 0.1428571
no beauty 0.0250000
no at 0.0037736
no cease 0.0625000
no i 0.0009426
no undone 0.0400000
no first 0.0058824
no conqueror 0.3333333
no understands 0.2500000
no legitimate 0.1666667
no doubt 0.0672269
no play 0.0062500
no shallow 0.0769231
no sans 0.2500000
no there 0.0034924
no launcelot 0.0333333
no controlment 0.1666667
no hand 0.0035587
no falstaff 0.2000000
no why 0.0029806
no nothing 0.0105263
no nonpareil 0.1111111
no 'm 0.2000000
no o 0.0019342
anxious dismay 0.1111111
anxious fain 0.0416667
anxious have 0.0004688
anxious been 0.0042553
anxious be 0.0004108
anxious much 0.0024876
anxious careful 0.1250000
anxious hotly 0.1250000
anxious called 0.0178571
mixes seasons 0.1666667
agincourt agincourt 1.0000000
agincourt they 0.0012019
agincourt it 0.0003323
agincourt call 0.0041841
accommodation accommodation 1.0000000
dumps your 0.0004252
dumps dumps 0.5000000
gnats gnats 0.2500000
gnats degrees 0.1428571
lorded overmastered 0.3333333
self-delusions the 0.0001222
self-delusions initiate 0.2000000
self-delusions fear 0.0028249
self-delusions that 0.0002726
self-delusions is 0.0002757
self-delusions self-abuse 1.0000000
self-delusions and 0.0001398
object question 0.0138889
object make 0.0019120
object object 0.3000000
object annexment 0.2500000
object are 0.0007622
object poisons 0.1428571
shedding the 0.0001222
shedding till 0.0043668
shedding bathe 0.2000000
shedding legerity 0.1250000
shedding 'errun 0.2500000
invent invent 0.1250000
pinch tweaks 0.5000000
pinch over-red 0.2500000
pinch pinch 0.6250000
pinch me 0.0003393
pinch unwrung 0.5000000
pinch by 0.0008993
tyrannically tyrannically 0.1666667
tyrannically clapped 0.1666667
woe woe 0.1764706
marching marching 0.5000000
beauties beauties 0.2000000
gentles gentles 0.5000000
salisbury salisbury 1.0000000
dissuade persuaded 0.1666667
dissuade so 0.0005247
dissuade have 0.0004688
dissuade mightily 0.1111111
go chastisement 0.1111111
go forth 0.0596026
go wend 0.2500000
go requisites 0.2000000
go dwell 0.0400000
go you 0.0060369
go fly 0.0306122
go come 0.0141343
go prayers 0.0250000
go see 0.0160428
go broached 0.1666667
go hogs 0.2500000
go ireland 0.1111111
go fairs 0.3333333
go suits 0.1111111
go keep 0.0053763
go business 0.0088496
go slomber 1.0000000
go serve 0.0125000
go extend 0.0909091
go weep 0.0111111
go pronounce 0.0714286
go ll 0.0096308
go them 0.0048544
go bite 0.1000000
go savage 0.0769231
go aroint 0.2857143
go borders 0.2000000
go nunnery 0.0625000
go spade 0.1000000
go again 0.0034965
go commanded 0.0555556
go and 0.0002796
go rest 0.0141844
go stir 0.0750000
go descend 0.1000000
go will 0.0014577
go unsafe 0.1428571
go dismiss 0.0833333
go press 0.0434783
go thy 0.0009804
go tune 0.0400000
go orderly 0.1666667
go pass 0.0175439
go revels 0.0666667
go said 0.0061728
go going 0.0810811
go transform 0.1428571
go part 0.0114286
go wander 0.0666667
go whistle 0.1428571
go persever 0.2500000
go sauce 0.1428571
go wait 0.0400000
go haste 0.0129870
go fret 0.0625000
go forsworn 0.0344828
go privilegio 0.2000000
go vanish 0.1250000
go way 0.0092593
go assume 0.0588235
go circumvent 0.5000000
go relief 0.0833333
go pay 0.0185185
go — 0.0024530
go depart 0.0312500
go off 0.0069444
go soft 0.0151515
go wildcat 0.1428571
go contriving 0.5000000
go got 0.0238095
go in 0.0006040
go fetch 0.1250000
go perish 0.1000000
go stand 0.0050761
go toward 0.0400000
go ask 0.0149254
go caelius 0.2500000
go s 0.0012634
go c 0.5000000
go unwatch 0.5000000
go pack 0.1000000
go quickly 0.0322581
go cast 0.0250000
go resurvey 0.2500000
go withdraw 0.1500000
go hit 0.0416667
go mad 0.0227273
go after 0.0596026
go run 0.0416667
go begone 0.8000000
go am 0.0008271
go us 0.0016103
go get 0.2040816
go attend 0.0303030
go hence 0.0785340
go i 0.0011783
go farther 0.0384615
go conduct 0.0625000
go goest 0.2000000
go quiet 0.0285714
go unfold 0.0555556
go crowner 0.1428571
go heart 0.0031949
go sue 0.1428571
go minstrels 0.3333333
go back 0.0560748
go go 0.5312500
go there 0.0011641
go well 0.0030519
go everyone 0.0833333
go cullions 1.0000000
go woo 0.0204082
go forward 0.1071429
go along 0.0434783
go , 0.0005868
go not 0.0002019
go grow 0.0200000
go take 0.0023095
go gate 0.0400000
go on 0.0047259
go gone 0.0710383
go mark 0.0066667
go slept 0.0476190
go gently 0.0384615
go further 0.0303030
go break 0.0117647
go departure 0.0666667
go greek 0.1250000
go thee 0.0064935
go brier 0.5000000
go madness 0.0606061
go uncle 0.0178571
go adriana 0.3333333
go walk 0.0294118
go budge 0.2857143
go obey 0.0312500
go fished 0.1666667
go i. 0.0086957
go with 0.0004717
go leave 0.0176678
go here 0.0011521
go must 0.0171607
go visit 0.0869565
go meet 0.0070922
go goes 0.0384615
go do 0.0034463
go into 0.0048309
go avaunt 0.2727273
go good 0.0008842
go to 0.0047904
go incontinently 0.2000000
go oh 0.0039216
go from 0.0012642
go towards 0.0344828
go motion 0.0454545
go kneeled 0.1111111
go home 0.0354610
go set 0.0153846
go complain 0.1666667
go cabin 0.1111111
go repair 0.1538462
go &amp; 0.3333333
go comfort 0.0135135
go females 0.5000000
go pursue 0.0476190
go ones 0.0333333
go thither 0.1515152
go heigh 0.3333333
go little 0.0057471
go wake 0.0303030
go now 0.0008803
go proceed 0.2222222
go then 0.0024301
go unhand 0.5000000
go traverse 0.2500000
go bed 0.0232558
go speak 0.0016447
go beseech 0.0208333
go went 0.0416667
go about 0.0187500
go th 0.0035461
go this 0.0008760
go t 0.0025510
go lay 0.0113636
go swim 0.1250000
go slaves 0.0833333
go sojourn 0.3333333
go whither 0.0188679
go enter 0.1304348
go near 0.0089286
go abed 0.1000000
go ways 0.0277778
go nay 0.0044444
go miss 0.1111111
go be 0.0057518
go away 0.1289398
go NULL 0.0029649
go needs 0.0410959
go hasten 0.1250000
go therefore 0.0141844
go up 0.0063291
go amp 0.5000000
go look 0.0027397
go use 0.0082645
go been 0.0042553
go bring 0.0103627
go say 0.0038961
go counsel 0.0232558
go call 0.0041841
go fust 0.5000000
go saved 0.0434783
go hunt 0.2222222
go billeted 0.1666667
go moveables 0.2000000
go return 0.0869565
go question 0.0138889
go prevailed 0.0909091
go speedy 0.1250000
go retire 0.1818182
go air 0.0129870
go decius 0.0714286
go somewhere 0.2500000
go sleep 0.0145985
go seek 0.0214286
unaware wrong 0.0067114
unaware knowledge 0.0270270
unaware imaginations 0.5000000
unaware woes 0.1250000
unaware up 0.0031646
unaware lose 0.0147059
unaware by 0.0008993
toasts given 0.0149254
toasts NULL 0.0000371
toasts tis 0.0010604
toasts vouch 0.1250000
toasts healths 0.2500000
toasts 'd 0.0020080
toasts with 0.0009434
toasts drinking 0.1000000
toasts welcome 0.0055866
brilliant most 0.0019841
brilliant gull-catcher 0.2500000
brilliant exquisite 0.1818182
brilliant my 0.0004525
coroner crowner 0.2857143
coroner 's 0.0014451
coroner on 0.0009452
coroner let 0.0010846
coroner sat 0.1111111
coroner ' 0.0012165
coroner ; 0.0006614
coroner her 0.0008467
chink chink 0.5000000
dish dish 0.5000000
dish again 0.0034965
tree well 0.0010173
tree tree 0.9411765
tree may 0.0018904
tree verse 0.1666667
tree pine 0.1666667
tree oak 0.2000000
tree cessez 0.5000000
emperor NULL 0.0000371
emperor emperor 0.7142857
emperor imperious 0.3333333
emperor continues 0.2500000
emperor leather 0.1666667
emperor s 0.0006317
third good 0.0008842
third snaffle 1.0000000
third tertio 1.0000000
third part 0.0114286
third third 0.4545455
third play 0.0062500
third is 0.0002757
superseded to 0.0001711
superseded way 0.0046296
superseded may 0.0018904
superseded give 0.0018657
superseded enmities 0.1666667
superseded lesser 0.0666667
forgery baseness 0.0769231
profound right 0.0090909
imperfections out 0.0020704
imperfections piece 0.0294118
imperfections ill-well 0.3333333
imperfections imperfections 0.2000000
imperfections him 0.0005780
imperfections unless 0.0196078
imperfections with 0.0004717
folks bedfellows 0.5000000
folks quick-witted 0.5000000
folks folks 0.5000000
govern govern 0.1428571
govern NULL 0.0000371
govern in 0.0003020
govern nonage 0.1666667
govern rules 0.1666667
defy 'd 0.0020080
defy defy 0.1250000
defy mock 0.0172414
defy fear 0.0028249
defy drugg 1.0000000
defy brave 0.0188679
defy her 0.0008467
faithless faithless 1.0000000
route pursuit 0.5000000
route way 0.0046296
route from 0.0012642
route hide 0.0270270
route shorter 0.1666667
route us 0.0016103
route safest 0.1428571
disease the 0.0003667
disease upon 0.0015699
disease NULL 0.0000371
disease ague 0.0909091
disease which 0.0016750
disease up 0.0031646
disease that 0.0002726
disease s 0.0012634
disease disease 1.0000000
disease ’ 0.0006175
disease pestilence 0.5000000
disease thee 0.0009276
disease imminent 0.1428571
disease dropsy 0.2500000
disease contagion 0.1428571
disease plague 0.0344828
tortures pinched 0.2000000
tortures death 0.0041152
tortures torture 0.1250000
cobbler cobbler 0.6000000
shriveling blastments 0.3333333
shriveling are 0.0007622
thunder bellyful 0.5000000
thunder thunders 0.2500000
thunder thunder 0.5238095
stole stolen 0.0555556
stole hast 0.0048544
stole pay 0.0185185
stole not 0.0002019
stole hath 0.0016367
stole took 0.0408163
stole steal 0.0384615
stole dear 0.0047847
stole got 0.0238095
stole lapsèd 0.1428571
stole in 0.0006040
stole myself 0.0047619
stole usurp 0.1538462
stole stole 0.4285714
stole this 0.0004380
stole didst 0.0095238
stole usurped 0.2000000
accused so 0.0005247
accused upon 0.0015699
accused wronged 0.0434783
accused accused 0.4000000
accused belied 0.1428571
accused are 0.0015244
accused bewhored 0.1428571
accused falsely 0.0666667
accused cause 0.0071942
unbelievable wonderful 0.0800000
unbelievable most 0.0019841
unbelievable of 0.0002135
unbelievable rarities 0.1666667
unbelievable vouched 0.2500000
unbelievable many 0.0060976
unbelievable breath 0.0161290
unbelievable blood 0.0058824
unbelievable insupportable 0.3333333
unbelievable rarity 0.1428571
unbelievable and 0.0001398
behind brine 0.3333333
behind left 0.0112360
behind behind 0.6578947
behind leaves 0.1000000
behind wood 0.0175439
behind NULL 0.0000371
behind pool 0.5000000
behind him 0.0011561
behind in 0.0003020
behind before 0.0038911
behind second 0.0208333
behind back 0.0186916
behind exercise 0.1000000
behind within 0.0083333
behind cunning 0.0322581
behind gifts 0.0625000
behind sympathize 1.0000000
behind hand 0.0035587
behind driven 0.2500000
behind why 0.0014903
behind boxtree 0.2000000
behind leave 0.0035336
behind hell 0.0147059
hysterically laughable 0.1666667
bad corruption 0.0833333
bad checks 0.2000000
bad damnable 0.1666667
bad pitiful 0.0769231
bad contents 0.0454545
bad untimely 0.0625000
bad that 0.0013631
bad portents 0.1428571
bad exclaim 0.0833333
bad fortune 0.0232558
bad witless 0.2500000
bad race 0.0909091
bad out 0.0020704
bad mischief 0.0526316
bad foul 0.0582524
bad brooks 0.1666667
bad monstrous 0.0344828
bad lest 0.0166667
bad obstruction 0.1428571
bad tell 0.0022472
bad hard 0.0128205
bad steps 0.1428571
bad humor 0.0232558
bad moody 0.1250000
bad pity 0.0404040
bad bad 0.6393443
bad extremely 0.5000000
bad knavery 0.0555556
bad takes 0.0370370
bad from 0.0037927
bad tales 0.0909091
bad abound 0.1428571
bad costs 0.2000000
bad wretched 0.0370370
bad effect 0.0312500
bad faults 0.0416667
bad man 0.0013736
bad thou 0.0005342
bad governed 0.1000000
bad the 0.0001222
bad unbreathed 0.5000000
bad fright 0.0769231
bad certainly 0.0625000
bad disturbèd 0.5000000
bad 'en 0.0200000
bad wrong 0.0134228
bad might 0.0060976
bad sorrows 0.0476190
bad alas 0.0082645
bad predictions 0.1666667
bad else 0.0055249
bad ill 0.2368421
bad their 0.0018018
bad grossly 0.0769231
bad such 0.0040984
bad begun 0.1000000
bad shoes 0.0666667
bad thick 0.0588235
bad NULL 0.0007042
bad sultry 0.1250000
bad harmed 0.2000000
bad knavish 0.3333333
bad importunity 0.1666667
bad papers 0.1111111
bad lamented 0.1666667
bad totters 0.2500000
bad fortunes 0.0434783
bad naught 0.0370370
bad lives 0.0105263
bad marred 0.0909091
bad while 0.0102041
bad vile 0.0227273
bad mend 0.0285714
bad tale 0.0243902
skirmish grapple 0.3333333
occasion bids 0.0476190
occasion arbitrament 0.1428571
occasion time 0.0028090
occasion occasion 0.1250000
occasion season 0.0312500
ashes the 0.0001222
ashes cinders 0.3333333
ashes for 0.0004047
ashes burièd 0.2500000
ashes dust 0.0666667
ashes tis 0.0010604
ashes engineer 1.0000000
ashes sport 0.0188679
something you 0.0005327
something contents 0.0454545
something not 0.0008074
something employed 0.1000000
something that 0.0032715
something see 0.0017825
something save 0.0169492
something dross 0.1666667
something mischief 0.1052632
something what 0.0019773
something laughable 0.1666667
something greek 0.1250000
something trash 0.0909091
something ought 0.1250000
something falsing 0.2000000
something again 0.0069930
something some 0.0156863
something promise 0.0166667
something leave 0.0070671
something is 0.0002757
something all 0.0008319
something followed 0.0227273
something aught 0.0377358
something will 0.0009718
something teach 0.0200000
something something 0.5200000
something sparks 0.1111111
something poise 0.2000000
something cozen 0.1666667
something readiest 0.2500000
something demands 0.1000000
something remembered 0.0769231
something now 0.0008803
something thou 0.0005342
something speak 0.0197368
something way 0.0046296
something page 0.1111111
something a 0.0018544
something yet 0.0038462
something neck 0.0500000
something spheres 0.1111111
something compulsatory 0.1428571
something might 0.0243902
something clothes 0.2500000
something transgresses 0.2500000
something policy 0.1000000
something deed 0.0117647
something this 0.0008760
something write 0.0222222
something so 0.0005247
something ignorant 0.1333333
something hideous 0.1250000
something word 0.0104167
something worse 0.0140845
something suit 0.0181818
something lined 0.1666667
something NULL 0.0007412
something : 0.0031056
something trick 0.0500000
something angry 0.0232558
something means 0.0275229
something “ 0.0043860
something spoke 0.0149254
something seriously 0.1666667
something note 0.0250000
something question 0.0138889
something smell 0.0526316
something commits 0.2000000
something positively 0.1666667
something thing 0.0275862
cheered 'd 0.0020080
cheered cheer 0.0175439
oats provender 0.0714286
oats oats 0.3333333
gall avouch 0.2000000
gall dare 0.0093458
pulling germane 0.5000000
pulling be 0.0004108
pulling would 0.0010288
pulling ravish 1.0000000
pulling more 0.0011669
pulling phrase 0.1428571
pulling pulling 1.0000000
drowsy drowsy 0.3000000
eloquence utterance 0.1666667
eloquence eloquence 1.0000000
hot a 0.0002318
hot NULL 0.0000371
hot are 0.0007622
hot chastity 0.0909091
hot treason 0.0294118
hot scotch 0.3333333
hot already 0.0166667
hot in 0.0003020
hot pitch 0.1000000
hot southwest 0.2500000
hot snow 0.0588235
hot heat 0.0714286
hot over-earnest 0.5000000
hot little 0.0057471
hot snuff 0.2500000
hot hot 0.4857143
hot choleric 0.0666667
horrible come 0.0008834
horrible , 0.0000782
horrible heavy 0.0185185
horrible fore-vouched 1.0000000
horrible our 0.0010684
horrible liberal 0.1000000
horrible in 0.0003020
horrible loathèd 0.5000000
horrible unnatural 0.0555556
horrible terrible 0.0833333
horrible dreaded 0.2500000
horrible alas 0.0082645
horrible foul 0.0388350
horrible plagues 0.5000000
horrible hideous 0.1250000
horrible monstrous 0.1724138
horrible horrid 0.0909091
horrible dismal 0.1666667
horrible counselor 0.3333333
horrible and 0.0005591
horrible too 0.0024213
horrible unhappy 0.1000000
horrible affection 0.0217391
horrible most 0.0079365
horrible NULL 0.0000741
horrible conceit 0.0555556
horrible england 0.0093458
horrible villainous 0.0909091
horrible oh 0.0039216
horrible fall 0.0087719
horrible affairs 0.0625000
horrible woe 0.0588235
horrible profane 0.1111111
horrible tormenting 0.5000000
horrible sets 0.1428571
horrible vile 0.0227273
horrible streak 0.5000000
horrible as 0.0005705
horrible nose 0.0416667
horrible horrible 0.5600000
beams beams 0.1428571
maimed 'd 0.0020080
maimed maim 1.0000000
piety pilgrimage 0.0909091
greeks greeks 0.5000000
hardships when 0.0015106
belong hers 0.0384615
belong been 0.0042553
belong has 0.0079365
belong perpetual 0.1111111
belong slave 0.0161290
belong are 0.0007622
character qual- 1.0000000
character to 0.0003422
character confirmed 0.0909091
character as 0.0005705
character ification 0.3333333
character name 0.0049020
character that 0.0002726
character soto 0.1428571
behaved been 0.0042553
behaved behaved 0.2500000
behaved unfitness 0.5000000
enter so 0.0005247
enter NULL 0.0001112
enter at 0.0012579
enter st 0.0045045
enter and 0.0001398
enter ’ 0.0003087
enter com 0.2500000
enter go 0.0025000
enter enter 0.1739130
foreign foreign 0.2500000
foreign the 0.0001222
foreign tributaries 0.1250000
foreign fight 0.0172414
foreign alien 0.3333333
foreign scythian 0.1428571
willfully 'st 0.0109890
willfully wilfully 0.3333333
willfully thy 0.0009804
willfully knaveries 1.0000000
unfair a 0.0002318
unfair wrong 0.0067114
unfair false 0.0107527
unfair as 0.0005705
unfair unmerciful 1.0000000
unfair bondmaid 0.1428571
unfair are 0.0007622
fairy-land land 0.0131579
fairy-land fairy 0.0277778
tolerate lordship 0.0178571
tolerate receive 0.0243902
tolerate bear 0.0045872
tolerate brook 0.0833333
tolerate forbear 0.0312500
tolerate brooked 0.2500000
closely alexander 0.1000000
closely pry 0.1666667
closely quoted 0.2000000
closely heedful 0.2500000
closely scann 0.3333333
closely note 0.0250000
closely 'd 0.0020080
closely well 0.0010173
closely swashers 0.5000000
closely close 0.0540541
pembroke pembroke 0.5000000
age NULL 0.0000371
age time 0.0028090
age both 0.0048780
age decays 1.0000000
age them 0.0016181
age age 0.4305556
age prop 0.1000000
age strange 0.0069930
age years 0.0508475
age devour 0.1428571
age thy 0.0009804
scrawny choppy 0.2500000
scrawny once 0.0071942
scrawny laying 0.2000000
scrawny at 0.0012579
scrawny her 0.0008467
plain plain 0.2790698
plain NULL 0.0000371
plain discommend 0.3333333
plain gross 0.0384615
plain uncoined 1.0000000
lions lions 0.7000000
lions rather 0.0076923
lions NULL 0.0000371
lions frame 0.1428571
lions beasts 0.0625000
bleeding issuing 1.0000000
bleeding bleed 0.1000000
bleeding sides 0.0500000
bleeding bold 0.0263158
bleeding apace 0.1111111
bleeding st 0.0045045
bleeding bleeding 0.3333333
bleeding reeking 0.3333333
bleeding . 0.0000499
bleeding sir 0.0011299
cure recover 0.1111111
cure remedy 0.0555556
cure expel 0.1000000
cure do 0.0005744
cure physic 0.1250000
cure good 0.0008842
cure charm 0.0869565
cure cure 0.3750000
cure give 0.0018657
loving so 0.0005247
loving die 0.0056497
loving obedience 0.0714286
loving surfeiting 0.5000000
loving nuptial 0.0833333
loving bear 0.0045872
loving loving 0.6363636
loving long 0.0056818
loving love 0.0067751
loving lovely 0.0666667
loving this 0.0004380
loving loves 0.0108696
higher thee 0.0009276
higher NULL 0.0000371
higher better 0.0041322
higher larger 0.1428571
higher tether 0.3333333
higher mounted 0.3333333
higher higher 0.3636364
hug upon 0.0015699
hug fall 0.0087719
hug let 0.0010846
hug tears 0.0166667
hug cheek 0.0476190
tests test 0.5000000
rouse variance 0.1250000
rouse their 0.0018018
rouse condole 0.2000000
rouse if 0.0008340
results success 0.0588235
results none 0.0034722
results ends 0.1176471
tenants tenants 1.0000000
tradesman tradesman 0.1428571
tradesman with 0.0004717
wreath garland 0.4285714
wreath wreath 0.3333333
wreath take 0.0023095
wreath this 0.0004380
late the 0.0001222
late hour 0.0150376
late NULL 0.0000741
late almost 0.0161290
late steals 0.0588235
late into 0.0048309
late d 0.0208333
late late 0.3030303
late far 0.0114943
late repents 0.1428571
late on 0.0009452
late his 0.0005402
late past 0.0681818
late once 0.0071942
late tardy 0.0769231
late morning 0.0169492
late out-dwells 0.5000000
late wait 0.0400000
late crept 0.0909091
late lated 0.1666667
late too 0.0024213
late promise 0.0166667
turk turk 0.2727273
turk turbaned 0.5000000
turk took 0.0204082
turk state 0.0120482
matching matching 0.5000000
bed-time bed-time 1.0000000
nourished head 0.0079365
experiences times 0.0158730
foot 'send 1.0000000
foot NULL 0.0000741
foot foot 0.4255319
foot fights 0.3333333
stored dalliance 0.1666667
stored silken 0.1666667
christian let 0.0010846
christian humility 0.1428571
christian christian 0.7857143
christian burial 0.0769231
comets seen 0.0103093
comets comets 0.2500000
plan the 0.0002445
plan law 0.0178571
plan way 0.0092593
plan heed 0.0555556
plan cannot 0.0018182
plan directed 0.1250000
plan practice 0.0333333
plan sharp 0.0555556
plan business 0.0176991
plan drift 0.1666667
plan t 0.0025510
plan course 0.0363636
plan night 0.0033898
plan schoolmasters 0.1666667
plan blast 0.2500000
plan determinèd 0.5000000
plan purposes 0.0588235
plan tomorrow 0.0098039
plan contrive 0.1111111
plan villainy 0.0454545
plan with 0.0004717
plan and 0.0001398
plan treasonous 0.5000000
plan athenian 0.0526316
plan story 0.0500000
plan NULL 0.0002594
plan wrestling 0.2500000
plan purpose 0.0625000
plan place 0.0065789
plan conceit 0.0555556
plan all 0.0008319
plan is 0.0002757
plan ’ 0.0006175
plan intend 0.0312500
plan direction 0.0625000
plan good 0.0017683
plan us 0.0016103
plan bassanio 0.0243902
plan unfold 0.0555556
plan make 0.0019120
plan devised 0.0769231
plan enterprise 0.0555556
plan it 0.0003323
plan part 0.0057143
plan play 0.0062500
plan determine 0.0625000
plan can 0.0024938
plan mean 0.0306748
plan device 0.2500000
plan pursue 0.0476190
plan then 0.0012151
plan consent 0.0277778
shag-haired 'd 0.0020080
shag-haired shag-ear 1.0000000
offends wrong 0.0067114
offends wrongs 0.0666667
endanger pin 0.2500000
sums sums 1.0000000
conquered erthrown 0.5000000
conquered NULL 0.0000371
conquered 'erthrown 0.5000000
conquered o 0.0009671
conquered conquered 0.2500000
replaced of 0.0002135
replaced displanting 0.3333333
worker diligence 0.0833333
worker workman 0.5000000
charter upon 0.0015699
charter charter 0.2000000
charter your 0.0004252
charter light 0.0097087
charter danger 0.0344828
thrice-gentle gentle 0.0073529
thrice-gentle thrice 0.0192308
ecstatic upon 0.0015699
ecstatic dote 0.0357143
devours on 0.0009452
devours feeds 0.1666667
bluntness bluntness 0.3333333
artfully withal 0.0128205
spineless waterish 0.2500000
syracusians us 0.0016103
mangled mangled 0.5000000
mangled NULL 0.0000371
mangled thus 0.0029240
mangled splitted 1.0000000
scarce scarce 0.0416667
scarce hold 0.0054645
knife deep 0.0192308
knife lucrece 1.0000000
knife knife 0.6666667
knife rapier 0.1250000
husband husbands 0.0400000
husband NULL 0.0001853
husband husbanded 0.5000000
husband woes 0.1250000
husband him 0.0011561
husband husband 0.8372093
husband sir 0.0011299
husband prince 0.0114943
husband house 0.0060976
husband hast 0.0048544
husband he 0.0004186
husband working 0.1666667
husband difference 0.0476190
husband possessor 0.2000000
husband lord 0.0123457
husband plight 0.3333333
husband one 0.0034072
husband their 0.0018018
husband obey 0.0156250
husband hornmaker 0.2500000
dotes dotes 0.2500000
hagar hagar 0.5000000
blanch blanch 0.5000000
hasty hasty 0.2000000
hasty longer 0.0200000
hasty 'erhasty 0.5000000
hasty NULL 0.0000371
hasty salved 0.2000000
hasty quick 0.0238095
greets greet 0.0500000
greets doth 0.0036900
greets greeting 0.1111111
greets salute 0.1428571
greets sends 0.0769231
distasteful of 0.0002135
distasteful in 0.0003020
distasteful despite 0.0454545
sheet shrouding 0.5000000
sheet sheet 0.2000000
immature raw 0.1000000
turquoise turquoise 0.5000000
phoebe-ing phoebes 0.3333333
chime you 0.0001776
chime bennet 0.5000000
chime put 0.0049261
chime mind 0.0067568
sweetness honey 0.1250000
sweetness honey-heavy 0.5000000
sweetness sermons 0.5000000
sweetness sugar 0.1428571
sweetness paramour 0.1250000
sweetness dew 0.0714286
gets remove 0.0588235
gets rise 0.0256410
gets NULL 0.0001112
gets begins 0.0434783
gets is 0.0005514
gets ’ 0.0003087
gets strength 0.0357143
gets to 0.0001711
gets deck 0.1666667
gets in 0.0003020
gets nightly 0.1666667
gets riseth 0.5000000
gets makes 0.0106383
gets undertaker 0.1250000
gets destroy 0.0588235
gets increaseth 0.3333333
gets quit 0.0714286
gets win 0.0285714
gets may 0.0018904
gets receives 0.3333333
gets s 0.0006317
gets gets 0.2000000
gets totally 0.1666667
gets with 0.0004717
gets shows 0.0294118
gets itself 0.0098039
gets entangles 0.2000000
gets consume 0.0909091
groan general 0.0112360
groan groaning 0.1250000
groan did 0.0014728
groan groan 0.4444444
defended as 0.0005705
criminal the 0.0001222
criminal malefactor 1.0000000
criminal commonwealth 0.1428571
criminal knave 0.0147059
criminal NULL 0.0000371
criminal cozener 0.2500000
criminal find 0.0051546
criminal all 0.0008319
criminal villain 0.0080645
criminal try 0.0212766
criminal knaves 0.0555556
criminal villainy 0.0454545
criminal transgression 0.2000000
criminal arrant 0.0666667
right forth 0.0066225
right you 0.0005327
right laertes 0.0512821
right form 0.0384615
right come 0.0008834
right instant 0.0333333
right pit 0.0526316
right vein 0.1666667
right wise 0.0144928
right perigouna 0.5000000
right beggar 0.0357143
right persuasion 0.1000000
right fit 0.0806452
right god 0.0030211
right profoundest 0.2500000
right spirit 0.0079365
right wit 0.0108696
right vulture 0.3333333
right furze 0.5000000
right your 0.0008503
right again 0.0034965
right and 0.0013978
right pat 0.2500000
right time 0.0028090
right hope 0.0070423
right true 0.0185185
right briefly 0.0555556
right is 0.0008271
right scanned 0.1666667
right have 0.0004688
right husband 0.0077519
right think 0.0037453
right befits 0.1000000
right thy 0.0029412
right knocks 0.0714286
right commission 0.0434783
right hasty 0.1000000
right said 0.0123457
right it 0.0026587
right persever 0.2500000
right right 0.2909091
right talk 0.0101010
right charge 0.0128205
right haste 0.0129870
right chose 0.1428571
right a 0.0006954
right straightway 0.1250000
right — 0.0008177
right redress 0.1111111
right honesty 0.0208333
right attractive 0.1250000
right fitted 0.0909091
right in 0.0012081
right stand 0.0101523
right very 0.0055866
right me 0.0006787
right doubts 0.1666667
right presently 0.1692308
right caesar 0.0023585
right certainer 0.5000000
right word 0.0052083
right twelve 0.0454545
right upright 0.2000000
right solemnized 0.2000000
right council 0.0666667
right aimed 0.1428571
right rich 0.0294118
right horatio 0.0227273
right implacable 0.3333333
right collied 0.3333333
right i 0.0005891
right demeanor 0.1666667
right heart 0.0031949
right go 0.0037500
right there 0.0023283
right well 0.0325534
right mended 0.1666667
right thing 0.0068966
right why 0.0029806
right happy 0.0240964
right yes 0.0116279
right lies 0.0190476
right contents 0.0454545
right secure 0.0909091
right , 0.0009781
right not 0.0010093
right mark 0.0066667
right on 0.0028355
right matter 0.0108108
right apt 0.0454545
right scope 0.1111111
right out 0.0020704
right thence 0.0263158
right smites 0.2500000
right one 0.0017036
right softly 0.0454545
right fished 0.1666667
right with 0.0004717
right suddenly 0.0769231
right leave 0.0035336
right season 0.0625000
right goes 0.0096154
right conscience 0.0181818
right meet 0.0354610
right earthly 0.0833333
right imperial 0.0714286
right durst 0.0243902
right certain 0.0112360
right to 0.0010265
right indeed 0.0039841
right brooch 0.1250000
right home 0.0070922
right spite 0.0333333
right set 0.0076923
right forthwith 0.0909091
right invisible 0.0526316
right any 0.0038760
right grace 0.0054945
right directly 0.0322581
right now 0.0070423
right respect 0.0200000
right ' 0.0048662
right spoken 0.0357143
right the 0.0012223
right done 0.0063291
right supposition 0.2500000
right lecher 0.1666667
right could 0.0045662
right wits 0.0303030
right this 0.0013141
right t 0.0025510
right th 0.0070922
right so 0.0057712
right told 0.0097087
right enough 0.0136986
right for 0.0008094
right carefully 0.1111111
right wench 0.0384615
right event 0.0909091
right ursula 0.1111111
right doth 0.0073801
right be 0.0012325
right such 0.0020492
right most 0.0019841
right NULL 0.0017790
right even 0.0294118
right young 0.0070922
right straight 0.2957746
right at 0.0050314
right counsel 0.0232558
right peremptory 0.1666667
right grizzled 0.3333333
right stop 0.0285714
right admittance 0.1111111
right masterly 0.3333333
right he 0.0004186
right hearing 0.0270270
right was 0.0013141
right prevailed 0.0909091
right mend 0.0285714
right present 0.0266667
right air 0.0129870
secret-keeping discretion 0.1304348
devastating the 0.0002445
devastating earth 0.0111111
devastating terrors 1.0000000
necessary answerable 0.3333333
necessary need 0.0112360
necessary no 0.0006930
necessary warranted 1.0000000
necessary tis 0.0010604
necessary needful 0.1250000
necessary go 0.0012500
necessary matter 0.0054054
necessary incur 0.2500000
necessary further 0.0101010
necessary such 0.0020492
necessary ” 0.0032051
necessary ' 0.0024331
necessary necessary 0.1818182
protecting those 0.0066667
protecting of 0.0002135
protecting seemed 0.0833333
withdrawing reprieve 0.2500000
withdrawing of 0.0002135
withdrawing thy 0.0009804
withdrawing token 0.0370370
testify this 0.0004380
testify vouch 0.1250000
doorway door 0.0238095
doorway chamber 0.0222222
monsieur good 0.0008842
monsieur monsieur 0.5483871
unclean apprehensions 0.5000000
unclean unpurged 1.0000000
unclean uncleanly 0.6666667
reacts takes 0.0370370
ho madam 0.0044053
ho it 0.0003323
ho common 0.0196078
ho is 0.0002757
ho ho 0.3200000
excavators given 0.0149254
excavators pioneers 0.2000000
excavators 'er 0.0064103
excavators o 0.0009671
light-hearted jocund 0.1428571
hawk hawk 0.2500000
hawk argus 0.5000000
pot pot 0.1428571
tail sack 0.2500000
tail hath 0.0016367
tail tongue 0.0092593
tail drowned 0.0416667
tail tail 0.6923077
tail horse-tail 0.3333333
tail fawn 0.0909091
tail bobtail 0.2500000
tail man-monster 1.0000000
blatant uncovered 1.0000000
extent a 0.0002318
extent bourn 0.1111111
extent set 0.0076923
heirs heirs 0.4000000
heirs succeeders 1.0000000
heirs issue 0.0294118
ours had 0.0019493
ours NULL 0.0000371
ours ours 0.3500000
ours of 0.0002135
ours decreed 0.2500000
ours we 0.0007764
ours tott 0.5000000
ours countermines 1.0000000
ours nought 0.1428571
ours own 0.0040000
fix pheeze 1.0000000
fix make 0.0019120
fix lies 0.0190476
fix you 0.0005327
fix of 0.0002135
fix do 0.0005744
fix redress 0.1111111
fix device 0.0625000
fix amend 0.2000000
fix mend 0.1142857
fix in 0.0006040
fix splinter 0.3333333
fix become 0.0188679
fix ; 0.0006614
chilly cold 0.0333333
chilly a- 0.5000000
chilly icy 0.3333333
chilly a-cold 1.0000000
booze well 0.0010173
booze spade 0.1000000
booze drink 0.0131579
sick grievous 0.1000000
sick toys 0.1666667
sick NULL 0.0001482
sick almost 0.0161290
sick not 0.0002019
sick surfeit 0.3333333
sick sicken 0.2000000
sick midwife 0.5000000
sick look 0.0054795
sick pale 0.0434783
sick on 0.0018904
sick brutus 0.0049751
sick am 0.0016543
sick at 0.0012579
sick i 0.0002357
sick wether 0.2500000
sick odious 0.2500000
sick when 0.0045317
sick light 0.0097087
sick oats 0.1111111
sick health 0.0277778
sick thee 0.0009276
sick abhor 0.1250000
sick well 0.0020346
sick ill 0.0526316
sick sick 0.6923077
sick infirm 0.2500000
sick sickly 0.1111111
four steep 0.1428571
four twice 0.0606061
four four 0.8372093
taxes tribute 0.1666667
introduce make 0.0019120
introduce friends 0.0052910
introduce do 0.0005744
introduce grace 0.0054945
introduce thyself 0.0147059
introduce present 0.0133333
introduce give 0.0018657
introduce welcome 0.0055866
exeter well 0.0010173
exeter thee 0.0009276
exeter doth 0.0036900
exeter love 0.0013550
exeter exeter 1.0000000
upkeep house 0.0060976
upkeep prop 0.1000000
verse groans 0.1428571
verse you 0.0001776
verse ll 0.0016051
verse verse 0.1666667
verse chapter 0.3333333
verse give 0.0018657
fire corruption 0.0833333
fire the 0.0002445
fire prodigal 0.1250000
fire NULL 0.0000741
fire stellèd 0.3333333
fire drowns 0.2000000
fire place 0.0065789
fire , 0.0000391
fire soul 0.0061350
fire in 0.0003020
fire fire 0.6470588
fire smother 0.2000000
fire how 0.0011779
fire me 0.0003393
fire babe 0.1666667
fire charitable 0.1428571
fire blood 0.0058824
fire lends 0.1666667
fire inflame 0.2500000
fire illuminate 0.1250000
fire burns 0.0833333
extol deserved 0.0344828
extol from 0.0012642
extol vary 1.0000000
fills washes 0.5000000
fills harrows 0.2500000
fills all 0.0008319
honors NULL 0.0000371
honors glories 0.1428571
honors honors 0.3333333
honors worships 0.2500000
honors honour 0.0344828
attend abode 0.1250000
attend on 0.0028355
attend matter 0.0054054
attend your 0.0004252
attend hear 0.0019569
attend attend 0.0757576
attend depends 0.1000000
whirling whirling 0.1666667
reynaldo reynaldo 0.8571429
four-day will 0.0004859
four-day peat 0.2000000
four-day four 0.0232558
four-day i 0.0001178
weathered upon 0.0015699
weathered fortune 0.0077519
weathered harsh 0.0714286
weathered what 0.0004943
weathered know 0.0011574
weathered not 0.0002019
weathered counts 1.0000000
weathered casts 0.2500000
meat shambles 0.1666667
meat NULL 0.0000371
meat meat 0.2608696
forgets capilet 0.1428571
forgets matter 0.0054054
forgets let 0.0021692
forgets him 0.0005780
forgets slip 0.3333333
graceful renown 0.1000000
graceful show 0.0064516
graceful less 0.0163934
graceful knowledge 0.0270270
graceful your 0.0008503
graceful in 0.0006040
graceful grace 0.0109890
graceful graceful 0.5000000
affected the 0.0001222
affected penetrable 0.2000000
affected taint 0.0909091
affected never 0.0026385
hearers hearers 0.5000000
experience grows 0.0222222
experience of 0.0002135
experience taste 0.0312500
experience custom 0.0476190
experience experience 0.4285714
experience never 0.0026385
experience old 0.0052083
individual and 0.0001398
daydream flatt 0.5000000
daydream dream 0.0163934
daydream 'ring 0.0714286
apology reconcilement 0.2500000
escapes detecting 0.5000000
escapes scape 0.2000000
escapes ’ 0.0006175
true-love true-love 0.5000000
topic argument 0.0416667
topic nation 0.0769231
topic to 0.0001711
topic holds 0.0312500
topic it 0.0003323
topic controversy 1.0000000
seller NULL 0.0000371
stabbing bing 0.5000000
stabbing stab- 1.0000000
chained pinioned 0.2000000
chained him 0.0005780
chained at 0.0012579
loans made 0.0042553
loans moan 0.1000000
loans at 0.0012579
loans times 0.0158730
sores sapphires 0.5000000
sores declining 0.2500000
sores carbuncles 1.0000000
decayed decayèd 0.5000000
blast on 0.0009452
blast large 0.0666667
blast a 0.0002318
blast fuller 0.2500000
blast charter 0.2000000
blast methinks 0.0090090
blast blow 0.0270270
wine want 0.0606061
wine bottle 0.1578947
wine NULL 0.0001482
wine of 0.0004270
wine rhenish 0.4000000
wine exclaim 0.0833333
wine ho 0.0080000
wine if 0.0008340
wine sop 0.1428571
wine known 0.0117647
wine stoup 0.1666667
wine liquor 0.0625000
wine cup 0.0434783
wine bung-hole 0.5000000
wine wine 0.8095238
wine alms-drink 0.1250000
wine malmsey 1.0000000
wine some 0.0019608
wine pox 0.0769231
wine ' 0.0012165
wine o 0.0009671
imperious imperious 0.1666667
purchased bought 0.0666667
purchased purchas 0.2000000
luck steps 0.1428571
luck luck 0.7333333
luck NULL 0.0000741
luck most 0.0019841
luck you 0.0010653
luck heels 0.0384615
luck take 0.0023095
luck grow 0.0200000
luck fortune 0.2248062
luck objects 0.2500000
luck speed 0.0243902
luck haps 0.5000000
luck at 0.0012579
luck thrift 0.1538462
luck thy 0.0009804
luck happiness 0.0454545
luck fortunes 0.0434783
luck success 0.0588235
luck fare 0.0512821
luck brooks 0.1666667
luck hap 0.1428571
luck may 0.0018904
luck waist 0.1250000
luck higher 0.0909091
luck s 0.0006317
luck go 0.0012500
luck fortunate 0.0588235
luck chance 0.0588235
luck why 0.0014903
luck happy 0.0240964
luck with 0.0004717
handkerchief ‘ 0.0454545
handkerchief even 0.0049020
handkerchief most 0.0019841
handkerchief handkerchief 0.9512195
handkerchief that 0.0005453
handkerchief same 0.0217391
handkerchief s 0.0006317
handkerchief was 0.0013141
handkerchief now 0.0008803
handkerchief hand 0.0035587
handkerchief napkin 0.3750000
handkerchief handkercher 1.0000000
witnesses witness 0.0434783
witnesses NULL 0.0000371
witnesses witnesses 0.3333333
witnesses witnesseth 0.3333333
desired desired 0.1333333
desired else 0.0055249
imperial type 0.5000000
imperial imperial 0.2857143
affirm protest 0.0285714
risen the 0.0002445
risen ascended 0.1428571
risen buoyed 1.0000000
risen of 0.0004270
risen style 0.2000000
risen roof 0.1250000
risen writ 0.0357143
listened NULL 0.0000371
listened importuned 0.1666667
listened great 0.0038760
listened hath 0.0016367
listened tears 0.0166667
listened pitied 0.1666667
prudish customs 0.2500000
prudish curtsy 0.2000000
prudish nice 0.2000000
hair combed 0.2500000
hair hairs 0.1052632
hair NULL 0.0002224
hair very 0.0027933
hair me 0.0003393
hair them 0.0032362
hair do 0.0011488
hair mutiny 0.1000000
hair doth 0.0036900
hair poll 1.0000000
hair becomes 0.0555556
hair flakes 0.2000000
hair unpin 0.1666667
hair blood-bolter 0.1666667
hair hair 0.7380952
reared beauteous 0.0833333
strive strive 0.1111111
strive tinctures 0.5000000
strive press 0.0434783
tie tied 0.0769231
tie NULL 0.0000371
tie enforce 0.1000000
tie pinion 0.5000000
tie tie 0.1428571
tie bind 0.3529412
tie go 0.0012500
tie bound 0.0153846
tie fast 0.0204082
tie hard 0.0128205
melted melted 0.3333333
enjoys of 0.0002135
enjoys joy 0.0175439
mistreat wrong 0.0067114
mercury NULL 0.0000371
sweet-faced sweet-faced 0.3333333
thriving knot 0.1250000
jowl jowl 0.5000000
firebrands firebrands 0.3333333
firebrands ho 0.0080000
firebrands brands 0.1428571
amble withal 0.0128205
amble ambles 0.1428571
sickening fulsome 0.5000000
phoebe phoebe 0.9285714
phoebe her 0.0008467
shark usurer 0.2500000
jobs offices 0.0588235
jobs slavish 0.3333333
jobs in 0.0003020
jobs parts 0.0294118
jobs service 0.0121951
chances made 0.0042553
chances NULL 0.0000371
chances may 0.0018904
chances thrive 0.0555556
chances chance 0.0294118
chances shall 0.0008130
chances unto 0.0073529
chances be 0.0004108
chances deceived 0.0243902
chances hazard 0.0416667
chances likelihood 0.2000000
achieves darkens 1.0000000
achieves which 0.0016750
achieves gain 0.0476190
achieves does 0.0060606
swiftest swiftest 0.5000000
swiftest wing 0.0833333
blocking intercepts 0.2500000
blocking my 0.0002262
blocking expedition 0.1111111
humid rheumy 0.5000000
humid NULL 0.0000371
humid twere 0.0144928
humid as 0.0005705
humid — 0.0008177
humid sultry 0.2500000
haunt haunt 0.3000000
haunt haunts 0.0909091
tuned tuned 0.1250000
water-tight yare 0.0769231
water-tight tight 0.3333333
calculate account 0.0500000
calculate — 0.0008177
calculate reckon 0.1666667
columbines columbines 1.0000000
shoot waste 0.0769231
shoot had 0.0019493
shoot shoot 0.2500000
shoot wrong 0.0067114
shoot no 0.0006930
leading lead 0.0107527
leading leading 0.2000000
leading NULL 0.0000741
leading bring 0.0051813
leading of 0.0002135
leading conductor 1.0000000
leading officer 0.0500000
hymen hymen 0.2500000
abused misused 0.3333333
abused it 0.0003323
abused abuse 0.0666667
abused did 0.0014728
abused ourself 0.0625000
abused abused 0.1250000
abused was 0.0013141
abused deserve 0.0454545
abused didst 0.0095238
ruthless stony 0.2500000
ruthless piteous 0.1428571
ruthless arch 0.5000000
ruthless adversary 0.1428571
ruthless deed 0.0117647
virtuous fair 0.0040984
virtuous virtue 0.0322581
virtuous regard 0.0555556
virtuous of 0.0002135
virtuous magician 0.1428571
virtuous virtuous 0.4838710
virtuous evidence 0.0909091
virtuous full 0.0076336
knit eternally 0.5000000
knit knit 0.0833333
advance pleasest 0.3333333
advance prefer 0.0476190
advance harbingers 0.5000000
advance how 0.0011779
advance go 0.0012500
advance on 0.0018904
advance orléans 0.2500000
advance march 0.0263158
advance thou 0.0005342
advance away 0.0028653
advance day 0.0040161
advance approach 0.0303030
advance and 0.0001398
advance tender 0.0243902
advance set 0.0153846
new-crowned it 0.0003323
new-crowned monarch 0.1250000
new-crowned new-crowned 1.0000000
new-crowned : 0.0031056
new-crowned such 0.0020492
temple NULL 0.0000371
temple temple 0.6923077
temple habitation 1.0000000
daybreak the 0.0001222
daybreak of 0.0002135
daybreak day 0.0120482
daybreak break 0.0117647
foxes foxes 1.0000000
bloodshed bloody 0.0123457
bloodshed constraint 0.3333333
calpurnia 's 0.0014451
calpurnia calpurnia 1.0000000
calpurnia by 0.0008993
cliff hill 0.0333333
cliff cliff 0.6666667
cliff extreme 0.3333333
cliff NULL 0.0000371
cliff crown 0.0163934
cliff a-height 0.3333333
cliff same 0.0108696
cliff bourn 0.1111111
cliff ' 0.0036496
cliff th 0.0035461
cliff o 0.0009671
contradict contradict 0.2000000
contradict cross 0.0384615
contradict in 0.0003020
contradict nothing 0.0035088
harsh so 0.0010493
harsh draw 0.0103093
harsh harsh 0.2857143
harsh rough 0.1176471
harsh bitter 0.0250000
harsh breath 0.0322581
harsh shrewd 0.1250000
harsh speeches 0.0769231
harsh thy 0.0009804
harsh hard 0.0128205
player question 0.0138889
player went 0.0208333
player player 0.1111111
player merèd 0.2000000
engulfing poring 0.5000000
trapped ensnared 0.3333333
trapped when 0.0015106
trapped caught 0.0833333
trapped NULL 0.0000371
trapped has 0.0079365
trapped thus 0.0029240
trapped one 0.0017036
trapped fast 0.0204082
trapped her 0.0008467
action course 0.0181818
action cowards 0.1250000
action fit 0.0161290
action NULL 0.0001482
action purpose 0.0156250
action redress 0.1111111
action batter 0.2000000
action word 0.0052083
action wrong 0.0067114
action their 0.0018018
action at 0.0012579
action action 0.0857143
action peace 0.0060976
ruining in 0.0003020
ruining all 0.0008319
hallucination shadow 0.0400000
destitute 'd 0.0020080
destitute beggar 0.0357143
shine once 0.0071942
shine show 0.0064516
shine shine 0.2592593
shine me 0.0003393
shine glimmering 0.0909091
shine climate 0.1428571
brightly brightly 0.5000000
