sovereignty kingship 0.2500000
yet kingship 0.2500000
t kingship 0.2500000
’ kingship 0.2500000
greeting greeting 0.6666667
your greeting 0.3333333
a proven 0.1000000
proved proven 0.2000000
herself proven 0.1000000
prove proven 0.1000000
approved proven 0.2000000
been proven 0.1000000
coward proven 0.1000000
needless proven 0.1000000
a unsure 0.2500000
falsing unsure 0.2500000
in unsure 0.2500000
thing unsure 0.2500000
issue issue 0.5000000
theme issue 0.5000000
kates kates 1.0000000
enriches richer 0.5000000
him richer 0.5000000
harp harp 0.6666667
woo harp 0.3333333
exalt distinguished 1.0000000
the pike 0.1428571
pike pike 0.1428571
thou pike 0.1428571
puissant pike 0.1428571
trail pike 0.1428571
st pike 0.1428571
’ pike 0.1428571
private dwelling 0.5000000
stomaching dwelling 0.5000000
next nearest 0.3333333
nearest nearest 0.6666667
done taken 0.0256410
NULL taken 0.0512821
dull-eyed taken 0.0256410
took taken 0.0256410
'en taken 0.0769231
from taken 0.0256410
have taken 0.0512821
taken taken 0.1794872
raught taken 0.0256410
countermand taken 0.0256410
suspicion taken 0.0256410
ta taken 0.0512821
genius taken 0.0256410
marvelously taken 0.0256410
so taken 0.0512821
registered taken 0.0256410
relieved taken 0.0256410
provided taken 0.0256410
hath taken 0.0512821
lord taken 0.0256410
alluring taken 0.0256410
offense taken 0.0256410
something-settled taken 0.0256410
be taken 0.0256410
finished taken 0.0256410
silken taken 0.0256410
london london 1.0000000
able load 0.2500000
load load 0.7500000
conned misremembered 0.2500000
' misremembered 0.2500000
with misremembered 0.2500000
cru misremembered 0.2500000
doth resents 0.3333333
bear resents 0.3333333
hard resents 0.3333333
island dukedom 0.0909091
bare dukedom 0.0909091
dwell dukedom 0.0909091
bands dukedom 0.0909091
dukedom dukedom 0.5454545
this dukedom 0.0909091
delight joyfully 0.5000000
with joyfully 0.5000000
disposition venice 0.0384615
calling venice 0.0384615
senate venice 0.0384615
all venice 0.0384615
venice venice 0.8461538
petticoats petticoats 0.3333333
very petticoats 0.1666667
will petticoats 0.1666667
them petticoats 0.1666667
catch petticoats 0.1666667
numbered counted 0.5000000
reckoned counted 0.5000000
grizzled gray 0.3333333
gray gray 0.3333333
no gray 0.3333333
masters experts 0.2000000
elder experts 0.2000000
some experts 0.2000000
by experts 0.2000000
reconcilement experts 0.2000000
money supporters 0.5000000
gets supporters 0.5000000
made declared 0.4000000
have declared 0.2000000
proclaimed declared 0.2000000
known declared 0.2000000
our fast-moving 0.5000000
tott fast-moving 0.5000000
fearful descend 0.2000000
fasten descend 0.2000000
down descend 0.2000000
bravery descend 0.2000000
descend descend 0.2000000
undone bankrupted 1.0000000
one clinging 0.2000000
samphire clinging 0.2000000
that clinging 0.4000000
gathers clinging 0.2000000
mi mi 1.0000000
unite unite 0.2500000
atone unite 0.2500000
earthly unite 0.2500000
together unite 0.2500000
gloves gloves 0.7500000
perfume gloves 0.2500000
here exercise 0.1111111
me exercise 0.1111111
s exercise 0.1111111
’ exercise 0.1111111
indeed exercise 0.1111111
day exercise 0.1111111
sport exercise 0.1111111
breathing exercise 0.1111111
with exercise 0.1111111
deform can 0.0012077
earliest can 0.0012077
waters can 0.0012077
unlocked can 0.0012077
remembrance can 0.0012077
print can 0.0012077
see can 0.0096618
curing can 0.0012077
abode can 0.0012077
makes can 0.0012077
bringer can 0.0012077
what can 0.0012077
ll can 0.0012077
deny can 0.0012077
paunch can 0.0012077
willing can 0.0012077
talkest can 0.0012077
tailor can 0.0012077
abilities can 0.0012077
expressing can 0.0012077
dinner can 0.0024155
matters can 0.0012077
wall can 0.0012077
ribs can 0.0012077
all can 0.0024155
is can 0.0120773
’ can 0.0084541
weather can 0.0012077
have can 0.0048309
will can 0.0193237
suspects can 0.0012077
servant can 0.0012077
afflict can 0.0012077
certainty can 0.0012077
forfeit can 0.0012077
art can 0.0012077
bold can 0.0012077
athwart can 0.0012077
secret can 0.0012077
height can 0.0012077
can can 0.1944444
enmities can 0.0012077
simplicity can 0.0012077
obtained can 0.0012077
comforted can 0.0012077
falsehood can 0.0012077
bully-monster can 0.0012077
melteth can 0.0012077
fantastical can 0.0012077
prithee can 0.0012077
thought can 0.0024155
remedy can 0.0036232
would can 0.0096618
understand can 0.0024155
easily can 0.0012077
possibly can 0.0012077
offend can 0.0012077
might can 0.0048309
arms can 0.0012077
quite can 0.0012077
uttermost can 0.0024155
changeable can 0.0012077
may can 0.1147343
entrap can 0.0012077
addition can 0.0012077
s can 0.0072464
bail can 0.0012077
feel can 0.0012077
eyes can 0.0012077
affords can 0.0012077
evident can 0.0012077
surgery can 0.0012077
assurance can 0.0012077
verse can 0.0012077
hates can 0.0012077
make can 0.0012077
uncouth can 0.0012077
legs can 0.0012077
sooth can 0.0012077
water can 0.0012077
as can 0.0024155
desolate can 0.0012077
news can 0.0012077
why can 0.0012077
'erhear can 0.0012077
whisper can 0.0012077
qualify can 0.0012077
know can 0.0084541
cannot can 0.1062802
dare can 0.0048309
that can 0.0012077
milk can 0.0012077
gone can 0.0012077
dares can 0.0012077
shall can 0.0471014
rememb can 0.0012077
further can 0.0012077
pleasest can 0.0012077
sensible can 0.0012077
blamed can 0.0012077
high-sighted can 0.0012077
doubted can 0.0012077
covertly can 0.0012077
obey can 0.0012077
none can 0.0012077
must can 0.0132850
quarter can 0.0012077
do can 0.0096618
eunuch can 0.0012077
pity can 0.0024155
afeard can 0.0012077
to can 0.0193237
whip can 0.0012077
enlarge can 0.0012077
deceive can 0.0012077
reed can 0.0012077
able can 0.0012077
wedding can 0.0012077
unmannerly can 0.0024155
effect can 0.0012077
any can 0.0012077
shalt can 0.0060386
untangle can 0.0012077
stopped can 0.0012077
seest can 0.0024155
borrow can 0.0012077
hearer can 0.0012077
scarf can 0.0012077
arrows can 0.0012077
canst can 0.0241546
enamelèd can 0.0012077
done can 0.0012077
speak can 0.0036232
light-foot can 0.0012077
advantage can 0.0012077
jest can 0.0012077
hear can 0.0036232
state can 0.0012077
attempt can 0.0024155
let can 0.0012077
directed can 0.0012077
wonder can 0.0012077
alter can 0.0012077
bagpipe can 0.0012077
excepted can 0.0012077
shadow can 0.0012077
cutler can 0.0012077
fittest can 0.0012077
prevention can 0.0012077
lass can 0.0012077
authorities can 0.0012077
be can 0.0024155
honestly can 0.0012077
away can 0.0012077
shames can 0.0012077
borne can 0.0024155
remembering can 0.0012077
NULL can 0.1509662
needs can 0.0024155
place can 0.0012077
mayst can 0.0024155
disorder can 0.0012077
look can 0.0012077
use can 0.0024155
cure can 0.0012077
should can 0.0036232
log can 0.0012077
scarcely can 0.0024155
bald can 0.0012077
guess can 0.0024155
hath can 0.0012077
trade can 0.0012077
convenient can 0.0024155
fever can 0.0012077
hatch can 0.0012077
question can 0.0012077
smell can 0.0024155
troublous can 0.0012077
speedy can 0.0012077
country nymphs 0.2500000
nymphs nymphs 0.5000000
footing nymphs 0.2500000
men survivors 0.3333333
bring survivors 0.3333333
we survivors 0.3333333
waited wait 0.0109890
yet wait 0.0109890
laertes wait 0.0219780
— wait 0.0219780
, wait 0.0219780
soft wait 0.1098901
ho wait 0.0109890
pause wait 0.0109890
mark wait 0.0109890
kiss wait 0.0109890
patient wait 0.0109890
does wait 0.0109890
peace wait 0.0109890
give wait 0.0109890
expect wait 0.0109890
serve wait 0.0109890
hours wait 0.0109890
summer wait 0.0109890
awhile wait 0.0219780
thee wait 0.0109890
tarrying wait 0.0109890
hold wait 0.0219780
softly wait 0.0109890
walk wait 0.0109890
hardly wait 0.0109890
but wait 0.0219780
with wait 0.0109890
reckoning wait 0.0109890
ophelia wait 0.0109890
NULL wait 0.0329670
tarry wait 0.0989011
temporize wait 0.0109890
frame wait 0.0109890
watch wait 0.0219780
patience wait 0.0109890
will wait 0.0109890
long wait 0.0109890
exceed wait 0.0109890
attend wait 0.0439560
i wait 0.0109890
chat wait 0.0109890
stay wait 0.1648352
there wait 0.0219780
wait wait 0.0439560
rashness haste 1.0000000
swelling puffing 1.0000000
favour favor 0.0344828
requite favor 0.0344828
NULL favor 0.0689655
hands favor 0.0344828
good favor 0.0689655
turn favor 0.0689655
at favor 0.0344828
christian favor 0.0344828
towards favor 0.0344828
courteous favor 0.0344828
this favor 0.0344828
loves favor 0.0344828
request favor 0.0689655
highest favor 0.0344828
entreat favor 0.0344828
me favor 0.0344828
grace favor 0.0344828
office favor 0.0344828
as favor 0.0344828
bidding favor 0.0344828
favors favor 0.0344828
best favor 0.0344828
continue favor 0.0344828
suit favor 0.0344828
boon favor 0.0344828
upon lovable 0.1666667
hung lovable 0.1666667
so lovable 0.1666667
— lovable 0.1666667
with lovable 0.1666667
grace lovable 0.1666667
myrmidons warriors 0.3333333
warriors warriors 0.3333333
nervii warriors 0.3333333
wealthy wealthy 0.6666667
sufficient wealthy 0.3333333
. merchant 0.1666667
merchant merchant 0.6666667
hath merchant 0.1666667
mallows thorn-bushes 0.2500000
docks thorn-bushes 0.2500000
or thorn-bushes 0.2500000
, thorn-bushes 0.2500000
a satisfying 0.3333333
gypsy satisfying 0.3333333
cool satisfying 0.3333333
am address 1.0000000
lady desdemona 0.0571429
procure desdemona 0.0285714
NULL desdemona 0.0285714
wooed desdemona 0.0285714
wooing desdemona 0.0285714
riches desdemona 0.0285714
ship desdemona 0.0285714
virtuous desdemona 0.0571429
cyprus desdemona 0.0285714
desdemona desdemona 0.6857143
a fortune-teller 0.5000000
fortune-teller fortune-teller 0.5000000
lieutenant warden 0.2500000
pray warden 0.2500000
master warden 0.2500000
keeper warden 0.2500000
sweet restful 0.2500000
drowsy restful 0.2500000
of restful 0.2500000
syrups restful 0.2500000
in considers 0.1666667
he considers 0.1666667
call considers 0.1666667
all considers 0.3333333
full considers 0.1666667
given siege 0.2500000
siege siege 0.5000000
see siege 0.2500000
admonishing reminder 1.0000000
learnedly mild 0.0833333
most mild 0.0833333
NULL mild 0.0833333
he mild 0.0833333
my mild 0.0833333
mild mild 0.1666667
words mild 0.0833333
delivered mild 0.0833333
subtle mild 0.0833333
as mild 0.0833333
in mild 0.0833333
leaves learns 0.1428571
it learns 0.1428571
him learns 0.1428571
of learns 0.1428571
knows learns 0.1428571
image learns 0.1428571
loves learns 0.1428571
smells smells 0.5000000
freckles smells 0.5000000
improbable unrealistic 0.3333333
fiction unrealistic 0.3333333
an unrealistic 0.3333333
most undeniable 0.5000000
certain undeniable 0.5000000
justly fair 0.0322581
fair fair 0.5806452
most fair 0.0322581
it fair 0.0322581
NULL fair 0.0645161
meet fair 0.0645161
pleases fair 0.0322581
me fair 0.0322581
unjustly fair 0.0322581
just fair 0.0322581
charge fair 0.0322581
hand fair 0.0322581
oath oath 0.9411765
forsworn oath 0.0588235
at glazing 0.2000000
eight glazing 0.2000000
i glazing 0.2000000
set glazing 0.2000000
were glazing 0.2000000
the tragic 0.2000000
alas tragic 0.2000000
NULL tragic 0.2000000
tragedians tragic 0.2000000
day tragic 0.2000000
burgundy ruler 0.2500000
rule ruler 0.2500000
governs ruler 0.2500000
president ruler 0.2500000
deprived deprived 1.0000000
friendship advise 0.0666667
bid advise 0.0666667
do advise 0.0666667
entreat advise 0.0666667
advise advise 0.0666667
desire advise 0.0666667
party advise 0.0666667
in advise 0.0666667
should advise 0.0666667
counsel advise 0.4000000
blood cool 0.1250000
safer cool 0.1250000
begins cool 0.1250000
baboon cool 0.1250000
cool cool 0.1250000
guides cool 0.1250000
by cool 0.2500000
exhibition hats 0.2000000
petty hats 0.2000000
put hats 0.2000000
any hats 0.2000000
hats hats 0.2000000
public streetwalker 0.5000000
commoner streetwalker 0.5000000
NULL share 0.0666667
he share 0.0666667
part share 0.0666667
my share 0.1333333
commend share 0.0666667
note share 0.0666667
world-sharers share 0.0666667
whole share 0.0666667
one share 0.0666667
share share 0.2000000
sicily share 0.0666667
but share 0.0666667
pioneers grunts 1.0000000
good valiantly 0.2000000
did valiantly 0.2000000
welshmen valiantly 0.2000000
valiantly valiantly 0.2000000
service valiantly 0.2000000
for option 0.3333333
fittest option 0.3333333
choose option 0.3333333
yourself hopeful 0.5000000
dressed hopeful 0.5000000
dishonored death 0.0081301
the death 0.0081301
debt death 0.0081301
a death 0.0081301
dying death 0.0081301
, death 0.0081301
instant death 0.0081301
reversed death 0.0081301
famished death 0.0081301
happiness death 0.0081301
grind death 0.0081301
antony death 0.0081301
ranks death 0.0081301
head death 0.0081301
s death 0.0081301
doom death 0.0081301
starve death 0.0081301
one death 0.0081301
felicity death 0.0081301
NULL death 0.0569106
fear death 0.0081301
of death 0.0243902
condemnation death 0.0081301
die death 0.0081301
moiety death 0.0081301
dearly death 0.0081301
death death 0.6504065
dangers death 0.0081301
graves death 0.0081301
it death 0.0081301
briefest death 0.0081301
deadly death 0.0081301
talk death 0.0081301
journey death 0.0081301
slain death 0.0081301
an death 0.0081301
courtiers courtiers 0.1111111
little courtiers 0.1111111
your courtiers 0.1111111
” courtiers 0.1111111
courtier courtiers 0.1111111
some courtiers 0.1111111
train courtiers 0.1111111
with courtiers 0.1111111
“ courtiers 0.1111111
commendable parrots 0.3333333
none parrots 0.3333333
only parrots 0.3333333
trial proof 0.0344828
my proof 0.0344828
’ proof 0.0689655
to proof 0.0344828
have proof 0.0344828
in proof 0.0344828
say proof 0.0344828
imputation proof 0.0344828
i proof 0.0344828
this proof 0.0689655
show proof 0.0344828
warrant proof 0.0344828
satisfied proof 0.0689655
can proof 0.0344828
where proof 0.0344828
lord proof 0.0344828
proof proof 0.1379310
satisfaction proof 0.0689655
speedy proof 0.0344828
be proof 0.0344828
nothing proof 0.0344828
some proof 0.0344828
indirect indirect 0.3333333
needs indirect 0.3333333
no indirect 0.3333333
feeds kindled 0.3333333
their kindled 0.3333333
fury kindled 0.3333333
disdainful inadequacy 0.2500000
me inadequacy 0.2500000
such inadequacy 0.2500000
manner inadequacy 0.2500000
slanders lies 0.0400000
lies lies 0.4400000
errors lies 0.0400000
forgeries lies 0.0400000
NULL lies 0.0400000
false lies 0.0400000
still lies 0.0400000
traitors lies 0.0400000
savagery lies 0.0400000
wrong lies 0.0400000
reports lies 0.0400000
falsehood lies 0.0400000
lie lies 0.0800000
honor-owing lies 0.0400000
NULL flatter 0.1250000
dismayed flatter 0.1250000
flattered flatter 0.2500000
flatter flatter 0.3750000
praise flatter 0.1250000
that enchanting 0.5000000
enchanting enchanting 0.5000000
funerals appropriate 0.0588235
appertain appropriate 0.0588235
sorting appropriate 0.0588235
a appropriate 0.0588235
otherwise appropriate 0.0588235
NULL appropriate 0.0588235
fittest appropriate 0.0588235
jest appropriate 0.0588235
that appropriate 0.0588235
fitter appropriate 0.0588235
fitting appropriate 0.0588235
good appropriate 0.0588235
better appropriate 0.0588235
belongs appropriate 0.0588235
proper appropriate 0.0588235
become appropriate 0.0588235
season appropriate 0.0588235
unlawful unlawful 1.0000000
rate rate 0.5000000
we rate 0.5000000
made gone 0.0178571
NULL gone 0.0357143
range gone 0.0178571
fortnight gone 0.0178571
are gone 0.0178571
is gone 0.0178571
avaunt gone 0.0178571
absent gone 0.0535714
being gone 0.0357143
mad gone 0.0178571
gone gone 0.4642857
gap gone 0.0178571
long gone 0.0178571
great gone 0.0178571
hence gone 0.0178571
this gone 0.0178571
out gone 0.0357143
mute gone 0.0178571
demean gone 0.0178571
torch gone 0.0178571
lunacy gone 0.0178571
flight gone 0.0178571
spirits gone 0.0178571
distract gone 0.0178571
grows gone 0.0357143
lamentation lament 1.0000000
make gluttons 0.2000000
lust gluttons 0.2000000
it gluttons 0.2000000
epicurism gluttons 0.2000000
more gluttons 0.2000000
bid invited 0.1250000
forth invited 0.1250000
invited invited 0.3750000
he invited 0.1250000
love invited 0.1250000
somewhere invited 0.1250000
met ran 0.0476190
NULL ran 0.0476190
daughter ran 0.0476190
did ran 0.0476190
coursed ran 0.0476190
my ran 0.0476190
is ran 0.0476190
fled ran 0.2857143
flew ran 0.0476190
run ran 0.1428571
ran ran 0.0952381
started ran 0.0476190
o ran 0.0476190
no disciplined 0.5000000
discipline disciplined 0.5000000
grapes grapes 0.5000000
vine grapes 0.5000000
cinna cinna 1.0000000
york yorks 1.0000000
made miserable 0.0833333
wretched miserable 0.1666667
miserable miserable 0.2500000
NULL miserable 0.0833333
frustrate miserable 0.0833333
by miserable 0.0833333
proud miserable 0.0833333
there miserable 0.0833333
tempest-tossed miserable 0.0833333
yours crown 0.0256410
wears crown 0.0256410
NULL crown 0.0769231
crowns crown 0.0256410
crown crown 0.6923077
wring crown 0.0256410
perforce crown 0.0256410
right crown 0.0256410
inclusive crown 0.0256410
fortinbras crown 0.0256410
diadem crown 0.0256410
cobweb cobweb 1.0000000
ionian ionian 0.5000000
cut ionian 0.5000000
whilst guest 0.1000000
she guest 0.1000000
NULL guest 0.1000000
which guest 0.1000000
guest guest 0.5000000
s guest 0.1000000
conditions conditions 1.0000000
friendship protection 0.1250000
universal protection 0.1250000
the protection 0.1250000
landlord protection 0.1250000
shade protection 0.1250000
sweet protection 0.1250000
shroud protection 0.1250000
' protection 0.1250000
bond penalty 0.1818182
forfeiture penalty 0.2727273
due penalty 0.0909091
gold penalty 0.0909091
penalty penalty 0.2727273
peril penalty 0.0909091
recovery recover 0.1111111
soon recover 0.1111111
yet recover 0.1111111
recover recover 0.4444444
his recover 0.1111111
quick recover 0.1111111
shame ashamed 0.2121212
would ashamed 0.0303030
for ashamed 0.0909091
ashamed ashamed 0.2121212
unqualitied ashamed 0.0303030
maiden ashamed 0.0303030
no ashamed 0.0606061
, ashamed 0.0606061
ashamèd ashamed 0.0303030
shamest ashamed 0.0303030
shamed ashamed 0.0303030
fie ashamed 0.0303030
blush ashamed 0.0909091
touch ashamed 0.0303030
myself ashamed 0.0303030
greater thunderclap 0.5000000
crack thunderclap 0.5000000
wi sink 0.1000000
power sink 0.1000000
' sink 0.2000000
bark sink 0.1000000
th sink 0.1000000
sink sink 0.4000000
hecate hecate 0.3333333
now hecate 0.3333333
how hecate 0.3333333
here disarm 0.1428571
disarm disarm 0.1428571
beauty disarm 0.1428571
again disarm 0.1428571
my disarm 0.1428571
unprovide disarm 0.1428571
mind disarm 0.1428571
struck striking 0.1666667
now striking 0.1666667
thou striking 0.1666667
defeat striking 0.1666667
st striking 0.1666667
’ striking 0.1666667
his reproach 1.0000000
fall sweating 0.2500000
let sweating 0.2500000
thy sweating 0.2500000
lance sweating 0.2500000
education education 1.0000000
valentine valentine 0.5000000
saint valentine 0.5000000
entertain employ 1.0000000
good peter 0.1428571
peter peter 0.8571429
of barnardo 0.1666667
has barnardo 0.1666667
barnardo barnardo 0.5000000
this barnardo 0.1666667
NULL double-dealing 0.3333333
counsel double-dealing 0.3333333
double-dealing double-dealing 0.3333333
remembrances mementos 1.0000000
powder powder 1.0000000
hacked hacked 0.1666667
sides hacked 0.1666667
one hacked 0.1666667
of hacked 0.1666667
in hacked 0.1666667
another hacked 0.1666667
you harfleur 0.1111111
harfleur harfleur 0.7777778
and harfleur 0.1111111
temperance temperance 0.5000000
should temperance 0.2500000
temper temperance 0.2500000
thornbush thornbush 0.6666667
; thornbush 0.3333333
safest safest 1.0000000
know hear 0.0056180
content hear 0.0056180
urine hear 0.0056180
hear hear 0.6348315
my hear 0.0112360
damnèd hear 0.0056180
mark hear 0.0168539
gently hear 0.0056180
tongs hear 0.0056180
him hear 0.0056180
music hear 0.0056180
perceive hear 0.0056180
this hear 0.0056180
sorry hear 0.0056180
laughable hear 0.0056180
fellow hear 0.0056180
heard hear 0.0224719
crow hear 0.0056180
shrive hear 0.0112360
declare hear 0.0056180
but hear 0.0056180
charmian hear 0.0056180
learn hear 0.0056180
NULL hear 0.1011236
do hear 0.0056180
born hear 0.0056180
broken hear 0.0056180
deafness hear 0.0056180
mourner hear 0.0056180
thrusting hear 0.0056180
distinguish hear 0.0056180
fame hear 0.0056180
hearing hear 0.0112360
shalt hear 0.0056180
suffer hear 0.0056180
dost hear 0.0056180
wake hear 0.0056180
apprehension hear 0.0056180
coming hear 0.0056180
ear hear 0.0056180
commune hear 0.0056180
hedges once-trimmed 1.0000000
joseph joseph 1.0000000
erring misguided 0.5000000
an misguided 0.5000000
hairs hairs 0.5000000
been hairs 0.1666667
which hairs 0.1666667
feu hairs 0.1666667
lead show 0.0348837
know show 0.0116279
laertes show 0.0116279
sacrifice show 0.0116279
seen show 0.0116279
let show 0.0348837
render show 0.0116279
show show 0.3604651
boast show 0.0116279
appear show 0.0232558
be show 0.0116279
tell show 0.0116279
tailor show 0.0116279
promise show 0.0116279
NULL show 0.1046512
do show 0.0116279
merciful show 0.0116279
ceres show 0.0116279
to show 0.0116279
cut show 0.0116279
basis show 0.0116279
will show 0.0116279
counterfeited show 0.0116279
bring show 0.0232558
bloody show 0.0116279
teach show 0.0116279
tardy show 0.0116279
bowstrings show 0.0116279
ostentation show 0.0116279
winged show 0.0116279
make show 0.0116279
it show 0.0348837
go show 0.0116279
counterfeit show 0.0116279
then show 0.0348837
sport show 0.0116279
dallying show 0.0116279
shows show 0.0116279
thee depended 0.2500000
for depended 0.2500000
haste depended 0.2500000
contain depended 0.2500000
fearfulness obedience 0.2500000
homage obedience 0.2500000
duty obedience 0.2500000
obedience obedience 0.2500000
the casts 0.1666667
doth casts 0.1666667
a casts 0.1666667
substance casts 0.1666667
noble casts 0.1666667
all casts 0.1666667
sober sobering 1.0000000
here lack 0.0909091
upon lack 0.0909091
pain lack 0.0909091
forehead lack 0.0909091
my lack 0.0909091
children lack 0.0909091
ceremonious lack 0.0909091
those lack 0.0909091
lack lack 0.0909091
such lack 0.0909091
overtake lack 0.0909091
ruined bids 0.5000000
this bids 0.5000000
you bridegroom 0.1666667
a bridegroom 0.1666667
say bridegroom 0.1666667
bridegroom bridegroom 0.3333333
wants bridegroom 0.1666667
suitor petitioner 1.0000000
NULL wheel 0.2500000
fixed wheel 0.2500000
wheel wheel 0.5000000
wash wash 0.6000000
bathe wash 0.1000000
NULL wash 0.1000000
weather wash 0.1000000
clears wash 0.1000000
unworthy even 0.0030030
dignity even 0.0030030
beats even 0.0030030
better even 0.0030030
herod even 0.0030030
mountains even 0.0030030
life even 0.0030030
struck even 0.0030030
chamber even 0.0030030
entered even 0.0030030
wish even 0.0030030
but even 0.0270270
and even 0.0030030
though even 0.1411411
howsoever even 0.0030030
catching even 0.0030030
pansa even 0.0030030
guiltiness even 0.0030030
brutus even 0.0030030
sweeter even 0.0030030
nor even 0.0060060
think even 0.0060060
estimable even 0.0030030
throw even 0.0060060
bandy even 0.0030030
career even 0.0030030
quake even 0.0030030
can even 0.0060060
thou even 0.0060060
sport even 0.0060060
philosophy even 0.0030030
a even 0.0210210
heavier even 0.0030030
sermons even 0.0030030
lived even 0.0030030
merrier even 0.0030030
sebastian even 0.0030030
in even 0.0060060
latter even 0.0030030
thereto even 0.0030030
very even 0.0030030
denying even 0.0030030
addition even 0.0030030
sustaining even 0.0030030
robs even 0.0030030
worse even 0.0030030
convict even 0.0030030
fear even 0.0030030
calling even 0.0030030
ill-used even 0.0030030
assurance even 0.0030030
angry even 0.0060060
sparing even 0.0030030
angels even 0.0030030
improper even 0.0030030
self-endeared even 0.0030030
amaze even 0.0030030
i even 0.0030030
blind even 0.0030030
cheeks even 0.0030030
five even 0.0030030
assault even 0.0030030
blacker even 0.0060060
as even 0.0090090
inevitable even 0.0030030
chastised even 0.0030030
fleeting even 0.0030030
however even 0.0030030
know even 0.0030030
noting even 0.0030030
contents even 0.0030030
interpret even 0.0030030
, even 0.0600601
not even 0.0360360
that even 0.0090090
wast even 0.0060060
wondering even 0.0030030
fierce even 0.0030030
out even 0.0030030
regard even 0.0030030
brain even 0.0030030
sooner even 0.0030030
obey even 0.0030030
falls even 0.0030030
actions even 0.0030030
ethiope even 0.0030030
deign even 0.0030030
meet even 0.0030030
whipped even 0.0030030
indeed even 0.0030030
maritime even 0.0030030
pluck even 0.0030030
full-fraught even 0.0030030
enemies even 0.0030030
strange even 0.0030030
boar even 0.0030030
suffer even 0.0030030
now even 0.0030030
more even 0.0060060
bred even 0.0030030
the even 0.0600601
yet even 0.0240240
innocents even 0.0030030
need even 0.0060060
swear even 0.0030030
so even 0.0030030
unhappiness even 0.0030030
denial even 0.0030030
for even 0.0180180
liar even 0.0030030
vilely even 0.0030030
nay even 0.0090090
evened even 0.0030030
even even 0.0150150
NULL even 0.1861862
tickle even 0.0030030
bootless even 0.0030030
jot even 0.0030030
corrupted even 0.0030030
world even 0.0030030
becomings even 0.0030030
tear even 0.0030030
should even 0.0030030
except even 0.0030030
edge even 0.0030030
comptible even 0.0030030
had even 0.0030030
space even 0.0030030
puddle even 0.0030030
ordnance rumble 0.2500000
bellyful rumble 0.2500000
rumble rumble 0.2500000
thy rumble 0.2500000
breathes breath 0.0370370
merriman breath 0.0370370
stirs breath 0.0370370
catching breath 0.0370370
breathed breath 0.0370370
broken breath 0.0370370
being breath 0.0370370
bulk breath 0.0370370
distraction breath 0.0370370
breath breath 0.4074074
least breath 0.0370370
exhale breath 0.0370370
in breath 0.0370370
but breath 0.0740741
gasp breath 0.0370370
noise breath 0.0370370
marle marle 1.0000000
discharged immediately 0.0294118
send immediately 0.0294118
NULL immediately 0.1470588
straightway immediately 0.0588235
time immediately 0.0294118
audience immediately 0.0294118
stays immediately 0.0294118
preparation immediately 0.0294118
sacrifice immediately 0.0294118
expediently immediately 0.0294118
straight immediately 0.0294118
immediately immediately 0.1176471
it immediately 0.0294118
for immediately 0.0294118
instantly immediately 0.0882353
presently immediately 0.1470588
ready immediately 0.0294118
but immediately 0.0294118
present immediately 0.0294118
suddenly immediately 0.0294118
leading horsemen 0.1666667
foot horsemen 0.1666667
of horsemen 0.1666667
peeps horsemen 0.1666667
this horsemen 0.1666667
horsemen horsemen 0.1666667
our acceptance 0.2500000
pass acceptance 0.2500000
accept acceptance 0.2500000
peremptory acceptance 0.2500000
upon fresh 0.0454545
the fresh 0.1363636
breathes fresh 0.0454545
furbished fresh 0.0454545
springs fresh 0.0454545
nuts fresh 0.0454545
fresh fresh 0.2727273
all fresh 0.0454545
provoketh fresh 0.0454545
green fresh 0.0454545
gash fresh 0.0454545
us fresh 0.0454545
some fresh 0.0454545
best fresh 0.0454545
new fresh 0.0454545
well condemn 0.1428571
done condemn 0.1428571
NULL condemn 0.1428571
have condemn 0.1428571
condemn condemn 0.1428571
afterwards condemn 0.1428571
found condemn 0.1428571
know figured 0.1428571
do figured 0.1428571
but figured 0.1428571
not figured 0.1428571
hit figured 0.1428571
choose figured 0.1428571
moveable figured 0.1428571
gallops gallops 1.0000000
asses attendant 1.0000000
valorous bravest 1.0000000
woo gather 0.1000000
muster gather 0.1000000
up gather 0.1000000
levy gather 0.1000000
assemble gather 0.1000000
straight gather 0.1000000
him gather 0.1000000
collect gather 0.1000000
pluck gather 0.1000000
and gather 0.1000000
cold crumb 0.2500000
a crumb 0.2500000
as crumb 0.2500000
morsel crumb 0.2500000
eager nippy 0.1666667
nipping nippy 0.1666667
a nippy 0.1666667
air nippy 0.1666667
and nippy 0.1666667
an nippy 0.1666667
bade begging 0.0625000
prithee begging 0.1250000
a begging 0.0625000
most begging 0.0625000
NULL begging 0.0625000
bootless begging 0.0625000
petitionary begging 0.0625000
prayers begging 0.0625000
vehemence begging 0.0625000
beseech begging 0.1250000
pray begging 0.0625000
giving begging 0.0625000
beggar begging 0.0625000
with begging 0.0625000
gallant swinger 1.0000000
handling handling 1.0000000
ye grievances 0.1666667
between grievances 0.1666667
enforce grievances 0.1666667
griefs grievances 0.3333333
stomaching grievances 0.1666667
wear wears 0.3333333
one wears 0.2222222
wears wears 0.1111111
wasp wears 0.1111111
is wears 0.1111111
deformed wears 0.1111111
iterance repeating 0.2000000
after repeating 0.2000000
needs repeating 0.2000000
echo repeating 0.2000000
this repeating 0.2000000
blows explode 0.5000000
this explode 0.5000000
juno jupiter 0.2500000
jupiter jupiter 0.7500000
rose rose 1.0000000
high rocks 0.1666667
pebbles rocks 0.1666667
rocks rocks 0.1666667
be rocks 0.1666667
flints rocks 0.1666667
should rocks 0.1666667
atone reconcile 1.0000000
ardor stirring 1.0000000
peasant unwashed 1.0000000
pronounced roared 1.0000000
boxtree hedge 0.5000000
hedge hedge 0.5000000
interpret supply 0.5000000
furnish supply 0.5000000
em em 0.4000000
NULL em 0.2000000
snatch em 0.2000000
up em 0.2000000
latest final 0.5000000
parle final 0.2500000
we final 0.2500000
met adores 0.1000000
lies adores 0.1000000
for adores 0.1000000
that adores 0.1000000
well adores 0.1000000
prays adores 0.1000000
one adores 0.1000000
dearly adores 0.1000000
adores adores 0.2000000
pinch sting 0.2500000
each sting 0.2500000
more sting 0.2500000
stinging sting 0.2500000
leaders leaders 1.0000000
fond affectionate 0.3333333
over affectionate 0.3333333
iniquity affectionate 0.3333333
queens queens 1.0000000
wonder surprise 0.1666667
marvel surprise 0.3333333
up surprise 0.1666667
take surprise 0.1666667
though surprise 0.1666667
marcus marcus 1.0000000
la la 1.0000000
fells fleece 1.0000000
given already 0.0129870
done already 0.0259740
lust-stained already 0.0129870
cheerly already 0.0129870
meditating already 0.0129870
come already 0.0129870
employed already 0.0129870
cudgel already 0.0129870
got already 0.0129870
iron already 0.0129870
known already 0.0129870
offered already 0.0129870
crow already 0.0129870
be already 0.0259740
love-springs already 0.0129870
embarked already 0.0129870
ready already 0.0129870
salutation already 0.0129870
NULL already 0.2077922
plainness already 0.0129870
aboard already 0.0129870
confessed already 0.0129870
midnight already 0.0129870
tis already 0.0129870
hadst already 0.0129870
already already 0.3116883
dead already 0.0129870
long already 0.0129870
footed already 0.0259740
a-talking already 0.0129870
strucken already 0.0129870
dined already 0.0129870
under already 0.0129870
moved already 0.0129870
hath already 0.0129870
an already 0.0129870
'erpaid thanked 0.1428571
acknowledged thanked 0.1428571
NULL thanked 0.1428571
thanked thanked 0.1428571
thank thanked 0.1428571
any thanked 0.1428571
o thanked 0.1428571
a immortal 0.0909091
in immortal 0.0909091
me immortal 0.0909091
longings immortal 0.0909091
except immortal 0.0909091
thing immortal 0.0909091
immortal immortal 0.4545455
hush shhh 0.3333333
no shhh 0.3333333
more shhh 0.3333333
revengeful vengeful 0.2000000
purgers vengeful 0.2000000
murderers vengeful 0.2000000
envious vengeful 0.2000000
called vengeful 0.2000000
here ghost 0.0400000
vision ghost 0.0400000
pin ghost 0.0400000
relative ghost 0.0400000
shadow ghost 0.0400000
ghost ghost 0.2000000
NULL ghost 0.1200000
terms ghost 0.0400000
spirit ghost 0.2800000
compulsatory ghost 0.0400000
sledded ghost 0.0400000
in ghost 0.0400000
itself ghost 0.0400000
heap knowledge 0.2000000
deserving knowledge 0.2000000
knowledge knowledge 0.4000000
your knowledge 0.2000000
the danger 0.0625000
lead danger 0.0625000
it danger 0.0625000
fear danger 0.1250000
NULL danger 0.1875000
— danger 0.0625000
danger danger 0.1875000
wants danger 0.0625000
controlment danger 0.0625000
means danger 0.0625000
lighted danger 0.0625000
colme colme 1.0000000
helm victory 0.0416667
on victory 0.1250000
triumph victory 0.0416667
our victory 0.0416667
sits victory 0.0416667
have victory 0.0416667
loured victory 0.0416667
thy victory 0.0416667
life victory 0.0416667
victorious victory 0.0416667
where victory 0.0416667
victory victory 0.2500000
sit victory 0.0416667
signal victory 0.0416667
palm victory 0.0416667
helms victory 0.0416667
conquest victory 0.0416667
ingraft second-in-command 0.2000000
second second-in-command 0.2000000
infirmity second-in-command 0.2000000
own second-in-command 0.2000000
an second-in-command 0.2000000
so cares 0.1000000
may cares 0.1000000
do cares 0.1000000
come cares 0.1000000
danger cares 0.1000000
that cares 0.1000000
thee cares 0.1000000
sport cares 0.1000000
i cares 0.1000000
adore cares 0.1000000
even exchange 0.1000000
NULL exchange 0.2000000
me exchange 0.1000000
undeservers exchange 0.1000000
chrysolite exchange 0.1000000
bequeath exchange 0.1000000
fathers exchange 0.1000000
exchange exchange 0.1000000
frown exchange 0.1000000
dishonor insults 0.3333333
indignation insults 0.3333333
injuries insults 0.3333333
saxony saxony 1.0000000
satisfaction square 0.5000000
make square 0.5000000
in heavily 0.2500000
measure heavily 0.2500000
great heavily 0.2500000
perfumèd heavily 0.2500000
good veteran 0.5000000
old veteran 0.5000000
a attractive 0.0588235
dwell attractive 0.0588235
what attractive 0.0588235
NULL attractive 0.1176471
of attractive 0.0588235
do attractive 0.0588235
my attractive 0.0588235
graces attractive 0.0588235
nature attractive 0.0588235
gracious attractive 0.0588235
person attractive 0.0588235
dimension attractive 0.0588235
in attractive 0.1176471
shape attractive 0.0588235
love attractive 0.0588235
did gleam 0.3333333
luster gleam 0.3333333
lose gleam 0.3333333
triumph triumph 0.4285714
unto triumph 0.1428571
poland triumph 0.1428571
home triumph 0.1428571
with triumph 0.1428571
dread revered 1.0000000
NULL arms 0.0833333
limbs arms 0.0833333
arms arms 0.7500000
lived arms 0.0833333
scot full-scale 0.5000000
main full-scale 0.5000000
lively reminds 0.5000000
some reminds 0.5000000
tubal synagogue 0.2500000
good synagogue 0.2500000
, synagogue 0.2500000
go synagogue 0.2500000
caliban pile 0.2500000
them pile 0.2500000
pile pile 0.5000000
slain envy 0.2000000
father envy 0.2000000
noble envy 0.2000000
pursued envy 0.2000000
my envy 0.2000000
shake doubts 0.1250000
scruples doubts 0.1250000
NULL doubts 0.1250000
us doubts 0.1250000
doubt doubts 0.2500000
that doubts 0.1250000
mothers doubts 0.1250000
couch recline 0.5000000
do recline 0.5000000
it busily 1.0000000
doth astounds 0.5000000
amaze astounds 0.5000000
s surrendered 0.5000000
vassal surrendered 0.5000000
foix foix 1.0000000
show sees 0.0526316
NULL sees 0.1052632
— sees 0.0526316
danger sees 0.0526316
judgment sees 0.0526316
look sees 0.0526316
drowned sees 0.0526316
lack sees 0.0526316
shall sees 0.0526316
then sees 0.0526316
doubly sees 0.0526316
his sees 0.0526316
sees sees 0.2105263
waking sees 0.0526316
with sees 0.0526316
out virtue 0.1000000
virtue virtue 0.3000000
it virtue 0.1000000
blot virtue 0.1000000
hero virtue 0.2000000
can virtue 0.1000000
itself virtue 0.1000000
fuming debauchery 0.1428571
keep debauchery 0.1428571
of debauchery 0.1428571
brain debauchery 0.1428571
his debauchery 0.1428571
feasts debauchery 0.1428571
field debauchery 0.1428571
made deal 0.0370370
lady deal 0.0370370
NULL deal 0.0740741
content deal 0.0370370
ourself deal 0.0370370
, deal 0.0370370
tis deal 0.0370370
gone deal 0.0370370
deal deal 0.0740741
matter deal 0.0370370
in deal 0.1111111
business deal 0.0370370
much deal 0.0740741
bargain deal 0.0740741
it deal 0.0370370
churl deal 0.0370370
match deal 0.0740741
changed deal 0.0370370
hand deal 0.0370370
faith deal 0.0370370
gospels gospel 1.0000000
person personal 0.2000000
personal personal 0.4000000
stomaching personal 0.2000000
more personal 0.2000000
dighton dighton 1.0000000
audit disposal 0.3333333
make disposal 0.3333333
their disposal 0.3333333
lordship lordship 0.5000000
our lordship 0.1250000
accept lordship 0.1250000
please lordship 0.1250000
duty lordship 0.1250000
parings owner 0.2000000
' owner 0.2000000
keeper owner 0.2000000
lord owner 0.2000000
o owner 0.2000000
smirch smudge 0.2500000
kind smudge 0.2500000
umber smudge 0.2500000
of smudge 0.2500000
obligation obligations 1.0000000
the infatuation 0.2500000
measure infatuation 0.2500000
erflows infatuation 0.2500000
o infatuation 0.2500000
hither seductive 0.1250000
songs seductive 0.1250000
purpose seductive 0.1250000
me seductive 0.1250000
than seductive 0.1250000
timelier seductive 0.1250000
list seductive 0.1250000
called seductive 0.1250000
here pearl 0.1428571
pearl pearl 0.4285714
union pearl 0.2857143
an pearl 0.1428571
chopped chapped 1.0000000
drunkard drunkard 0.3333333
dead drunkard 0.1666667
one drunkard 0.1666667
for drunkard 0.1666667
, drunkard 0.1666667
she dido 0.2000000
dido dido 0.8000000
well beautifully 0.2500000
NULL beautifully 0.2500000
how beautifully 0.2500000
but beautifully 0.2500000
anguish trauma 1.0000000
modern up-to-the-minute 1.0000000
had revolting 0.1111111
the revolting 0.1111111
he revolting 0.1111111
would revolting 0.1111111
world revolting 0.1111111
all revolting 0.1111111
but revolting 0.1111111
quite revolting 0.1111111
forsworn revolting 0.1111111
milch-kine milk 0.3333333
milk-white milk 0.3333333
milk milk 0.3333333
envenomed dipped 1.0000000
storm riled 0.2500000
heated riled 0.2500000
you riled 0.2500000
how riled 0.2500000
in earring 0.5000000
pearl earring 0.5000000
kind nastily 0.2500000
yields nastily 0.2500000
answer nastily 0.2500000
never nastily 0.2500000
lady meantime 0.0555556
court meantime 0.0555556
s meantime 0.0555556
’ meantime 0.0555556
vices meantime 0.0555556
while meantime 0.1111111
encounter meantime 0.0555556
as meantime 0.0555556
meantime meantime 0.3333333
but meantime 0.0555556
interim meantime 0.0555556
mine meantime 0.0555556
sweating sweaty 1.0000000
good feasting 0.2500000
cheer feasting 0.2500000
feasting feasting 0.2500000
with feasting 0.2500000
in yellow 0.2000000
yellow yellow 0.7000000
saffron yellow 0.1000000
slips gambling 0.2000000
but gambling 0.2000000
usual gambling 0.2000000
and gambling 0.2000000
outparamoured gambling 0.2000000
adultery adultery 1.0000000
when whenever 0.2500000
upon whenever 0.0500000
registered whenever 0.0500000
even whenever 0.0500000
NULL whenever 0.0500000
therefore whenever 0.0500000
leisure whenever 0.0500000
st whenever 0.0500000
every whenever 0.0500000
by whenever 0.0500000
where whenever 0.1000000
never whenever 0.1000000
patience whenever 0.0500000
your whenever 0.0500000
they exaggerate 0.1428571
brutus exaggerate 0.1428571
NULL exaggerate 0.1428571
greater exaggerate 0.1428571
makes exaggerate 0.1428571
are exaggerate 0.1428571
than exaggerate 0.1428571
hell-hated hellish 0.2000000
thy hellish 0.2000000
lie hellish 0.2000000
'erwhelm hellish 0.2000000
o hellish 0.2000000
shame disrespect 1.0000000
act accomplishing 1.0000000
it logic 0.0909091
syllogism logic 0.0909091
NULL logic 0.0909091
how logic 0.0909091
reason logic 0.0909091
chase logic 0.0909091
dost logic 0.0909091
will logic 0.0909091
thou logic 0.0909091
simple logic 0.0909091
fondly logic 0.0909091
breast breastplate 0.5000000
scuffles breastplate 0.5000000
marquess dorset 0.2857143
dorset dorset 0.7142857
barren oops 0.2500000
now oops 0.2500000
marry oops 0.2500000
am oops 0.2500000
tis thought-out 1.0000000
tardy delay 0.1000000
'en delay 0.1000000
unwise delay 0.1000000
delay delay 0.5000000
ta delay 0.1000000
by delay 0.1000000
twenty seconds 1.0000000
thee web 0.1666667
web web 0.1666667
about web 0.1666667
deadly web 0.1666667
whose web 0.1666667
ensnareth web 0.1666667
as partly 0.1250000
partly partly 0.7500000
confessed partly 0.1250000
NULL teach 0.0740741
, teach 0.0370370
to teach 0.0370370
pleasure teach 0.0370370
dear teach 0.0370370
counsel teach 0.0370370
break teach 0.0370370
teach teach 0.3703704
creature teach 0.0370370
ears teach 0.0370370
extraordinary teach 0.0370370
teacheth teach 0.0370370
any teach 0.0370370
teachest teach 0.0370370
learn teach 0.0740741
lute teach 0.0370370
NULL horns 0.1250000
hornmaker horns 0.1250000
mad horns 0.1250000
horn horns 0.1250000
horns horns 0.5000000
lodge commanders 0.0909091
know commanders 0.0909091
companies commanders 0.0909091
tonight commanders 0.0909091
many commanders 0.0909091
battles commanders 0.0909091
their commanders 0.0909091
heads commanders 0.0909091
commanders commanders 0.1818182
prepare commanders 0.0909091
savors set 0.0238095
made set 0.0238095
pawn set 0.0238095
these set 0.0476190
NULL set 0.1190476
not set 0.0238095
discharge set 0.0238095
let set 0.0238095
gem set 0.0238095
fire set 0.0476190
hoist set 0.0238095
much set 0.0238095
befits set 0.0238095
down set 0.0476190
this set 0.0238095
lawful set 0.0238095
prepare set 0.0238095
set set 0.2380952
make set 0.0476190
determined set 0.0238095
doubts set 0.0238095
s set 0.0238095
prove set 0.0238095
trod set 0.0238095
ducats set 0.0238095
rated berated 1.0000000
scotch jig 0.5000000
jig jig 0.5000000
arras tapestry 0.2500000
ducats tapestry 0.2500000
myself tapestry 0.2500000
tapestry tapestry 0.2500000
done job 0.0294118
rarely job 0.0294118
NULL job 0.2058824
limited job 0.0294118
place job 0.0588235
supplied job 0.0294118
fairly job 0.0294118
called job 0.0294118
brakenbury job 0.0294118
it job 0.0294118
dispatch job 0.0294118
service job 0.0294118
affair job 0.0294118
office job 0.2941176
well job 0.0294118
ill job 0.0294118
talk job 0.0294118
was job 0.0294118
bow rainbow 0.5000000
heavenly rainbow 0.5000000
boar boar 0.8333333
NULL boar 0.1666667
holy pious 0.5000000
gospeled pious 0.5000000
purpled stained 0.2000000
lust-stained stained 0.2000000
blotted stained 0.2000000
blot stained 0.2000000
stained stained 0.2000000
so leader 0.1666667
sword leader 0.1666667
leader leader 0.1666667
unswayed leader 0.1666667
majesty leader 0.1666667
cease leader 0.1666667
trencher met 0.0416667
met met 0.5833333
meet met 0.0416667
that met 0.0416667
found met 0.0833333
saw met 0.0416667
seen met 0.0833333
thou met 0.0416667
more met 0.0416667
tooth tooth 1.0000000
hairs white 0.0833333
milk-white white 0.0833333
white white 0.7500000
NULL white 0.0833333
NULL capture 0.2857143
taken capture 0.1428571
be capture 0.1428571
fetch capture 0.1428571
take capture 0.1428571
achieve capture 0.1428571
jove wonder 0.0833333
peseech wonder 0.0833333
wonder wonder 0.4166667
marvel wonder 0.1666667
grieved wonder 0.0833333
contemplation wonder 0.0833333
though wonder 0.0833333
persuasion urgings 1.0000000
saint saint 0.9166667
puissance saint 0.0833333
frail susceptible 0.3333333
in susceptible 0.3333333
imminent susceptible 0.3333333
abhorring disgusting 0.0833333
NULL disgusting 0.0833333
name disgusting 0.0833333
my disgusting 0.0833333
gross disgusting 0.0833333
s disgusting 0.0833333
’ disgusting 0.0833333
pish disgusting 0.0833333
knot disgusting 0.0833333
fie disgusting 0.0833333
macbeth disgusting 0.0833333
fault disgusting 0.0833333
sides torso 0.5000000
s torso 0.5000000
doth frowns 0.1428571
frowns frowns 0.4285714
— frowns 0.1428571
why frowns 0.1428571
! frowns 0.1428571
from invented 0.5000000
fire-new invented 0.5000000
violet violet 1.0000000
softly gracefully 1.0000000
obedient disobedient 0.2500000
as disobedient 0.2500000
not disobedient 0.2500000
beldams disobedient 0.2500000
betrothed betrothed 0.2500000
first betrothed 0.2500000
substitute betrothed 0.2500000
by betrothed 0.2500000
thane cawdor 0.1250000
cawdor cawdor 0.2500000
very cawdor 0.1250000
he cawdor 0.1250000
him cawdor 0.1250000
that cawdor 0.1250000
frankly cawdor 0.1250000
dared dared 0.1250000
tempted dared 0.1250000
my dared 0.1250000
hath dared 0.1250000
durst dared 0.2500000
wage dared 0.1250000
lord dared 0.1250000
reckoning duel 0.0666667
desert duel 0.0666667
it duel 0.0666667
a duel 0.0666667
NULL duel 0.2000000
withdraw duel 0.0666667
orchard duel 0.0666667
young duel 0.0666667
end duel 0.0666667
challenge duel 0.0666667
challenged duel 0.0666667
call duel 0.0666667
field duel 0.0666667
baby doll 1.0000000
brows brow 0.2500000
looks brow 0.2500000
wreath brow 0.2500000
this brow 0.2500000
aleppo aleppo 1.0000000
search parties 0.5000000
guests parties 0.5000000
feats deeds 0.1111111
as deeds 0.1111111
business deeds 0.1111111
play deeds 0.1111111
deeds deeds 0.3333333
exercise deeds 0.1111111
all deeds 0.1111111
rather dragged 0.3333333
drawn dragged 0.3333333
hath dragged 0.3333333
taunting taunting 0.1666667
mock taunting 0.1666667
very taunting 0.1666667
thou taunting 0.1666667
st taunting 0.1666667
’ taunting 0.1666667
swoons sight 0.0232558
NULL sight 0.0697674
ill-favoredly sight 0.0232558
come sight 0.0232558
lurk sight 0.0232558
late sight 0.0232558
apparition sight 0.0232558
england sight 0.0232558
sicken sight 0.0232558
face sight 0.0232558
our sight 0.0232558
from sight 0.0232558
affairs sight 0.0232558
at sight 0.0232558
thy sight 0.0232558
hence sight 0.0232558
sight sight 0.4186047
avoid sight 0.0232558
spectacle sight 0.0232558
eye sight 0.0232558
vanish sight 0.0232558
eyes sight 0.0232558
mine sight 0.0232558
too sight 0.0232558
sanctimony religion 0.3333333
hell religion 0.3333333
if religion 0.3333333
monster outrageous 0.3333333
tyrannically outrageous 0.3333333
lewd outrageous 0.3333333
serves gentleman 0.0188679
NULL gentleman 0.0188679
gallant gentleman 0.0188679
seigneur gentleman 0.0188679
gentleman gentleman 0.7547170
counseled gentleman 0.0188679
modena gentleman 0.0188679
books gentleman 0.0188679
gallants gentleman 0.0188679
lord gentleman 0.0188679
gently gentleman 0.0188679
your gentleman 0.0188679
qualities gentleman 0.0188679
spoken gentleman 0.0188679
ensheltered protected 0.1666667
it protected 0.1666667
walled protected 0.1666667
claimed protected 0.1666667
embayed protected 0.1666667
and protected 0.1666667
the oppression 0.1428571
country oppression 0.1428571
yoke oppression 0.2857143
our oppression 0.1428571
beneath oppression 0.1428571
sinks oppression 0.1428571
very perfect 0.0833333
NULL perfect 0.1666667
for perfect 0.0833333
convenient perfect 0.0833333
all perfect 0.0833333
perfect perfect 0.0833333
created perfect 0.0833333
gods perfect 0.0833333
rehearsal perfect 0.0833333
perfection perfect 0.1666667
mend mend 1.0000000
made driven 0.0909091
thence driven 0.0909091
NULL driven 0.1818182
moved driven 0.0909091
rebuked driven 0.0909091
from driven 0.0909091
beat driven 0.1818182
came driven 0.0909091
droven driven 0.0909091
chambers bedrooms 1.0000000
unworthiness unworthy 0.2500000
NULL unworthy 0.2500000
mine unworthy 0.2500000
worthless unworthy 0.2500000
birth birth 0.0625000
shambles birth 0.0625000
whelpèd birth 0.0625000
stars birth 0.0625000
rounded birth 0.0625000
education birth 0.0625000
NULL birth 0.0625000
a birth 0.1250000
miranda birth 0.0625000
breeding birth 0.0625000
blood birth 0.0625000
minute birth 0.0625000
burden birth 0.0625000
at birth 0.0625000
agony birth 0.0625000
cinquepace illusion 0.3333333
a illusion 0.3333333
dream illusion 0.3333333
separated both 0.0091743
contracted both 0.0091743
tripped both 0.0091743
woo both 0.0091743
majesties both 0.0091743
NULL both 0.1376147
both both 0.6238532
two both 0.0091743
gone both 0.0091743
indeed both 0.0091743
matter both 0.0183486
knaves both 0.0091743
jointly both 0.0091743
outright both 0.0091743
article both 0.0091743
innocence both 0.0091743
ambles both 0.0091743
night both 0.0091743
yourselves both 0.0183486
covenants both 0.0091743
re both 0.0091743
stocking both 0.0091743
sure both 0.0183486
graces both 0.0091743
crab both 0.0091743
him signor 0.0714286
signor signor 0.5000000
signior signor 0.3571429
commends signor 0.0714286
swain farmworker 1.0000000
make vices 0.2000000
vices vices 0.2000000
in vices 0.2000000
instruments vices 0.2000000
viciousness vices 0.2000000
you sailor 0.1428571
now sailor 0.1428571
sailor sailor 0.2857143
have sailor 0.1428571
no sailor 0.1428571
sea-cap sailor 0.1428571
not dug 1.0000000
oyster oyster 1.0000000
varlet shameless 0.5000000
brazen-faced shameless 0.5000000
NULL cheated 0.0909091
false cheated 0.1818182
turned cheated 0.0909091
unscarred cheated 0.0909091
'erraught cheated 0.0909091
folly cheated 0.0909091
side cheated 0.0909091
was cheated 0.0909091
seamy cheated 0.0909091
o cheated 0.0909091
proculeius proculeius 0.7500000
knows proculeius 0.2500000
wassails hedonism 0.5000000
lascivious hedonism 0.5000000
pharsalia pharsalia 1.0000000
fellow spouse 1.0000000
worried harassed 1.0000000
morocco morocco 1.0000000
deep banquo 0.0500000
stick banquo 0.0500000
banquo banquo 0.7500000
reigns banquo 0.0500000
feared banquo 0.0500000
nature banquo 0.0500000
or anytime 0.2000000
now anytime 0.2000000
provided anytime 0.2000000
whensoever anytime 0.2000000
ready anytime 0.2000000
did plotted 1.0000000
brine drinking 0.0769231
unfilled drinking 0.0769231
s drinking 0.1538462
potting drinking 0.0769231
our drinking 0.0769231
throats drinking 0.0769231
used drinking 0.0769231
drinking drinking 0.1538462
drink drinking 0.1538462
hazard drinking 0.0769231
would dangers 0.2500000
perils dangers 0.2500000
dangers dangers 0.5000000
fourteen regular 0.5000000
that regular 0.5000000
wanton erotic 1.0000000
artemidorus artemidorus 1.0000000
pelleted pellet 1.0000000
hour relief 0.1250000
heart relief 0.1250000
absent relief 0.1250000
thee relief 0.1250000
from relief 0.1250000
thy relief 0.1250000
therein relief 0.1250000
felicity relief 0.1250000
wet wet 0.6666667
wetting wet 0.3333333
waved twisted 0.5000000
proclaim twisted 0.5000000
come world-traveled 1.0000000
us signals 0.2500000
astonish signals 0.2500000
heralds signals 0.2500000
dreadful signals 0.2500000
these no 0.0012300
greener no 0.0012300
you no 0.0036900
damnable no 0.0012300
come no 0.0012300
nobody no 0.0024600
heavy no 0.0012300
degrees no 0.0012300
madonna no 0.0012300
longer no 0.0012300
extravagancy no 0.0012300
demetrius no 0.0012300
anchoring no 0.0012300
peace no 0.0012300
lost no 0.0024600
strained no 0.0012300
deny no 0.0049200
honored no 0.0012300
instance no 0.0012300
celerity no 0.0012300
betide no 0.0012300
but no 0.0061501
fleering no 0.0012300
perforce no 0.0012300
guiltiness no 0.0012300
nor no 0.0073801
think no 0.0012300
thy no 0.0012300
neither no 0.0061501
it no 0.0049200
saying no 0.0012300
part no 0.0012300
man no 0.0012300
thou no 0.0012300
truly no 0.0012300
grieved no 0.0012300
false no 0.0012300
a no 0.0098401
led no 0.0012300
giant-rude no 0.0012300
no no 0.5030750
off no 0.0012300
natural no 0.0012300
inferior no 0.0012300
might no 0.0012300
in no 0.0012300
cause no 0.0049200
remorse no 0.0012300
madam no 0.0024600
alas no 0.0073801
permission no 0.0012300
resolved no 0.0012300
me no 0.0073801
by no 0.0012300
provokèd no 0.0012300
unhappy no 0.0012300
forsooth no 0.0012300
passy-measures no 0.0012300
surgery no 0.0012300
wither no 0.0012300
rogue no 0.0012300
believed no 0.0012300
oliver no 0.0012300
his no 0.0012300
beauty no 0.0012300
i no 0.0061501
understands no 0.0012300
doubt no 0.0061501
there no 0.0036900
launcelot no 0.0012300
controlment no 0.0012300
falstaff no 0.0012300
why no 0.0024600
nothing no 0.0036900
fast no 0.0012300
o no 0.0036900
swoons no 0.0012300
yes no 0.0012300
unbound no 0.0012300
ambiguities no 0.0012300
caused no 0.0012300
cannot no 0.0012300
not no 0.0246002
that no 0.0036900
flatter no 0.0024600
whatever no 0.0012300
choose no 0.0012300
on no 0.0012300
gone no 0.0012300
airless no 0.0012300
slept no 0.0012300
years no 0.0012300
veins no 0.0012300
race no 0.0012300
day no 0.0012300
regard no 0.0012300
blamed no 0.0012300
grief no 0.0012300
pacified no 0.0012300
impossible no 0.0012300
faith no 0.0073801
love no 0.0012300
none no 0.0246002
do no 0.0012300
velvet no 0.0012300
indeed no 0.0049200
oh no 0.0036900
stood no 0.0012300
resting no 0.0012300
master no 0.0012300
stopped no 0.0012300
stol no 0.0012300
more no 0.0024600
lure no 0.0012300
let no 0.0024600
blank no 0.0012300
suspicion no 0.0012300
this no 0.0012300
steep no 0.0012300
so no 0.0024600
meant no 0.0012300
questions no 0.0012300
nay no 0.0971710
heard no 0.0012300
advancement no 0.0012300
lover no 0.0012300
rather no 0.0012300
wailed no 0.0012300
NULL no 0.0811808
jot no 0.0012300
poppy no 0.0012300
never no 0.0061501
waterish no 0.0012300
rebels no 0.0012300
soldiership no 0.0012300
at no 0.0024600
lusted no 0.0012300
conqueror no 0.0012300
first no 0.0012300
legitimate no 0.0012300
play no 0.0012300
sans no 0.0012300
pities no 0.0012300
nonpareil no 0.0012300
fain anxious 0.1250000
been anxious 0.1250000
have anxious 0.1250000
much anxious 0.1250000
hotly anxious 0.1250000
careful anxious 0.1250000
called anxious 0.1250000
dismay anxious 0.1250000
seasons mixes 1.0000000
agincourt agincourt 0.4000000
they agincourt 0.2000000
it agincourt 0.2000000
call agincourt 0.2000000
your dumps 0.5000000
dumps dumps 0.5000000
buried gnats 0.1250000
for gnats 0.1250000
have gnats 0.1250000
them gnats 0.1250000
nile gnats 0.1250000
prey gnats 0.1250000
gnats gnats 0.1250000
! gnats 0.1250000
overmastered lorded 1.0000000
the self-delusions 0.2000000
initiate self-delusions 0.2000000
is self-delusions 0.2000000
self-abuse self-delusions 0.2000000
and self-delusions 0.2000000
annexment object 1.0000000
the shedding 0.5000000
till shedding 0.2500000
NULL shedding 0.2500000
tweaks pinch 0.1000000
over-red pinch 0.1000000
pinch pinch 0.5000000
nor pinch 0.1000000
me pinch 0.1000000
by pinch 0.1000000
lashed woe 0.2500000
with woe 0.2500000
is woe 0.2500000
woe woe 0.2500000
marching marching 1.0000000
salisbury salisbury 1.0000000
persuaded dissuade 0.2500000
so dissuade 0.2500000
have dissuade 0.2500000
mightily dissuade 0.2500000
want go 0.0012300
chastisement go 0.0012300
forth go 0.0086101
requisites go 0.0012300
dwell go 0.0012300
you go 0.0344403
fly go 0.0012300
come go 0.0184502
see go 0.0123001
broached go 0.0012300
hogs go 0.0012300
ireland go 0.0012300
fairs go 0.0012300
suits go 0.0012300
keep go 0.0012300
business go 0.0012300
slomber go 0.0012300
extend go 0.0012300
weep go 0.0012300
ll go 0.0061501
pronounce go 0.0012300
squirrel go 0.0012300
them go 0.0024600
bite go 0.0012300
aroint go 0.0024600
compassed go 0.0012300
borders go 0.0012300
spade go 0.0012300
inclined go 0.0012300
again go 0.0024600
commanded go 0.0012300
and go 0.0024600
rest go 0.0012300
stir go 0.0012300
will go 0.0012300
unsafe go 0.0012300
dismiss go 0.0012300
press go 0.0012300
thy go 0.0012300
tune go 0.0012300
revels go 0.0012300
pass go 0.0012300
said go 0.0012300
going go 0.0024600
it go 0.0012300
transform go 0.0012300
part go 0.0012300
persever go 0.0012300
dale go 0.0012300
right go 0.0012300
daggers go 0.0012300
sauce go 0.0024600
wait go 0.0012300
fret go 0.0012300
vanish go 0.0012300
way go 0.0012300
assume go 0.0012300
relief go 0.0012300
pay go 0.0012300
— go 0.0036900
post go 0.0012300
off go 0.0012300
soft go 0.0012300
wildcat go 0.0012300
lots go 0.0012300
contriving go 0.0012300
in go 0.0024600
fetch go 0.0036900
perish go 0.0012300
toward go 0.0012300
gentleness go 0.0012300
ask go 0.0012300
caelius go 0.0012300
s go 0.0036900
pack go 0.0012300
quickly go 0.0012300
resurvey go 0.0012300
withdraw go 0.0061501
mad go 0.0036900
after go 0.0061501
run go 0.0049200
begone go 0.0049200
am go 0.0012300
us go 0.0012300
get go 0.0233702
attend go 0.0024600
hence go 0.0123001
i go 0.0061501
quiet go 0.0012300
unfold go 0.0012300
crowner go 0.0012300
heart go 0.0012300
sue go 0.0012300
minstrels go 0.0012300
back go 0.0061501
go go 0.3321033
there go 0.0012300
well go 0.0036900
why go 0.0012300
everyone go 0.0012300
cullions go 0.0012300
woo go 0.0012300
forward go 0.0036900
along go 0.0024600
table go 0.0012300
, go 0.0196802
take go 0.0012300
gate go 0.0012300
pale go 0.0012300
on go 0.0049200
gone go 0.0135301
fond go 0.0012300
mark go 0.0012300
dares go 0.0012300
further go 0.0024600
mightst go 0.0012300
departure go 0.0012300
greek go 0.0012300
thee go 0.0024600
madness go 0.0024600
uncle go 0.0012300
adriana go 0.0012300
walk go 0.0036900
budge go 0.0024600
obey go 0.0024600
fished go 0.0012300
i. go 0.0012300
with go 0.0012300
leave go 0.0049200
must go 0.0086101
visit go 0.0012300
meet go 0.0012300
goes go 0.0036900
fee go 0.0012300
do go 0.0049200
into go 0.0024600
avaunt go 0.0024600
to go 0.0270603
incontinently go 0.0012300
from go 0.0012300
motion go 0.0012300
home go 0.0061501
complain go 0.0012300
cum go 0.0012300
cabin go 0.0012300
females go 0.0012300
pursue go 0.0012300
ones go 0.0012300
thither go 0.0049200
little go 0.0012300
wake go 0.0012300
proceed go 0.0073801
then go 0.0024600
unhand go 0.0012300
traverse go 0.0012300
bed go 0.0036900
speak go 0.0024600
went go 0.0024600
about go 0.0012300
this go 0.0012300
lay go 0.0012300
swim go 0.0012300
slaves go 0.0012300
whither go 0.0012300
enter go 0.0086101
near go 0.0012300
abed go 0.0024600
nay go 0.0012300
be go 0.0196802
away go 0.0442804
separated go 0.0012300
undertake go 0.0012300
NULL go 0.0651907
needs go 0.0036900
hasten go 0.0012300
therefore go 0.0049200
words go 0.0012300
use go 0.0012300
bring go 0.0024600
say go 0.0036900
counsel go 0.0024600
call go 0.0012300
saved go 0.0024600
hunt go 0.0024600
billeted go 0.0012300
return go 0.0086101
question go 0.0012300
prevailed go 0.0012300
disperse go 0.0012300
speedy go 0.0024600
retire go 0.0012300
air go 0.0012300
decius go 0.0012300
somewhere go 0.0012300
sleep go 0.0012300
seek go 0.0036900
wrong unaware 0.1666667
NULL unaware 0.1666667
knowledge unaware 0.1666667
imaginations unaware 0.1666667
woes unaware 0.1666667
by unaware 0.1666667
drinking toasts 0.3333333
with toasts 0.3333333
healths toasts 0.3333333
most brilliant 0.1666667
gull-catcher brilliant 0.1666667
exquisite brilliant 0.3333333
my brilliant 0.3333333
let coroner 1.0000000
dish dish 0.7500000
again dish 0.2500000
when tree 0.0500000
tree tree 0.5500000
NULL tree 0.0500000
may tree 0.0500000
pine tree 0.1000000
cessez tree 0.0500000
well tree 0.0500000
oak tree 0.1000000
emperor emperor 0.6666667
imperious emperor 0.0833333
continues emperor 0.0833333
leather emperor 0.0833333
s emperor 0.0833333
snaffle third 0.0588235
tertio third 0.0588235
part third 0.1176471
third third 0.7058824
pays third 0.0588235
way superseded 0.2500000
may superseded 0.2500000
give superseded 0.2500000
enmities superseded 0.2500000
right profound 1.0000000
out imperfections 0.2000000
piece imperfections 0.2000000
ill-well imperfections 0.2000000
imperfections imperfections 0.2000000
with imperfections 0.2000000
bedfellows folks 0.3333333
quick-witted folks 0.3333333
folks folks 0.3333333
in govern 0.3333333
nonage govern 0.3333333
rules govern 0.3333333
defy defy 0.2000000
fear defy 0.2000000
for defy 0.2000000
brave defy 0.2000000
her defy 0.2000000
pursuit route 0.1428571
way route 0.1428571
from route 0.1428571
hide route 0.1428571
shorter route 0.1428571
us route 0.1428571
safest route 0.1428571
the disease 0.1000000
owner disease 0.0500000
upon disease 0.0500000
ague disease 0.0500000
which disease 0.0500000
infectious disease 0.0500000
s disease 0.1000000
disease disease 0.2500000
’ disease 0.1000000
pestilence disease 0.0500000
thee disease 0.0500000
imminent disease 0.0500000
falling disease 0.0500000
to tortures 0.2000000
pinched tortures 0.2000000
be tortures 0.2000000
death tortures 0.2000000
torture tortures 0.2000000
cobbler cobbler 1.0000000
all-shaking thunder 0.1111111
smite thunder 0.1111111
bellyful thunder 0.1111111
thunder thunder 0.6666667
stolen stole 0.0625000
hast stole 0.0625000
NULL stole 0.1250000
took stole 0.1250000
dear stole 0.0625000
got stole 0.0625000
lapsèd stole 0.0625000
in stole 0.1250000
usurp stole 0.1250000
stole stole 0.0625000
didst stole 0.0625000
usurped stole 0.0625000
upon accused 0.1250000
wronged accused 0.1250000
accused accused 0.2500000
itching accused 0.1250000
belied accused 0.1250000
cause accused 0.1250000
accusers accused 0.1250000
blood unbelievable 0.1000000
breath unbelievable 0.1000000
wonderful unbelievable 0.2000000
most unbelievable 0.1000000
rarity unbelievable 0.1000000
rarities unbelievable 0.1000000
vouched unbelievable 0.1000000
many unbelievable 0.1000000
and unbelievable 0.1000000
left behind 0.0270270
behind behind 0.4054054
leaves behind 0.0270270
wood behind 0.0270270
NULL behind 0.0540541
all behind 0.0270270
find behind 0.0270270
pool behind 0.0270270
him behind 0.0540541
in behind 0.0270270
before behind 0.0270270
out behind 0.0270270
back behind 0.0270270
cunning behind 0.0270270
gifts behind 0.0270270
hand behind 0.0270270
driven behind 0.0270270
why behind 0.0270270
boxtree behind 0.0270270
leave behind 0.0270270
practices behind 0.0270270
be hysterically 0.5000000
laughable hysterically 0.5000000
corruption bad 0.0075758
checks bad 0.0075758
that bad 0.0075758
untimely bad 0.0075758
portents bad 0.0075758
exclaim bad 0.0075758
fortune bad 0.0151515
witless bad 0.0075758
him bad 0.0151515
race bad 0.0075758
foul bad 0.0303030
shapes bad 0.0075758
monstrous bad 0.0075758
lest bad 0.0075758
obstruction bad 0.0075758
tell bad 0.0075758
hard bad 0.0075758
steps bad 0.0075758
of bad 0.0151515
moody bad 0.0075758
pity bad 0.0227273
color bad 0.0075758
bad bad 0.1515152
extremely bad 0.0075758
oh bad 0.0075758
takes bad 0.0075758
from bad 0.0151515
tales bad 0.0075758
costs bad 0.0075758
wretched bad 0.0075758
faults bad 0.0075758
michael bad 0.0075758
man bad 0.0075758
thou bad 0.0075758
governed bad 0.0075758
the bad 0.0151515
sermons bad 0.0075758
fright bad 0.0075758
disturbèd bad 0.0075758
might bad 0.0075758
'en bad 0.0075758
wrong bad 0.0151515
success bad 0.0075758
sorrows bad 0.0075758
alas bad 0.0151515
predictions bad 0.0075758
else bad 0.0075758
ill bad 0.0757576
their bad 0.0075758
grossly bad 0.0075758
such bad 0.0151515
shoes bad 0.0075758
thick bad 0.0075758
miscarry bad 0.0075758
NULL bad 0.1439394
sultry bad 0.0075758
harmed bad 0.0075758
heels bad 0.0075758
knavish bad 0.0075758
papers bad 0.0075758
lamented bad 0.0075758
totters bad 0.0075758
together bad 0.0075758
sky bad 0.0075758
fortunes bad 0.0151515
naught bad 0.0075758
rush bad 0.0075758
lives bad 0.0075758
marred bad 0.0075758
while bad 0.0075758
dishonor bad 0.0075758
tale bad 0.0075758
mortal-staring occasion 0.1666667
bids occasion 0.1666667
time occasion 0.1666667
occasion occasion 0.1666667
war occasion 0.1666667
season occasion 0.1666667
for ashes 0.2500000
burièd ashes 0.2500000
dust ashes 0.2500000
sport ashes 0.2500000
you something 0.0250000
not something 0.0250000
employed something 0.0062500
that something 0.0500000
see something 0.0062500
save something 0.0125000
peculiar something 0.0062500
dross something 0.0062500
what something 0.0312500
laughable something 0.0062500
greek something 0.0062500
trash something 0.0062500
ought something 0.0062500
falsing something 0.0062500
again something 0.0062500
some something 0.0250000
promise something 0.0062500
leave something 0.0062500
is something 0.0062500
all something 0.0062500
color something 0.0062500
aught something 0.0062500
will something 0.0125000
teach something 0.0062500
something something 0.1375000
sparks something 0.0062500
poise something 0.0062500
cozen something 0.0062500
readiest something 0.0062500
remembered something 0.0062500
now something 0.0062500
thou something 0.0062500
speak something 0.0812500
a something 0.0375000
pay something 0.0062500
yet something 0.0125000
neck something 0.0062500
amends something 0.0062500
spheres something 0.0062500
compulsatory something 0.0062500
might something 0.0187500
clothes something 0.0062500
transgresses something 0.0062500
deed something 0.0062500
so something 0.0062500
sterling something 0.0062500
wench something 0.0062500
ignorant something 0.0187500
hideous something 0.0062500
word something 0.0125000
dismal something 0.0062500
be something 0.0062500
lined something 0.0062500
NULL something 0.1500000
: something 0.0062500
trick something 0.0062500
angry something 0.0062500
means something 0.0062500
nearly something 0.0062500
discern something 0.0062500
spoke something 0.0062500
seriously something 0.0062500
note something 0.0125000
smell something 0.0062500
question something 0.0062500
commits something 0.0062500
positively something 0.0062500
amend something 0.0062500
thing something 0.0125000
oats oats 1.0000000
dare gall 1.0000000
germane pulling 0.0909091
would pulling 0.0909091
we pulling 0.0909091
pulling pulling 0.0909091
if pulling 0.0909091
to pulling 0.0909091
matter pulling 0.0909091
be pulling 0.0909091
ravish pulling 0.0909091
phrase pulling 0.0909091
more pulling 0.0909091
utterance eloquence 0.5000000
eloquence eloquence 0.5000000
a hot 0.0384615
sultry hot 0.0384615
are hot 0.0384615
chastity hot 0.0384615
treason hot 0.0384615
scotch hot 0.0384615
in hot 0.0384615
pitch hot 0.0384615
ginger hot 0.0384615
southwest hot 0.0384615
snow hot 0.0384615
heat hot 0.0384615
over-earnest hot 0.0384615
little hot 0.0384615
snuff hot 0.0384615
hot hot 0.3846154
choleric hot 0.0384615
, horrible 0.0181818
fore-vouched horrible 0.0181818
liberal horrible 0.0181818
or horrible 0.0181818
loathèd horrible 0.0181818
unnatural horrible 0.0181818
terrible horrible 0.0181818
dreaded horrible 0.0181818
alas horrible 0.0181818
foul horrible 0.0727273
plagues horrible 0.0181818
hideous horrible 0.0181818
monstrous horrible 0.0909091
horrid horrible 0.0181818
dismal horrible 0.0363636
your horrible 0.0181818
counselor horrible 0.0181818
and horrible 0.0727273
unhappy horrible 0.0363636
affection horrible 0.0181818
most horrible 0.0727273
NULL horrible 0.0181818
conceit horrible 0.0181818
oh horrible 0.0181818
fall horrible 0.0181818
fantasies horrible 0.0181818
woe horrible 0.0363636
profane horrible 0.0181818
tormenting horrible 0.0181818
sets horrible 0.0181818
vile horrible 0.0181818
horrible horrible 0.1454545
beams beams 1.0000000
once hardships 1.0000000
hers belong 0.1666667
been belong 0.1666667
has belong 0.1666667
slave belong 0.1666667
are belong 0.1666667
thine belong 0.1666667
to character 0.2857143
as character 0.2857143
soto character 0.1428571
honesty character 0.1428571
nature character 0.1428571
unfitness behaved 0.3333333
' behaved 0.3333333
th behaved 0.3333333
NULL enter 0.0714286
in enter 0.0714286
intermingle enter 0.0714286
at enter 0.0714286
st enter 0.0714286
’ enter 0.0714286
com enter 0.0714286
go enter 0.1428571
enter enter 0.3571429
the foreign 0.1111111
fight foreign 0.1111111
tributaries foreign 0.1111111
foreign foreign 0.1111111
to foreign 0.1111111
be foreign 0.1111111
scythian foreign 0.1111111
alien foreign 0.1111111
armèd foreign 0.1111111
NULL unfair 0.1111111
false unfair 0.1111111
you unfair 0.1111111
not unfair 0.1111111
are unfair 0.1111111
as unfair 0.1111111
nor unfair 0.1111111
unmerciful unfair 0.1111111
bondmaid unfair 0.1111111
lordship tolerate 0.1666667
receive tolerate 0.1666667
brook tolerate 0.1666667
imprisonment tolerate 0.1666667
brooked tolerate 0.1666667
patiently tolerate 0.1666667
mark closely 0.1111111
well closely 0.1111111
close closely 0.1111111
swashers closely 0.1111111
NULL closely 0.1111111
pry closely 0.1111111
heedful closely 0.1111111
note closely 0.2222222
pembroke pembroke 1.0000000
prop age 0.0370370
NULL age 0.0370370
devour age 0.0370370
years age 0.1111111
time age 0.0370370
them age 0.0370370
age age 0.7037037
plain plain 0.5833333
NULL plain 0.0833333
discommend plain 0.0833333
other plain 0.0833333
gross plain 0.0833333
uncoined plain 0.0833333
lions lions 0.6000000
rather lions 0.1000000
NULL lions 0.1000000
frame lions 0.1000000
beasts lions 0.1000000
bleeding bleeding 0.0909091
bleed bleeding 0.3636364
sides bleeding 0.0909091
apace bleeding 0.1818182
. bleeding 0.0909091
sir bleeding 0.0909091
with bleeding 0.0909091
recover cure 0.1333333
remedy cure 0.1333333
do cure 0.0666667
physic cure 0.0666667
take cure 0.0666667
thee cure 0.1333333
charm cure 0.0666667
good cure 0.0666667
cure cure 0.2000000
give cure 0.0666667
so loving 0.0370370
die loving 0.0370370
obedience loving 0.0370370
surfeiting loving 0.0370370
nuptial loving 0.0370370
sisters loving 0.0370370
to loving 0.1481481
loving loving 0.2962963
long loving 0.0370370
love loving 0.1851852
lovely loving 0.0370370
lost loving 0.0370370
loves loving 0.0370370
thee higher 0.1666667
better higher 0.1666667
mounted higher 0.1666667
higher higher 0.5000000
as hug 1.0000000
variance rouse 0.3333333
their rouse 0.3333333
bosom rouse 0.3333333
success results 0.5000000
ends results 0.5000000
tenants tenants 1.0000000
garland wreath 0.6000000
wreath wreath 0.2000000
take wreath 0.2000000
the late 0.0263158
hour late 0.0526316
NULL late 0.0263158
steals late 0.0263158
into late 0.0263158
d late 0.0263158
my late 0.0263158
late late 0.3421053
far late 0.0263158
repents late 0.0263158
on late 0.0263158
past late 0.0263158
! late 0.0263158
once late 0.0263158
tardy late 0.0263158
morning late 0.0263158
rather late 0.0263158
wait late 0.0263158
crept late 0.0263158
lated late 0.0263158
approach late 0.0263158
too late 0.0789474
promise late 0.0263158
turk turk 0.3333333
turbaned turk 0.3333333
state turk 0.3333333
NULL experiences 1.0000000
trod foot 0.0714286
foot foot 0.8571429
horse foot 0.0714286
dalliance stored 1.0000000
humility christian 0.0526316
casements christian 0.0526316
christian christian 0.8421053
burial christian 0.0526316
seen comets 0.5000000
comets comets 0.5000000
law plan 0.0178571
way plan 0.0357143
heed plan 0.0178571
likeness plan 0.0178571
cannot plan 0.0178571
preparèd plan 0.0178571
on plan 0.0178571
practice plan 0.0178571
sharp plan 0.0178571
business plan 0.0357143
drift plan 0.0178571
t plan 0.0178571
course plan 0.0178571
night plan 0.0178571
schoolmasters plan 0.0178571
haggard plan 0.0178571
determinèd plan 0.0178571
villainy plan 0.0178571
athenian plan 0.0178571
story plan 0.0357143
herein plan 0.0178571
NULL plan 0.0714286
wrestling plan 0.0178571
conceit plan 0.0178571
is plan 0.0357143
’ plan 0.0178571
intend plan 0.0178571
direction plan 0.0178571
good plan 0.0178571
us plan 0.0178571
bassanio plan 0.0178571
unfold plan 0.0178571
make plan 0.0178571
devised plan 0.0178571
it plan 0.0357143
part plan 0.0178571
determine plan 0.0178571
can plan 0.0178571
mean plan 0.0714286
device plan 0.0357143
pursue plan 0.0178571
then plan 0.0178571
practices plan 0.0178571
consent plan 0.0178571
wrong offends 0.5000000
wrongs offends 0.5000000
pin endanger 0.5000000
life endanger 0.5000000
erthrown conquered 0.3333333
NULL conquered 0.3333333
conquered conquered 0.3333333
upon charter 0.2000000
charter charter 0.2000000
your charter 0.2000000
light charter 0.2000000
danger charter 0.2000000
exchange ecstatic 1.0000000
on devours 0.5000000
feeds devours 0.5000000
bluntness bluntness 1.0000000
cover artfully 0.5000000
withal artfully 0.5000000
waterish spineless 1.0000000
by syracusians 1.0000000
mangling mangled 0.5000000
splitted mangled 0.5000000
lucrece knife 0.1666667
knife knife 0.8333333
husbands husband 0.0089286
NULL husband 0.0535714
husbanded husband 0.0089286
woes husband 0.0089286
him husband 0.0178571
husband husband 0.6696429
sir husband 0.0089286
hast husband 0.0089286
he husband 0.0089286
working husband 0.0089286
difference husband 0.0089286
lord husband 0.1339286
plight husband 0.0089286
one husband 0.0178571
hornmaker husband 0.0089286
obey husband 0.0089286
creditor husband 0.0089286
blanch blanch 1.0000000
longer hasty 0.2000000
a hasty 0.2000000
salved hasty 0.2000000
unheedy hasty 0.2000000
quick hasty 0.2000000
doth greets 0.2500000
greeting greets 0.2500000
salute greets 0.2500000
sends greets 0.2500000
mirth distasteful 0.3333333
of distasteful 0.3333333
despite distasteful 0.3333333
these immature 0.5000000
raw immature 0.5000000
turquoise turquoise 1.0000000
phoebes phoebe-ing 1.0000000
you chime 0.2500000
in chime 0.2500000
put chime 0.2500000
mind chime 0.2500000
honey-heavy sweetness 0.2000000
galls sweetness 0.2000000
sermons sweetness 0.2000000
paramour sweetness 0.2000000
dew sweetness 0.2000000
wood gets 0.0384615
rise gets 0.0384615
NULL gets 0.0769231
begins gets 0.0384615
is gets 0.0384615
’ gets 0.0384615
strength gets 0.0384615
deck gets 0.0384615
riseth gets 0.0384615
undertaker gets 0.0384615
destroy gets 0.0384615
escapes gets 0.0384615
increaseth gets 0.0384615
quit gets 0.0384615
win gets 0.0384615
s gets 0.0384615
birnam gets 0.0769231
mingled gets 0.0384615
totally gets 0.0384615
with gets 0.0384615
shows gets 0.0384615
itself gets 0.0384615
entangles gets 0.0384615
consume gets 0.0384615
groaning groan 0.2500000
tearing groan 0.2500000
groan groan 0.5000000
poured defended 1.0000000
the criminal 0.1250000
malefactor criminal 0.0625000
commonwealth criminal 0.0625000
knave criminal 0.0625000
NULL criminal 0.0625000
cozener criminal 0.0625000
are criminal 0.0625000
all criminal 0.0625000
offenders criminal 0.0625000
villain criminal 0.0625000
try criminal 0.0625000
knaves criminal 0.0625000
villainy criminal 0.0625000
transgression criminal 0.0625000
arrant criminal 0.0625000
haste-post-haste right 0.0026178
you right 0.0052356
laertes right 0.0052356
form right 0.0026178
come right 0.0026178
instant right 0.0026178
pit right 0.0026178
vein right 0.0026178
wise right 0.0026178
perigouna right 0.0026178
beggar right 0.0026178
persuasion right 0.0026178
fit right 0.0104712
profoundest right 0.0026178
spirit right 0.0026178
wit right 0.0026178
vulture right 0.0026178
your right 0.0052356
and right 0.0183246
pat right 0.0026178
hope right 0.0026178
true right 0.0130890
briefly right 0.0026178
is right 0.0078534
she right 0.0026178
have right 0.0026178
husband right 0.0026178
think right 0.0052356
knocks right 0.0026178
commission right 0.0026178
said right 0.0052356
competent right 0.0026178
it right 0.0209424
constellation right 0.0026178
persever right 0.0026178
right right 0.0418848
talk right 0.0026178
charge right 0.0026178
haste right 0.0026178
a right 0.0026178
straightway right 0.0026178
— right 0.0026178
redress right 0.0026178
honesty right 0.0026178
attractive right 0.0026178
fitted right 0.0026178
in right 0.0026178
stand right 0.0052356
teaches right 0.0026178
very right 0.0078534
me right 0.0052356
furnished right 0.0026178
presently right 0.0183246
caesar right 0.0026178
certainer right 0.0026178
word right 0.0026178
twelve right 0.0026178
upright right 0.0026178
hit right 0.0026178
solemnized right 0.0026178
ditty right 0.0026178
tis right 0.0026178
council right 0.0026178
forgive right 0.0026178
aimed right 0.0026178
rich right 0.0026178
horatio right 0.0026178
implacable right 0.0026178
collied right 0.0026178
i right 0.0078534
punish right 0.0026178
demeanor right 0.0026178
heart right 0.0026178
accept right 0.0026178
go right 0.0078534
there right 0.0052356
well right 0.0785340
thing right 0.0026178
why right 0.0052356
happy right 0.0052356
yes right 0.0026178
lies right 0.0026178
contents right 0.0026178
secure right 0.0026178
, right 0.0628272
not right 0.0104712
on right 0.0026178
matter right 0.0052356
scope right 0.0026178
out right 0.0052356
govern right 0.0026178
thence right 0.0026178
smites right 0.0026178
acquaintance right 0.0026178
one right 0.0026178
softly right 0.0026178
fished right 0.0026178
with right 0.0026178
suddenly right 0.0026178
leave right 0.0026178
season right 0.0052356
goes right 0.0026178
meet right 0.0052356
earthly right 0.0026178
do right 0.0026178
imperial right 0.0026178
durst right 0.0026178
certain right 0.0026178
to right 0.0209424
indeed right 0.0026178
brooch right 0.0026178
home right 0.0026178
spite right 0.0026178
forthwith right 0.0052356
invisible right 0.0026178
any right 0.0026178
directly right 0.0026178
now right 0.0261780
respect right 0.0026178
' right 0.0078534
backs right 0.0026178
spoken right 0.0052356
the right 0.0130890
done right 0.0052356
supposition right 0.0026178
lecher right 0.0026178
or right 0.0026178
wits right 0.0026178
this right 0.0104712
t right 0.0026178
th right 0.0026178
so right 0.0314136
told right 0.0026178
enough right 0.0052356
for right 0.0052356
carefully right 0.0026178
wench right 0.0026178
event right 0.0026178
ursula right 0.0026178
doth right 0.0052356
be right 0.0078534
most right 0.0026178
NULL right 0.1282723
even right 0.0157068
elbow right 0.0026178
young right 0.0026178
straight right 0.0209424
bring right 0.0026178
at right 0.0052356
grizzled right 0.0026178
stop right 0.0026178
admittance right 0.0026178
masterly right 0.0026178
he right 0.0026178
hearing right 0.0026178
was right 0.0026178
prevailed right 0.0026178
mend right 0.0026178
air right 0.0026178
the devastating 0.5000000
earth devastating 0.2500000
terrors devastating 0.2500000
answerable necessary 0.1428571
wars necessary 0.1428571
further necessary 0.1428571
need necessary 0.1428571
no necessary 0.1428571
” necessary 0.1428571
go necessary 0.1428571
those protecting 0.3333333
of protecting 0.3333333
seemed protecting 0.3333333
reprieve withdrawing 0.2500000
of withdrawing 0.2500000
thy withdrawing 0.2500000
token withdrawing 0.2500000
door doorway 0.5000000
chamber doorway 0.5000000
good monsieur 0.0714286
monsieur monsieur 0.9285714
uncleanly unclean 1.0000000
takes reacts 1.0000000
madam ho 0.1111111
it ho 0.1111111
common ho 0.1111111
is ho 0.1111111
ho ho 0.5555556
given excavators 0.2500000
pioneers excavators 0.2500000
'er excavators 0.2500000
o excavators 0.2500000
jocund light-hearted 1.0000000
argus hawk 1.0000000
horse-tail tail 0.1428571
tail tail 0.7142857
bobtail tail 0.1428571
uncovered blatant 1.0000000
a extent 0.2500000
ll extent 0.2500000
bourn extent 0.2500000
set extent 0.2500000
heirs heirs 0.5000000
succeeders heirs 0.5000000
NULL ours 0.1000000
ours ours 0.2000000
we ours 0.1000000
countermines ours 0.1000000
demands ours 0.1000000
in ours 0.1000000
us ours 0.1000000
his ours 0.1000000
unarmed ours 0.1000000
pheeze fix 0.0909091
make fix 0.0909091
lies fix 0.0909091
of fix 0.0909091
device fix 0.0909091
well fix 0.0909091
mend fix 0.2727273
in fix 0.0909091
become fix 0.0909091
cold chilly 0.2222222
unwilling chilly 0.1111111
a- chilly 0.1111111
icy chilly 0.1111111
a-cold chilly 0.4444444
well booze 0.3333333
spade booze 0.3333333
drink booze 0.3333333
grievous sick 0.0158730
toys sick 0.0158730
NULL sick 0.0317460
remediate sick 0.0158730
almost sick 0.0158730
not sick 0.0158730
sicken sick 0.0317460
midwife sick 0.0158730
pale sick 0.0317460
horses sick 0.0158730
brutus sick 0.0158730
am sick 0.0476190
i sick 0.0158730
wether sick 0.0158730
odious sick 0.0158730
when sick 0.0317460
health sick 0.0158730
fed sick 0.0158730
abhor sick 0.0158730
well sick 0.0317460
ill sick 0.0476190
sick sick 0.4920635
infirm sick 0.0158730
sickly sick 0.0158730
upon four 0.0333333
steep four 0.0333333
months four 0.0333333
four four 0.9000000
make introduce 0.2000000
friends introduce 0.2000000
present introduce 0.2000000
welcome introduce 0.2000000
give introduce 0.2000000
exeter exeter 1.0000000
house upkeep 0.1666667
doth upkeep 0.1666667
prop upkeep 0.1666667
my upkeep 0.1666667
sustain upkeep 0.1666667
that upkeep 0.1666667
groans verse 0.1666667
you verse 0.1666667
ll verse 0.1666667
verse verse 0.1666667
chapter verse 0.1666667
give verse 0.1666667
the fire 0.0192308
corruption fire 0.0192308
sword fire 0.0192308
prodigal fire 0.0192308
a fire 0.0384615
stellèd fire 0.0192308
NULL fire 0.0384615
place fire 0.0192308
, fire 0.0192308
houses fire 0.0192308
in fire 0.0192308
fire fire 0.6346154
smother fire 0.0192308
how fire 0.0192308
babe fire 0.0192308
there fire 0.0192308
blood fire 0.0192308
burns fire 0.0192308
on extol 0.2500000
deserved extol 0.2500000
vary extol 0.2500000
praise extol 0.2500000
washes fills 0.3333333
all fills 0.3333333
pale fills 0.3333333
NULL honors 0.2500000
glories honors 0.2500000
that honors 0.2500000
honors honors 0.2500000
the attend 0.0714286
majesties attend 0.0714286
hear attend 0.0714286
see attend 0.0714286
on attend 0.2142857
abode attend 0.0714286
matter attend 0.0714286
your attend 0.0714286
attend attend 0.2142857
depends attend 0.0714286
reynaldo reynaldo 1.0000000
will four-day 0.3333333
peat four-day 0.3333333
i four-day 0.3333333
upon weathered 0.1250000
fortune weathered 0.1250000
harsh weathered 0.1250000
what weathered 0.1250000
know weathered 0.1250000
not weathered 0.1250000
counts weathered 0.1250000
casts weathered 0.1250000
shambles meat 0.2500000
meat meat 0.7500000
capilet forgets 1.0000000
renown graceful 0.1428571
less graceful 0.1428571
knowledge graceful 0.1428571
your graceful 0.2857143
grace graceful 0.1428571
graceful graceful 0.1428571
the affected 0.2500000
NULL affected 0.2500000
taint affected 0.2500000
never affected 0.2500000
grows experience 0.1250000
of experience 0.1250000
taste experience 0.1250000
custom experience 0.1250000
experience experience 0.3750000
never experience 0.1250000
and individual 1.0000000
flatt daydream 0.3333333
dream daydream 0.3333333
'ring daydream 0.3333333
reconcilement apology 1.0000000
scape escapes 0.5000000
’ escapes 0.5000000
argument topic 0.1428571
sin topic 0.1428571
nation topic 0.1428571
holds topic 0.1428571
it topic 0.1428571
controversy topic 0.1428571
no topic 0.1428571
NULL seller 1.0000000
pinioned chained 0.3333333
NULL chained 0.3333333
at chained 0.3333333
made loans 0.2000000
moan loans 0.2000000
me loans 0.2000000
at loans 0.2000000
times loans 0.2000000
sapphires sores 0.3333333
declining sores 0.3333333
carbuncles sores 0.3333333
decayèd decayed 1.0000000
large blast 0.2000000
a blast 0.2000000
fuller blast 0.2000000
charter blast 0.2000000
methinks blast 0.2000000
want wine 0.0465116
stoup wine 0.0232558
bottle wine 0.0697674
cup wine 0.0232558
NULL wine 0.0465116
of wine 0.0465116
exclaim wine 0.0232558
ho wine 0.0232558
if wine 0.0232558
wine wine 0.5116279
sop wine 0.0232558
alms-drink wine 0.0232558
malmsey wine 0.0232558
' wine 0.0232558
pox wine 0.0232558
some wine 0.0232558
o wine 0.0232558
a purchased 0.3333333
bloody purchased 0.3333333
spoil purchased 0.3333333
steps luck 0.0151515
luck luck 0.1060606
NULL luck 0.0151515
most luck 0.0151515
you luck 0.0757576
heels luck 0.0151515
sermons luck 0.0151515
take luck 0.0151515
grow luck 0.0151515
fortune luck 0.3181818
objects luck 0.0151515
speed luck 0.0151515
at luck 0.0151515
thy luck 0.0151515
happiness luck 0.0151515
fortunes luck 0.0303030
success luck 0.0151515
out luck 0.0151515
fare luck 0.0606061
hap luck 0.0151515
may luck 0.0151515
waist luck 0.0151515
higher luck 0.0151515
grace luck 0.0151515
s luck 0.0151515
go luck 0.0151515
fortunate luck 0.0151515
be luck 0.0151515
happy luck 0.0303030
with luck 0.0303030
forgot handkerchief 0.0256410
gladly handkerchief 0.0256410
even handkerchief 0.0256410
it handkerchief 0.0256410
most handkerchief 0.0256410
handkerchief handkerchief 0.5384615
that handkerchief 0.0769231
same handkerchief 0.0512821
by handkerchief 0.0256410
was handkerchief 0.0256410
now handkerchief 0.0256410
have handkerchief 0.0256410
napkin handkerchief 0.0769231
handkercher handkerchief 0.0256410
attent witnesses 0.1666667
NULL witnesses 0.1666667
witnesses witnesses 0.3333333
ear witnesses 0.1666667
an witnesses 0.1666667
desired desired 1.0000000
type imperial 0.2000000
imperial imperial 0.8000000
the risen 0.1666667
ascended risen 0.1666667
buoyed risen 0.1666667
of risen 0.1666667
roof risen 0.1666667
writ risen 0.1666667
NULL listened 0.3333333
importuned listened 0.3333333
great listened 0.3333333
nice prudish 1.0000000
combed hair 0.0285714
hairs hair 0.0285714
they hair 0.0285714
it hair 0.0285714
NULL hair 0.1428571
very hair 0.0285714
them hair 0.0285714
becomes hair 0.0285714
flakes hair 0.0285714
hair hair 0.6285714
beauteous reared 1.0000000
tinctures strive 0.3333333
for strive 0.3333333
press strive 0.3333333
tied tie 0.0769231
bound tie 0.1538462
enforce tie 0.0769231
pinion tie 0.0769231
bind tie 0.4615385
fast tie 0.0769231
hard tie 0.0769231
of enjoys 0.5000000
joy enjoys 0.5000000
wrong mistreat 1.0000000
NULL mercury 1.0000000
thriving thriving 1.0000000
firebrands firebrands 0.3333333
ho firebrands 0.3333333
brands firebrands 0.3333333
withal amble 0.5000000
ambles amble 0.5000000
phoebe phoebe 0.9285714
her phoebe 0.0714286
usurer shark 1.0000000
parts jobs 1.0000000
made chances 0.0714286
NULL chances 0.0714286
may chances 0.0714286
thrive chances 0.0714286
as chances 0.0714286
chance chances 0.0714286
shall chances 0.0714286
unto chances 0.0714286
be chances 0.0714286
deceived chances 0.0714286
hazard chances 0.0714286
likelihood chances 0.0714286
i chances 0.1428571
darkens achieves 0.2000000
which achieves 0.2000000
gain achieves 0.2000000
loss achieves 0.2000000
than achieves 0.2000000
intercepts blocking 0.3333333
my blocking 0.3333333
expedition blocking 0.3333333
rheumy humid 0.1111111
NULL humid 0.1111111
— humid 0.1111111
sultry humid 0.2222222
dare humid 0.1111111
vile humid 0.1111111
as humid 0.1111111
contagion humid 0.1111111
haunts haunt 1.0000000
scribes calculate 1.0000000
waste shoot 0.2000000
made shoot 0.2000000
shoot shoot 0.4000000
a shoot 0.2000000
lead leading 0.1250000
leading leading 0.1250000
NULL leading 0.2500000
bring leading 0.1250000
of leading 0.1250000
conductor leading 0.1250000
officer leading 0.1250000
hymen hymen 1.0000000
misused abused 0.1000000
it abused 0.2000000
abuse abused 0.1000000
did abused 0.1000000
ourself abused 0.1000000
was abused 0.1000000
thou abused 0.1000000
deserve abused 0.1000000
didst abused 0.1000000
stony ruthless 0.2000000
piteous ruthless 0.2000000
arch ruthless 0.2000000
adversary ruthless 0.2000000
deed ruthless 0.2000000
fair virtuous 0.0500000
virtue virtuous 0.1000000
regard virtuous 0.0500000
damnable virtuous 0.0500000
of virtuous 0.0500000
grace virtuous 0.0500000
full virtuous 0.0500000
virtuous virtuous 0.5500000
evidence virtuous 0.0500000
pleasest advance 0.0833333
how advance 0.0833333
brabant advance 0.0833333
go advance 0.0833333
on advance 0.0833333
march advance 0.0833333
thou advance 0.0833333
away advance 0.0833333
day advance 0.0833333
sonance advance 0.0833333
set advance 0.1666667
naught temple 0.2000000
temple temple 0.4000000
of temple 0.2000000
thing temple 0.2000000
yet daybreak 0.2500000
business daybreak 0.2500000
day daybreak 0.5000000
foxes foxes 1.0000000
bloody bloodshed 0.5000000
constraint bloodshed 0.5000000
hill cliff 0.0666667
cliff cliff 0.1333333
extreme cliff 0.0666667
NULL cliff 0.0666667
crown cliff 0.0666667
a-height cliff 0.0666667
same cliff 0.0666667
chalky cliff 0.0666667
bourn cliff 0.0666667
' cliff 0.2000000
th cliff 0.0666667
o cliff 0.0666667
cross contradict 0.3333333
in contradict 0.3333333
nothing contradict 0.3333333
so harsh 0.0666667
pain harsh 0.0666667
NULL harsh 0.1333333
draw harsh 0.0666667
harsh harsh 0.0666667
rough harsh 0.1333333
bitter harsh 0.0666667
breath harsh 0.1333333
in harsh 0.0666667
shrewd harsh 0.0666667
thy harsh 0.0666667
hard harsh 0.0666667
merèd player 1.0000000
the engulfing 0.5000000
poring engulfing 0.5000000
web trapped 0.1428571
when trapped 0.1428571
confined trapped 0.1428571
caught trapped 0.1428571
one trapped 0.1428571
has trapped 0.1428571
her trapped 0.1428571
course action 0.1428571
cowards action 0.1428571
wrong action 0.1428571
NULL action 0.2857143
word action 0.1428571
redress action 0.1428571
in ruining 0.5000000
all ruining 0.5000000
shadow hallucination 1.0000000
shine shine 0.3333333
drowsy shine 0.3333333
their shine 0.3333333
brightly brightly 1.0000000
lusty blustery 1.0000000
was shepherdess 0.2000000
his shepherdess 0.2000000
that shepherdess 0.2000000
shepherdess shepherdess 0.2000000
mistress shepherdess 0.2000000
so charles 0.0833333
he charles 0.0833333
clear charles 0.0833333
wrestler charles 0.0833333
served charles 0.0833333
this charles 0.0833333
charles charles 0.5000000
cope opponent 0.1250000
withal opponent 0.1250000
come opponent 0.1250000
adversary opponent 0.1250000
to opponent 0.1250000
opposite opponent 0.1250000
fatal opponent 0.1250000
i opponent 0.1250000
ireland ireland 1.0000000
minion slave 0.0625000
fellow slave 0.0312500
bondman slave 0.0625000
to slave 0.0312500
bondslave slave 0.0312500
thou slave 0.0312500
sake slave 0.0312500
become slave 0.0312500
slave slave 0.5937500
and slave 0.0312500
hence slave 0.0312500
wheel slave 0.0312500
stubbornest stubbornest 1.0000000
menas menas 1.0000000
thee bare 0.1428571
these bare 0.1428571
bare bare 0.1428571
as bare 0.1428571
he bare 0.1428571
anatomize bare 0.1428571
is bare 0.1428571
upon sacrificed 0.2500000
such sacrificed 0.2500000
offering sacrificed 0.2500000
sacrifices sacrificed 0.2500000
NULL lawfully 0.6666667
claim lawfully 0.3333333
shine lord 0.0016529
duteous lord 0.0016529
my lord 0.0016529
jupiter lord 0.0016529
appears lord 0.0016529
charles lord 0.0016529
gracious lord 0.0016529
rougemont lord 0.0016529
swear lord 0.0016529
him lord 0.0016529
sir lord 0.0016529
alas lord 0.0016529
honored lord 0.0016529
lord lord 0.8727273
tell lord 0.0016529
burgundy lord 0.0016529
noon lord 0.0016529
none lord 0.0016529
NULL lord 0.0181818
havior lord 0.0016529
same lord 0.0016529
is lord 0.0016529
heavens lord 0.0016529
good lord 0.0264463
boys lord 0.0033058
loving lord 0.0016529
unrespective lord 0.0016529
lordship lord 0.0132231
master lord 0.0033058
pudding lord 0.0016529
grace lord 0.0016529
thane lord 0.0016529
liege lord 0.0181818
salerio lord 0.0016529
noble wanting 1.0000000
NULL surprised 0.1250000
wonder surprised 0.1250000
marvel surprised 0.5000000
why surprised 0.1250000
answered surprised 0.1250000
the outstay 0.3333333
time outstay 0.3333333
outstay outstay 0.3333333
movables possessions 0.2500000
which possessions 0.1250000
spoiled possessions 0.1250000
goods possessions 0.1250000
my possessions 0.1250000
whereof possessions 0.1250000
moveables possessions 0.1250000
the challenger 0.3333333
challenger challenger 0.6666667
reverend elderly 1.0000000
thought widespread 0.5000000
abroad widespread 0.5000000
shall advocate 0.1428571
cassio advocate 0.1428571
for advocate 0.1428571
merry advocate 0.1428571
be advocate 0.1428571
therefore advocate 0.1428571
solicitor advocate 0.1428571
compact overactive 0.2500000
of overactive 0.2500000
imagination overactive 0.2500000
all overactive 0.2500000
NULL act 0.1632653
both act 0.0204082
bearing act 0.0204082
that act 0.0408163
familiarly act 0.0204082
deal act 0.0204082
turn act 0.0204082
tricks act 0.0204082
his act 0.0408163
act act 0.1224490
equal act 0.0204082
serve act 0.0204082
fruits act 0.0204082
make act 0.0204082
allay act 0.0204082
may act 0.0204082
decays act 0.0204082
consciences act 0.0204082
teachest act 0.0204082
be act 0.1020408
your act 0.0612245
plot act 0.0204082
housewives act 0.0204082
such act 0.0204082
action act 0.0204082
amiss act 0.0204082
sheep act 0.0204082
seem act 0.0204082
worm act 0.0204082
undone inventory 0.1666667
be inventory 0.1666667
hand inventory 0.1666667
schedules inventory 0.1666667
brief inventory 0.1666667
and inventory 0.1666667
they stolen 0.0909091
stolen stolen 0.0909091
hast stolen 0.0909091
, stolen 0.0909091
'n stolen 0.0909091
villain stolen 0.0909091
stol stolen 0.0909091
let stolen 0.0909091
him stolen 0.0909091
thou stolen 0.0909091
o stolen 0.0909091
unity throw 0.0434783
fling throw 0.0434783
throw throw 0.4347826
cast throw 0.0434783
NULL throw 0.1304348
windows throw 0.0434783
submit throw 0.0434783
sowing throw 0.0434783
all throw 0.0434783
push throw 0.0434783
turn throw 0.0434783
confound throw 0.0434783
hang tug 1.0000000
villain exact 0.1428571
moment exact 0.1428571
just exact 0.2857143
even exact 0.1428571
gait exact 0.1428571
came exact 0.1428571
recovers recovering 1.0000000
cheek cheek 1.0000000
devised provide 0.1000000
for provide 0.1000000
which provide 0.1000000
provision provide 0.1000000
that provide 0.1000000
needful provide 0.1000000
shall provide 0.1000000
from provide 0.1000000
be provide 0.2000000
dread supreme 1.0000000
the watching 0.2000000
are watching 0.1000000
dismay watching 0.1000000
mark watching 0.1000000
at watching 0.1000000
hand watching 0.1000000
behold watching 0.1000000
with watching 0.1000000
actors watching 0.1000000
friend appreciated 0.3333333
lucentio appreciated 0.3333333
litio appreciated 0.3333333
neighbor neighbor 0.8181818
your neighbor 0.0909091
us neighbor 0.0909091
a shelter 0.1666667
NULL shelter 0.3333333
shelter shelter 0.1666667
hereabouts shelter 0.1666667
case shelter 0.1666667
wheels wheels 1.0000000
squash mrs. 0.5000000
mistress mrs. 0.5000000
spaniels mutts 1.0000000
marketplace marketplace 0.4000000
me marketplace 0.0666667
s marketplace 0.0666667
’ marketplace 0.0666667
mart marketplace 0.4000000
pile stack 1.0000000
him receives 1.0000000
carnal meat-eating 1.0000000
done sisters 0.0666667
which sisters 0.0666667
poisoned sisters 0.0666667
taking sisters 0.0666667
daughters sisters 0.0666667
sisters sisters 0.5333333
speedy sisters 0.0666667
dog-hearted sisters 0.0666667
counterfeit thrown 0.1666667
pebbles thrown 0.1666667
daffed thrown 0.1666667
cast thrown 0.1666667
clamors thrown 0.1666667
thrown thrown 0.1666667
laying betting 1.0000000
hoop stooped 0.1111111
a stooped 0.1111111
envy stooped 0.1111111
into stooped 0.1111111
s stooped 0.1111111
grown stooped 0.1111111
’ stooped 0.1111111
who stooped 0.1111111
was stooped 0.1111111
find- silences 1.0000000
in downright 0.2500000
than downright 0.2500000
more downright 0.2500000
this downright 0.2500000
barren withered 0.1428571
wanned withered 0.1428571
he withered 0.1428571
corky withered 0.1428571
withered withered 0.4285714
spoils achievements 0.3333333
achievements achievements 0.3333333
shrunk achievements 0.3333333
thought understanding 0.1666667
understanding understanding 0.1666667
englishwoman understanding 0.1666667
NULL understanding 0.1666667
soldiership understanding 0.1666667
infinite understanding 0.1666667
sorrow astonished 0.5000000
dismay astonished 0.5000000
untied untied 1.0000000
storms damaged 0.1250000
men damaged 0.1250000
make damaged 0.1250000
a damaged 0.1250000
dearth damaged 0.1250000
untimely damaged 0.1250000
expect damaged 0.1250000
wounded damaged 0.1250000
joyful joyful 1.0000000
these sharpen 0.2500000
drive sharpen 0.2500000
of sharpen 0.2500000
whetstone sharpen 0.2500000
must spilled 0.2000000
unjustly spilled 0.2000000
NULL spilled 0.2000000
be spilled 0.2000000
spilt spilled 0.2000000
like overwhelmingly 0.1666667
overwhelmed overwhelmingly 0.1666667
whose overwhelmingly 0.1666667
mine overwhelmingly 0.1666667
is overwhelmingly 0.1666667
joy overwhelmingly 0.1666667
bridled bridle 0.5000000
curb bridle 0.5000000
the investment 0.1111111
perish investment 0.1111111
you investment 0.1111111
gain investment 0.1111111
on investment 0.1111111
or investment 0.1111111
seas investment 0.1111111
bring investment 0.1111111
twill investment 0.1111111
thanes thanes 1.0000000
terms crazier 1.0000000
oh focused 1.0000000
a damn 0.0606061
another damn 0.0151515
take damn 0.0151515
beshrew damn 0.0454545
like damn 0.0151515
befall damn 0.0151515
plague damn 0.0454545
t damn 0.0151515
out damn 0.0151515
upon damn 0.0606061
cursed damn 0.0151515
fitchew damn 0.0151515
for damn 0.0151515
zounds damn 0.0303030
sblood damn 0.0151515
vengeance damn 0.0151515
tush damn 0.0151515
fie damn 0.1212121
such damn 0.0151515
away damn 0.0151515
came damn 0.0151515
but damn 0.0151515
damned damn 0.0151515
and damn 0.0303030
fair damn 0.0151515
brimstone damn 0.0151515
goodness damn 0.0151515
up damn 0.0151515
mocking damn 0.0151515
still damn 0.0151515
tis damn 0.0151515
oh damn 0.0151515
swounds damn 0.0151515
fire damn 0.0151515
at damn 0.0151515
crystal damn 0.0151515
; damn 0.0151515
hang damn 0.0303030
prince damn 0.0151515
treble damn 0.0303030
art damn 0.0151515
thyself damn 0.0151515
damn damn 0.0303030
nothing damn 0.0151515
star league 1.0000000
NULL fast 0.0816327
briefness fast 0.0204082
post fast 0.0204082
safest fast 0.0204082
, fast 0.1224490
all fast 0.0612245
repenting fast 0.0204082
lords fast 0.0204082
good fast 0.0204082
matter fast 0.0204082
speed fast 0.0408163
fleet fast 0.0204082
life fast 0.0204082
make fast 0.0204082
it fast 0.0204082
apace fast 0.0204082
convenient fast 0.0408163
lower fast 0.0408163
nunnery fast 0.0204082
speedy fast 0.0408163
haste fast 0.0612245
asleep fast 0.0204082
swallow fast 0.0204082
fast fast 0.1428571
with fast 0.0408163
hot fast 0.0204082
cunning torture 0.1666667
a torture 0.1666667
what torture 0.1666667
cruelty torture 0.1666667
torment torture 0.1666667
torture torture 0.1666667
payment shows 0.0833333
strained shows 0.0833333
of shows 0.0833333
come shows 0.0833333
yoke shows 0.0833333
indeed shows 0.0833333
unnumbered shows 0.0833333
brooch shows 0.0833333
suspicion shows 0.0833333
quality shows 0.0833333
shows shows 0.1666667
lucifer lucifer 0.5000000
still lucifer 0.5000000
support dare 0.0256410
presume dare 0.0256410
NULL dare 0.0512821
do dare 0.0256410
dare dare 0.2820513
resolve dare 0.0256410
thus dare 0.0256410
durst dare 0.1282051
’ dare 0.0769231
wilt dare 0.0256410
to dare 0.0512821
am dare 0.0512821
deed dare 0.0256410
undone dare 0.0512821
dar dare 0.0512821
officer dare 0.0256410
thing dare 0.0256410
canst dare 0.0256410
feet succeed 0.5000000
your succeed 0.5000000
gate gate 0.9166667
park gate 0.0833333
poet poet 1.0000000
brags brags 0.2000000
under brags 0.2000000
as brags 0.2000000
privilege brags 0.2000000
age brags 0.2000000
so sincere 0.1250000
faces sincere 0.1250000
them sincere 0.1250000
true sincere 0.1250000
thrive sincere 0.1250000
truer sincere 0.1250000
badge sincere 0.1250000
arms sincere 0.1250000
in concerning 0.2500000
are concerning 0.2500000
concerning concerning 0.5000000
at harassment 0.5000000
stormèd harassment 0.5000000
sharp-looking emaciated 1.0000000
thwarting mischief 0.5000000
strangely mischief 0.5000000
swear bigmouth 1.0000000
ears description 0.5000000
his description 0.5000000
molten molten 1.0000000
cheering twilight 0.5000000
army twilight 0.5000000
face face-up 0.2500000
upward face-up 0.2500000
' face-up 0.2500000
is face-up 0.2500000
upon sicker 0.1250000
sickness sicker 0.3750000
grows sicker 0.1250000
unto sicker 0.1250000
me sicker 0.1250000
his sicker 0.1250000
here i. 0.0714286
me i. 0.0714286
. i. 0.2142857
too i. 0.0714286
i. i. 0.4285714
i i. 0.1428571
ensnared damned 0.0416667
cursed damned 0.0416667
it damned 0.0416667
unblessed damned 0.0416667
is damned 0.0416667
damnèd damned 0.1666667
well damned 0.0416667
double damned 0.0416667
fall damned 0.0416667
hanged damned 0.0416667
damned damned 0.4166667
o damned 0.0416667
the lysander 0.0344828
tends lysander 0.0344828
NULL lysander 0.0344828
shield lysander 0.0344828
, lysander 0.0344828
s lysander 0.0344828
blood lysander 0.0344828
good lysander 0.0344828
lysander lysander 0.6896552
whereto lysander 0.0344828
my purse 0.2000000
purse purse 0.8000000
and series 0.5000000
bills series 0.5000000
better-fashioned better-designed 1.0000000
themselves shatter 0.5000000
dash shatter 0.5000000
celebrate wedding 0.0370370
marriage wedding 0.1851852
wedding wedding 0.2962963
NULL wedding 0.0370370
you wedding 0.0740741
posy wedding 0.0370370
ceremony wedding 0.0370370
solemnities wedding 0.0370370
nuptial wedding 0.1111111
hymen wedding 0.0370370
sheets wedding 0.0370370
day wedding 0.0740741
made syllable 0.1250000
between syllable 0.1250000
syllable syllable 0.1250000
jot syllable 0.1250000
them syllable 0.1250000
up syllable 0.1250000
that syllable 0.1250000
breath syllable 0.1250000
purchase purchase 1.0000000
against running 0.0416667
so running 0.0416667
NULL running 0.0416667
runn running 0.0416667
place running 0.0416667
fly running 0.0833333
kerns running 0.0416667
running running 0.0416667
st running 0.0416667
flight running 0.0416667
run running 0.2500000
heartstrings running 0.0416667
him running 0.0416667
free-footed running 0.0416667
ran running 0.0416667
runs running 0.0833333
this running 0.0416667
NULL nervous 0.5000000
thinks nervous 0.5000000
sixpence sixpence 1.0000000
katherina katherina 0.8571429
