kingship sovereignty 0.0769231
kingship yet 0.0027778
kingship t 0.0026954
kingship ’ 0.0003218
greeting greeting 0.2857143
greeting your 0.0006094
proven a 0.0003401
proven proved 0.1538462
proven herself 0.0344828
proven prove 0.0169492
proven approved 0.2857143
proven been 0.0061728
proven coward 0.0454545
proven needless 0.3333333
unsure a 0.0003401
unsure falsing 0.2000000
unsure in 0.0004444
unsure thing 0.0114943
issue issue 0.0500000
issue theme 0.1666667
kates kates 1.0000000
richer enriches 0.2500000
richer him 0.0008217
harp harp 0.5000000
harp woo 0.0222222
distinguished exalt 0.5000000
pike the 0.0001830
pike pike 0.5000000
pike thou 0.0007513
pike puissant 0.2000000
pike trail 0.2000000
pike st 0.0045455
pike ’ 0.0003218
dwelling private 0.0666667
dwelling stomaching 0.2500000
nearest next 0.0250000
nearest nearest 0.5000000
taken done 0.0044643
taken NULL 0.0000888
taken dull-eyed 1.0000000
taken took 0.0256410
taken 'en 0.1111111
taken from 0.0017921
taken have 0.0012920
taken taken 0.3181818
taken raught 1.0000000
taken countermand 0.2500000
taken suspicion 0.0526316
taken ta 0.1052632
taken genius 0.2000000
taken marvelously 0.3333333
taken so 0.0014870
taken registered 0.1428571
taken relieved 0.1111111
taken provided 0.0666667
taken hath 0.0045872
taken lord 0.0013514
taken alluring 0.3333333
taken offense 0.0227273
taken something-settled 0.1250000
taken be 0.0006131
taken finished 0.1428571
taken silken 0.0833333
london london 1.0000000
load able 0.1111111
load load 0.4285714
misremembered conned 0.3333333
misremembered ' 0.0016051
misremembered with 0.0006901
misremembered cru 1.0000000
resents doth 0.0055866
resents bear 0.0063694
resents hard 0.0175439
dukedom island 0.0500000
dukedom bare 0.0666667
dukedom dwell 0.0526316
dukedom bands 0.3333333
dukedom dukedom 0.6666667
dukedom this 0.0006720
joyfully delight 0.0714286
joyfully with 0.0006901
venice disposition 0.1000000
venice calling 0.1250000
venice senate 0.1000000
venice all 0.0011947
venice venice 0.6666667
petticoats petticoats 1.0000000
petticoats very 0.0038911
petticoats will 0.0005787
petticoats them 0.0023981
petticoats catch 0.0400000
counted numbered 0.2500000
counted reckoned 0.1666667
gray grizzled 0.5000000
gray gray 0.2000000
gray no 0.0009940
experts masters 0.0227273
experts elder 0.0833333
experts some 0.0029499
experts by 0.0012920
experts reconcilement 0.2500000
supporters money 0.0138889
supporters gets 0.3333333
declared made 0.0122699
declared have 0.0006460
declared proclaimed 0.1111111
declared known 0.0175439
fast-moving our 0.0015723
fast-moving tott 1.0000000
descend fearful 0.0370370
descend fasten 0.2000000
descend down 0.0078740
descend bravery 0.2500000
descend descend 0.1666667
bankrupted undone 0.0476190
clinging one 0.0023866
clinging samphire 0.2000000
clinging that 0.0007902
clinging gathers 0.2500000
mi mi 1.0000000
unite unite 1.0000000
unite atone 0.2000000
unite earthly 0.0666667
unite together 0.0144928
gloves gloves 0.5000000
gloves perfume 0.1666667
exercise here 0.0016863
exercise me 0.0004789
exercise s 0.0006386
exercise ’ 0.0003218
exercise indeed 0.0062893
exercise day 0.0056180
exercise sport 0.0250000
exercise breathing 0.1111111
exercise with 0.0006901
can deform 0.3333333
can earliest 0.2000000
can waters 0.0833333
can unlocked 0.2000000
can remembrance 0.0476190
can print 1.0000000
can see 0.0208333
can curing 0.1666667
can abode 0.1428571
can makes 0.0147059
can bringer 0.2000000
can what 0.0007663
can ll 0.0016129
can deny 0.0136986
can paunch 0.5000000
can willing 0.1250000
can talkest 0.2000000
can tailor 0.0714286
can abilities 0.5000000
can expressing 0.1250000
can dinner 0.0465116
can matters 0.0666667
can wall 0.0714286
can ribs 0.1250000
can all 0.0023895
can is 0.0037936
can ’ 0.0022523
can weather 0.0666667
can have 0.0025840
can will 0.0092593
can suspects 0.2500000
can servant 0.0344828
can afflict 0.1250000
can certainty 0.2000000
can forfeit 0.0909091
can art 0.0046083
can bold 0.0344828
can athwart 0.5000000
can secret 0.0666667
can height 0.1000000
can can 0.5897436
can enmities 0.2000000
can simplicity 0.2000000
can obtained 0.1666667
can comforted 0.2500000
can falsehood 0.1428571
can bully-monster 1.0000000
can melteth 0.3333333
can fantastical 0.1250000
can prithee 0.0096154
can thought 0.0202020
can remedy 0.1200000
can would 0.0113154
can understand 0.0444444
can easily 0.1250000
can possibly 1.0000000
can offend 0.0344828
can might 0.0341880
can arms 0.0322581
can quite 0.0454545
can uttermost 0.2222222
can changeable 0.1428571
can may 0.2676056
can entrap 0.2000000
can addition 0.0666667
can s 0.0038314
can bail 0.1428571
can feel 0.0384615
can eyes 0.0060976
can affords 0.2000000
can evident 1.0000000
can surgery 0.1666667
can assurance 0.0666667
can verse 0.0909091
can hates 0.0588235
can make 0.0025445
can uncouth 0.1666667
can legs 0.0370370
can sooth 0.0526316
can water 0.0270270
can as 0.0016793
can desolate 0.1428571
can news 0.0065359
can why 0.0020450
can 'erhear 0.2000000
can whisper 0.0833333
can qualify 0.2500000
can know 0.0116086
can cannot 0.2051282
can dare 0.0597015
can that 0.0003951
can milk 0.0714286
can gone 0.0073529
can dares 0.1000000
can shall 0.0404564
can rememb 1.0000000
can further 0.0156250
can pleasest 0.2500000
can sensible 0.0625000
can blamed 0.2000000
can high-sighted 0.2500000
can doubted 0.1250000
can covertly 0.1666667
can obey 0.0188679
can none 0.0046729
can must 0.0227273
can quarter 0.0714286
can do 0.0069808
can eunuch 0.1250000
can pity 0.0289855
can afeard 0.0454545
can to 0.0040858
can whip 0.1000000
can enlarge 0.1666667
can deceive 0.1111111
can reed 0.2500000
can able 0.1111111
can wedding 0.0769231
can unmannerly 0.4000000
can effect 0.0434783
can any 0.0051813
can shalt 0.0505051
can untangle 0.1666667
can stopped 0.1111111
can seest 0.0952381
can borrow 0.0526316
can hearer 0.2000000
can scarf 0.1666667
can arrows 0.3333333
can canst 0.3773585
can enamelèd 0.3333333
can done 0.0044643
can speak 0.0070922
can light-foot 0.2500000
can advantage 0.0714286
can jest 0.0294118
can hear 0.0086705
can state 0.0196078
can attempt 0.2500000
can let 0.0015175
can directed 0.1666667
can wonder 0.0175439
can alter 0.0769231
can bagpipe 1.0000000
can excepted 0.1000000
can shadow 0.0588235
can cutler 1.0000000
can fittest 0.0833333
can prevention 0.1250000
can lass 0.2000000
can authorities 0.2000000
can be 0.0012262
can honestly 0.1428571
can away 0.0038168
can shames 0.0769231
can borne 0.1111111
can remembering 0.5000000
can NULL 0.0055487
can needs 0.0377358
can place 0.0102041
can mayst 0.1111111
can disorder 0.1111111
can look 0.0040816
can use 0.0238095
can cure 0.0588235
can should 0.0077519
can log 0.3333333
can scarcely 0.1666667
can bald 0.1428571
can guess 0.1250000
can hath 0.0022936
can trade 0.0666667
can convenient 0.1111111
can fever 0.1666667
can hatch 0.3333333
can question 0.0204082
can smell 0.1250000
can troublous 0.2000000
can speedy 0.0588235
nymphs country 0.0344828
nymphs nymphs 1.0000000
nymphs footing 0.5000000
survivors men 0.0048780
survivors bring 0.0072993
survivors we 0.0011442
wait waited 0.2500000
wait yet 0.0027778
wait laertes 0.1176471
wait — 0.0021008
wait , 0.0001161
wait soft 0.1923077
wait ho 0.0136986
wait pause 0.0769231
wait mark 0.0120482
wait kiss 0.0250000
wait patient 0.0232558
wait does 0.0084034
wait peace 0.0082645
wait give 0.0026525
wait expect 0.0625000
wait serve 0.0147059
wait hours 0.0270270
wait summer 0.0666667
wait awhile 0.0400000
wait thee 0.0012500
wait tarrying 1.0000000
wait hold 0.0160000
wait softly 0.0526316
wait walk 0.0185185
wait hardly 0.2000000
wait but 0.0014265
wait with 0.0006901
wait reckoning 0.2500000
wait ophelia 0.1000000
wait NULL 0.0001332
wait tarry 0.4736842
wait temporize 1.0000000
wait frame 0.1111111
wait watch 0.0408163
wait patience 0.0142857
wait will 0.0005787
wait long 0.0072464
wait exceed 0.1428571
wait attend 0.0930233
wait i 0.0001686
wait chat 0.1111111
wait stay 0.1127820
wait there 0.0034247
wait wait 0.2352941
haste rashness 0.2500000
puffing swelling 0.3333333
favor favour 0.3333333
favor requite 0.1111111
favor NULL 0.0000888
favor hands 0.0125000
favor good 0.0024450
favor turn 0.0256410
favor at 0.0018484
favor christian 0.0344828
favor towards 0.0666667
favor courteous 0.1000000
favor this 0.0006720
favor loves 0.0161290
favor request 0.1333333
favor highest 0.1250000
favor entreat 0.0188679
favor me 0.0004789
favor grace 0.0060606
favor office 0.0212766
favor as 0.0008396
favor bidding 0.0833333
favor favors 0.0666667
favor best 0.0098039
favor continue 0.2000000
favor suit 0.0277778
favor boon 0.1428571
lovable upon 0.0023474
lovable hung 0.2000000
lovable so 0.0007435
lovable — 0.0010504
lovable with 0.0006901
lovable grace 0.0060606
warriors myrmidons 0.5000000
warriors warriors 0.5000000
warriors nervii 0.5000000
wealthy wealthy 1.0000000
wealthy sufficient 0.1428571
merchant . 0.0000680
merchant merchant 0.5714286
merchant hath 0.0022936
thorn-bushes mallows 1.0000000
thorn-bushes docks 1.0000000
thorn-bushes or 0.0021413
thorn-bushes , 0.0000581
satisfying a 0.0003401
satisfying gypsy 1.0000000
satisfying cool 0.1000000
address am 0.0010989
desdemona lady 0.0100503
desdemona procure 0.2500000
desdemona NULL 0.0000444
desdemona wooed 0.0714286
desdemona wooing 0.1250000
desdemona riches 0.1666667
desdemona ship 0.0400000
desdemona virtuous 0.0769231
desdemona cyprus 0.0555556
desdemona desdemona 0.7272727
fortune-teller a 0.0003401
fortune-teller fortune-teller 0.5000000
warden lieutenant 0.0357143
warden pray 0.0042017
warden master 0.0053763
warden keeper 0.2500000
restful sweet 0.0062112
restful drowsy 0.1000000
restful of 0.0003170
restful syrups 1.0000000
considers in 0.0004444
considers he 0.0005924
considers call 0.0057143
considers all 0.0023895
considers full 0.0109890
siege given 0.0200000
siege siege 0.2500000
siege see 0.0026042
reminder admonishing 0.3333333
mild learnedly 0.2500000
mild most 0.0030211
mild NULL 0.0000444
mild he 0.0005924
mild my 0.0003252
mild mild 0.4000000
mild words 0.0102041
mild delivered 0.0909091
mild subtle 0.1666667
mild as 0.0008396
mild in 0.0004444
learns leaves 0.0909091
learns it 0.0005013
learns him 0.0008217
learns of 0.0003170
learns knows 0.0158730
learns image 0.0666667
learns loves 0.0161290
smells smells 0.5000000
smells freckles 0.1666667
unrealistic improbable 1.0000000
unrealistic fiction 1.0000000
unrealistic an 0.0025907
undeniable most 0.0030211
undeniable certain 0.0140845
fair justly 0.0833333
fair fair 0.1132075
fair most 0.0030211
fair it 0.0005013
fair NULL 0.0000888
fair meet 0.0235294
fair pleases 0.1111111
fair me 0.0004789
fair unjustly 0.2500000
fair just 0.0250000
fair charge 0.0175439
fair hand 0.0052356
oath oath 0.5333333
oath forsworn 0.0625000
glazing at 0.0018484
glazing eight 0.0500000
glazing i 0.0001686
glazing set 0.0107527
glazing were 0.0024155
tragic the 0.0001830
tragic alas 0.0128205
tragic NULL 0.0000444
tragic tragedians 0.2500000
tragic day 0.0056180
ruler burgundy 0.0476190
ruler rule 0.0909091
ruler governs 0.2500000
ruler president 0.5000000
deprived deprived 0.5000000
advise friendship 0.0500000
advise bid 0.0084034
advise do 0.0008726
advise entreat 0.0188679
advise advise 0.0588235
advise desire 0.0151515
advise party 0.1000000
advise in 0.0004444
advise should 0.0025840
advise counsel 0.1621622
cool blood 0.0088496
cool safer 0.1111111
cool begins 0.0434783
cool baboon 0.2000000
cool cool 0.1000000
cool guides 1.0000000
cool by 0.0025840
hats exhibition 0.5000000
hats petty 0.0833333
hats put 0.0070922
hats any 0.0051813
hats hats 0.2000000
streetwalker public 0.1111111
streetwalker commoner 1.0000000
share NULL 0.0000444
share he 0.0005924
share part 0.0081967
share my 0.0006504
share commend 0.0384615
share note 0.0147059
share world-sharers 0.2000000
share whole 0.0294118
share one 0.0023866
share share 0.6000000
share sicily 0.3333333
share but 0.0007133
grunts pioneers 0.2000000
valiantly good 0.0012225
valiantly did 0.0022472
valiantly welshmen 0.1666667
valiantly valiantly 1.0000000
valiantly service 0.0166667
option for 0.0005858
option fittest 0.0833333
option choose 0.0188679
hopeful yourself 0.0123457
hopeful dressed 0.0909091
death dishonored 0.1000000
death the 0.0001830
death debt 0.0625000
death a 0.0003401
death dying 0.0625000
death , 0.0000581
death instant 0.0400000
death reversed 0.1666667
death famished 0.1666667
death happiness 0.0454545
death grind 0.1000000
death antony 0.0074074
death ranks 0.0909091
death head 0.0112360
death s 0.0006386
death doom 0.1000000
death starve 0.1111111
death one 0.0023866
death felicity 0.3333333
death NULL 0.0003107
death fear 0.0040161
death of 0.0009509
death condemnation 0.5000000
death die 0.0076923
death moiety 0.1111111
death dearly 0.0500000
death death 0.4705882
death dangers 0.1000000
death graves 0.0588235
death it 0.0005013
death briefest 0.5000000
death deadly 0.0666667
death talk 0.0138889
death journey 0.1111111
death slain 0.0434783
death an 0.0025907
courtiers courtiers 0.3333333
courtiers little 0.0074074
courtiers your 0.0006094
courtiers ” 0.0034014
courtiers courtier 0.1111111
courtiers some 0.0029499
courtiers train 0.0909091
courtiers with 0.0006901
courtiers “ 0.0047393
parrots commendable 0.1250000
parrots none 0.0046729
parrots only 0.0156250
proof trial 0.1428571
proof my 0.0003252
proof ’ 0.0006435
proof to 0.0002554
proof have 0.0006460
proof in 0.0004444
proof say 0.0018727
proof imputation 0.1666667
proof i 0.0001686
proof this 0.0013441
proof show 0.0104167
proof warrant 0.0192308
proof satisfied 0.0740741
proof can 0.0036630
proof where 0.0028736
proof lord 0.0013514
proof proof 0.2222222
proof satisfaction 0.1428571
proof speedy 0.0588235
proof be 0.0006131
proof nothing 0.0047847
proof some 0.0029499
indirect indirect 0.3333333
indirect needs 0.0188679
indirect no 0.0009940
kindled feeds 0.2000000
kindled their 0.0025773
kindled fury 0.0588235
inadequacy disdainful 0.1666667
inadequacy me 0.0004789
inadequacy such 0.0030488
inadequacy manner 0.0344828
lies slanders 0.1428571
lies lies 0.1594203
lies errors 0.1666667
lies forgeries 0.1111111
lies NULL 0.0000444
lies false 0.0144928
lies still 0.0081967
lies traitors 0.0370370
lies savagery 0.3333333
lies wrong 0.0104167
lies reports 0.1250000
lies falsehood 0.1428571
lies lie 0.0219780
lies honor-owing 0.2500000
flatter NULL 0.0000444
flatter dismayed 0.1250000
flatter flattered 0.2000000
flatter flatter 0.1764706
flatter praise 0.0250000
enchanting that 0.0003951
enchanting enchanting 1.0000000
appropriate funerals 0.1666667
appropriate appertain 0.3333333
appropriate sorting 0.5000000
appropriate a 0.0003401
appropriate otherwise 0.0526316
appropriate NULL 0.0000444
appropriate fittest 0.0833333
appropriate jest 0.0294118
appropriate that 0.0003951
appropriate fitter 0.2500000
appropriate fitting 0.2000000
appropriate good 0.0012225
appropriate better 0.0053763
appropriate belongs 0.1666667
appropriate proper 0.0400000
appropriate become 0.0263158
appropriate season 0.0500000
unlawful unlawful 0.2000000
rate rate 0.1111111
rate we 0.0011442
gone made 0.0061350
gone NULL 0.0000888
gone range 0.0909091
gone fortnight 0.2500000
gone are 0.0010515
gone is 0.0003794
gone avaunt 0.1666667
gone absent 0.2000000
gone being 0.0141844
gone mad 0.0101010
gone gone 0.1911765
gone gap 1.0000000
gone long 0.0072464
gone great 0.0055249
gone hence 0.0076336
gone this 0.0006720
gone out 0.0061162
gone mute 0.2000000
gone demean 1.0000000
gone torch 0.1428571
gone lunacy 0.2500000
gone flight 0.0555556
gone spirits 0.0222222
gone distract 0.2500000
gone grows 0.0571429
lament lamentation 1.0000000
gluttons make 0.0025445
gluttons lust 0.0625000
gluttons it 0.0005013
gluttons epicurism 0.2500000
gluttons more 0.0017483
invited bid 0.0084034
invited forth 0.0094340
invited invited 0.3750000
invited he 0.0005924
invited love 0.0019531
invited somewhere 0.2500000
ran met 0.0169492
ran NULL 0.0000444
ran daughter 0.0072993
ran did 0.0022472
ran coursed 0.5000000
ran my 0.0003252
ran is 0.0003794
ran fled 0.1621622
ran flew 0.2500000
ran run 0.0483871
ran ran 0.2000000
ran started 0.1428571
ran o 0.0016863
disciplined no 0.0009940
disciplined discipline 0.2000000
grapes grapes 0.3333333
grapes vine 0.3333333
cinna cinna 1.0000000
yorks york 0.0555556
miserable made 0.0061350
miserable wretched 0.0869565
miserable miserable 0.7500000
miserable NULL 0.0000444
miserable frustrate 0.1111111
miserable by 0.0012920
miserable proud 0.0400000
miserable there 0.0017123
miserable tempest-tossed 0.2500000
crown yours 0.0142857
crown wears 0.1428571
crown NULL 0.0001332
crown crowns 0.0526316
crown crown 0.7105263
crown wring 0.5000000
crown perforce 0.0526316
crown right 0.0114943
crown inclusive 0.2500000
crown fortinbras 0.2500000
crown diadem 1.0000000
cobweb cobweb 1.0000000
ionian ionian 0.5000000
ionian cut 0.0208333
guest whilst 0.0526316
guest she 0.0016722
guest NULL 0.0000444
guest which 0.0024155
guest guest 0.3333333
guest s 0.0006386
conditions conditions 0.1250000
protection friendship 0.0500000
protection universal 0.1428571
protection the 0.0001830
protection landlord 1.0000000
protection shade 0.1666667
protection sweet 0.0062112
protection shroud 0.2000000
protection ' 0.0016051
penalty bond 0.0476190
penalty forfeiture 0.5000000
penalty due 0.0500000
penalty gold 0.0188679
penalty penalty 0.7500000
penalty peril 0.0500000
recover recovery 1.0000000
recover soon 0.0333333
recover yet 0.0027778
recover recover 0.3636364
recover his 0.0007949
recover quick 0.0370370
ashamed shame 0.1044776
ashamed would 0.0014144
ashamed for 0.0017575
ashamed ashamed 0.5000000
ashamed unqualitied 0.1428571
ashamed maiden 0.1250000
ashamed no 0.0019881
ashamed , 0.0001161
ashamed ashamèd 0.3333333
ashamed shamest 0.3333333
ashamed shamed 0.1428571
ashamed fie 0.0185185
ashamed blush 0.2500000
ashamed touch 0.0303030
ashamed myself 0.0067114
thunderclap greater 0.0416667
thunderclap crack 0.1000000
sink wi 0.1000000
sink power 0.0147059
sink ' 0.0032103
sink bark 0.0625000
sink th 0.0035336
sink sink 0.3333333
hecate hecate 0.2500000
hecate now 0.0012136
hecate how 0.0017953
disarm here 0.0016863
disarm disarm 1.0000000
disarm beauty 0.0322581
disarm again 0.0052083
disarm my 0.0003252
disarm unprovide 0.3333333
disarm mind 0.0092593
striking struck 0.0384615
striking now 0.0012136
striking thou 0.0007513
striking defeat 0.1428571
striking st 0.0045455
striking ’ 0.0003218
reproach his 0.0007949
sweating fall 0.0123457
sweating let 0.0015175
sweating thy 0.0013316
sweating lance 0.2000000
education education 0.3333333
valentine valentine 0.2500000
valentine saint 0.0500000
employ entertain 0.0769231
peter good 0.0012225
peter peter 0.7500000
barnardo of 0.0003170
barnardo has 0.0103093
barnardo barnardo 0.6000000
barnardo this 0.0006720
double-dealing NULL 0.0000444
double-dealing counsel 0.0270270
double-dealing double-dealing 0.5000000
mementos remembrances 0.1666667
powder powder 0.1666667
hacked hacked 0.1250000
hacked sides 0.0625000
hacked one 0.0023866
hacked of 0.0003170
hacked in 0.0004444
hacked another 0.0102041
harfleur you 0.0002594
harfleur harfleur 1.0000000
harfleur and 0.0002047
temperance temperance 0.1538462
temperance should 0.0025840
temperance temper 0.0714286
thornbush thornbush 0.6666667
thornbush ; 0.0032258
safest safest 0.1428571
hear know 0.0016584
hear content 0.0161290
hear urine 0.3333333
hear hear 0.3265896
hear my 0.0006504
hear damnèd 0.0588235
hear mark 0.0361446
hear gently 0.0476190
hear tongs 0.2500000
hear him 0.0008217
hear music 0.0133333
hear perceive 0.0400000
hear this 0.0006720
hear sorry 0.0303030
hear laughable 0.1428571
hear fellow 0.0104167
hear heard 0.0330579
hear crow 0.1250000
hear shrive 0.2857143
hear declare 0.3333333
hear but 0.0007133
hear charmian 0.0434783
hear learn 0.0312500
hear NULL 0.0007990
hear do 0.0008726
hear born 0.0200000
hear broken 0.0555556
hear deafness 0.2500000
hear mourner 0.3333333
hear thrusting 0.2500000
hear distinguish 0.1250000
hear fame 0.0555556
hear hearing 0.0869565
hear shalt 0.0101010
hear suffer 0.0416667
hear dost 0.0072464
hear wake 0.0416667
hear apprehension 0.1250000
hear coming 0.0222222
hear ear 0.0188679
hear commune 0.5000000
once-trimmed hedges 1.0000000
joseph joseph 1.0000000
misguided erring 1.0000000
misguided an 0.0025907
hairs hairs 0.2142857
hairs been 0.0061728
hairs which 0.0024155
hairs feu 1.0000000
show lead 0.0500000
show know 0.0016584
show laertes 0.0588235
show sacrifice 0.1000000
show seen 0.0156250
show let 0.0045524
show render 0.0555556
show show 0.3229167
show boast 0.1250000
show appear 0.0454545
show be 0.0006131
show tell 0.0030675
show tailor 0.0714286
show promise 0.0200000
show NULL 0.0003995
show do 0.0008726
show merciful 0.0769231
show ceres 0.3333333
show to 0.0002554
show cut 0.0208333
show basis 0.2500000
show will 0.0005787
show counterfeited 0.2000000
show bring 0.0145985
show bloody 0.0175439
show teach 0.0312500
show tardy 0.1000000
show bowstrings 0.2000000
show ostentation 0.5000000
show winged 0.1666667
show make 0.0025445
show it 0.0015038
show go 0.0017153
show counterfeit 0.0500000
show then 0.0050676
show sport 0.0250000
show dallying 0.1428571
show shows 0.0500000
depended thee 0.0012500
depended for 0.0005858
depended haste 0.0204082
depended contain 0.2000000
obedience fearfulness 0.3333333
obedience homage 0.1250000
obedience duty 0.0169492
obedience obedience 0.1250000
casts the 0.0001830
casts doth 0.0055866
casts a 0.0003401
casts substance 0.2500000
casts noble 0.0074627
casts all 0.0011947
sobering sober 0.1111111
lack here 0.0016863
lack upon 0.0023474
lack pain 0.0588235
lack forehead 0.1250000
lack my 0.0003252
lack children 0.0243902
lack ceremonious 0.5000000
lack those 0.0099010
lack lack 0.0344828
lack such 0.0030488
lack overtake 0.3333333
bids ruined 0.5000000
bids this 0.0006720
bridegroom you 0.0002594
bridegroom a 0.0003401
bridegroom say 0.0018727
bridegroom bridegroom 0.3333333
bridegroom wants 0.0769231
petitioner suitor 0.1428571
wheel NULL 0.0000444
wheel fixed 0.0909091
wheel wheel 0.3333333
wash wash 0.6000000
wash bathe 0.3333333
wash NULL 0.0000444
wash weather 0.0666667
wash clears 0.2500000
even unworthy 0.1666667
even dignity 0.1250000
even beats 0.1666667
even better 0.0053763
even herod 0.3333333
even mountains 0.2500000
even life 0.0058824
even struck 0.0384615
even chamber 0.0270270
even entered 0.0909091
even wish 0.0151515
even but 0.0064194
even and 0.0002047
even though 0.2397959
even howsoever 0.2500000
even catching 0.1250000
even pansa 1.0000000
even guiltiness 0.1250000
even brutus 0.0095238
even sweeter 0.0909091
even nor 0.0088496
even think 0.0055866
even estimable 1.0000000
even throw 0.0740741
even bandy 0.1428571
even career 0.3333333
even quake 0.2000000
even can 0.0073260
even thou 0.0015026
even sport 0.0500000
even philosophy 0.1000000
even a 0.0023810
even heavier 0.2000000
even sermons 0.1428571
even lived 0.0370370
even merrier 0.2500000
even sebastian 0.1000000
even in 0.0008889
even latter 0.3333333
even thereto 0.2500000
even very 0.0038911
even denying 0.1250000
even addition 0.0666667
even sustaining 0.3333333
even robs 0.2000000
even worse 0.0192308
even convict 0.2500000
even fear 0.0040161
even calling 0.1250000
even ill-used 1.0000000
even assurance 0.0666667
even angry 0.0588235
even sparing 0.3333333
even angels 0.1000000
even improper 1.0000000
even self-endeared 0.2500000
even amaze 0.1666667
even i 0.0001686
even blind 0.0666667
even cheeks 0.1666667
even five 0.0384615
even assault 0.1666667
even blacker 0.3333333
even as 0.0025189
even inevitable 0.1666667
even chastised 0.1666667
even fleeting 0.5000000
even however 0.2000000
even know 0.0016584
even noting 0.2000000
even contents 0.0625000
even interpret 0.2500000
even , 0.0011612
even not 0.0033937
even that 0.0011853
even wast 0.0769231
even wondering 0.1666667
even fierce 0.0909091
even out 0.0030581
even regard 0.0555556
even brain 0.0666667
even sooner 0.0909091
even obey 0.0188679
even falls 0.0500000
even actions 0.3333333
even ethiope 1.0000000
even deign 0.3333333
even meet 0.0117647
even whipped 0.0833333
even indeed 0.0062893
even maritime 0.5000000
even pluck 0.0434783
even full-fraught 0.2000000
even enemies 0.0476190
even strange 0.0102041
even boar 0.0909091
even suffer 0.0416667
even now 0.0012136
even more 0.0034965
even bred 0.0714286
even the 0.0036597
even yet 0.0222222
even innocents 0.2000000
even need 0.0307692
even swear 0.0128205
even so 0.0007435
even unhappiness 0.5000000
even denial 0.1666667
even for 0.0035149
even liar 0.0909091
even vilely 0.1666667
even nay 0.0182927
even evened 0.5000000
even even 0.0344828
even NULL 0.0027521
even tickle 0.2000000
even bootless 0.1000000
even jot 0.0666667
even corrupted 0.2000000
even world 0.0054945
even becomings 0.1666667
even tear 0.0588235
even should 0.0025840
even except 0.1111111
even edge 0.2000000
even comptible 0.3333333
even had 0.0029070
even space 0.0625000
even puddle 0.1666667
rumble ordnance 0.1666667
rumble bellyful 0.5000000
rumble rumble 1.0000000
rumble thy 0.0013316
breath breathes 0.1000000
breath merriman 0.1666667
breath stirs 0.1666667
breath catching 0.1250000
breath breathed 0.1250000
breath broken 0.0555556
breath being 0.0070922
breath bulk 0.1666667
breath distraction 0.1666667
breath breath 0.2619048
breath least 0.0555556
breath exhale 0.2500000
breath in 0.0004444
breath but 0.0014265
breath gasp 1.0000000
breath noise 0.0175439
marle marle 1.0000000
immediately discharged 0.1666667
immediately send 0.0135135
immediately NULL 0.0002219
immediately straightway 0.2857143
immediately time 0.0039062
immediately audience 0.0833333
immediately stays 0.0454545
immediately preparation 0.0434783
immediately sacrifice 0.1000000
immediately expediently 1.0000000
immediately straight 0.0243902
immediately immediately 0.5000000
immediately it 0.0005013
immediately for 0.0005858
immediately instantly 0.3750000
immediately presently 0.1000000
immediately ready 0.0192308
immediately but 0.0007133
immediately present 0.0208333
immediately suddenly 0.0909091
horsemen leading 0.1666667
horsemen foot 0.0303030
horsemen of 0.0003170
horsemen peeps 0.2000000
horsemen this 0.0006720
horsemen horsemen 1.0000000
acceptance our 0.0015723
acceptance pass 0.0232558
acceptance accept 0.2500000
acceptance peremptory 0.5000000
fresh upon 0.0023474
fresh the 0.0005489
fresh breathes 0.1000000
fresh furbished 1.0000000
fresh springs 0.1666667
fresh nuts 0.2500000
fresh fresh 0.2500000
fresh all 0.0011947
fresh provoketh 0.2500000
fresh green 0.0588235
fresh gash 0.5000000
fresh us 0.0023697
fresh some 0.0029499
fresh best 0.0098039
fresh new 0.0217391
condemn well 0.0013387
condemn done 0.0044643
condemn NULL 0.0000444
condemn have 0.0006460
condemn condemn 0.2500000
condemn afterwards 0.1428571
condemn found 0.0163934
figured know 0.0016584
figured do 0.0008726
figured but 0.0007133
figured not 0.0002828
figured hit 0.0625000
figured choose 0.0188679
figured moveable 0.1000000
gallops gallops 0.5000000
attendant asses 0.2000000
bravest valorous 0.3333333
gather woo 0.0222222
gather muster 0.2500000
gather up 0.0043668
gather levy 0.1428571
gather assemble 0.3333333
gather straight 0.0243902
gather him 0.0008217
gather collect 1.0000000
gather pluck 0.0434783
gather and 0.0002047
crumb cold 0.0232558
crumb a 0.0003401
crumb as 0.0008396
crumb morsel 0.3333333
nippy eager 0.5000000
nippy nipping 1.0000000
nippy a 0.0003401
nippy air 0.0208333
nippy and 0.0002047
nippy an 0.0025907
begging bade 0.0625000
begging prithee 0.0192308
begging a 0.0003401
begging most 0.0030211
begging NULL 0.0000444
begging bootless 0.1000000
begging petitionary 0.5000000
begging prayers 0.0416667
begging vehemence 0.3333333
begging beseech 0.0281690
begging pray 0.0042017
begging giving 0.1111111
begging beggar 0.0476190
begging with 0.0006901
swinger gallant 0.0833333
handling handling 1.0000000
grievances ye 0.0400000
grievances between 0.0196078
grievances enforce 0.3333333
grievances griefs 0.1538462
grievances stomaching 0.2500000
wears wear 0.0508475
wears one 0.0047733
wears wears 0.1428571
wears wasp 0.2500000
wears is 0.0003794
wears deformed 0.1666667
repeating iterance 0.2000000
repeating after 0.0101010
repeating needs 0.0188679
repeating echo 0.1666667
repeating this 0.0006720
explode blows 0.0476190
explode this 0.0006720
jupiter juno 0.1428571
jupiter jupiter 0.3333333
rose rose 0.6666667
rocks high 0.0256410
rocks pebbles 0.2500000
rocks rocks 1.0000000
rocks be 0.0006131
rocks flints 0.2500000
rocks should 0.0025840
reconcile atone 0.2000000
stirring ardor 0.2500000
unwashed peasant 0.1250000
roared pronounced 0.0909091
hedge boxtree 0.2000000
hedge hedge 0.1250000
supply interpret 0.2500000
supply furnish 0.1250000
em em 0.0512821
em NULL 0.0000444
em snatch 0.2500000
em up 0.0043668
final latest 1.0000000
final parle 0.2500000
final we 0.0011442
adores met 0.0169492
adores lies 0.0144928
adores for 0.0005858
adores that 0.0003951
adores well 0.0013387
adores prays 0.1000000
adores one 0.0023866
adores dearly 0.0500000
adores adores 0.6666667
sting pinch 0.1250000
sting each 0.0256410
sting more 0.0017483
sting stinging 0.3333333
leaders leaders 0.2500000
affectionate fond 0.0714286
affectionate over 0.0303030
affectionate iniquity 0.2000000
queens queens 1.0000000
surprise wonder 0.0175439
surprise marvel 0.0833333
surprise up 0.0043668
surprise take 0.0031546
surprise though 0.0051020
marcus marcus 0.8750000
la la 0.2500000
fleece fells 0.5000000
already given 0.0200000
already done 0.0089286
already lust-stained 0.2000000
already cheerly 0.1666667
already meditating 0.1666667
already come 0.0012610
already employed 0.1250000
already cudgel 0.1666667
already got 0.0384615
already iron 0.1111111
already known 0.0175439
already offered 0.0476190
already crow 0.1250000
already be 0.0012262
already love-springs 0.2500000
already embarked 0.0909091
already ready 0.0192308
already salutation 0.2500000
already NULL 0.0007102
already plainness 0.0714286
already aboard 0.0416667
already confessed 0.1000000
already midnight 0.0588235
already tis 0.0018083
already hadst 0.0434783
already already 0.6153846
already dead 0.0068966
already long 0.0072464
already footed 0.2500000
already a-talking 0.1666667
already strucken 0.1428571
already dined 0.1250000
already under 0.0185185
already moved 0.0400000
already hath 0.0022936
already an 0.0025907
thanked 'erpaid 1.0000000
thanked acknowledged 0.1250000
thanked NULL 0.0000444
thanked thanked 0.1250000
thanked thank 0.0106383
thanked any 0.0051813
thanked o 0.0016863
immortal a 0.0003401
immortal in 0.0004444
immortal me 0.0004789
immortal longings 1.0000000
immortal except 0.1111111
immortal thing 0.0114943
immortal immortal 0.4545455
shhh hush 0.2000000
shhh no 0.0009940
shhh more 0.0017483
vengeful revengeful 1.0000000
vengeful purgers 1.0000000
vengeful murderers 0.0909091
vengeful envious 0.0769231
vengeful called 0.0188679
ghost here 0.0016863
ghost vision 0.1000000
ghost pin 0.3333333
ghost relative 0.1428571
ghost shadow 0.0588235
ghost ghost 0.4166667
ghost NULL 0.0001332
ghost terms 0.0714286
ghost spirit 0.0813953
ghost compulsatory 0.1428571
ghost sledded 1.0000000
ghost in 0.0004444
ghost itself 0.0161290
knowledge heap 0.1428571
knowledge deserving 0.0909091
knowledge knowledge 0.0588235
knowledge your 0.0006094
danger the 0.0001830
danger lead 0.0166667
danger it 0.0005013
danger fear 0.0080321
danger NULL 0.0001332
danger — 0.0010504
danger danger 0.1304348
danger wants 0.0769231
danger controlment 0.1666667
danger means 0.0121951
danger lighted 0.1428571
colme colme 1.0000000
victory helm 0.1666667
victory on 0.0043860
victory triumph 0.0833333
victory our 0.0015723
victory sits 0.0588235
victory have 0.0006460
victory loured 1.0000000
victory thy 0.0013316
victory life 0.0058824
victory victorious 0.2000000
victory where 0.0028736
victory victory 0.5000000
victory sit 0.0166667
victory signal 1.0000000
victory palm 0.1250000
victory helms 0.3333333
victory conquest 0.1250000
second-in-command ingraft 1.0000000
second-in-command second 0.0357143
second-in-command infirmity 0.1250000
second-in-command own 0.0064103
second-in-command an 0.0025907
cares so 0.0007435
cares may 0.0028169
cares do 0.0008726
cares come 0.0012610
cares danger 0.0434783
cares that 0.0003951
cares thee 0.0012500
cares sport 0.0250000
cares i 0.0001686
cares adore 0.1111111
exchange even 0.0068966
exchange NULL 0.0000888
exchange me 0.0004789
exchange undeservers 0.2500000
exchange chrysolite 0.1111111
exchange bequeath 0.3333333
exchange fathers 0.0454545
exchange exchange 0.1111111
exchange frown 0.0588235
insults dishonor 0.0625000
insults indignation 0.1666667
insults injuries 0.1666667
saxony saxony 1.0000000
square satisfaction 0.0714286
square make 0.0025445
heavily in 0.0004444
heavily measure 0.0434783
heavily great 0.0055249
heavily perfumèd 0.1428571
veteran good 0.0012225
veteran old 0.0069930
attractive a 0.0003401
attractive dwell 0.0526316
attractive what 0.0007663
attractive NULL 0.0000888
attractive of 0.0003170
attractive do 0.0008726
attractive my 0.0003252
attractive graces 0.0714286
attractive nature 0.0128205
attractive gracious 0.0222222
attractive person 0.0303030
attractive dimension 0.2500000
attractive in 0.0008889
attractive shape 0.0344828
attractive love 0.0019531
gleam did 0.0022472
gleam luster 0.2000000
gleam lose 0.0212766
triumph triumph 0.2500000
triumph unto 0.0091743
triumph poland 0.2500000
triumph home 0.0095238
triumph with 0.0006901
revered dread 0.0909091
arms NULL 0.0000444
arms limbs 0.1428571
arms arms 0.2903226
arms lived 0.0370370
full-scale scot 1.0000000
full-scale main 0.0769231
reminds lively 0.2000000
reminds some 0.0029499
synagogue tubal 0.0833333
synagogue good 0.0012225
synagogue , 0.0000581
synagogue go 0.0017153
pile caliban 0.1000000
pile them 0.0023981
pile pile 0.6666667
envy slain 0.0434783
envy father 0.0042918
envy noble 0.0074627
envy pursued 0.0909091
envy my 0.0003252
doubts shake 0.0303030
doubts scruples 1.0000000
doubts NULL 0.0000444
doubts us 0.0023697
doubts doubt 0.0240964
doubts that 0.0003951
doubts mothers 0.0909091
recline couch 0.1111111
recline do 0.0008726
busily it 0.0005013
astounds doth 0.0055866
astounds amaze 0.1666667
surrendered s 0.0006386
surrendered vassal 0.1666667
foix foix 1.0000000
sees show 0.0104167
sees NULL 0.0000888
sees — 0.0010504
sees danger 0.0434783
sees judgment 0.0243902
sees look 0.0040816
sees drowned 0.0500000
sees lack 0.0344828
sees shall 0.0010373
sees then 0.0016892
sees doubly 0.5000000
sees his 0.0007949
sees sees 0.2857143
sees waking 0.0909091
sees with 0.0006901
virtue out 0.0030581
virtue virtue 0.0789474
virtue it 0.0005013
virtue blot 0.1000000
virtue hero 0.0444444
virtue can 0.0036630
virtue itself 0.0161290
debauchery fuming 1.0000000
debauchery keep 0.0072993
debauchery of 0.0003170
debauchery brain 0.0666667
debauchery his 0.0007949
debauchery feasts 0.2500000
debauchery field 0.0270270
deal made 0.0061350
deal lady 0.0050251
deal NULL 0.0000888
deal content 0.0161290
deal ourself 0.0769231
deal , 0.0000581
deal tis 0.0018083
deal gone 0.0073529
deal deal 0.1176471
deal matter 0.0068966
deal in 0.0013333
deal business 0.0119048
deal much 0.0079051
deal bargain 0.1666667
deal it 0.0005013
deal churl 0.1666667
deal match 0.1250000
deal changed 0.0400000
deal hand 0.0052356
deal faith 0.0084034
gospel gospels 1.0000000
personal person 0.0303030
personal personal 0.6666667
personal stomaching 0.2500000
personal more 0.0017483
dighton dighton 1.0000000
disposal audit 1.0000000
disposal make 0.0025445
disposal their 0.0025773
lordship lordship 0.0816327
lordship our 0.0015723
lordship accept 0.2500000
lordship please 0.0089286
lordship duty 0.0169492
owner parings 0.2500000
owner ' 0.0016051
owner keeper 0.2500000
owner lord 0.0013514
owner o 0.0016863
smudge smirch 1.0000000
smudge kind 0.0125000
smudge umber 1.0000000
smudge of 0.0003170
obligations obligation 0.2500000
infatuation the 0.0001830
infatuation measure 0.0434783
infatuation erflows 0.2500000
infatuation o 0.0016863
seductive hither 0.0098039
seductive songs 0.1428571
seductive purpose 0.0232558
seductive me 0.0004789
seductive than 0.0026810
seductive timelier 0.5000000
seductive list 0.0454545
seductive called 0.0188679
pearl here 0.0016863
pearl pearl 0.2727273
pearl union 0.3333333
pearl an 0.0025907
chapped chopped 0.5000000
drunkard drunkard 0.2500000
drunkard dead 0.0068966
drunkard one 0.0023866
drunkard for 0.0005858
drunkard , 0.0000581
dido she 0.0016722
dido dido 0.2500000
beautifully well 0.0013387
beautifully NULL 0.0000444
beautifully how 0.0017953
beautifully but 0.0007133
trauma anguish 0.2500000
up-to-the-minute modern 0.2000000
revolting had 0.0029070
revolting the 0.0001830
revolting he 0.0005924
revolting would 0.0014144
revolting world 0.0054945
revolting all 0.0011947
revolting but 0.0007133
revolting quite 0.0454545
revolting forsworn 0.0625000
milk milch-kine 0.5000000
milk milk-white 0.2000000
milk milk 0.0714286
dipped envenomed 0.2500000
riled storm 0.0400000
riled heated 0.5000000
riled you 0.0002594
riled how 0.0017953
earring in 0.0004444
earring pearl 0.0909091
nastily kind 0.0125000
nastily yields 0.1250000
nastily answer 0.0070922
nastily never 0.0036364
meantime lady 0.0050251
meantime court 0.0227273
meantime s 0.0006386
meantime ’ 0.0003218
meantime vices 0.3333333
meantime while 0.0289855
meantime encounter 0.0666667
meantime as 0.0008396
meantime meantime 0.2000000
meantime but 0.0007133
meantime interim 0.2500000
meantime mine 0.0034364
sweaty sweating 0.3333333
feasting good 0.0012225
feasting cheer 0.0238095
feasting feasting 0.1250000
feasting with 0.0006901
yellow in 0.0008889
yellow yellow 0.5833333
yellow saffron 1.0000000
gambling slips 1.0000000
gambling but 0.0007133
gambling usual 0.3333333
gambling and 0.0002047
gambling outparamoured 1.0000000
adultery adultery 1.0000000
whenever when 0.0113636
whenever upon 0.0023474
whenever registered 0.1428571
whenever even 0.0068966
whenever NULL 0.0000444
whenever therefore 0.0048077
whenever leisure 0.0416667
whenever st 0.0045455
whenever every 0.0095238
whenever by 0.0012920
whenever where 0.0057471
whenever never 0.0072727
whenever patience 0.0142857
whenever your 0.0006094
exaggerate they 0.0017422
exaggerate brutus 0.0095238
exaggerate NULL 0.0000444
exaggerate greater 0.0416667
exaggerate makes 0.0147059
exaggerate are 0.0010515
exaggerate than 0.0026810
hellish hell-hated 1.0000000
hellish thy 0.0013316
hellish lie 0.0109890
hellish 'erwhelm 0.2500000
hellish o 0.0016863
disrespect shame 0.0149254
accomplishing act 0.0416667
logic it 0.0005013
logic syllogism 0.5000000
logic NULL 0.0000444
logic how 0.0017953
logic reason 0.0104167
logic chase 0.1666667
logic dost 0.0072464
logic will 0.0005787
logic thou 0.0007513
logic simple 0.0476190
logic fondly 0.1666667
breastplate breast 0.0833333
breastplate scuffles 1.0000000
dorset marquess 0.1818182
dorset dorset 1.0000000
oops barren 0.0555556
oops now 0.0012136
oops marry 0.0089286
oops am 0.0010989
thought-out tis 0.0018083
delay tardy 0.1000000
delay 'en 0.0370370
delay unwise 0.5000000
delay delay 0.3846154
delay ta 0.0526316
delay by 0.0012920
seconds twenty 0.0238095
web thee 0.0012500
web web 0.1666667
web about 0.0090090
web deadly 0.0666667
web whose 0.0126582
web ensnareth 1.0000000
partly as 0.0008396
partly partly 0.4285714
partly confessed 0.1000000
teach NULL 0.0000888
teach , 0.0000581
teach to 0.0002554
teach pleasure 0.0151515
teach dear 0.0067114
teach counsel 0.0270270
teach break 0.0178571
teach teach 0.3125000
teach creature 0.0400000
teach ears 0.0294118
teach extraordinary 1.0000000
teach teacheth 0.3333333
teach any 0.0051813
teach teachest 0.2000000
teach learn 0.0625000
teach lute 0.1666667
horns NULL 0.0000444
horns hornmaker 0.2000000
horns mad 0.0101010
horns horn 0.0769231
horns horns 0.4000000
commanders lodge 0.2000000
commanders know 0.0016584
commanders companies 0.1250000
commanders tonight 0.0120482
commanders many 0.0091743
commanders battles 0.2000000
commanders their 0.0025773
commanders heads 0.0769231
commanders commanders 0.6666667
commanders prepare 0.0344828
set savors 0.2500000
set made 0.0061350
set pawn 0.1250000
set these 0.0072727
set NULL 0.0002219
set not 0.0002828
set discharge 0.0909091
set let 0.0015175
set gem 0.1428571
set fire 0.0298507
set hoist 0.1428571
set much 0.0039526
set befits 0.1666667
set down 0.0157480
set this 0.0006720
set lawful 0.1250000
set prepare 0.0344828
set set 0.1075269
set make 0.0050891
set determined 0.0833333
set doubts 1.0000000
set s 0.0006386
set prove 0.0169492
set trod 0.1000000
set ducats 0.0322581
berated rated 0.1428571
jig scotch 0.2500000
jig jig 0.3333333
tapestry arras 1.0000000
tapestry ducats 0.0322581
tapestry myself 0.0067114
tapestry tapestry 0.5000000
job done 0.0044643
job rarely 0.1111111
job NULL 0.0003107
job limited 1.0000000
job place 0.0204082
job supplied 0.2000000
job fairly 0.0666667
job called 0.0188679
job brakenbury 0.1250000
job it 0.0005013
job dispatch 0.0294118
job service 0.0166667
job affair 0.1666667
job office 0.2127660
job well 0.0013387
job ill 0.0163934
job talk 0.0138889
job was 0.0019646
rainbow bow 0.1000000
rainbow heavenly 0.0476190
boar boar 0.4545455
boar NULL 0.0000444
pious holy 0.0322581
pious gospeled 0.2500000
stained purpled 1.0000000
stained lust-stained 0.2000000
stained blotted 0.2000000
stained blot 0.1000000
stained stained 0.1666667
leader so 0.0007435
leader sword 0.0125000
leader leader 0.3333333
leader unswayed 0.2500000
leader majesty 0.0156250
leader cease 0.0769231
met trencher 0.2000000
met met 0.2372881
met meet 0.0117647
met that 0.0003951
met found 0.0327869
met saw 0.0097087
met seen 0.0312500
met thou 0.0007513
met more 0.0017483
tooth tooth 0.0833333
white hairs 0.0714286
white milk-white 0.2000000
white white 0.3913043
white NULL 0.0000444
capture NULL 0.0000888
capture taken 0.0454545
capture be 0.0006131
capture fetch 0.0227273
capture take 0.0031546
capture achieve 0.2000000
wonder jove 0.0400000
wonder peseech 0.5000000
wonder wonder 0.0877193
wonder marvel 0.0833333
wonder grieved 0.0714286
wonder contemplation 0.1428571
wonder though 0.0051020
urgings persuasion 0.1250000
saint saint 0.5500000
saint puissance 0.1428571
susceptible frail 0.1000000
susceptible in 0.0004444
susceptible imminent 0.2000000
disgusting abhorring 0.5000000
disgusting NULL 0.0000444
disgusting name 0.0062893
disgusting my 0.0003252
disgusting gross 0.0769231
disgusting s 0.0006386
disgusting ’ 0.0003218
disgusting pish 0.3333333
disgusting knot 0.1111111
disgusting fie 0.0185185
disgusting macbeth 0.0303030
disgusting fault 0.0161290
torso sides 0.0625000
torso s 0.0006386
frowns doth 0.0055866
frowns frowns 1.0000000
frowns — 0.0010504
frowns why 0.0020450
frowns ! 0.0005714
invented from 0.0017921
invented fire-new 0.1428571
violet violet 0.5000000
gracefully softly 0.0526316
disobedient obedient 0.0833333
disobedient as 0.0008396
disobedient not 0.0002828
disobedient beldams 0.2000000
betrothed betrothed 0.5000000
betrothed first 0.0086207
betrothed substitute 0.5000000
betrothed by 0.0012920
cawdor thane 0.0769231
cawdor cawdor 0.6666667
cawdor very 0.0038911
cawdor he 0.0005924
cawdor him 0.0008217
cawdor that 0.0003951
cawdor frankly 0.3333333
dared dared 0.5000000
dared tempted 0.1666667
dared my 0.0003252
dared hath 0.0022936
dared durst 0.0869565
dared wage 0.2500000
dared lord 0.0013514
duel reckoning 0.2500000
duel desert 0.0909091
duel it 0.0005013
duel a 0.0003401
duel NULL 0.0001332
duel withdraw 0.0333333
duel orchard 0.1111111
duel young 0.0100000
duel end 0.0111111
duel challenge 0.0370370
duel challenged 0.1666667
duel call 0.0057143
duel field 0.0270270
doll baby 0.1428571
brow brows 0.2500000
brow looks 0.0138889
brow wreath 0.2000000
brow this 0.0006720
aleppo aleppo 0.5000000
parties search 0.0833333
parties guests 0.2500000
deeds feats 0.2500000
deeds as 0.0008396
deeds business 0.0119048
deeds play 0.0108696
deeds deeds 0.1764706
deeds exercise 0.3333333
deeds all 0.0011947
dragged rather 0.0109890
dragged drawn 0.0500000
dragged hath 0.0022936
taunting taunting 1.0000000
taunting mock 0.0250000
taunting very 0.0038911
taunting thou 0.0007513
taunting st 0.0045455
taunting ’ 0.0003218
sight swoons 0.1666667
sight NULL 0.0001332
sight ill-favoredly 0.2500000
sight come 0.0012610
sight lurk 0.2000000
sight late 0.0200000
sight apparition 0.1666667
sight england 0.0116279
sight sicken 0.1428571
sight face 0.0105263
sight our 0.0015723
sight from 0.0017921
sight affairs 0.0714286
sight at 0.0018484
sight thy 0.0013316
sight hence 0.0076336
sight sight 0.3050847
sight avoid 0.0588235
sight spectacle 0.2500000
sight eye 0.0144928
sight vanish 0.1666667
sight eyes 0.0060976
sight mine 0.0034364
sight too 0.0034843
religion sanctimony 1.0000000
religion hell 0.0222222
religion if 0.0012165
outrageous monster 0.0185185
outrageous tyrannically 0.3333333
outrageous lewd 0.2000000
gentleman serves 0.1250000
gentleman NULL 0.0000444
gentleman gallant 0.0833333
gentleman seigneur 0.5000000
gentleman gentleman 0.5063291
gentleman counseled 0.1666667
gentleman modena 0.5000000
gentleman books 0.0909091
gentleman gallants 0.1666667
gentleman lord 0.0013514
gentleman gently 0.0476190
gentleman your 0.0006094
gentleman qualities 0.5000000
gentleman spoken 0.0434783
protected ensheltered 0.2500000
protected it 0.0005013
protected walled 0.2500000
protected claimed 0.2500000
protected embayed 1.0000000
protected and 0.0002047
oppression the 0.0001830
oppression country 0.0344828
oppression yoke 0.2000000
oppression our 0.0015723
oppression beneath 0.2000000
oppression sinks 0.2500000
perfect very 0.0038911
perfect NULL 0.0000888
perfect for 0.0005858
perfect convenient 0.0555556
perfect all 0.0011947
perfect perfect 0.0769231
perfect created 0.2000000
perfect gods 0.0123457
perfect rehearsal 0.2500000
perfect perfection 0.1538462
mend mend 0.0967742
driven made 0.0061350
driven thence 0.0416667
driven NULL 0.0000888
driven moved 0.0400000
driven rebuked 0.3333333
driven from 0.0017921
driven beat 0.0500000
driven came 0.0103093
driven droven 0.5000000
bedrooms chambers 0.1428571
unworthy unworthiness 0.2000000
unworthy NULL 0.0000444
unworthy mine 0.0034364
unworthy worthless 0.2000000
birth birth 0.1428571
birth shambles 0.2000000
birth whelpèd 0.3333333
birth stars 0.0555556
birth rounded 0.2000000
birth education 0.3333333
birth NULL 0.0000444
birth a 0.0006803
birth miranda 0.1428571
birth breeding 0.1250000
birth blood 0.0088496
birth minute 0.1111111
birth burden 0.1000000
birth at 0.0018484
birth agony 0.2000000
illusion cinquepace 0.2000000
illusion a 0.0003401
illusion dream 0.0212766
both separated 0.1111111
both contracted 0.3333333
both tripped 0.2500000
both woo 0.0222222
both majesties 0.1666667
both NULL 0.0006658
both both 0.4250000
both two 0.0070423
both gone 0.0073529
both indeed 0.0062893
both matter 0.0137931
both knaves 0.0833333
both jointly 1.0000000
both outright 0.3333333
both article 0.0833333
both innocence 0.1111111
both ambles 0.1666667
both night 0.0052632
both yourselves 0.0714286
both covenants 0.3333333
both re 0.0714286
both stocking 0.3333333
both sure 0.0200000
both graces 0.0714286
both crab 0.0833333
signor him 0.0008217
signor signor 0.2692308
signor signior 0.0909091
signor commends 0.1428571
farmworker swain 0.2500000
vices make 0.0025445
vices vices 0.3333333
vices in 0.0004444
vices instruments 0.1000000
vices viciousness 0.3333333
sailor you 0.0002594
sailor now 0.0012136
sailor sailor 0.4000000
sailor have 0.0006460
sailor no 0.0009940
sailor sea-cap 0.2000000
dug not 0.0002828
oyster oyster 0.5000000
shameless varlet 0.2500000
shameless brazen-faced 1.0000000
cheated NULL 0.0000444
cheated false 0.0289855
cheated turned 0.0416667
cheated unscarred 0.2500000
cheated 'erraught 0.1250000
cheated folly 0.0434783
cheated side 0.0277778
cheated was 0.0019646
cheated seamy 0.1666667
cheated o 0.0016863
proculeius proculeius 0.7500000
proculeius knows 0.0158730
hedonism wassails 1.0000000
hedonism lascivious 0.3333333
pharsalia pharsalia 1.0000000
spouse fellow 0.0104167
harassed worried 0.2500000
morocco morocco 1.0000000
banquo deep 0.0285714
banquo stick 0.1000000
banquo banquo 0.8823529
banquo reigns 0.1666667
banquo feared 0.0714286
banquo nature 0.0128205
anytime or 0.0021413
anytime now 0.0012136
anytime provided 0.0666667
anytime whensoever 0.2500000
anytime ready 0.0192308
plotted did 0.0022472
drinking brine 0.1666667
drinking unfilled 0.3333333
drinking s 0.0012771
drinking potting 0.5000000
drinking our 0.0015723
drinking throats 0.1666667
drinking used 0.0476190
drinking drinking 0.1666667
drinking drink 0.0333333
drinking hazard 0.0625000
dangers would 0.0014144
dangers perils 1.0000000
dangers dangers 0.2000000
regular fourteen 0.1428571
regular that 0.0003951
erotic wanton 0.1000000
artemidorus artemidorus 0.5000000
pellet pelleted 0.5000000
relief hour 0.0104167
relief heart 0.0044248
relief absent 0.0666667
relief thee 0.0012500
relief from 0.0017921
relief thy 0.0013316
relief therein 0.0769231
relief felicity 0.3333333
wet wet 1.0000000
wet wetting 1.0000000
twisted waved 0.5000000
twisted proclaim 0.2000000
world-traveled come 0.0012610
signals us 0.0023697
signals astonish 1.0000000
signals heralds 0.3333333
signals dreadful 0.0833333
no these 0.0036364
no greener 1.0000000
no you 0.0007782
no damnable 0.1428571
no come 0.0012610
no nobody 0.1818182
no heavy 0.0232558
no degrees 0.1428571
no madonna 0.0666667
no longer 0.0294118
no extravagancy 0.2000000
no demetrius 0.0294118
no anchoring 0.1666667
no peace 0.0082645
no lost 0.0243902
no strained 0.1428571
no deny 0.0547945
no honored 0.0588235
no instance 0.0625000
no celerity 0.1250000
no betide 0.1000000
no but 0.0035663
no fleering 0.3333333
no perforce 0.0526316
no guiltiness 0.1250000
no nor 0.0265487
no think 0.0027933
no thy 0.0013316
no neither 0.0746269
no it 0.0020050
no saying 0.0476190
no part 0.0081967
no man 0.0019305
no thou 0.0007513
no truly 0.0161290
no grieved 0.0714286
no false 0.0144928
no a 0.0027211
no led 0.0588235
no giant-rude 1.0000000
no no 0.4065606
no off 0.0095238
no natural 0.0555556
no inferior 0.3333333
no might 0.0085470
no in 0.0004444
no cause 0.0384615
no remorse 0.1111111
no madam 0.0106952
no alas 0.0769231
no permission 0.2000000
no resolved 0.0833333
no me 0.0028736
no by 0.0012920
no provokèd 0.1250000
no unhappy 0.0625000
no forsooth 0.1666667
no passy-measures 1.0000000
no surgery 0.1666667
no wither 0.1111111
no rogue 0.0833333
no believed 0.1428571
no oliver 0.2500000
no his 0.0007949
no beauty 0.0322581
no i 0.0008429
no understands 0.2500000
no doubt 0.0602410
no there 0.0051370
no launcelot 0.0588235
no controlment 0.1666667
no falstaff 0.1666667
no why 0.0040900
no nothing 0.0143541
no fast 0.0322581
no o 0.0050590
no swoons 0.1666667
no yes 0.0175439
no unbound 0.2000000
no ambiguities 0.1666667
no caused 0.1428571
no cannot 0.0023310
no not 0.0056561
no that 0.0011853
no flatter 0.1176471
no whatever 0.3333333
no choose 0.0188679
no on 0.0014620
no gone 0.0073529
no airless 0.3333333
no slept 0.0769231
no years 0.0217391
no veins 0.1000000
no race 0.1000000
no day 0.0056180
no regard 0.0555556
no blamed 0.2000000
no grief 0.0256410
no pacified 0.1428571
no impossible 0.0555556
no faith 0.0504202
no love 0.0019531
no none 0.0934579
no do 0.0008726
no velvet 0.2500000
no indeed 0.0251572
no oh 0.0119048
no stood 0.0333333
no resting 0.2000000
no master 0.0053763
no stopped 0.1111111
no stol 0.0833333
no more 0.0034965
no lure 0.1111111
no let 0.0030349
no blank 0.1666667
no suspicion 0.0526316
no this 0.0006720
no steep 0.1000000
no so 0.0014870
no meant 0.0714286
no questions 0.2000000
no nay 0.4817073
no heard 0.0082645
no advancement 0.0909091
no lover 0.0500000
no rather 0.0109890
no wailed 0.3333333
no NULL 0.0029297
no jot 0.0666667
no poppy 0.3333333
no never 0.0181818
no waterish 0.2000000
no rebels 0.0833333
no soldiership 0.1250000
no at 0.0036969
no lusted 0.2500000
no conqueror 0.3333333
no first 0.0086207
no legitimate 0.1666667
no play 0.0108696
no sans 0.5000000
no pities 0.2000000
no nonpareil 0.1111111
anxious fain 0.0625000
anxious been 0.0061728
anxious have 0.0006460
anxious much 0.0039526
anxious hotly 0.2500000
anxious careful 0.1250000
anxious called 0.0188679
anxious dismay 0.2500000
mixes seasons 0.2000000
agincourt agincourt 1.0000000
agincourt they 0.0017422
agincourt it 0.0005013
agincourt call 0.0057143
dumps your 0.0006094
dumps dumps 0.5000000
gnats buried 0.0769231
gnats for 0.0005858
gnats have 0.0006460
gnats them 0.0023981
gnats nile 0.1250000
gnats prey 0.0833333
gnats gnats 1.0000000
gnats ! 0.0005714
lorded overmastered 0.2500000
self-delusions the 0.0001830
self-delusions initiate 0.2000000
self-delusions is 0.0003794
self-delusions self-abuse 1.0000000
self-delusions and 0.0002047
object annexment 0.2500000
shedding the 0.0003660
shedding till 0.0060606
shedding NULL 0.0000444
pinch tweaks 0.5000000
pinch over-red 0.1428571
pinch pinch 0.6250000
pinch nor 0.0044248
pinch me 0.0004789
pinch by 0.0012920
woe lashed 0.3333333
woe with 0.0006901
woe is 0.0003794
woe woe 0.0370370
marching marching 0.2500000
salisbury salisbury 0.8333333
dissuade persuaded 0.2000000
dissuade so 0.0007435
dissuade have 0.0006460
dissuade mightily 0.1666667
go want 0.0434783
go chastisement 0.1428571
go forth 0.0660377
go requisites 0.2500000
go dwell 0.0526316
go you 0.0072633
go fly 0.0126582
go come 0.0189155
go see 0.0260417
go broached 0.1666667
go hogs 0.2500000
go ireland 0.1428571
go fairs 0.3333333
go suits 0.1250000
go keep 0.0072993
go business 0.0119048
go slomber 1.0000000
go extend 0.1250000
go weep 0.0138889
go ll 0.0080645
go pronounce 0.1000000
go squirrel 0.2500000
go them 0.0047962
go bite 0.1250000
go aroint 0.3333333
go compassed 0.2000000
go borders 0.2000000
go spade 0.1428571
go inclined 0.2500000
go again 0.0104167
go commanded 0.0526316
go and 0.0004093
go rest 0.0104167
go stir 0.0500000
go will 0.0005787
go unsafe 0.1250000
go dismiss 0.1428571
go press 0.0625000
go thy 0.0013316
go tune 0.0555556
go revels 0.1000000
go pass 0.0232558
go said 0.0084746
go going 0.0740741
go it 0.0005013
go transform 0.2500000
go part 0.0081967
go persever 0.2500000
go dale 0.2500000
go right 0.0114943
go daggers 0.0625000
go sauce 0.1428571
go wait 0.0588235
go fret 0.0909091
go vanish 0.1666667
go way 0.0063694
go assume 0.0909091
go relief 0.1428571
go pay 0.0303030
go — 0.0031513
go post 0.0500000
go off 0.0095238
go soft 0.0192308
go wildcat 0.1428571
go lots 1.0000000
go contriving 0.3333333
go in 0.0008889
go fetch 0.0681818
go perish 0.1428571
go toward 0.0238095
go gentleness 0.0714286
go ask 0.0178571
go caelius 0.2500000
go s 0.0019157
go pack 0.1250000
go quickly 0.0384615
go resurvey 0.2500000
go withdraw 0.1666667
go mad 0.0303030
go after 0.0505051
go run 0.0645161
go begone 0.8000000
go am 0.0010989
go us 0.0023697
go get 0.1900000
go attend 0.0465116
go hence 0.0763359
go i 0.0008429
go quiet 0.0344828
go unfold 0.0714286
go crowner 0.3333333
go heart 0.0044248
go sue 0.1666667
go minstrels 0.3333333
go back 0.0617284
go go 0.4631218
go there 0.0017123
go well 0.0040161
go why 0.0020450
go everyone 0.1111111
go cullions 1.0000000
go woo 0.0222222
go forward 0.1363636
go along 0.0588235
go table 0.0833333
go , 0.0009290
go take 0.0031546
go gate 0.0526316
go pale 0.0322581
go on 0.0058480
go gone 0.0808824
go fond 0.0714286
go mark 0.0120482
go dares 0.1000000
go further 0.0312500
go mightst 0.1250000
go departure 0.0714286
go greek 0.1666667
go thee 0.0025000
go madness 0.1111111
go uncle 0.0208333
go adriana 0.3333333
go walk 0.0555556
go budge 0.3333333
go obey 0.0377358
go fished 0.1666667
go i. 0.0102041
go with 0.0006901
go leave 0.0191388
go must 0.0144628
go visit 0.0666667
go meet 0.0117647
go goes 0.0405405
go fee 0.1111111
go do 0.0034904
go into 0.0133333
go avaunt 0.3333333
go to 0.0056180
go incontinently 0.2500000
go from 0.0017921
go motion 0.0588235
go home 0.0476190
go complain 0.2000000
go cum 0.2500000
go cabin 0.1000000
go females 0.5000000
go pursue 0.0714286
go ones 0.0476190
go thither 0.1250000
go little 0.0074074
go wake 0.0416667
go proceed 0.2400000
go then 0.0033784
go unhand 0.5000000
go traverse 1.0000000
go bed 0.0333333
go speak 0.0047281
go went 0.0625000
go about 0.0090090
go this 0.0006720
go lay 0.0161290
go swim 0.2000000
go slaves 0.0909091
go whither 0.0243902
go enter 0.1666667
go near 0.0133333
go abed 0.2000000
go nay 0.0060976
go be 0.0098099
go away 0.1374046
go separated 0.1111111
go undertake 0.0909091
go NULL 0.0023526
go needs 0.0566038
go hasten 0.1250000
go therefore 0.0192308
go words 0.0102041
go use 0.0119048
go bring 0.0145985
go say 0.0056180
go counsel 0.0540541
go call 0.0057143
go saved 0.0952381
go hunt 0.2000000
go billeted 0.2000000
go return 0.1296296
go question 0.0204082
go prevailed 0.1250000
go disperse 0.2500000
go speedy 0.1176471
go retire 0.1000000
go air 0.0208333
go decius 0.0909091
go somewhere 0.2500000
go sleep 0.0108696
go seek 0.0285714
unaware wrong 0.0104167
unaware NULL 0.0000444
unaware knowledge 0.0294118
unaware imaginations 1.0000000
unaware woes 0.1250000
unaware by 0.0012920
toasts drinking 0.0833333
toasts with 0.0006901
toasts healths 0.2500000
brilliant most 0.0030211
brilliant gull-catcher 0.2500000
brilliant exquisite 0.2222222
brilliant my 0.0006504
coroner let 0.0015175
dish dish 0.6000000
dish again 0.0052083
tree when 0.0022727
tree tree 0.7333333
tree NULL 0.0000444
tree may 0.0028169
tree pine 0.1818182
tree cessez 0.5000000
tree well 0.0013387
tree oak 0.2500000
emperor emperor 0.6666667
emperor imperious 0.2500000
emperor continues 0.2500000
emperor leather 0.2000000
emperor s 0.0006386
third snaffle 0.5000000
third tertio 1.0000000
third part 0.0163934
third third 0.5000000
third pays 0.1666667
superseded way 0.0063694
superseded may 0.0028169
superseded give 0.0026525
superseded enmities 0.2000000
profound right 0.0114943
imperfections out 0.0030581
imperfections piece 0.0434783
imperfections ill-well 0.1666667
imperfections imperfections 0.2000000
imperfections with 0.0006901
folks bedfellows 0.1666667
folks quick-witted 0.5000000
folks folks 0.5000000
govern in 0.0004444
govern nonage 0.1666667
govern rules 0.1666667
defy defy 0.0909091
defy fear 0.0040161
defy for 0.0005858
defy brave 0.0250000
defy her 0.0011416
route pursuit 0.5000000
route way 0.0063694
route from 0.0017921
route hide 0.0434783
route shorter 0.2000000
route us 0.0023697
route safest 0.1428571
disease the 0.0003660
disease owner 0.2000000
disease upon 0.0023474
disease ague 0.1250000
disease which 0.0024155
disease infectious 0.2000000
disease s 0.0012771
disease disease 0.8333333
disease ’ 0.0006435
disease pestilence 0.2500000
disease thee 0.0012500
disease imminent 0.2000000
disease falling 0.0769231
tortures to 0.0002554
tortures pinched 0.1666667
tortures be 0.0006131
tortures death 0.0058824
tortures torture 0.1428571
cobbler cobbler 0.3333333
thunder all-shaking 0.5000000
thunder smite 0.5000000
thunder bellyful 0.5000000
thunder thunder 0.4285714
stole stolen 0.0833333
stole hast 0.0066667
stole NULL 0.0000888
stole took 0.0512821
stole dear 0.0067114
stole got 0.0384615
stole lapsèd 1.0000000
stole in 0.0008889
stole usurp 0.1666667
stole stole 0.3333333
stole didst 0.0138889
stole usurped 0.3333333
accused upon 0.0023474
accused wronged 0.0500000
accused accused 0.4000000
accused itching 0.1428571
accused belied 0.1428571
accused cause 0.0096154
accused accusers 0.3333333
unbelievable blood 0.0088496
unbelievable breath 0.0238095
unbelievable wonderful 0.1052632
unbelievable most 0.0030211
unbelievable rarity 0.5000000
unbelievable rarities 0.5000000
unbelievable vouched 0.5000000
unbelievable many 0.0091743
unbelievable and 0.0002047
behind left 0.0161290
behind behind 0.6000000
behind leaves 0.0909091
behind wood 0.0285714
behind NULL 0.0000888
behind all 0.0011947
behind find 0.0075188
behind pool 0.5000000
behind him 0.0016434
behind in 0.0004444
behind before 0.0055249
behind out 0.0030581
behind back 0.0123457
behind cunning 0.0384615
behind gifts 0.1000000
behind hand 0.0052356
behind driven 0.5000000
behind why 0.0020450
behind boxtree 0.2000000
behind leave 0.0047847
behind practices 0.2500000
hysterically be 0.0006131
hysterically laughable 0.1428571
bad corruption 0.1111111
bad checks 0.2500000
bad that 0.0003951
bad untimely 0.1000000
bad portents 0.3333333
bad exclaim 0.1000000
bad fortune 0.0208333
bad witless 0.2500000
bad him 0.0016434
bad race 0.1000000
bad foul 0.0634921
bad shapes 0.1250000
bad monstrous 0.0500000
bad lest 0.0243902
bad obstruction 0.1250000
bad tell 0.0030675
bad hard 0.0175439
bad steps 0.1428571
bad of 0.0006339
bad moody 0.1428571
bad pity 0.0434783
bad color 0.0434783
bad bad 0.5000000
bad extremely 1.0000000
bad oh 0.0039683
bad takes 0.0625000
bad from 0.0035842
bad tales 0.0909091
bad costs 0.1666667
bad wretched 0.0434783
bad faults 0.0500000
bad michael 0.1000000
bad man 0.0019305
bad thou 0.0007513
bad governed 0.1000000
bad the 0.0003660
bad sermons 0.1428571
bad fright 0.0909091
bad disturbèd 0.3333333
bad might 0.0085470
bad 'en 0.0370370
bad wrong 0.0208333
bad success 0.0833333
bad sorrows 0.0588235
bad alas 0.0256410
bad predictions 0.3333333
bad else 0.0086207
bad ill 0.1639344
bad their 0.0025773
bad grossly 0.0714286
bad such 0.0060976
bad shoes 0.0909091
bad thick 0.0769231
bad miscarry 0.1250000
bad NULL 0.0008434
bad sultry 0.1428571
bad harmed 0.2500000
bad heels 0.0500000
bad knavish 1.0000000
bad papers 0.1250000
bad lamented 0.2000000
bad totters 0.2500000
bad together 0.0144928
bad sky 0.1111111
bad fortunes 0.0526316
bad naught 0.0400000
bad rush 0.2000000
bad lives 0.0133333
bad marred 0.1111111
bad while 0.0144928
bad dishonor 0.0625000
bad tale 0.0285714
occasion mortal-staring 1.0000000
occasion bids 0.0588235
occasion time 0.0039062
occasion occasion 0.0434783
occasion war 0.0322581
occasion season 0.0500000
ashes for 0.0005858
ashes burièd 0.3333333
ashes dust 0.1428571
ashes sport 0.0250000
something you 0.0010376
something not 0.0011312
something employed 0.1250000
something that 0.0031608
something see 0.0026042
something save 0.0425532
something peculiar 0.5000000
something dross 0.3333333
something what 0.0038314
something laughable 0.1428571
something greek 0.1666667
something trash 0.0909091
something ought 0.1250000
something falsing 0.2000000
something again 0.0052083
something some 0.0117994
something promise 0.0200000
something leave 0.0047847
something is 0.0003794
something all 0.0011947
something color 0.0434783
something aught 0.0322581
something will 0.0011574
something teach 0.0312500
something something 0.4074074
something sparks 0.1666667
something poise 0.3333333
something cozen 0.2000000
something readiest 0.2500000
something remembered 0.0625000
something now 0.0012136
something thou 0.0007513
something speak 0.0307329
something a 0.0020408
something pay 0.0303030
something yet 0.0055556
something neck 0.0588235
something amends 0.0454545
something spheres 0.1111111
something compulsatory 0.1428571
something might 0.0256410
something clothes 0.3333333
something transgresses 0.2500000
something deed 0.0208333
something so 0.0007435
something sterling 0.5000000
something wench 0.0500000
something ignorant 0.3333333
something hideous 0.1666667
something word 0.0144928
something dismal 0.1428571
something be 0.0006131
something lined 0.1666667
something NULL 0.0010653
something : 0.0075758
something trick 0.0625000
something angry 0.0294118
something means 0.0121951
something nearly 0.1250000
something discern 0.2000000
something spoke 0.0212766
something seriously 0.1666667
something note 0.0294118
something smell 0.0625000
something question 0.0204082
something commits 0.2500000
something positively 0.1666667
something amend 0.2000000
something thing 0.0229885
oats oats 0.2857143
gall dare 0.0149254
pulling germane 0.5000000
pulling would 0.0014144
pulling we 0.0011442
pulling pulling 1.0000000
pulling if 0.0012165
pulling to 0.0002554
pulling matter 0.0068966
pulling be 0.0006131
pulling ravish 1.0000000
pulling phrase 0.2000000
pulling more 0.0017483
eloquence utterance 0.1250000
eloquence eloquence 1.0000000
hot a 0.0003401
hot sultry 0.1428571
hot are 0.0010515
hot chastity 0.1111111
hot treason 0.0400000
hot scotch 0.2500000
hot in 0.0004444
hot pitch 0.1666667
hot ginger 0.2000000
hot southwest 0.2500000
hot snow 0.0909091
hot heat 0.0909091
hot over-earnest 0.5000000
hot little 0.0074074
hot snuff 0.5000000
hot hot 0.4000000
hot choleric 0.0666667
horrible , 0.0000581
horrible fore-vouched 1.0000000
horrible liberal 0.1250000
horrible or 0.0021413
horrible loathèd 0.5000000
horrible unnatural 0.0714286
horrible terrible 0.1111111
horrible dreaded 0.5000000
horrible alas 0.0128205
horrible foul 0.0634921
horrible plagues 0.5000000
horrible hideous 0.1666667
horrible monstrous 0.2500000
horrible horrid 0.1250000
horrible dismal 0.2857143
horrible your 0.0006094
horrible counselor 0.5000000
horrible and 0.0008187
horrible unhappy 0.1250000
horrible affection 0.0285714
horrible most 0.0120846
horrible NULL 0.0000444
horrible conceit 0.0714286
horrible oh 0.0039683
horrible fall 0.0123457
horrible fantasies 0.2000000
horrible woe 0.0740741
horrible profane 0.2500000
horrible tormenting 0.5000000
horrible sets 0.1666667
horrible vile 0.0370370
horrible horrible 0.4444444
beams beams 0.2000000
hardships once 0.0108696
belong hers 0.0500000
belong been 0.0061728
belong has 0.0103093
belong slave 0.0222222
belong are 0.0010515
belong thine 0.0112360
character to 0.0005107
character as 0.0016793
character soto 0.1428571
character honesty 0.0344828
character nature 0.0128205
behaved unfitness 0.5000000
behaved ' 0.0016051
behaved th 0.0035336
enter NULL 0.0000444
enter in 0.0004444
enter intermingle 0.3333333
enter at 0.0018484
enter st 0.0045455
enter ’ 0.0003218
enter com 0.3333333
enter go 0.0034305
enter enter 0.1190476
foreign the 0.0001830
foreign fight 0.0204082
foreign tributaries 0.2500000
foreign foreign 0.1666667
foreign to 0.0002554
foreign be 0.0006131
foreign scythian 0.2500000
foreign alien 0.3333333
foreign armèd 0.2000000
unfair NULL 0.0000444
unfair false 0.0144928
unfair you 0.0002594
unfair not 0.0002828
unfair are 0.0010515
unfair as 0.0008396
unfair nor 0.0044248
unfair unmerciful 1.0000000
unfair bondmaid 0.5000000
tolerate lordship 0.0204082
tolerate receive 0.0333333
tolerate brook 0.0909091
tolerate imprisonment 0.3333333
tolerate brooked 0.1666667
tolerate patiently 0.0909091
closely mark 0.0120482
closely well 0.0013387
closely close 0.0434783
closely swashers 0.5000000
closely NULL 0.0000444
closely pry 0.1250000
closely heedful 0.5000000
closely note 0.0294118
pembroke pembroke 0.5000000
age prop 0.1428571
age NULL 0.0000444
age devour 0.2000000
age years 0.0652174
age time 0.0039062
age them 0.0023981
age age 0.3518519
plain plain 0.1944444
plain NULL 0.0000444
plain discommend 0.3333333
plain other 0.0070423
plain gross 0.0769231
plain uncoined 1.0000000
lions lions 0.7500000
lions rather 0.0109890
lions NULL 0.0000444
lions frame 0.1111111
lions beasts 0.0909091
bleeding bleeding 0.2500000
bleeding bleed 0.1538462
bleeding sides 0.0625000
bleeding apace 0.1250000
bleeding . 0.0000680
bleeding sir 0.0014925
bleeding with 0.0006901
cure recover 0.1818182
cure remedy 0.0800000
cure do 0.0008726
cure physic 0.1111111
cure take 0.0031546
cure thee 0.0025000
cure charm 0.0625000
cure good 0.0012225
cure cure 0.1764706
cure give 0.0026525
loving so 0.0007435
loving die 0.0076923
loving obedience 0.1250000
loving surfeiting 0.5000000
loving nuptial 0.1428571
loving sisters 0.0454545
loving to 0.0010215
loving loving 0.4705882
loving long 0.0072464
loving love 0.0097656
loving lovely 0.0769231
loving lost 0.0121951
loving loves 0.0161290
higher thee 0.0012500
higher better 0.0053763
higher mounted 0.3333333
higher higher 0.3000000
hug as 0.0008396
rouse variance 0.1250000
rouse their 0.0025773
rouse bosom 0.0357143
results success 0.0833333
results ends 0.0769231
tenants tenants 1.0000000
wreath garland 0.7500000
wreath wreath 0.2000000
wreath take 0.0031546
late the 0.0001830
late hour 0.0208333
late NULL 0.0000444
late steals 0.1000000
late into 0.0066667
late d 0.0238095
late my 0.0003252
late late 0.2600000
late far 0.0178571
late repents 0.3333333
late on 0.0014620
late past 0.0357143
late ! 0.0005714
late once 0.0108696
late tardy 0.1000000
late morning 0.0227273
late rather 0.0109890
late wait 0.0588235
late crept 0.1111111
late lated 0.2000000
late approach 0.0384615
late too 0.0104530
late promise 0.0200000
turk turk 0.1250000
turk turbaned 0.5000000
turk state 0.0196078
experiences NULL 0.0000444
foot trod 0.1000000
foot foot 0.3636364
foot horse 0.0131579
stored dalliance 0.1250000
christian humility 0.1666667
christian casements 0.2000000
christian christian 0.5517241
christian burial 0.1250000
comets seen 0.0156250
comets comets 0.2500000
plan law 0.0232558
plan way 0.0127389
plan heed 0.0769231
plan likeness 0.1111111
plan cannot 0.0023310
plan preparèd 0.1666667
plan on 0.0014620
plan practice 0.0370370
plan sharp 0.0769231
plan business 0.0238095
plan drift 0.2000000
plan t 0.0026954
plan course 0.0270270
plan night 0.0052632
plan schoolmasters 0.2500000
plan haggard 0.3333333
plan determinèd 0.5000000
plan villainy 0.0625000
plan athenian 0.1250000
plan story 0.0689655
plan herein 0.0833333
plan NULL 0.0001776
plan wrestling 0.2000000
plan conceit 0.0714286
plan is 0.0007587
plan ’ 0.0003218
plan intend 0.0416667
plan direction 0.0833333
plan good 0.0012225
plan us 0.0023697
plan bassanio 0.0434783
plan unfold 0.0714286
plan make 0.0025445
plan devised 0.1250000
plan it 0.0010025
plan part 0.0081967
plan determine 0.0769231
plan can 0.0036630
plan mean 0.0341880
plan device 0.1428571
plan pursue 0.0714286
plan then 0.0016892
plan practices 0.2500000
plan consent 0.0434783
offends wrong 0.0104167
offends wrongs 0.0769231
endanger pin 0.3333333
endanger life 0.0058824
conquered erthrown 0.5000000
conquered NULL 0.0000444
conquered conquered 0.2500000
charter upon 0.0023474
charter charter 0.3333333
charter your 0.0006094
charter light 0.0156250
charter danger 0.0434783
ecstatic exchange 0.1111111
devours on 0.0014620
devours feeds 0.2000000
bluntness bluntness 0.3333333
artfully cover 0.0909091
artfully withal 0.0208333
spineless waterish 0.2000000
syracusians by 0.0012920
mangled mangling 1.0000000
mangled splitted 1.0000000
knife lucrece 1.0000000
knife knife 0.4545455
husband husbands 0.0555556
husband NULL 0.0002663
husband husbanded 0.3333333
husband woes 0.1250000
husband him 0.0016434
husband husband 0.7978723
husband sir 0.0014925
husband hast 0.0066667
husband he 0.0005924
husband working 0.1666667
husband difference 0.0555556
husband lord 0.0202703
husband plight 0.5000000
husband one 0.0047733
husband hornmaker 0.2000000
husband obey 0.0188679
husband creditor 0.1666667
blanch blanch 1.0000000
hasty longer 0.0294118
hasty a 0.0003401
hasty salved 0.5000000
hasty unheedy 0.5000000
hasty quick 0.0370370
greets doth 0.0055866
greets greeting 0.1428571
greets salute 0.1428571
greets sends 0.0769231
distasteful mirth 0.0666667
distasteful of 0.0003170
distasteful despite 0.0454545
immature these 0.0036364
immature raw 0.1111111
turquoise turquoise 0.5000000
phoebe-ing phoebes 0.3333333
chime you 0.0002594
chime in 0.0004444
chime put 0.0070922
chime mind 0.0092593
sweetness honey-heavy 1.0000000
sweetness galls 0.2000000
sweetness sermons 0.1428571
sweetness paramour 0.2000000
sweetness dew 0.1428571
gets wood 0.0285714
gets rise 0.0344828
gets NULL 0.0000888
gets begins 0.0434783
gets is 0.0003794
gets ’ 0.0003218
gets strength 0.0434783
gets deck 0.2000000
gets riseth 0.5000000
gets undertaker 0.1428571
gets destroy 0.1111111
gets escapes 0.3333333
gets increaseth 0.2500000
gets quit 0.0909091
gets win 0.0400000
gets s 0.0006386
gets birnam 0.1428571
gets mingled 0.2000000
gets totally 0.2000000
gets with 0.0006901
gets shows 0.0500000
gets itself 0.0161290
gets entangles 0.2000000
gets consume 0.1111111
groan groaning 0.2500000
groan tearing 0.2000000
groan groan 0.2857143
defended poured 0.2500000
criminal the 0.0003660
criminal malefactor 1.0000000
criminal commonwealth 0.2000000
criminal knave 0.0200000
criminal NULL 0.0000444
criminal cozener 0.2500000
criminal are 0.0010515
criminal all 0.0011947
criminal offenders 0.2000000
criminal villain 0.0104167
criminal try 0.0303030
criminal knaves 0.0833333
criminal villainy 0.0625000
criminal transgression 0.2000000
criminal arrant 0.0500000
right haste-post-haste 0.2500000
right you 0.0005188
right laertes 0.1176471
right form 0.0714286
right come 0.0012610
right instant 0.0400000
right pit 0.1000000
right vein 0.0909091
right wise 0.0196078
right perigouna 0.5000000
right beggar 0.0476190
right persuasion 0.1250000
right fit 0.0888889
right profoundest 0.5000000
right spirit 0.0116279
right wit 0.0138889
right vulture 0.5000000
right your 0.0012188
right and 0.0014327
right pat 0.2000000
right hope 0.0096154
right true 0.0263158
right briefly 0.0588235
right is 0.0011381
right she 0.0016722
right have 0.0006460
right husband 0.0106383
right think 0.0055866
right knocks 0.1000000
right commission 0.0555556
right said 0.0169492
right competent 0.3333333
right it 0.0040100
right constellation 0.2000000
right persever 0.2500000
right right 0.1839080
right talk 0.0138889
right charge 0.0175439
right haste 0.0204082
right a 0.0003401
right straightway 0.1428571
right — 0.0010504
right redress 0.3333333
right honesty 0.0344828
right attractive 0.1428571
right fitted 0.1111111
right in 0.0004444
right stand 0.0145985
right teaches 0.1428571
right very 0.0116732
right me 0.0009579
right furnished 0.1666667
right presently 0.1400000
right caesar 0.0037736
right certainer 0.5000000
right word 0.0072464
right twelve 0.0500000
right upright 0.2500000
right hit 0.0625000
right solemnized 0.2000000
right ditty 0.2500000
right tis 0.0018083
right council 0.0769231
right forgive 0.0357143
right aimed 0.2000000
right rich 0.0400000
right horatio 0.0454545
right implacable 0.1428571
right collied 1.0000000
right i 0.0005057
right punish 0.1111111
right demeanor 0.1428571
right heart 0.0044248
right accept 0.2500000
right go 0.0051458
right there 0.0034247
right well 0.0401606
right thing 0.0114943
right why 0.0040900
right happy 0.0307692
right yes 0.0175439
right lies 0.0144928
right contents 0.0625000
right secure 0.1250000
right , 0.0013935
right not 0.0011312
right on 0.0014620
right matter 0.0137931
right scope 0.1666667
right out 0.0061162
right govern 0.1111111
right thence 0.0416667
right smites 0.2500000
right acquaintance 0.0263158
right one 0.0023866
right softly 0.0526316
right fished 0.1666667
right with 0.0006901
right suddenly 0.0909091
right leave 0.0047847
right season 0.1000000
right goes 0.0135135
right meet 0.0235294
right earthly 0.0666667
right do 0.0008726
right imperial 0.1000000
right durst 0.0434783
right certain 0.0140845
right to 0.0020429
right indeed 0.0062893
right brooch 0.1428571
right home 0.0095238
right spite 0.0476190
right forthwith 0.1666667
right invisible 0.0588235
right any 0.0051813
right directly 0.0625000
right now 0.0121359
right respect 0.0256410
right ' 0.0048154
right backs 0.2500000
right spoken 0.0869565
right the 0.0009149
right done 0.0089286
right supposition 0.2500000
right lecher 0.1666667
right or 0.0021413
right wits 0.0344828
right this 0.0026882
right t 0.0026954
right th 0.0035336
right so 0.0089219
right told 0.0123457
right enough 0.0185185
right for 0.0011716
right carefully 0.1428571
right wench 0.0500000
right event 0.0833333
right ursula 0.1250000
right doth 0.0111732
right be 0.0018394
right most 0.0030211
right NULL 0.0021751
right even 0.0413793
right elbow 0.2000000
right young 0.0100000
right straight 0.1951220
right bring 0.0072993
right at 0.0036969
right grizzled 0.5000000
right stop 0.0370370
right admittance 0.1000000
right masterly 0.3333333
right he 0.0005924
right hearing 0.0434783
right was 0.0019646
right prevailed 0.1250000
right mend 0.0322581
right air 0.0208333
devastating the 0.0003660
devastating earth 0.0175439
devastating terrors 1.0000000
necessary answerable 0.3333333
necessary wars 0.0322581
necessary further 0.0156250
necessary need 0.0153846
necessary no 0.0009940
necessary ” 0.0034014
necessary go 0.0017153
protecting those 0.0099010
protecting of 0.0003170
protecting seemed 0.0833333
withdrawing reprieve 0.2500000
withdrawing of 0.0003170
withdrawing thy 0.0013316
withdrawing token 0.0434783
doorway door 0.0357143
doorway chamber 0.0270270
monsieur good 0.0012225
monsieur monsieur 0.5909091
unclean uncleanly 0.2500000
reacts takes 0.0625000
ho madam 0.0053476
ho it 0.0005013
ho common 0.0312500
ho is 0.0003794
ho ho 0.0684932
excavators given 0.0200000
excavators pioneers 0.2000000
excavators 'er 0.0119048
excavators o 0.0016863
light-hearted jocund 0.1666667
hawk argus 0.5000000
tail horse-tail 0.5000000
tail tail 0.7142857
tail bobtail 0.2500000
blatant uncovered 1.0000000
extent a 0.0003401
extent ll 0.0016129
extent bourn 0.1000000
extent set 0.0107527
heirs heirs 0.2500000
heirs succeeders 1.0000000
ours NULL 0.0000444
ours ours 0.1666667
ours we 0.0011442
ours countermines 1.0000000
ours demands 0.1666667
ours in 0.0004444
ours us 0.0023697
ours his 0.0007949
ours unarmed 0.1428571
fix pheeze 1.0000000
fix make 0.0025445
fix lies 0.0144928
fix of 0.0003170
fix device 0.0714286
fix well 0.0013387
fix mend 0.0967742
fix in 0.0004444
fix become 0.0263158
chilly cold 0.0465116
chilly unwilling 0.2000000
chilly a- 0.5000000
chilly icy 1.0000000
chilly a-cold 1.0000000
booze well 0.0013387
booze spade 0.1428571
booze drink 0.0166667
sick grievous 0.1111111
sick toys 0.2500000
sick NULL 0.0000888
sick remediate 0.2500000
sick almost 0.0208333
sick not 0.0002828
sick sicken 0.2857143
sick midwife 0.5000000
sick pale 0.0645161
sick horses 0.0588235
sick brutus 0.0095238
sick am 0.0032967
sick i 0.0001686
sick wether 0.2000000
sick odious 0.5000000
sick when 0.0045455
sick health 0.0454545
sick fed 0.1666667
sick abhor 0.1428571
sick well 0.0026774
sick ill 0.0491803
sick sick 0.6739130
sick infirm 0.3333333
sick sickly 0.2000000
four upon 0.0023474
four steep 0.1000000
four months 0.0769231
four four 0.8709677
introduce make 0.0025445
introduce friends 0.0074074
introduce present 0.0208333
introduce welcome 0.0077519
introduce give 0.0026525
exeter exeter 1.0000000
upkeep house 0.0082645
upkeep doth 0.0055866
upkeep prop 0.1428571
upkeep my 0.0003252
upkeep sustain 0.1428571
upkeep that 0.0003951
verse groans 0.2000000
verse you 0.0002594
verse ll 0.0016129
verse verse 0.0909091
verse chapter 0.3333333
verse give 0.0026525
fire the 0.0001830
fire corruption 0.1111111
fire sword 0.0125000
fire prodigal 0.2000000
fire a 0.0006803
fire stellèd 0.5000000
fire NULL 0.0000888
fire place 0.0102041
fire , 0.0000581
fire houses 0.2000000
fire in 0.0004444
fire fire 0.4925373
fire smother 0.1428571
fire how 0.0017953
fire babe 0.2000000
fire there 0.0017123
fire blood 0.0088496
fire burns 0.1000000
extol on 0.0014620
extol deserved 0.0400000
extol vary 1.0000000
extol praise 0.0250000
fills washes 1.0000000
fills all 0.0011947
fills pale 0.0322581
honors NULL 0.0000444
honors glories 0.1666667
honors that 0.0003951
honors honors 0.0909091
attend the 0.0001830
attend majesties 0.1666667
attend hear 0.0028902
attend see 0.0026042
attend on 0.0043860
attend abode 0.1428571
attend matter 0.0068966
attend your 0.0006094
attend attend 0.0697674
attend depends 0.2500000
reynaldo reynaldo 1.0000000
four-day will 0.0005787
four-day peat 0.2000000
four-day i 0.0001686
weathered upon 0.0023474
weathered fortune 0.0104167
weathered harsh 0.0909091
weathered what 0.0007663
weathered know 0.0016584
weathered not 0.0002828
weathered counts 1.0000000
weathered casts 0.2500000
meat shambles 0.2000000
meat meat 0.1428571
forgets capilet 0.1666667
graceful renown 0.1666667
graceful less 0.0232558
graceful knowledge 0.0294118
graceful your 0.0012188
graceful grace 0.0060606
graceful graceful 0.5000000
affected the 0.0001830
affected NULL 0.0000444
affected taint 0.1428571
affected never 0.0036364
experience grows 0.0285714
experience of 0.0003170
experience taste 0.0400000
experience custom 0.0714286
experience experience 0.2727273
experience never 0.0036364
individual and 0.0002047
daydream flatt 0.5000000
daydream dream 0.0212766
daydream 'ring 0.1250000
apology reconcilement 0.2500000
escapes scape 0.1818182
escapes ’ 0.0006435
topic argument 0.0500000
topic sin 0.0344828
topic nation 0.1000000
topic holds 0.0400000
topic it 0.0005013
topic controversy 1.0000000
topic no 0.0009940
seller NULL 0.0000444
chained pinioned 0.2500000
chained NULL 0.0000444
chained at 0.0018484
loans made 0.0061350
loans moan 0.1111111
loans me 0.0004789
loans at 0.0018484
loans times 0.0227273
sores sapphires 0.5000000
sores declining 0.5000000
sores carbuncles 1.0000000
decayed decayèd 0.5000000
blast large 0.1111111
blast a 0.0003401
blast fuller 0.3333333
blast charter 0.3333333
blast methinks 0.0142857
wine want 0.0869565
wine stoup 0.2500000
wine bottle 0.2500000
wine cup 0.0625000
wine NULL 0.0000888
wine of 0.0006339
wine exclaim 0.1000000
wine ho 0.0136986
wine if 0.0012165
wine wine 0.7096774
wine sop 0.1428571
wine alms-drink 0.1250000
wine malmsey 1.0000000
wine ' 0.0016051
wine pox 0.1000000
wine some 0.0029499
wine o 0.0016863
purchased a 0.0003401
purchased bloody 0.0175439
purchased spoil 0.1250000
luck steps 0.1428571
luck luck 0.8750000
luck NULL 0.0000444
luck most 0.0030211
luck you 0.0012970
luck heels 0.0500000
luck sermons 0.1428571
luck take 0.0031546
luck grow 0.0344828
luck fortune 0.2187500
luck objects 0.5000000
luck speed 0.0384615
luck at 0.0018484
luck thy 0.0013316
luck happiness 0.0454545
luck fortunes 0.0526316
luck success 0.0833333
luck out 0.0030581
luck fare 0.0655738
luck hap 0.1428571
luck may 0.0028169
luck waist 0.1428571
luck higher 0.1000000
luck grace 0.0060606
luck s 0.0006386
luck go 0.0017153
luck fortunate 0.1250000
luck be 0.0006131
luck happy 0.0307692
luck with 0.0013803
handkerchief forgot 0.0500000
handkerchief gladly 0.3333333
handkerchief even 0.0068966
handkerchief it 0.0005013
handkerchief most 0.0030211
handkerchief handkerchief 0.8076923
handkerchief that 0.0011853
handkerchief same 0.0344828
handkerchief by 0.0012920
handkerchief was 0.0019646
handkerchief now 0.0012136
handkerchief have 0.0006460
handkerchief napkin 0.6000000
handkerchief handkercher 1.0000000
witnesses attent 0.5000000
witnesses NULL 0.0000444
witnesses witnesses 0.5000000
witnesses ear 0.0188679
witnesses an 0.0025907
desired desired 0.1000000
imperial type 0.5000000
imperial imperial 0.4000000
risen the 0.0001830
risen ascended 0.2500000
risen buoyed 1.0000000
risen of 0.0003170
risen roof 0.1250000
risen writ 0.0476190
listened NULL 0.0000444
listened importuned 0.3333333
listened great 0.0055249
prudish nice 0.1818182
hair combed 0.3333333
hair hairs 0.0714286
hair they 0.0017422
hair it 0.0005013
hair NULL 0.0002219
hair very 0.0038911
hair them 0.0023981
hair becomes 0.0555556
hair flakes 0.2000000
hair hair 0.7857143
reared beauteous 0.1250000
strive tinctures 0.5000000
strive for 0.0005858
strive press 0.0625000
tie tied 0.1000000
tie bound 0.0392157
tie enforce 0.3333333
tie pinion 0.5000000
tie bind 0.3750000
tie fast 0.0322581
tie hard 0.0175439
enjoys of 0.0003170
enjoys joy 0.0256410
mistreat wrong 0.0104167
mercury NULL 0.0000444
thriving thriving 0.2500000
firebrands firebrands 0.3333333
firebrands ho 0.0136986
firebrands brands 0.3333333
amble withal 0.0208333
amble ambles 0.1666667
phoebe phoebe 0.9285714
phoebe her 0.0011416
shark usurer 0.2500000
jobs parts 0.0416667
chances made 0.0061350
chances NULL 0.0000444
chances may 0.0028169
chances thrive 0.0833333
chances as 0.0008396
chances chance 0.0500000
chances shall 0.0010373
chances unto 0.0091743
chances be 0.0006131
chances deceived 0.0312500
chances hazard 0.0625000
chances likelihood 0.2500000
chances i 0.0003372
achieves darkens 0.2500000
achieves which 0.0024155
achieves gain 0.0909091
achieves loss 0.0333333
achieves than 0.0026810
blocking intercepts 0.2500000
blocking my 0.0003252
blocking expedition 0.1250000
humid rheumy 1.0000000
humid NULL 0.0000444
humid — 0.0010504
humid sultry 0.2857143
humid dare 0.0149254
humid vile 0.0370370
humid as 0.0008396
humid contagion 0.5000000
haunt haunts 0.1250000
calculate scribes 1.0000000
shoot waste 0.1250000
shoot made 0.0061350
shoot shoot 0.2500000
shoot a 0.0003401
leading lead 0.0166667
leading leading 0.1666667
leading NULL 0.0000888
leading bring 0.0072993
leading of 0.0003170
leading conductor 1.0000000
leading officer 0.0625000
hymen hymen 0.5000000
abused misused 0.2000000
abused it 0.0010025
abused abuse 0.1000000
abused did 0.0022472
abused ourself 0.0769231
abused was 0.0019646
abused thou 0.0007513
abused deserve 0.0588235
abused didst 0.0138889
ruthless stony 0.5000000
ruthless piteous 0.2000000
ruthless arch 0.5000000
ruthless adversary 0.2000000
ruthless deed 0.0208333
virtuous fair 0.0062893
virtuous virtue 0.0526316
virtuous regard 0.0555556
virtuous damnable 0.1428571
virtuous of 0.0003170
virtuous grace 0.0060606
virtuous full 0.0109890
virtuous virtuous 0.4230769
virtuous evidence 0.0769231
advance pleasest 0.2500000
advance how 0.0017953
advance brabant 0.2500000
advance go 0.0017153
advance on 0.0014620
advance march 0.0416667
advance thou 0.0007513
advance away 0.0038168
advance day 0.0056180
advance sonance 0.2500000
advance set 0.0215054
temple naught 0.0400000
temple temple 0.4000000
temple of 0.0003170
temple thing 0.0114943
daybreak yet 0.0027778
daybreak business 0.0119048
daybreak day 0.0112360
foxes foxes 1.0000000
bloodshed bloody 0.0175439
bloodshed constraint 0.3333333
cliff hill 0.0625000
cliff cliff 0.6666667
cliff extreme 0.2500000
cliff NULL 0.0000444
cliff crown 0.0263158
cliff a-height 0.3333333
cliff same 0.0172414
cliff chalky 0.5000000
cliff bourn 0.1000000
cliff ' 0.0048154
cliff th 0.0035336
cliff o 0.0016863
contradict cross 0.0666667
contradict in 0.0004444
contradict nothing 0.0047847
harsh so 0.0007435
harsh pain 0.0588235
harsh NULL 0.0000888
harsh draw 0.0138889
harsh harsh 0.0909091
harsh rough 0.1538462
harsh bitter 0.0312500
harsh breath 0.0476190
harsh in 0.0004444
harsh shrewd 0.0625000
harsh thy 0.0013316
harsh hard 0.0175439
player merèd 0.2500000
engulfing the 0.0001830
engulfing poring 0.5000000
trapped web 0.1666667
trapped when 0.0022727
trapped confined 0.0909091
trapped caught 0.1111111
trapped one 0.0023866
trapped has 0.0103093
trapped her 0.0011416
action course 0.0270270
action cowards 0.0833333
action wrong 0.0104167
action NULL 0.0000888
action word 0.0072464
action redress 0.3333333
ruining in 0.0004444
ruining all 0.0011947
hallucination shadow 0.0588235
shine shine 0.0500000
shine drowsy 0.1000000
shine their 0.0025773
brightly brightly 0.5000000
blustery lusty 0.1000000
shepherdess was 0.0019646
shepherdess his 0.0007949
shepherdess that 0.0003951
shepherdess shepherdess 0.3333333
shepherdess mistress 0.0091743
charles so 0.0007435
charles he 0.0005924
charles clear 0.0769231
charles wrestler 0.2000000
charles served 0.0357143
charles this 0.0006720
charles charles 0.7500000
opponent cope 0.1428571
opponent withal 0.0208333
opponent come 0.0012610
opponent adversary 0.2000000
opponent to 0.0002554
opponent opposite 0.2000000
opponent fatal 0.1000000
opponent i 0.0001686
ireland ireland 0.2857143
slave minion 0.3333333
slave fellow 0.0104167
slave bondman 0.2000000
slave to 0.0002554
slave bondslave 1.0000000
slave thou 0.0007513
slave sake 0.0270270
slave become 0.0263158
slave slave 0.4222222
slave and 0.0002047
slave hence 0.0076336
slave wheel 0.1666667
stubbornest stubbornest 1.0000000
menas menas 0.8750000
bare thee 0.0012500
bare these 0.0036364
bare bare 0.0666667
bare as 0.0008396
bare he 0.0005924
bare anatomize 0.3333333
bare is 0.0003794
sacrificed upon 0.0023474
sacrificed such 0.0030488
sacrificed offering 0.2500000
sacrificed sacrifices 0.3333333
lawfully NULL 0.0000888
lawfully claim 0.0500000
lord shine 0.0500000
lord duteous 0.3333333
lord my 0.0003252
lord jupiter 0.1111111
lord appears 0.0416667
lord charles 0.1250000
lord gracious 0.0222222
lord rougemont 0.2500000
lord swear 0.0128205
lord him 0.0008217
lord sir 0.0014925
lord alas 0.0128205
lord honored 0.0588235
lord lord 0.7135135
lord tell 0.0030675
lord burgundy 0.0476190
lord noon 0.1111111
lord none 0.0046729
lord NULL 0.0004883
lord havior 0.1250000
lord same 0.0172414
lord is 0.0003794
lord heavens 0.0200000
lord good 0.0195599
lord boys 0.1538462
lord loving 0.0588235
lord unrespective 0.5000000
lord lordship 0.1632653
lord master 0.0107527
lord pudding 0.2500000
lord grace 0.0060606
lord thane 0.0769231
lord liege 0.3142857
lord salerio 0.5000000
wanting noble 0.0074627
surprised NULL 0.0000444
surprised wonder 0.0175439
surprised marvel 0.1666667
surprised why 0.0020450
surprised answered 0.0303030
outstay the 0.0001830
outstay time 0.0039062
outstay outstay 0.3333333
possessions movables 0.6666667
possessions which 0.0024155
possessions spoiled 0.1666667
possessions goods 0.1428571
possessions my 0.0003252
possessions whereof 0.0909091
possessions moveables 0.5000000
challenger the 0.0001830
challenger challenger 0.5000000
elderly reverend 0.1428571
widespread thought 0.0101010
widespread abroad 0.0526316
advocate shall 0.0010373
advocate cassio 0.0106383
advocate for 0.0005858
advocate merry 0.0178571
advocate be 0.0006131
advocate therefore 0.0048077
advocate solicitor 0.2500000
overactive compact 0.0833333
overactive of 0.0003170
overactive imagination 0.0625000
overactive all 0.0011947
act NULL 0.0003551
act both 0.0062500
act bearing 0.0909091
act that 0.0007902
act familiarly 0.3333333
act deal 0.0588235
act turn 0.0128205
act tricks 0.0909091
act his 0.0015898
act act 0.2500000
act equal 0.1250000
act serve 0.0147059
act fruits 0.1000000
act make 0.0025445
act allay 0.1250000
act may 0.0028169
act decays 0.1428571
act consciences 0.2500000
act teachest 0.2000000
act be 0.0030656
act your 0.0018282
act plot 0.1428571
act housewives 0.3333333
act such 0.0030488
act action 0.0416667
act amiss 0.0909091
act sheep 0.1666667
act seem 0.0222222
act worm 0.0588235
inventory undone 0.0476190
inventory be 0.0006131
inventory hand 0.0052356
inventory schedules 0.5000000
inventory brief 0.0270270
inventory and 0.0002047
stolen they 0.0017422
stolen stolen 0.0833333
stolen hast 0.0066667
stolen , 0.0000581
stolen 'n 0.0476190
stolen villain 0.0104167
stolen stol 0.0833333
stolen let 0.0015175
stolen him 0.0008217
stolen thou 0.0007513
stolen o 0.0016863
throw unity 0.1428571
throw fling 0.2500000
throw throw 0.3703704
throw cast 0.0303030
throw NULL 0.0001332
throw windows 0.1111111
throw submit 0.3333333
throw sowing 0.5000000
throw all 0.0011947
throw push 0.0833333
throw turn 0.0128205
throw confound 0.2500000
tug hang 0.0250000
exact villain 0.0104167
exact moment 0.1111111
exact just 0.0500000
exact even 0.0068966
exact gait 0.0909091
exact came 0.0103093
recovering recovers 0.3333333
cheek cheek 0.0666667
provide devised 0.1250000
provide for 0.0005858
provide which 0.0024155
provide provision 1.0000000
provide that 0.0003951
provide needful 0.1428571
provide shall 0.0010373
provide from 0.0017921
provide be 0.0012262
supreme dread 0.0909091
watching the 0.0003660
watching are 0.0010515
watching dismay 0.2500000
watching mark 0.0120482
watching at 0.0018484
watching hand 0.0052356
watching behold 0.0212766
watching with 0.0006901
watching actors 0.2500000
appreciated friend 0.0078740
appreciated lucentio 0.0526316
appreciated litio 0.0833333
neighbor neighbor 0.5625000
neighbor your 0.0006094
neighbor us 0.0023697
shelter a 0.0003401
shelter NULL 0.0000888
shelter shelter 1.0000000
shelter hereabouts 0.3333333
shelter case 0.0526316
wheels wheels 0.5000000
mrs. squash 0.3333333
mrs. mistress 0.0091743
mutts spaniels 0.3333333
marketplace marketplace 0.6000000
marketplace me 0.0004789
marketplace s 0.0006386
marketplace ’ 0.0003218
marketplace mart 0.4285714
stack pile 0.3333333
receives him 0.0008217
meat-eating carnal 0.5000000
sisters done 0.0044643
sisters which 0.0024155
sisters poisoned 0.0416667
sisters taking 0.0714286
sisters daughters 0.0344828
sisters sisters 0.3636364
sisters speedy 0.0588235
sisters dog-hearted 0.5000000
thrown counterfeit 0.0500000
thrown pebbles 0.2500000
thrown daffed 0.5000000
thrown cast 0.0303030
thrown clamors 0.1250000
thrown thrown 0.1250000
betting laying 0.3333333
stooped hoop 0.2000000
stooped a 0.0003401
stooped envy 0.1250000
stooped into 0.0066667
stooped s 0.0006386
stooped grown 0.0555556
stooped ’ 0.0003218
stooped who 0.0031746
stooped was 0.0019646
silences find- 0.5000000
downright in 0.0004444
downright than 0.0026810
downright more 0.0017483
downright this 0.0006720
withered barren 0.0555556
withered wanned 0.5000000
withered he 0.0005924
withered corky 0.5000000
withered withered 0.2500000
achievements spoils 0.5000000
achievements achievements 1.0000000
achievements shrunk 0.2500000
understanding thought 0.0101010
understanding understanding 0.1250000
understanding englishwoman 0.3333333
understanding NULL 0.0000444
understanding soldiership 0.1250000
understanding infinite 0.0909091
astonished sorrow 0.0416667
astonished dismay 0.2500000
untied untied 1.0000000
damaged storms 1.0000000
damaged men 0.0048780
damaged make 0.0025445
damaged a 0.0003401
damaged dearth 0.1250000
damaged untimely 0.1000000
damaged expect 0.0625000
damaged wounded 0.0833333
joyful joyful 0.2500000
sharpen these 0.0036364
sharpen drive 0.1000000
sharpen of 0.0003170
sharpen whetstone 1.0000000
spilled must 0.0020661
spilled unjustly 0.2500000
spilled NULL 0.0000444
spilled be 0.0006131
spilled spilt 0.2500000
overwhelmingly like 0.0031056
overwhelmingly overwhelmed 1.0000000
overwhelmingly whose 0.0126582
overwhelmingly mine 0.0034364
overwhelmingly is 0.0003794
overwhelmingly joy 0.0256410
bridle bridled 0.3333333
bridle curb 1.0000000
investment the 0.0001830
investment perish 0.1428571
investment you 0.0002594
investment gain 0.0909091
investment on 0.0014620
investment or 0.0021413
investment seas 0.1000000
investment bring 0.0072993
investment twill 0.0312500
thanes thanes 1.0000000
crazier terms 0.0714286
focused oh 0.0039683
damn a 0.0013605
damn another 0.0102041
damn take 0.0031546
damn beshrew 0.3333333
damn like 0.0031056
damn befall 0.0909091
damn plague 0.1500000
damn t 0.0026954
damn out 0.0030581
damn upon 0.0093897
damn cursed 0.0833333
damn fitchew 0.5000000
damn for 0.0005858
damn zounds 0.2222222
damn sblood 0.1428571
damn vengeance 0.0625000
damn tush 0.0769231
damn fie 0.1481481
damn such 0.0030488
damn away 0.0038168
damn came 0.0103093
damn but 0.0007133
damn damned 0.0263158
damn and 0.0004093
damn fair 0.0062893
damn brimstone 0.2500000
damn goodness 0.0625000
damn up 0.0043668
damn mocking 0.1666667
damn still 0.0081967
damn tis 0.0018083
damn oh 0.0039683
damn swounds 0.5000000
damn fire 0.0149254
damn at 0.0018484
damn crystal 1.0000000
damn ; 0.0032258
damn hang 0.0500000
damn prince 0.0125000
damn treble 0.6666667
damn art 0.0046083
damn thyself 0.0181818
damn damn 0.2000000
damn nothing 0.0047847
league star 0.0833333
fast NULL 0.0001776
fast briefness 0.5000000
fast post 0.0500000
fast safest 0.1428571
fast , 0.0003484
fast all 0.0035842
fast repenting 1.0000000
fast lords 0.0322581
fast good 0.0012225
fast matter 0.0068966
fast speed 0.0769231
fast fleet 0.0526316
fast life 0.0058824
fast make 0.0025445
fast it 0.0005013
fast apace 0.0625000
fast convenient 0.1111111
fast lower 0.3333333
fast nunnery 0.1428571
fast speedy 0.1176471
fast haste 0.0612245
fast asleep 0.0500000
fast swallow 0.1428571
fast fast 0.2258065
fast with 0.0013803
fast hot 0.0400000
torture cunning 0.0384615
torture a 0.0003401
torture what 0.0007663
torture cruelty 0.0769231
torture torment 0.1000000
torture torture 0.1428571
shows payment 0.1428571
shows strained 0.1428571
shows of 0.0003170
shows come 0.0012610
shows yoke 0.1000000
shows indeed 0.0062893
shows unnumbered 0.2500000
shows brooch 0.1428571
shows suspicion 0.0526316
shows quality 0.0454545
shows shows 0.1000000
lucifer lucifer 0.5000000
lucifer still 0.0081967
dare support 0.2500000
dare presume 0.1250000
dare NULL 0.0000888
dare do 0.0008726
dare dare 0.1641791
dare resolve 0.1111111
dare thus 0.0047170
dare durst 0.2173913
dare ’ 0.0009653
dare wilt 0.0113636
dare to 0.0005107
dare am 0.0021978
dare deed 0.0208333
dare undone 0.0952381
dare dar 0.1428571
dare officer 0.0625000
dare thing 0.0114943
dare canst 0.0188679
succeed feet 0.0666667
succeed your 0.0006094
gate gate 0.5789474
gate park 0.3333333
poet poet 0.2500000
brags brags 0.3333333
brags under 0.0185185
brags as 0.0008396
brags privilege 0.0833333
brags age 0.0185185
sincere so 0.0007435
sincere faces 0.0909091
sincere them 0.0023981
sincere true 0.0052632
sincere thrive 0.0833333
sincere truer 0.0909091
sincere badge 0.2000000
sincere arms 0.0322581
concerning in 0.0004444
concerning are 0.0010515
concerning concerning 0.2857143
harassment at 0.0018484
harassment stormèd 0.1111111
emaciated sharp-looking 1.0000000
mischief thwarting 0.2000000
mischief strangely 0.1111111
bigmouth swear 0.0128205
description ears 0.0294118
description his 0.0007949
molten molten 1.0000000
twilight cheering 0.3333333
twilight army 0.0666667
face-up face 0.0105263
face-up upward 0.2000000
face-up ' 0.0016051
face-up is 0.0003794
sicker upon 0.0023474
sicker sickness 0.1578947
sicker grows 0.0285714
sicker unto 0.0091743
sicker me 0.0004789
sicker his 0.0007949
i. here 0.0016863
i. me 0.0004789
i. . 0.0002040
i. too 0.0034843
i. i. 0.0612245
i. i 0.0003372
damned ensnared 0.2500000
damned cursed 0.0833333
damned it 0.0005013
damned unblessed 0.5000000
damned is 0.0003794
damned damnèd 0.2352941
damned well 0.0013387
damned double 0.0588235
damned fall 0.0123457
damned hanged 0.0476190
damned damned 0.2631579
damned o 0.0016863
lysander the 0.0001830
lysander tends 0.2000000
lysander NULL 0.0000444
lysander shield 0.1250000
lysander , 0.0000581
lysander s 0.0006386
lysander blood 0.0088496
lysander good 0.0012225
lysander lysander 0.6250000
lysander whereto 0.2500000
purse my 0.0003252
purse purse 0.1176471
series and 0.0002047
series bills 0.1666667
better-designed better-fashioned 1.0000000
shatter themselves 0.0270270
shatter dash 1.0000000
wedding celebrate 0.2000000
wedding marriage 0.1515152
wedding wedding 0.6153846
wedding NULL 0.0000444
wedding you 0.0005188
wedding posy 0.1666667
wedding ceremony 0.0322581
wedding solemnities 0.2500000
wedding nuptial 0.4285714
wedding hymen 0.5000000
wedding sheets 0.0769231
wedding day 0.0112360
syllable made 0.0061350
syllable between 0.0196078
syllable syllable 0.2000000
syllable jot 0.0666667
syllable them 0.0023981
syllable up 0.0043668
syllable that 0.0003951
syllable breath 0.0238095
purchase purchase 0.0769231
running against 0.0084746
running so 0.0007435
running NULL 0.0000444
running runn 0.5000000
running place 0.0102041
running fly 0.0253165
running kerns 0.1250000
running running 0.3333333
running st 0.0045455
running flight 0.0555556
running run 0.0967742
running heartstrings 0.2500000
running him 0.0008217
running free-footed 0.2500000
running ran 0.1000000
running runs 0.2500000
running this 0.0006720
nervous NULL 0.0000444
nervous thinks 0.0769231
sixpence sixpence 0.1428571
katherina katherina 1.0000000
