'by ||| lakin ||| 1
abate ||| abate ||| 0.417940457405354
abate ||| bate ||| 0.582059542594646
abates ||| bates ||| 0.598701605201621
abates ||| abates ||| 0.401298394798379
abide ||| abide ||| 0.940088299386192
abide ||| abrook ||| 0.0599117006138077
abides ||| abides ||| 1
abiding-place ||| biding ||| 1
absolution ||| shrift ||| 1
abyss ||| abysm ||| 1
accidentally ||| accidentally ||| 0.0952527001691041
accidentally ||| happily ||| 0.904747299830896
accompany ||| accompany ||| 0.346432406148626
accompany ||| consort ||| 0.653567593851374
accompanyed ||| consorted ||| 1
accomplishment ||| accomplishment ||| 0.401298394798379
accomplishment ||| complement ||| 0.598701605201621
accomplishments ||| complements ||| 1
accost ||| accost ||| 0.285005715844559
accost ||| board ||| 0.714994284155441
accosted ||| boarded ||| 0.779119619912717
accosted ||| accosted ||| 0.220880380087283
accosts ||| boards ||| 1
account ||| account ||| 0.5
account ||| render ||| 0.5
accounted ||| rendered ||| 0.2281303086353
accounted ||| accounted ||| 0.7718696913647
accounts ||| renders ||| 0.579623749659462
accounts ||| accounts ||| 0.420376250340538
accruing ||| growing ||| 1
accursed ||| forbid ||| 0.642046568997179
accursed ||| accursed ||| 0.357953431002821
accurseds ||| forbids ||| 1
accusation ||| accusation ||| 0.397032415043054
accusation ||| appeal ||| 0.602967584956946
accusations ||| appeals ||| 0.265456570045247
accusations ||| accusations ||| 0.734543429954753
accuse ||| appeal ||| 0.392702405136842
accuse ||| accuse ||| 0.607297594863158
accuses ||| appeals ||| 0.401298394798379
accuses ||| accuses ||| 0.598701605201621
acknowledge ||| acknowledge ||| 0.0799461622160891
acknowledge ||| know ||| 0.911019389827522
acknowledge ||| agnise ||| 0.00903444795638914
acknowledges ||| knows ||| 1
acquire ||| acquire ||| 0.179479359279021
acquire ||| purchase ||| 0.820520640720979
acquires ||| purchases ||| 1
action ||| action ||| 1
actions ||| actions ||| 1
active ||| quiver ||| 0.267136284724187
active ||| operant ||| 0.198591145827439
active ||| active ||| 0.267136284724187
active ||| tight ||| 0.267136284724187
actives ||| quivers ||| 1
adjure ||| swear ||| 1
adjures ||| swears ||| 1
admonition ||| advertisement ||| 0.649704334130345
admonition ||| admonition ||| 0.350295665869655
advance ||| advance ||| 0.552636770986106
advance ||| propagate ||| 0.0827010033096365
advance ||| coast ||| 0.364662225704258
advances ||| coasts ||| 1
advantage ||| advantage ||| 0.469652685058408
advantage ||| wealth ||| 0.297459476707975
advantage ||| vantage ||| 0.232887838233617
advantages ||| vantages ||| 0.354078596818291
advantages ||| advantages ||| 0.645921403181709
adversary ||| opposite ||| 0.737346753863088
adversary ||| adversary ||| 0.262653246136912
adversarys ||| opposites ||| 1
advisements ||| vizaments ||| 1
advocacy ||| advocation ||| 1
affected ||| pathetical ||| 0.096948046711169
affected ||| affected ||| 0.723239377026025
affected ||| mincing ||| 0.179812576262806
affront ||| affront ||| 0.238211369801534
affront ||| front ||| 0.761788630198466
affronted ||| affronted ||| 0.5
affronted ||| fronted ||| 0.5
affronts ||| fronts ||| 1
afraid ||| afeared ||| 0.0942570733860553
afraid ||| afraid ||| 0.905742926613945
agent ||| broker ||| 0.405176098090832
agent ||| agent ||| 0.405176098090832
agent ||| feeder ||| 0.189647803818335
agents ||| agents ||| 0.400273451151432
agents ||| feeders ||| 0.400273451151432
agents ||| brokers ||| 0.199453097697136
agree ||| agree ||| 0.266183567646383
agree ||| hit ||| 0.695519389426341
agree ||| compose ||| 0.0382970429272757
agrees ||| hits ||| 0.554012137834563
agrees ||| composes ||| 0.0843463472973394
agrees ||| agrees ||| 0.361641514868098
aim ||| level ||| 0.306199075060543
aim ||| aim ||| 0.693800924939457
aimed ||| aimed ||| 1
aims ||| levels ||| 0.189122517567645
aims ||| aims ||| 0.810877482432355
alehouse ||| alehouse ||| 0.234031332295521
alehouse ||| ale ||| 0.765968667704478
alehouses ||| ales ||| 1
algiers ||| argier ||| 1
alike ||| semblably ||| 0.0424927718117417
alike ||| alike ||| 0.957507228188258
allege ||| lege ||| 0.5
allege ||| allege ||| 0.5
alleges ||| leges ||| 1
allied ||| allied ||| 1
allowance ||| exhibition ||| 0.37784549588353
allowance ||| allowance ||| 0.62215450411647
allowances ||| sizes ||| 1
anchorite ||| anchor ||| 1
anchorites ||| anchors ||| 1
anger ||| anger ||| 0.616784002800114
anger ||| mood ||| 0.276643264701457
anger ||| snuff ||| 0.106572732498429
angered ||| snuffed ||| 1
angers ||| snuffs ||| 0.153041178134221
angers ||| moods ||| 0.42347941093289
angers ||| angers ||| 0.42347941093289
angry ||| angry ||| 1
annoy ||| harry ||| 0.841760303575953
annoy ||| annoy ||| 0.158239696424047
anticipate ||| prevent ||| 1
anticipateed ||| prevented ||| 1
anticipates ||| anticipates ||| 0.332573400460713
anticipates ||| prevents ||| 0.667426599539287
anxiety ||| thought ||| 1
anxietys ||| thoughts ||| 1
appearance ||| ostentation ||| 0.197477022929123
appearance ||| ostent ||| 0.0924316214099466
appearance ||| likelihood ||| 0.37255343445367
appearance ||| appearance ||| 0.337537921207261
appearances ||| likelihoods ||| 0.667426599539287
appearances ||| ostents ||| 0.332573400460713
appellation ||| calling ||| 1
appetite ||| appetite ||| 0.5
appetite ||| stomach ||| 0.5
appetites ||| stomachs ||| 0.725912021125383
appetites ||| appetites ||| 0.274087978874617
apple ||| apple-john ||| 0.209771379223039
apple ||| apple ||| 0.580457241553923
apple ||| pomewater ||| 0.209771379223039
apples ||| apples ||| 1
applicable ||| relative ||| 1
appointment ||| appointment ||| 0.158239696424047
appointment ||| match ||| 0.841760303575953
appointmented ||| matched ||| 1
appointments ||| appointments ||| 1
apprehended ||| apprehended ||| 0.741861036471848
apprehended ||| lapsed ||| 0.258138963528152
approbation ||| approbation ||| 0.745106678736329
approbation ||| approof ||| 0.254893321263672
approval ||| allowance ||| 1
approve ||| approve ||| 0.440870140527092
approve ||| allow ||| 0.559129859472908
approveed ||| allowed ||| 1
approves ||| allows ||| 0.439609894419159
approves ||| approves ||| 0.560390105580841
are ||| bin ||| 0.00184495172798596
are ||| are ||| 0.998155048272014
argument ||| circumstance ||| 0.375789191336907
argument ||| argument ||| 0.624210808663093
arguments ||| circumstances ||| 0.5
arguments ||| arguments ||| 0.5
arm ||| arm ||| 1
armed ||| armed ||| 1
arms ||| arms ||| 1
army ||| battle ||| 0.246239849471398
army ||| army ||| 0.150649029070116
army ||| power ||| 0.603111121458486
armys ||| powers ||| 0.770097899661473
armys ||| battles ||| 0.229902100338527
arrayed ||| rayed ||| 1
artifices ||| sleights ||| 1
ascetic ||| mortified ||| 1
ass ||| assinego ||| 0.050678562564916
ass ||| ass ||| 0.949321437435084
assay ||| assay ||| 0.0974168781697999
assay ||| say ||| 0.9025831218302
assayed ||| tested ||| 1
assays ||| says ||| 0.953914485154754
assays ||| assays ||| 0.0460855148452462
assign ||| rate ||| 0.765209983012795
assign ||| assign ||| 0.234790016987205
assigns ||| rates ||| 0.810877482432355
assigns ||| assigns ||| 0.189122517567645
assuredly ||| assuredly ||| 0.0417157770814756
assuredly ||| fast ||| 0.958284222918524
assuredlyed ||| fasted ||| 1
assuredlys ||| fasts ||| 1
attempt ||| attempt ||| 0.636545818578057
attempt ||| assay ||| 0.363454181421943
attempted ||| attempted ||| 1
attempts ||| attempts ||| 0.681169833273957
attempts ||| assays ||| 0.318830166726043
attendance ||| attendance ||| 1
attentive ||| attent ||| 0.283686942433269
attentive ||| advertising ||| 0.190150007340288
attentive ||| attentive ||| 0.526163050226443
attentively ||| intentively ||| 1
attire ||| attire ||| 0.475344360294446
attire ||| tire ||| 0.524655639705555
attires ||| tires ||| 0.637371656142433
attires ||| attires ||| 0.362628343857567
attitude ||| station ||| 1
attribute ||| attribute ||| 0.218038572784915
attribute ||| addition ||| 0.781961427215085
attributes ||| additions ||| 0.649704334130345
attributes ||| attributes ||| 0.350295665869655
augury ||| augury ||| 1
augurys ||| augurs ||| 1
avail ||| boot ||| 0.776421294201144
avail ||| avail ||| 0.223578705798856
avails ||| boots ||| 0.86560804166056
avails ||| avails ||| 0.13439195833944
avarice ||| misery ||| 0.937902556682091
avarice ||| avarice ||| 0.0620974433179093
avenge ||| wreak ||| 0.347570583355363
avenge ||| avenge ||| 0.173191675139107
avenge ||| venge ||| 0.47923774150553
avenges ||| wreaks ||| 1
avenging ||| wreakful ||| 1
badge ||| cognizance ||| 0.256798102248447
badge ||| badge ||| 0.743201897751553
badger ||| brock ||| 1
badges ||| badges ||| 1
bailiff ||| bailiff ||| 1
balance ||| balance ||| 0.810877482432355
balance ||| peize ||| 0.189122517567645
baneful ||| wicked ||| 1
bankers ||| oneyers ||| 1
bare ||| polled ||| 0.0376302383125249
bare ||| bare ||| 0.962369761687475
barrel ||| bombard ||| 1
barrels ||| bombards ||| 0.5
barrels ||| barrels ||| 0.5
bawd ||| bawd ||| 0.427069717482002
bawd ||| greek ||| 0.572930282517998
bawds ||| bawds ||| 0.303658420293742
bawds ||| greeks ||| 0.696341579706258
beadsman ||| hermit ||| 0.779119619912717
beadsman ||| beadsman ||| 0.220880380087283
beadsmans ||| hermits ||| 1
bearable ||| portable ||| 1
beauty ||| feature ||| 0.0475160112700958
beauty ||| fair ||| 0.695070692023013
beauty ||| beauty ||| 0.257413296706891
beautys ||| fairs ||| 0.5
beautys ||| features ||| 0.5
beckoning ||| beckoning ||| 0.5
beckoning ||| wafture ||| 0.5
becomingly ||| seeming ||| 1
bedew ||| deck ||| 0.86560804166056
bedew ||| bedew ||| 0.13439195833944
bedewed ||| decked ||| 1
bedews ||| decks ||| 1
been ||| bin ||| 0.0160498543044135
been ||| been ||| 0.983950145695586
befool ||| colt ||| 0.579623749659462
befool ||| daff ||| 0.420376250340538
befooled ||| daffed ||| 0.401298394798379
befooled ||| colted ||| 0.598701605201621
befools ||| colts ||| 1
beginning ||| induction ||| 0.155720334941056
beginning ||| beginning ||| 0.844279665058944
beginnings ||| inductions ||| 0.5
beginnings ||| beginnings ||| 0.5
behavior ||| behavior ||| 0.913175872410707
behavior ||| portance ||| 0.086824127589293
behaviors ||| behaviors ||| 1
belated ||| lated ||| 1
bend ||| curb ||| 0.204348287242744
bend ||| bend ||| 0.795651712757255
bended ||| curbed ||| 0.258138963528152
bended ||| bended ||| 0.741861036471848
bends ||| curbs ||| 0.573589329723998
bends ||| bends ||| 0.426410670276002
benefit ||| office ||| 0.668506185034948
benefit ||| benefit ||| 0.331493814965052
benefited ||| benefited ||| 1
benefits ||| offices ||| 0.734967947641685
benefits ||| benefits ||| 0.265032052358315
bereave ||| bereave ||| 1
bereaves ||| bereaves ||| 1
betrothed ||| betrothed ||| 0.0799115968803233
betrothed ||| assured ||| 0.759031516946944
betrothed ||| troth-plight ||| 0.107493649870653
betrothed ||| combinate ||| 0.0535632363020797
bewitch ||| take ||| 0.977291210078887
bewitch ||| bewitch ||| 0.0227087899211133
bewitched ||| bewitched ||| 1
bewitchs ||| takes ||| 1
beyond ||| without ||| 0.811311429521992
beyond ||| beyond ||| 0.188688570478008
bill-hook ||| bill ||| 1
bill-hooks ||| bills ||| 1
bind ||| combine ||| 0.28521878729403
bind ||| bind ||| 0.71478121270597
binds ||| binds ||| 1
black ||| swarth ||| 0.0193564266659829
black ||| black ||| 0.980643573334017
blacks ||| swarths ||| 0.5
blacks ||| blacks ||| 0.5
blame ||| blame ||| 0.875541456426242
blame ||| detect ||| 0.124458543573757
blamed ||| shent ||| 0.579623749659462
blamed ||| blamed ||| 0.420376250340538
blameed ||| detected ||| 1
blames ||| blames ||| 0.598701605201621
blames ||| detects ||| 0.401298394798379
blast ||| take ||| 0.925331990060853
blast ||| blast ||| 0.0746680099391469
blasted ||| blasted ||| 1
blasts ||| blasts ||| 0.165078224123395
blasts ||| takes ||| 0.834921775876605
bleachers ||| whitsters ||| 1
blended ||| blended ||| 0.5
blended ||| blent ||| 0.5
blind ||| blind ||| 0.937564154833547
blind ||| bisson ||| 0.0624358451664526
blinded ||| blinded ||| 1
blinding ||| blinding ||| 0.598701605201621
blinding ||| seeling ||| 0.401298394798379
blinds ||| blinds ||| 1
blow ||| bob ||| 0.0596157932116234
blow ||| blow ||| 0.940384206788377
blowed ||| blowed ||| 1
blows ||| blows ||| 1
blunt ||| blunt ||| 0.729848801223193
blunt ||| abate ||| 0.270151198776807
blunted ||| blunted ||| 1
blunts ||| abates ||| 0.5
blunts ||| blunts ||| 0.5
boastful ||| boastful ||| 0.401298394798379
boastful ||| thrasonical ||| 0.598701605201621
bold ||| bold ||| 0.54980157026206
bold ||| desperate ||| 0.45019842973794
bolds ||| bolds ||| 1
bolt ||| sperr ||| 0.165348791959031
bolt ||| bolt ||| 0.834651208040969
bolted ||| bolted ||| 1
bolts ||| bolts ||| 1
borders ||| marches ||| 0.810877482432355
borders ||| borders ||| 0.189122517567645
born ||| born ||| 0.848607942237314
born ||| derived ||| 0.151392057762686
botch ||| botch ||| 1
boy ||| knave ||| 0.481626164886132
boy ||| boy ||| 0.518373835113868
boys ||| knaves ||| 0.455288422056611
boys ||| boys ||| 0.544711577943389
brain-mad ||| horn-mad ||| 1
break ||| burst ||| 0.215064693784854
break ||| flaw ||| 0.0604057276248265
break ||| break ||| 0.724529578590319
breaked ||| mammocked ||| 1
breaks ||| breaks ||| 0.851282465470522
breaks ||| flaws ||| 0.0992580383628761
breaks ||| bursts ||| 0.0494594961666021
breathe ||| suspire ||| 0.0424927718117417
breathe ||| breathe ||| 0.957507228188258
breathes ||| breathes ||| 1
breed ||| breed ||| 0.763801345604822
breed ||| race ||| 0.236198654395178
breeds ||| breeds ||| 1
brilliancy ||| sheen ||| 1
bring ||| procure ||| 0.104026323599014
bring ||| bring ||| 0.895973676400986
brings ||| procures ||| 0.0641265847260983
brings ||| brings ||| 0.935873415273902
briskly ||| tightly ||| 1
brook ||| brook ||| 0.95608871056976
brook ||| abrook ||| 0.0439112894302401
brooked ||| brooked ||| 1
brooks ||| brooks ||| 1
brothel ||| corinth ||| 0.526163050226443
brothel ||| brothel ||| 0.283686942433269
brothel ||| hot-house ||| 0.190150007340288
brothels ||| brothels ||| 1
bruise ||| bruise ||| 0.7718696913647
bruise ||| pash ||| 0.2281303086353
bruiseed ||| pashed ||| 1
bugbear ||| bugbear ||| 0.401298394798379
bugbear ||| bug ||| 0.598701605201621
bugbears ||| bugs ||| 1
bully ||| bully ||| 1
bungle ||| bungle ||| 1
burden ||| burden ||| 0.745106678736329
burden ||| fardel ||| 0.254893321263672
burdened ||| burdened ||| 1
burdens ||| burdens ||| 0.667426599539287
burdens ||| fardels ||| 0.332573400460713
bury ||| sepulchre ||| 0.0993215298220768
bury ||| bury ||| 0.268330104787673
bury ||| grave ||| 0.63234836539025
burys ||| sepulchres ||| 0.0732587484586913
burys ||| graves ||| 0.926741251541309
bushy ||| busky ||| 0.189122517567645
bushy ||| bushy ||| 0.810877482432355
by-word ||| nayword ||| 1
by-words ||| by-words ||| 1
cabbages ||| worts ||| 1
caesar ||| caesar ||| 0.990395611757749
caesar ||| keisar ||| 0.00960438824225055
caesars ||| caesars ||| 1
calamity ||| wroth ||| 0.120068932995535
calamity ||| calamity ||| 0.879931067004465
call ||| call ||| 0.991049172178562
call ||| clepe ||| 0.00895082782143825
called ||| hight ||| 0.112757246265047
called ||| called ||| 0.887242753734953
calls ||| calls ||| 1
candlestick ||| canstick ||| 1
candlesticks ||| candlesticks ||| 1
cannibal ||| anthropophaginian ||| 1
cannibals ||| cannibals ||| 1
cantos ||| cantons ||| 1
capacious ||| captious ||| 1
capacity ||| receiving ||| 0.424696125464072
capacity ||| capacity ||| 0.575303874535928
captive ||| captive ||| 0.573966615324872
captive ||| caitiff ||| 0.426033384675128
captives ||| caitiffs ||| 0.146884749107465
captives ||| captives ||| 0.853115250892535
carousal ||| rouse ||| 1
carved ||| carved ||| 0.741861036471848
carved ||| trenched ||| 0.258138963528152
cat-gut ||| catling ||| 1
cat-guts ||| catlings ||| 1
catch ||| latch ||| 0.0620974433179093
catch ||| catch ||| 0.937902556682091
catch-word ||| nayword ||| 1
catched ||| catched ||| 1
caterpillar ||| caterpillar ||| 0.110025547878327
caterpillar ||| canker ||| 0.889974452121673
caterpillars ||| cankers ||| 0.362628343857567
caterpillars ||| caterpillars ||| 0.637371656142433
cause ||| cause ||| 0.69401415891377
cause ||| quarrel ||| 0.30598584108623
causes ||| quarrels ||| 0.561780521934826
causes ||| causes ||| 0.438219478065174
cavaliers ||| cavaliers ||| 1
cave ||| cave ||| 1
caves ||| caves ||| 0.810877482432355
caves ||| antres ||| 0.189122517567645
cease ||| surcease ||| 0.0933451950453964
cease ||| cease ||| 0.906654804954603
ceases ||| ceases ||| 1
censoriously ||| unhappily ||| 1
certain ||| flat ||| 0.302674846629762
certain ||| certain ||| 0.697325153370238
certainly ||| certes ||| 0.214972485835436
certainly ||| certainly ||| 0.785027514164564
certains ||| flats ||| 1
challenge ||| challenge ||| 0.233421790407179
challenge ||| vie ||| 0.0250073916548965
challenge ||| dare ||| 0.49867591807439
challenge ||| task ||| 0.242894899863534
challenges ||| tasks ||| 0.111878182712831
challenges ||| dares ||| 0.832373802916966
challenges ||| challenges ||| 0.0557480143702021
challenging ||| offering ||| 0.649704334130345
challenging ||| tasking ||| 0.350295665869655
challengings ||| offerings ||| 1
chance ||| chance ||| 0.729781149946055
chance ||| hap ||| 0.270218850053945
chances ||| haps ||| 0.303658420293742
chances ||| chances ||| 0.696341579706258
change ||| convert ||| 0.0837510905329139
change ||| change ||| 0.916248909467086
changeed ||| converted ||| 1
changes ||| changes ||| 0.86560804166056
changes ||| converts ||| 0.13439195833944
charge ||| charge ||| 0.916067443966835
charge ||| detect ||| 0.0839325560331647
chargeed ||| detected ||| 1
charges ||| detects ||| 0.120068932995535
charges ||| charges ||| 0.879931067004465
chaste ||| chaste ||| 0.215044382360561
chaste ||| honest ||| 0.784955617639439
chastise ||| chastise ||| 0.734543429954753
chastise ||| firk ||| 0.265456570045247
chastity ||| chastity ||| 0.234040413202579
chastity ||| honesty ||| 0.76595958679742
cheat ||| cheat ||| 0.173273406471415
cheat ||| cony-catch ||| 0.0863407692162529
cheat ||| cozen ||| 0.435832802137359
cheat ||| cog ||| 0.304553022174973
cheated ||| cony-catched ||| 0.12415147663202
cheated ||| cheated ||| 0.249154014607007
cheated ||| cozened ||| 0.626694508760974
cheater ||| rook ||| 0.286376118240054
cheater ||| cozener ||| 0.286376118240054
cheater ||| cheater ||| 0.427247763519891
cheaters ||| cozeners ||| 0.500855412023485
cheaters ||| cheaters ||| 0.249572293988258
cheaters ||| rooks ||| 0.249572293988258
cheating ||| cozenage ||| 1
cheats ||| cheats ||| 1
cheerful ||| cheerful ||| 0.810877482432355
cheerful ||| lustig ||| 0.189122517567645
cheque ||| trash ||| 0.0887243026441839
cheque ||| cheque ||| 0.172113760892708
cheque ||| stay ||| 0.739161936463108
chequeed ||| stayed ||| 1
cheques ||| stays ||| 0.777133564686487
cheques ||| cheques ||| 0.222866435313513
chicken ||| chicken ||| 0.350295665869655
chicken ||| chuck ||| 0.649704334130345
chickens ||| chickens ||| 0.734543429954753
chickens ||| chucks ||| 0.265456570045247
chief ||| chief ||| 0.756603068707917
chief ||| arch ||| 0.243396931292083
chiefed ||| arched ||| 1
chilblain ||| kibe ||| 1
chilblains ||| kibes ||| 1
child ||| imp ||| 0.0635853444689457
child ||| barn ||| 0.0342827797356699
child ||| child ||| 0.902131875795384
childed ||| childed ||| 1
childs ||| barns ||| 1
choose ||| sort ||| 0.589928616410911
choose ||| choose ||| 0.410071383589089
chooseed ||| sorted ||| 1
chooses ||| sorts ||| 0.715528418488494
chooses ||| chooses ||| 0.284471581511506
chosen ||| chosen ||| 0.644154728567607
chosen ||| picked ||| 0.355845271432393
churl ||| carlot ||| 0.159043761070555
churl ||| churl ||| 0.68191247785889
churl ||| carl ||| 0.159043761070555
churls ||| churls ||| 1
circle ||| circle ||| 0.0116456485271742
circle ||| o ||| 0.988354351472826
cite ||| cite ||| 1
cites ||| cites ||| 1
civilized ||| inland ||| 1
clef ||| cliff ||| 0.667426599539287
clef ||| clef ||| 0.332573400460713
clefs ||| cliffs ||| 1
clock ||| horologe ||| 0.110025547878327
clock ||| clock ||| 0.889974452121673
clocks ||| clocks ||| 1
close ||| seel ||| 0.0208937702032563
close ||| close ||| 0.979106229796744
closes ||| closes ||| 1
closing ||| seeling ||| 0.332573400460713
closing ||| closing ||| 0.667426599539287
clown ||| clown ||| 1
clowned ||| lowted ||| 1
clowns ||| clowns ||| 1
cockboat ||| cock ||| 1
cockboats ||| cocks ||| 1
coin ||| angel ||| 0.187268340013469
coin ||| coin ||| 0.147659828891706
coin ||| noble ||| 0.654651791701646
coin ||| moy ||| 0.0104200393931784
coins ||| nobles ||| 0.431432686760236
coins ||| moys ||| 0.0454216645496536
coins ||| angels ||| 0.477723984140457
coins ||| coins ||| 0.0454216645496536
colonizing ||| plantation ||| 1
comb ||| pheeze ||| 0.332573400460713
comb ||| comb ||| 0.667426599539287
combed ||| combed ||| 1
comfort ||| repair ||| 0.289791605645722
comfort ||| comfort ||| 0.710208394354278
comforted ||| repaired ||| 0.332573400460713
comforted ||| comforted ||| 0.667426599539287
comforts ||| comforts ||| 0.881516603178535
comforts ||| repairs ||| 0.118483396821465
command ||| impositions ||| 0.0186326319761223
command ||| hest ||| 0.0373929910902761
command ||| command ||| 0.943974376933602
commanded ||| commanded ||| 1
commands ||| hests ||| 0.0766503576003257
commands ||| commands ||| 0.923349642399674
commend ||| wish ||| 0.71440975169595
commend ||| commend ||| 0.28559024830405
commended ||| wished ||| 0.557872258567489
commended ||| commended ||| 0.442127741432511
commends ||| commends ||| 1
comment ||| comment ||| 0.853115250892535
comment ||| glose ||| 0.146884749107465
comments ||| comments ||| 1
commonplace ||| modern ||| 1
compacted ||| compact ||| 1
companion ||| companion ||| 1
companions ||| companions ||| 1
company ||| haunt ||| 0.163558957774642
company ||| company ||| 0.836441042225358
companyed ||| haunted ||| 1
companys ||| haunts ||| 1
compare ||| like ||| 0.959752291604665
compare ||| compare ||| 0.0402477083953355
compares ||| likes ||| 1
compassionate ||| compassionate ||| 0.350295665869655
compassionate ||| remorseful ||| 0.649704334130345
compel ||| compel ||| 0.055650945803683
compel ||| put ||| 0.944349054196317
compels ||| puts ||| 1
complaint ||| dump ||| 0.198784068959535
complaint ||| complaint ||| 0.801215931040465
complaints ||| complaints ||| 0.677312526007883
complaints ||| dumps ||| 0.322687473992117
complaisance ||| gentry ||| 1
completed ||| expiate ||| 1
complexion ||| leer ||| 0.171044860280369
complexion ||| complexion ||| 0.828955139719631
complexions ||| leers ||| 0.189122517567645
complexions ||| complexions ||| 0.810877482432355
compliant ||| inclining ||| 1
compose ||| patient ||| 0.928903594612715
compose ||| compose ||| 0.0710964053872851
composed ||| compact ||| 0.573966615324872
composed ||| composed ||| 0.426033384675128
composes ||| composes ||| 0.5
composes ||| patients ||| 0.5
compounded ||| create ||| 0.657095339926605
compounded ||| compounded ||| 0.342904660073395
compoundeds ||| creates ||| 1
compromise ||| impawn ||| 0.5
compromise ||| compromise ||| 0.5
comrade ||| comrade ||| 0.598701605201621
comrade ||| pew-fellow ||| 0.401298394798379
comrades ||| comrades ||| 1
conception ||| conception ||| 0.239321259060879
conception ||| conceit ||| 0.760678740939121
conceptioned ||| conceited ||| 1
conceptions ||| conceptions ||| 0.220880380087283
conceptions ||| conceits ||| 0.779119619912717
conciliation ||| sooth ||| 1
conciliationed ||| soothed ||| 1
conclude ||| conclude ||| 0.435773265562213
conclude ||| include ||| 0.0391538599459779
conclude ||| determine ||| 0.525072874491809
concludes ||| determines ||| 0.285628438387838
concludes ||| concludes ||| 0.502033208105044
concludes ||| includes ||| 0.212338353507119
concubine ||| concupy ||| 0.5
concubine ||| concubine ||| 0.5
condemn ||| damn ||| 0.491972151354484
condemn ||| condemn ||| 0.508027848645516
condemned ||| condemned ||| 0.275304616844402
condemned ||| damned ||| 0.724695383155598
condemns ||| condemns ||| 0.667426599539287
condemns ||| damns ||| 0.332573400460713
condition ||| liking ||| 0.367489395413917
condition ||| condition ||| 0.632510604586083
conditions ||| likings ||| 0.0908432698491199
conditions ||| conditions ||| 0.90915673015088
conduct ||| conduct ||| 0.941598530870658
conduct ||| portance ||| 0.0584014691293422
conducted ||| conducted ||| 1
confederate ||| federary ||| 0.146884749107465
confederate ||| confederate ||| 0.853115250892535
confederates ||| practisants ||| 0.165348791959031
confederates ||| confederates ||| 0.834651208040969
confess ||| shrive ||| 0.0418268454339964
confess ||| agnise ||| 0.028035745664136
confess ||| confess ||| 0.930137408901868
confessed ||| confessed ||| 1
confession ||| confession ||| 0.657095339926605
confession ||| shrift ||| 0.342904660073395
confessions ||| confessions ||| 1
confesss ||| shrives ||| 1
confine ||| confine ||| 1
confined ||| confined ||| 1
confines ||| confines ||| 1
confirm ||| seal ||| 0.686774970444642
confirm ||| confirm ||| 0.313225029555358
confirmed ||| confirmed ||| 0.13252286125945
confirmed ||| sealed ||| 0.383535708095696
confirmed ||| seated ||| 0.483941430644854
confirms ||| seals ||| 0.703591053136257
confirms ||| confirms ||| 0.296408946863743
confound ||| confound ||| 0.694487769049561
confound ||| mate ||| 0.305512230950439
confounded ||| confounded ||| 1
confounds ||| mates ||| 0.67361623614211
confounds ||| confounds ||| 0.32638376385789
confused ||| diffused ||| 0.258138963528152
confused ||| confused ||| 0.741861036471848
confusion ||| hurtling ||| 0.0465280084705266
confusion ||| hurly ||| 0.0465280084705266
confusion ||| confusion ||| 0.906943983058947
confusions ||| confusions ||| 1
confutation ||| reproof ||| 0.912045603289565
confutation ||| confutation ||| 0.0879543967104355
congratulate ||| congratulate ||| 0.332573400460713
congratulate ||| gratulate ||| 0.667426599539287
conjecture ||| estimation ||| 0.828955139719631
conjecture ||| conjecture ||| 0.171044860280369
conjectures ||| conjectures ||| 0.667426599539287
conjectures ||| estimations ||| 0.332573400460713
conquer ||| conquer ||| 0.776904569182804
conquer ||| convince ||| 0.223095430817196
conquered ||| conquered ||| 1
conquers ||| conquers ||| 0.667426599539287
conquers ||| convinces ||| 0.332573400460713
consequence ||| success ||| 0.703668360417378
consequence ||| consequence ||| 0.296331639582622
consequences ||| consequences ||| 1
consider ||| consider ||| 0.544170176443026
consider ||| advise ||| 0.455829823556974
considerate ||| considerate ||| 0.105493890983136
considerate ||| advised ||| 0.894506109016864
consideration ||| respect ||| 0.64689135322238
consideration ||| advice ||| 0.273033757630891
consideration ||| consideration ||| 0.0800748891467285
considerationed ||| respected ||| 1
considerations ||| respects ||| 0.905742926613945
considerations ||| considerations ||| 0.0942570733860553
considered ||| considered ||| 1
considers ||| considers ||| 0.5
considers ||| advises ||| 0.5
consistency ||| constancy ||| 1
consort ||| sort ||| 0.800303035229407
consort ||| consort ||| 0.199696964770593
consorted ||| sorted ||| 0.392235736725369
consorted ||| consorted ||| 0.607764263274631
consorts ||| sorts ||| 1
conspire ||| conspire ||| 0.312025625289917
conspire ||| dispose ||| 0.687974374710083
conspires ||| conspires ||| 1
constable ||| tharborough ||| 0.0879543967104355
constable ||| constable ||| 0.912045603289565
constant ||| constant ||| 0.10472545081725
constant ||| still ||| 0.89527454918275
construe ||| construe ||| 1
consume ||| confound ||| 0.719945933581712
consume ||| consume ||| 0.280054066418288
consumeed ||| confounded ||| 1
consumes ||| consumes ||| 0.189122517567645
consumes ||| confounds ||| 0.810877482432355
contemptible ||| contemptible ||| 1
contrary ||| awkward ||| 0.144410691893029
contrary ||| contrary ||| 0.855589308106971
contrivances ||| gimmors ||| 1
control ||| danger ||| 0.803982227916169
control ||| control ||| 0.196017772083831
controls ||| controls ||| 0.110025547878327
controls ||| dangers ||| 0.889974452121673
convene ||| convent ||| 1
conveneed ||| convented ||| 1
convenes ||| convents ||| 1
convenient ||| convenient ||| 1
convent ||| convent ||| 0.5
convent ||| covent ||| 0.5
convented ||| convented ||| 1
convents ||| convents ||| 1
convert ||| convert ||| 0.834651208040969
convert ||| convertite ||| 0.165348791959031
converted ||| converted ||| 1
converts ||| convertites ||| 0.401298394798379
converts ||| converts ||| 0.598701605201621
convict ||| indite ||| 0.5
convict ||| convict ||| 0.5
convicted ||| convicted ||| 1
convincing ||| living ||| 1
convincings ||| livings ||| 1
cook ||| cockney ||| 0.185095797167901
cook ||| cook ||| 0.814904202832099
cooked ||| cooked ||| 1
cooks ||| cooks ||| 1
copy ||| copy ||| 1
corner ||| cantle ||| 0.185095797167901
corner ||| corner ||| 0.814904202832099
corners ||| corners ||| 1
coroner ||| crowner ||| 1
coroners ||| coroners ||| 1
coronet ||| crownet ||| 0.220880380087283
coronet ||| coronet ||| 0.779119619912717
coronets ||| crownets ||| 0.426410670276002
coronets ||| coronets ||| 0.573589329723998
corpulent ||| gorbellied ||| 0.5
corpulent ||| corpulent ||| 0.5
corresponding ||| respective ||| 0.734543429954753
corresponding ||| corresponding ||| 0.265456570045247
corrupt ||| corrupt ||| 0.881516603178535
corrupt ||| distaste ||| 0.118483396821465
corrupted ||| corrupted ||| 1
corrupts ||| corrupts ||| 1
cough ||| cough ||| 1
count ||| count ||| 0.274742675652599
count ||| tell ||| 0.725257324347401
counted ||| counted ||| 1
countenance ||| favour ||| 0.617427164794687
countenance ||| leer ||| 0.0492395112081125
countenance ||| countenance ||| 0.3333333239972
countenances ||| favours ||| 0.878228635863393
countenances ||| leers ||| 0.0488666529604293
countenances ||| countenances ||| 0.0729047111761778
counterfeit ||| supposed ||| 0.410807759008908
counterfeit ||| counterfeit ||| 0.550132924641986
counterfeit ||| simular ||| 0.0390593163491063
counterfeited ||| counterfeited ||| 1
counterfeits ||| counterfeits ||| 1
counterpanes ||| counterpoints ||| 1
counterpoise ||| counterpoise ||| 0.702762029009214
counterpoise ||| countervail ||| 0.297237970990786
counting ||| tale ||| 0.970074722376208
counting ||| counting ||| 0.0299252776237922
countings ||| tales ||| 1
counts ||| tells ||| 0.747341419170613
counts ||| counts ||| 0.252658580829387
courage ||| courage ||| 0.620799495141408
courage ||| stomach ||| 0.347671711142542
courage ||| coragio ||| 0.0315287937160494
courages ||| stomachs ||| 0.879931067004465
courages ||| courages ||| 0.120068932995535
course ||| course ||| 0.604446244399476
course ||| sternage ||| 0.0121126364799285
course ||| hair ||| 0.383441119120595
courses ||| hairs ||| 0.568307000634168
courses ||| courses ||| 0.431692999365832
cover ||| cover ||| 0.895577265816046
cover ||| rake ||| 0.104422734183953
covered ||| covered ||| 1
covers ||| rakes ||| 0.401298394798379
covers ||| covers ||| 0.598701605201621
cowardly ||| cowardly ||| 0.863483528899441
cowardly ||| meacock ||| 0.0682582355502793
cowardly ||| cowish ||| 0.0682582355502793
coxcomb ||| princox ||| 0.110025547878327
coxcomb ||| coxcomb ||| 0.889974452121673
coxcombs ||| coxcombs ||| 1
coyness ||| strangeness ||| 1
crack ||| crack ||| 1
cracked ||| cracked ||| 1
cracks ||| cracks ||| 1
creditable ||| credent ||| 1
critical ||| critical ||| 0.297237970990786
critical ||| judicious ||| 0.702762029009214
criticise ||| censure ||| 1
criticises ||| censures ||| 1
crooked ||| kam ||| 0.146884749107465
crooked ||| crooked ||| 0.853115250892535
crush ||| crush ||| 0.795627751555939
crush ||| pash ||| 0.204372248444061
crushed ||| crushed ||| 0.667426599539287
crushed ||| pashed ||| 0.332573400460713
cuckold ||| cuckold ||| 0.926741251541309
cuckold ||| cornuto ||| 0.0732587484586913
cuckolds ||| cuckolds ||| 1
cudgel ||| ballow ||| 0.101532771452982
cudgel ||| cudgel ||| 0.898467228547018
cudgels ||| cudgels ||| 1
cup ||| stoup ||| 0.0942570733860553
cup ||| cup ||| 0.905742926613945
cups ||| cups ||| 1
cur ||| cur ||| 0.899887933016444
cur ||| tike ||| 0.100112066983556
cure ||| recure ||| 0.050678562564916
cure ||| cure ||| 0.949321437435084
cured ||| cured ||| 1
cures ||| cures ||| 1
curled ||| curled ||| 0.579623749659462
curled ||| crisp ||| 0.420376250340538
curleded ||| crisped ||| 1
curry ||| pheeze ||| 1
curs ||| curs ||| 1
curse ||| ban ||| 0.0881733388542073
curse ||| curse ||| 0.911826661145793
curseed ||| baned ||| 1
curses ||| curses ||| 0.895577265816046
curses ||| bans ||| 0.104422734183953
dagger ||| dagger ||| 0.926741251541309
dagger ||| dudgeon ||| 0.0732587484586913
daggers ||| daggers ||| 1
daily ||| journal ||| 0.0737689081222528
daily ||| daily ||| 0.926231091877747
daintily ||| daintily ||| 0.5
daintily ||| featly ||| 0.5
dairy-maid ||| day-woman ||| 1
dance ||| galliard ||| 0.0453821857466048
dance ||| dance ||| 0.662314722492688
dance ||| brawl ||| 0.292303091760707
dances ||| lavoltas ||| 0.0901255096654134
dances ||| dances ||| 0.591971411721586
dances ||| brawls ||| 0.317903078613
dane ||| dane ||| 1
danes ||| danskers ||| 1
daring ||| daring ||| 0.653567593851374
daring ||| audacious ||| 0.346432406148626
dark ||| dark ||| 1
darks ||| darks ||| 1
dashing ||| dashing ||| 0.5
dashing ||| swashing ||| 0.5
dawdle ||| drumble ||| 1
dead ||| amort ||| 0.0106116469753357
dead ||| dead ||| 0.989388353024664
deadly ||| deadly ||| 0.373864014157684
deadly ||| mortal ||| 0.626135985842316
deadlys ||| mortals ||| 1
dear ||| dear ||| 0.982451257046256
dear ||| lief ||| 0.0175487429537437
dears ||| dears ||| 1
death ||| mort ||| 0.0107305163172567
death ||| lethe ||| 0.0308382425039448
death ||| exigent ||| 0.0144342299361876
death ||| death ||| 0.943997011242611
deaths ||| deaths ||| 1
debauched ||| deboshed ||| 1
deceit ||| deceit ||| 0.922420504948241
deceit ||| cautel ||| 0.0775794950517591
deceitful ||| deceitful ||| 0.7718696913647
deceitful ||| braid ||| 0.2281303086353
deceits ||| deceits ||| 1
deceive ||| abuse ||| 0.561024062220763
deceive ||| con ||| 0.128411668354978
deceive ||| deceive ||| 0.31056426942426
deceives ||| deceives ||| 0.164666274582803
deceives ||| abuses ||| 0.724961027075667
deceives ||| cons ||| 0.11037269834153
deception ||| abuse ||| 1
deceptions ||| abuses ||| 1
deceptive ||| falsing ||| 1
decipher ||| decipher ||| 0.573589329723998
decipher ||| cipher ||| 0.426410670276002
deciphers ||| ciphers ||| 0.5
deciphers ||| deciphers ||| 0.5
decorate ||| guard ||| 1
decorateed ||| guarded ||| 1
decorates ||| guards ||| 1
decoy ||| stale ||| 1
defeat ||| foil ||| 0.478365042787612
defeat ||| lurch ||| 0.0882304380525129
defeat ||| defeat ||| 0.433404519159875
defeated ||| foiled ||| 0.401298394798379
defeated ||| defeated ||| 0.598701605201621
defeats ||| foils ||| 0.734543429954753
defeats ||| defeats ||| 0.265456570045247
defer ||| prorogue ||| 0.5
defer ||| defer ||| 0.5
defiance ||| hardiment ||| 0.198784068959535
defiance ||| defiance ||| 0.801215931040465
defilement ||| tainture ||| 1
deformed ||| stigmatical ||| 0.110025547878327
deformed ||| deformed ||| 0.889974452121673
defraud ||| colt ||| 1
defrauded ||| colted ||| 1
defrauds ||| colts ||| 1
degraded ||| degraded ||| 0.426410670276002
degraded ||| derogate ||| 0.573589329723998
dejected ||| amort ||| 0.180918936604986
dejected ||| lumpish ||| 0.180918936604986
dejected ||| dejected ||| 0.638162126790027
delay ||| tarriance ||| 0.0376785755901681
delay ||| indurance ||| 0.0376785755901681
delay ||| intermission ||| 0.104260181411573
delay ||| delay ||| 0.820382667408091
delays ||| delays ||| 1
delicate ||| delicate ||| 0.881797691716091
delicate ||| incony ||| 0.118202308283909
delicates ||| delicates ||| 1
denial ||| denial ||| 0.741861036471848
denial ||| denay ||| 0.258138963528152
denials ||| denials ||| 1
deny ||| renege ||| 0.0268688678066402
deny ||| deny ||| 0.97313113219336
denys ||| reneges ||| 1
deprive ||| deprive ||| 1
depth ||| flatness ||| 0.189122517567645
depth ||| depth ||| 0.810877482432355
depths ||| depths ||| 1
descended ||| descended ||| 0.493316879911338
descended ||| extraught ||| 0.0557480878884555
descended ||| derived ||| 0.450935032200207
desert ||| desert ||| 1
deserts ||| deserts ||| 0.837848022638989
deserts ||| demerits ||| 0.162151977361011
design ||| design ||| 0.551868993485418
design ||| pretence ||| 0.448131006514582
designs ||| pretences ||| 0.120068932995535
designs ||| designs ||| 0.879931067004465
despatch ||| pay ||| 1
despatchs ||| pays ||| 1
destroy ||| spill ||| 0.0734427771435872
destroy ||| defeat ||| 0.194510518163771
destroy ||| rid ||| 0.315578269817086
destroy ||| destroy ||| 0.416468434875555
destroyed ||| defeated ||| 0.5
destroyed ||| destroyed ||| 0.5
destroys ||| rids ||| 0.299350802600811
destroys ||| destroys ||| 0.200649197399189
destroys ||| defeats ||| 0.200649197399189
destroys ||| spills ||| 0.299350802600811
destructive ||| scathful ||| 1
determined ||| determined ||| 0.228194168488355
determined ||| constant ||| 0.337904940639766
determined ||| desperate ||| 0.43390089087188
devour ||| devour ||| 0.815136788305263
devour ||| ravin ||| 0.184863211694737
devoured ||| devoured ||| 1
devours ||| devours ||| 1
dexterous ||| feat ||| 1
dexteroused ||| feated ||| 1
dexterously ||| dexterously ||| 0.5
dexterously ||| deftly ||| 0.5
dexterouss ||| feats ||| 1
diadem ||| round ||| 0.899790394454417
diadem ||| diadem ||| 0.100209605545583
diademed ||| rounded ||| 1
diadems ||| rounds ||| 1
digged ||| pioned ||| 0.5
digged ||| digged ||| 0.5
diminution ||| diminution ||| 0.426410670276002
diminution ||| abatement ||| 0.573589329723998
diminutions ||| abatements ||| 1
dirty ||| reechy ||| 0.297237970990786
dirty ||| dirty ||| 0.702762029009214
disadvantage ||| foil ||| 0.889974452121673
disadvantage ||| disadvantage ||| 0.110025547878327
disadvantageed ||| foiled ||| 1
disadvantages ||| foils ||| 1
disclose ||| unbolt ||| 0.350295665869655
disclose ||| disclose ||| 0.649704334130345
discloseed ||| unbolted ||| 1
discontented ||| distempered ||| 0.169142111418329
discontented ||| discontented ||| 0.830857888581671
discretion ||| government ||| 0.244324639315021
discretion ||| advice ||| 0.377837680342489
discretion ||| discretion ||| 0.377837680342489
discretions ||| discretions ||| 1
discuss ||| discuss ||| 0.637371656142433
discuss ||| expostulate ||| 0.362628343857567
disdainful ||| disdainful ||| 0.7718696913647
disdainful ||| disdained ||| 0.2281303086353
disembowelled ||| embowelled ||| 1
disfigure ||| stain ||| 0.902365869995363
disfigure ||| disfigure ||| 0.0976341300046373
disfigureed ||| stained ||| 1
disfigurements ||| defeatures ||| 1
disfigures ||| dislimns ||| 0.220880380087283
disfigures ||| stains ||| 0.779119619912717
disguise ||| daub ||| 0.210639720171703
disguise ||| disguise ||| 0.789360279828297
disguises ||| disguises ||| 1
disgust ||| abhor ||| 1
disgusts ||| abhors ||| 1
dishonest ||| unjust ||| 0.618673213865914
dishonest ||| dishonest ||| 0.381326786134085
disjointed ||| skimble-skamble ||| 1
dismal ||| sorry ||| 0.660946461169347
dismal ||| dismal ||| 0.339053538830653
dismay ||| mate ||| 0.5
dismay ||| dismay ||| 0.5
dismayed ||| dismayed ||| 1
dismays ||| mates ||| 1
disorder ||| disorder ||| 1
disordered ||| disordered ||| 0.5
disordered ||| indigest ||| 0.5
disordereded ||| indigested ||| 1
disorders ||| garboils ||| 0.426410670276002
disorders ||| disorders ||| 0.573589329723998
disparage ||| disparage ||| 0.5
disparage ||| disable ||| 0.5
disposal ||| dispose ||| 1
disposition ||| disposition ||| 0.544421472900435
disposition ||| strain ||| 0.455578527099565
dispositions ||| dispositions ||| 0.411343669981581
dispositions ||| strains ||| 0.588656330018419
dissemble ||| dissemble ||| 0.675076061915419
dissemble ||| cog ||| 0.324923938084581
distracted ||| bestraught ||| 0.0881760496858896
distracted ||| distracted ||| 0.780273106424482
distracted ||| distraught ||| 0.131550843889629
distracting ||| extracting ||| 1
distraught ||| bestraught ||| 0.401298394798379
distraught ||| distraught ||| 0.598701605201621
doff ||| doff ||| 0.637371656142433
doff ||| daff ||| 0.362628343857567
doffed ||| daffed ||| 1
dog ||| dog ||| 1
dogs ||| water-rugs ||| 0.0424927718117417
dogs ||| dogs ||| 0.957507228188258
doleful ||| sullen ||| 0.725912021125383
doleful ||| doleful ||| 0.274087978874617
dolefuls ||| sullens ||| 1
doll ||| mammets ||| 0.5
doll ||| doll ||| 0.5
dolt ||| dolt ||| 0.332573400460713
dolt ||| noddy ||| 0.667426599539287
dolts ||| dolts ||| 1
doom ||| doom ||| 0.771999410974565
doom ||| deem ||| 0.228000589025435
dooms ||| dooms ||| 1
dotard ||| dotant ||| 0.332573400460713
dotard ||| dotard ||| 0.667426599539287
dotards ||| dotards ||| 1
double ||| double ||| 0.963416351708894
double ||| gimmal ||| 0.0365836482911066
drag ||| touse ||| 0.128072806985858
drag ||| drag ||| 0.743854386028284
drag ||| sowl ||| 0.128072806985858
draw ||| draw ||| 0.974682593757335
draw ||| limn ||| 0.0253174062426655
draws ||| draws ||| 1
dressed ||| dressed ||| 0.2281303086353
dressed ||| suited ||| 0.7718696913647
dresses ||| properties ||| 1
drop ||| gout ||| 0.030621973141272
drop ||| drop ||| 0.969378026858728
drops ||| gouts ||| 0.0321173500287944
drops ||| drops ||| 0.967882649971206
drum ||| drum ||| 1
drums ||| tabourines ||| 0.105493890983136
drums ||| drums ||| 0.894506109016864
drunk ||| drunk ||| 0.33899215138982
drunk ||| ripe ||| 0.26845199959056
drunk ||| fap ||| 0.0132551498921857
drunk ||| drawn ||| 0.379300699127434
drunkard ||| drunkard ||| 0.795627751555939
drunkard ||| bombard ||| 0.204372248444061
drunkards ||| bombards ||| 0.189122517567645
drunkards ||| drunkards ||| 0.810877482432355
drunken ||| drunken ||| 0.898467228547018
drunken ||| deboshed ||| 0.101532771452982
dry ||| sere ||| 0.0508368762660957
dry ||| dry ||| 0.949163123733904
duff ||| duff ||| 0.5
duff ||| lumpish ||| 0.5
dull ||| fat ||| 0.473432490153577
dull ||| dull ||| 0.526567509846423
dulled ||| fated ||| 1
dulls ||| dulls ||| 0.5
dulls ||| fats ||| 0.5
durable ||| perdurable ||| 1
dwelling ||| dwelling ||| 0.0447786524168105
dwelling ||| being ||| 0.95522134758319
dye ||| tinct ||| 0.579623749659462
dye ||| dye ||| 0.420376250340538
easily ||| lightly ||| 0.314658282887104
easily ||| easily ||| 0.685341717112896
echo ||| echo ||| 1
echos ||| reverbs ||| 1
embarrass ||| baffle ||| 1
embolden ||| embolden ||| 0.0483327095491621
embolden ||| bold ||| 0.951667290450838
emboldens ||| emboldens ||| 0.5
emboldens ||| bolds ||| 0.5
embrace ||| clip ||| 0.143736887169316
embrace ||| embrace ||| 0.856263112830684
embraces ||| inclips ||| 0.209771379223039
embraces ||| embrasures ||| 0.209771379223039
embraces ||| embraces ||| 0.580457241553923
embryos ||| germens ||| 1
emotion ||| motion ||| 1
emotions ||| motions ||| 1
emperor ||| keisar ||| 0.0627706844771457
emperor ||| emperor ||| 0.937229315522854
empire ||| empery ||| 0.346432406148626
empire ||| empire ||| 0.653567593851374
emptied ||| embowelled ||| 0.5
emptied ||| emptied ||| 0.5
enclose ||| clip ||| 0.0810019698621192
enclose ||| pale ||| 0.918998030137881
encloses ||| pales ||| 1
enclosure ||| roundure ||| 1
encourage ||| encourage ||| 1
end ||| fine ||| 0.30554643051254
end ||| end ||| 0.69445356948746
ended ||| ended ||| 1
ending ||| exigent ||| 0.256798102248447
ending ||| ending ||| 0.743201897751553
endings ||| endings ||| 1
endless ||| fineless ||| 0.189122517567645
endless ||| endless ||| 0.810877482432355
endowed ||| parted ||| 0.960086010248146
endowed ||| endowed ||| 0.0399139897518539
endowment ||| gifts ||| 1
endowments ||| endowments ||| 1
ends ||| fines ||| 0.0950835688409213
ends ||| ends ||| 0.904916431159079
engraff ||| ingraft ||| 1
engraffed ||| ingrafted ||| 1
engrafted ||| ingraft ||| 1
engrafteded ||| ingrafted ||| 1
engrained ||| grained ||| 1
enough ||| enough ||| 0.990733899139325
enough ||| basta ||| 0.00926610086067548
enquiry ||| quest ||| 0.702762029009214
enquiry ||| inquisition ||| 0.297237970990786
enquirys ||| quests ||| 1
ensign-bearer ||| ancient ||| 1
ensign-bearers ||| ancients ||| 1
entice ||| entice ||| 0.318830166726043
entice ||| suggest ||| 0.681169833273957
enticeed ||| suggested ||| 1
enticement ||| suggestion ||| 1
enticements ||| suggestions ||| 0.667426599539287
enticements ||| enticements ||| 0.332573400460713
entices ||| suggests ||| 1
entrails ||| chaudron ||| 0.132130063689701
entrails ||| entrails ||| 0.867869936310299
entreaties ||| entreaties ||| 0.867869936310299
entreaties ||| treaties ||| 0.132130063689701
enumerate ||| decline ||| 1
enumerates ||| declines ||| 1
equal ||| even ||| 0.8328078732266
equal ||| equal ||| 0.1671921267734
equals ||| equals ||| 1
equipped ||| furnished ||| 1
equitable ||| square ||| 1
equitables ||| squares ||| 1
escape ||| scape ||| 0.208251921805342
escape ||| escape ||| 0.791748078194658
escapes ||| escapes ||| 0.420376250340538
escapes ||| scapes ||| 0.579623749659462
escort ||| conduct ||| 0.848717067071196
escort ||| convoy ||| 0.151282932928804
escorted ||| conducted ||| 1
esteem ||| esteem ||| 0.340593949048278
esteem ||| tender ||| 0.659406050951722
esteemed ||| esteemed ||| 1
esteems ||| tenders ||| 0.5
esteems ||| esteems ||| 0.5
eternal ||| eterne ||| 0.086824127589293
eternal ||| eternal ||| 0.913175872410707
example ||| example ||| 0.562066197696949
example ||| instance ||| 0.437933802303051
examples ||| instances ||| 0.5
examples ||| examples ||| 0.5
exceedingly ||| passing ||| 0.829918055265676
exceedingly ||| exceedingly ||| 0.170081944734324
excellent ||| virtuous ||| 0.542088132138609
excellent ||| excellent ||| 0.457911867861391
excite ||| tarre ||| 0.573589329723998
excite ||| excite ||| 0.426410670276002
excites ||| excites ||| 1
excluded ||| exempt ||| 1
excludeded ||| exempted ||| 1
executioner ||| executioner ||| 0.853115250892535
executioner ||| executor ||| 0.146884749107465
executioners ||| executioners ||| 0.332573400460713
executioners ||| executors ||| 0.667426599539287
exercising ||| breathing ||| 1
exhaust ||| exhaust ||| 1
exhausted ||| forspent ||| 1
expectation ||| expect ||| 0.634121719921317
expectation ||| expectation ||| 0.365878280078683
expectationed ||| expected ||| 1
expectations ||| expectations ||| 0.332573400460713
expectations ||| expects ||| 0.667426599539287
expedition ||| expedience ||| 0.188788698496849
expedition ||| expedition ||| 0.811211301503151
expeditious ||| expeditious ||| 0.165348791959031
expeditious ||| expedient ||| 0.834651208040969
expel ||| expel ||| 0.104422734183953
expel ||| utter ||| 0.895577265816046
expeled ||| uttered ||| 1
expels ||| expels ||| 0.332573400460713
expels ||| utters ||| 0.667426599539287
exposure ||| exposure ||| 0.598701605201621
exposure ||| exposture ||| 0.401298394798379
expound ||| expostulate ||| 0.5
expound ||| expound ||| 0.5
expounded ||| expounded ||| 1
extirpate ||| extirp ||| 0.5
extirpate ||| extirpate ||| 0.5
extirpateed ||| extirped ||| 1
extracted ||| extracted ||| 0.5
extracted ||| extraught ||| 0.5
extremity ||| utterance ||| 0.371130975797789
extremity ||| extremity ||| 0.628869024202211
eyes ||| eyne ||| 0.0498419311339818
eyes ||| eyes ||| 0.950158068866018
fade ||| fade ||| 1
faint ||| quail ||| 0.112757246265047
faint ||| faint ||| 0.887242753734953
fainted ||| fainted ||| 1
faints ||| faints ||| 0.649704334130345
faints ||| quails ||| 0.350295665869655
fairy ||| fairy ||| 1
fairys ||| ouphes ||| 1
fallen ||| declined ||| 0.407859602087998
fallen ||| fallen ||| 0.592140397912002
fancy ||| conceit ||| 0.469362815283851
fancy ||| fancy ||| 0.530637184716149
fancyed ||| conceited ||| 1
fancys ||| conceits ||| 1
fashion ||| wear ||| 0.593516569083927
fashion ||| fashion ||| 0.406483430916073
fashions ||| wears ||| 0.785393720851291
fashions ||| fashions ||| 0.214606279148709
fasten ||| sperr ||| 0.132130063689701
fasten ||| fasten ||| 0.867869936310299
fastened ||| fastened ||| 1
fat ||| enseamed ||| 0.0343703255450578
fat ||| fat ||| 0.931259348909884
fat ||| seam ||| 0.0343703255450578
fatal ||| fatal ||| 0.303590261186954
fatal ||| mortal ||| 0.696409738813046
fatals ||| mortals ||| 1
fated ||| fated ||| 1
fats ||| seams ||| 0.5
fats ||| fats ||| 0.5
faultless ||| faultless ||| 1
fawn-coloured ||| fallow ||| 1
fawn-coloureds ||| fallows ||| 1
feeble ||| single ||| 0.695927084143818
feeble ||| feeble ||| 0.304072915856182
feigned ||| feigned ||| 0.7718696913647
feigned ||| simular ||| 0.2281303086353
fence ||| foin ||| 0.0879543967104355
fence ||| fence ||| 0.912045603289565
fencer ||| fencer ||| 1
fencers ||| scrimers ||| 1
fences ||| foins ||| 1
ferry ||| ferry ||| 0.5
ferry ||| tranect ||| 0.5
festive ||| gaudy ||| 1
festivity ||| wassail ||| 0.598701605201621
festivity ||| festivity ||| 0.401298394798379
festivitys ||| wassails ||| 1
fetched ||| fet ||| 1
fetter ||| gyve ||| 0.189122517567645
fetter ||| fetter ||| 0.810877482432355
fetters ||| gyves ||| 0.637371656142433
fetters ||| fetters ||| 0.362628343857567
few ||| few ||| 0.947290582155341
few ||| paucas ||| 0.0527094178446586
fickle ||| fickle ||| 0.645921403181709
fickle ||| voluble ||| 0.354078596818291
fig ||| fico ||| 0.332573400460713
fig ||| fig ||| 0.667426599539287
fight ||| foin ||| 0.0168734322674155
fight ||| fight ||| 0.983126567732584
fights ||| foins ||| 0.132130063689701
fights ||| fights ||| 0.867869936310299
figs ||| figs ||| 1
filled ||| stuffed ||| 0.681169833273957
filled ||| filled ||| 0.318830166726043
fine ||| incony ||| 0.0124013493083821
fine ||| fine ||| 0.263139436556616
fine ||| old ||| 0.724459214135002
fines ||| fines ||| 1
fire ||| rive ||| 0.0506808889520939
fire ||| fire ||| 0.949319111047906
fires ||| fires ||| 1
fit ||| fit ||| 0.967117909095979
fit ||| rapture ||| 0.0328820909040206
fitful ||| humorous ||| 0.853115250892535
fitful ||| fitful ||| 0.146884749107465
fits ||| raptures ||| 0.0487985057598709
fits ||| fits ||| 0.951201494240129
five ||| five ||| 0.672245377950789
five ||| wits ||| 0.327754622049211
fives ||| fives ||| 1
fixed ||| fixed ||| 0.602967584956946
fixed ||| seated ||| 0.397032415043054
flatter ||| smooth ||| 0.493838981455393
flatter ||| flatter ||| 0.455317526850674
flatter ||| claw ||| 0.0508434916939328
flattered ||| smoothed ||| 0.350295665869655
flattered ||| flattered ||| 0.649704334130345
flatters ||| claws ||| 0.347570583355363
flatters ||| flatters ||| 0.47923774150553
flatters ||| smooths ||| 0.173191675139107
flattery ||| flattery ||| 1
fleece ||| pheeze ||| 0.220880380087283
fleece ||| fleece ||| 0.779119619912717
fleeces ||| fleeces ||| 1
flinch ||| blench ||| 0.702762029009214
flinch ||| flinch ||| 0.297237970990786
float ||| waft ||| 0.702762029009214
float ||| float ||| 0.297237970990786
floated ||| floated ||| 1
floats ||| wafts ||| 1
flute ||| flute ||| 0.573589329723998
flute ||| recorder ||| 0.426410670276002
flutes ||| recorders ||| 0.401298394798379
flutes ||| flutes ||| 0.598701605201621
fodder ||| stover ||| 0.5
fodder ||| fodder ||| 0.5
fool ||| geck ||| 0.0162826991591319
fool ||| ninny ||| 0.021902787964332
fool ||| motley ||| 0.063389072733071
fool ||| sot ||| 0.0467945633222296
fool ||| fool ||| 0.851630876821236
foolish ||| motley-minded ||| 0.0211356454409121
foolish ||| lewd ||| 0.122757070238159
foolish ||| nice ||| 0.315576398038674
foolish ||| foolish ||| 0.540530886282255
foolishly ||| greenly ||| 0.350295665869655
foolishly ||| foolishly ||| 0.649704334130345
fools ||| sots ||| 0.0196455470119125
fools ||| fools ||| 0.980354452988087
forbid ||| forbid ||| 0.494995668152429
forbid ||| defend ||| 0.41677186973441
forbid ||| forfend ||| 0.0882324621131611
forbidden ||| forbidden ||| 1
forbided ||| defended ||| 0.734543429954753
forbided ||| forfended ||| 0.265456570045247
forbids ||| defends ||| 0.258138963528152
forbids ||| forbids ||| 0.741861036471848
forces ||| forces ||| 0.125968025145498
forces ||| power ||| 0.874031974854502
forcess ||| powers ||| 1
forecast ||| forecast ||| 0.146884749107465
forecast ||| provision ||| 0.853115250892535
foreign ||| strange ||| 0.801023731591959
foreign ||| foreign ||| 0.173075814038878
foreign ||| extravagant ||| 0.0259004543691631
foreigner ||| stranger ||| 1
foreigners ||| strangers ||| 0.926741251541309
foreigners ||| foreigners ||| 0.0732587484586913
forerunners ||| vaunt-couriers ||| 1
forester ||| woodman ||| 0.5
forester ||| forester ||| 0.5
foresters ||| foresters ||| 1
forge ||| forge ||| 0.734543429954753
forge ||| stithy ||| 0.265456570045247
forges ||| forges ||| 1
formed ||| create ||| 0.917558172942677
formed ||| formed ||| 0.0824418270573231
formeds ||| creates ||| 1
former ||| former ||| 1
formerly ||| sometimes ||| 0.869690070026508
formerly ||| formerly ||| 0.130309929973493
fortify ||| fortify ||| 1
fortune ||| fortune ||| 0.360292489639099
fortune ||| worth ||| 0.202006902449688
fortune ||| speed ||| 0.163182359817687
fortune ||| hap ||| 0.0526813880540464
fortune ||| cheer ||| 0.106438613647055
fortune ||| having ||| 0.115398246392424
fortuneed ||| speeded ||| 0.5
fortuneed ||| cheered ||| 0.5
fortunes ||| fortunes ||| 0.670738323764076
fortunes ||| havings ||| 0.0297663868198948
fortunes ||| haps ||| 0.10499608872516
fortunes ||| cheers ||| 0.0823664069354871
fortunes ||| worths ||| 0.0297663868198948
fortunes ||| speeds ||| 0.0823664069354871
forward ||| propagate ||| 0.0727616261650579
forward ||| forward ||| 0.927238373834942
fraud ||| fraud ||| 0.284471581511506
fraud ||| conveyance ||| 0.715528418488494
frauds ||| conveyances ||| 1
free ||| large ||| 0.298681486270242
free ||| free ||| 0.701318513729758
free-school ||| charge-house ||| 1
freeholder ||| franklin ||| 1
freeholders ||| franklins ||| 1
frees ||| larges ||| 0.5
frees ||| frees ||| 0.5
freight ||| fraughtage ||| 1
freighted ||| fraught ||| 1
fresh ||| green ||| 0.460439816005509
fresh ||| flush ||| 0.0314558823409196
fresh ||| fresh ||| 0.508104301653571
freshs ||| greens ||| 1
frighteneded ||| gasted ||| 1
frontiers ||| frontiers ||| 0.189122517567645
frontiers ||| marches ||| 0.810877482432355
fully ||| out ||| 0.980692682657784
fully ||| fully ||| 0.0193073173422157
function ||| office ||| 0.761873859596186
function ||| function ||| 0.238126140403814
functions ||| offices ||| 0.771209750557784
functions ||| functions ||| 0.228790249442216
funereally ||| obsequiously ||| 1
funnel ||| tundish ||| 1
gain ||| purchase ||| 0.285516496538152
gain ||| gain ||| 0.714483503461848
gained ||| gained ||| 1
gains ||| gains ||| 0.779119619912717
gains ||| purchases ||| 0.220880380087283
gallows-bird ||| crack-hemp ||| 1
game ||| base ||| 0.789757594482332
game ||| game ||| 0.171376319199245
game ||| quarry ||| 0.0388660863184233
games ||| bases ||| 0.426410670276002
games ||| games ||| 0.573589329723998
gang ||| ging ||| 1
garment ||| garment ||| 0.477557976230963
garment ||| weed ||| 0.522442023769036
garmented ||| weeded ||| 1
garments ||| garments ||| 0.421996286154355
garments ||| weeds ||| 0.578003713845645
gate ||| port ||| 0.280054066418288
gate ||| gate ||| 0.719945933581712
gates ||| ports ||| 0.204931435655894
gates ||| gates ||| 0.795068564344106
gaudy ||| gaudy ||| 0.649704334130345
gaudy ||| garish ||| 0.350295665869655
generally ||| generally ||| 0.5
generally ||| lightly ||| 0.5
gentlefolk ||| gentle ||| 1
gentlefolks ||| gentles ||| 1
gentleman ||| gentleman ||| 1
gently ||| gently ||| 0.617556275336487
gently ||| softly ||| 0.382443724663513
gibe ||| gird ||| 0.779119619912717
gibe ||| gibe ||| 0.220880380087283
gibeed ||| girded ||| 1
gibes ||| gibes ||| 1
gifted ||| parted ||| 1
glad ||| fain ||| 0.468931004138855
glad ||| glad ||| 0.531068995861145
glads ||| glads ||| 1
glance ||| eye ||| 0.931582335519748
glance ||| glance ||| 0.0684176644802515
glances ||| eyes ||| 0.982197426322787
glances ||| glances ||| 0.0178025736772133
glittering ||| clinquant ||| 0.189122517567645
glittering ||| glittering ||| 0.810877482432355
go ||| wend ||| 0.0168912412711129
go ||| go ||| 0.983108758728887
going ||| going ||| 0.674582415976332
going ||| gait ||| 0.325417584023668
gospel ||| writ ||| 1
gospels ||| writs ||| 0.5
gospels ||| gospels ||| 0.5
government ||| government ||| 0.759342791622404
government ||| regiment ||| 0.240657208377596
governments ||| regiments ||| 1
gown ||| gown ||| 1
gowns ||| gowns ||| 1
grain ||| grain ||| 0.203516932275849
grain ||| hair ||| 0.796483067724151
grained ||| grained ||| 1
grains ||| hairs ||| 0.863079683698339
grains ||| grains ||| 0.136920316301661
grandson ||| nephew ||| 1
grandsons ||| nephews ||| 1
great ||| great ||| 0.538263085450433
great ||| old ||| 0.461736914549567
grief ||| thought ||| 0.55494910819109
grief ||| teen ||| 0.0104075176917248
grief ||| grief ||| 0.427667411288225
grief ||| condolement ||| 0.00697596282895952
griefs ||| condolements ||| 0.0110912746859968
griefs ||| thoughts ||| 0.781144647269946
griefs ||| griefs ||| 0.207764078044057
grossly ||| greasily ||| 0.110025547878327
grossly ||| grossly ||| 0.889974452121673
grow ||| wax ||| 0.223665854378427
grow ||| grow ||| 0.776334145621573
growed ||| waxed ||| 1
grows ||| grows ||| 1
guardianship ||| guardage ||| 1
guess ||| guess ||| 0.472364934133058
guess ||| aim ||| 0.527635065866942
guessed ||| aimed ||| 1
guesss ||| aims ||| 1
guilt ||| guilt ||| 0.685341717112896
guilt ||| fact ||| 0.314658282887104
guilts ||| guilts ||| 1
gull ||| stale ||| 0.737346753863088
gull ||| gull ||| 0.262653246136912
gulls ||| gulls ||| 1
hamstring ||| hamstring ||| 1
hand ||| hand ||| 1
hand-gun ||| caliver ||| 1
hand-mill ||| quern ||| 1
handed ||| handed ||| 1
handkerchief ||| handkerchief ||| 0.582059542594646
handkerchief ||| napkin ||| 0.417940457405354
handkerchiefs ||| napkins ||| 1
hands ||| hands ||| 1
handsome ||| handsome ||| 0.143389795026675
handsome ||| brave ||| 0.856610204973325
handsomes ||| braves ||| 1
handwriting ||| character ||| 0.905742926613945
handwriting ||| handwriting ||| 0.0942570733860553
handwritings ||| characters ||| 1
happened ||| happened ||| 0.426410670276002
happened ||| betid ||| 0.573589329723998
harass ||| harry ||| 1
hardly ||| hardly ||| 0.947290582155341
hardly ||| uneath ||| 0.0527094178446586
harlot ||| drab ||| 0.575303874535928
harlot ||| harlot ||| 0.424696125464072
harlots ||| drabs ||| 0.332573400460713
harlots ||| harlots ||| 0.667426599539287
harsh ||| eager ||| 0.273471309023493
harsh ||| harsh ||| 0.726528690976507
hastily ||| suddenly ||| 0.8996746915476
hastily ||| hastily ||| 0.1003253084524
hasty ||| hasty ||| 0.298956966419722
hasty ||| sudden ||| 0.701043033580278
haunted ||| haunted ||| 0.810877482432355
haunted ||| sprited ||| 0.189122517567645
hawk ||| hawk ||| 0.779119619912717
hawk ||| staniel ||| 0.220880380087283
hawks ||| hawks ||| 1
he-cat ||| gib ||| 1
head ||| head ||| 1
head-dress ||| tire ||| 1
head-dresss ||| tires ||| 1
headed ||| headed ||| 1
headlong ||| heady ||| 0.258138963528152
headlong ||| headlong ||| 0.741861036471848
heads ||| heads ||| 1
healthy ||| stout ||| 0.898467228547018
healthy ||| healthy ||| 0.101532771452982
heaped ||| balked ||| 1
heat ||| heat ||| 0.419797919423568
heat ||| pride ||| 0.580202080576432
heated ||| heated ||| 1
heats ||| prides ||| 0.5
heats ||| heats ||| 0.5
heir-apparent ||| heir-apparent ||| 0.163367521445445
heir-apparent ||| apparent ||| 0.836632478554556
held ||| held ||| 1
helmet ||| helmet ||| 0.681169833273957
helmet ||| burgonet ||| 0.318830166726043
helmets ||| helmets ||| 1
help ||| boot ||| 0.121630588722079
help ||| help ||| 0.766361729473201
help ||| holp ||| 0.112007681804721
helped ||| helped ||| 1
helps ||| boots ||| 0.52059360158689
helps ||| helps ||| 0.47940639841311
hemlock ||| hemlock ||| 1
hen-pecked ||| woman-tired ||| 1
henbane ||| hebenon ||| 1
hence ||| backward ||| 0.117442801982012
hence ||| caitiff ||| 0.0575220564837511
hence ||| blank ||| 0.0442064259709273
hence ||| bore ||| 0.137416348549095
hence ||| hence ||| 0.643412367014215
henceforward ||| henceforward ||| 0.0362960721114243
henceforward ||| hence ||| 0.963703927888576
hences ||| caitiffs ||| 0.147624364210197
hences ||| bores ||| 0.296260696969361
hences ||| blanks ||| 0.408490574610245
hences ||| backwards ||| 0.147624364210197
herb ||| herb ||| 1
herbs ||| vegetives ||| 0.132130063689701
herbs ||| herbs ||| 0.867869936310299
hermit ||| anchor ||| 0.62215450411647
hermit ||| hermit ||| 0.37784549588353
hermits ||| anchors ||| 0.702762029009214
hermits ||| hermits ||| 0.297237970990786
herring ||| herring ||| 1
herrings ||| herrings ||| 1
hesitating ||| mammering ||| 1
hiccough ||| waxen ||| 1
hidden ||| hidden ||| 0.810877482432355
hidden ||| enshield ||| 0.189122517567645
hoist ||| hoise ||| 0.265456570045247
hoist ||| hoist ||| 0.734543429954753
hoisted ||| hoisted ||| 1
hoists ||| hoists ||| 1
hold ||| hold ||| 0.6843850761415
hold ||| tender ||| 0.3156149238585
holds ||| holds ||| 0.917800653889754
holds ||| tenders ||| 0.0821993461102459
holiness ||| holiness ||| 0.834651208040969
holiness ||| halidom ||| 0.165348791959031
honest ||| true ||| 0.621403987367748
honest ||| honest ||| 0.378596012632252
honour ||| worship ||| 0.119272073014468
honour ||| honour ||| 0.880727926985531
honoured ||| honoured ||| 1
honours ||| honours ||| 0.859984636368103
honours ||| worships ||| 0.140015363631897
hooded ||| hooded ||| 1
hope ||| hope ||| 0.956294734339432
hope ||| esperance ||| 0.0437052656605677
hopes ||| hopes ||| 1
horned ||| forked ||| 0.702762029009214
horned ||| horned ||| 0.297237970990786
hubbub ||| whoo-bub ||| 1
huntsman ||| woodman ||| 0.362628343857567
huntsman ||| huntsman ||| 0.637371656142433
hurried ||| hurried ||| 0.37784549588353
hurried ||| humorous ||| 0.62215450411647
hurt ||| shent ||| 0.0624533698794691
hurt ||| hurt ||| 0.937546630120531
hurts ||| hurts ||| 1
husband ||| husband ||| 1
husbanded ||| husbanded ||| 1
husbands ||| husbands ||| 1
hushed ||| whist ||| 1
hypocritical ||| pathetical ||| 1
idiot ||| idiot ||| 0.193694619833942
idiot ||| natural ||| 0.806305380166058
idiots ||| idiots ||| 1
if ||| an ||| 0.72681224212999
if ||| if ||| 0.27318775787001
ifs ||| ifs ||| 1
ignorant ||| skilless ||| 0.0755959515598892
ignorant ||| lewd ||| 0.218782982310703
ignorant ||| ignorant ||| 0.705621066129408
ill-regulated ||| incorrect ||| 1
illegitimate ||| illegitimate ||| 0.598701605201621
illegitimate ||| miscreate ||| 0.401298394798379
image ||| statue ||| 0.281518951027405
image ||| module ||| 0.0573102938967497
image ||| image ||| 0.661170755075845
images ||| images ||| 0.7718696913647
images ||| statues ||| 0.2281303086353
imagination ||| imagination ||| 0.526824664199151
imagination ||| invention ||| 0.473175335800849
imaginations ||| inventions ||| 0.5
imaginations ||| imaginations ||| 0.5
immature ||| green ||| 1
immatures ||| greens ||| 1
immediately ||| straight ||| 0.811662260609619
immediately ||| immediately ||| 0.188337739390382
immensity ||| vastidity ||| 1
impaired ||| impaired ||| 1
importance ||| importance ||| 0.18353799364079
importance ||| bore ||| 0.81646200635921
importances ||| bores ||| 1
importunate ||| importunate ||| 0.202439139766326
importunate ||| important ||| 0.376964526037386
importunate ||| factious ||| 0.420596334196288
importunity ||| importance ||| 0.637371656142433
importunity ||| importunity ||| 0.362628343857567
imposition ||| daubery ||| 0.0363014282351586
imposition ||| imposition ||| 0.183243134534632
imposition ||| impose ||| 0.238438681785602
imposition ||| suppose ||| 0.542016755444608
impositions ||| impositions ||| 0.401298394798379
impositions ||| supposes ||| 0.598701605201621
inadequately ||| rawly ||| 1
incident ||| incident ||| 1
incite ||| cite ||| 0.420376250340538
incite ||| incite ||| 0.579623749659462
incited ||| incensed ||| 1
incites ||| incites ||| 0.401298394798379
incites ||| cites ||| 0.598701605201621
inclination ||| inclination ||| 0.285332871468448
inclination ||| stomach ||| 0.714667128531552
inclinations ||| stomachs ||| 1
inconsiderate ||| inconsiderate ||| 0.5
inconsiderate ||| unrespective ||| 0.5
inconsiderately ||| securely ||| 1
inconstant ||| moonish ||| 0.137090853055837
inconstant ||| inconstant ||| 0.587787679754528
inconstant ||| fleeting ||| 0.275121467189635
incontinent ||| incontinent ||| 0.741861036471848
incontinent ||| unstanched ||| 0.258138963528152
increasing ||| crescive ||| 0.265456570045247
increasing ||| increasing ||| 0.734543429954753
indeed ||| indeed ||| 1
inexpressible ||| unexpressive ||| 1
infect ||| infect ||| 0.0960284187233875
infect ||| take ||| 0.903971581276612
infected ||| infected ||| 1
infection ||| taking ||| 0.53665746245837
infection ||| infection ||| 0.46334253754163
infections ||| infections ||| 1
infects ||| takes ||| 0.913912224380633
infects ||| infects ||| 0.0860877756193669
inflate ||| blow ||| 1
inflateed ||| blowed ||| 1
inflates ||| blows ||| 1
inform ||| possess ||| 0.57431679445478
inform ||| inform ||| 0.42568320554522
information ||| information ||| 0.100112066983556
information ||| instance ||| 0.899887933016444
informations ||| instances ||| 0.810877482432355
informations ||| informations ||| 0.189122517567645
informed ||| informed ||| 0.274087978874617
informed ||| possessed ||| 0.725912021125383
informs ||| informs ||| 1
injure ||| scathe ||| 0.667426599539287
injure ||| injure ||| 0.332573400460713
inquest ||| quest ||| 1
inquests ||| quests ||| 1
insidious ||| cautelous ||| 1
insignificant ||| picking ||| 1
instant ||| instant ||| 0.618673213865914
instant ||| factious ||| 0.381326786134085
instigation ||| instigation ||| 0.667426599539287
instigation ||| putting-on ||| 0.332573400460713
instigations ||| instigations ||| 1
instigator ||| putter-on ||| 1
instructed ||| seen ||| 0.90644002948973
instructed ||| instructed ||| 0.0935599705102699
insult ||| fig ||| 0.420376250340538
insult ||| insult ||| 0.579623749659462
insulted ||| insulted ||| 1
insults ||| figs ||| 1
intelligent ||| intelligent ||| 0.274087978874617
intelligent ||| witty ||| 0.725912021125383
intention ||| intendment ||| 0.573589329723998
intention ||| intention ||| 0.426410670276002
interest ||| use ||| 0.753337755720722
interest ||| commodity ||| 0.071448272693417
interest ||| interest ||| 0.175213971585861
interests ||| uses ||| 1
interviews ||| entreatments ||| 1
interwoven ||| pleached ||| 1
intimacy ||| inwardness ||| 1
intricate ||| intrinsicate ||| 0.25
intricate ||| intricate ||| 0.25
intricate ||| intrinse ||| 0.25
intricate ||| plaited ||| 0.25
introduction ||| induction ||| 1
introductions ||| inductions ||| 1
invisible ||| sightless ||| 0.12223984372567
invisible ||| invisible ||| 0.816849008100591
invisible ||| viewless ||| 0.0609111481737388
invite ||| invite ||| 0.898467228547018
invite ||| indite ||| 0.101532771452982
invites ||| invites ||| 1
inward ||| inly ||| 0.238211369801534
inward ||| inward ||| 0.761788630198466
inwardly ||| inwardly ||| 0.350295665869655
inwardly ||| inly ||| 0.649704334130345
inwards ||| inwards ||| 1
issue ||| success ||| 0.348636272887631
issue ||| issue ||| 0.651363727112369
issues ||| issues ||| 1
jealous ||| jealous ||| 0.879794767030922
jealous ||| emulous ||| 0.120205232969078
jealousy ||| jealousy ||| 0.694487769049561
jealousy ||| emulation ||| 0.305512230950439
jealousys ||| emulations ||| 1
jester ||| ninny ||| 0.5
jester ||| jester ||| 0.5
jesters ||| jesters ||| 1
jilt ||| huswife ||| 1
judge ||| censure ||| 0.347433841199149
judge ||| judge ||| 0.615344209102513
judge ||| justicer ||| 0.0372219496983389
judges ||| justicers ||| 0.199453097697136
judges ||| censures ||| 0.400273451151432
judges ||| judges ||| 0.400273451151432
judgment ||| rate ||| 0.274201291746422
judgment ||| deem ||| 0.122146913225979
judgment ||| judgment ||| 0.603651795027599
judgments ||| rates ||| 0.369105620494187
judgments ||| judgments ||| 0.630894379505813
juicy ||| lush ||| 1
jury ||| quest ||| 0.702762029009214
jury ||| jury ||| 0.297237970990786
jurys ||| quests ||| 1
kill ||| kill ||| 0.982682303068529
kill ||| fordo ||| 0.0173176969314708
killed ||| killed ||| 1
kills ||| kills ||| 1
kite ||| kite ||| 0.741861036471848
kite ||| puttock ||| 0.258138963528152
kites ||| kites ||| 1
know ||| know ||| 0.316385187736836
know ||| can ||| 0.664639491914385
know ||| wot ||| 0.0158377740520724
know ||| weet ||| 0.00313754629670617
knowledge ||| knowledge ||| 0.277373461803175
knowledge ||| wit ||| 0.722626538196825
knowledges ||| wits ||| 1
knows ||| wots ||| 0.0299138495037282
knows ||| knows ||| 0.970086150496272
labour ||| travail ||| 0.113552342240538
labour ||| labour ||| 0.886447657759462
laboured ||| laboured ||| 1
labours ||| travails ||| 0.169142111418329
labours ||| labours ||| 0.830857888581671
ladykin ||| lakin ||| 1
lamb ||| lamb ||| 1
lambs ||| eanlings ||| 0.132130063689701
lambs ||| lambs ||| 0.867869936310299
lament ||| lament ||| 1
lamentable ||| wailful ||| 0.146884749107465
lamentable ||| lamentable ||| 0.853115250892535
lamentation ||| lamentation ||| 0.5
lamentation ||| dole ||| 0.5
lamentations ||| lamentations ||| 1
lamented ||| lamented ||| 1
laments ||| laments ||| 1
languid ||| quail ||| 1
languids ||| quails ||| 1
lascivious ||| salt ||| 0.387292983110158
lascivious ||| luxurious ||| 0.0651416310723131
lascivious ||| capricious ||| 0.0235415269491612
lascivious ||| saucy ||| 0.351498623484956
lascivious ||| lascivious ||| 0.172525235383412
laugh ||| laugh ||| 1
laughed ||| laughed ||| 1
laughs ||| laughs ||| 1
lawless ||| irregulous ||| 0.189122517567645
lawless ||| lawless ||| 0.810877482432355
lawn ||| laund ||| 0.401298394798379
lawn ||| lawn ||| 0.598701605201621
lawns ||| lawns ||| 1
lazy ||| lither ||| 0.165348791959031
lazy ||| lazy ||| 0.834651208040969
leaving ||| ort ||| 0.146884749107465
leaving ||| leaving ||| 0.853115250892535
leavings ||| orts ||| 1
lecherous ||| prime ||| 0.743201897751553
lecherous ||| lecherous ||| 0.256798102248447
leopard ||| leopard ||| 0.283686942433269
leopard ||| lubber ||| 0.526163050226443
leopard ||| libbard ||| 0.190150007340288
leopards ||| leopards ||| 1
leper ||| leper ||| 1
letter ||| character ||| 0.285454027874894
letter ||| letter ||| 0.714545972125106
lettered ||| lettered ||| 1
letters ||| letters ||| 0.86794332252762
letters ||| characters ||| 0.13205667747238
libertinism ||| liberty ||| 1
licentious ||| large ||| 0.637064166834799
licentious ||| liberal ||| 0.266221531729287
licentious ||| irregulous ||| 0.0256734467334999
licentious ||| licentious ||| 0.0710408547024143
licentiouss ||| larges ||| 1
lightness ||| lightness ||| 0.810877482432355
lightness ||| legerity ||| 0.189122517567645
liken ||| like ||| 0.996882682399398
liken ||| liken ||| 0.00311731760060215
likens ||| likes ||| 1
lineage ||| strain ||| 1
lineages ||| strains ||| 1
lips ||| labras ||| 0.0346558972897031
lips ||| lips ||| 0.965344102710297
lively ||| lively ||| 0.128415770910919
lively ||| living ||| 0.871584229089081
livelys ||| livings ||| 1
lonely ||| lonely ||| 1
longingly ||| longly ||| 1
looks ||| aspect ||| 0.188226184438675
looks ||| looks ||| 0.811773815561325
lookss ||| aspects ||| 1
lost ||| perdu ||| 0.0219013881722566
lost ||| lost ||| 0.978098611827743
love ||| affect ||| 0.0513993265352172
love ||| love ||| 0.948600673464783
loveed ||| affected ||| 1
loves ||| affects ||| 0.108705211904206
loves ||| loves ||| 0.891294788095794
lowborn ||| crestless ||| 1
lower ||| lower ||| 0.746863733110362
lower ||| vail ||| 0.253136266889638
lowered ||| vailed ||| 1
lowering ||| lowering ||| 0.401298394798379
lowering ||| vailing ||| 0.598701605201621
lowers ||| vails ||| 1
lowness ||| lowness ||| 0.667426599539287
lowness ||| flatness ||| 0.332573400460713
lug ||| lug ||| 0.598701605201621
lug ||| sowl ||| 0.401298394798379
lull ||| lull ||| 0.5
lull ||| loof ||| 0.5
lulls ||| lulls ||| 1
lust ||| lust ||| 0.806305380166058
lust ||| luxury ||| 0.193694619833942
lustful ||| lustful ||| 0.420376250340538
lustful ||| fulsome ||| 0.579623749659462
lusts ||| lusts ||| 1
lusty ||| lusty ||| 0.937229315522854
lusty ||| lustig ||| 0.0627706844771457
luxuriant ||| lush ||| 1
lying ||| leasing ||| 0.100112066983556
lying ||| lying ||| 0.899887933016444
mad ||| wood ||| 0.196117405802956
mad ||| distraught ||| 0.0186467067060864
mad ||| mad ||| 0.785235887490958
mads ||| woods ||| 0.741861036471848
mads ||| mads ||| 0.258138963528152
magistrate ||| magistrate ||| 0.5
magistrate ||| justicer ||| 0.5
magistrates ||| justicers ||| 0.189122517567645
magistrates ||| magistrates ||| 0.810877482432355
magpies ||| magot-pies ||| 1
maintain ||| maintain ||| 1
maintained ||| escoted ||| 0.189122517567645
maintained ||| maintained ||| 0.810877482432355
maintains ||| maintains ||| 1
maintenance ||| disposition ||| 0.920679326791422
maintenance ||| maintenance ||| 0.0793206732085783
maintenances ||| dispositions ||| 1
malcontent ||| malcontent ||| 0.169142111418329
malcontent ||| discontent ||| 0.830857888581671
malcontented ||| discontented ||| 1
malcontents ||| malcontents ||| 0.220880380087283
malcontents ||| discontents ||| 0.779119619912717
mallet ||| beetle ||| 1
mallets ||| beetles ||| 1
manage ||| helm ||| 0.139108582321407
manage ||| convey ||| 0.557905862051252
manage ||| manage ||| 0.30298555562734
manageed ||| conveyed ||| 0.667426599539287
manageed ||| helmed ||| 0.332573400460713
manages ||| helms ||| 1
mangy ||| roynish ||| 0.5
mangy ||| mangy ||| 0.5
margin ||| margent ||| 1
measure ||| be-mete ||| 0.026330999405944
measure ||| measure ||| 0.973669000594056
measures ||| order ||| 0.826373377390213
measures ||| measures ||| 0.173626622609787
measuresed ||| ordered ||| 1
measuress ||| orders ||| 1
measuring-wand ||| mete-yard ||| 1
meddle ||| meddle ||| 0.879931067004465
meddle ||| mell ||| 0.120068932995535
meditate ||| meditate ||| 0.0403770535871862
meditate ||| beat ||| 0.959622946412814
meditates ||| beats ||| 0.905742926613945
meditates ||| meditates ||| 0.0942570733860553
melancholy ||| sullen ||| 0.168293098123431
melancholy ||| melancholy ||| 0.831706901876568
melancholys ||| sullens ||| 1
mercenary ||| mercenary ||| 1
merit ||| merit ||| 1
merited ||| merited ||| 1
merits ||| demerits ||| 0.184863211694737
merits ||| merits ||| 0.815136788305263
merrily ||| merrily ||| 0.820520640720979
merrily ||| jovial ||| 0.179479359279021
messenger ||| messenger ||| 0.954572092445581
messenger ||| missive ||| 0.0454279075544188
messengers ||| messengers ||| 0.889974452121673
messengers ||| missives ||| 0.110025547878327
metaphorically ||| blank ||| 0.834651208040969
metaphorically ||| canvas ||| 0.165348791959031
metaphoricallys ||| canvass ||| 0.209771379223039
metaphoricallys ||| hefts ||| 0.209771379223039
metaphoricallys ||| blanks ||| 0.580457241553923
mingled ||| mingled ||| 1
mischief ||| mischief ||| 0.960086010248146
mischief ||| mallecho ||| 0.0399139897518539
mischiefs ||| mischiefs ||| 1
mischievous ||| shrewd ||| 0.329997261457776
mischievous ||| mischievous ||| 0.0608652395770406
mischievous ||| unhappy ||| 0.609137498965183
misfortune ||| wroth ||| 0.120068932995535
misfortune ||| misfortune ||| 0.879931067004465
misfortunes ||| misfortunes ||| 1
misgiving ||| misgiving ||| 0.5
misgiving ||| gain-giving ||| 0.5
mistake ||| misprision ||| 0.240657208377596
mistake ||| mistake ||| 0.759342791622404
mistakes ||| mistakes ||| 1
mix ||| temper ||| 0.814998389170433
mix ||| mell ||| 0.0349879703941575
mix ||| mix ||| 0.15001364043541
mixed ||| tempered ||| 1
mixs ||| tempers ||| 1
model ||| model ||| 0.741861036471848
model ||| module ||| 0.258138963528152
moderate ||| qualify ||| 0.5
moderate ||| moderate ||| 0.5
modesty ||| pudency ||| 0.0549097280609733
modesty ||| modesty ||| 0.945090271939027
modulate ||| turn ||| 1
modulateed ||| turned ||| 1
modulates ||| turns ||| 1
molly-coddle ||| cot-quean ||| 1
momentary ||| momentary ||| 0.734543429954753
momentary ||| momentany ||| 0.265456570045247
moor ||| moor ||| 0.940088299386192
moor ||| morisco ||| 0.0599117006138077
moors ||| moors ||| 1
more-important ||| primer ||| 1
motley-coated ||| pied ||| 1
mouldy ||| mouldy ||| 1
much ||| much ||| 0.977978231738294
much ||| mickle ||| 0.022021768261706
muffled ||| mobled ||| 0.258138963528152
muffled ||| muffled ||| 0.741861036471848
murder ||| murder ||| 0.949643382963649
murder ||| quell ||| 0.0503566170363508
murdered ||| murdered ||| 1
murderous ||| murderous ||| 0.189945227127638
murderous ||| mortal ||| 0.810054772872362
murderouss ||| mortals ||| 1
murders ||| murders ||| 1
muscles ||| muscles ||| 1
mutineer ||| mutine ||| 0.5
mutineer ||| mutineer ||| 0.5
mutineers ||| mutines ||| 1
mutiny ||| emulation ||| 0.387788804758278
mutiny ||| mutiny ||| 0.612211195241722
mutinys ||| emulations ||| 1
natural ||| kindly ||| 0.460998191909249
natural ||| natural ||| 0.539001808090751
nearest ||| next ||| 0.866623461457607
nearest ||| nearest ||| 0.133376538542393
neatly ||| neatly ||| 0.5
neatly ||| feater ||| 0.5
necklace ||| necklace ||| 1
needle ||| needle ||| 1
needles ||| needles ||| 1
night-cap ||| night-cap ||| 1
night-caps ||| night-caps ||| 1
nimble ||| nimble ||| 0.815136788305263
nimble ||| tight ||| 0.184863211694737
nimbly ||| featly ||| 0.350295665869655
nimbly ||| nimbly ||| 0.649704334130345
noble ||| generous ||| 0.0437058110647875
noble ||| gentle ||| 0.412322642006161
noble ||| noble ||| 0.543971546929051
nobleness ||| nobility ||| 0.670386871814163
nobleness ||| nobleness ||| 0.329613128185837
nobles ||| nobles ||| 0.836632478554556
nobles ||| gentles ||| 0.163367521445445
nod ||| mop ||| 0.0775794950517591
nod ||| nod ||| 0.922420504948241
nods ||| nods ||| 1
noise ||| hurtling ||| 0.0399684164335833
noise ||| hurly ||| 0.0399684164335833
noise ||| bruit ||| 0.0802108173181693
noise ||| noise ||| 0.839852349814664
noiseed ||| bruited ||| 1
noises ||| noises ||| 1
noisome ||| noisome ||| 0.143736887169316
noisome ||| wicked ||| 0.856263112830684
noose ||| slips ||| 1
note ||| quote ||| 0.0633158131122173
note ||| note ||| 0.936684186887783
note-book ||| table-book ||| 0.0767849454876817
note-book ||| note-book ||| 0.0514675008404408
note-book ||| tables ||| 0.25979876382748
note-book ||| table ||| 0.611948789844398
note-books ||| tables ||| 1
notes ||| quotes ||| 0.065916296023222
notes ||| notes ||| 0.934083703976778
nurse ||| nurse ||| 0.724695383155598
nurse ||| nourish ||| 0.275304616844402
nurseed ||| nourished ||| 1
nurses ||| nurses ||| 1
oath ||| oath ||| 1
oaths ||| oaths ||| 1
obedient ||| obedient ||| 0.899887933016444
obedient ||| buxom ||| 0.100112066983556
obligation ||| obligation ||| 0.702762029009214
obligation ||| statute ||| 0.297237970990786
obligations ||| obligations ||| 0.132130063689701
obligations ||| statutes ||| 0.867869936310299
obtaining ||| propagation ||| 0.401298394798379
obtaining ||| obtaining ||| 0.598701605201621
occurrences ||| currents ||| 0.779119619912717
occurrences ||| occurrences ||| 0.220880380087283
open ||| ope ||| 0.219980608685412
open ||| open ||| 0.780019391314588
opened ||| opened ||| 1
opens ||| opens ||| 0.649704334130345
opens ||| opes ||| 0.350295665869655
opinion ||| rate ||| 0.203077732763531
opinion ||| opinion ||| 0.400151368160597
opinion ||| apprehension ||| 0.109232860345092
opinion ||| conceit ||| 0.28753803873078
opinioned ||| opinioned ||| 0.265456570045247
opinioned ||| conceited ||| 0.734543429954753
opinions ||| apprehensions ||| 0.117015608192377
opinions ||| rates ||| 0.249999876552902
opinions ||| conceits ||| 0.205671821443124
opinions ||| opinions ||| 0.427312693811598
oppose ||| front ||| 0.284456567836852
oppose ||| contrary ||| 0.382209929671311
oppose ||| oppose ||| 0.333333502491837
opposeed ||| fronted ||| 1
opposes ||| opposes ||| 0.332573400460713
opposes ||| fronts ||| 0.667426599539287
opposition ||| frontier ||| 0.204372248444061
opposition ||| opposition ||| 0.795627751555939
oppositions ||| frontiers ||| 0.5
oppositions ||| oppositions ||| 0.5
or ||| or ||| 0.986116617868234
or ||| humorous ||| 0.0138833821317656
order ||| ordinance ||| 0.067122942359123
order ||| order ||| 0.511930477375508
order ||| hair ||| 0.420946580265369
ordered ||| ordered ||| 1
orders ||| hairs ||| 0.781961427215085
orders ||| orders ||| 0.218038572784915
ordinary ||| indifferent ||| 0.655605821728735
ordinary ||| ordinary ||| 0.344394178271265
ordnance ||| ordnance ||| 0.637371656142433
ordnance ||| basilisk ||| 0.362628343857567
ordnances ||| basilisks ||| 1
ornament ||| tricking ||| 0.0429931159183875
ornament ||| ornament ||| 0.380447663872566
ornament ||| flourish ||| 0.576559220209047
ornaments ||| ornaments ||| 1
outlawed ||| forbid ||| 1
outlaweds ||| forbids ||| 1
outside ||| outside ||| 0.252038221168392
outside ||| outward ||| 0.747961778831608
outsides ||| outsides ||| 1
outward ||| extern ||| 0.0487985057598709
outward ||| outward ||| 0.951201494240129
outweigh ||| countervail ||| 1
outweighs ||| outweighs ||| 1
own ||| owe ||| 0.556459341177806
own ||| own ||| 0.443540658822194
owns ||| owes ||| 0.905742926613945
owns ||| owns ||| 0.0942570733860553
padding ||| bombast ||| 1
pale-faced ||| pale-faced ||| 1
palpably ||| grossly ||| 1
paltry ||| pelting ||| 0.451359657287554
paltry ||| paltry ||| 0.548640342712446
pan-cakes ||| flap-jacks ||| 1
parrot ||| parrot ||| 0.667426599539287
parrot ||| popinjay ||| 0.332573400460713
parrots ||| parrots ||| 1
passage ||| waftage ||| 0.0766503576003257
passage ||| passage ||| 0.923349642399674
passages ||| passages ||| 1
passion ||| passion ||| 0.721240764380191
passion ||| complexion ||| 0.278759235619809
passions ||| passions ||| 0.653567593851374
passions ||| complexions ||| 0.346432406148626
pause ||| pause ||| 0.887242753734953
pause ||| intermission ||| 0.112757246265047
pauses ||| pauses ||| 1
pearl ||| pearl ||| 0.800883464558218
pearl ||| union ||| 0.199116535441782
pearls ||| pearls ||| 1
pedant ||| pedascule ||| 0.189122517567645
pedant ||| pedant ||| 0.810877482432355
peep ||| peep ||| 1
peeps ||| peeps ||| 1
peevish ||| frampold ||| 0.0775794950517591
peevish ||| peevish ||| 0.922420504948241
pension ||| exhibition ||| 0.702762029009214
pension ||| pension ||| 0.297237970990786
perception ||| imperceiverant ||| 1
perhaps ||| perhaps ||| 0.755758677714541
perhaps ||| humorous ||| 0.24424132228546
period ||| gest ||| 0.146884749107465
period ||| period ||| 0.853115250892535
periods ||| gests ||| 0.401298394798379
periods ||| periods ||| 0.598701605201621
persevere ||| persever ||| 0.834651208040969
persevere ||| persevere ||| 0.165348791959031
perseveres ||| persevers ||| 1
person ||| person ||| 0.880714623058527
person ||| wight ||| 0.119285376941473
persons ||| wights ||| 0.0732587484586913
persons ||| persons ||| 0.926741251541309
petticoat-front ||| placket ||| 1
petticoat-fronts ||| plackets ||| 1
physician ||| physician ||| 0.376240226891668
physician ||| medicine ||| 0.584605945201013
physician ||| leech ||| 0.0391538279073192
physicians ||| medicines ||| 0.5
physicians ||| physicians ||| 0.5
picture ||| statue ||| 0.414087300413925
picture ||| picture ||| 0.585912699586075
pictures ||| statues ||| 0.2281303086353
pictures ||| pictures ||| 0.7718696913647
pike ||| pike ||| 1
pikes ||| pikes ||| 1
pilfering ||| pilfering ||| 0.401298394798379
pilfering ||| cony-catching ||| 0.598701605201621
pilferings ||| pilferings ||| 1
pillage ||| pill ||| 0.362628343857567
pillage ||| pillage ||| 0.637371656142433
pillages ||| pills ||| 1
pimple ||| quat ||| 1
pinched ||| pinched ||| 1
pitch ||| pitch ||| 0.524224936575936
pitch ||| pick ||| 0.475775063424064
pitched ||| plight ||| 0.485406910416045
pitched ||| picked ||| 0.394162183238554
pitched ||| pitched ||| 0.120430906345402
pitcheded ||| plighted ||| 1
pity ||| remorse ||| 0.216623097851556
pity ||| pity ||| 0.783376902148444
plausible ||| plausive ||| 0.667426599539287
plausible ||| plausible ||| 0.332573400460713
pleading ||| pleading ||| 0.734543429954753
pleading ||| advocation ||| 0.265456570045247
pleas ||| entreatments ||| 1
please ||| like ||| 0.872190957884009
please ||| please ||| 0.127809042115991
pleased ||| pleased ||| 1
pleases ||| pleases ||| 0.340873775651727
pleases ||| likes ||| 0.659126224348273
plenty ||| plenty ||| 0.725912021125383
plenty ||| foison ||| 0.274087978874617
plentys ||| foisons ||| 1
plough ||| plough ||| 0.139142904156834
plough ||| ear ||| 0.860857095843166
ploughed ||| ploughed ||| 1
ploughs ||| ears ||| 0.974682593757335
ploughs ||| ploughs ||| 0.0253174062426655
plunged ||| plunged ||| 1
poaching ||| cony-catching ||| 1
pocket ||| pocket ||| 0.905742926613945
pocket ||| impeticos ||| 0.0942570733860553
pockets ||| pockets ||| 1
pole-stars ||| lode-stars ||| 1
polecat ||| fitchew ||| 0.667426599539287
polecat ||| polecat ||| 0.332573400460713
polecats ||| polecats ||| 1
pomp ||| pomp ||| 0.770436902314291
pomp ||| port ||| 0.229563097685709
pomps ||| ports ||| 0.853115250892535
pomps ||| pomps ||| 0.146884749107465
portend ||| pretend ||| 0.5
portend ||| portend ||| 0.5
portended ||| pretended ||| 1
portends ||| portends ||| 1
portion ||| moiety ||| 0.459281658060036
portion ||| portion ||| 0.540718341939964
positive ||| absolute ||| 0.875948611780735
positive ||| positive ||| 0.124051388219265
possess ||| possess ||| 0.784093836634064
possess ||| inherit ||| 0.215906163365936
possessed ||| inherited ||| 0.169142111418329
possessed ||| possessed ||| 0.830857888581671
possesss ||| inherits ||| 1
potentate ||| potent ||| 1
potentates ||| potents ||| 0.332573400460713
potentates ||| potentates ||| 0.667426599539287
pound ||| pun ||| 0.069531768288543
pound ||| pinfold ||| 0.103735230009512
pound ||| pound ||| 0.826733001701945
pounds ||| pounds ||| 1
power ||| power ||| 0.684408949094143
power ||| danger ||| 0.315591050905857
powers ||| powers ||| 0.770097899661473
powers ||| dangers ||| 0.229902100338527
precedes ||| vaunt ||| 1
precedesed ||| vaunted ||| 1
precedess ||| vaunts ||| 1
preface ||| index ||| 0.734543429954753
preface ||| preface ||| 0.265456570045247
prefer ||| advance ||| 0.563939632213421
prefer ||| prefer ||| 0.436060367786579
prefers ||| prefers ||| 1
pregnant ||| childing ||| 0.101532771452982
pregnant ||| pregnant ||| 0.898467228547018
preparation ||| appointment ||| 0.236674625862889
preparation ||| preparation ||| 0.763325374137111
preparations ||| preparations ||| 0.5
preparations ||| appointments ||| 0.5
prepared ||| prepared ||| 1
present ||| largess ||| 0.0350660296697579
present ||| present ||| 0.964933970330242
presented ||| presented ||| 1
presents ||| presents ||| 1
pretence ||| pretence ||| 0.175320998836246
pretence ||| colour ||| 0.824679001163754
pretenceed ||| coloured ||| 1
pretences ||| colours ||| 0.954572092445581
pretences ||| pretences ||| 0.0454279075544188
pretty ||| pretty ||| 0.252086840310699
pretty ||| old ||| 0.747913159689301
pricked ||| pricked ||| 0.220880380087283
pricked ||| touched ||| 0.779119619912717
primer ||| primer ||| 1
prison ||| prison ||| 0.757737674904862
prison ||| cage ||| 0.242262325095138
prisons ||| prisons ||| 1
privy ||| privy ||| 0.557872258567489
privy ||| draught ||| 0.442127741432511
privys ||| draughts ||| 1
prize-fighter ||| priser ||| 1
probation ||| approbation ||| 0.653567593851374
probation ||| probation ||| 0.346432406148626
probe ||| search ||| 1
probeed ||| searched ||| 1
procurer ||| bawd ||| 1
procurers ||| bawds ||| 1
profit ||| commodity ||| 0.205453897106057
profit ||| profit ||| 0.525152434943647
profit ||| stead ||| 0.269393667950296
profited ||| steaded ||| 0.5
profited ||| profited ||| 0.5
profits ||| profits ||| 0.743201897751553
profits ||| steads ||| 0.256798102248447
projection ||| jutty ||| 0.598701605201621
projection ||| projection ||| 0.401298394798379
promise ||| promise ||| 0.820515554259304
promise ||| likelihood ||| 0.179484445740696
promises ||| promises ||| 0.863079683698339
promises ||| likelihoods ||| 0.136920316301661
promptly ||| tightly ||| 1
proof ||| approof ||| 0.0587821524513055
proof ||| instance ||| 0.284882967651996
proof ||| proof ||| 0.656334879896698
proofs ||| instances ||| 0.369105620494187
proofs ||| proofs ||| 0.630894379505813
property ||| having ||| 0.800334680895493
property ||| property ||| 0.199665319104507
propertys ||| havings ||| 1
prophesy ||| prenominate ||| 0.134738768742871
prophesy ||| prophesy ||| 0.730522462514259
prophesy ||| calculate ||| 0.134738768742871
prostitute ||| stale ||| 0.904747299830896
prostitute ||| prostitute ||| 0.0952527001691041
protest ||| abhor ||| 0.524655639705555
protest ||| protest ||| 0.475344360294446
protested ||| protested ||| 1
protests ||| protests ||| 0.420376250340538
protests ||| abhors ||| 0.579623749659462
proud ||| orgulous ||| 0.016451361348855
proud ||| proud ||| 0.983548638651145
prouds ||| prouds ||| 1
prove ||| prove ||| 0.982213966529155
prove ||| canvas ||| 0.0177860334708448
provender ||| provender ||| 0.734543429954753
provender ||| provand ||| 0.265456570045247
proves ||| canvass ||| 0.110025547878327
proves ||| proves ||| 0.889974452121673
publicly ||| publicly ||| 0.867869936310299
publicly ||| vulgarly ||| 0.132130063689701
published ||| published ||| 0.332573400460713
published ||| divulged ||| 0.667426599539287
pull ||| touse ||| 0.101532771452982
pull ||| pull ||| 0.898467228547018
pulled ||| pulled ||| 1
pulls ||| pulls ||| 1
punished ||| paid ||| 0.783450743469116
punished ||| punished ||| 0.216549256530884
punishment ||| punishment ||| 0.905742926613945
punishment ||| strappado ||| 0.0942570733860553
punishments ||| punishments ||| 1
puppet ||| puppet ||| 0.105852074390688
puppet ||| motion ||| 0.894147925609312
puppet-show ||| drollery ||| 1
puppets ||| puppets ||| 0.101532771452982
puppets ||| motions ||| 0.898467228547018
pure ||| pure ||| 0.961261521591826
pure ||| tested ||| 0.0387384784081734
push ||| push ||| 0.514586190576334
push ||| rush ||| 0.485413809423666
pushed ||| pushed ||| 1
quality ||| quality ||| 0.491115259435491
quality ||| condition ||| 0.508884740564509
qualitys ||| conditions ||| 1
qualm ||| calm ||| 0.909842809965351
qualm ||| qualm ||| 0.0901571900346489
qualms ||| calms ||| 1
quarrel ||| square ||| 0.215906163365936
quarrel ||| quarrel ||| 0.784093836634064
quarreller ||| quarreller ||| 0.5
quarreller ||| squarer ||| 0.5
quarrels ||| squares ||| 0.125778265010445
quarrels ||| quarrels ||| 0.874221734989555
quench ||| quench ||| 0.894506109016864
quench ||| dout ||| 0.105493890983136
quenched ||| quenched ||| 1
quenchs ||| douts ||| 1
question ||| question ||| 0.899821948076056
question ||| examine ||| 0.100178051923944
questions ||| examines ||| 0.132130063689701
questions ||| questions ||| 0.867869936310299
quick ||| swift ||| 0.348607246202019
quick ||| sprag ||| 0.0128661736962481
quick ||| rash ||| 0.211667611994511
quick ||| quick ||| 0.426858968107221
quickly ||| festinately ||| 0.0239353393402429
quickly ||| quickly ||| 0.976064660659757
ragosine ||| argosy ||| 1
rambling ||| skimble-skamble ||| 1
rank ||| ordinance ||| 0.140569657539697
rank ||| enseamed ||| 0.0278475881138877
rank ||| prime ||| 0.161740427545339
rank ||| rank ||| 0.669842326801076
rankle ||| rankle ||| 0.350295665869655
rankle ||| fester ||| 0.649704334130345
ranks ||| ranks ||| 1
rapidly ||| thick ||| 1
rash ||| sudden ||| 0.578003713845645
rash ||| rash ||| 0.421996286154355
rate ||| rate ||| 0.942698272971854
rate ||| cess ||| 0.0573017270281461
rates ||| rates ||| 1
ravenous ||| ravin ||| 0.284471581511506
ravenous ||| ravenous ||| 0.715528418488494
raw ||| sleided ||| 0.120068932995535
raw ||| raw ||| 0.879931067004465
reach ||| reach ||| 0.299291984286517
reach ||| danger ||| 0.700708015713483
reachs ||| dangers ||| 1
ready ||| swift ||| 0.361608099697069
ready ||| prone ||| 0.0369296464341697
ready ||| ready ||| 0.574678764918354
ready ||| prest ||| 0.0267834889504077
real ||| very ||| 0.982415970093458
real ||| real ||| 0.0175840299065418
reason ||| reason ||| 0.835571967093524
reason ||| instance ||| 0.164428032906476
reasoned ||| reasoned ||| 1
reasons ||| instances ||| 0.124554171595237
reasons ||| reasons ||| 0.875445828404763
rebel ||| revolt ||| 0.711507993837524
rebel ||| rebel ||| 0.288492006162475
rebeled ||| revolted ||| 1
rebels ||| rebels ||| 0.721899050986536
rebels ||| revolts ||| 0.278100949013464
rebuked ||| shent ||| 0.649704334130345
rebuked ||| rebuked ||| 0.350295665869655
recital ||| cital ||| 1
reckoning ||| reckoning ||| 0.262434435338045
reckoning ||| cess ||| 0.0220718542882581
reckoning ||| tale ||| 0.715493710373697
reckonings ||| reckonings ||| 0.136920316301661
reckonings ||| tales ||| 0.863079683698339
recover ||| recure ||| 0.065916296023222
recover ||| recover ||| 0.934083703976778
recovered ||| recovered ||| 1
recovers ||| recovers ||| 1
red ||| gules ||| 0.055120653295053
red ||| red ||| 0.944879346704947
refined ||| bolted ||| 0.5
refined ||| refined ||| 0.5
reflect ||| advise ||| 0.913175872410707
reflect ||| reflect ||| 0.086824127589293
reflects ||| advises ||| 1
refuse ||| ort ||| 0.0573017270281461
refuse ||| refuse ||| 0.942698272971854
refuses ||| orts ||| 1
refute ||| refell ||| 1
regard ||| regard ||| 0.558503140007316
regard ||| aspect ||| 0.441496859992684
regarded ||| regarded ||| 1
regarding ||| regarding ||| 0.5
regarding ||| intending ||| 0.5
regards ||| regards ||| 0.681169833273957
regards ||| aspects ||| 0.318830166726043
reiteration ||| iteration ||| 1
relish ||| gust ||| 0.0299494983632423
relish ||| say ||| 0.875551210100256
relish ||| relish ||| 0.0944992915365012
relished ||| relished ||| 1
relishs ||| gusts ||| 0.0782690679371634
relishs ||| says ||| 0.921730932062837
remote ||| removed ||| 0.780717917678026
remote ||| remote ||| 0.219282082321974
removal ||| remotion ||| 1
renounce ||| renounce ||| 0.24951772005209
renounce ||| defy ||| 0.679744016611926
renounce ||| renege ||| 0.0707382633359843
renounces ||| reneges ||| 1
renovate ||| repair ||| 1
renovateed ||| repaired ||| 1
renovates ||| repairs ||| 1
report ||| report ||| 0.657211715248488
report ||| credit ||| 0.317139470262897
report ||| bruit ||| 0.0256488144886158
reported ||| reported ||| 0.7718696913647
reported ||| bruited ||| 0.2281303086353
reports ||| reports ||| 1
reprehended ||| reprehended ||| 1
representation ||| image ||| 1
representations ||| images ||| 1
requital ||| reguerdon ||| 0.297237970990786
requital ||| requital ||| 0.702762029009214
requite ||| quit ||| 0.669575340651383
requite ||| requite ||| 0.330424659348617
requites ||| quits ||| 0.5
requites ||| requites ||| 0.5
reserve ||| reserve ||| 0.459281658060036
reserve ||| strangeness ||| 0.540718341939964
reserves ||| reserves ||| 1
resist ||| resist ||| 0.867869936310299
resist ||| repugn ||| 0.132130063689701
resisted ||| resisted ||| 1
resists ||| resists ||| 1
respectful ||| respective ||| 1
respectfully ||| respectively ||| 1
respond ||| quit ||| 1
responds ||| quits ||| 1
restrain ||| keep ||| 0.914694134400279
restrain ||| restrain ||| 0.0853058655997212
restrained ||| restrained ||| 1
restrains ||| keeps ||| 0.964406307661932
restrains ||| restrains ||| 0.0355936923380678
retaliation ||| answer ||| 1
retaliationed ||| answered ||| 1
retaliations ||| answers ||| 1
retinue ||| meiny ||| 0.5
retinue ||| retinue ||| 0.5
retreat ||| retire ||| 0.807382288713699
retreat ||| retreat ||| 0.192617711286301
retreats ||| retires ||| 1
revengeful ||| revengeful ||| 0.741861036471848
revengeful ||| wreakful ||| 0.258138963528152
reverent ||| sacrificial ||| 0.265456570045247
reverent ||| reverent ||| 0.734543429954753
reward ||| reward ||| 0.62342355038868
reward ||| cope ||| 0.148730556907756
reward ||| meed ||| 0.227845892703564
rewarded ||| rewarded ||| 1
rewards ||| rewards ||| 0.889974452121673
rewards ||| meeds ||| 0.110025547878327
rival ||| corrival ||| 0.220880380087283
rival ||| rival ||| 0.779119619912717
rivals ||| corrivals ||| 0.146884749107465
rivals ||| rivals ||| 0.853115250892535
roguery ||| roguery ||| 0.598701605201621
roguery ||| ropery ||| 0.401298394798379
roistering ||| roisting ||| 1
ruddy ||| rubious ||| 0.5
ruddy ||| ruddy ||| 0.5
rude ||| rude ||| 0.805502907918696
rude ||| lewd ||| 0.194497092081304
ruff ||| rabato ||| 0.401298394798379
ruff ||| ruff ||| 0.598701605201621
ruffs ||| ruffs ||| 1
rumour ||| bruit ||| 0.198784068959535
rumour ||| rumour ||| 0.801215931040465
rumoured ||| bruited ||| 1
rumours ||| rumours ||| 1
rustic ||| silly ||| 0.830857888581671
rustic ||| rustic ||| 0.169142111418329
rustics ||| rustics ||| 1
rustling ||| rushling ||| 0.332573400460713
rustling ||| rustling ||| 0.667426599539287
salutation ||| salutation ||| 0.607764263274631
salutation ||| regreet ||| 0.392235736725369
salutations ||| salutations ||| 0.598701605201621
salutations ||| regreets ||| 0.401298394798379
sanctification ||| halidom ||| 1
sarcasm ||| taxation ||| 0.637371656142433
sarcasm ||| bob ||| 0.362628343857567
sarcasms ||| taxations ||| 1
satire ||| taxing ||| 0.229131414310796
satire ||| taxation ||| 0.541737171378408
satire ||| satire ||| 0.229131414310796
satires ||| taxations ||| 1
satisfy ||| satisfy ||| 0.4035265516146
satisfy ||| resolve ||| 0.5964734483854
satisfys ||| resolves ||| 1
scab ||| scall ||| 0.332573400460713
scab ||| scab ||| 0.667426599539287
scabbard ||| scabbard ||| 1
scabby ||| scurvy ||| 0.746177486049988
scabby ||| scald ||| 0.253822513950012
scabbyed ||| scalded ||| 1
scabs ||| scabs ||| 1
scanty ||| scant ||| 1
scantyed ||| scanted ||| 1
scantys ||| scants ||| 1
scapegraces ||| skains-mates ||| 1
scare ||| gallow ||| 0.332573400460713
scare ||| scare ||| 0.667426599539287
scares ||| gallows ||| 1
scenes ||| scenes ||| 0.5
scenes ||| properties ||| 0.5
schoolmaster ||| pedascule ||| 0.146884749107465
schoolmaster ||| schoolmaster ||| 0.853115250892535
schoolmasters ||| schoolmasters ||| 1
scion ||| imp ||| 0.649704334130345
scion ||| scion ||| 0.350295665869655
scions ||| scions ||| 1
scoff ||| gleek ||| 0.5
scoff ||| scoff ||| 0.5
scoffs ||| gleeks ||| 0.332573400460713
scoffs ||| scoffs ||| 0.667426599539287
scold ||| rate ||| 0.765209983012795
scold ||| scold ||| 0.234790016987205
scolds ||| rates ||| 0.741861036471848
scolds ||| scolds ||| 0.258138963528152
scorched ||| sear ||| 0.853115250892535
scorched ||| scorched ||| 0.146884749107465
scour ||| scour ||| 0.795627751555939
scour ||| skirr ||| 0.204372248444061
scoured ||| scoured ||| 1
scramble ||| must ||| 0.995796938095187
scramble ||| scamble ||| 0.00420306190481295
screw ||| screw ||| 0.0737689081222528
screw ||| vice ||| 0.926231091877747
screws ||| screws ||| 0.120068932995535
screws ||| vices ||| 0.879931067004465
scurvy ||| scurvy ||| 0.746177486049988
scurvy ||| scald ||| 0.253822513950012
scurvyed ||| scalded ||| 1
sea ||| flote ||| 0.0321173500287944
sea ||| sea ||| 0.967882649971206
sea-mews ||| scamels ||| 1
sea-term ||| main-course ||| 0.401298394798379
sea-term ||| a-hold ||| 0.598701605201621
search ||| search ||| 0.864649437958746
search ||| quest ||| 0.135350562041254
searched ||| searched ||| 1
searchs ||| quests ||| 1
seas ||| seas ||| 1
secrecy ||| secrecy ||| 0.889974452121673
secrecy ||| hugger-mugger ||| 0.110025547878327
security ||| security ||| 0.830857888581671
security ||| statute ||| 0.169142111418329
securitys ||| statutes ||| 1
seed ||| seed ||| 1
seeded ||| seeded ||| 1
seeds ||| seeds ||| 0.649704334130345
seeds ||| germens ||| 0.350295665869655
seemly ||| seemly ||| 0.0337662779074353
seemly ||| seeming ||| 0.966233722092565
seize ||| extend ||| 0.218401424152393
seize ||| hent ||| 0.0667295914633205
seize ||| attach ||| 0.294237800867343
seize ||| seize ||| 0.420631183516944
seizeed ||| attached ||| 0.220880380087283
seizeed ||| extended ||| 0.779119619912717
seizes ||| seizes ||| 0.598701605201621
seizes ||| extends ||| 0.401298394798379
seizure ||| seizure ||| 0.362628343857567
seizure ||| extent ||| 0.637371656142433
seldom ||| seldom ||| 0.940088299386192
seldom ||| seld ||| 0.0599117006138077
selected ||| picked ||| 1
seniority ||| seniory ||| 1
