sending adieus 0.5000000
greetings adieus 0.5000000
greets greeting 0.1428571
bear greeting 0.1428571
you greeting 0.1428571
greeting greeting 0.2857143
NULL greeting 0.1428571
greetings greeting 0.1428571
trouble issue 0.0500000
son issue 0.0500000
NULL issue 0.2000000
children issue 0.4000000
end issue 0.0500000
issue issue 0.0500000
sons issue 0.0500000
wish issue 0.0500000
happened issue 0.0500000
naughtiness issue 0.0500000
kates kates 1.0000000
only supplied 0.2000000
taking supplied 0.2000000
up supplied 0.2000000
space supplied 0.2000000
job supplied 0.2000000
harp harp 0.5000000
don harp 0.2500000
miracle-worker harp 0.2500000
those richer 0.2000000
NULL richer 0.2000000
describe richer 0.2000000
costly richer 0.2000000
more richer 0.2000000
pike pike 0.5000000
a pike 0.5000000
villain dwelling 0.2000000
as dwelling 0.2000000
place dwelling 0.2000000
this dwelling 0.2000000
remote dwelling 0.2000000
point nearest 0.2500000
NULL nearest 0.2500000
nearest nearest 0.5000000
energy taken 0.0454545
caught taken 0.0454545
NULL taken 0.0909091
complaint taken 0.0454545
afraid taken 0.0454545
fear taken 0.0454545
of taken 0.0454545
for taken 0.0454545
taking taken 0.0454545
angry taken 0.0454545
trained taken 0.0454545
capture taken 0.0454545
taken taken 0.3181818
him taken 0.0454545
with taken 0.0454545
london london 1.0000000
mumbling prat 0.5000000
are prat 0.5000000
men load 0.1428571
NULL load 0.2857143
up load 0.1428571
load load 0.4285714
friends point- 0.2000000
lower-class point- 0.2000000
get point- 0.2000000
my point- 0.2000000
rid point- 0.2000000
forced constrained 1.0000000
NULL agitation 0.3333333
been agitation 0.3333333
straightforward agitation 0.3333333
NULL dukedom 0.1000000
daughter dukedom 0.1000000
bet dukedom 0.1000000
dukedom dukedom 0.6000000
s dukedom 0.1000000
affair omitted 1.0000000
back joyfully 1.0000000
NULL venice 0.0303030
of venice 0.0303030
off venice 0.0606061
m venice 0.0606061
are venice 0.0303030
all venice 0.0303030
venetians venice 0.0303030
venice venice 0.6666667
reported venice 0.0303030
sly venice 0.0303030
lamb ewe 1.0000000
petticoats petticoats 1.0000000
and trump 1.0000000
ladylike maidenly 1.0000000
ll diest 0.1111111
have diest 0.1111111
why diest 0.1111111
s diest 0.1111111
die diest 0.5555556
capilet gray 0.2000000
NULL gray 0.2000000
gray gray 0.2000000
girl gray 0.2000000
horse gray 0.2000000
m heady-rash 1.0000000
over conclusions 0.1666667
NULL conclusions 0.1666667
urges conclusions 0.1666667
resolution conclusions 0.1666667
some conclusions 0.1666667
take conclusions 0.1666667
relief felicity 0.2500000
sweet felicity 0.2500000
awhile felicity 0.2500000
death felicity 0.2500000
seem privy 0.3333333
secret privy 0.3333333
state privy 0.3333333
grain corn 0.5000000
unripe corn 0.5000000
heart bellows 0.3333333
dedicates bellows 0.3333333
his bellows 0.3333333
NULL descend 0.1666667
come descend 0.3333333
down descend 0.3333333
descend descend 0.1666667
patches semblances 1.0000000
just covetousness 0.2500000
greedy covetousness 0.5000000
m covetousness 0.2500000
the impawned 0.1666667
on impawned 0.1666667
been impawned 0.1666667
table impawned 0.1666667
put impawned 0.1666667
prepared impawned 0.1666667
on civility 0.1428571
NULL civility 0.2857143
pranks civility 0.1428571
play civility 0.1428571
d civility 0.1428571
never civility 0.1428571
mi mi 1.0000000
his settling 0.2000000
more settling 0.2000000
is settling 0.2000000
mind settling 0.2000000
settled settling 0.2000000
unite unite 1.0000000
left disquietly 1.0000000
or gloves 0.3333333
NULL gloves 0.1666667
gloves gloves 0.5000000
in spital 0.5000000
pox spital 0.5000000
out readiest 0.2500000
of readiest 0.2500000
get readiest 0.2500000
something readiest 0.2500000
to exercise 0.3333333
deeds exercise 0.3333333
sermon exercise 0.3333333
a estranged 0.2500000
have estranged 0.2500000
stranger estranged 0.2500000
become estranged 0.2500000
left can 0.0036630
know can 0.0219780
displeasure can 0.0036630
would can 0.0036630
has can 0.0073260
cannot can 0.0036630
my can 0.0073260
wants can 0.0036630
patiently can 0.0036630
if can 0.0036630
earth can 0.0036630
could can 0.0036630
does can 0.0073260
plan can 0.0036630
repeated can 0.0036630
marriage can 0.0036630
voices can 0.0036630
cup can 0.0036630
what can 0.0036630
swim can 0.0036630
ll can 0.0146520
for can 0.0036630
acting can 0.0036630
memorized can 0.0036630
hiding can 0.0036630
mutt can 0.0036630
belief can 0.0036630
possible can 0.0036630
best can 0.0036630
hell can 0.0036630
virtue can 0.0036630
wearing can 0.0036630
NULL can 0.1282051
even can 0.0073260
do can 0.0109890
works can 0.0036630
is can 0.0146520
words can 0.0036630
’ can 0.0073260
powers can 0.0036630
will can 0.0109890
help can 0.0073260
should can 0.0073260
evil can 0.0036630
discussion can 0.0036630
anger can 0.0036630
any can 0.0036630
leather can 0.0036630
can can 0.5860806
inaccurate can 0.0036630
proof can 0.0036630
hook can 0.0036630
there can 0.0036630
sauce can 0.0036630
pretty can 0.0036630
news can 0.0073260
metal can 0.0036630
nymphs nymphs 1.0000000
sheathing sheathed 0.5000000
night sheathed 0.5000000
follow wait 0.0555556
lead wait 0.0555556
ll wait 0.0555556
NULL wait 0.0555556
re wait 0.0555556
come wait 0.1111111
late wait 0.0555556
grace wait 0.0555556
care wait 0.0555556
go wait 0.0555556
good wait 0.0555556
will wait 0.0555556
wait wait 0.2222222
horatio wait 0.0555556
a haste 0.1224490
NULL haste 0.1224490
of haste 0.0612245
bit haste 0.0408163
fairies haste 0.0204082
up haste 0.0408163
on haste 0.0204082
slowly haste 0.0204082
in haste 0.0204082
reckless haste 0.0204082
urgency haste 0.0204082
it haste 0.0204082
rush haste 0.0204082
warrants haste 0.0204082
depended haste 0.0204082
rushed haste 0.0204082
right haste 0.0204082
hurry haste 0.2653061
fast haste 0.0612245
quickly haste 0.0204082
leave haste 0.0204082
NULL shrewish 1.0000000
shooting adventuring 1.0000000
want pawn 0.1250000
to pawn 0.2500000
use pawn 0.1250000
bet pawn 0.1250000
money pawn 0.1250000
set pawn 0.1250000
this pawn 0.1250000
small favor 0.0285714
leaves favor 0.0285714
mercy favor 0.0285714
stick favor 0.0285714
NULL favor 0.1714286
bit favor 0.0285714
need favor 0.0285714
flirting favor 0.0285714
fallen favor 0.0285714
like favor 0.0285714
face favor 0.0857143
to favor 0.0285714
good favor 0.0285714
in favor 0.0285714
him favor 0.0285714
could favor 0.0285714
flirted favor 0.0285714
much favor 0.0285714
familiar favor 0.0285714
attentions favor 0.0285714
trouble favor 0.0285714
moods favor 0.0285714
me favor 0.0285714
looks favor 0.0285714
wear favor 0.0285714
tell favor 0.0285714
news favor 0.0285714
with favor 0.0285714
warriors warriors 0.5000000
workaday warriors 0.5000000
well rarely 0.1111111
was rarely 0.1111111
unbelievably rarely 0.1111111
that rarely 0.1111111
suit rarely 0.1111111
excellently rarely 0.2222222
hercules rarely 0.1111111
job rarely 0.1111111
wealthy wealthy 1.0000000
swindlers cheaters 1.0000000
NULL merchant 0.2857143
merchant merchant 0.5714286
successful merchant 0.1428571
a servile 0.5000000
state servile 0.5000000
it hell-governed 1.0000000
morning morrows 0.5000000
, morrows 0.5000000
confused diseased 1.0000000
good satisfying 1.0000000
yes desdemona 0.0303030
feelings desdemona 0.0303030
my desdemona 0.0303030
dear desdemona 0.0303030
tell desdemona 0.0303030
could desdemona 0.0303030
. desdemona 0.0303030
desdemona desdemona 0.7272727
with desdemona 0.0606061
competing address 0.2500000
been address 0.2500000
ve address 0.2500000
’ address 0.2500000
in brokenly 0.5000000
broken brokenly 0.5000000
fortune-teller fortune-teller 0.5000000
; fortune-teller 0.5000000
and primo 1.0000000
had crest 0.5000000
heart crest 0.5000000
their siege 0.1250000
enough siege 0.1250000
strong siege 0.1250000
siege siege 0.2500000
army siege 0.1250000
seige siege 0.1250000
off siege 0.1250000
bland mild 0.2000000
NULL mild 0.2000000
spoiled mild 0.2000000
mild mild 0.4000000
smells smells 0.5000000
nests smells 0.5000000
hey wo 1.0000000
never mistakings 1.0000000
be lenity 0.5000000
lenient lenity 0.5000000
the fair 0.0377358
handsome fair 0.0062893
praised fair 0.0062893
you fair 0.0440252
clear fair 0.0062893
my fair 0.0125786
good-looking fair 0.0062893
amuse fair 0.0062893
expression fair 0.0062893
soon fair 0.0062893
kindly fair 0.0062893
madam fair 0.0062893
luxury fair 0.0062893
ask fair 0.0062893
kinsman fair 0.0062893
receive fair 0.0062893
one fair 0.0062893
virtuous fair 0.0062893
polite fair 0.0062893
fairest fair 0.0062893
fair fair 0.1132075
favorable fair 0.0062893
NULL fair 0.1446541
undertaken fair 0.0062893
wholeheartedly fair 0.0062893
cousin fair 0.0062893
jessica fair 0.0062893
ladies fair 0.0062893
young fair 0.0062893
claribel fair 0.0062893
good fair 0.0440252
kind fair 0.0062893
dear fair 0.0251572
beauty fair 0.0188679
lucky fair 0.0062893
lovely fair 0.0628931
pour fair 0.0062893
gladly fair 0.0062893
swift fair 0.0062893
daytime fair 0.0062893
back fair 0.0062893
profits fair 0.0062893
beautiful fair 0.2327044
sure fair 0.0062893
mean fair 0.0062893
pretty fair 0.0314465
trips fair 0.0062893
damn fair 0.0062893
vow oath 0.0344828
oath oath 0.5517241
NULL oath 0.1379310
refused oath 0.0344828
take oath 0.0344828
parcel oath 0.0344828
swear oath 0.0344828
promise oath 0.1379310
NULL project 0.1000000
almost project 0.1000000
are project 0.1000000
is project 0.1000000
she project 0.1000000
drowned project 0.1000000
plans project 0.1000000
their project 0.1000000
. project 0.1000000
at project 0.1000000
deprived deprived 0.5000000
mind deprived 0.5000000
couple solemnized 0.2000000
right solemnized 0.2000000
away solemnized 0.2000000
married solemnized 0.4000000
NULL advise 0.0555556
recommend advise 0.0555556
m advise 0.0555556
advise advise 0.0555556
s advise 0.0555556
’ advise 0.0555556
good advise 0.1666667
tell advise 0.1111111
giving advise 0.0555556
think advise 0.0555556
about advise 0.0555556
friar advise 0.0555556
advice advise 0.1666667
NULL cool 0.2000000
of cool 0.1000000
mixture cool 0.1000000
purpose cool 0.1000000
my cool 0.1000000
cool cool 0.1000000
satisfying cool 0.1000000
sense cool 0.1000000
lose cool 0.1000000
to hats 0.2000000
keep hats 0.2000000
positions hats 0.2000000
straw hats 0.2000000
hats hats 0.2000000
rulers share 0.2000000
cost share 0.2000000
share share 0.6000000
spots pard 0.3333333
have pard 0.3333333
leopards pard 0.3333333
valiantly valiantly 1.0000000
name humfrey 1.0000000
pardon death 0.0058824
rewarded death 0.0058824
dying death 0.0117647
kill death 0.0470588
day death 0.0058824
exaggerated death 0.0058824
killed death 0.0117647
glad death 0.0058824
tortures death 0.0058824
died death 0.0235294
deathbeds death 0.0058824
practiced death 0.0058824
announce death 0.0058824
with death 0.0058824
hell death 0.0117647
completely death 0.0058824
killing death 0.0176471
dies death 0.0058824
NULL death 0.1588235
execution death 0.0058824
hate death 0.0058824
die death 0.0470588
curse death 0.0058824
we death 0.0058824
followed death 0.0058824
villain death 0.0058824
to death 0.0176471
restless death 0.0058824
dead death 0.0117647
skull death 0.0058824
watch death 0.0058824
person death 0.0058824
richmond death 0.0058824
death death 0.4705882
fame death 0.0058824
deaths death 0.0176471
funnier death 0.0058824
capital death 0.0058824
out tyrannous 0.1666667
storm tyrannous 0.1666667
merciless tyrannous 0.1666667
NULL tyrannous 0.1666667
in tyrannous 0.1666667
dismissed tyrannous 0.1666667
people legacies 0.3333333
bequests legacies 0.3333333
his legacies 0.3333333
courtiers courtiers 0.3333333
of courtiers 0.3333333
noblemen courtiers 0.3333333
opposed loathly 0.5000000
firmly loathly 0.5000000
will decorum 0.5000000
isis decorum 0.5000000
did meaner 0.1000000
of meaner 0.1000000
into meaner 0.1000000
fellow meaner 0.1000000
inferior meaner 0.1000000
men meaner 0.1000000
spirits meaner 0.1000000
poor meaner 0.1000000
lower meaner 0.1000000
rank meaner 0.1000000
for dalliance 0.1250000
up dalliance 0.1250000
not dalliance 0.1250000
as dalliance 0.1250000
at dalliance 0.1250000
stored dalliance 0.1250000
showing dalliance 0.1250000
an dalliance 0.1250000
NULL parrots 0.5000000
do parrots 0.5000000
out proof 0.0555556
test proof 0.0555556
listening proof 0.0555556
risking proof 0.0555556
NULL proof 0.2222222
solved proof 0.0555556
need proof 0.0555556
my proof 0.0555556
proof proof 0.2222222
be proof 0.0555556
evidence proof 0.1111111
indirect indirect 0.3333333
use indirect 0.3333333
indirectly indirect 0.3333333
anything verbal 0.2500000
ask verbal 0.2500000
t verbal 0.2500000
’ verbal 0.2500000
born kindled 1.0000000
monster firago 1.0000000
he pestered 0.2000000
acting pestered 0.2000000
for pestered 0.2000000
condemns pestered 0.2000000
crazy pestered 0.2000000
for obligèd 0.5000000
couples obligèd 0.5000000
the lies 0.0289855
lies lies 0.1449275
heavy lies 0.0144928
closet lies 0.0144928
power lies 0.0144928
fix lies 0.0144928
possession lies 0.0144928
sleeps lies 0.0144928
s lies 0.1304348
boyfriend lies 0.0144928
lover lies 0.0144928
doesn lies 0.0144928
door lies 0.0144928
teeth lies 0.0144928
sleeping lies 0.0289855
adores lies 0.0144928
NULL lies 0.1449275
fear lies 0.0289855
window lies 0.0144928
lying lies 0.0144928
basing lies 0.0144928
is lies 0.0724638
find lies 0.0144928
mad lies 0.0144928
’ lies 0.0144928
have lies 0.0144928
his lies 0.0144928
rests lies 0.0144928
note lies 0.0144928
through lies 0.0144928
naples lies 0.0144928
right lies 0.0144928
wear lies 0.0144928
breaks lies 0.0144928
now lies 0.0144928
depends lies 0.0144928
yourself flatter 0.0588235
you flatter 0.0588235
for flatter 0.0588235
re flatter 0.0588235
flattery flatter 0.0588235
no flatter 0.1176471
m flatter 0.0588235
flatter flatter 0.1764706
just flatter 0.0588235
him flatter 0.0588235
order flatter 0.0588235
flattering flatter 0.1176471
sir flatter 0.0588235
enchanting enchanting 1.0000000
unlawful unlawful 0.2000000
to unlawful 0.2000000
apologize unlawful 0.2000000
NULL unlawful 0.2000000
pursuing unlawful 0.2000000
NULL rate 0.2222222
for rate 0.1111111
interest rate 0.1111111
that rate 0.1111111
fairy rate 0.1111111
rate rate 0.1111111
price rate 0.1111111
ropes rate 0.1111111
the gone 0.0298507
left gone 0.0373134
cries gone 0.0074627
crowbar gone 0.0074627
both gone 0.0074627
— gone 0.0074627
yet gone 0.0074627
no gone 0.0074627
off gone 0.0074627
gone gone 0.1940299
barbarian gone 0.0074627
went gone 0.0149254
deed gone 0.0074627
sign gone 0.0074627
walked gone 0.0074627
won gone 0.0074627
deserted gone 0.0074627
out gone 0.0522388
trouble gone 0.0149254
distinctive gone 0.0074627
s gone 0.0074627
ship gone 0.0074627
measly gone 0.0074627
wretch gone 0.0074627
away gone 0.0223881
leave gone 0.0223881
here gone 0.0373134
lying gone 0.0149254
messenger gone 0.0074627
NULL gone 0.0671642
of gone 0.0447761
disappears gone 0.0074627
deal gone 0.0074627
body gone 0.0074627
dead gone 0.0223881
get gone 0.0074627
really gone 0.0149254
home gone 0.0149254
picture gone 0.0074627
able gone 0.0074627
going gone 0.0074627
career gone 0.0074627
he gone 0.0074627
last gone 0.0074627
can gone 0.0074627
go gone 0.0820896
stopped gone 0.0074627
big gone 0.0074627
now gone 0.0298507
then gone 0.0149254
hurry gone 0.0149254
retreated gone 0.0074627
waits gone 0.0074627
NULL lament 0.2500000
then lament 0.2500000
mourn lament 0.5000000
invitation invited 0.1250000
to invited 0.2500000
invited invited 0.3750000
for invited 0.1250000
at invited 0.1250000
within ran 0.1000000
NULL ran 0.2000000
away ran 0.1000000
ran ran 0.2000000
running ran 0.1000000
s ran 0.1000000
where ran 0.1000000
were ran 0.1000000
like grapes 0.3333333
grapes grapes 0.3333333
hell grapes 0.3333333
cinna cinna 1.0000000
NULL miserable 0.2500000
miserable miserable 0.7500000
witness crown 0.0263158
head crown 0.0263158
cliff crown 0.0263158
NULL crown 0.1315789
crown crown 0.7105263
badness crown 0.0263158
top crown 0.0263158
own crown 0.0263158
out raisèd 0.1111111
bed raisèd 0.1111111
NULL raisèd 0.1111111
of raisèd 0.1111111
s raisèd 0.1111111
roused raisèd 0.1111111
been raisèd 0.1111111
her raisèd 0.1111111
ve raisèd 0.1111111
cobweb cobweb 1.0000000
proposal treaties 0.3333333
of treaties 0.3333333
peace treaties 0.3333333
ionian ionian 0.5000000
cross ionian 0.5000000
a guest 0.0666667
ll guest 0.0666667
of guest 0.0666667
shut guest 0.0666667
summer guest 0.0666667
as guest 0.0666667
now guest 0.0666667
be guest 0.0666667
guests guest 0.0666667
long guest 0.0666667
guest guest 0.3333333
orders conditions 0.1250000
answer conditions 0.1250000
that conditions 0.1250000
have conditions 0.1250000
your conditions 0.1250000
soon conditions 0.1250000
qualities conditions 0.1250000
conditions conditions 0.1250000
confused amazèdly 0.5000000
since amazèdly 0.5000000
penalty penalty 0.7500000
enemy penalty 0.2500000
aren ashamed 0.0714286
as ashamed 0.1428571
of ashamed 0.0714286
ashamed ashamed 0.5000000
long ashamed 0.0714286
m ashamed 0.0714286
this ashamed 0.0714286
on recover 0.0909091
save recover 0.0909091
cure recover 0.1818182
recover recover 0.3636364
tame recover 0.0909091
get recover 0.1818182
gone avaunt 0.1666667
NULL avaunt 0.1666667
be avaunt 0.1666667
away avaunt 0.1666667
go avaunt 0.3333333
collapsed sink 0.0833333
eyelids sink 0.0833333
fall sink 0.0833333
let sink 0.0833333
NULL sink 0.1666667
have sink 0.0833333
heavy sink 0.0833333
sink sink 0.3333333
hecate hecate 0.2500000
beetle hecate 0.2500000
wrong hecate 0.2500000
s hecate 0.2500000
disarm disarm 1.0000000
crown diadem 1.0000000
accusation reproach 0.3333333
regret reproach 0.3333333
approach reproach 0.3333333
birth education 0.3333333
education education 0.3333333
torn education 0.3333333
NULL sweating 0.3333333
sweaty sweating 0.3333333
difficult sweating 0.3333333
valentine valentine 0.2500000
day valentine 0.2500000
s valentine 0.2500000
’ valentine 0.2500000
want employ 0.2500000
to employ 0.2500000
hire employ 0.2500000
do employ 0.2500000
up politic 0.5000000
work politic 0.5000000
NULL peter 0.2500000
peter peter 0.7500000
barnardo barnardo 0.6000000
that barnardo 0.2000000
is barnardo 0.2000000
not double-dealing 0.5000000
double-dealing double-dealing 0.5000000
manage ajax 1.0000000
powder powder 0.1666667
surely powder 0.1666667
a powder 0.1666667
into powder 0.1666667
apart powder 0.1666667
break powder 0.1666667
hacked hacked 0.1250000
they hacked 0.2500000
each hacked 0.1250000
struck hacked 0.1250000
hack hacked 0.1250000
other hacked 0.1250000
up hacked 0.1250000
harfleur harfleur 1.0000000
knew temperance 0.0769231
under temperance 0.0769231
yourself temperance 0.0769231
— temperance 0.0769231
climate temperance 0.0769231
stay temperance 0.0769231
she temperance 0.0769231
temperance temperance 0.1538462
will temperance 0.0769231
control temperance 0.1538462
i temperance 0.0769231
little cloistered 1.0000000
make proclamation 0.1111111
a proclamation 0.1111111
ll proclamation 0.1111111
NULL proclamation 0.1111111
me proclamation 0.1111111
to proclamation 0.1111111
public proclamation 0.1111111
help proclamation 0.1111111
announcement proclamation 0.1111111
thornbush thornbush 0.6666667
is thornbush 0.3333333
as safest 0.2857143
opportunity safest 0.1428571
safest safest 0.1428571
best safest 0.1428571
route safest 0.1428571
fast safest 0.1428571
ah hear 0.0028902
want hear 0.0086705
speak hear 0.0028902
you hear 0.0144509
know hear 0.0057803
curses hear 0.0028902
hear hear 0.3265896
understand hear 0.0028902
that hear 0.0028902
preparation hear 0.0028902
imagining hear 0.0028902
see hear 0.0115607
challenged hear 0.0028902
let hear 0.0115607
listen hear 0.1358382
sweet-smelling hear 0.0028902
this hear 0.0028902
out hear 0.0086705
discuss hear 0.0057803
okay hear 0.0028902
only hear 0.0028902
what hear 0.0086705
me hear 0.0144509
heard hear 0.0375723
tell hear 0.0086705
but hear 0.0028902
result hear 0.0028902
humiliated hear 0.0028902
orders hear 0.0028902
NULL hear 0.0635838
listening hear 0.0173410
hate hear 0.0028902
of hear 0.0028902
do hear 0.0086705
petruchio hear 0.0028902
find hear 0.0057803
brutus hear 0.0028902
to hear 0.1589595
watch hear 0.0086705
have hear 0.0028902
stood hear 0.0028902
get hear 0.0028902
say hear 0.0028902
us hear 0.0028902
bellario hear 0.0028902
attend hear 0.0028902
i hear 0.0028902
quiet hear 0.0028902
it hear 0.0028902
minstrels hear 0.0028902
hears hear 0.0028902
any hear 0.0028902
bottom hear 0.0028902
can hear 0.0086705
bitter hear 0.0028902
stay hear 0.0028902
just hear 0.0028902
talk hear 0.0057803
giving hear 0.0028902
news hear 0.0028902
allow hear 0.0028902
more hear 0.0028902
ve hear 0.0057803
government signiory 0.5000000
venetian signiory 0.5000000
NULL knots 0.5000000
bonds knots 0.5000000
must spheres 0.1111111
there spheres 0.1111111
sockets spheres 0.1111111
wrong spheres 0.1111111
then spheres 0.1111111
be spheres 0.1111111
with spheres 0.1111111
something spheres 0.1111111
universe spheres 0.1111111
world orld 1.0000000
joseph joseph 1.0000000
by dislimns 1.0000000
hairs hairs 0.2142857
head hairs 0.1428571
NULL hairs 0.1428571
my hairs 0.0714286
on hairs 0.1428571
white hairs 0.0714286
got hairs 0.0714286
hair hairs 0.0714286
presence hairs 0.0714286
told disclosed 0.2500000
everything disclosed 0.2500000
you disclosed 0.2500000
NULL disclosed 0.2500000
troubles procure 0.3333333
let procure 0.3333333
of procure 0.3333333
impoverished show 0.0104167
curtain show 0.0104167
praising show 0.0104167
take show 0.0208333
display show 0.0104167
on show 0.0104167
let show 0.0104167
flirted show 0.0104167
hostess show 0.0104167
give show 0.0104167
declaring show 0.0104167
happier show 0.0104167
show show 0.3229167
pantomime show 0.0208333
else show 0.0104167
prove show 0.0208333
tell show 0.0520833
sees show 0.0104167
fate show 0.0104167
somberly show 0.0104167
dress show 0.0104167
NULL show 0.2812500
do show 0.0104167
stocks show 0.0104167
pretend show 0.0104167
parade show 0.0104167
badly show 0.0104167
us show 0.0104167
contained show 0.0104167
showing show 0.0104167
exhibit show 0.0104167
volume show 0.0104167
proof show 0.0104167
NULL submits 1.0000000
blocked intercepted 1.0000000
considering obedience 0.1111111
it obedience 0.1111111
NULL obedience 0.2222222
loving obedience 0.1111111
letter obedience 0.2222222
obey obedience 0.1111111
obedience obedience 0.1111111
weathered casts 0.2500000
has casts 0.2500000
difficult casts 0.2500000
life casts 0.2500000
soothsayer bids 0.0588235
asks bids 0.0588235
NULL bids 0.1176471
he bids 0.1176471
that bids 0.1176471
well bids 0.0588235
to bids 0.0588235
should bids 0.0588235
babies bids 0.0588235
tells bids 0.0588235
says bids 0.1176471
occasion bids 0.0588235
asked bids 0.0588235
NULL lack 0.2068966
true lack 0.0344828
need lack 0.0344828
not lack 0.0344828
tainted lack 0.0344828
like lack 0.0344828
kiss lack 0.0344828
have lack 0.0689655
indigestion lack 0.0344828
company lack 0.0344828
naval lack 0.0344828
deserted lack 0.0344828
t lack 0.0689655
lepidus lack 0.0344828
don lack 0.0344828
competitive lack 0.0344828
lack lack 0.0344828
miss lack 0.0344828
be lack 0.0689655
your lack 0.0344828
sees lack 0.0344828
c tush 0.0769231
ll tush 0.0769231
oh tush 0.1538462
don tush 0.1538462
you tush 0.0769231
your tush 0.0769231
damn tush 0.0769231
mon tush 0.0769231
dip tush 0.0769231
i tush 0.1538462
you bridegroom 0.1666667
bridegroom bridegroom 0.3333333
obey bridegroom 0.1666667
we bridegroom 0.1666667
and bridegroom 0.1666667
resemble sympathize 1.0000000
state offender 1.0000000
NULL wheel 0.3333333
slave wheel 0.1666667
wheel wheel 0.3333333
her wheel 0.1666667
wash wash 0.6000000
NULL wash 0.1000000
stain wash 0.1000000
would wash 0.1000000
his wash 0.1000000
s strutting 1.0000000
the even 0.0551724
yes even 0.0206897
cassio even 0.0068966
sides even 0.0068966
clear even 0.0068966
exactly even 0.0068966
ingratitude even 0.0068966
, even 0.0068966
that even 0.0482759
refresh even 0.0068966
in even 0.0068966
tricked even 0.0068966
revenged even 0.0068966
own even 0.0068966
hopes even 0.0068966
this even 0.0137931
apparently even 0.0068966
friendship even 0.0068966
whenever even 0.0068966
how even 0.0137931
loudly even 0.0068966
married even 0.0068966
s even 0.0413793
level even 0.0137931
one even 0.0206897
destined even 0.0068966
quickly even 0.0068966
flat even 0.0068966
roar even 0.0068966
ever even 0.0068966
must even 0.0068966
handkerchief even 0.0068966
NULL even 0.2413793
even even 0.0344828
ranger even 0.0068966
of even 0.0068966
confessed even 0.0068966
true even 0.0068966
is even 0.0137931
all even 0.0137931
beached even 0.0068966
am even 0.0068966
darling even 0.0068966
kicked even 0.0068966
disfigured even 0.0068966
repays even 0.0068966
going even 0.0068966
clash even 0.0068966
increase even 0.0068966
saying even 0.0068966
exact even 0.0068966
well even 0.0068966
rescue even 0.0068966
right even 0.0413793
as even 0.0137931
unattractive even 0.0068966
just even 0.0896552
try even 0.0068966
removed even 0.0068966
fades even 0.0068966
truth even 0.0068966
exchange even 0.0068966
taken dull-eyed 1.0000000
rumble rumble 1.0000000
overwhelming wring 0.5000000
crown wring 0.5000000
unbelievable breath 0.0238095
funny breath 0.0238095
NULL breath 0.1666667
almost breath 0.0238095
is breath 0.0238095
words breath 0.0476190
badmouthed breath 0.0238095
breath breath 0.2857143
stinks breath 0.0238095
let breath 0.0238095
boy breath 0.0238095
breathing breath 0.0476190
nests breath 0.0238095
slanderous breath 0.0238095
life breath 0.0238095
t breath 0.0238095
this breath 0.0476190
harsh breath 0.0476190
syllable breath 0.0238095
health breath 0.0238095
garlic breath 0.0238095
marle marle 1.0000000
argument dissension 1.0000000
: immediately 0.1250000
soon immediately 0.1250000
him immediately 0.1250000
immediately immediately 0.5000000
says immediately 0.1250000
bad totters 0.2500000
in totters 0.2500000
shape totters 0.2500000
s totters 0.2500000
horsemen horsemen 1.0000000
receive acceptance 0.1666667
NULL acceptance 0.1666667
one acceptance 0.1666667
ll acceptance 0.1666667
kindly acceptance 0.1666667
deepest acceptance 0.1666667
we overborne 1.0000000
announcement banns 1.0000000
trappings fresh 0.0416667
pure fresh 0.0833333
NULL fresh 0.0833333
shiny fresh 0.0416667
young fresh 0.1250000
fresh fresh 0.2500000
full fresh 0.0416667
clean fresh 0.0416667
rested fresh 0.0416667
sensitivity fresh 0.0416667
rich fresh 0.0416667
enthusiastic fresh 0.0416667
tormented fresh 0.0416667
and fresh 0.0416667
ocean fresh 0.0416667
NULL condemn 0.2500000
condemns condemn 0.2500000
condemn condemn 0.2500000
accuse condemn 0.2500000
told figured 0.2000000
you figured 0.2000000
ve figured 0.2000000
’ figured 0.2000000
i figured 0.2000000
horrifying cherubin 1.0000000
it gallops 0.5000000
gallops gallops 0.5000000
shortly attendant 0.2500000
adorable attendant 0.2500000
former attendant 0.2500000
servant attendant 0.2500000
first selfsame 0.0625000
they selfsame 0.0625000
what selfsame 0.0625000
has selfsame 0.0625000
exactly selfsame 0.1250000
else selfsame 0.0625000
same selfsame 0.3125000
s selfsame 0.0625000
someone selfsame 0.0625000
kind selfsame 0.0625000
equal selfsame 0.0625000
the gather 0.1428571
out gather 0.1428571
figure gather 0.1428571
climax gather 0.1428571
rest gather 0.1428571
NULL gather 0.1428571
think gather 0.1428571
plans designment 0.5000000
are designment 0.5000000
fully appeareth 0.5000000
pay appeareth 0.5000000
discover crumb 0.2500000
will crumb 0.2500000
his crumb 0.2500000
crumbs crumb 0.2500000
indebted bounden 0.3333333
m bounden 0.3333333
’ bounden 0.3333333
legs pasterns 1.0000000
starts housewife 0.2500000
she housewife 0.2500000
distributing housewife 0.2500000
till housewife 0.2500000
interrupting begging 0.2500000
keep begging 0.2500000
— begging 0.2500000
bell begging 0.2500000
handling handling 1.0000000
girls requisites 0.3333333
qualities requisites 0.3333333
go requisites 0.3333333
goods chattels 1.0000000
NULL wears 0.1428571
a wears 0.1428571
wears wears 0.1428571
garter wears 0.1428571
crown wears 0.1428571
has wears 0.1428571
devoted wears 0.1428571
the jupiter 0.1111111
a jupiter 0.1111111
above jupiter 0.1111111
god jupiter 0.2222222
jupiter jupiter 0.3333333
lord jupiter 0.1111111
you y 0.3333333
read y 0.3333333
rudely y 0.3333333
rose rose 0.6666667
NULL rose 0.1111111
scorn rose 0.1111111
up rose 0.1111111
rocks rocks 1.0000000
will hypocrites 0.3333333
odds hypocrites 0.3333333
at hypocrites 0.3333333
scroll inscrolled 0.3333333
read inscrolled 0.3333333
this inscrolled 0.3333333
different reconcile 0.1666667
make reconcile 0.1666667
of reconcile 0.1666667
stories reconcile 0.1666667
such reconcile 0.1666667
sense reconcile 0.1666667
early stirring 0.1428571
uprising stirring 0.1428571
squeak stirring 0.1428571
’ stirring 0.1428571
awake stirring 0.4285714
foaming embossed 1.0000000
feelings galls 0.2500000
bitterness galls 0.2500000
in galls 0.2500000
sweetness galls 0.2500000
roaring roared 1.0000000
when hedge 0.1111111
a hedge 0.1111111
yourself hedge 0.1111111
back hedge 0.1111111
re hedge 0.1111111
into hedge 0.1111111
hedge hedge 0.1111111
forgetting hedge 0.1111111
corner hedge 0.1111111
NULL supply 0.5000000
embarrassed supply 0.2500000
habit supply 0.2500000
so possesses 0.2000000
they possesses 0.2000000
got possesses 0.2000000
sleepy possesses 0.2000000
all possesses 0.2000000
bees em 0.0256410
NULL em 0.1025641
you em 0.0256410
curtain em 0.0256410
vouch em 0.0256410
receptive em 0.0256410
bankrupts em 0.0256410
only em 0.0256410
effect em 0.0256410
for em 0.0256410
them em 0.4358974
stay em 0.0256410
em em 0.0512821
willing em 0.0256410
starve em 0.0256410
ear em 0.0256410
your em 0.0256410
with em 0.0256410
and em 0.0256410
she adores 0.3333333
adores adores 0.6666667
pain sting 0.1111111
NULL sting 0.1111111
effect sting 0.1111111
d sting 0.1111111
bite sting 0.1111111
be sting 0.1111111
stinger sting 0.2222222
giving sting 0.1111111
any toged 0.5000000
peace-lover toged 0.5000000
the leaders 0.2500000
dance leaders 0.2500000
leaders leaders 0.2500000
of leaders 0.2500000
queens queens 1.0000000
on inclining 0.2500000
easy inclining 0.2500000
initiative inclining 0.2500000
your inclining 0.2500000
warp panel 1.0000000
anyway chides 0.1428571
who chides 0.1428571
NULL chides 0.1428571
me chides 0.1428571
speaking chides 0.1428571
scolds chides 0.2857143
laughing excess 0.2500000
much excess 0.2500000
interest excess 0.2500000
too excess 0.2500000
marcus marcus 0.8750000
mark marcus 0.1250000
the la 0.1250000
la la 0.2500000
opinion la 0.1250000
NULL la 0.1250000
it la 0.1250000
christ la 0.1250000
really la 0.1250000
NULL already 0.1025641
spotted already 0.0256410
arrived already 0.0256410
s already 0.0512821
assistant already 0.0256410
dreamt already 0.0256410
already already 0.6153846
been already 0.0512821
except already 0.0256410
drink already 0.0256410
t already 0.0256410
cured thanked 0.1250000
able thanked 0.1250000
thanks thanked 0.1250000
m thanked 0.1250000
, thanked 0.1250000
thank thanked 0.1250000
thanked thanked 0.1250000
likely thanked 0.1250000
the immortal 0.0909091
those immortal 0.0909091
watch immortal 0.0909091
NULL immortal 0.0909091
gods immortal 0.0909091
grace immortal 0.0909091
immortal immortal 0.4545455
trappings slough 0.2000000
low-class slough 0.4000000
nimbleness slough 0.2000000
trapping slough 0.2000000
imagine semblance 0.1000000
did semblance 0.1000000
beautiful semblance 0.1000000
appears semblance 0.1000000
dromios semblance 0.1000000
as semblance 0.2000000
from semblance 0.1000000
honorable semblance 0.1000000
seem semblance 0.1000000
NULL trojan 0.3333333
lowlife trojan 0.3333333
dissolute trojan 0.3333333
a ghost 0.0833333
ghost ghost 0.4166667
disturb ghost 0.0833333
need ghost 0.0833333
soul ghost 0.0833333
die ghost 0.0833333
much ghost 0.0833333
returning ghost 0.0833333
want howe 0.5000000
demon howe 0.5000000
actions knowledge 0.0294118
know knowledge 0.0882353
NULL knowledge 0.1764706
crime knowledge 0.0294118
far knowledge 0.0294118
to knowledge 0.0882353
versed knowledge 0.0294118
committed knowledge 0.0294118
have knowledge 0.0294118
get knowledge 0.0294118
i knowledge 0.0882353
harm knowledge 0.0294118
what knowledge 0.0294118
chin knowledge 0.0294118
knowledge knowledge 0.0588235
oracle knowledge 0.0294118
capacity knowledge 0.0294118
unaware knowledge 0.0294118
as knowledge 0.0882353
graceful knowledge 0.0294118
damage danger 0.0454545
NULL danger 0.1818182
we danger 0.0454545
dangerous danger 0.0454545
watch danger 0.0454545
hurt danger 0.0454545
unharmed danger 0.0454545
endangered danger 0.0454545
out danger 0.0454545
very danger 0.0454545
danger danger 0.1363636
susceptible danger 0.0454545
fangs danger 0.0454545
preparations danger 0.0454545
charter danger 0.0454545
cares danger 0.0454545
sees danger 0.0454545
keeps reserves 0.5000000
always reserves 0.5000000
guilt gins 0.1250000
them gins 0.1250000
gnaw gins 0.1250000
is gins 0.1250000
fade gins 0.1250000
finally gins 0.1250000
starting gins 0.1250000
at gins 0.1250000
colme colme 1.0000000
victory victory 0.5000000
battle victory 0.0833333
NULL victory 0.0833333
passion victory 0.0833333
in victory 0.0833333
me victory 0.0833333
victorious victory 0.0833333
breath exhale 0.2500000
your exhale 0.2500000
last exhale 0.2500000
take exhale 0.2500000
voice cares 0.1250000
sorrow-ravaged cares 0.1250000
worries cares 0.2500000
they cares 0.1250000
NULL cares 0.1250000
, cares 0.1250000
worry cares 0.1250000
anything od 1.0000000
regard frolic 1.0000000
NULL flourishes 1.0000000
trade exchange 0.1111111
m exchange 0.1111111
hit exchange 0.1111111
forgive exchange 0.1111111
please exchange 0.1111111
notes exchange 0.1111111
about exchange 0.1111111
ecstatic exchange 0.1111111
exchange exchange 0.1111111
fight hob 1.0000000
so heavily 0.2000000
depressed heavily 0.2000000
you heavily 0.2000000
do heavily 0.2000000
look heavily 0.2000000
saxony saxony 1.0000000
believed square 0.2500000
the square 0.2500000
rumors square 0.2500000
are square 0.2500000
power mickle 0.5000000
great mickle 0.5000000
here attractive 0.1428571
right attractive 0.1428571
piece attractive 0.1428571
nicer attractive 0.1428571
of attractive 0.1428571
beautiful attractive 0.1428571
work attractive 0.1428571
NULL triumph 0.0833333
do triumph 0.0833333
coronation triumph 0.0833333
chains triumph 0.0833333
victory triumph 0.0833333
triumph triumph 0.2500000
in triumph 0.0833333
think triumph 0.0833333
ve triumph 0.0833333
won triumph 0.0833333
floods arms 0.0322581
beg arms 0.0322581
around arms 0.0322581
NULL arms 0.1935484
eleventh arms 0.0322581
— arms 0.0322581
not arms 0.0322581
war arms 0.0322581
combat arms 0.0322581
guildfords arms 0.0322581
arms arms 0.2903226
sincere arms 0.0322581
weapons arms 0.0322581
armed arms 0.0322581
work arms 0.0322581
can arms 0.0322581
laws arms 0.0322581
invading arms 0.0322581
those suppler 0.5000000
young suppler 0.5000000
NULL degenerate 1.0000000
when synagogue 0.2000000
now synagogue 0.2000000
let synagogue 0.2000000
me synagogue 0.2000000
choose synagogue 0.2000000
stack pile 0.3333333
pile pile 0.6666667
stooped envy 0.1428571
NULL envy 0.1428571
cruelty envy 0.1428571
of envy 0.1428571
legs envy 0.1428571
resent envy 0.1428571
jealousy envy 0.1428571
set doubts 1.0000000
, huswife 0.1250000
is huswife 0.1250000
turned huswife 0.1250000
whore huswife 0.1250000
on huswife 0.1250000
like huswife 0.1250000
she huswife 0.1250000
prostitute huswife 0.1250000
important prerogatived 1.0000000
slaves bond-slaves 1.0000000
foix foix 1.0000000
couldn sees 0.0714286
has sees 0.0714286
see sees 0.1428571
if sees 0.0714286
himself sees 0.1428571
distinction sees 0.0714286
imagination sees 0.0714286
sees sees 0.2857143
wolf sees 0.0714286
signed subscribed 0.3333333
cruelties subscribed 0.3333333
world subscribed 0.3333333
stand abide 0.1538462
safe abide 0.0769231
NULL abide 0.0769231
carnation abide 0.0769231
re abide 0.0769231
are abide 0.0769231
stay abide 0.1538462
turns abide 0.0769231
keep abide 0.0769231
get abide 0.0769231
heaven abide 0.0769231
saddest eaves 0.5000000
is eaves 0.5000000
wars virtue 0.0263158
virtue virtue 0.0789474
a virtue 0.1315789
NULL virtue 0.2368421
england virtue 0.0263158
woman virtue 0.0263158
good virtue 0.0526316
student virtue 0.0263158
help virtue 0.0526316
power virtue 0.0263158
intentions virtue 0.0263158
quality virtue 0.0263158
t virtue 0.0263158
covering virtue 0.0263158
it virtue 0.0263158
virtuously virtue 0.0263158
honor virtue 0.0263158
virtuous virtue 0.0526316
hidden virtue 0.0263158
thing virtue 0.0263158
merit virtue 0.0263158
bad knavish 1.0000000
is hunts 1.0000000
use extremest 0.2500000
you extremest 0.2500000
let extremest 0.2500000
ll extremest 0.2500000
poison deal 0.0588235
NULL deal 0.0588235
a deal 0.0588235
grieve deal 0.0588235
imprudently deal 0.0588235
talks deal 0.0588235
put deal 0.0588235
verdict deal 0.0588235
deal deal 0.1176471
plainly deal 0.0588235
keep deal 0.0588235
think deal 0.0588235
with deal 0.1176471
give deal 0.0588235
act deal 0.0588235
she kitchened 0.1666667
of kitchened 0.1666667
: kitchened 0.1666667
care kitchened 0.1666667
kitchen kitchened 0.1666667
took kitchened 0.1666667
personal personal 0.6666667
ability personal 0.3333333
dighton dighton 1.0000000
breath gasp 1.0000000
NULL commendable 0.1250000
a commendable 0.1250000
only commendable 0.1250000
for commendable 0.1250000
parrots commendable 0.1250000
good commendable 0.1250000
be commendable 0.1250000
thing commendable 0.1250000
treatment owner 0.2000000
extreme owner 0.2000000
terminal owner 0.2000000
requires owner 0.2000000
disease owner 0.2000000
tolerate lordship 0.0204082
correctly lordship 0.0204082
lead lordship 0.0204082
NULL lordship 0.0204082
are lordship 0.0612245
, lordship 0.1836735
my lordship 0.1632653
nice lordship 0.0204082
woman lordship 0.0204082
hadn lordship 0.0204082
free lordship 0.0204082
person lordship 0.0204082
at lordship 0.0204082
sir lordship 0.0408163
command lordship 0.0204082
lordship lordship 0.0816327
service lordship 0.0204082
lord lordship 0.1632653
stay lordship 0.0204082
was lordship 0.0408163
NULL thoroughfares 1.0000000
springtime buds 0.2500000
now buds 0.2500000
scorn buds 0.2500000
me buds 0.2500000
the redoubled 1.0000000
over wart 1.0000000
it controlment 0.1666667
volume controlment 0.1666667
in controlment 0.1666667
danger controlment 0.1666667
no controlment 0.1666667
s controlment 0.1666667
NULL pearl 0.0909091
you pearl 0.0909091
for pearl 0.0909091
me pearl 0.0909091
describe pearl 0.0909091
on pearl 0.0909091
earring pearl 0.0909091
pearl pearl 0.2727273
beads pearl 0.0909091
drunkard drunkard 0.2500000
wonderful drunkard 0.1250000
was drunkard 0.1250000
drunk drunkard 0.3750000
is drunkard 0.1250000
bolstered ghasted 1.0000000
the dido 0.1875000
aeneas dido 0.0625000
dido dido 0.2500000
ll dido 0.0625000
for dido 0.1875000
saying dido 0.0625000
widower dido 0.0625000
“ dido 0.1250000
previous alcides 0.2500000
twelve alcides 0.2500000
together alcides 0.2500000
put alcides 0.2500000
feelings affections 0.2857143
NULL affections 0.3571429
have affections 0.1428571
desires affections 0.0714286
love affections 0.0714286
passions affections 0.0714286
strange strangeness 0.6666667
weird strangeness 0.3333333
recently milk 0.0714286
NULL milk 0.1428571
he milk 0.0714286
looks milk 0.0714286
anything milk 0.0714286
them milk 0.0714286
breastfeeding milk 0.0714286
can milk 0.0714286
choose milk 0.0714286
milk milk 0.0714286
stopped milk 0.0714286
like milk 0.0714286
just milk 0.0714286
NULL compelled 0.5000000
ve compelled 0.5000000
the hereafter 0.0434783
waited hereafter 0.0434783
you hereafter 0.0434783
NULL hereafter 0.0434783
later hereafter 0.2608696
hope hereafter 0.0434783
after hereafter 0.0434783
anyway hereafter 0.0434783
forgive hereafter 0.0434783
good hereafter 0.0434783
in hereafter 0.0434783
future hereafter 0.0434783
ugly hereafter 0.0434783
about hereafter 0.0869565
it hereafter 0.0434783
me hereafter 0.0434783
remembered hereafter 0.0434783
promises forswearing 1.0000000
meanwhile meantime 0.0937500
the meantime 0.1250000
assume meantime 0.0312500
NULL meantime 0.0625000
ll meantime 0.0312500
happens meantime 0.0312500
that meantime 0.0625000
, meantime 0.1250000
we meantime 0.0312500
just meantime 0.0312500
in meantime 0.1562500
meantime meantime 0.1875000
and meantime 0.0312500
NULL ooze 0.6666667
ocean ooze 0.3333333
working sweaty 0.5000000
warrants sweaty 0.5000000
the feasting 0.2500000
a feasting 0.1250000
be feasting 0.1250000
windows feasting 0.1250000
feasting feasting 0.1250000
mean feasting 0.1250000
feast feasting 0.1250000
hours furnish 0.1250000
up furnish 0.1250000
convenient furnish 0.1250000
supply furnish 0.1250000
get furnish 0.1250000
think furnish 0.1250000
ready furnish 0.1250000
inside furnish 0.1250000
wearing yellow 0.0833333
buttercup-yellow yellow 0.0833333
NULL yellow 0.0833333
be yellow 0.0833333
may yellow 0.0833333
yellow yellow 0.5833333
clear mender 0.5000000
with mender 0.5000000
adultery adultery 1.0000000
gambling outparamoured 1.0000000
NULL fordo 1.0000000
dorset dorset 1.0000000
welts ballast 1.0000000
doctors physicians 1.0000000
flocks fleeces 1.0000000
standing stiffly 0.2500000
keep stiffly 0.2500000
— stiffly 0.2500000
yet stiffly 0.2500000
now delay 0.0769231
don delay 0.2307692
NULL delay 0.0769231
coming delay 0.0769231
delay delay 0.3846154
t delay 0.0769231
’ delay 0.0769231
web web 0.1666667
trapped web 0.1666667
in web 0.1666667
his web 0.1666667
deadly web 0.1666667
fabric web 0.1666667
one seconds 0.2000000
will seconds 0.2000000
me seconds 0.2000000
back seconds 0.2000000
up seconds 0.2000000
half moiety 0.3333333
the moiety 0.2222222
barely moiety 0.1111111
divided moiety 0.1111111
portion moiety 0.1111111
death moiety 0.1111111
the defeatures 1.0000000
guess partly 0.0714286
a partly 0.0714286
NULL partly 0.0714286
bit partly 0.0714286
almost partly 0.1428571
hope partly 0.0714286
partly partly 0.4285714
persuasion partly 0.0714286
on enlarge 0.1666667
elaborate enlarge 0.1666667
release enlarge 0.3333333
can enlarge 0.1666667
frees enlarge 0.1666667
to commanders 0.3333333
commanders commanders 0.6666667
NULL teach 0.0625000
treat teach 0.0312500
are teach 0.0312500
teach teach 0.3125000
i teach 0.0312500
something teach 0.0312500
show teach 0.0312500
what teach 0.0312500
for teach 0.0312500
re teach 0.0312500
duty teach 0.0312500
service teach 0.0312500
recite teach 0.0312500
tell teach 0.1250000
then teach 0.0312500
teaching teach 0.0625000
learn teach 0.0625000
NULL horns 0.1000000
cuckold horns 0.1000000
himself horns 0.1000000
of horns 0.1000000
his horns 0.1000000
predicted horns 0.1000000
horns horns 0.4000000
earliest set 0.0107527
lead set 0.0107527
boundaries set 0.0107527
caused set 0.0107527
repented set 0.0107527
clear set 0.0107527
exactly set 0.0107527
, set 0.0107527
put set 0.0645161
dismissed set 0.0107527
solemnly set 0.0107527
assemble set 0.0107527
in set 0.0107527
about set 0.0107527
sent set 0.0215054
write set 0.0322581
extent set 0.0107527
apparently set 0.0107527
declining set 0.0107527
sunk set 0.0107527
enough set 0.0107527
seat set 0.0107527
courts set 0.0107527
shower set 0.0107527
wrote set 0.0107527
gang set 0.0107527
waste set 0.0107527
mobilized set 0.0107527
push set 0.0107527
grit set 0.0215054
tell set 0.0107527
away set 0.0107527
continue set 0.0107527
engraved set 0.0107527
eyes set 0.0215054
and set 0.0107527
nightfall set 0.0107527
stable set 0.0107527
advance set 0.0215054
over set 0.0107527
glazing set 0.0107527
NULL set 0.1290323
send set 0.0107527
freedoms set 0.0107527
into set 0.0107527
attacked set 0.0107527
insult set 0.0107527
to set 0.0107527
use set 0.0107527
bring set 0.0107527
gem set 0.0107527
his set 0.0322581
get set 0.0215054
sunset set 0.0107527
deployed set 0.0107527
set set 0.1075269
feet set 0.0107527
places set 0.0107527
well-ordered set 0.0107527
dance jig 0.3333333
jig jig 0.3333333
prance jig 0.3333333
history chronicle 0.2500000
clip chronicle 0.2500000
in chronicle 0.2500000
place chronicle 0.2500000
turkish tapestry 0.5000000
tapestry tapestry 0.5000000
boar boar 0.4545455
even boar 0.0909091
NULL boar 0.0909091
us boar 0.0909091
pursues boar 0.0909091
but boar 0.0909091
raged boar 0.0909091
NULL vie 1.0000000
on stained 0.1666667
drenched stained 0.1666667
embarrassed stained 0.1666667
stained stained 0.1666667
still stained 0.1666667
is stained 0.1666667
leader leader 0.3333333
is leader 0.3333333
being leader 0.3333333
here met 0.0508475
reunited met 0.0169492
met met 0.2372881
NULL met 0.0508475
you met 0.1016949
would met 0.0169492
we met 0.0169492
nice met 0.0169492
see met 0.1186441
oliver met 0.0169492
to met 0.1016949
good met 0.0169492
coincidence met 0.0338983
awakened met 0.0169492
ran met 0.0169492
had met 0.0169492
meeting met 0.0169492
glad met 0.0338983
lusting met 0.0169492
across met 0.0169492
afternoon met 0.0169492
gathered met 0.0169492
became met 0.0169492
adores met 0.0169492
than thunderclaps 0.2500000
about thunderclaps 0.2500000
flashed thunderclaps 0.2500000
faster thunderclaps 0.2500000
had tooth 0.0833333
once tooth 0.0833333
mastiff tooth 0.0833333
NULL tooth 0.0833333
threatened tooth 0.0833333
fangs tooth 0.0833333
by tooth 0.0833333
tooth tooth 0.0833333
single tooth 0.0833333
toothache tooth 0.0833333
again tooth 0.0833333
its tooth 0.0833333
garbage substractors 1.0000000
white-haired white 0.0434783
NULL white 0.2608696
revolts white 0.0434783
guy white 0.0434783
are white 0.0434783
old white 0.0434783
white white 0.3913043
little white 0.0434783
as white 0.0434783
and white 0.0434783
— wonder 0.0175439
marvel wonder 0.0175439
not wonder 0.0175439
understand wonder 0.0175439
miracle wonder 0.0175439
amazing wonder 0.0701754
wouldn wonder 0.0175439
wonder wonder 0.0877193
wondering wonder 0.0175439
t wonder 0.0526316
miracles wonder 0.0175439
what wonder 0.0175439
how wonder 0.0350877
shocking wonder 0.0175439
me wonder 0.0175439
torments wonder 0.0175439
surprised wonder 0.0175439
believe wonder 0.0175439
but wonder 0.0175439
NULL wonder 0.0877193
surprise wonder 0.0175439
’ wonder 0.1228070
amazed wonder 0.0526316
marvelous wonder 0.0175439
don wonder 0.0350877
terrifying wonder 0.0175439
m wonder 0.0526316
without wonder 0.0175439
can wonder 0.0175439
rumors wonder 0.0175439
today wonder 0.0175439
why wonder 0.0175439
face saint 0.0500000
offense saint 0.0500000
NULL saint 0.2500000
probably saint 0.0500000
valentine saint 0.0500000
saint saint 0.5500000
scalp unhair 1.0000000
frowns frowns 1.0000000
violet violet 0.5000000
NULL violet 0.5000000
betrothed betrothed 0.5000000
engaged betrothed 0.5000000
course aye 0.1666667
master aye 0.1666667
foot-licker aye 0.1666667
of aye 0.1666667
be aye 0.1666667
marked aye 0.1666667
cawdor cawdor 0.6666667
isn cawdor 0.3333333
dared dared 0.5000000
ve dared 0.5000000
boring wearying 1.0000000
head brow 0.1111111
NULL brow 0.4444444
forehead brow 0.3333333
seriously brow 0.1111111
aleppo aleppo 0.5000000
i aleppo 0.5000000
rite deeds 0.0588235
way deeds 0.0588235
actions deeds 0.1176471
what deeds 0.0588235
NULL deeds 0.0588235
responsibility deeds 0.0588235
all deeds 0.0588235
take deeds 0.0588235
we deeds 0.1176471
villain deeds 0.0588235
hateful deeds 0.0588235
deeds deeds 0.1764706
about deeds 0.0588235
reasons parties 0.5000000
political parties 0.5000000
making wearied 0.5000000
tired wearied 0.5000000
sunday pedant 0.3333333
pathetic pedant 0.3333333
schoolmaster pedant 0.3333333
chattering tattling 1.0000000
taunting taunting 1.0000000
here sight 0.0338983
NULL sight 0.1525424
of sight 0.0169492
world sight 0.0169492
my sight 0.0169492
is sight 0.0169492
see sight 0.0508475
presence sight 0.0169492
deceive sight 0.0338983
t sight 0.0338983
eyesight sight 0.0169492
sight sight 0.3050847
blind sight 0.0169492
what sight 0.0338983
me sight 0.0508475
them sight 0.0169492
secret sight 0.0169492
bedroom sight 0.0169492
endowed sight 0.0169492
offensive sight 0.0169492
those sight 0.0169492
eyes sight 0.0338983
apart sight 0.0169492
george sight 0.0169492
dull sight 0.0169492
as religion 0.1666667
just religion 0.1666667
ll religion 0.1666667
keep religion 0.1666667
my religion 0.1666667
promise religion 0.1666667
maybe haply 0.0526316
ll haply 0.0526316
hopefully haply 0.0526316
NULL haply 0.1578947
you haply 0.1052632
end haply 0.0526316
possibly haply 0.1052632
perhaps haply 0.1578947
him haply 0.0526316
scolded haply 0.0526316
think haply 0.0526316
i haply 0.1052632
emotions outrageous 0.5000000
confused outrageous 0.5000000
way gentleman 0.0126582
messenger gentleman 0.0253165
NULL gentleman 0.0379747
benedick gentleman 0.0126582
tide gentleman 0.0126582
jester gentleman 0.0126582
guy gentleman 0.0126582
attendants gentleman 0.0126582
gentlemanly gentleman 0.0126582
technicality gentleman 0.0126582
demetrius gentleman 0.0126582
him gentleman 0.0126582
sir gentleman 0.0632911
talking gentleman 0.0126582
belligerent gentleman 0.0126582
gentleman gentleman 0.5063291
very gentleman 0.0126582
cesario gentleman 0.0126582
trusted gentleman 0.0126582
nobleman gentleman 0.0126582
fellow gentleman 0.0126582
condiment gentleman 0.0126582
man gentleman 0.1265823
hello gentleman 0.0126582
the lid 0.1250000
during lid 0.1250000
a lid 0.1250000
of lid 0.1250000
wink lid 0.1250000
day lid 0.1250000
catch lid 0.1250000
t lid 0.1250000
to lovest 0.1111111
kind lovest 0.1111111
be lovest 0.1111111
re lovest 0.1111111
my lovest 0.1111111
love lovest 0.4444444
there oppression 0.2500000
adversaries oppression 0.2500000
are oppression 0.2500000
more oppression 0.2500000
a misses 0.2500000
miss misses 0.2500000
doesn misses 0.2500000
thing misses 0.2500000
sane perfect 0.0769231
NULL perfect 0.1538462
moral perfect 0.0769231
re perfect 0.0769231
pretense perfect 0.0769231
important perfect 0.0769231
perfect perfect 0.0769231
person perfect 0.0769231
planet perfect 0.0769231
prime perfect 0.0769231
innocence perfect 0.0769231
an perfect 0.0769231
you mend 0.0967742
a mend 0.0322581
NULL mend 0.0645161
finish mend 0.0322581
all mend 0.0322581
straighten mend 0.0322581
will mend 0.0322581
better mend 0.0645161
should mend 0.0322581
get mend 0.0645161
indecent mend 0.0322581
make mend 0.0322581
change mend 0.0322581
fix mend 0.0967742
funnier mend 0.0322581
getting mend 0.0322581
raise mend 0.0322581
right mend 0.0322581
everything mend 0.0322581
mend mend 0.0967742
become mend 0.0322581
revise mend 0.0322581
behind driven 0.5000000
NULL driven 0.5000000
a lik 0.1111111
for lik 0.1111111
not lik 0.1111111
liking lik 0.1111111
ago lik 0.1111111
minute lik 0.1111111
didn lik 0.1111111
think lik 0.1111111
more lik 0.1111111
doing unworthy 0.1666667
even unworthy 0.1666667
— unworthy 0.1666667
stuff unworthy 0.1666667
t unworthy 0.1666667
though unworthy 0.1666667
lineage birth 0.1428571
birth birth 0.1428571
NULL birth 0.2857143
then birth 0.1428571
birthright birth 0.1428571
birthday birth 0.1428571
reminiscing heaviness 0.5000000
cheer heaviness 0.5000000
the illusion 0.1666667
NULL illusion 0.1666667
do illusion 0.1666667
last illusion 0.1666667
thing illusion 0.1666667
i illusion 0.1666667
yes both 0.0062500
the both 0.0375000
yourself both 0.0062500
you both 0.0562500
both both 0.4187500
my both 0.0062500
that both 0.0062500
two both 0.0187500
similar both 0.0062500
got both 0.0062500
gentlemen both 0.0062500
risers both 0.0062500
unison both 0.0062500
enjoy both 0.0062500
ring both 0.0062500
re both 0.0062500
them both 0.0062500
fence both 0.0062500
calming both 0.0062500
twin both 0.0062500
your both 0.0062500
ready both 0.0062500
obey both 0.0062500
and both 0.0062500
putting both 0.0062500
NULL both 0.1812500
of both 0.0500000
taste both 0.0062500
insists both 0.0062500
city both 0.0062500
to both 0.0062500
lords both 0.0062500
act both 0.0062500
available both 0.0062500
swamps both 0.0062500
heart both 0.0125000
attention both 0.0062500
marrying both 0.0062500
either both 0.0062500
warmth both 0.0062500
honor both 0.0062500
sons both 0.0062500
teachers both 0.0062500
must signor 0.0384615
NULL signor 0.0384615
honey signor 0.0384615
waging signor 0.0384615
he signor 0.0384615
antonio signor 0.0384615
signor signor 0.2692308
signior signor 0.2692308
been signor 0.0769231
have signor 0.0769231
sir signor 0.0769231
NULL trifled 1.0000000
when flew 0.2500000
ran flew 0.2500000
off flew 0.2500000
wore flew 0.2500000
vices vices 0.3333333
NULL vices 0.3333333
meantime vices 0.3333333
hanging sailor 0.2000000
sailor sailor 0.4000000
s sailor 0.2000000
ark sailor 0.2000000
nipple dug 0.3333333
mother dug 0.3333333
s dug 0.3333333
criminal transgression 0.2000000
friend transgression 0.2000000
NULL transgression 0.2000000
such transgression 0.2000000
crime transgression 0.2000000
NULL oyster 0.2500000
oyster oyster 0.5000000
this oyster 0.2500000
then knee-crooking 1.0000000
shamelessly shameless 1.0000000
will severally 1.0000000
need lackest 1.0000000
like massy 0.5000000
huge massy 0.5000000
proculeius proculeius 0.7500000
dolabella proculeius 0.2500000
who betoken 1.0000000
starting assays 0.3333333
m assays 0.3333333
lose assays 0.3333333
brain-death lechery 0.2000000
nonsense lechery 0.2000000
NULL lechery 0.2000000
them lechery 0.2000000
is lechery 0.2000000
pharsalia pharsalia 1.0000000
wife spouse 1.0000000
trust bordered 1.0000000
ll swoon 0.1428571
you swoon 0.1428571
say swoon 0.1428571
fainted swoon 0.1428571
faint swoon 0.4285714
morocco morocco 1.0000000
years summers 1.0000000
must banquo 0.0588235
be banquo 0.0588235
banquo banquo 0.8823529
it plotted 0.3333333
got plotted 0.3333333
ve plotted 0.3333333
drinker drinking 0.0833333
NULL drinking 0.0833333
a drinking 0.0833333
of drinking 0.0833333
match drinking 0.0833333
not drinking 0.0833333
m drinking 0.0833333
toasts drinking 0.0833333
drinkers drinking 0.0833333
much drinking 0.0833333
drinking drinking 0.1666667
wind gale 1.0000000
the dangers 0.2000000
prospect dangers 0.1000000
making dangers 0.1000000
of dangers 0.1000000
are dangers 0.2000000
dangers dangers 0.2000000
death dangers 0.1000000
man insomuch 0.5000000
smart insomuch 0.5000000
devoted diligent 1.0000000
. artemidorus 0.5000000
artemidorus artemidorus 0.5000000
as relief 0.1428571
language relief 0.1428571
letting relief 0.1428571
me relief 0.2857143
same relief 0.1428571
go relief 0.1428571
wet wet 1.0000000
undress disrobe 1.0000000
you no 0.0059583
exactly no 0.0009930
that no 0.0009930
not no 0.0575968
nobody no 0.0029791
sailor no 0.0009930
keep no 0.0019861
boy no 0.0009930
hay no 0.0009930
jealousy no 0.0009930
disagree no 0.0019861
disciplined no 0.0009930
topic no 0.0009930
history no 0.0009930
harm no 0.0029791
okay no 0.0019861
rituals no 0.0009930
savage no 0.0009930
weapon no 0.0009930
sit no 0.0009930
centaur no 0.0009930
gray no 0.0009930
sunrises no 0.0009930
hardly no 0.0009930
again no 0.0019861
promise no 0.0009930
beard no 0.0009930
symptoms no 0.0009930
anymore no 0.0039722
robes no 0.0009930
did no 0.0009930
ashamed no 0.0019861
goodness no 0.0009930
cupid no 0.0009930
scare no 0.0009930
all no 0.0019861
carelessly no 0.0009930
consequences no 0.0009930
ugh no 0.0009930
face no 0.0009930
resulting no 0.0009930
oh no 0.0049652
speed no 0.0009930
humiliation no 0.0009930
really no 0.0029791
shhh no 0.0009930
neither no 0.0009930
forgiven no 0.0009930
assistance no 0.0009930
it no 0.0069513
infant no 0.0009930
sure no 0.0019861
sea no 0.0009930
patronizing no 0.0009930
any no 0.0575968
proud no 0.0009930
constellation no 0.0009930
skip no 0.0009930
necessary no 0.0009930
metal no 0.0019861
the no 0.0009930
next no 0.0009930
speak no 0.0009930
a no 0.0069513
windows no 0.0009930
no no 0.4061569
special no 0.0009930
shy no 0.0009930
let no 0.0009930
or no 0.0009930
upshot no 0.0009930
sing no 0.0009930
down no 0.0009930
trinculo no 0.0009930
known no 0.0009930
denied no 0.0009930
deserve no 0.0019861
t no 0.1588878
safe no 0.0009930
so no 0.0019861
head no 0.0009930
knew no 0.0009930
voices no 0.0009930
shadow no 0.0009930
only no 0.0019861
definitely no 0.0009930
proved no 0.0009930
enough no 0.0009930
re no 0.0019861
fulvia no 0.0009930
illegitimate no 0.0009930
anything no 0.0079444
gentleness no 0.0009930
port no 0.0009930
frivolous no 0.0009930
inconstant no 0.0009930
be no 0.0039722
away no 0.0009930
idea no 0.0009930
asleep no 0.0009930
mine no 0.0019861
humiliated no 0.0009930
hell no 0.0009930
general no 0.0009930
NULL no 0.1052632
princess no 0.0009930
never no 0.0029791
expedition no 0.0009930
threaten no 0.0009930
close no 0.0009930
absolutely no 0.0009930
hurt no 0.0009930
say no 0.0019861
together no 0.0009930
i no 0.0109235
quiet no 0.0039722
skillfully no 0.0009930
bolder no 0.0009930
porter no 0.0009930
stop no 0.0039722
don no 0.0029791
overdo no 0.0009930
water no 0.0009930
indirect no 0.0009930
well no 0.0019861
there no 0.0079444
positively no 0.0009930
happy no 0.0019861
nothing no 0.0089374
annoy no 0.0009930
kind conjurer 0.2000000
sorcerer conjurer 0.2000000
of conjurer 0.2000000
be conjurer 0.2000000
some conjurer 0.2000000
in undisposed 0.3333333
mood undisposed 0.3333333
not undisposed 0.3333333
anything bagpiper 1.0000000
agincourt agincourt 1.0000000
the dumps 0.5000000
dumps dumps 0.5000000
helmets head-pieces 1.0000000
gnats gnats 1.0000000
lumpy nimbly 0.2000000
shadow nimbly 0.2000000
sweet nimbly 0.2000000
my nimbly 0.2000000
is nimbly 0.2000000
fortune-tellers augurers 0.3333333
priests augurers 0.3333333
say augurers 0.3333333
kent object 0.2000000
now object 0.2000000
everything object 0.2000000
mood object 0.2000000
richard object 0.2000000
till interposer 0.1428571
back interposer 0.1428571
get interposer 0.1428571
i interposer 0.1428571
sleep interposer 0.1428571
t interposer 0.1428571
won interposer 0.1428571
scoundrel caitiff 0.5000000
thing caitiff 0.5000000
there invent 0.1428571
pressure invent 0.1428571
less invent 0.1428571
was invent 0.1428571
social invent 0.1428571
write invent 0.1428571
t invent 0.1428571
stool three-legged 1.0000000
sting pinch 0.1250000
pinch pinch 0.6250000
one pinch 0.1250000
of pinch 0.1250000
in inv 0.5000000
if inv 0.5000000
receive tyrannically 0.3333333
outrageous tyrannically 0.3333333
applause tyrannically 0.3333333
a woe 0.0370370
NULL woe 0.2592593
despair woe 0.0370370
later woe 0.0370370
actually woe 0.0370370
not woe 0.0370370
pity woe 0.0740741
mourning woe 0.0370370
i woe 0.0370370
woe woe 0.0370370
what woe 0.0370370
very woe 0.0370370
sorry woe 0.0370370
how woe 0.0370370
grief woe 0.0370370
but woe 0.0370370
myself woe 0.0370370
and woe 0.0370370
horrible woe 0.0740741
on marching 0.2500000
marching marching 0.2500000
NULL marching 0.2500000
workaday marching 0.2500000
the jade 0.1000000
lame jade 0.1000000
of jade 0.2000000
fact jade 0.1000000
than jade 0.1000000
by jade 0.1000000
horse jade 0.1000000
some jade 0.1000000
likes jade 0.1000000
there grave- 0.2500000
another grave- 0.2500000
s grave- 0.2500000
’ grave- 0.2500000
don beauties 0.2500000
please beauties 0.2500000
ladies beauties 0.2500000
beautiful beauties 0.2500000
matchmaker love-broker 1.0000000
shake simulation 0.2000000
it simulation 0.2000000
up simulation 0.2000000
i simulation 0.2000000
if simulation 0.2000000
salisbury salisbury 0.8333333
; salisbury 0.1666667
tried dissuade 0.1111111
make dissuade 0.1111111
change dissuade 0.2222222
his dissuade 0.2222222
mind dissuade 0.2222222
discourage dissuade 0.1111111
the thyself 0.0181818
you thyself 0.1272727
NULL thyself 0.1636364
yourself thyself 0.3818182
frightening thyself 0.0181818
kind thyself 0.0181818
so thyself 0.0363636
particular thyself 0.0181818
feeling thyself 0.0181818
younger thyself 0.0181818
repent thyself 0.0181818
mightier thyself 0.0181818
alone thyself 0.0181818
as thyself 0.0181818
be thyself 0.0181818
then thyself 0.0181818
your thyself 0.0181818
damn thyself 0.0181818
forgotten thyself 0.0181818
though thyself 0.0181818
soothe go 0.0017153
puff go 0.0017153
you go 0.0017153
another go 0.0017153
fly go 0.0017153
taking go 0.0017153
come go 0.0720412
cringe go 0.0017153
headed go 0.0017153
hanging go 0.0017153
on go 0.0222985
matter go 0.0017153
keep go 0.0051458
cauldron go 0.0017153
leaving go 0.0017153
sound go 0.0017153
lost go 0.0017153
insistent go 0.0017153
out go 0.0051458
convent go 0.0034305
arm go 0.0034305
ll go 0.0102916
shut go 0.0017153
mount go 0.0017153
tell go 0.0034305
walk go 0.0034305
loses go 0.0017153
and go 0.0017153
with go 0.0051458
hard go 0.0017153
leave go 0.0085763
here go 0.0034305
follow go 0.0034305
beg go 0.0017153
luck go 0.0017153
story go 0.0017153
of go 0.0085763
supper go 0.0017153
all go 0.0034305
oh go 0.0034305
home go 0.0017153
going go 0.0343053
outmaneuver go 0.0017153
grieves go 0.0017153
stay go 0.0034305
alone go 0.0017153
right go 0.0051458
singing go 0.0017153
now go 0.0102916
then go 0.0034305
necessary go 0.0017153
speak go 0.0017153
pay go 0.0017153
literally go 0.0017153
depart go 0.0017153
off go 0.0085763
faster go 0.0017153
turn go 0.0017153
let go 0.0017153
in go 0.0017153
fetch go 0.0017153
show go 0.0017153
synagogue go 0.0017153
enough go 0.0068611
backing go 0.0017153
re go 0.0051458
me go 0.0017153
ask go 0.0034305
s go 0.0120069
enter go 0.0034305
best go 0.0017153
guys go 0.0017153
advance go 0.0017153
guildenstern go 0.0017153
NULL go 0.1029160
up go 0.0034305
bring go 0.0017153
us go 0.0017153
gods go 0.0017153
get go 0.0240137
should go 0.0034305
reports go 0.0017153
i go 0.0017153
reward go 0.0017153
letters go 0.0017153
looking go 0.0017153
don go 0.0017153
dine go 0.0017153
back go 0.0017153
m go 0.0222985
unless go 0.0017153
hook go 0.0017153
go go 0.4631218
there go 0.0017153
as go 0.0034305
anywhere go 0.0017153
coming go 0.0051458
hurry go 0.0017153
escort go 0.0017153
servants go 0.0017153
coming chanticleer 1.0000000
claiming contestation 1.0000000
hole chink 1.0000000
wonderful dish 0.2000000
dish dish 0.6000000
definitely dish 0.2000000
roots tree 0.0666667
tree tree 0.7333333
hollow tree 0.0666667
since tree 0.0666667
, tree 0.0666667
NULL emperor 0.1666667
emperor emperor 0.6666667
sovereign emperor 0.0833333
called emperor 0.0833333
NULL third 0.1600000
a third 0.0800000
of third 0.0800000
isaac third 0.0400000
world third 0.0400000
third third 0.4800000
hit third 0.0400000
people third 0.0400000
burgundy third 0.0400000
this unknit 1.0000000
friend playfellow 0.5000000
playmate playfellow 0.5000000
astonished dismay 0.2500000
you dismay 0.2500000
anxious dismay 0.2500000
watching dismay 0.2500000
madam profound 0.1666667
sighed profound 0.1666667
very profound 0.1666667
NULL profound 0.1666667
droplet profound 0.1666667
serious profound 0.1666667
life mortality 1.0000000
make imperfections 0.2000000
NULL imperfections 0.2000000
imperfections imperfections 0.2000000
for imperfections 0.2000000
up imperfections 0.2000000
this dilate 1.0000000
, folks 0.5000000
folks folks 0.5000000
NULL govern 0.1111111
know govern 0.1111111
fit govern 0.1111111
me govern 0.1111111
is govern 0.1111111
right govern 0.1111111
let govern 0.1111111
be govern 0.1111111
king govern 0.1111111
kept prated 0.5000000
chattering prated 0.5000000
defy defy 0.0909091
fight defy 0.0909091
ll defy 0.0909091
destruction defy 0.0909091
my defy 0.0909091
are defy 0.0909091
that defy 0.0909091
thumb defy 0.0909091
challenge defy 0.0909091
say defy 0.0909091
i defy 0.0909091
like rawer 0.3333333
him rawer 0.3333333
about rawer 0.3333333
ignite kindle 0.5000000
into kindle 0.5000000
is disease 0.1666667
disease disease 0.8333333
insult baffle 1.0000000
mere cobbler 0.1666667
cobbler cobbler 0.3333333
might cobbler 0.1666667
me cobbler 0.1666667
call cobbler 0.1666667
loud thunder 0.0714286
the thunder 0.0714286
NULL thunder 0.0714286
night thunder 0.0714286
commanding thunder 0.0714286
lightning thunder 0.0714286
and thunder 0.1428571
thunder thunder 0.4285714
robbed stole 0.3333333
NULL stole 0.3333333
stole stole 0.3333333
managed accused 0.2000000
accused accused 0.4000000
deceived accused 0.2000000
innocent accused 0.2000000
left behind 0.0400000
behind behind 0.6000000
NULL behind 0.1200000
sacrifice behind 0.0400000
after behind 0.0400000
charge behind 0.0400000
wanted behind 0.0400000
terrible behind 0.0400000
edge behind 0.0400000
rooster pigeon 1.0000000
blushing blushest 0.5000000
re blushest 0.5000000
NULL ebbed 1.0000000
tell overname 0.3333333
me overname 0.3333333
but overname 0.3333333
NULL bad 0.1000000
charity bad 0.0250000
clear bad 0.0250000
bad bad 0.5000000
oh bad 0.0250000
unhealthy bad 0.0250000
terrible bad 0.0500000
rotten bad 0.0250000
it bad 0.0500000
example bad 0.0250000
stinking bad 0.0250000
prayer bad 0.0250000
intends bad 0.0250000
greater bad 0.0250000
strokes bad 0.0250000
oaths bad 0.0250000
battle skirmish 0.5000000
little skirmish 0.5000000
recovering recovers 0.3333333
s recovers 0.3333333
’ recovers 0.3333333
leaves occasion 0.0434783
necessity occasion 0.0434783
NULL occasion 0.3043478
of occasion 0.0434783
opportunity occasion 0.0869565
need occasion 0.0434783
to occasion 0.0434783
great occasion 0.0434783
give occasion 0.0434783
occasion occasion 0.0434783
hopes occasion 0.0434783
out occasion 0.0434783
work occasion 0.0434783
important occasion 0.0434783
political occasion 0.0434783
hardly occasion 0.0434783
each splintered 0.1250000
must splintered 0.1250000
toward splintered 0.1250000
we splintered 0.1250000
our splintered 0.1250000
other splintered 0.1250000
preserve splintered 0.1250000
goodwill splintered 0.1250000
own ashes 1.0000000
loud clamorous 0.2500000
noisy clamorous 0.2500000
music clamorous 0.2500000
smack clamorous 0.2500000
you something 0.0185185
NULL something 0.1666667
whatever something 0.0185185
imagining something 0.0185185
’ something 0.0185185
someone something 0.0185185
probably something 0.0185185
tired something 0.0185185
thumbs something 0.0185185
occasional something 0.0185185
refined something 0.0185185
something something 0.4074074
prettier something 0.0185185
somewhat something 0.0185185
relate something 0.0185185
anything something 0.0185185
orange something 0.0185185
manly something 0.0185185
s something 0.0370370
brought something 0.0185185
heard something 0.0185185
coming something 0.0185185
some something 0.0370370
the withal 0.0208333
NULL withal 0.1250000
decorate withal 0.0208333
thousands withal 0.0208333
along withal 0.0208333
still withal 0.0416667
gallop withal 0.0208333
disturbed withal 0.0208333
artfully withal 0.0208333
nevertheless withal 0.0208333
opponent withal 0.0208333
except withal 0.0208333
strolls withal 0.0208333
known withal 0.0208333
picture withal 0.0208333
ambles withal 0.0208333
trot withal 0.0208333
toss withal 0.0208333
for withal 0.2291667
accusations withal 0.0208333
preparing withal 0.0208333
knifepoint withal 0.0208333
sex withal 0.0208333
bleeds withal 0.0208333
one withal 0.0208333
wore withal 0.0208333
amble withal 0.0208333
unopposed withal 0.0416667
with withal 0.0416667
heaven withal 0.0208333
to dodge 1.0000000
perfectly weaves 0.2500000
his weaves 0.2500000
fits weaves 0.2500000
arrival weaves 0.2500000
pain gall 0.5000000
constant gall 0.5000000
like oats 0.1428571
they oats 0.1428571
eaten oats 0.1428571
a oats 0.1428571
oats oats 0.2857143
horse oats 0.1428571
NULL cheered 0.3333333
cheer cheered 0.3333333
up cheered 0.3333333
pulling pulling 1.0000000
stay horologe 1.0000000
shine drowsy 0.0909091
a drowsy 0.0909091
NULL drowsy 0.2727273
glimmering drowsy 0.0909091
dying drowsy 0.0909091
light drowsy 0.0909091
sleepy drowsy 0.0909091
throughout drowsy 0.0909091
restful drowsy 0.0909091
eloquence eloquence 1.0000000
NULL hot 0.0400000
raids hot 0.0400000
thirty-six hot 0.0400000
warm hot 0.0400000
failed hot 0.0400000
’ hot 0.0400000
like hot 0.0400000
horny hot 0.0400000
will hot 0.0400000
lively hot 0.0400000
hot-headed hot 0.0400000
fiery hot 0.0400000
summer hot 0.0400000
drank hot 0.0400000
fast hot 0.0400000
hot hot 0.4000000
so horrible 0.0555556
what horrible 0.0555556
it horrible 0.0555556
you horrible 0.1666667
terrifying horrible 0.0555556
imagining horrible 0.0555556
s horrible 0.0555556
dreadfully horrible 0.0555556
horrible horrible 0.4444444
beams beams 0.2000000
NULL beams 0.4000000
dazzling beams 0.2000000
light beams 0.2000000
persecuted vexes 0.3333333
is vexes 0.3333333
by vexes 0.3333333
ll maimed 0.2500000
be maimed 0.2500000
crippled maimed 0.2500000
hit maimed 0.2500000
righteousness piety 1.0000000
be mong 0.5000000
d mong 0.5000000
shilling silling 1.0000000
well fawning 0.5000000
pay fawning 0.5000000
for belong 0.1666667
are belong 0.1666667
benefit belong 0.1666667
my belong 0.1666667
all belong 0.1666667
were belong 0.1666667
habits long-engrafted 0.5000000
deep-rooted long-engrafted 0.5000000
it character 0.1111111
handwriting character 0.2222222
looks character 0.2222222
mine character 0.1111111
and character 0.1111111
rules character 0.1111111
manners character 0.1111111
complain behaved 0.1666667
to behaved 0.1666667
done behaved 0.1666667
ever behaved 0.1666667
anything behaved 0.1666667
has behaved 0.1666667
month sojourn 0.3333333
stay sojourn 0.6666667
wrecked miscarried 0.2500000
NULL miscarried 0.2500000
been miscarried 0.2500000
rich miscarried 0.2500000
the enter 0.0714286
a enter 0.0238095
NULL enter 0.0952381
come enter 0.0476190
into enter 0.0476190
conspirators enter 0.0238095
is enter 0.0238095
factor enter 0.0238095
in enter 0.1428571
inside enter 0.0714286
house enter 0.0238095
entrance enter 0.0238095
go enter 0.1666667
enter enter 0.1190476
there enter 0.0238095
please enter 0.0238095
be enter 0.0238095
hide enter 0.0238095
foreign foreign 0.1666667
or foreign 0.1666667
invasion foreign 0.1666667
abroad foreign 0.1666667
her foreign 0.3333333
they willfully 1.0000000
close closely 0.2500000
distance closely 0.2500000
a closely 0.2500000
fluellen closely 0.2500000
at devising 1.0000000
goodnight pembroke 0.5000000
pembroke pembroke 0.5000000
liars age 0.0188679
declining age 0.0188679
tyranny age 0.0188679
NULL age 0.1698113
age age 0.3584906
old age 0.2641509
losses age 0.0188679
brags age 0.0188679
senile age 0.0188679
long age 0.0188679
prime age 0.0188679
new age 0.0188679
and age 0.0188679
era age 0.0188679
bleeding bleeding 0.2500000
NULL bleeding 0.5000000
really bleeding 0.2500000
a plain 0.0277778
NULL plain 0.1111111
you plain 0.0555556
clearly plain 0.0555556
that plain 0.0277778
put plain 0.0277778
on plain 0.0277778
plainly plain 0.0277778
plain plain 0.1944444
got plain 0.0277778
his plain 0.0277778
quite plain 0.0277778
ordinary plain 0.0277778
simpleminded plain 0.0277778
pure plain 0.0277778
it plain 0.0277778
thistle plain 0.0277778
clash plain 0.0277778
honest plain 0.0277778
s plain 0.0555556
as plain 0.0277778
side plain 0.0277778
straightforward plain 0.0277778
truth plain 0.0277778
create lions 0.1250000
lions lions 0.7500000
nearby lions 0.1250000
ptolemies pyramises 0.5000000
the pyramises 0.5000000
course cure 0.0588235
cured cure 0.0588235
NULL cure 0.2352941
ceremony cure 0.0588235
can cure 0.0588235
if cure 0.0588235
see cure 0.0588235
straight cure 0.0588235
cure cure 0.1764706
think cure 0.0588235
experienced cure 0.0588235
sir cure 0.0588235
NULL loving 0.0588235
you loving 0.0588235
me loving 0.0588235
mother loving 0.0588235
marrying loving 0.0588235
without loving 0.0588235
lord loving 0.0588235
loving loving 0.4705882
invigorating loving 0.0588235
start loving 0.0588235
yes informèd 0.5000000
thoroughly informèd 0.5000000
standing up-staring 0.2500000
straight up-staring 0.2500000
his up-staring 0.2500000
up up-staring 0.2500000
the higher 0.2000000
luck higher 0.1000000
little higher 0.1000000
a higher 0.2000000
better higher 0.1000000
higher higher 0.3000000
plans complots 1.0000000
lot rouse 0.0909091
a rouse 0.0909091
NULL rouse 0.0909091
round rouse 0.0909091
up rouse 0.0909091
to rouse 0.1818182
wake rouse 0.0909091
revive rouse 0.0909091
sing rouse 0.0909091
drink rouse 0.0909091
tenants tenants 1.0000000
proceeding impugn 0.3333333
stop impugn 0.3333333
from impugn 0.3333333
dulls thickens 1.0000000
opponent adversary 0.2000000
enemy adversary 0.2000000
ruthless adversary 0.2000000
why adversary 0.2000000
that adversary 0.2000000
NULL tradesman 1.0000000
did sawst 0.5000000
see sawst 0.5000000
the wreath 0.2500000
NULL wreath 0.2500000
place wreath 0.2500000
wreath wreath 0.2500000
affection late 0.0200000
NULL late 0.1400000
time late 0.0200000
up late 0.0400000
late late 0.2600000
is late 0.0200000
like late 0.0200000
got late 0.0200000
scholarship late 0.0200000
commissioners late 0.0200000
request late 0.0200000
sight late 0.0200000
recently late 0.1800000
change late 0.0200000
it late 0.0200000
getting late 0.0200000
just late 0.0200000
now late 0.0200000
recent late 0.0400000
road late 0.0200000
more late 0.0200000
hard late 0.0200000
mugs bottles 1.0000000
turks turk 0.1250000
villain turk 0.1250000
harem turk 0.1250000
heading turk 0.1250000
his turk 0.1250000
muslim turk 0.1250000
are turk 0.1250000
turk turk 0.1250000
presented matching 1.0000000
curly crispèd 1.0000000
feet foot 0.1212121
declining foot 0.0303030
undertaken foot 0.0303030
NULL foot 0.1515152
army foot 0.0303030
bottom foot 0.0303030
approaching foot 0.0303030
foot foot 0.3636364
” foot 0.0606061
kicked foot 0.0303030
toe foot 0.0606061
sir foot 0.0303030
horsemen foot 0.0303030
favor christian 0.0344828
you christian 0.0344828
NULL christian 0.1379310
resort christian 0.0344828
sure christian 0.0344828
footman christian 0.0344828
marrying christian 0.0344828
average christian 0.0344828
will christian 0.0344828
christian christian 0.5517241
some christian 0.0344828
sky comets 0.2500000
the comets 0.2500000
in comets 0.2500000
comets comets 0.2500000
shaggy-haired shag-haired 1.0000000
bothering offends 0.5000000
s offends 0.5000000
unfit unapt 0.5000000
for unapt 0.5000000
womb derogate 1.0000000
lantern lanthorn 1.0000000
given conquered 0.2500000
it conquered 0.2500000
dominated conquered 0.2500000
conquered conquered 0.2500000
ptolemy habiliments 1.0000000
minute alighted 0.5000000
any alighted 0.5000000
NULL charter 0.3333333
charter charter 0.3333333
blast charter 0.3333333
bluntness bluntness 0.3333333
his bluntness 0.3333333
honest bluntness 0.3333333
of kickshawses 0.3333333
things kickshawses 0.3333333
kinds kickshawses 0.3333333
beg thunder-bearer 0.5000000
gods thunder-bearer 0.5000000
plates trenchers 0.3333333
— trenchers 0.3333333
back trenchers 0.3333333
decided syracusians 1.0000000
NULL flaw 0.5000000
defeat flaw 0.5000000
stabbed mangled 0.3333333
might mangled 0.3333333
have mangled 0.3333333
inconsistent disproportioned 0.3333333
ugly disproportioned 0.3333333
’ disproportioned 0.3333333
windpipe knife 0.0909091
knife knife 0.4545455
knives knife 0.0909091
NULL knife 0.1818182
sharpening knife 0.0909091
that knife 0.0909091
out scarce 0.0555556
NULL scarce 0.1111111
of scarce 0.0555556
he scarce 0.0555556
has scarce 0.1111111
breastfeeding scarce 0.0555556
disappears scarce 0.0555556
hide scarce 0.0555556
get scarce 0.0555556
hardly scarce 0.1666667
filthy scarce 0.0555556
reminded scarce 0.0555556
control scarce 0.0555556
t scarce 0.0555556
here husband 0.0106383
you husband 0.0106383
NULL husband 0.0531915
my husband 0.0106383
dear husband 0.0106383
will husband 0.0106383
him husband 0.0106383
husband husband 0.7978723
subsequent husband 0.0106383
looking husband 0.0106383
married husband 0.0106383
right husband 0.0106383
hundred husband 0.0106383
be husband 0.0106383
because husband 0.0106383
claudio husband 0.0106383
protects weather-fends 0.5000000
trees weather-fends 0.5000000
men dotes 1.0000000
gentile hagar 1.0000000
blanch blanch 1.0000000
his greets 0.2500000
sends greets 0.2500000
greetings greets 0.2500000
diamond greets 0.2500000
so hasty 0.1250000
a hasty 0.1250000
, hasty 0.1250000
in hasty 0.1250000
impatient hasty 0.1250000
hurry hasty 0.1250000
hastily hasty 0.1250000
quick hasty 0.1250000
a sheet 0.3333333
story sheet 0.3333333
hero sheet 0.3333333
obnoxious unprofited 1.0000000
fiancé new-trothèd 0.5000000
say new-trothèd 0.5000000
ring turquoise 0.5000000
turquoise turquoise 0.5000000
daggers poniards 1.0000000
condemning sweetness 0.5000000
decree sweetness 0.5000000
wins gets 0.3333333
loses gets 0.3333333
supporters gets 0.3333333
groaning groan 0.1428571
men groan 0.1428571
NULL groan 0.1428571
groans groan 0.1428571
are groan 0.1428571
groan groan 0.2857143
yes right 0.0114943
rights right 0.0114943
yourself right 0.0114943
exactly right 0.0114943
my right 0.0229885
wrong right 0.0114943
got right 0.0114943
fine right 0.0114943
right-hand right 0.0114943
avenged right 0.0114943
sane right 0.0114943
fighting right 0.0114943
very right 0.0114943
ll right 0.0114943
enough right 0.0114943
crown right 0.0114943
re right 0.0114943
vincentio right 0.0114943
forceful right 0.0114943
feel right 0.0114943
NULL right 0.2298851
dairy right 0.0114943
true right 0.0229885
meaning right 0.0114943
prevented right 0.0114943
rejoice right 0.0114943
to right 0.0229885
good right 0.0229885
absolutely right 0.0114943
justifiably right 0.0114943
denmark right 0.0114943
jephthah right 0.0114943
it right 0.0344828
ladylike right 0.0114943
go right 0.0114943
directly right 0.0114943
right right 0.1839080
just right 0.0114943
as right 0.0229885
point right 0.0114943
belongs right 0.0114943
then right 0.0114943
formations right 0.0114943
giving right 0.0114943
thing right 0.0114943
truth right 0.0114943
looking construction 0.1428571
his construction 0.1428571
at construction 0.1428571
reaction construction 0.1428571
mind construction 0.1428571
never construction 0.1428571
by construction 0.1428571
practical necessary 0.1250000
avoided necessary 0.1250000
enough necessary 0.1250000
important necessary 0.1250000
required necessary 0.1250000
be necessary 0.1250000
presence necessary 0.1250000
t necessary 0.1250000
stop fret 0.0909091
— fret 0.0909091
my fret 0.0909091
go fret 0.0909091
worrying fret 0.0909091
ahead fret 0.0909091
push fret 0.0909091
ankle-deep fret 0.0909091
tire fret 0.0909091
rage fret 0.0909091
buttons fret 0.0909091
prove testify 0.5000000
it testify 0.5000000
our monsieur 0.0454545
mister monsieur 0.0909091
army monsieur 0.0454545
monsieur monsieur 0.5909091
sir monsieur 0.0909091
mr. monsieur 0.1363636
the beaver 0.1111111
candlesticks beaver 0.1111111
better beaver 0.1111111
of beaver 0.1111111
helmet beaver 0.2222222
working beaver 0.1111111
visor beaver 0.2222222
here ho 0.0136986
oswald ho 0.0136986
NULL ho 0.1095890
come ho 0.0410959
ha ho 0.0410959
hey ho 0.0821918
room ho 0.0136986
fool ho 0.0136986
ho ho 0.0684932
someone ho 0.0136986
matter ho 0.0136986
musicians ho 0.0136986
in ho 0.0136986
music ho 0.0136986
help ho 0.0958904
drink ho 0.0136986
out ho 0.0136986
quiet ho 0.0273973
queen ho 0.0136986
stop ho 0.0273973
cesario ho 0.0136986
candles ho 0.0136986
there ho 0.0684932
wine ho 0.0136986
thrashing ho 0.0136986
now ho 0.0136986
hello ho 0.0410959
wait ho 0.0136986
cato ho 0.0273973
halt ho 0.0410959
firebrands ho 0.0136986
quickly ho 0.0136986
oh-ho-ho ho 0.0547945
wager hawk 0.5000000
NULL hawk 0.5000000
someone pot 0.1666667
bring pot 0.1666667
would pot 0.1666667
me pot 0.1666667
mug pot 0.3333333
problem tail 0.1428571
inevitable tail 0.1428571
tail tail 0.7142857
NULL extent 0.6666667
seize extent 0.3333333
heirs heirs 0.2500000
NULL heirs 0.5000000
children heirs 0.2500000
marriage ours 0.0833333
women ours 0.0833333
wholeheartedly ours 0.0833333
ours ours 0.1666667
NULL ours 0.0833333
them ours 0.0833333
joined ours 0.0833333
deserts ours 0.0833333
rude ours 0.0833333
us ours 0.0833333
fears ours 0.0833333
veins enterprises 1.0000000
depressed sick 0.0217391
me sick 0.0217391
felt sick 0.0217391
playing sick 0.0217391
m sick 0.0217391
suffer sick 0.0217391
ill sick 0.0217391
tired sick 0.0217391
better sick 0.0217391
get sick 0.0217391
sick sick 0.6739130
damaging sick 0.0217391
love sick 0.0217391
with sick 0.0434783
i sick 0.0217391
passes four 0.0322581
for four 0.0322581
twenty-eight four 0.0322581
head-bashing four 0.0322581
four four 0.8709677
exeter exeter 1.0000000
money misbeliever 1.0000000
feet verse 0.0909091
NULL verse 0.0909091
a verse 0.0909091
: verse 0.0909091
lines verse 0.0909091
wrote verse 0.0909091
can verse 0.0909091
problem verse 0.0909091
bear verse 0.0909091
verse verse 0.0909091
poetry verse 0.0909091
the fire 0.0447761
fired fire 0.0149254
cold fire 0.0149254
a fire 0.0447761
NULL fire 0.1194030
up fire 0.0149254
fire fire 0.4925373
red fire 0.0149254
blank fire 0.0149254
lightning fire 0.0149254
salute fire 0.0149254
set fire 0.0298507
campfire fire 0.0149254
fade fire 0.0149254
excite fire 0.0149254
protest fire 0.0149254
warmth fire 0.0149254
scary fire 0.0149254
fires fire 0.0149254
sun fire 0.0149254
damn fire 0.0149254
start fire 0.0298507
someone corrupting 0.2000000
rotting corrupting 0.2000000
for corrupting 0.2000000
would corrupting 0.2000000
kill corrupting 0.2000000
filling fills 1.0000000
NULL honors 0.3636364
could honors 0.0909091
get honors 0.0909091
honors honors 0.0909091
gives honors 0.0909091
matched honors 0.0909091
honor honors 0.0909091
an honors 0.0909091
NULL attend 0.0465116
a attend 0.0232558
meet attend 0.0232558
soul attend 0.0232558
war attend 0.0232558
wishes attend 0.0232558
on attend 0.0232558
waiting attend 0.1162791
attend attend 0.0697674
t attend 0.0232558
paying attend 0.0232558
attention attend 0.0232558
ll attend 0.0232558
for attend 0.0930233
re attend 0.0232558
m attend 0.0697674
fairy attend 0.0232558
go attend 0.0465116
join attend 0.0232558
while attend 0.0232558
wait attend 0.0930233
coming attend 0.0465116
escort attend 0.0232558
accompany attend 0.0232558
with attend 0.0232558
leave attend 0.0232558
infidelity infamy 0.3333333
beauty infamy 0.3333333
dishonor infamy 0.3333333
reynaldo reynaldo 1.0000000
way whirling 0.2000000
talking whirling 0.2000000
a whirling 0.2000000
crazy whirling 0.2000000
such whirling 0.2000000
heroic heroical 1.0000000
put allay 0.1250000
all allay 0.1250000
end allay 0.1250000
powers allay 0.1250000
reverses allay 0.1250000
please allay 0.1250000
act allay 0.1250000
an allay 0.1250000
we dardanian 1.0000000
visions fancies 0.3333333
NULL fancies 0.3333333
whims fancies 0.3333333
be conceals 0.2500000
will conceals 0.2500000
rewarded conceals 0.2500000
justice conceals 0.2500000
to knolled 0.3333333
it knolled 0.3333333
summoned knolled 0.3333333
victims meat 0.0476190
robbed meat 0.0476190
thinker meat 0.0476190
it meat 0.0476190
NULL meat 0.1428571
yolk meat 0.0476190
warms meat 0.0476190
is meat 0.0476190
food meat 0.3333333
meat meat 0.1428571
silverware meat 0.0476190
against graceful 0.5000000
graceful graceful 0.5000000
on affected 0.1428571
had affected 0.1428571
make affected 0.1428571
they affected 0.1428571
him affected 0.1428571
preferred affected 0.1428571
influence affected 0.1428571
makes hearers 1.0000000
was untreasured 0.5000000
empty untreasured 0.5000000
windpipe weasand 1.0000000
way experience 0.0909091
NULL experience 0.0909091
of experience 0.0909091
experience experience 0.2727273
true experience 0.0909091
found experience 0.0909091
be experience 0.0909091
in experience 0.0909091
terrible experience 0.0909091
bizarre witnesseth 0.3333333
story witnesseth 0.3333333
is witnesseth 0.3333333
madness ungoverned 0.3333333
NULL ungoverned 0.3333333
puts ungoverned 0.3333333
apologize apology 0.3333333
to apology 0.3333333
need apology 0.3333333
lying feign 0.5000000
artificial feign 0.5000000
who escapes 0.3333333
away escapes 0.3333333
gets escapes 0.3333333
antics unsightly 0.5000000
ugly unsightly 0.5000000
order sores 0.5000000
in sores 0.5000000
NULL blast 0.5000000
s blast 0.5000000
here wine 0.0322581
it wine 0.0322581
NULL wine 0.0645161
wine wine 0.7096774
bring wine 0.0322581
in wine 0.0322581
get wine 0.0322581
more wine 0.0322581
hell wine 0.0322581
the imperious 0.2500000
NULL imperious 0.2500000
emperor imperious 0.2500000
great imperious 0.2500000
only purchased 0.3333333
earned purchased 0.3333333
own purchased 0.3333333
luck luck 0.8750000
hissed luck 0.1250000
the handkerchief 0.1153846
handkerchief handkerchief 0.8076923
him handkerchief 0.0384615
holding handkerchief 0.0384615
aging witnesses 0.2500000
witnesses witnesses 0.5000000
your witnesses 0.2500000
m foiled 1.0000000
gently mercifully 1.0000000
said desired 0.1000000
NULL desired 0.1000000
liked desired 0.1000000
desired desired 0.1000000
wished desired 0.1000000
begs desired 0.1000000
to desired 0.1000000
heard desired 0.1000000
have desired 0.1000000
wanted desired 0.1000000
accepting replying 0.5000000
m replying 0.5000000
so imperial 0.1000000
right imperial 0.1000000
royal imperial 0.2000000
imperial imperial 0.4000000
authority imperial 0.1000000
with imperial 0.1000000
repeat affirm 1.0000000
on hair 0.0714286
hairstyle hair 0.0357143
slightest hair 0.0357143
his hair 0.0357143
stone hair 0.0357143
hair hair 0.7857143
earliest strive 0.2000000
fight strive 0.2000000
struggle strive 0.2000000
me strive 0.2000000
with strive 0.2000000
when reared 0.2000000
arm reared 0.2000000
he reared 0.2000000
his reared 0.2000000
raised reared 0.2000000
career alms 0.3333333
deed alms 0.3333333
charitable alms 0.3333333
NULL nuncle 0.0909091
uncle nuncle 0.9090909
quiet tie 0.2000000
libertine tie 0.2000000
lover tie 0.2000000
NULL tie 0.4000000
men melted 0.1428571
NULL melted 0.1428571
has melted 0.1428571
conversing melted 0.1428571
turned melted 0.1428571
all melted 0.1428571
this melted 0.1428571
winged mercury 0.2500000
strong-winged mercury 0.2500000
messenger mercury 0.2500000
highly mercury 0.2500000
NULL sweet-faced 0.5000000
good-looking sweet-faced 0.5000000
thriving thriving 0.2500000
wooer thriving 0.2500000
, thriving 0.5000000
advisor councilor 0.2500000
king councilor 0.2500000
s councilor 0.2500000
’ councilor 0.2500000
side jowl 1.0000000
making mak 0.2500000
NULL mak 0.5000000
are mak 0.2500000
here firebrands 0.3333333
over firebrands 0.3333333
firebrands firebrands 0.3333333
spot mint 1.0000000
pet amble 0.3333333
names amble 0.3333333
lisp amble 0.3333333
that foremost 1.0000000
lust intemperance 0.5000000
greed intemperance 0.5000000
phoebe phoebe 0.9285714
NULL phoebe 0.0714286
so sicklemen 0.2000000
who sicklemen 0.2000000
tired sicklemen 0.2000000
are sicklemen 0.2000000
fieldworkers sicklemen 0.2000000
challenged undergoes 1.0000000
it slish 0.3333333
— slish 0.3333333
slash slish 0.3333333
couple dear-belovèd 1.0000000
interpretation expounded 0.2500000
offered expounded 0.2500000
excellent expounded 0.2500000
an expounded 0.2500000
happens chances 0.3333333
are chances 0.3333333
find chances 0.3333333
sunny wary 0.5000000
careful wary 0.5000000
throw fling 0.2500000
make fling 0.2500000
up fling 0.2500000
and fling 0.2500000
ll fare-well 0.2000000
fine fare-well 0.2000000
be fare-well 0.2000000
that fare-well 0.2000000
’ fare-well 0.2000000
ship rudder 1.0000000
made unlace 0.3333333
world unlace 0.3333333
risk unlace 0.3333333
follow haunt 0.2000000
around haunt 0.2000000
NULL haunt 0.2000000
hang haunt 0.2000000
mate haunt 0.2000000
the tuned 0.1428571
order tuned 0.1428571
in tuned 0.1428571
lessons tuned 0.1428571
my tuned 0.1428571
manner tuned 0.1428571
and tuned 0.1428571
NULL halter 0.0909091
rope halter 0.0909091
worth halter 0.0909091
them halter 0.0909091
bind halter 0.0909091
is halter 0.0909091
to halter 0.1818182
himself halter 0.0909091
noose halter 0.0909091
hang halter 0.0909091
woman guiltless 0.1666667
dying guiltless 0.1666667
innocent guiltless 0.3333333
’ guiltless 0.1666667
an guiltless 0.1666667
shoot shoot 0.2500000
to shoot 0.2500000
them shoot 0.1250000
again shoot 0.1250000
never shoot 0.1250000
punish shoot 0.1250000
leading leading 0.1666667
anymore leading 0.1666667
a leading 0.1666667
guide leading 0.1666667
need leading 0.1666667
horsemen leading 0.1666667
enough extenuate 0.2500000
that extenuate 0.2500000
about extenuate 0.2500000
but extenuate 0.2500000
wedding hymen 0.5000000
hymen hymen 0.5000000
completely abused 0.0434783
a abused 0.0434783
NULL abused 0.1304348
which abused 0.0434783
astray abused 0.0434783
is abused 0.0434783
mistreated abused 0.0434783
tricked abused 0.1739130
disadvantage abused 0.0434783
blind abused 0.0434783
horribly abused 0.0869565
by abused 0.0434783
one abused 0.0434783
brutal abused 0.0434783
again abused 0.0434783
deceived abused 0.0434783
treated abused 0.0434783
the draught 1.0000000
butchery ruthless 1.0000000
so virtuous 0.0384615
make virtuous 0.0384615
NULL virtuous 0.0769231
strong virtuous 0.0384615
definitely virtuous 0.0384615
good virtuous 0.0769231
man virtuous 0.0384615
better virtuous 0.0384615
virtuous virtuous 0.4230769
desdemona virtuous 0.0769231
and virtuous 0.0769231
her virtuous 0.0384615
NULL knit 0.3333333
are knit 0.0833333
joined knit 0.0833333
our knit 0.0833333
be knit 0.0833333
united knit 0.0833333
goodwill knit 0.0833333
always knit 0.0833333
hearts knit 0.0833333
these springes 1.0000000
NULL advance 0.4285714
get advance 0.1428571
trickier advance 0.2857143
and advance 0.1428571
shifts ere 0.0138889
guess ere 0.0138889
NULL ere 0.1527778
pay ere 0.0138889
clear ere 0.0138889
in ere 0.0138889
convince ere 0.0138889
before ere 0.7361111
o ere 0.0138889
hard ere 0.0138889
property corruptly 1.0000000
one amity 0.1250000
under amity 0.1250000
NULL amity 0.3750000
along amity 0.1250000
get amity 0.1250000
roof amity 0.1250000
first temple 0.2000000
church temple 0.2000000
NULL temple 0.2000000
temple temple 0.4000000
for well-foughten 1.0000000
foxes foxes 1.0000000
someone ev 0.1666667
yes ev 0.1666667
NULL ev 0.1666667
in ev 0.1666667
else ev 0.1666667
condition ev 0.1666667
grant voutsafe 1.0000000
NULL studies 0.3333333
occult studies 0.3333333
books studies 0.3333333
NULL blemish 0.2500000
and blemish 0.2500000
spoil blemish 0.2500000
deserve blemish 0.2500000
yes flourish 0.2000000
NULL flourish 0.2000000
am flourish 0.2000000
, flourish 0.2000000
i flourish 0.2000000
tell contradict 0.5000000
us contradict 0.5000000
cliff cliff 0.6666667
before cliff 0.3333333
smiled infusèd 1.0000000
so harsh 0.0909091
story harsh 0.0909091
cruel harsh 0.0909091
harsh harsh 0.0909091
— harsh 0.0909091
not harsh 0.0909091
tough harsh 0.0909091
wrong harsh 0.0909091
weathered harsh 0.0909091
tell harsh 0.0909091
long harsh 0.0909091
nobility ennoble 1.0000000
the player 0.1666667
of player 0.1666667
playing player 0.1666667
well-written player 0.1666667
actors player 0.3333333
coin expenses 0.5000000
a expenses 0.5000000
out action 0.0434783
battle action 0.0869565
undertaken action 0.0434783
NULL action 0.3913043
definitely action 0.0434783
fought action 0.0434783
shameful action 0.0434783
drunkards action 0.0434783
laughing action 0.0434783
assault action 0.0434783
talk action 0.0434783
just action 0.0434783
ability action 0.0434783
act action 0.0434783
morning dawning 0.5000000
dawn dawning 0.5000000
the shine 0.1000000
shine shine 0.0500000
NULL shine 0.1000000
come shine 0.0500000
others shine 0.0500000
my shine 0.0500000
, shine 0.1000000
on shine 0.0500000
won shine 0.0500000
disposition shine 0.0500000
so shine 0.0500000
affects shine 0.0500000
lord shine 0.0500000
shining shine 0.0500000
decided shine 0.0500000
sun shine 0.0500000
be shine 0.0500000
third snaffle 0.5000000
rule snaffle 0.5000000
reluctant loath 0.1875000
hated loath 0.0625000
NULL loath 0.0625000
avoid loath 0.0625000
hate loath 0.2500000
d loath 0.0625000
using loath 0.0625000
like loath 0.0625000
rather loath 0.0625000
feel loath 0.0625000
t loath 0.0625000
as brightly 0.5000000
brightly brightly 0.5000000
NULL shepherdess 0.3333333
he shepherdess 0.3333333
shepherdess shepherdess 0.3333333
NULL dowered 1.0000000
way recoil 0.2500000
NULL recoil 0.2500000
give recoil 0.2500000
nature recoil 0.2500000
doing charles 0.1250000
lord charles 0.1250000
charles charles 0.7500000
ireland ireland 0.2857143
NULL ireland 0.1428571
ll ireland 0.1428571
go ireland 0.1428571
’ ireland 0.1428571
yokel ireland 0.1428571
a nativity 0.1250000
NULL nativity 0.1250000
have nativity 0.1250000
will nativity 0.1250000
celebration nativity 0.1250000
such nativity 0.1250000
we nativity 0.1250000
descending nativity 0.1250000
reward lacks 0.0909091
well lacks 0.0909091
NULL lacks 0.0909091
little lacks 0.0909091
a lacks 0.1818182
he lacks 0.0909091
, lacks 0.2727273
before lacks 0.0909091
the slave 0.0227273
low-life slave 0.0227273
you slave 0.0681818
NULL slave 0.0909091
caliban slave 0.0227273
villain slave 0.0227273
jerk slave 0.0454545
belong slave 0.0227273
slave slave 0.4318182
bastard slave 0.0454545
overdressed slave 0.0227273
servant slave 0.0454545
peasant slave 0.0227273
lowlife slave 0.0227273
iago slave 0.0227273
inn slave 0.0227273
scoundrel slave 0.0227273
debts slave 0.0227273
serve dresser 1.0000000
stubbornest stubbornest 1.0000000
menas menas 0.8750000
NULL menas 0.1250000
NULL bare 0.1333333
bare bare 0.0666667
would bare 0.0666667
naked bare 0.0666667
dukedom bare 0.0666667
up bare 0.0666667
carried bare 0.0666667
being bare 0.0666667
ended bare 0.0666667
now bare 0.0666667
then bare 0.0666667
be bare 0.0666667
humble bare 0.0666667
great bare 0.0666667
so lawfully 1.0000000
yes lord 0.0054054
my lord 0.0027027
taken lord 0.0013514
day lord 0.0013514
sir lord 0.0702703
fiancé lord 0.0013514
fail lord 0.0013514
god lord 0.0054054
subject lord 0.0013514
hastings lord 0.0040541
lord lord 0.7135135
related lord 0.0013514
one lord 0.0013514
too lord 0.0013514
fault lord 0.0013514
friend lord 0.0013514
edward lord 0.0013514
son-of-a-bitch lord 0.0013514
relax lord 0.0013514
will lord 0.0013514
husband lord 0.0202703
socially lord 0.0013514
bassanio lord 0.0040541
her lord 0.0013514
forgiven lord 0.0013514
master lord 0.0040541
gloucester lord 0.0013514
talk lord 0.0013514
othello lord 0.0040541
things lord 0.0013514
excuse lord 0.0040541
marquess lord 0.0013514
swear lord 0.0027027
titles lord 0.0013514
confirmed lord 0.0013514
dream lord 0.0013514
in lord 0.0013514
refuse lord 0.0013514
cured lord 0.0013514
castle lord 0.0013514
me lord 0.0054054
hamlet lord 0.0040541
father lord 0.0027027
lady lord 0.0013514
dared lord 0.0013514
NULL lord 0.0810811
clarence lord 0.0013514
priests lord 0.0013514
engaged lord 0.0013514
faithful lord 0.0013514
run lord 0.0013514
thinking lord 0.0013514
am lord 0.0013514
king lord 0.0013514
say lord 0.0013514
inside lord 0.0013514
owner lord 0.0013514
features lord 0.0013514
gentleman lord 0.0013514
mean lord 0.0013514
proof lord 0.0013514
domitius lord 0.0013514
was lord 0.0013514
please lord 0.0013514
corinth lord 0.0013514
miss wanting 0.3333333
doesn wanting 0.3333333
since wanting 0.3333333
NULL surprised 0.3333333
ease surprised 0.3333333
at surprised 0.3333333
outstay outstay 0.3333333
days outstay 0.3333333
ten outstay 0.3333333
he challenger 0.2500000
challenger challenger 0.5000000
because challenger 0.2500000
vanity vainness 1.0000000
to bide 0.1428571
listening bide 0.1428571
NULL bide 0.1428571
enough bide 0.1428571
up bide 0.1428571
put bide 0.1428571
with bide 0.1428571
NULL advocate 0.5000000
happy advocate 0.5000000
fear fearfulness 0.3333333
of fearfulness 0.3333333
obedience fearfulness 0.3333333
actions act 0.0416667
NULL act 0.1666667
for act 0.0416667
sex act 0.0416667
on act 0.0833333
obedient act 0.0416667
to act 0.0833333
innocent act 0.0416667
rebellion act 0.0416667
and act 0.0833333
invigorating act 0.0416667
act act 0.2500000
dreaded act 0.0416667
goblets stoups 1.0000000
first stolen 0.0833333
stolen stolen 0.0833333
what stolen 0.0833333
ll stolen 0.0833333
found stolen 0.0833333
we stolen 0.0833333
there stolen 0.0833333
adorable stolen 0.0833333
him stolen 0.0833333
snuck stolen 0.0833333
get stolen 0.0833333
stole stolen 0.0833333
toss throw 0.0370370
throw throw 0.3703704
NULL throw 0.1481481
even throw 0.0740741
admire throw 0.0370370
shield throw 0.0370370
put throw 0.0370370
chase throw 0.0370370
costly throw 0.0370370
entrails throw 0.0370370
now throw 0.0370370
medicine throw 0.0370370
and throw 0.0740741
owner parings 0.2500000
piece parings 0.2500000
one parings 0.2500000
of parings 0.2500000
ruin athwart 0.5000000
can athwart 0.5000000
all liveries 0.5000000
give liveries 0.5000000
instead exact 1.0000000
university college 0.3333333
whole college 0.3333333
full college 0.3333333
energy unbated 0.3333333
sharp unbated 0.3333333
same unbated 0.3333333
belmont misconst 1.0000000
so cheek 0.0666667
cheeks cheek 0.1333333
NULL cheek 0.1333333
courage cheek 0.0666667
using cheek 0.0666667
pale cheek 0.1333333
cheek cheek 0.0666667
face cheek 0.1333333
assistant cheek 0.0666667
turn cheek 0.0666667
side cheek 0.0666667
it provide 0.0909091
of provide 0.0909091
for provide 0.0909091
money provide 0.0909091
cauldrons provide 0.0909091
supplies provide 0.0909091
care provide 0.0909091
to provide 0.0909091
order provide 0.0909091
prepare provide 0.0909091
leave provide 0.0909091
it watching 1.0000000
wither sliver 1.0000000
killed divorced 0.5000000
s divorced 0.5000000
man neighbor 0.0625000
NULL neighbor 0.0625000
neighbor neighbor 0.5625000
neighbors neighbor 0.1250000
exactly neighbor 0.0625000
are neighbor 0.0625000
sir neighbor 0.0625000
when lacking 0.3333333
do lacking 0.3333333
( lacking 0.3333333
shelter shelter 1.0000000
NULL wheels 0.5000000
wheels wheels 0.5000000
tramps minions 0.3333333
other minions 0.3333333
all minions 0.3333333
tried awork 1.0000000
wishing hasty-footed 1.0000000
eat marketplace 0.1000000
marketplace marketplace 0.6000000
it marketplace 0.1000000
public marketplace 0.1000000
and marketplace 0.1000000
to beckons 0.1428571
for beckons 0.1428571
gesturing beckons 0.1428571
closer beckons 0.1428571
come beckons 0.1428571
is beckons 0.1428571
wants beckons 0.1428571
until quail 0.2500000
conquer quail 0.2500000
you quail 0.2500000
interrogating quail 0.2500000
dinner gorge 1.0000000
cherries molded 0.5000000
modeled molded 0.5000000
they sisters 0.0454545
way sisters 0.0454545
NULL sisters 0.0909091
re sisters 0.0454545
, sisters 0.0454545
married sisters 0.0454545
sisters sisters 0.3636364
loving sisters 0.0454545
their sisters 0.0454545
say sisters 0.0454545
fate sisters 0.0454545
witches sisters 0.0909091
“ sisters 0.0454545
stand thrown 0.1250000
hurled thrown 0.1250000
to thrown 0.1250000
was thrown 0.1250000
thrust thrown 0.1250000
tossed thrown 0.1250000
into thrown 0.1250000
thrown thrown 0.1250000
a betting 0.5000000
bet betting 0.5000000
husband hornmaker 0.2000000
give hornmaker 0.2000000
horns hornmaker 0.2000000
her hornmaker 0.2000000
t hornmaker 0.2000000
going downright 0.0833333
that downright 0.1666667
up downright 0.0833333
fell downright 0.0833333
out-and-out downright 0.0833333
have downright 0.0833333
down downright 0.0833333
mind downright 0.0833333
and downright 0.0833333
brawl downright 0.0833333
an downright 0.0833333
advantage sauciness 0.3333333
try sauciness 0.3333333
take sauciness 0.3333333
the withered 0.0833333
faded withered 0.0833333
wrinkled withered 0.0833333
coot withered 0.0833333
same withered 0.0833333
all withered 0.0833333
old withered 0.1666667
withered withered 0.3333333
just humours 1.0000000
achievements achievements 1.0000000
trust misdoubt 0.5000000
t misdoubt 0.5000000
to importunity 0.2000000
him importunity 0.2000000
giving importunity 0.2000000
greedy importunity 0.2000000
hands importunity 0.2000000
one dishonesty 0.3333333
abandoned dishonesty 0.3333333
suspect dishonesty 0.3333333
understanding understanding 0.1250000
unlike understanding 0.1250000
talking understanding 0.1250000
m understanding 0.1250000
about understanding 0.2500000
’ understanding 0.1250000
i understanding 0.1250000
stunned astonished 1.0000000
untied untied 1.0000000
