8 ||| mark ||| 1
8ed ||| marked ||| 1
8s ||| marks ||| 1
9 ||| mark ||| 1
9ed ||| marked ||| 1
9s ||| marks ||| 1
a-bed ||| zenith ||| 0.0213551523564758
a-bed ||| yield ||| 0.903318020604469
a-bed ||| a-bed ||| 0.0753268270390557
a-beded ||| yielded ||| 1
a-beds ||| yields ||| 1
abandon ||| relinquish ||| 0.0102582520564714
abandon ||| renege ||| 0.0102582520564714
abandon ||| enfeoff ||| 0.0102582520564714
abandon ||| abandon ||| 0.0673792800086174
abandon ||| leave ||| 0.901845963821968
abandoned ||| masterless ||| 0.120891140663867
abandoned ||| forlorn ||| 0.717046756037053
abandoned ||| casted ||| 0.0810310516495399
abandoned ||| abandoned ||| 0.0810310516495399
abandonment ||| renouncement ||| 1
abandons ||| leaves ||| 0.964406307661932
abandons ||| reneges ||| 0.0355936923380678
abase ||| deject ||| 0.573589329723998
abase ||| abase ||| 0.426410670276002
abased ||| dejected ||| 1
abaseed ||| dejected ||| 1
abasement ||| lowness ||| 1
abashed ||| crest-fallen ||| 1
abate ||| slake ||| 0.0435053947814067
abate ||| allay ||| 0.35190635840084
abate ||| abate ||| 0.252681888416912
abate ||| bate ||| 0.35190635840084
abated ||| bated ||| 0.795627751555939
abated ||| abated ||| 0.204372248444061
abates ||| bates ||| 0.427247763519891
abates ||| abates ||| 0.286376118240054
abates ||| allays ||| 0.286376118240054
abbreviate ||| clip ||| 1
abdicate ||| surrender ||| 1
abducted ||| ravished ||| 1
abduction ||| rape ||| 1
abductions ||| rapes ||| 1
aberrant ||| unkind ||| 0.265853488604462
aberrant ||| unnatural ||| 0.292926298404896
aberrant ||| disnatured ||| 0.0178054667880608
aberrant ||| uncurrent ||| 0.0357329904769969
aberrant ||| monstrous ||| 0.387681755725584
abhor ||| abhor ||| 0.582059542594646
abhor ||| detest ||| 0.417940457405354
abhored ||| detested ||| 1
abhorrence ||| abhorring ||| 1
abhorrent ||| vile ||| 0.59832259436179
abhorrent ||| gross ||| 0.40167740563821
abhors ||| abhors ||| 0.649704334130345
abhors ||| detests ||| 0.350295665869655
abide ||| abide ||| 0.169290357030603
abide ||| stay ||| 0.72703651049306
abide ||| bide ||| 0.103673132476338
abideed ||| stayed ||| 1
abides ||| stays ||| 0.762895584126877
abides ||| bides ||| 0.1042334472283
abides ||| abides ||| 0.132870968644823
ability ||| virtue ||| 0.180411395365226
ability ||| fathom ||| 0.0184659631903198
ability ||| craft ||| 0.0305514597379767
ability ||| cunning ||| 0.11273271475252
ability ||| hand ||| 0.327853606573458
ability ||| power ||| 0.228753088039223
ability ||| possibility ||| 0.0047433368299567
ability ||| sufficiency ||| 0.00879761526312943
ability ||| ability ||| 0.020883051788981
ability ||| quality ||| 0.0668077684592099
abilityed ||| handed ||| 0.598701605201621
abilityed ||| crafted ||| 0.401298394798379
abilitys ||| virtues ||| 0.160254072392191
abilitys ||| powers ||| 0.241602305735363
abilitys ||| fathoms ||| 0.0178949329162623
abilitys ||| crafts ||| 0.0178949329162623
abilitys ||| hands ||| 0.55343685237578
abilitys ||| cunnings ||| 0.00891690366414197
abject ||| ragged ||| 0.267083708995862
abject ||| low-spirited ||| 0.0330189606472299
abject ||| abject ||| 0.191776062987745
abject ||| abated ||| 0.0492613601196134
abject ||| vassal ||| 0.317288549028907
abject ||| lackey ||| 0.141571358220642
abjectly ||| poorly ||| 0.734543429954753
abjectly ||| abjectly ||| 0.265456570045247
abjects ||| lackeys ||| 0.44161442688152
abjects ||| abjects ||| 0.2381015665059
abjects ||| vassals ||| 0.320284006612579
abjure ||| unswear ||| 0.426410670276002
abjure ||| abjure ||| 0.573589329723998
able ||| able ||| 0.602101827007279
able ||| sufficient ||| 0.397898172992721
abnormal ||| strange ||| 0.619248409663304
abnormal ||| prodigious ||| 0.042778238742728
abnormal ||| enormous ||| 0.00997725104397558
abnormal ||| unwonted ||| 0.0148851734593379
abnormal ||| unkind ||| 0.148970371195323
abnormal ||| unnatural ||| 0.164140555895331
abnormality ||| abortive ||| 1
abnormalitys ||| abortives ||| 1
abode ||| abode ||| 0.225701488953211
abode ||| seat ||| 0.774298511046789
abodeed ||| seated ||| 1
abodes ||| seats ||| 1
abolish ||| disannul ||| 0.101532771452982
abolish ||| undo ||| 0.898467228547018
abolishs ||| disannuls ||| 1
abominable ||| abhorred ||| 0.160788875997739
abominable ||| abhominable ||| 0.0276837551379962
abominable ||| dirty ||| 0.0976499441568744
abominable ||| abominable ||| 0.287067481564099
abominable ||| bawdy ||| 0.118696250236532
abominable ||| beastly ||| 0.30811369290676
abominate ||| abhor ||| 1
abominates ||| abhors ||| 1
abort ||| pall ||| 1
about ||| of ||| 0.767168177493122
about ||| about ||| 0.0382650759606069
about ||| abroad ||| 0.00752240271403466
about ||| by ||| 0.187044343832236
above ||| above ||| 0.889491020550199
above ||| aloft ||| 0.110508979449801
abreast ||| a-front ||| 0.332573400460713
abreast ||| abreast ||| 0.667426599539287
abridgement ||| epitome ||| 0.173191675139107
abridgement ||| abstract ||| 0.47923774150553
abridgement ||| abridgement ||| 0.347570583355363
abroad ||| out ||| 0.925106243875494
abroad ||| abroad ||| 0.0748937561245064
abscess ||| fistula ||| 0.0660407843589958
abscess ||| injury ||| 0.835432223963477
abscess ||| imposthume ||| 0.0985269916775272
absence ||| want ||| 0.597234180292482
absence ||| forbearance ||| 0.0594679071756509
absence ||| absence ||| 0.23872321509646
absence ||| missing ||| 0.0700123499433421
absence ||| default ||| 0.0206925329230354
absence ||| removedness ||| 0.0138698145690294
absenceed ||| wanted ||| 1
absences ||| wants ||| 1
absentee ||| truant ||| 0.867869936310299
absentee ||| micher ||| 0.132130063689701
absolute ||| mere ||| 0.096858616617668
absolute ||| direct ||| 0.0823152424991287
absolute ||| very ||| 0.398635766458457
absolute ||| absolute ||| 0.0677718376728857
absolute ||| undoubted ||| 0.00959781251139947
absolute ||| ample ||| 0.0386847916310542
absolute ||| strict ||| 0.0532282590648396
absolute ||| proper ||| 0.093222825516426
absolute ||| positive ||| 0.00959781251139947
absolute ||| received ||| 0.133217494678704
absolute ||| arrant ||| 0.0168695408380378
absoluteed ||| directed ||| 1
absolutely ||| simply ||| 0.159303130102873
absolutely ||| mere ||| 0.491194289557933
absolutely ||| absolutely ||| 0.0242533262713868
absolutely ||| clean ||| 0.325249254067808
absoluteness ||| flatness ||| 1
absolutes ||| directs ||| 1
absolution ||| shrift ||| 1
absolve ||| quit ||| 0.265054478999802
absolve ||| free ||| 0.734945521000198
absolves ||| quits ||| 0.598701605201621
absolves ||| frees ||| 0.401298394798379
absorbed ||| rapt ||| 1
absorbs ||| enwraps ||| 1
abstemious ||| temperate ||| 0.151651166476115
abstemious ||| abstemious ||| 0.0429930994366137
abstemious ||| spare ||| 0.805355734087271
abstemiousness ||| continence ||| 1
abstemiouss ||| spares ||| 1
abstention ||| forbearance ||| 1
abstract ||| unbodied ||| 0.209771379223039
abstract ||| epitome ||| 0.209771379223039
abstract ||| abstract ||| 0.580457241553923
abstruse ||| exquisite ||| 0.225701488953211
abstruse ||| secret ||| 0.774298511046789
abstruses ||| secrets ||| 1
absurdity ||| vanity ||| 0.881797691716091
absurdity ||| paradox ||| 0.118202308283909
abundance ||| cost ||| 0.191781559965548
abundance ||| fat ||| 0.27739897173265
abundance ||| store ||| 0.152864572777272
abundance ||| rankness ||| 0.0205463104960315
abundance ||| abundance ||| 0.0516799216880802
abundance ||| foison ||| 0.0283296916077681
abundance ||| choice ||| 0.27739897173265
abundanceed ||| fated ||| 1
abundances ||| costs ||| 0.427247763519891
abundances ||| foisons ||| 0.286376118240054
abundances ||| fats ||| 0.286376118240054
abundant ||| populous ||| 0.0258513128519706
abundant ||| fruitful ||| 0.0704249591132109
abundant ||| fertile ||| 0.0537098084503364
abundant ||| rank ||| 0.176287128425018
abundant ||| flowing ||| 0.0202796102220117
abundant ||| old ||| 0.638739249268839
abundant ||| abundant ||| 0.0147079316686135
abundantly ||| fruitfully ||| 0.105748939313634
abundantly ||| richly ||| 0.681120607199998
abundantly ||| largely ||| 0.142248933828673
abundantly ||| abundantly ||| 0.0708815196576953
abundants ||| ranks ||| 1
abuse ||| misuse ||| 0.0420140104195373
abuse ||| flout ||| 0.132566301148012
abuse ||| abuse ||| 0.223118786288438
abuse ||| offend ||| 0.259339780426962
abuse ||| contumely ||| 0.0119109702198208
abuse ||| railing ||| 0.0691796146924793
abuse ||| extort ||| 0.0329587808576927
abuse ||| faction ||| 0.123511142435152
abuse ||| profane ||| 0.105400613511906
abuseed ||| offended ||| 0.810156809873889
abuseed ||| flouted ||| 0.108892028177102
abuseed ||| extorted ||| 0.0809511619490095
abuses ||| offends ||| 0.278027207873054
abuses ||| flouts ||| 0.0821724618166437
abuses ||| factions ||| 0.278027207873054
abuses ||| abuses ||| 0.361773122437248
abusive ||| comparative ||| 0.227665871450435
abusive ||| railing ||| 0.65889002385043
abusive ||| lewd-tongued ||| 0.113444104699135
abyss ||| gulf ||| 0.7718696913647
abyss ||| abysm ||| 0.2281303086353
abysss ||| gulfs ||| 1
academic ||| arithmetician ||| 1
academy ||| academe ||| 1
academys ||| academes ||| 1
accelerate ||| haste ||| 1
accelerates ||| hastes ||| 1
accept ||| resume ||| 0.00905644227927229
accept ||| accept ||| 0.0605182865690325
accept ||| entertain ||| 0.0913952496577962
accept ||| elect ||| 0.00905644227927229
accept ||| trust ||| 0.197750059805184
accept ||| take ||| 0.537397477442597
accept ||| embrace ||| 0.0948260419668455
acceptable ||| gracious ||| 0.691208784024293
acceptable ||| current ||| 0.276215629101016
acceptable ||| accepted ||| 0.0325755868746912
acceptables ||| currents ||| 1
acceptance ||| acceptance ||| 0.0302888695227264
acceptance ||| admittance ||| 0.046400650000037
acceptance ||| answer ||| 0.599572995765208
acceptance ||| content ||| 0.293448615189303
acceptance ||| trusting ||| 0.0302888695227264
acceptanceed ||| contented ||| 0.477557976230963
acceptanceed ||| answered ||| 0.522442023769036
acceptances ||| contents ||| 0.417435856271626
acceptances ||| answers ||| 0.582564143728375
accepted ||| counted ||| 0.08168445754706
accepted ||| public ||| 0.292948601657734
accepted ||| elected ||| 0.08168445754706
accepted ||| current ||| 0.292948601657734
accepted ||| accepted ||| 0.0345489958485689
accepted ||| trusted ||| 0.11689513297081
accepted ||| entertained ||| 0.0992897527710327
accepteds ||| currents ||| 1
accepting ||| content ||| 1
acceptinged ||| contented ||| 1
acceptings ||| contents ||| 1
accepts ||| takes ||| 0.824356052847138
accepts ||| resumes ||| 0.0280625951639763
accepts ||| embraces ||| 0.0776518543190145
accepts ||| accepts ||| 0.0280625951639763
accepts ||| trusts ||| 0.041866902505895
access ||| way ||| 0.877427946325746
access ||| access ||| 0.122572053674254
access-point ||| gap ||| 1
access-points ||| gaps ||| 1
accessible ||| level ||| 0.345396855835671
accessible ||| neighbour ||| 0.618659063530408
accessible ||| accessible ||| 0.0359440806339214
accessibles ||| levels ||| 0.101532771452982
accessibles ||| neighbours ||| 0.898467228547018
accessories ||| assigns ||| 0.120068932995535
accessories ||| property ||| 0.879931067004465
accessory ||| feodary ||| 0.0495463002878052
accessory ||| federary ||| 0.0495463002878052
accessory ||| appurtenance ||| 0.0495463002878052
accessory ||| party ||| 0.777442414440589
accessory ||| collateral ||| 0.0739186846959956
accesss ||| ways ||| 1
accident ||| hap ||| 0.602460891138039
accident ||| accident ||| 0.397539108861961
accidental ||| accidental ||| 0.446090079950353
accidental ||| squandering ||| 0.222283161778822
accidental ||| casual ||| 0.331626758270826
accidentally ||| casually ||| 0.147503743534914
accidentally ||| accidentally ||| 0.220062500055527
accidentally ||| unadvised ||| 0.632433756409559
accidents ||| accidents ||| 0.731488223169674
accidents ||| haps ||| 0.268511776830326
acclaim ||| voice ||| 0.297236196556498
acclaim ||| report ||| 0.348803388602087
acclaim ||| cry ||| 0.353960414841415
acclaimed ||| reported ||| 1
acclaims ||| voices ||| 0.591432851243754
acclaims ||| reports ||| 0.408567148756246
acclamation ||| report ||| 0.850279680085777
acclamation ||| ave ||| 0.0165351371105781
acclamation ||| exclamation ||| 0.0331836229816962
acclamation ||| applause ||| 0.0834664227113708
acclamation ||| all-hail ||| 0.0165351371105781
acclamationed ||| reported ||| 0.834651208040969
acclamationed ||| all-hailed ||| 0.165348791959031
acclamations ||| aves ||| 0.0629326462879003
acclamations ||| reports ||| 0.748269414848399
acclamations ||| exclamations ||| 0.0629326462879003
acclamations ||| applauses ||| 0.0629326462879003
acclamations ||| acclamations ||| 0.0629326462879003
accommodate ||| bestow ||| 0.163176565927566
accommodate ||| fit ||| 0.442355864329147
accommodate ||| entertain ||| 0.151781132554743
accommodate ||| frame ||| 0.168873999523362
accommodate ||| camp ||| 0.066318056301336
accommodate ||| accommodate ||| 0.00749438136384647
accommodateed ||| entertained ||| 0.394954482844763
accommodateed ||| bestowed ||| 0.605045517155237
accommodates ||| bestows ||| 0.11402996733658
accommodates ||| frames ||| 0.0827010455033432
accommodates ||| fits ||| 0.803268987160077
accommodating ||| commodious ||| 1
accompaniment ||| appertinent ||| 0.025655465362719
accompaniment ||| measure ||| 0.948689069274562
accompaniment ||| appendix ||| 0.025655465362719
accompaniments ||| measures ||| 0.889974452121673
accompaniments ||| appertinents ||| 0.110025547878327
accompany ||| assist ||| 0.0271513696559093
accompany ||| go ||| 0.305836096894021
accompany ||| guard ||| 0.0848788999832115
accompany ||| associate ||| 0.00390639128643755
accompany ||| bring ||| 0.182418442151489
accompany ||| accompany ||| 0.0112265093537695
accompany ||| rank ||| 0.0629821877968392
accompany ||| attend ||| 0.104784909476667
accompany ||| company ||| 0.12867220476422
accompany ||| consort ||| 0.021179550687141
accompany ||| fetch ||| 0.0669634379502952
accompanyed ||| attended ||| 0.368391253479108
accompanyed ||| guarded ||| 0.368391253479108
accompanyed ||| consorted ||| 0.195270802205499
accompanyed ||| assisted ||| 0.0679466908362848
accompanys ||| ranks ||| 0.207636587165687
accompanys ||| associates ||| 0.021607915953892
accompanys ||| brings ||| 0.470473191985776
accompanys ||| attends ||| 0.224063895371582
accompanys ||| guards ||| 0.0762184095230627
accomplice ||| feodary ||| 0.5
accomplice ||| federary ||| 0.5
accomplices ||| complices ||| 0.667426599539287
accomplices ||| accomplices ||| 0.332573400460713
accomplish ||| seal ||| 0.230119454762181
accomplish ||| accomplish ||| 0.026144680345335
accomplish ||| effect ||| 0.137403671148895
accomplish ||| consummate ||| 0.0168731177141751
accomplish ||| rid ||| 0.0725025591590711
accomplish ||| comply ||| 0.0122373487290794
accomplish ||| compass ||| 0.0864100659008114
accomplish ||| enact ||| 0.0122373487290794
accomplish ||| chare ||| 0.00609777417061716
accomplish ||| touch ||| 0.37382929899542
accomplish ||| overtake ||| 0.026144680345335
accomplished ||| accomplished ||| 0.0263648461479391
accomplished ||| qualified ||| 0.0216900344275447
accomplished ||| exact ||| 0.0403892920961426
accomplished ||| aged ||| 0.105836931832311
accomplished ||| practised ||| 0.0357144726099842
accomplished ||| enacted ||| 0.0123404001211445
accomplished ||| artificial ||| 0.0310396804323337
accomplished ||| compassed ||| 0.0170152071738628
accomplished ||| sealed ||| 0.0357144726099842
accomplished ||| potent ||| 0.0637635137624963
accomplished ||| parted ||| 0.147910239861577
accomplished ||| made-up ||| 0.00614912386495803
accomplished ||| effected ||| 0.0403892920961426
accomplished ||| happy ||| 0.325554154096154
accomplished ||| touched ||| 0.0216900344275447
accomplished ||| complete ||| 0.0684383044398811
accomplisheded ||| exacted ||| 1
accomplisheds ||| potents ||| 1
accomplishment ||| virtue ||| 0.158498792851455
accomplishment ||| piece ||| 0.0926697430685913
accomplishment ||| compliment ||| 0.0247171821986734
accomplishment ||| art ||| 0.203092534265572
accomplishment ||| execution ||| 0.0501993344125003
accomplishment ||| part ||| 0.254056879169962
accomplishment ||| preparation ||| 0.0523229183292681
accomplishment ||| excellency ||| 0.00560555939916622
accomplishment ||| complement ||| 0.004167215491649
accomplishment ||| accomplishment ||| 0.00279320595276258
accomplishment ||| achievement ||| 0.004167215491649
accomplishment ||| gift ||| 0.0586933582130325
accomplishment ||| feat ||| 0.011976087459184
accomplishment ||| quality ||| 0.0586933582130325
accomplishment ||| emulation ||| 0.0183466154835022
accomplishmented ||| parted ||| 0.960086010248146
accomplishmented ||| feated ||| 0.0399139897518539
accomplishments ||| achievements ||| 0.0226976344189503
accomplishments ||| compliments ||| 0.0122376942014628
accomplishments ||| virtues ||| 0.147418367225846
accomplishments ||| preparations ||| 0.0164616209295158
accomplishments ||| arts ||| 0.0414057443870791
accomplishments ||| feats ||| 0.072585955268061
accomplishments ||| emulations ||| 0.0082026956273595
accomplishments ||| pieces ||| 0.0601138573952656
accomplishments ||| gifts ||| 0.222250935017378
accomplishments ||| parts ||| 0.384387801327619
accomplishments ||| complements ||| 0.0122376942014628
accomplishs ||| seals ||| 0.257750959398218
accomplishs ||| rids ||| 0.0585450647263803
accomplishs ||| enacts ||| 0.0585450647263803
accomplishs ||| effects ||| 0.58591725838921
accomplishs ||| chares ||| 0.0392416527598112
accord ||| stand ||| 0.487722697125963
accord ||| consonancy ||| 0.00744025750840382
accord ||| cohere ||| 0.00498706428890155
accord ||| sympathy ||| 0.0327565358399332
accord ||| key ||| 0.0441307152962933
accord ||| accord ||| 0.0327565358399332
accord ||| agree ||| 0.051713504135438
accord ||| shape ||| 0.161663496203695
accord ||| consent ||| 0.176829193761438
accordant ||| accordant ||| 0.5
accordant ||| coherent ||| 0.5
accorded ||| consented ||| 1
accordingly ||| accordingly ||| 0.226771249805043
accordingly ||| according ||| 0.773228750194957
accords ||| keys ||| 0.0495416850864293
accords ||| agrees ||| 0.0495416850864293
accords ||| consents ||| 0.0407573345618489
accords ||| shapes ||| 0.154954350634246
accords ||| stands ||| 0.682016331535724
accords ||| accords ||| 0.0231886130953229
accost ||| assay ||| 0.473483331446209
accost ||| accost ||| 0.150060260025265
accost ||| board ||| 0.376456408528526
accosted ||| boarded ||| 0.779119619912717
accosted ||| accosted ||| 0.220880380087283
accosting ||| encounter ||| 0.969378026858728
accosting ||| accosting ||| 0.030621973141272
accostinged ||| encountered ||| 1
accostings ||| encounters ||| 1
accosts ||| boards ||| 0.332573400460713
accosts ||| assays ||| 0.667426599539287
account ||| delivery ||| 0.00635709264646285
account ||| cital ||| 0.00229738901822843
account ||| rehearsal ||| 0.003427500610056
account ||| give ||| 0.263103448703021
account ||| render ||| 0.0535146316880007
account ||| denotement ||| 0.00229738901822843
account ||| count ||| 0.0692336998221877
account ||| fame ||| 0.0727268103574816
account ||| account ||| 0.0535146316880007
account ||| reason ||| 0.156562425453864
account ||| score ||| 0.027315964570831
account ||| chronicle ||| 0.0115968099717325
account ||| note ||| 0.119884363205781
account ||| process ||| 0.0168365281484533
account ||| audit ||| 0.00810366614710856
account ||| report ||| 0.118137707984422
account ||| relation ||| 0.0150899409661398
accountability ||| answer ||| 1
accountabilityed ||| answered ||| 1
accountabilitys ||| answers ||| 1
accountable ||| accountant ||| 1
accounted ||| reputed ||| 0.210149935455042
accounted ||| reported ||| 0.247412285389344
accounted ||| rendered ||| 0.0731240540436863
accounted ||| counted ||| 0.172887765374745
accounted ||| reasoned ||| 0.0490136743478398
accounted ||| accounted ||| 0.247412285389344
accounts ||| scores ||| 0.0132854840678055
accounts ||| reasons ||| 0.268359752655996
accounts ||| relations ||| 0.0089050094140542
accounts ||| gives ||| 0.363139409404026
accounts ||| counts ||| 0.0449508991084622
accounts ||| chronicles ||| 0.0178710628807177
accounts ||| notes ||| 0.126190709722182
accounts ||| reports ||| 0.105880597376928
accounts ||| accounts ||| 0.0178710628807177
accounts ||| renders ||| 0.0246410030750559
accounts ||| recountments ||| 0.0089050094140542
accredited ||| authentic ||| 1
accumulation ||| collection ||| 0.667426599539287
accumulation ||| accumulation ||| 0.332573400460713
accurate ||| just ||| 0.219736026553678
accurate ||| square ||| 0.044413936466881
accurate ||| true ||| 0.566205738960901
accurate ||| certain ||| 0.16964429801854
accurately ||| right ||| 0.986970754002678
accurately ||| infallibly ||| 0.0130292459973222
accuratelys ||| rights ||| 1
accurates ||| squares ||| 0.598701605201621
accurates ||| justs ||| 0.401298394798379
accursed ||| sacred ||| 0.42790337848003
accursed ||| blasted ||| 0.179119024529475
accursed ||| accursed ||| 0.365707372353223
accursed ||| inexecrable ||| 0.0272702246372719
accusation ||| law ||| 0.255875453498681
accusation ||| impeach ||| 0.0496894998518205
accusation ||| attainder ||| 0.0187616325247817
accusation ||| attaint ||| 0.0239162797855652
accusation ||| appeal ||| 0.0754627496098063
accusation ||| tax ||| 0.0703081426794778
accusation ||| impeachment ||| 0.0101155528950984
accusation ||| crime ||| 0.0342255649318608
accusation ||| accusation ||| 0.0496894998518205
accusation ||| charge ||| 0.261030121419172
accusation ||| imposition ||| 0.0342255649318608
accusation ||| accuse ||| 0.116699938020055
accusationed ||| taxed ||| 0.332573400460713
accusationed ||| attainted ||| 0.667426599539287
accusations ||| impeachments ||| 0.0252434866449065
accusations ||| objections ||| 0.0506600179947814
accusations ||| impositions ||| 0.0252434866449065
accusations ||| appeals ||| 0.0252434866449065
accusations ||| crimes ||| 0.300145156682364
accusations ||| accuses ||| 0.0376610426831747
accusations ||| accusations ||| 0.0698511144817627
accusations ||| charges ||| 0.1849981305255
accusations ||| laws ||| 0.280954077697698
accuse ||| indict ||| 0.0119852757035803
accuse ||| impeach ||| 0.0878346810876235
accuse ||| appeal ||| 0.133393303730943
accuse ||| detect ||| 0.0422761109295113
accuse ||| burthen ||| 0.133393303730943
accuse ||| burden ||| 0.0969464763730762
accuse ||| peach ||| 0.0119852757035803
accuse ||| challenge ||| 0.224510692157147
accuse ||| arraign ||| 0.051387800425725
accuse ||| accuse ||| 0.206287080157871
accuseed ||| arraigned ||| 0.200649197399189
accuseed ||| burdened ||| 0.299350802600811
accuseed ||| indicted ||| 0.200649197399189
accuseed ||| detected ||| 0.299350802600811
accuser ||| accuser ||| 0.573589329723998
accuser ||| appellant ||| 0.426410670276002
accusers ||| appellants ||| 0.189122517567645
accusers ||| accusers ||| 0.810877482432355
accuses ||| burdens ||| 0.216585922490045
accuses ||| detects ||| 0.107923053687336
accuses ||| challenges ||| 0.107923053687336
accuses ||| appeals ||| 0.107923053687336
accuses ||| accuses ||| 0.161011622070735
accuses ||| burthens ||| 0.298633294377211
accustom ||| inure ||| 0.209771379223039
accustom ||| naturalize ||| 0.209771379223039
accustom ||| accustom ||| 0.580457241553923
accustomed ||| wonted ||| 0.20513846431833
accustomed ||| used ||| 0.742167786484121
accustomed ||| accustomed ||| 0.0526937491975496
achieve ||| compass ||| 0.0318912837612103
achieve ||| climb ||| 0.0267584530048849
achieve ||| assume ||| 0.0182038396701588
achieve ||| do ||| 0.764168271722958
achieve ||| touch ||| 0.137968836480257
achieve ||| overtake ||| 0.00964919319349096
achieve ||| achieve ||| 0.0113601221670403
achieveed ||| compassed ||| 0.379343392709942
achieveed ||| touched ||| 0.483565739968146
achieveed ||| climbed ||| 0.137090867321911
achievement ||| achievement ||| 0.0131246280697504
achievement ||| art ||| 0.639639102254324
achievement ||| feat ||| 0.0377186382483894
achievement ||| trick ||| 0.144726815120643
achievement ||| preparation ||| 0.164790816306893
achievemented ||| feated ||| 1
achievements ||| preparations ||| 0.0559284905618458
achievements ||| arts ||| 0.1406763522301
achievements ||| feats ||| 0.246611371475173
achievements ||| achievements ||| 0.0771153969473542
achievements ||| tricks ||| 0.479668388785528
achiever ||| doer ||| 0.5
achiever ||| achiever ||| 0.5
achievers ||| doers ||| 1
achieves ||| achieves ||| 0.401298394798379
achieves ||| assumes ||| 0.598701605201621
acid ||| eager ||| 1
acknowledge ||| know ||| 0.362010328993588
acknowledge ||| remember ||| 0.140939251961195
acknowledge ||| yield ||| 0.151856351789485
acknowledge ||| confess ||| 0.119104991413756
acknowledge ||| acknowledge ||| 0.0317680795916983
acknowledge ||| justify ||| 0.0153924220221558
acknowledge ||| elect ||| 0.00720461805546196
acknowledge ||| allow ||| 0.0645193468352628
acknowledge ||| cite ||| 0.00720461805546196
acknowledge ||| grant ||| 0.0999999912819354
acknowledged ||| reputed ||| 0.152914628886459
acknowledged ||| granted ||| 0.586735053327045
acknowledged ||| allowed ||| 0.207141937957344
acknowledged ||| acknowledged ||| 0.0532083798291521
acknowledgeed ||| granted ||| 0.36778244501271
acknowledgeed ||| allowed ||| 0.129842537913205
acknowledgeed ||| remembered ||| 0.0788556826318607
acknowledgeed ||| yielded ||| 0.282803640416672
acknowledgeed ||| elected ||| 0.0788556826318607
acknowledgeed ||| confessed ||| 0.0618600113936917
acknowledgement ||| acknowledgement ||| 0.0384221969873044
acknowledgement ||| confession ||| 0.42763002866981
acknowledgement ||| allowance ||| 0.223158377039436
acknowledgement ||| testimony ||| 0.310789397303449
acknowledgements ||| confessions ||| 1
acknowledges ||| yields ||| 0.154713819689364
acknowledges ||| remembers ||| 0.0299423655720853
acknowledges ||| knows ||| 0.721856893899871
acknowledges ||| allows ||| 0.0412851729670915
acknowledges ||| grants ||| 0.0299423655720853
acknowledges ||| cites ||| 0.0222593822995027
acquaint ||| possess ||| 0.768499231302596
acquaint ||| acquaint ||| 0.231500768697404
acquainted ||| possessed ||| 0.366816353699203
acquainted ||| acquainted ||| 0.633183646300797
acquiesce ||| consent ||| 1
acquiesceed ||| consented ||| 1
acquiescence ||| content ||| 0.621476575954223
acquiescence ||| liking ||| 0.189261712022888
acquiescence ||| sufferance ||| 0.189261712022888
acquiescenceed ||| contented ||| 1
acquiescences ||| sufferances ||| 0.082636469312808
acquiescences ||| likings ||| 0.123286281398234
acquiescences ||| contents ||| 0.794077249288958
acquiescent ||| corrigible ||| 1
acquiesces ||| consents ||| 1
acquiescing ||| closing ||| 1
acquire ||| acquire ||| 0.0090209299934094
acquire ||| make ||| 0.536930794268159
acquire ||| assume ||| 0.0263700718134908
acquire ||| bring ||| 0.227124148698795
acquire ||| purchase ||| 0.0412407269996119
acquire ||| get ||| 0.132943256413044
acquire ||| attain ||| 0.0263700718134908
acquired ||| acquired ||| 0.144272196232958
acquired ||| purchased ||| 0.855727803767042
acquirer ||| inheritor ||| 1
acquirers ||| inheritors ||| 1
acquires ||| makes ||| 0.759618051363433
acquires ||| brings ||| 0.156919630436987
acquires ||| assumes ||| 0.0107522233372346
acquires ||| purchases ||| 0.0072070125221943
acquires ||| attains ||| 0.0072070125221943
acquires ||| gets ||| 0.0582960698179566
acquiring ||| more-having ||| 0.165348791959031
acquiring ||| inheritance ||| 0.834651208040969
acquisition ||| lucre ||| 0.0159290649163159
acquisition ||| art ||| 0.776315544232935
acquisition ||| purchase ||| 0.135066075824699
acquisition ||| acquisition ||| 0.0106769518003948
acquisition ||| receipt ||| 0.0620123632256553
acquisitions ||| receipts ||| 0.141887813416847
acquisitions ||| arts ||| 0.716224373166305
acquisitions ||| purchases ||| 0.141887813416847
acquit ||| bestow ||| 0.202370744900467
acquit ||| acquit ||| 0.046916945542258
acquit ||| quit ||| 0.195304266293573
acquit ||| free ||| 0.541541483420088
acquit ||| acquittance ||| 0.0138665598436145
acquited ||| bestowed ||| 1
acquits ||| acquittances ||| 0.159769782101023
acquits ||| quits ||| 0.2383623414558
acquits ||| bestows ||| 0.442098094342155
acquits ||| frees ||| 0.159769782101023
acquittal ||| purgation ||| 0.702762029009214
acquittal ||| acquittance ||| 0.297237970990786
acquittals ||| acquittances ||| 1
acrobat ||| tumbler ||| 1
across ||| cross ||| 0.798430110699804
across ||| athwart ||| 0.125407614522375
across ||| across ||| 0.0761622747778211
acrossed ||| crossed ||| 1
act ||| jest ||| 0.0504177168739648
act ||| exploit ||| 0.0154052295882213
act ||| do ||| 0.504451218150091
act ||| minister ||| 0.0312172882910146
act ||| display ||| 0.0108874751084076
act ||| turn ||| 0.126089863654466
act ||| touch ||| 0.0910775155219326
act ||| present ||| 0.0820419879393085
act ||| manner ||| 0.0323467889622499
act ||| act ||| 0.0560649159103445
acted ||| acted ||| 0.12480148223293
acted ||| jested ||| 0.0291076901596345
acted ||| displayed ||| 0.0291076901596345
acted ||| presented ||| 0.25757502068426
acted ||| turned ||| 0.456735473386388
acted ||| touched ||| 0.102672643377153
acting ||| stir ||| 0.383020495300723
acting ||| counterfeiting ||| 0.0194526159893297
acting ||| acting ||| 0.0459919701262601
acting ||| action ||| 0.551534918583688
actings ||| actions ||| 0.62376456323019
actings ||| stirs ||| 0.37623543676981
action ||| function ||| 0.0164090068442497
action ||| execution ||| 0.0284392602918069
action ||| issue ||| 0.0621241266141632
action ||| turn ||| 0.134305654053905
action ||| step ||| 0.0236272021012307
action ||| doing ||| 0.035657451170874
action ||| feat ||| 0.00678477259739059
action ||| business ||| 0.0741542925801371
action ||| deed ||| 0.0476876911546788
action ||| act ||| 0.0597180057347879
action ||| part ||| 0.143929990311575
action ||| working ||| 0.0152059758412579
action ||| work ||| 0.0934026710860502
action ||| service ||| 0.0946056984089222
action ||| action ||| 0.0669362373821333
action ||| touch ||| 0.0970119638268373
actioned ||| acted ||| 0.0882944007900494
actioned ||| parted ||| 0.495343152241805
actioned ||| feated ||| 0.0205930732155136
actioned ||| turned ||| 0.323130656949602
actioned ||| touched ||| 0.0726387168030299
actions ||| steps ||| 0.070607503192262
actions ||| proceeding ||| 0.0603446613405719
actions ||| issues ||| 0.0295560814246995
actions ||| actions ||| 0.0603446613405719
actions ||| services ||| 0.070607503192262
actions ||| works ||| 0.0637656592906444
actions ||| doings ||| 0.0158723362152285
actions ||| turns ||| 0.108237774568797
actions ||| functions ||| 0.0158723362152285
actions ||| acts ||| 0.0569236650266519
actions ||| feats ||| 0.039818954635532
actions ||| parts ||| 0.210866143002339
actions ||| deeds ||| 0.197182720555211
actionss ||| proceedings ||| 1
activate ||| execute ||| 1
active ||| stirring ||| 0.0976750100568083
active ||| fierce ||| 0.150504839385794
active ||| actual ||| 0.0115193364906526
active ||| quiver ||| 0.0154953169728653
active ||| sprag ||| 0.00772119400161708
active ||| operant ||| 0.0115193364906526
active ||| active ||| 0.0154953169728653
active ||| breathing ||| 0.115285175387716
active ||| busy ||| 0.103545079196067
active ||| fleet ||| 0.0976750100568083
active ||| hot ||| 0.373564384988154
actives ||| quivers ||| 1
activist ||| factionary ||| 1
activity ||| stir ||| 0.153087548889002
activity ||| function ||| 0.0540395681234577
activity ||| working ||| 0.0500776418193323
activity ||| agitation ||| 0.00777491893468362
activity ||| activity ||| 0.00777491893468362
activity ||| doing ||| 0.117430218656565
activity ||| use ||| 0.402688168392144
activity ||| hurry ||| 0.0104584872079234
activity ||| act ||| 0.196668529042208
activityed ||| acted ||| 1
activitys ||| uses ||| 0.208658190615611
activitys ||| functions ||| 0.100430225323146
activitys ||| stirs ||| 0.230303976698966
activitys ||| acts ||| 0.360177382039132
activitys ||| doings ||| 0.100430225323146
actor ||| tragedian ||| 0.116709261530498
actor ||| comedian ||| 0.116709261530498
actor ||| actor ||| 0.766581476939003
actors ||| comedians ||| 0.132630692788725
actors ||| tragedians ||| 0.197873227754894
actors ||| actors ||| 0.66949607945638
acts ||| exploits ||| 0.030301995898567
acts ||| ministers ||| 0.0894042645709297
acts ||| jests ||| 0.078658422992704
acts ||| presents ||| 0.0571667147669326
acts ||| turns ||| 0.169998165606284
acts ||| acts ||| 0.0894042645709297
acts ||| action ||| 0.298949089524237
acts ||| manners ||| 0.186117082069415
actss ||| actions ||| 1
actual ||| actual ||| 0.426410670276002
actual ||| effectual ||| 0.573589329723998
actuality ||| verity ||| 1
acumen ||| wit ||| 1
acumens ||| wits ||| 1
acute ||| sharp ||| 0.949163123733904
acute ||| acute ||| 0.0508368762660957
acutely ||| sensibly ||| 0.667426599539287
acutely ||| acutely ||| 0.332573400460713
acutes ||| sharps ||| 1
adage ||| word ||| 0.985045011751923
adage ||| adage ||| 0.0149549882480768
adages ||| words ||| 1
adapt ||| fit ||| 0.21944906935695
adapt ||| square ||| 0.030073345477773
adapt ||| frame ||| 0.0837769882178226
adapt ||| apply ||| 0.0385528726231494
adapt ||| inure ||| 0.0037179003339231
adapt ||| sort ||| 0.120521559719312
adapt ||| turn ||| 0.315550406094413
adapt ||| wear ||| 0.188357858176657
adapted ||| sorted ||| 0.117717914500021
adapted ||| suited ||| 0.214744752144674
adapted ||| turned ||| 0.667537333355305
adapts ||| squares ||| 0.0220097459182805
adapts ||| turns ||| 0.354859984354007
adapts ||| wears ||| 0.231488291198705
adapts ||| frames ||| 0.0296065654278551
adapts ||| sorts ||| 0.0744690869467833
adapts ||| fits ||| 0.287566326154369
addendum ||| adjunct ||| 1
addicted ||| addicted ||| 0.205175239787712
addicted ||| frequent ||| 0.205175239787712
addicted ||| devoted ||| 0.589649520424576
addicteds ||| frequents ||| 1
addition ||| advantage ||| 0.723956984777282
addition ||| addition ||| 0.276043015222718
additional ||| overplus ||| 1
additions ||| additions ||| 0.354078596818291
additions ||| advantages ||| 0.645921403181709
addle-brained ||| brained ||| 1
addle-headed ||| brain-sick ||| 0.734543429954753
addle-headed ||| brainsick ||| 0.265456570045247
addled ||| addle ||| 1
address ||| speak ||| 0.516427049617486
address ||| greeting ||| 0.0726335016331648
address ||| board ||| 0.0430471081913848
address ||| superscript ||| 0.00486460948027661
address ||| superscription ||| 0.00725756579710196
address ||| greet ||| 0.0874264777522411
address ||| encounter ||| 0.15399548284082
address ||| address ||| 0.0504437055354234
address ||| salute ||| 0.0430471081913848
address ||| assail ||| 0.020857390960716
addressed ||| encountered ||| 0.35057664729133
addressed ||| assailed ||| 0.199458240380215
addressed ||| greeted ||| 0.0993884650371261
addressed ||| boarded ||| 0.35057664729133
addresss ||| greets ||| 0.106039639530397
addresss ||| encounters ||| 0.0692193063237387
addresss ||| assails ||| 0.024085642879326
addresss ||| salutes ||| 0.0446723956180395
addresss ||| boards ||| 0.0161441521806268
addresss ||| speaks ||| 0.65834606294172
addresss ||| greetings ||| 0.0814928005261511
adduce ||| object ||| 0.856263112830684
adduce ||| infer ||| 0.143736887169316
adduceed ||| objected ||| 1
adduces ||| objects ||| 1
adept ||| yare ||| 0.214846757152803
adept ||| feat ||| 0.158602417557016
adept ||| tight ||| 0.0742358700616727
adept ||| nice ||| 0.552314955228508
adepted ||| feated ||| 1
adepts ||| feats ||| 1
adequate ||| sufficing ||| 0.401298394798379
adequate ||| competent ||| 0.598701605201621
adhere ||| cleave ||| 0.814904202832099
adhere ||| adhere ||| 0.185095797167901
adherent ||| sectary ||| 1
adherents ||| professors ||| 1
adjacent ||| adjacent ||| 0.0797659088972515
adjacent ||| neighbour ||| 0.920234091102749
adjacents ||| neighbours ||| 1
adjective ||| epitheton ||| 1
adjourn ||| adjourn ||| 0.598701605201621
adjourn ||| rejourn ||| 0.401298394798379
adjudge ||| doom ||| 0.961261521591826
adjudge ||| award ||| 0.0387384784081734
adjudges ||| awards ||| 0.5
adjudges ||| dooms ||| 0.5
adjudicate ||| pass ||| 1
adjudicateed ||| passed ||| 1
adjudication ||| arbitrement ||| 1
adjudicator ||| umpire ||| 1
adjudicators ||| umpires ||| 1
adjunct ||| annexment ||| 0.401298394798379
adjunct ||| adjunct ||| 0.598701605201621
adjust ||| frame ||| 1
adjusts ||| frames ||| 1
administration ||| state ||| 0.807141538366843
administration ||| manage ||| 0.192858461633157
administrations ||| states ||| 1
admirable ||| admirable ||| 0.130903170559868
admirable ||| worthy ||| 0.869096829440132
admirably ||| strangely ||| 1
admiration ||| respect ||| 0.542257912741338
admiration ||| envy ||| 0.360291401845071
admiration ||| admiration ||| 0.0974506854135911
admirationed ||| respected ||| 1
admirations ||| respects ||| 1
admire ||| admire ||| 0.0842769578384191
admire ||| fancy ||| 0.517635258452249
admire ||| commend ||| 0.398087783709332
admired ||| desired ||| 0.698415571765477
admired ||| admired ||| 0.301584428234523
admireed ||| commended ||| 1
admires ||| commends ||| 1
admiring ||| wondering ||| 0.548640342712446
admiring ||| admiring ||| 0.451359657287554
admissibility ||| admittance ||| 1
admission ||| allowance ||| 0.120199179317266
admission ||| entrance ||| 0.24606650593027
admission ||| discovery ||| 0.151666094116643
admission ||| render ||| 0.482068220635821
admissioned ||| rendered ||| 1
admissions ||| entrances ||| 0.265456570045247
admissions ||| renders ||| 0.734543429954753
admit ||| receive ||| 0.313156669708364
admit ||| interess ||| 0.00829811913937308
admit ||| entertain ||| 0.168058957757895
admit ||| admit ||| 0.0860475810158136
admit ||| allow ||| 0.149133313016237
admit ||| confess ||| 0.275305359362316
admited ||| allowed ||| 0.451541648290371
admited ||| confessed ||| 0.215124965646008
admited ||| entertained ||| 0.333333386063621
admits ||| receives ||| 0.510645808351148
admits ||| allows ||| 0.215124944524324
admits ||| admits ||| 0.274229247124527
admitted ||| granted ||| 0.856019789312493
admitted ||| admitted ||| 0.143980210687507
admonish ||| speak ||| 0.551424215008181
admonish ||| tell ||| 0.41321286423576
admonish ||| lesson ||| 0.0301686470130983
admonish ||| admonish ||| 0.00519427374296092
admonishs ||| lessons ||| 0.0176335023075039
admonishs ||| tells ||| 0.263285886327235
admonishs ||| speaks ||| 0.719080611365261
admonition ||| admonition ||| 0.598701605201621
admonition ||| schooling ||| 0.401298394798379
adopt ||| assume ||| 0.273380263388548
adopt ||| adopt ||| 0.0678264610378305
adopt ||| usurp ||| 0.658793275573621
adopted ||| adoptious ||| 0.153041101190138
adopted ||| adopted ||| 0.539827596019014
adopted ||| usurped ||| 0.307131302790849
adopts ||| adopts ||| 0.190150007340288
adopts ||| assumes ||| 0.283686942433269
adopts ||| usurps ||| 0.526163050226443
adorn ||| adorn ||| 0.0121730915444407
adorn ||| stick ||| 0.055651373582584
adorn ||| face ||| 0.25966468466263
adorn ||| guard ||| 0.142607999620447
adorn ||| paint ||| 0.0422734690121459
adorn ||| deck ||| 0.0422734690121459
adorn ||| brooch ||| 0.0155175762475675
adorn ||| prank ||| 0.00656326421765354
adorn ||| beauty ||| 0.192775522105094
adorn ||| brave ||| 0.152641592385099
adorn ||| flourish ||| 0.0589959077723883
adorn ||| invest ||| 0.0188620498378039
adorned ||| enchased ||| 0.0250487316171392
adorned ||| adorned ||| 0.0373704854587831
adorned ||| painted ||| 0.659648743544966
adorned ||| guarded ||| 0.202614134873101
adorned ||| invested ||| 0.0502691728888713
adorned ||| decked ||| 0.0250487316171392
adorning ||| facing ||| 0.052051589439698
adorning ||| decking ||| 0.052051589439698
adorning ||| habit ||| 0.895896821120604
adorninged ||| habited ||| 1
adornings ||| habits ||| 0.867869936310299
adornings ||| adornings ||| 0.132130063689701
adornment ||| guard ||| 0.547545213382359
adornment ||| trim ||| 0.17515074411672
adornment ||| adornment ||| 0.0168909076219503
adornment ||| garnish ||| 0.033897602819809
adornment ||| flourish ||| 0.226515532059161
adornmented ||| guarded ||| 0.889974452121673
adornmented ||| garnished ||| 0.110025547878327
adornments ||| caparison ||| 0.266366309469659
adornments ||| adornings ||| 0.132728227148341
adornments ||| trims ||| 0.132728227148341
adornments ||| guards ||| 0.468177236233659
adornmentsed ||| caparisoned ||| 1
adorns ||| faces ||| 0.414993306294173
adorns ||| sticks ||| 0.184864743161583
adorns ||| braves ||| 0.0698007504267262
adorns ||| decks ||| 0.0252252855845494
adorns ||| pranks ||| 0.165687250746238
adorns ||| adorns ||| 0.0252252855845494
adorns ||| guards ||| 0.0889780926176314
adorns ||| paints ||| 0.0252252855845494
adroitly ||| clerkly ||| 1
adroitness ||| dexterity ||| 1
adulation ||| adulation ||| 0.401298394798379
adulation ||| soothing ||| 0.598701605201621
adulators ||| soothers ||| 1
adult ||| perfect ||| 0.925175930364106
adult ||| mannish ||| 0.074824069635894
adulted ||| perfected ||| 1
adulterate ||| card ||| 0.579623749659462
adulterate ||| adulterate ||| 0.420376250340538
adulterateed ||| carded ||| 1
adulterates ||| adulterates ||| 0.401298394798379
adulterates ||| cards ||| 0.598701605201621
adulteration ||| leaven ||| 1
adulterer ||| bed-swerver ||| 1
adulterer/adulteress ||| bed-swerver ||| 1
adulteress ||| adulteress ||| 0.667426599539287
adulteress ||| bed-swerver ||| 0.332573400460713
adulterous ||| disloyal ||| 0.698058525350608
adulterous ||| adulterate ||| 0.17319040806002
adulterous ||| adulterous ||| 0.128751066589372
adulterouss ||| adulterates ||| 1
adulthood ||| man ||| 1
adulthoods ||| mans ||| 1
advance ||| advance ||| 0.0601149996237527
advance ||| prefer ||| 0.0464832888983818
advance ||| pass ||| 0.237327382134021
advance ||| head ||| 0.298670169709583
advance ||| forward ||| 0.114641761035248
advance ||| raise ||| 0.063522977826179
advance ||| allege ||| 0.00448268114821012
advance ||| former ||| 0.0532990966942389
advance ||| approach ||| 0.121457642930386
advanced ||| profited ||| 0.0775794950517591
advanced ||| advanced ||| 0.922420504948241
advanceed ||| headed ||| 0.128072806985858
advanceed ||| approached ||| 0.128072806985858
advanceed ||| passed ||| 0.743854386028284
advancement ||| proceeding ||| 0.144779754020979
advancement ||| preferment ||| 0.0709113632164014
advancement ||| advancement ||| 0.0462886840623683
advancement ||| advantage ||| 0.358177115327707
advancement ||| profit ||| 0.202232911543016
advancement ||| vantage ||| 0.177610171829527
advancemented ||| profited ||| 1
advancements ||| vantages ||| 0.127614756048835
advancements ||| proceedings ||| 0.302921357651871
advancements ||| profits ||| 0.267860018568392
advancements ||| preferments ||| 0.0688049834310506
advancements ||| advantages ||| 0.232798884299851
advances ||| raises ||| 0.0209086590596203
advances ||| prefers ||| 0.0209086590596203
advances ||| heads ||| 0.391665376220832
advances ||| approach ||| 0.566517305659927
advancesed ||| approached ||| 1
advantage ||| commodity ||| 0.0140252671251418
advantage ||| advantage ||| 0.0634933353654298
advantage ||| goodness ||| 0.0416691979838195
advantage ||| forehand ||| 0.00285519741384675
advantage ||| fore-hand ||| 0.00191378497911881
advantage ||| eminence ||| 0.00675056528305731
advantage ||| good ||| 0.334112051924896
advantage ||| use ||| 0.147879897737702
advantage ||| thrift ||| 0.0154802204680086
advantage ||| stead ||| 0.0183901021496528
advantage ||| behove ||| 0.00285519741384675
advantage ||| benefit ||| 0.0314845972053967
advantage ||| convenience ||| 0.00675056528305731
advantage ||| vantage ||| 0.0314845972053967
advantage ||| prize ||| 0.0343944319842894
advantage ||| effect ||| 0.0431241096444084
advantage ||| purchase ||| 0.0242098523936646
advantage ||| addition ||| 0.0242098523936646
advantage ||| avail ||| 0.00529562399799786
advantage ||| ground ||| 0.0664032203139302
advantage ||| boot ||| 0.0183901021496528
advantage ||| behoof ||| 0.00191378497911881
advantage ||| conveniency ||| 0.00285519741384675
advantage ||| privilege ||| 0.0343944319842894
advantage ||| start ||| 0.025664815206767
advantaged ||| advantaged ||| 0.5
advantaged ||| prerogatived ||| 0.5
advantageed ||| steaded ||| 0.074949877969505
advantageed ||| grounded ||| 0.150413539145866
advantageed ||| started ||| 0.207393399338454
advantageed ||| effected ||| 0.49229330557667
advantageed ||| benefited ||| 0.074949877969505
advantageous ||| wholesome ||| 0.316386211641427
advantageous ||| merry ||| 0.637807392093214
advantageous ||| advantageable ||| 0.018382033292787
advantageous ||| advantageous ||| 0.0274243629725719
advantages ||| thrifts ||| 0.0127076060698481
advantages ||| privileges ||| 0.0127076060698481
advantages ||| benefits ||| 0.0544848479715002
advantages ||| additions ||| 0.0351631475818022
advantages ||| purchases ||| 0.0127076060698481
advantages ||| steads ||| 0.0255023230833682
advantages ||| advantages ||| 0.0641457287461489
advantages ||| avails ||| 0.0189586209436755
advantages ||| prizes ||| 0.0351631475818022
advantages ||| behoves ||| 0.0189586209436755
advantages ||| boots ||| 0.122110987520477
advantages ||| effects ||| 0.18973731189938
advantages ||| goods ||| 0.102789260929632
advantages ||| conveniences ||| 0.0189586209436755
advantages ||| starts ||| 0.0834673726972178
advantages ||| uses ||| 0.0931283146201494
advantages ||| vantages ||| 0.0351631475818022
advantages ||| grounds ||| 0.0641457287461489
adventurer ||| gamester ||| 1
adventurous ||| venturous ||| 0.5
adventurous ||| adventurous ||| 0.5
adversary ||| opposite ||| 0.737346753863088
adversary ||| adversary ||| 0.262653246136912
adversarys ||| opposites ||| 1
adverse ||| adverse ||| 0.05640653731754
adverse ||| opposite ||| 0.137623132912362
adverse ||| ill ||| 0.654454472645382
adverse ||| froward ||| 0.0637898293145508
adverse ||| awkward ||| 0.0194901167251765
adverse ||| thwarting ||| 0.0194901167251765
adverse ||| sinister ||| 0.0342566933499672
adverse ||| contrarious ||| 0.0144891010098446
adversely ||| thwart ||| 0.0281093344716816
adversely ||| ill ||| 0.943877347040899
adversely ||| adversely ||| 0.0140066592437097
adversely ||| crossly ||| 0.0140066592437097
adverselyed ||| thwarted ||| 1
adverselys ||| ills ||| 1
adverses ||| opposites ||| 0.275121467189635
adverses ||| thwartings ||| 0.137090853055837
adverses ||| ills ||| 0.587787679754528
adversity ||| adversity ||| 0.10030012748918
adversity ||| opposite ||| 0.281572660928204
adversity ||| amiss ||| 0.281572660928204
adversity ||| distress ||| 0.266466418688297
adversity ||| hardness ||| 0.0700881319661147
adversityed ||| distressed ||| 1
adversitys ||| opposites ||| 1
advertise ||| advertise ||| 0.0191938381913165
advertise ||| cry ||| 0.671346654845142
advertise ||| sign ||| 0.309459506963541
advertisement ||| advertisement ||| 0.0729128112926408
advertisement ||| bush ||| 0.293268787492555
advertisement ||| sign ||| 0.633818401214804
advertisements ||| signs ||| 1
advertises ||| signs ||| 1
advice ||| advertisement ||| 0.0364432977455022
advice ||| instruction ||| 0.126556562260345
advice ||| counsel ||| 0.597147569912664
advice ||| advice ||| 0.226682330683588
advice ||| rede ||| 0.0131702393979
advices ||| counsels ||| 0.615744255468958
advices ||| instructions ||| 0.384255744531042
advise ||| lesson ||| 0.0868949982775423
advise ||| counsel ||| 0.678346797382406
advise ||| advise ||| 0.234758204340051
advisements ||| vizaments ||| 1
advises ||| counsels ||| 0.801760332293924
advises ||| lessons ||| 0.0991198338530381
advises ||| advises ||| 0.0991198338530381
advocacy ||| advocation ||| 1
advocate ||| urge ||| 0.157754375946433
advocate ||| orator ||| 0.0607725437535558
advocate ||| advocate ||| 0.0823239907089346
advocate ||| attorney ||| 0.0715483157605243
advocate ||| motion ||| 0.513354549204972
advocate ||| solicitor ||| 0.0211464960204949
advocate ||| patron ||| 0.0930997286050856
advocateed ||| attorneyed ||| 1
advocates ||| attorneys ||| 0.09874947574703
advocates ||| urges ||| 0.0661899112348617
advocates ||| motions ||| 0.585716958711193
advocates ||| orators ||| 0.183153743072054
advocates ||| patrons ||| 0.0661899112348617
affair ||| matter ||| 0.228822830587189
affair ||| business ||| 0.221631432559168
affair ||| gear ||| 0.0130870678377451
affair ||| concerning ||| 0.0382562461920774
affair ||| cause ||| 0.315117377591245
affair ||| employment ||| 0.0598297727968361
affair ||| condition ||| 0.102977028007436
affair ||| affair ||| 0.0202782444283023
affair(s) ||| matter ||| 1
affair(s)s ||| matters ||| 1
affairs ||| employments ||| 0.0126800916054847
affairs ||| matter ||| 0.411206897727145
affairs ||| concernings ||| 0.0126800916054847
affairs ||| matters ||| 0.126901977892287
affairs ||| affairs ||| 0.172131911300797
affairs ||| square ||| 0.0687485259882576
affairs ||| causes ||| 0.0687485259882576
affairs ||| conditions ||| 0.126901977892287
affairss ||| squares ||| 0.0908432698491199
affairss ||| matters ||| 0.90915673015088
affect ||| move ||| 0.247454360106722
affect ||| taint ||| 0.0670620940548079
affect ||| attaint ||| 0.0246168857710264
affect ||| affect ||| 0.0829789835068022
affect ||| touch ||| 0.427846624939712
affect ||| salute ||| 0.0617564197540193
affect ||| infect ||| 0.0882846318669093
affectation ||| disposition ||| 0.171285246166687
affectation ||| affection ||| 0.204826883044016
affectation ||| affectation ||| 0.0109704629782877
affectation ||| grace ||| 0.612917407811009
affectationed ||| affectioned ||| 1
affectations ||| dispositions ||| 0.0923616213768333
affectations ||| affections ||| 0.410867271696926
affectations ||| graces ||| 0.470586591078112
affectations ||| affectations ||| 0.0261845158481288
affected ||| affected ||| 0.182095949462418
affected ||| affectioned ||| 0.0163611672982805
affected ||| mincing ||| 0.0452728969687735
affected ||| affecting ||| 0.024409410183099
affected ||| tainted ||| 0.132342180367606
affected ||| attainted ||| 0.0328344907898752
affected ||| stretched ||| 0.0452728969687735
affected ||| enforced ||| 0.256726846072347
affected ||| touched ||| 0.0577113568970114
affected ||| infected ||| 0.206972804991816
affecting ||| touching ||| 0.474224768541906
affecting ||| moving ||| 0.312921377403107
affecting ||| affecting ||| 0.05275726015615
affecting ||| condoling ||| 0.0353621965110544
affecting ||| melting ||| 0.124734397387782
affection ||| friending ||| 0.0129990365106716
affection ||| affection ||| 0.362089693756711
affection ||| kindness ||| 0.332442212165794
affection ||| affect ||| 0.154558595850804
affection ||| dearness ||| 0.0129990365106716
affection ||| infection ||| 0.124911425205347
affectionate ||| fond ||| 0.291744378356241
affectionate ||| kind ||| 0.695308432388272
affectionate ||| affectionate ||| 0.012947189255487
affectionately ||| kindly ||| 0.947290582155341
affectionately ||| affectionately ||| 0.0527094178446586
affectionates ||| kinds ||| 1
affectioned ||| affected ||| 0.917558172942677
affectioned ||| affectioned ||| 0.0824418270573231
affections ||| affections ||| 0.697410051896065
affections ||| infections ||| 0.0444458486096873
affections ||| affects ||| 0.258144099494248
affects ||| taints ||| 0.109635198110816
affects ||| salutes ||| 0.109635198110816
affects ||| moves ||| 0.440973006614962
affects ||| affects ||| 0.230121399052589
affects ||| infects ||| 0.109635198110816
affiliated ||| affined ||| 1
affirm ||| justify ||| 0.0379836423987234
affirm ||| affirm ||| 0.0245136854205658
affirm ||| profess ||| 0.098598568246248
affirm ||| pass ||| 0.469023505816051
affirm ||| avouch ||| 0.0581885598386996
affirm ||| protest ||| 0.0649236022752209
affirm ||| grant ||| 0.246768436004491
affirmation ||| word ||| 0.681136955886369
affirmation ||| approof ||| 0.0286146503870408
affirmation ||| saying ||| 0.233019058980338
affirmation ||| protestation ||| 0.0364763558671482
affirmation ||| position ||| 0.0207529788791036
affirmations ||| sayings ||| 0.0333215124454789
affirmations ||| protestations ||| 0.0140935598976543
affirmations ||| words ||| 0.952584927656867
affirmed ||| professed ||| 0.126942562158545
affirmed ||| granted ||| 0.592059371355743
affirmed ||| avouched ||| 0.035988211132424
affirmed ||| protested ||| 0.035988211132424
affirmed ||| passed ||| 0.209021644220864
affirms ||| protests ||| 0.5
affirms ||| grants ||| 0.5
afflict ||| vex ||| 0.120697756846922
afflict ||| cross ||| 0.314956226749686
afflict ||| pine ||| 0.0818459509170446
afflict ||| haunt ||| 0.0818459509170446
afflict ||| inflict ||| 0.00851738343768213
afflict ||| afflict ||| 0.0883212483560549
afflict ||| grind ||| 0.0300436849302572
afflict ||| punish ||| 0.13364822612472
afflict ||| torture ||| 0.140123571720588
afflicted ||| vexed ||| 0.119428028844221
afflicted ||| pinched ||| 0.0643910140194532
afflicted ||| haunted ||| 0.185052205010249
afflicted ||| punished ||| 0.250676293355587
afflicted ||| afflicted ||| 0.185052205010249
afflicted ||| pestered ||| 0.0431600823197133
afflicted ||| crossed ||| 0.152240171440527
afflicting ||| painful ||| 0.834651208040969
afflicting ||| altering ||| 0.165348791959031
affliction ||| vexation ||| 0.02535782265469
affliction ||| harm ||| 0.128083728156952
affliction ||| cross ||| 0.142758823494333
affliction ||| stroke ||| 0.0664481601047068
affliction ||| affliction ||| 0.0459029884068607
affliction ||| ill ||| 0.260159662304109
affliction ||| weight ||| 0.0664481601047068
affliction ||| evil ||| 0.104603438353595
affliction ||| languor ||| 0.00386063692520672
affliction ||| plague ||| 0.0899284193901334
affliction ||| sore ||| 0.0664481601047068
afflictioned ||| crossed ||| 1
afflictions ||| evils ||| 0.250473058948045
afflictions ||| weights ||| 0.0238148044476636
afflictions ||| plagues ||| 0.129118365498818
afflictions ||| sores ||| 0.0805764296243295
afflictions ||| harms ||| 0.141253760871807
afflictions ||| afflictions ||| 0.0563055259673283
afflictions ||| vexations ||| 0.0238148044476636
afflictions ||| ills ||| 0.0684409485086946
afflictions ||| strokes ||| 0.22620230168565
afflicts ||| tortures ||| 0.156368226822156
afflicts ||| haunts ||| 0.511782594217069
afflicts ||| afflicts ||| 0.116245329112363
afflicts ||| pines ||| 0.215603849848412
affluence ||| opulency ||| 0.265456570045247
affluence ||| fulness ||| 0.734543429954753
affluent ||| warm ||| 0.771999410974565
affluent ||| possessed ||| 0.228000589025435
affluented ||| warmed ||| 1
affluents ||| warms ||| 1
afford ||| serve ||| 0.603240915672061
afford ||| maintain ||| 0.220872064468577
afford ||| afford ||| 0.175887019859363
afforded ||| maintained ||| 1
affords ||| serves ||| 0.637978605720604
affords ||| affords ||| 0.284196755225544
affords ||| maintains ||| 0.0778246390538524
affront ||| shame ||| 0.633458143764249
affront ||| affront ||| 0.0238579939338948
affront ||| injury ||| 0.109070906802846
affront ||| beard ||| 0.23361295549901
affronted ||| affronted ||| 0.401298394798379
affronted ||| bearded ||| 0.598701605201621
affronts ||| shames ||| 0.687974374710083
affronts ||| beards ||| 0.312025625289917
afoot ||| abroach ||| 0.0952527001691041
afoot ||| afoot ||| 0.904747299830896
aforesaid ||| prenominate ||| 0.298939624584759
aforesaid ||| foresaid ||| 0.402120750830483
aforesaid ||| aforesaid ||| 0.298939624584759
afraid ||| afeard ||| 0.5
afraid ||| afraid ||| 0.5
africa ||| afric ||| 1
african ||| ethiope ||| 0.586009578927143
african ||| african ||| 0.166133691438442
african ||| afric ||| 0.247856729634414
africans ||| ethiopes ||| 1
afternoon ||| afternoon ||| 0.649704334130345
afternoon ||| after-dinner ||| 0.350295665869655
afterwards ||| eftsoons ||| 0.0671282358366307
afterwards ||| afterward ||| 0.287817524721048
afterwards ||| afterwards ||| 0.645054239442322
afterwardss ||| afterwards ||| 1
against ||| upon ||| 0.0772475583449986
against ||| on ||| 0.12085976933688
against ||| against ||| 0.0349603491305815
against ||| unto ||| 0.0318688036956877
against ||| of ||| 0.446349200347023
against ||| into ||| 0.0339666535090027
against ||| again ||| 0.0342978392915592
against ||| with ||| 0.220449826344267
age ||| while ||| 0.112845029987485
age ||| count ||| 0.0849766167776265
age ||| years ||| 0.12570728198853
age ||| time ||| 0.427972078824763
age ||| date ||| 0.0292398699232988
age ||| age ||| 0.16215092716875
age ||| season ||| 0.0571081953295462
aged ||| winter ||| 0.284603190539738
aged ||| ancient ||| 0.30152391572907
aged ||| aunchient ||| 0.0477141030763478
aged ||| aged ||| 0.191539683045941
aged ||| grey ||| 0.174619107608903
ageds ||| winters ||| 0.834651208040969
ageds ||| ancients ||| 0.165348791959031
ageed ||| counted ||| 0.779119619912717
ageed ||| seasoned ||| 0.220880380087283
agency ||| hand ||| 0.842905468722506
agency ||| benefit ||| 0.134476027566306
agency ||| serving ||| 0.0226185037111888
agencyed ||| handed ||| 0.598701605201621
agencyed ||| benefited ||| 0.401298394798379
agencys ||| benefits ||| 0.0646170948642711
agencys ||| hands ||| 0.935382905135729
agent ||| executor ||| 0.00284939757270546
agent ||| attorney ||| 0.0143832506912834
agent ||| procurator ||| 0.00284939757270546
agent ||| organ ||| 0.0122170133938591
agent ||| minister ||| 0.0598741071207943
agent ||| instrument ||| 0.0468768100040027
agent ||| speculation ||| 0.00571832783395123
agent ||| mean ||| 0.124861356841814
agent ||| factor ||| 0.00788455251268808
agent ||| man ||| 0.666420042590466
agent ||| secondary ||| 0.00425104840375318
agent ||| agent ||| 0.0122170133938591
agent ||| broker ||| 0.0122170133938591
agent ||| motive ||| 0.0273806686742592
agented ||| attorneyed ||| 1
agents ||| speculations ||| 0.00825463091574762
agents ||| attorneys ||| 0.0123151770444734
agents ||| ministers ||| 0.104423118696672
agents ||| motives ||| 0.0291168681394683
agents ||| mans ||| 0.0123151770444734
agents ||| agents ||| 0.0165658475239367
agents ||| organs ||| 0.0228413442727384
agents ||| means ||| 0.637842803137315
agents ||| instruments ||| 0.123249923869744
agents ||| executors ||| 0.0165658475239367
agents ||| factors ||| 0.00825463091574762
agents ||| brokers ||| 0.00825463091574762
ages ||| ages ||| 0.10447674623677
ages ||| whiles ||| 0.212491048134168
ages ||| seasons ||| 0.0651988054371947
ages ||| dates ||| 0.0357404189266915
ages ||| times ||| 0.516894175827981
ages ||| counts ||| 0.0651988054371947
aggravate ||| grate ||| 0.224096086195534
aggravate ||| rub ||| 0.655079896464758
aggravate ||| aggravate ||| 0.120824017339708
aggravates ||| grates ||| 0.189122517567645
aggravates ||| rubs ||| 0.810877482432355
aggravating ||| fretful ||| 0.573589329723998
aggravating ||| corrosive ||| 0.426410670276002
aggrieved ||| aggrieved ||| 0.0671282449355345
aggrieved ||| grieved ||| 0.798155099468142
aggrieved ||| grudging ||| 0.134716655596324
agility ||| dexterity ||| 1
agitate ||| quake ||| 1
agitated ||| distracted ||| 0.0246355931727226
agitated ||| bustling ||| 0.00278398585027946
agitated ||| moved ||| 0.0944802477919963
agitated ||| up ||| 0.79716096390227
agitated ||| muddied ||| 0.00558705599017684
agitated ||| wild ||| 0.0711986933758797
agitated ||| heaving ||| 0.00415345991667457
agitateds ||| wilds ||| 0.5
agitateds ||| heavings ||| 0.5
agitates ||| quakes ||| 1
agitation ||| vexation ||| 0.0504186671822985
agitation ||| stir ||| 0.225489000163522
agitation ||| taking ||| 0.0854327450419646
agitation ||| agitation ||| 0.0114520005686772
agitation ||| frenzy ||| 0.0562543823814189
agitation ||| confusion ||| 0.149625068043926
agitation ||| distraction ||| 0.0562543823814189
agitation ||| alarum ||| 0.0504186671822985
agitation ||| commotion ||| 0.0212403838496287
agitation ||| motion ||| 0.278009963623788
agitation ||| alarm ||| 0.0154047395810585
agitations ||| stirs ||| 0.308960780241048
agitations ||| commotions ||| 0.0381961291561766
agitations ||| alarums ||| 0.105692301066763
agitations ||| motions ||| 0.337998951600231
agitations ||| confusions ||| 0.0569852362598679
agitations ||| alarms ||| 0.0381961291561766
agitations ||| vexations ||| 0.0569852362598679
agitations ||| distractions ||| 0.0569852362598679
agitator ||| discontent ||| 0.879931067004465
agitator ||| putter-on ||| 0.120068932995535
agitatored ||| discontented ||| 1
agitators ||| discontents ||| 1
ago ||| since ||| 0.889688758141744
ago ||| agone ||| 0.0171777035299315
ago ||| ago ||| 0.0931335383283249
agonize ||| throe ||| 1
agonizes ||| throes ||| 1
agree ||| stand ||| 0.293753760922233
agree ||| seal ||| 0.113354152845459
agree ||| appoint ||| 0.0151621027553092
agree ||| jump ||| 0.0220127061193336
agree ||| hit ||| 0.0813846379066326
agree ||| compound ||| 0.0265797832802651
agree ||| cohere ||| 0.00300369226090668
agree ||| yield ||| 0.127055490044509
agree ||| adhere ||| 0.00448124239081502
agree ||| accord ||| 0.0197291527633768
agree ||| close ||| 0.140756492314999
agree ||| condescend ||| 0.00448124239081502
agree ||| agree ||| 0.0311468718182885
agree ||| sympathize ||| 0.0105950359725369
agree ||| consent ||| 0.106503636214521
agreeable ||| lusty ||| 0.0836629768753295
agreeable ||| contented ||| 0.045324008620658
agreeable ||| content ||| 0.232758373375225
agreeable ||| dulcet ||| 0.0197647494566312
agreeable ||| grateful ||| 0.0155048765767284
agreeable ||| easy ||| 0.113481825530633
agreeable ||| gracious ||| 0.177379862324219
agreeable ||| kind ||| 0.300916715930236
agreeable ||| coherent ||| 0.00560330565516971
agreeable ||| coming-on ||| 0.00560330565516971
agreeableed ||| contented ||| 1
agreeableness ||| prettiness ||| 1
agreeables ||| contents ||| 0.776421294201144
agreeables ||| kinds ||| 0.223578705798856
agreed ||| advised ||| 0.322732048494251
agreed ||| accept ||| 0.342127587199739
agreed ||| agreed ||| 0.283941645352082
agreed ||| avised ||| 0.0511987189539274
agreeded ||| accepted ||| 1
agreeds ||| accepts ||| 1
agreeed ||| consented ||| 0.102171680814754
agreeed ||| appointed ||| 0.319568186391715
agreeed ||| yielded ||| 0.301451561599968
agreeed ||| sealed ||| 0.138404285596782
agreeed ||| compounded ||| 0.138404285596782
agreeing ||| agreeing ||| 0.125859069470088
agreeing ||| according ||| 0.782860744501873
agreeing ||| closing ||| 0.0912801860280387
agreement ||| compact ||| 0.0483715292278034
agreement ||| yielding ||| 0.0317486174185073
agreement ||| match ||| 0.168887620744059
agreement ||| indenture ||| 0.015125781325652
agreement ||| paction ||| 0.00546630446372569
agreement ||| constancy ||| 0.05252726851023
agreement ||| sympathy ||| 0.0359043292216023
agreement ||| accord ||| 0.0359043292216023
agreement ||| order ||| 0.210444615135682
agreement ||| composition ||| 0.05252726851023
agreement ||| obligation ||| 0.0192815000337387
agreement ||| agreement ||| 0.0109700805753461
agreement ||| condition ||| 0.119018868589773
agreement ||| consent ||| 0.193821887022048
agreemented ||| consented ||| 0.550653513110512
agreemented ||| ordered ||| 0.191606136660713
agreemented ||| matched ||| 0.257740350228775
agreements ||| orders ||| 0.130645084371283
agreements ||| indentures ||| 0.0743296475802234
agreements ||| consents ||| 0.130645084371283
agreements ||| accords ||| 0.0743296475802234
agreements ||| obligations ||| 0.0370378760269147
agreements ||| conditions ||| 0.553012660070073
agrees ||| agrees ||| 0.0416670980354486
agrees ||| yields ||| 0.10077208735141
agrees ||| jumps ||| 0.0268908948464403
agrees ||| compounds ||| 0.0268908948464403
agrees ||| adheres ||| 0.0195028129031802
agrees ||| seals ||| 0.0638313830435112
agrees ||| hits ||| 0.0638313830435112
agrees ||| consents ||| 0.0342790087153763
agrees ||| closes ||| 0.0195028129031802
agrees ||| stands ||| 0.57361071385237
agrees ||| accords ||| 0.0195028129031802
agrees ||| appoints ||| 0.00971809755595144
agriculture ||| tilth ||| 1
ahead ||| forward ||| 0.0960368140288183
ahead ||| before ||| 0.903963185971182
ahem ||| hem ||| 1
ahems ||| hems ||| 1
aid ||| relief ||| 0.0326021934040945
aid ||| advantage ||| 0.133720446923393
aid ||| avail ||| 0.011152874607625
aid ||| aidance ||| 0.00403053613816578
aid ||| accommodate ||| 0.00403053613816578
aid ||| aid ||| 0.124527944466857
aid ||| furtherance ||| 0.00808870169799997
aid ||| speed ||| 0.167426353849532
aid ||| hand ||| 0.415625150044437
aid ||| relieve ||| 0.0264737717052878
aid ||| vantage ||| 0.0663082886617572
aid ||| contribution ||| 0.00601320236268422
aide ||| companion ||| 1
aide-memoire ||| remembrancer ||| 1
aided ||| speeded ||| 0.286376118240054
aided ||| aided ||| 0.286376118240054
aided ||| handed ||| 0.427247763519891
aides ||| assistance ||| 0.440918756370959
aides ||| companions ||| 0.491952955248685
aides ||| accomplices ||| 0.0671282883803558
aids ||| vantages ||| 0.0368258736947159
aids ||| relieves ||| 0.0133084984784643
aids ||| hands ||| 0.82600572857909
aids ||| advantages ||| 0.0671789264418325
aids ||| speeds ||| 0.0368258736947159
aids ||| avails ||| 0.0198550991111817
ailing ||| sick ||| 1
ailment ||| mischief ||| 0.922993130495609
ailment ||| distemperature ||| 0.0770068695043906
ailments ||| distemperatures ||| 0.165348791959031
ailments ||| mischiefs ||| 0.834651208040969
aim ||| intent ||| 0.0586609834093663
aim ||| working ||| 0.0250157391304475
aim ||| purpose ||| 0.139805526490442
aim ||| hit ||| 0.070535758254771
aim ||| aim ||| 0.0566818921426099
aim ||| end ||| 0.187304555158793
aim ||| mark ||| 0.131888928315211
aim ||| level ||| 0.0250157391304475
aim ||| point ||| 0.102201986989231
aim ||| mete ||| 0.00260328873650704
aim ||| butt ||| 0.0190783292437564
aim ||| study ||| 0.0527235129373299
aim ||| drift ||| 0.0269948761520274
aim ||| scope ||| 0.034911405973661
aim ||| bend ||| 0.0665774779353998
aimed ||| ended ||| 0.575334298818307
aimed ||| pointed ||| 0.129333272161332
aimed ||| bended ||| 0.157208225451814
aimed ||| aimed ||| 0.0366659773195382
aimed ||| marked ||| 0.10145822624901
aimless ||| shapeless ||| 1
aims ||| levels ||| 0.0107468447586667
aims ||| points ||| 0.160461177715256
aims ||| marks ||| 0.14412057143117
aims ||| aims ||| 0.0460779315656161
aims ||| ends ||| 0.283014036418381
aims ||| purposes ||| 0.160461177715256
aims ||| butts ||| 0.0215673593953008
aims ||| hits ||| 0.0705885035985773
aims ||| bends ||| 0.0160333390097387
aims ||| intents ||| 0.0869290583920375
air ||| region ||| 0.0756553345949398
air ||| visage ||| 0.145708724444191
air ||| vent ||| 0.128195433809152
air ||| air ||| 0.574785172556777
air ||| element ||| 0.0756553345949398
aired ||| aired ||| 0.401298394798379
aired ||| vented ||| 0.598701605201621
airing ||| vent ||| 1
airinged ||| vented ||| 1
airings ||| vents ||| 1
airs ||| visages ||| 0.137238176076017
airs ||| regions ||| 0.174943550992126
airs ||| elements ||| 0.438881159413119
airs ||| vents ||| 0.0739935625266129
airs ||| airs ||| 0.174943550992126
airy ||| airy ||| 0.889974452121673
airy ||| aerial ||| 0.110025547878327
alack ||| well-a-near ||| 0.189122517567645
alack ||| alack ||| 0.810877482432355
alacrity ||| legerity ||| 0.0435053555959271
alacrity ||| celerity ||| 0.186532590997958
alacrity ||| alacrity ||| 0.120383432647331
alacrity ||| spur ||| 0.649578620758784
alacritys ||| spurs ||| 1
alarm ||| alarum ||| 0.15954064823868
alarm ||| scarre ||| 0.0242894875498211
alarm ||| amazement ||| 0.15954064823868
alarm ||| alarm ||| 0.0487454801179869
alarm ||| surprise ||| 0.14107477046481
alarm ||| start ||| 0.325734194925211
alarm ||| amaze ||| 0.14107477046481
alarmed ||| gasted ||| 0.124151544891842
alarmed ||| affrighted ||| 0.532309391059033
alarmed ||| started ||| 0.343539064049125
alarming ||| fearful ||| 1
alarms ||| starts ||| 0.57945050711112
alarms ||| alarms ||| 0.0882192471548498
alarms ||| amazes ||| 0.0882192471548498
alarms ||| alarums ||| 0.24411099857918
alas ||| alas ||| 0.898467228547018
alas ||| well-a-near ||| 0.101532771452982
alcohol ||| aqua-vitae ||| 1
alcohol-crazed ||| sodden-witted ||| 1
ale-house ||| red-lattice ||| 0.132130063689701
ale-house ||| ale ||| 0.867869936310299
ale-houses ||| ales ||| 0.5
ale-houses ||| ale-houses ||| 0.5
alehouse ||| alehouse ||| 0.667426599539287
alehouse ||| tap-house ||| 0.332573400460713
alembic ||| limbeck ||| 1
alert ||| sprag ||| 0.0111932788891017
alert ||| ingenious ||| 0.0650112212861505
alert ||| ready ||| 0.481982560678576
alert ||| hawking ||| 0.0309728610832251
alert ||| quick ||| 0.371357607097405
alert ||| heedful ||| 0.0394824709655417
alien ||| strange ||| 0.854018067773816
alien ||| alien ||| 0.0137598296988816
alien ||| stranger ||| 0.132222102527302
alienate ||| wean ||| 0.172764386755132
alienate ||| stranger ||| 0.827235613244868
alienated ||| removed ||| 1
alienates ||| strangers ||| 1
aliens ||| strangers ||| 1
alight ||| alight ||| 0.00977280536908168
alight ||| pitch ||| 0.160777121761062
alight ||| light ||| 0.829450072869857
alighted ||| alighted ||| 0.221469735575429
alighted ||| lighted ||| 0.557060528849142
alighted ||| pitched ||| 0.221469735575429
alights ||| lights ||| 1
alike ||| like ||| 0.683746128771328
alike ||| indifferently ||| 0.00754186719209698
alike ||| alike ||| 0.0481791219072928
alike ||| even ||| 0.239987090444269
alike ||| indifferent ||| 0.0205457916850133
alikes ||| likes ||| 1
alive ||| quick ||| 0.448601989212364
alive ||| alive ||| 0.551398010787636
all-absorbing ||| engrossing ||| 1
all-devouring ||| cormorant ||| 1
all-embracing ||| general ||| 0.956966683448069
all-embracing ||| inclusive ||| 0.0430333165519305
all-embracings ||| generals ||| 1
all-excelling ||| excellent ||| 1
all-inclusive ||| unlimited ||| 0.401298394798379
all-inclusive ||| unrespective ||| 0.598701605201621
allay ||| lay ||| 0.393020585680047
allay ||| allay ||| 0.0441848412019656
allay ||| smooth ||| 0.106476875489624
allay ||| delay ||| 0.118935444087068
allay ||| atone ||| 0.0192679849535605
allay ||| kill ||| 0.309964743547584
allay ||| stanch ||| 0.00814952504015016
allayed ||| killed ||| 0.913175872410707
allayed ||| smoothed ||| 0.086824127589293
allays ||| lays ||| 0.346937488980169
allays ||| smooths ||| 0.0392062433195934
allays ||| kills ||| 0.37674390144051
allays ||| allays ||| 0.0392062433195934
allays ||| delays ||| 0.197906122940134
allegation ||| attainder ||| 0.734543429954753
allegation ||| allegation ||| 0.265456570045247
allegations ||| objections ||| 0.667426599539287
allegations ||| allegations ||| 0.332573400460713
allege ||| appeal ||| 0.917558172942677
allege ||| allege ||| 0.0824418270573231
alleges ||| appeals ||| 1
allegiance ||| fealty ||| 0.0389127847137911
allegiance ||| subscription ||| 0.0110317728602441
allegiance ||| allegiance ||| 0.189875666491742
allegiance ||| truth ||| 0.760179775934222
allegiances ||| truths ||| 1
allegorical ||| moral ||| 1
allegory ||| moral ||| 0.934083703976778
allegory ||| emblem ||| 0.065916296023222
allegorys ||| emblems ||| 1
alleviate ||| season ||| 1
alleviateed ||| seasoned ||| 1
alleviates ||| seasons ||| 1
alliance ||| confederacy ||| 0.147018218278866
alliance ||| combination ||| 0.0836450326863006
alliance ||| alliance ||| 0.337138348618402
alliance ||| league ||| 0.432198400416431
alliances ||| leagues ||| 1
allied ||| compact ||| 0.638077202488918
allied ||| allied ||| 0.254345599523578
allied ||| conjunctive ||| 0.107577197987503
allocation ||| allottery ||| 1
allot ||| rate ||| 0.916854557649371
allot ||| allot ||| 0.0831454423506289
allotment ||| lottery ||| 1
allots ||| rates ||| 1
allow ||| serve ||| 0.104765172957748
allow ||| beteem ||| 0.00383284215413394
allow ||| endure ||| 0.0500776492871029
allow ||| afford ||| 0.0305463929548942
allow ||| suffer ||| 0.0989058396757433
allow ||| vouchsafe ||| 0.0383589697489365
allow ||| brook ||| 0.0559370983550173
allow ||| use ||| 0.198515277104584
allow ||| admit ||| 0.0266401664679492
allow ||| entertain ||| 0.0520307318142689
allow ||| allow ||| 0.0461713884082249
allow ||| give ||| 0.294218471071397
allowable ||| lawful ||| 1
allowance ||| exhibition ||| 0.0284300891774009
allowance ||| borrow ||| 0.157107609996428
allowance ||| allowance ||| 0.0468125417051553
allowance ||| size ||| 0.0590675859554182
allowance ||| leave ||| 0.708582173165597
allowanceed ||| borrowed ||| 1
allowances ||| leaves ||| 0.864163318342637
allowances ||| sizes ||| 0.0475830008506901
allowances ||| borrows ||| 0.0882536808066724
allowed ||| allowed ||| 0.32880885154134
allowed ||| suffered ||| 0.371848043053218
allowed ||| entertained ||| 0.242730583694648
allowed ||| brooked ||| 0.0566125217107943
allows ||| serves ||| 0.179213232266022
allows ||| affords ||| 0.0798331145383115
allows ||| brooks ||| 0.0549881454530993
allows ||| gives ||| 0.444226101370729
allows ||| endures ||| 0.0108934406793445
allows ||| allows ||| 0.0301431804051804
allows ||| vouchsafes ||| 0.0108934406793445
allows ||| suffers ||| 0.0715513896276096
allows ||| uses ||| 0.0798331145383115
allows ||| admits ||| 0.0384248404420472
alluring ||| alluring ||| 0.265456570045247
alluring ||| tickling ||| 0.734543429954753
alluringly ||| wooingly ||| 1
allusion ||| collusion ||| 0.5
allusion ||| allusion ||| 0.5
allusions ||| applications ||| 1
ally ||| partaker ||| 0.0352769136328049
ally ||| ally ||| 0.0352769136328049
ally ||| corrival ||| 0.0175782073005771
ally ||| league ||| 0.182277717565218
ally ||| favourite ||| 0.0175782073005771
ally ||| confederate ||| 0.102095260553573
ally ||| join ||| 0.609916780014446
allyed ||| joined ||| 1
allys ||| corrivals ||| 0.0515580338820165
allys ||| favourites ||| 0.181862579853087
allys ||| leagues ||| 0.377845581155803
allys ||| confederates ||| 0.260255758472699
allys ||| partakers ||| 0.0515580338820165
allys ||| joins ||| 0.0769200127543783
almost ||| like ||| 0.829796303160652
almost ||| nigh ||| 0.0209890361557665
almost ||| almost ||| 0.149214660683582
almosts ||| likes ||| 1
almsgiving ||| alms-deed ||| 1
almsman ||| beadsman ||| 0.5
almsman ||| almsman ||| 0.5
aloft ||| a-high ||| 0.0991198338530381
aloft ||| a-height ||| 0.0991198338530381
aloft ||| aloft ||| 0.801760332293924
alone ||| very ||| 0.107061565116091
alone ||| only ||| 0.0992497880465705
alone ||| solely ||| 0.00648362051834714
alone ||| solus ||| 0.00191626950309392
alone ||| all ||| 0.62752869267145
alone ||| single ||| 0.0260133082944219
alone ||| alone ||| 0.0943673127358267
alone ||| odd ||| 0.0191779679266752
alone ||| sole ||| 0.0182014751875231
alones ||| soles ||| 0.10872350694411
alones ||| odds ||| 0.89127649305589
aloof ||| strange ||| 0.894393068328392
aloof ||| aloof ||| 0.105606931671608
aloofness ||| strangeness ||| 1
alphabet ||| cross-row ||| 0.5
alphabet ||| alphabet ||| 0.5
already ||| first ||| 0.589022032517229
already ||| already ||| 0.410977967482771
also ||| like ||| 0.933595329149132
also ||| eke ||| 0.00585884043549157
also ||| lamely ||| 0.00807829428785555
also ||| also ||| 0.0524675361275213
alsos ||| likes ||| 1
altar-server ||| clerk ||| 1
altar-servers ||| clerks ||| 1
alter ||| convert ||| 0.0363223020010837
alter ||| turn ||| 0.610717500321753
alter ||| translate ||| 0.0308518609295989
alter ||| raze ||| 0.0199110134180457
alter ||| alter ||| 0.10743811128807
alter ||| transpose ||| 0.0107352550029544
alter ||| bend ||| 0.184023957038495
altercation ||| question ||| 0.611319549997472
altercation ||| parley ||| 0.109059696496212
altercation ||| parle ||| 0.0783089290743897
altercation ||| council ||| 0.201311824431927
altercations ||| councils ||| 0.0363122826387633
altercations ||| word ||| 0.864369731005142
altercations ||| parles ||| 0.0131228918627636
altercations ||| questions ||| 0.0861950944933305
altercationss ||| words ||| 1
altered ||| converted ||| 0.111789344581979
altered ||| bended ||| 0.173216161329509
altered ||| altered ||| 0.0810760179012821
altered ||| turned ||| 0.633918476187229
alternate ||| wave ||| 1
alternates ||| waves ||| 1
alternative ||| boot ||| 0.0874366392121789
alternative ||| remedy ||| 0.163530007383614
alternative ||| reason ||| 0.620091040426011
alternative ||| difference ||| 0.128942312978196
alternativeed ||| reasoned ||| 1
alternatives ||| differences ||| 0.112692389071925
alternatives ||| reasons ||| 0.67278079543156
alternatives ||| boots ||| 0.214526815496515
alters ||| alters ||| 0.0344379953769165
alters ||| turns ||| 0.828367141143343
alters ||| bends ||| 0.0513784340514119
alters ||| translates ||| 0.0344379953769165
alters ||| converts ||| 0.0513784340514119
although ||| albeit ||| 0.00406166575410554
although ||| although ||| 0.00713896382409665
although ||| all ||| 0.988799370421798
alto ||| mean ||| 1
altogether ||| high ||| 0.0858459758875292
altogether ||| right ||| 0.119398519576151
altogether ||| solely ||| 0.00795642442619372
altogether ||| all-thing ||| 0.00157620950465321
altogether ||| altogether ||| 0.0151462437609752
altogether ||| all ||| 0.770076626844497
altogethers ||| rights ||| 1
altos ||| means ||| 1
always ||| evermore ||| 0.0571055162702839
always ||| aye ||| 0.0242437648067286
always ||| alway ||| 0.00480281725433589
always ||| still ||| 0.769111069791599
always ||| always ||| 0.144736831877052
alwayss ||| always ||| 1
amass ||| recollect ||| 1
amassed ||| uphoarded ||| 0.5
amassed ||| recollected ||| 0.5
amassing ||| more-having ||| 1
amateurish ||| rude ||| 1
amaze ||| confound ||| 0.47257578126196
amaze ||| astonish ||| 0.135704566167383
amaze ||| mate ||| 0.207890891187437
amaze ||| amaze ||| 0.183828761383219
amazed ||| agazed ||| 0.0573017270281461
amazed ||| amazed ||| 0.942698272971854
amazeed ||| astonished ||| 0.146884749107465
amazeed ||| confounded ||| 0.853115250892535
amazement ||| wonder ||| 0.544303165778207
amazement ||| marvel ||| 0.171490813404229
amazement ||| amazement ||| 0.0947353055681016
amazement ||| admiration ||| 0.105700455848615
amazement ||| amaze ||| 0.083770259400847
amazemented ||| wondered ||| 1
amazements ||| wonders ||| 0.856011560338697
amazements ||| marvels ||| 0.0719942198306518
amazements ||| amazes ||| 0.0719942198306518
amazes ||| mates ||| 0.625965772240905
amazes ||| amazes ||| 0.0707382948102701
amazes ||| confounds ||| 0.303295932948825
amazing ||| wonderful ||| 0.444987226060836
amazing ||| amazing ||| 0.0550127739391637
amazing ||| mervailous ||| 0.0550127739391637
amazing ||| admired ||| 0.444987226060836
amazon-like ||| amazonian ||| 1
ambiguous ||| double ||| 0.497734253769992
ambiguous ||| ambiguous ||| 0.0189003797268534
ambiguous ||| wanton ||| 0.483365366503155
ambiguously ||| doubtfully ||| 1
ambiguouss ||| wantons ||| 1
ambit ||| circuit ||| 1
ambitious ||| emulate ||| 0.0694858215074158
ambitious ||| mounting ||| 0.164285864107978
ambitious ||| ambitious ||| 0.766228314384606
ambitiously ||| ambitiously ||| 0.125778265010445
ambitiously ||| highly ||| 0.874221734989555
ameliorate ||| amend ||| 1
ameliorateed ||| amended ||| 1
ameliorates ||| amends ||| 1
amenable ||| easy ||| 0.0993150847057194
amenable ||| good ||| 0.856115218715216
amenable ||| contented ||| 0.0396658912941819
amenable ||| coming-on ||| 0.00490380528488236
amenables ||| goods ||| 1
amend ||| amend ||| 0.313801375624088
amend ||| mend ||| 0.686198624375912
amended ||| amended ||| 0.234031332295521
amended ||| mended ||| 0.765968667704478
amendment ||| amendment ||| 0.156349825442417
amendment ||| redress ||| 0.843650174557583
amends ||| mends ||| 0.118202308283909
amends ||| amends ||| 0.881797691716091
amenity ||| accommodation ||| 1
amenitys ||| accommodations ||| 1
amiss ||| amiss ||| 0.5839662835484
amiss ||| bias ||| 0.270674767858442
amiss ||| across ||| 0.145358948593159
amity ||| amity ||| 0.761788630198466
amity ||| quietness ||| 0.238211369801534
among ||| within ||| 0.72194666217234
among ||| among ||| 0.27805333782766
amorous ||| assailing ||| 0.0349425373856905
amorous ||| amorous ||| 0.27847963336376
amorous ||| sportive ||| 0.0470032013620602
amorous ||| jolly ||| 0.100420744887192
amorous ||| lovely ||| 0.438733138114106
amorous ||| amiable ||| 0.100420744887192
amorousness ||| fancy ||| 1
amount ||| degree ||| 0.186693478125323
amount ||| deal ||| 0.156227379001608
amount ||| rate ||| 0.131854861453397
amount ||| amount ||| 0.0221776306684211
amount ||| proportion ||| 0.119668582499173
amount ||| measure ||| 0.296370618676305
amount ||| scale ||| 0.0587366464169173
amount ||| pennyworth ||| 0.0282708031588558
amounts ||| rates ||| 0.130803153884996
amounts ||| pennyworths ||| 0.0455144412633776
amounts ||| degrees ||| 0.246768780967078
amounts ||| proportions ||| 0.10761014477677
amounts ||| measures ||| 0.246768780967078
amounts ||| amounts ||| 0.061224072653072
amounts ||| scales ||| 0.130803153884996
amounts ||| deals ||| 0.0305074716026318
ample ||| ample ||| 0.207637600337912
ample ||| dilated ||| 0.0382970217205448
ample ||| pretty ||| 0.754065377941544
amply ||| amply ||| 0.10218597793792
amply ||| fruitfully ||| 0.10218597793792
amply ||| richly ||| 0.658171852995865
amply ||| largely ||| 0.137456191128296
amulets ||| periapts ||| 1
amuse ||| solace ||| 0.0873094281800411
amuse ||| disport ||| 0.0203633461559075
amuse ||| sport ||| 0.892327225664051
amusement ||| sport ||| 0.695131377438301
amusement ||| spleen ||| 0.212733993326633
amusement ||| recreation ||| 0.0921346292350663
amusements ||| sports ||| 0.785027514164564
amusements ||| spleens ||| 0.214972485835436
amuses ||| sports ||| 0.879931067004465
amuses ||| disports ||| 0.120068932995535
amusing ||| comic ||| 1
analogous ||| corresponsive ||| 1
analogy ||| figure ||| 0.539185460921178
analogy ||| compare ||| 0.460814539078822
analogys ||| applications ||| 0.132130063689701
analogys ||| figures ||| 0.867869936310299
anatagonist ||| opposite ||| 1
anatagonists ||| opposites ||| 1
ancestors ||| progenitors ||| 0.115998779251853
ancestors ||| ancestors ||| 0.806249426685955
ancestors ||| foregoers ||| 0.0777517940621917
ancestry ||| house ||| 0.57758845139548
ancestry ||| progeny ||| 0.0390424894070646
ancestry ||| race ||| 0.0979459541101815
ancestry ||| stock ||| 0.140019815525459
ancestry ||| breeding ||| 0.114775581336469
ancestry ||| ancestry ||| 0.0306277082253459
ancestrys ||| stocks ||| 0.308528498532885
ancestrys ||| houses ||| 0.691471501467115
anchorage ||| road ||| 0.867869936310299
anchorage ||| anchorage ||| 0.132130063689701
anchorages ||| roads ||| 1
anchorite ||| anchor ||| 1
anchorites ||| anchors ||| 1
ancient ||| antique ||| 0.0414046150160876
ancient ||| ancient ||| 0.193154464575629
ancient ||| antic ||| 0.035985020206175
ancient ||| stale ||| 0.101020787776177
ancient ||| old ||| 0.621306290754807
ancient ||| antiquary ||| 0.00712882167112412
ancients ||| antics ||| 0.598701605201621
ancients ||| ancients ||| 0.401298394798379
angel ||| angel ||| 0.798778557819356
angel ||| genius ||| 0.156775573550072
angel ||| cherubin ||| 0.0444458686305718
angelic ||| sainted ||| 0.734543429954753
angelic ||| cherubin ||| 0.265456570045247
angelics ||| cherubins ||| 1
angels ||| angels ||| 0.839189149477068
angels ||| cherubin ||| 0.0534814113893911
angels ||| cherubins ||| 0.107329439133541
angelss ||| cherubins ||| 1
anger ||| chafe ||| 0.0114927024590962
anger ||| anger ||| 0.0808489088846468
anger ||| despite ||| 0.0263547659166492
anger ||| stomach ||| 0.0536018974046925
anger ||| spirit ||| 0.264147292266374
anger ||| blood ||| 0.358273893306607
anger ||| heat ||| 0.0907570065710607
anger ||| incensement ||| 0.00325818067279528
anger ||| mood ||| 0.0362627856751462
anger ||| choler ||| 0.0362627856751462
anger ||| impatience ||| 0.0387397811677852
anger-arousing ||| incensing ||| 1
angered ||| heated ||| 0.0475696740198744
angered ||| moved ||| 0.583418471806496
angered ||| incensed ||| 0.21747291478234
angered ||| chafed ||| 0.0998474953897957
angered ||| spirited ||| 0.0171911993063014
angered ||| exasperate ||| 0.0345002446951926
angereds ||| exasperates ||| 1
angers ||| stomachs ||| 0.0978960267543926
angers ||| moods ||| 0.0369633279682694
angers ||| bloods ||| 0.118206964696877
angers ||| spirits ||| 0.656446089762638
angers ||| chafes ||| 0.0268079167227667
angers ||| heats ||| 0.0133581730633937
angers ||| angers ||| 0.0369633279682694
angers ||| cholers ||| 0.0133581730633937
angrily ||| hotly ||| 0.579623749659462
angrily ||| angerly ||| 0.420376250340538
angry ||| heated ||| 0.00295791045957388
angry ||| cross ||| 0.0395280165857067
angry ||| up ||| 0.306083573531169
angry ||| angry ||| 0.0338392729210162
angry ||| moody ||| 0.00864659312219751
angry ||| mad ||| 0.0671586601431478
angry ||| discontenting ||| 0.0010689589384086
angry ||| fretful ||| 0.00214524561591767
angry ||| eager ||| 0.00539591404762118
angry ||| ireful ||| 0.00214524561591767
angry ||| sharp ||| 0.0297759771910105
angry ||| out ||| 0.397914736376699
angry ||| enchafed ||| 0.00159479190700824
angry ||| bent ||| 0.02002396249241
angry ||| curst ||| 0.0118972619298569
angry ||| impatient ||| 0.011084599932876
angry ||| choleric ||| 0.00702124331048292
angry ||| hot ||| 0.0517180358789801
angryed ||| crossed ||| 1
angrys ||| bents ||| 0.286376118240054
angrys ||| sharps ||| 0.286376118240054
angrys ||| mads ||| 0.427247763519891
anguish ||| vexation ||| 0.433738432318312
anguish ||| anguish ||| 0.333333456261979
anguish ||| agony ||| 0.232928111419709
anguishs ||| vexations ||| 1
animal ||| deer ||| 0.886606094771905
animal ||| animal ||| 0.113393905228095
animated ||| fiery ||| 0.304045197817508
animated ||| sprightful ||| 0.0203633463688096
animated ||| quick ||| 0.675591455813682
animatedly ||| cheerly ||| 1
animating ||| quickening ||| 0.426410670276002
animating ||| vital ||| 0.573589329723998
animation ||| stirring ||| 0.926741251541309
animation ||| livelihood ||| 0.0732587484586913
annex ||| annex ||| 0.401298394798379
annex ||| adjunct ||| 0.598701605201621
anniversary ||| day ||| 1
anniversarys ||| days ||| 1
announce ||| open ||| 0.289545682112922
announce ||| publish ||| 0.0442375526823393
announce ||| pronounce ||| 0.0858151750753244
announce ||| say ||| 0.563957131451371
announce ||| bruit ||| 0.0109754691367502
announce ||| denounce ||| 0.00546898954129228
announceed ||| published ||| 0.286376118240054
announceed ||| opened ||| 0.286376118240054
announceed ||| bruited ||| 0.427247763519891
announcer ||| trumpet ||| 1
announcers ||| trumpets ||| 1
announces ||| opens ||| 0.0624533698794691
announces ||| says ||| 0.937546630120531
annoy ||| pinch ||| 0.335213824868687
annoy ||| rub ||| 0.150872789969667
annoy ||| molest ||| 0.0278272264036205
annoy ||| gall ||| 0.377753869300386
annoy ||| annoy ||| 0.10833228945764
annoyance ||| annoyance ||| 0.0601013854100963
annoyance ||| fret ||| 0.137822931498217
annoyance ||| gall ||| 0.345079756676076
annoyance ||| disease ||| 0.163730083434842
annoyance ||| spite ||| 0.293265842980769
annoyanceed ||| galled ||| 1
annoyances ||| galls ||| 0.110534783159905
annoyances ||| frets ||| 0.194280836005597
annoyances ||| diseases ||| 0.61301198233694
annoyances ||| spites ||| 0.0821723984975579
annoyed ||| pinched ||| 0.0201807378231098
annoyed ||| ill ||| 0.911538550296832
annoyed ||| galled ||| 0.0682807118800585
annoyeds ||| ills ||| 1
annoying ||| troublesome ||| 0.779119619912717
annoying ||| annoying ||| 0.220880380087283
annoys ||| galls ||| 0.318830166726043
annoys ||| rubs ||| 0.681169833273957
annul ||| recall ||| 0.483565739968146
annul ||| frustrate ||| 0.379343392709942
annul ||| disannul ||| 0.137090867321911
annulled ||| dissolved ||| 1
annuls ||| disannuls ||| 1
another ||| further ||| 0.395556602509437
another ||| another ||| 0.604443397490563
answer ||| replication ||| 0.0101063108669931
answer ||| quit ||| 0.105818756289857
answer ||| answer ||| 0.427412926718358
answer ||| resolve ||| 0.0828479282948127
answer ||| return ||| 0.373814077829979
answerable ||| answerable ||| 0.0596664118257158
answerable ||| accountant ||| 0.0443564643571907
answerable ||| guilty ||| 0.895977123817093
answered ||| answered ||| 0.522442023769036
answered ||| returned ||| 0.477557976230963
answers ||| resolves ||| 0.059101136804142
answers ||| returns ||| 0.350549082346266
answers ||| quits ||| 0.059101136804142
answers ||| answers ||| 0.53124864404545
ant-hill ||| bank ||| 1
ant-hills ||| banks ||| 1
antagonism ||| contrariety ||| 0.023507577551739
antagonism ||| offence ||| 0.976492422448261
antagonisms ||| offences ||| 1
antagonistic ||| stubborn ||| 0.26049946026223
antagonistic ||| adverse ||| 0.135941428043761
antagonistic ||| opposite ||| 0.331675832441945
antagonistic ||| wayward ||| 0.1893236321701
antagonistic ||| contending ||| 0.0825596470819639
antagonistics ||| opposites ||| 1
ante-room ||| lobby ||| 1
antic ||| gambol ||| 0.2281303086353
antic ||| antic ||| 0.7718696913647
anticipate ||| prevent ||| 0.0287441530608144
anticipate ||| think ||| 0.244870527500224
anticipate ||| tarry ||| 0.0530584448731166
anticipate ||| mistrust ||| 0.0314457180992743
anticipate ||| hope ||| 0.215153054851198
anticipate ||| forethink ||| 0.00355357525294696
anticipate ||| look ||| 0.423174526362426
anticipated ||| hopeful ||| 1
anticipateed ||| mistrusted ||| 0.0912802186163474
anticipateed ||| looked ||| 0.575386504642165
anticipateed ||| prevented ||| 0.333333276741488
anticipates ||| thinks ||| 0.165507105895503
anticipates ||| looks ||| 0.655853204043793
anticipates ||| anticipates ||| 0.00883542906576042
anticipates ||| prevents ||| 0.0177314252091778
anticipates ||| hopes ||| 0.152072835785767
anticipation ||| thought ||| 0.684481986867299
anticipation ||| anticipation ||| 0.00860425006005136
anticipation ||| project ||| 0.0630566687587351
anticipation ||| expect ||| 0.154635080061355
anticipation ||| expectation ||| 0.0892220142525603
anticipationed ||| expected ||| 1
anticipations ||| thoughts ||| 0.946170184931482
anticipations ||| expectations ||| 0.0134344304316136
anticipations ||| projects ||| 0.0134344304316136
anticipations ||| expects ||| 0.0269609542052904
antics ||| antics ||| 0.426410670276002
antics ||| gambols ||| 0.573589329723998
antipathy ||| dislike ||| 0.912045603289565
antipathy ||| antipathy ||| 0.0879543967104355
antipathys ||| dislikes ||| 1
antipodal ||| opposing ||| 1
antiquated ||| antique ||| 0.232075090234217
antiquated ||| antic ||| 0.201697970339378
antiquated ||| stale ||| 0.566226939426405
antiquateds ||| antics ||| 1
antiquities ||| reliques ||| 1
ants ||| pismires ||| 1
anvil ||| anvil ||| 0.5
anvil ||| stithy ||| 0.5
anxiety ||| thought ||| 0.45456271822666
anxiety ||| unrest ||| 0.0244994770002242
anxiety ||| suspicion ||| 0.0983487429682071
anxiety ||| jealousy ||| 0.0853166537492173
anxiety ||| care ||| 0.337272408055691
anxietys ||| thoughts ||| 0.787787536880493
anxietys ||| cares ||| 0.201026867729096
anxietys ||| suspicions ||| 0.0111855953904103
anxious ||| curious ||| 0.189314525202967
anxious ||| jealous ||| 0.523176148772545
anxious ||| careful ||| 0.287509326024489
anybody ||| body ||| 1
anyone ||| body ||| 1
anything ||| aught ||| 0.834921775876605
anything ||| anything ||| 0.165078224123395
anyway ||| too ||| 1
apartment ||| office ||| 1
apartments ||| offices ||| 0.922420504948241
apartments ||| apartments ||| 0.0775794950517591
apathetic ||| barren ||| 0.197823154218419
apathetic ||| cold ||| 0.802176845781581
apathy ||| coldness ||| 1
aperture ||| overture ||| 0.0904631359967802
aperture ||| orifex ||| 0.0326924628523616
aperture ||| bore ||| 0.512984967723313
aperture ||| vent ||| 0.363859433427545
apertureed ||| vented ||| 1
apertures ||| bores ||| 0.573589329723998
apertures ||| vents ||| 0.426410670276002
apex ||| point ||| 0.97516070905324
apex ||| apex ||| 0.0248392909467603
apexed ||| pointed ||| 1
apexs ||| points ||| 1
apostate ||| recreant ||| 1
apostates ||| recreants ||| 1
appal ||| appal ||| 0.204372248444061
appal ||| amaze ||| 0.795627751555939
appals ||| amazes ||| 0.401298394798379
appals ||| appals ||| 0.598701605201621
apparatus ||| device ||| 1
apparatuss ||| devices ||| 1
apparent ||| manifested ||| 0.0563786572312935
apparent ||| seeming ||| 0.583028423910484
apparent ||| palpable ||| 0.0718683589233012
apparent ||| apparent ||| 0.288724559934922
apparently ||| apparently ||| 0.0337662779074353
apparently ||| seeming ||| 0.966233722092565
apparition ||| show ||| 0.97184585224604
apparition ||| apparition ||| 0.02815414775396
apparitioned ||| showed ||| 1
apparitions ||| apparitions ||| 0.0212309882966873
apparitions ||| shows ||| 0.978769011703313
appealing ||| fair-faced ||| 0.0165966192513635
appealing ||| sweet ||| 0.901877663036167
appealing ||| flattering ||| 0.0815257177124697
appealings ||| sweets ||| 1
appear ||| stand ||| 0.27793695800288
appear ||| appear ||| 0.141819940844922
appear ||| show ||| 0.271454658999068
appear ||| eye ||| 0.254170006414971
appear ||| peer ||| 0.0251486281778991
appear ||| peep ||| 0.0294698075602598
appearance ||| seeing ||| 0.0328196581889314
appearance ||| favour ||| 0.069218957420041
appearance ||| likeness ||| 0.0176532655291147
appearance ||| countenance ||| 0.0373695659602463
appearance ||| appearance ||| 0.0146199892618194
appearance ||| face ||| 0.117751121894779
appearance ||| brow ||| 0.0479859451920016
appearance ||| complexion ||| 0.0267530963497225
appearance ||| showing ||| 0.0146199892618194
appearance ||| presence ||| 0.0464693987816405
appearance ||| impression ||| 0.0070368137069269
appearance ||| picture ||| 0.020686549352635
appearance ||| semblance ||| 0.0222031735528189
appearance ||| show ||| 0.190549605351323
appearance ||| hue ||| 0.0237198016824197
appearance ||| aspect ||| 0.0343362651223324
appearance ||| personage ||| 0.00400354812766711
appearance ||| outside ||| 0.0131033413148613
appearance ||| instance ||| 0.0267530963497225
appearance ||| beseeming ||| 0.0070368137069269
appearance ||| image ||| 0.0343362651223324
appearance ||| fashion ||| 0.069218957420041
appearance ||| seeming ||| 0.057085795005834
appearance ||| shape ||| 0.0646689863440433
appearanceed ||| showed ||| 1
appearances ||| images ||| 0.0353350631726651
appearances ||| instances ||| 0.0300133084876925
appearances ||| favours ||| 0.125804701638498
appearances ||| faces ||| 0.115161383082078
appearances ||| brows ||| 0.125804701638498
appearances ||| shapes ||| 0.0938743346937474
appearances ||| personages ||| 0.00700006176605145
appearances ||| complexions ||| 0.0300133084876925
appearances ||| semblances ||| 0.0104434711680098
appearances ||| presences ||| 0.00700006176605145
appearances ||| outsides ||| 0.00700006176605145
appearances ||| fashions ||| 0.0300133084876925
appearances ||| pictures ||| 0.0353350631726651
appearances ||| countenances ||| 0.0104434711680098
appearances ||| aspects ||| 0.0140481091230043
appearances ||| shows ||| 0.322709590381591
appeared ||| appeared ||| 0.575303874535928
appeared ||| showed ||| 0.424696125464072
appears ||| peers ||| 0.0769590059433095
appears ||| stands ||| 0.233039451490147
appears ||| peeps ||| 0.00589028691080611
appears ||| eyes ||| 0.437144933623321
appears ||| shows ||| 0.182013436494077
appears ||| appears ||| 0.0649528855383396
appease ||| qualify ||| 0.022047788010752
appease ||| lay ||| 0.449721887255991
appease ||| mitigate ||| 0.00932526161436218
appease ||| satisfy ||| 0.06956712001294
appease ||| appease ||| 0.0125439416312467
appease ||| please ||| 0.292907859090077
appease ||| atone ||| 0.022047788010752
appease ||| cease ||| 0.121838354373879
appeasement ||| atonement ||| 0.0843950456828256
appeasement ||| mollification ||| 0.0843950456828256
appeasement ||| sooth ||| 0.746814862951523
appeasement ||| reconcilement ||| 0.0843950456828256
appeasemented ||| soothed ||| 1
appeasements ||| atonements ||| 1
appeases ||| lays ||| 0.515150199585617
appeases ||| pleases ||| 0.42663440221553
appeases ||| ceases ||| 0.0582153981988532
appendage ||| pinion ||| 0.500855412023485
appendage ||| annexment ||| 0.249572293988258
appendage ||| appendix ||| 0.249572293988258
appendageed ||| pinioned ||| 1
appendix ||| appendix ||| 0.401298394798379
appendix ||| label ||| 0.598701605201621
appertain ||| appertain ||| 0.0487985057598709
appertain ||| lean ||| 0.951201494240129
appertaining ||| appertinent ||| 0.332573400460713
appertaining ||| appertaining ||| 0.667426599539287
appertainings ||| appertinents ||| 1
appertains ||| appertains ||| 0.265456570045247
appertains ||| leans ||| 0.734543429954753
appetising ||| liquorish ||| 1
appetite ||| tooth ||| 0.140605066136318
appetite ||| appetite ||| 0.315637045115843
appetite ||| affect ||| 0.228120843631995
appetite ||| stomach ||| 0.315637045115843
appetiteed ||| affected ||| 1
appetites ||| stomachs ||| 0.460807735196187
appetites ||| appetites ||| 0.173990589925631
appetites ||| affects ||| 0.365201674878182
appetizer ||| banquet ||| 1
appetizered ||| banqueted ||| 1
appetizers ||| banquets ||| 1
applicable ||| incident ||| 1
applied ||| blent ||| 0.107577127046981
applied ||| disposed ||| 0.747714739461492
applied ||| applied ||| 0.144708133491527
apply ||| apply ||| 0.0532389716297277
apply ||| lay ||| 0.369399801727515
apply ||| hold ||| 0.420141573876277
apply ||| employ ||| 0.103980681136753
apply ||| address ||| 0.0532389716297277
applyed ||| employed ||| 1
applys ||| lays ||| 0.22264438222311
applys ||| holds ||| 0.77735561777689
appoint ||| institute ||| 0.0101467504363439
appoint ||| appoint ||| 0.0343311205534551
appoint ||| style ||| 0.0446721627512944
appoint ||| name ||| 0.478998307470632
appoint ||| voice ||| 0.298029311051505
appoint ||| allot ||| 0.0101467504363439
appoint ||| ordain ||| 0.0343311205534551
appoint ||| stall ||| 0.0188194955808692
appoint ||| limit ||| 0.0705249811661017
appointed ||| ordained ||| 0.0492059173037333
appointed ||| appointed ||| 0.442302437146841
appointed ||| limited ||| 0.0912637547419461
appointed ||| determined ||| 0.41722789080748
appointing ||| nomination ||| 1
appointment ||| hour ||| 0.563210657090941
appointment ||| appointment ||| 0.0600614570870295
appointment ||| deputation ||| 0.0286146780511098
appointment ||| reference ||| 0.0286146780511098
appointment ||| match ||| 0.31949852971981
appointmented ||| matched ||| 1
appointments ||| hours ||| 0.959562234709545
appointments ||| appointments ||| 0.0404377652904554
appoints ||| limits ||| 0.127596159574754
appoints ||| voices ||| 0.378120830466993
appoints ||| names ||| 0.41152441200977
appoints ||| stalls ||| 0.0607897843953254
appoints ||| appoints ||| 0.0219688135531581
apportion ||| rate ||| 0.225603929202052
apportion ||| deal ||| 0.26730535501839
apportion ||| measure ||| 0.507090715779558
apportions ||| rates ||| 0.320533581984404
apportions ||| measures ||| 0.604707753108506
apportions ||| deals ||| 0.0747586649070906
appraisal ||| construction ||| 1
appraise ||| rate ||| 0.111663914421704
appraise ||| mete ||| 0.00678746882914658
appraise ||| value ||| 0.0910233569196197
appraise ||| square ||| 0.0549024655545709
appraise ||| scale ||| 0.0497422983621633
appraise ||| measure ||| 0.250987358647185
appraise ||| deem ||| 0.0497422983621633
appraise ||| praise ||| 0.385150838903447
appraises ||| squares ||| 0.0416108005861492
appraises ||| rates ||| 0.119584549458755
appraises ||| measures ||| 0.225604143447332
appraises ||| values ||| 0.119584549458755
appraises ||| scales ||| 0.119584549458755
appraises ||| praises ||| 0.374031407590254
appreciate ||| accord ||| 0.0758409235792287
appreciate ||| think ||| 0.795649168285671
appreciate ||| relish ||| 0.1285099081351
appreciateed ||| relished ||| 1
appreciates ||| thinks ||| 0.903233096760374
appreciates ||| accords ||| 0.0967669032396258
appreciation ||| sense ||| 1
appreciations ||| senses ||| 1
appreciative ||| estimable ||| 1
apprehend ||| comprehend ||| 0.04804646863035
apprehend ||| apprehend ||| 0.333946943557043
apprehend ||| mistrust ||| 0.284980059591129
apprehend ||| lapse ||| 0.04804646863035
apprehend ||| attach ||| 0.284980059591129
apprehended ||| apprehended ||| 0.516922353367717
apprehended ||| mistrusted ||| 0.241952053743348
apprehended ||| comprehended ||| 0.120562796444468
apprehended ||| attached ||| 0.120562796444468
apprehends ||| apprehends ||| 0.5
apprehends ||| comprehends ||| 0.5
apprehension ||| fear ||| 0.366653332392359
apprehension ||| doubt ||| 0.117868195974322
