
\data\
ngram 1=11437
ngram 2=82058
ngram 3=19721

\1-grams:
-1.995823	!	-2.328498
-2.811997	'	-0.1776361
-4.782413	'are	-0.1124327
-4.782413	'cinable	-0.1124327
-4.782413	'cines	-0.1124327
-4.782413	'clock	-0.1124327
-4.782413	'e	-0.1124327
-4.782413	'elbow	-0.1124327
-4.514499	'en	-0.1342239
-4.038498	'er	-0.1437978
-4.782413	'er-changing	-0.1124327
-4.782413	'er-embellished	-0.1124327
-4.782413	'er-read	-0.1124327
-4.782413	'erbear	-0.1124327
-4.782413	'ercrows	-0.1124327
-4.782413	'erdoing	-0.1124327
-4.782413	'erflourished	-0.1124327
-4.782413	'erglanced	-0.1124327
-4.782413	'erhasty	-0.1124327
-4.782413	'erhear	-0.1124327
-4.782413	'erlook	-0.1124327
-4.782413	'ermaster	-0.1124327
-4.782413	'erpaid	-0.1124327
-4.782413	'erpast	-0.1124327
-4.782413	'erprized	-0.1124327
-4.782413	'erraught	-0.1124327
-4.782413	'errule	-0.1124327
-4.782413	'errun	-0.1124327
-4.782413	'ershade	-0.1124327
-4.782413	'ershot	-0.1124327
-4.782413	'erskip	-0.1124327
-4.782413	'erstunk	-0.1124327
-4.782413	'ersway	-0.1124327
-4.782413	'erswell	-0.1124327
-4.782413	'erthrown	-0.1124327
-4.782413	'erwhelm	-0.1124327
-4.782413	'erwhelmèd	-0.1124327
-4.782413	'gatories	-0.1124327
-4.782413	'gatory	-0.1124327
-4.782413	'ld	-0.1124327
-4.782413	'lous	-0.1124327
-4.782413	'lt	-0.1124327
-4.172993	'n	-0.1395141
-4.368851	'ning	-0.1124327
-4.782413	'nings	-0.1124327
-4.782413	'nnights	-0.1124327
-4.782413	'rance	-0.1124327
-4.782413	'rate	-0.1124327
-4.782413	'rfordwest	-0.1124327
-4.172993	'ring	-0.1124327
-4.782413	'rings	-0.1124327
-4.172993	'rous	-0.1124327
-4.782413	'rt	-0.1124327
-4.514499	'ry	-0.1124327
-3.696382	(	-0.1395142
-3.723517	)	-0.2540461
-1.333594	,	-0.8148223
-4.782413	-breathed	-0.1124327
-4.782413	-hearted	-0.1124327
-4.782413	-mercy	-0.1124327
-1.332341	.	-2.916091
-2.925073	:	-0.2871579
-2.586742	;	-0.4986207
-3.415677	</s>
-99	<s>	-1.127232
-4.925033	<unk>
-1.810827	?	-2.425216
-2.220825	a	-0.3337505
-4.622581	a-	-0.1124327
-4.782413	a-batfowling	-0.1124327
-4.782413	a-bed	-0.1124327
-4.782413	a-brewing	-0.1124327
-4.782413	a-cold	-0.1124327
-4.782413	a-ducking	-0.1124327
-4.782413	a-growing	-0.1124327
-4.782413	a-height	-0.1124327
-4.622581	a-hold	-0.1124327
-4.782413	a-hungry	-0.1124327
-4.782413	a-killing	-0.1124327
-4.782413	a-praying	-0.1124327
-4.782413	a-shouting	-0.1124327
-4.782413	a-talking	-0.1124327
-4.622581	abandoned	-0.1124327
-4.782413	abase	-0.1124327
-4.514499	abate	-0.1124327
-4.782413	abatement	-0.1124327
-4.782413	abates	-0.1124327
-4.782413	abbess	-0.1124327
-4.782413	abbey	-0.1124327
-4.514499	abed	-0.1940265
-4.368851	abhor	-0.1721466
-4.782413	abhorred	-0.1124327
-4.782413	abhorring	-0.1124327
-4.622581	abhorrèd	-0.1124327
-3.935954	abide	-0.1124327
-4.514499	abides	-0.1124327
-4.782413	abilities	-0.1124327
-4.782413	ability	-0.1124327
-4.622581	abject	-0.1124327
-4.782413	abjects	-0.1124327
-4.172993	able	-0.3126794
-4.782413	abler	-0.1124327
-3.935954	aboard	-0.3667968
-4.368851	abode	-0.2698868
-4.514499	abominable	-0.1124327
-4.782413	abominations	-0.1124327
-4.782413	abound	-0.1124327
-3.091236	about	-0.4159091
-3.646722	above	-0.1997495
-4.782413	abraham	-0.1124327
-4.782413	abram	-0.1124327
-4.782413	abreast	-0.1124327
-4.782413	abridgment	-0.1124327
-3.935954	abroad	-0.2123606
-4.782413	abruptly	-0.1124327
-4.259973	absence	-0.2357412
-4.038498	absent	-0.1379645
-4.259973	absolute	-0.1124327
-4.622581	absurd	-0.1124327
-4.782413	abundance	-0.1124327
-4.368851	abuse	-0.1124327
-3.816874	abused	-0.2533249
-4.782413	abuses	-0.1124327
-4.782413	abusèd	-0.1124327
-4.782413	aby	-0.1124327
-4.514499	accent	-0.1124327
-4.622581	accents	-0.1124327
-4.514499	accept	-0.1124327
-4.514499	acceptance	-0.1124327
-4.514499	access	-0.1940266
-4.782413	accessory	-0.1124327
-4.622581	accident	-0.1124327
-4.782413	accidentally	-0.1124327
-4.782413	accidents	-0.1124327
-4.782413	accompanied	-0.1124327
-4.782413	accompany	-0.1124327
-4.782413	accomplished	-0.1124327
-4.782413	accomplishment	-0.1124327
-4.782413	accomplishèd	-0.1124327
-4.782413	accord	-0.1124327
-4.10056	according	-0.7062348
-4.622581	accordingly	-0.2413999
-4.782413	accords	-0.1124327
-4.368851	accost	-0.1721466
-4.782413	accosted	-0.1124327
-3.984207	account	-0.2228008
-4.514499	accounted	-0.1124327
-4.782413	accouterments	-0.1124327
-4.782413	accoutrements	-0.1124327
-4.622581	accursèd	-0.1124327
-4.514499	accusation	-0.1940265
-4.782413	accusations	-0.1124327
-4.259973	accuse	-0.1595289
-4.368851	accused	-0.1721465
-4.782413	accuser	-0.1124327
-4.782413	accusers	-0.1124327
-4.782413	accusing	-0.1124327
-4.622581	accustomed	-0.1124327
-4.514499	ache	-0.1124327
-4.622581	acheron	-0.1124327
-4.782413	aches	-0.1124327
-4.622581	achieve	-0.1124327
-4.782413	achievements	-0.1124327
-4.782413	achiever	-0.1124327
-4.368851	acknowledge	-0.1124327
-4.622581	acknowledged	-0.1124327
-4.782413	acknowledgement	-0.1124327
-4.782413	acorn	-0.1124327
-4.259973	acquaint	-0.1455437
-4.038498	acquaintance	-0.205156
-4.172993	acquainted	-0.5129248
-4.782413	acquaints	-0.1124327
-4.622581	acquire	-0.1124327
-4.514499	acquit	-0.1124327
-4.622581	acre	-0.1124327
-4.782413	acres	-0.1124327
-4.514499	across	-0.1124327
-3.816874	act	-0.2533249
-4.622581	acted	-0.1124327
-3.723517	action	-0.1539004
-4.514499	actions	-0.1124327
-4.622581	active	-0.1124327
-4.782413	activity	-0.1124327
-4.514499	actor	-0.1124327
-4.622581	actors	-0.1940265
-4.782413	acts	-0.1124327
-4.782413	actual	-0.1124327
-4.782413	ad	-0.1124327
-4.782413	adage	-0.1124327
-4.259973	adam	-0.1513163
-4.782413	adamant	-0.1124327
-4.10056	add	-0.1412641
-4.514499	added	-0.1940265
-4.514499	adder	-0.1124327
-4.782413	adders	-0.1124327
-4.782413	addicted	-0.1124327
-4.368851	addition	-0.1595289
-4.782413	address	-0.1124327
-4.368851	addressed	-0.1721466
-4.10056	adieu	-0.3667968
-4.782413	adieus	-0.1124327
-4.782413	adjoined	-0.1124327
-4.782413	adjoining	-0.1124327
-4.782413	adjudgèd	-0.1124327
-4.514499	admirable	-0.1124327
-4.782413	admiral	-0.1124327
-4.259973	admiration	-0.1124327
-4.368851	admired	-0.1124327
-3.935954	admit	-0.1851419
-4.622581	admittance	-0.2413999
-4.622581	admitted	-0.1124327
-4.782413	admonishing	-0.1124327
-4.622581	ado	-0.2413999
-4.782413	adopt	-0.1124327
-4.622581	adopted	-0.1124327
-4.782413	adoration	-0.1124327
-4.368851	adore	-0.1595289
-4.782413	adored	-0.1124327
-4.622581	adores	-0.1124327
-4.782413	adorn	-0.1124327
-4.782413	adrian	-0.1124327
-4.782413	adriana	-0.1124327
-4.782413	adulation	-0.1124327
-4.782413	adulterate	-0.1124327
-4.782413	adulterous	-0.1124327
-4.622581	adultery	-0.2413999
-4.782413	adultress	-0.1124327
-4.368851	advance	-0.1721466
-4.782413	advanced	-0.1124327
-4.172993	advancement	-0.1513162
-3.984207	advantage	-0.1124327
-4.782413	advantageous	-0.1124327
-4.782413	advantages	-0.1124327
-4.622581	adventure	-0.1124327
-4.782413	adventuring	-0.1124327
-4.622581	adversaries	-0.1124327
-4.368851	adversary	-0.1124327
-4.622581	adverse	-0.1124327
-4.782413	adversity	-0.1124327
-4.782413	advertisèd	-0.1124327
-4.172993	advice	-0.2108296
-4.10056	advise	-0.2051561
-4.622581	advised	-0.2413999
-4.514499	advisèd	-0.1124327
-4.622581	advocate	-0.1124327
-4.782413	afar	-0.1124327
-3.935954	afeard	-0.2173146
-4.782413	affability	-0.1124327
-4.622581	affable	-0.1124327
-4.259973	affair	-0.2334982
-4.038498	affairs	-0.3210393
-4.514499	affect	-0.1124327
-4.514499	affected	-0.1124327
-3.752462	affection	-0.1863895
-4.038498	affections	-0.1940266
-4.782413	affects	-0.1124327
-4.782413	affined	-0.1124327
-4.782413	affinity	-0.1124327
-4.782413	affirm	-0.1124327
-4.782413	affirmatives	-0.1124327
-4.514499	afflict	-0.1721466
-4.622581	affliction	-0.1124327
-4.514499	afford	-0.1124327
-4.782413	affordeth	-0.1124327
-4.622581	affords	-0.2413999
-4.622581	affrighted	-0.1124327
-4.782413	afire	-0.1124327
-4.782413	afloat	-0.1124327
-4.514499	afoot	-0.1940265
-4.622581	afore	-0.1124327
-4.172993	afraid	-0.1851418
-4.782413	afresh	-0.1124327
-4.782413	afric	-0.1124327
-3.161998	after	-0.3245657
-4.782413	after-hours	-0.1124327
-4.622581	after-supper	-0.1124327
-4.368851	afternoon	-0.1124327
-4.782413	afterward	-0.1124327
-4.259973	afterwards	-0.1595289
-2.916255	again	-0.6511349
-2.947934	against	-0.4839223
-3.561751	age	-0.3709165
-4.782413	aged	-0.1124327
-4.782413	agenor	-0.1124327
-4.782413	agent	-0.1124327
-4.622581	ages	-0.1124327
-4.622581	agincourt	-0.1124327
-4.622581	agitation	-0.1124327
-4.172993	ago	-0.2204613
-4.782413	agone	-0.1124327
-4.782413	agony	-0.1124327
-4.514499	agree	-0.1721466
-4.514499	agreed	-0.1940265
-4.368851	agrippa	-0.1595289
-4.782413	aground	-0.1124327
-4.368851	ague	-0.1721466
-4.782413	aguecheek	-0.1124327
-4.622581	agèd	-0.1124327
-4.622581	ah	-0.1721466
-4.782413	aha	-0.1124327
-4.368851	aid	-0.1595289
-4.782413	aidant	-0.1124327
-4.10056	aim	-0.1650915
-4.514499	aimed	-0.1124327
-4.782413	aims	-0.1124327
-3.62387	air	-0.3425725
-4.782413	air-drawn	-0.1124327
-4.782413	airless	-0.1124327
-4.782413	airs	-0.1124327
-4.514499	airy	-0.1124327
-4.782413	ajax	-0.1124327
-4.782413	alabaster	-0.1124327
-4.514499	alack	-0.2601821
-4.782413	alarm	-0.1124327
-4.514499	alarum	-0.1124327
-4.782413	alarumed	-0.1124327
-4.782413	alarums	-0.1124327
-4.038498	alas	-0.398892
-4.622581	albany	-0.1595289
-4.622581	albeit	-0.1124327
-4.782413	albion	-0.1124327
-4.782413	alcides	-0.1124327
-4.782413	aldermen	-0.1124327
-4.259973	ale	-0.2968889
-4.782413	ale-washed	-0.1124327
-4.782413	alehouse	-0.1124327
-4.782413	alehouses	-0.1124327
-4.622581	alençon	-0.1124327
-4.782413	aleppo	-0.1124327
-4.368851	alexander	-0.1124327
-4.782413	alexanders	-0.1124327
-4.782413	alexandria	-0.1124327
-4.782413	alexandrian	-0.1124327
-4.172993	alexas	-0.3126794
-4.782413	alien	-0.1124327
-4.514499	aliena	-0.1940265
-4.782413	alighted	-0.1124327
-4.259973	alike	-0.1595289
-3.752462	alive	-0.331322
-2.627418	all	-0.4068674
-4.782413	all-disgracèd	-0.1124327
-4.782413	all-ending	-0.1124327
-4.782413	all-seeing	-0.1124327
-4.782413	all-seer	-0.1124327
-4.782413	all-shaking	-0.1124327
-4.782413	all-unable	-0.1124327
-4.514499	allay	-0.1124327
-4.782413	allaying	-0.1124327
-4.782413	allegiance	-0.1124327
-4.782413	alley	-0.1124327
-4.782413	alleys	-0.1124327
-4.514499	alliance	-0.1124327
-4.782413	allied	-0.1124327
-4.782413	allies	-0.1124327
-4.622581	allow	-0.1124327
-4.622581	allowance	-0.1124327
-4.782413	allowed	-0.1124327
-4.622581	allows	-0.1124327
-4.782413	alluring	-0.1124327
-4.782413	almain	-0.1124327
-4.782413	almanac	-0.1124327
-4.782413	almighty	-0.1124327
-3.581486	almost	-0.1332321
-4.622581	alms	-0.1124327
-4.782413	alms-drink	-0.1124327
-3.351713	alone	-0.4446771
-3.696382	along	-0.3699692
-4.259973	aloof	-0.1124327
-4.259973	aloud	-0.1595289
-3.474635	already	-0.3177717
-4.10056	also	-0.1840628
-4.782413	altars	-0.1124327
-4.368851	alter	-0.1124327
-4.514499	altered	-0.1124327
-4.622581	although	-0.1513162
-4.782413	altitude	-0.1124327
-4.368851	altogether	-0.1124327
-4.172993	always	-0.1124327
-3.317417	am	-0.1783349
-4.514499	amaze	-0.1940265
-4.259973	amazed	-0.2123605
-4.368851	amazement	-0.1124327
-4.782413	amazon	-0.1124327
-4.782413	amazèdly	-0.1124327
-4.514499	ambassador	-0.1124327
-4.514499	ambassadors	-0.2123605
-4.782413	ambiguities	-0.1124327
-3.723517	ambition	-0.2283427
-4.172993	ambitious	-0.1721466
-4.782413	amble	-0.1124327
-4.622581	ambles	-0.1124327
-4.368851	amen	-0.3046489
-4.368851	amend	-0.1721466
-4.782413	amended	-0.1124327
-4.622581	amendment	-0.2413999
-4.038498	amends	-0.1595289
-4.782413	america	-0.1124327
-4.782413	amiable	-0.1124327
-4.038498	amiss	-0.1412641
-4.514499	amity	-0.1124327
-3.984207	among	-0.2051561
-4.622581	amongst	-0.1124327
-4.259973	amorous	-0.1124327
-4.622581	amount	-0.1124327
-4.782413	ample	-0.1124327
-4.782413	amplify	-0.1124327
-4.782413	amply	-0.1124327
-2.836718	an	-0.2804174
-4.782413	anatomize	-0.1124327
-4.782413	anatomy	-0.1124327
-4.782413	ancestors	-0.1124327
-4.782413	anchoring	-0.1124327
-4.782413	anchors	-0.1124327
-3.984207	ancient	-0.1513163
-1.777239	and	-0.3230882
-4.622581	andrew	-0.1513162
-4.622581	anew	-0.1124327
-3.984207	angel	-0.163327
-4.622581	angelo	-0.2413999
-4.259973	angels	-0.1940265
-4.10056	anger	-0.1595289
-4.782413	angerly	-0.1124327
-4.622581	angle	-0.1124327
-3.816874	angry	-0.217603
-4.622581	anguish	-0.2413999
-4.622581	animal	-0.1124327
-4.782413	animals	-0.1124327
-4.514499	anne	-0.1940265
-4.782413	annexment	-0.1124327
-4.782413	annoy	-0.1124327
-4.782413	annoying	-0.1124327
-4.622581	anointed	-0.1124327
-3.816874	anon	-0.2172462
-3.295971	another	-0.2379444
-3.219431	answer	-0.366972
-4.782413	answerable	-0.1124327
-3.984207	answered	-0.1883051
-4.622581	answering	-0.1124327
-4.514499	answers	-0.3382579
-4.782413	answerèd	-0.1124327
-4.782413	ant	-0.1124327
-4.782413	anthony	-0.1124327
-4.782413	anticipat	-0.1124327
-4.782413	antiopa	-0.1124327
-4.259973	antipholus	-0.2334982
-4.782413	antipholuses	-0.1124327
-4.782413	antipodes	-0.1124327
-4.368851	antique	-0.1124327
-3.602162	antonio	-0.3307173
-4.514499	antonius	-0.1124327
-3.265666	antony	-0.3974092
-3.097815	any	-0.2441471
-4.622581	anymore	-0.1124327
-4.514499	anyone	-0.1124327
-3.561751	anything	-0.302208
-4.622581	anywhere	-0.1124327
-3.984207	apace	-0.4352004
-4.172993	apart	-0.2601821
-4.622581	ape	-0.1124327
-4.622581	apes	-0.1124327
-4.782413	apiece	-0.1124327
-4.622581	apollo	-0.1124327
-4.782413	apollodorus	-0.1124327
-4.782413	apology	-0.1124327
-4.782413	apostle	-0.1124327
-4.782413	apothecary	-0.1124327
-4.782413	appall	-0.1124327
-4.782413	appals	-0.1124327
-4.172993	apparel	-0.1124327
-4.622581	apparent	-0.1124327
-4.782413	apparently	-0.1124327
-4.514499	apparition	-0.1124327
-4.782413	apparitions	-0.1124327
-4.782413	appeal	-0.1124327
-3.542874	appear	-0.2247248
-4.368851	appearance	-0.1721466
-4.259973	appeared	-0.1513162
-4.782413	appeareth	-0.1124327
-4.782413	appearing	-0.1124327
-3.89253	appears	-0.143256
-4.782413	appease	-0.1124327
-4.782413	appeased	-0.1124327
-4.782413	appendix	-0.1124327
-4.782413	appertain	-0.1124327
-4.782413	appertaining	-0.1124327
-4.782413	appertains	-0.1124327
-4.038498	appetite	-0.1721466
-4.514499	appetites	-0.1124327
-4.622581	applause	-0.2413999
-4.782413	applauses	-0.1124327
-4.514499	apple	-0.1124327
-4.782413	apples	-0.1124327
-4.782413	applies	-0.1124327
-4.514499	apply	-0.1124327
-4.368851	appoint	-0.1124327
-4.514499	appointed	-0.1124327
-4.514499	apprehend	-0.1940265
-4.782413	apprehended	-0.1124327
-4.622581	apprehension	-0.1124327
-3.89253	approach	-0.1996884
-4.782413	approached	-0.1124327
-4.368851	approaches	-0.1595289
-4.172993	approve	-0.1124327
-4.368851	approved	-0.1124327
-4.782413	approves	-0.1124327
-4.782413	approvèd	-0.1124327
-4.782413	apricoks	-0.1124327
-4.622581	april	-0.1124327
-4.782413	apron	-0.1124327
-4.782413	aprons	-0.1124327
-3.89253	apt	-0.2587757
-4.782413	aptly	-0.1124327
-4.622581	aqua	-0.2413999
-4.514499	arabia	-0.1124327
-4.782413	arabian	-0.1124327
-4.782413	aragon	-0.1124327
-4.782413	arbitrament	-0.1124327
-4.782413	arbor	-0.1124327
-4.782413	arbors	-0.1124327
-4.622581	arch	-0.1124327
-4.782413	archery	-0.1124327
-4.622581	arden	-0.1124327
-4.782413	ardor	-0.1124327
-2.531186	are	-0.3430631
-4.622581	argier	-0.1124327
-4.782413	argosy	-0.1124327
-4.782413	arguing	-0.1124327
-3.935954	argument	-0.2258458
-4.782413	argus	-0.1124327
-4.782413	ariadne	-0.1124327
-4.172993	ariel	-0.3630968
-4.368851	aright	-0.2698868
-4.514499	arise	-0.2123605
-4.782413	arithmetic	-0.1124327
-3.646722	arm	-0.3175335
-4.782413	arm-gaunt	-0.1124327
-4.782413	armadas	-0.1124327
-3.853057	armed	-0.2435876
-4.782413	armies	-0.1124327
-3.935954	armor	-0.2695673
-4.782413	armorer	-0.1124327
-4.782413	armour	-0.1124327
-3.723517	arms	-0.3400563
-4.10056	army	-0.1588504
-4.622581	armèd	-0.1124327
-4.514499	aroint	-0.3382579
-4.782413	arose	-0.1124327
-4.782413	arragon	-0.1124327
-4.782413	arraign	-0.1124327
-4.368851	arrant	-0.1124327
-4.782413	arras	-0.1124327
-4.622581	array	-0.1124327
-4.782413	arrayed	-0.1124327
-4.259973	arrest	-0.1595289
-4.514499	arrested	-0.1124327
-4.782413	arrival	-0.1124327
-4.782413	arrivance	-0.1124327
-4.259973	arrived	-0.2334982
-4.782413	arrives	-0.1124327
-4.782413	arrivèd	-0.1124327
-4.622581	arrows	-0.1124327
-3.339977	art	-0.266736
-4.782413	artemidorus	-0.1124327
-4.622581	arthur	-0.2413999
-4.368851	article	-0.1124327
-4.514499	articles	-0.1940265
-4.782413	artificial	-0.1124327
-4.782413	artillery	-0.1124327
-2.258493	as	-0.4433056
-4.622581	ascended	-0.1124327
-4.259973	ashamed	-0.2357412
-4.782413	ashamèd	-0.1124327
-4.782413	ashes	-0.1124327
-4.259973	ashore	-0.2334982
-4.782413	asia	-0.1124327
-4.259973	aside	-0.1124327
-3.581486	ask	-0.2711316
-4.782413	askance	-0.1124327
-4.368851	asked	-0.1124327
-4.782413	asketh	-0.1124327
-4.622581	asking	-0.1124327
-3.853057	asleep	-0.4557335
-4.514499	aspect	-0.1124327
-4.514499	aspic	-0.1124327
-4.782413	aspics	-0.1124327
-4.782413	asquint	-0.1124327
-3.984207	ass	-0.1884654
-4.782413	ass-head	-0.1124327
-4.782413	assail	-0.1124327
-4.782413	assailable	-0.1124327
-4.782413	assailant	-0.1124327
-4.782413	assails	-0.1124327
-4.622581	assault	-0.1124327
-4.782413	assaulted	-0.1124327
-4.782413	assaults	-0.1124327
-4.368851	assay	-0.2413999
-4.782413	assays	-0.1124327
-4.622581	assemble	-0.1124327
-4.514499	assembled	-0.1124327
-4.782413	assemblies	-0.1124327
-4.514499	assembly	-0.1940265
-4.514499	asses	-0.1940265
-4.782413	assign	-0.1124327
-4.782413	assigns	-0.1124327
-4.368851	assist	-0.1124327
-4.782413	assistance	-0.1124327
-4.782413	assistant	-0.1124327
-4.782413	assisting	-0.1124327
-4.782413	associates	-0.1124327
-4.259973	assume	-0.1124327
-4.038498	assurance	-0.1412641
-4.172993	assure	-0.2950533
-4.172993	assured	-0.1124327
-4.782413	assuredly	-0.1124327
-4.782413	assurèd	-0.1124327
-4.782413	assyrian	-0.1124327
-4.782413	astonish	-0.1124327
-4.782413	astonished	-0.1124327
-4.782413	astray	-0.1124327
-4.782413	astronomical	-0.1124327
-4.514499	asunder	-0.1124327
-2.445021	at	-0.5227396
-4.782413	atalanta	-0.1124327
-4.782413	ate	-0.1124327
-4.368851	athenian	-0.1513162
-4.172993	athens	-0.1455437
-4.782413	athversary	-0.1124327
-4.782413	athwart	-0.1124327
-4.514499	atone	-0.1124327
-4.782413	attached	-0.1124327
-4.622581	attain	-0.1124327
-4.782413	attainder	-0.1124327
-4.782413	attained	-0.1124327
-4.782413	attaint	-0.1124327
-4.368851	attempt	-0.1124327
-4.622581	attempts	-0.1124327
-3.646722	attend	-0.237414
-4.782413	attendance	-0.1124327
-4.514499	attendant	-0.1124327
-4.782413	attendants	-0.1124327
-4.514499	attended	-0.1124327
-4.782413	attendeth	-0.1124327
-4.514499	attends	-0.1124327
-4.782413	attent	-0.1124327
-4.782413	attentive	-0.1124327
-4.782413	attest	-0.1124327
-4.514499	attire	-0.1124327
-4.782413	attired	-0.1124327
-4.782413	attires	-0.1124327
-4.782413	attorney	-0.1124327
-4.622581	attractive	-0.1124327
-4.782413	attribute	-0.1124327
-4.782413	au	-0.1124327
-4.038498	audience	-0.2182728
-4.782413	audit	-0.1124327
-4.368851	audrey	-0.3667969
-3.783475	aught	-0.1563245
-4.782413	augmentation	-0.1124327
-4.622581	augmented	-0.1124327
-4.782413	augurer	-0.1124327
-4.622581	augurers	-0.1124327
-4.782413	auguring	-0.1124327
-4.782413	augury	-0.1124327
-4.782413	august	-0.1124327
-4.368851	aunchient	-0.1721466
-4.514499	aunt	-0.1124327
-4.782413	aunt-mother	-0.1124327
-4.514499	author	-0.1940265
-4.782413	authorities	-0.1124327
-3.935954	authority	-0.1851418
-4.782413	authorized	-0.1124327
-4.782413	authors	-0.1124327
-4.514499	autumn	-0.1940265
-4.782413	avarice	-0.1124327
-4.782413	avaricious	-0.1124327
-4.622581	avaunt	-0.1940265
-4.782413	avenged	-0.1124327
-4.782413	avengèd	-0.1124327
-4.038498	avoid	-0.1780054
-4.782413	avoided	-0.1124327
-4.514499	avouch	-0.1124327
-4.782413	avouchment	-0.1124327
-3.816874	awake	-0.2112029
-4.514499	awaked	-0.1124327
-4.782413	awards	-0.1124327
-3.036118	away	-0.4611038
-4.514499	awe	-0.1124327
-4.622581	aweary	-0.2413999
-4.782413	awful	-0.1124327
-3.62387	awhile	-0.5488794
-4.782413	awl	-0.1124327
-4.782413	awork	-0.1124327
-4.782413	awry	-0.1124327
-4.782413	axe	-0.1124327
-4.368851	ay	-0.2334982
-4.368851	aye	-0.1124327
-4.782413	babble	-0.1124327
-4.782413	babbling	-0.1124327
-4.514499	babe	-0.1721466
-3.984207	babes	-0.1650915
-4.782413	babies	-0.1124327
-4.782413	baboon	-0.1124327
-4.514499	baby	-0.1124327
-4.782413	baby-brow	-0.1124327
-4.782413	babylon	-0.1124327
-4.782413	bachelor	-0.1124327
-4.782413	bachelors	-0.1124327
-3.37618	back	-0.4300278
-4.622581	backed	-0.1124327
-4.622581	backs	-0.1124327
-4.259973	backward	-0.1124327
-3.490716	bad	-0.210443
-3.935954	bade	-0.3367441
-4.782413	badest	-0.1124327
-4.622581	badge	-0.2413999
-4.782413	badged	-0.1124327
-4.622581	badness	-0.1124327
-4.782413	baffle	-0.1124327
-4.622581	bag	-0.1940265
-4.622581	baggage	-0.2413999
-4.782413	bagpipe	-0.1124327
-4.782413	bagpiper	-0.1124327
-4.514499	bags	-0.1124327
-4.514499	bail	-0.1124327
-4.514499	bait	-0.1124327
-4.622581	baited	-0.1124327
-4.622581	baked	-0.1124327
-4.514499	balance	-0.1124327
-4.368851	bald	-0.1124327
-4.782413	balked	-0.1124327
-4.782413	ballast	-0.1124327
-4.368851	balls	-0.2123605
-4.622581	balm	-0.1124327
-4.782413	balsamum	-0.1124327
-4.514499	balthasar	-0.1124327
-4.622581	balthazar	-0.1124327
-4.622581	band	-0.1124327
-4.514499	bands	-0.1124327
-4.622581	bandy	-0.1124327
-4.782413	baned	-0.1124327
-4.782413	bang	-0.1124327
-4.622581	banged	-0.2413999
-4.622581	banish	-0.1124327
-3.816874	banished	-0.1564309
-4.368851	banishment	-0.1721466
-4.782413	banishèd	-0.1124327
-4.622581	bank	-0.1124327
-4.514499	bankrupt	-0.1124327
-4.782413	banks	-0.1124327
-4.514499	banner	-0.1124327
-4.514499	banners	-0.1124327
-4.782413	banns	-0.1124327
-4.622581	banquet	-0.1124327
-3.89253	banquo	-0.2269142
-4.782413	baptism	-0.1124327
-3.89253	baptista	-0.2506894
-3.984207	bar	-0.1124327
-4.782413	barbarian	-0.1124327
-4.368851	barbarous	-0.1124327
-4.514499	barbary	-0.1124327
-4.782413	barbason	-0.1124327
-4.622581	barber	-0.2413999
-4.782413	barbèd	-0.1124327
-4.782413	bard	-0.1124327
-4.514499	bardolph	-0.1124327
-4.782413	bards	-0.1124327
-4.10056	bare	-0.1124327
-4.782413	bared	-0.1124327
-4.782413	barefoot	-0.1124327
-4.259973	bargain	-0.195333
-4.782413	bargained	-0.1124327
-4.782413	bargains	-0.1124327
-3.935954	bark	-0.1940265
-4.782413	barks	-0.1124327
-4.622581	barnardo	-0.1124327
-4.782413	baron	-0.1124327
-4.782413	barons	-0.1124327
-4.10056	barren	-0.1455437
-4.782413	barricadoes	-0.1124327
-4.622581	bars	-0.1124327
-3.816874	base	-0.1428202
-4.259973	baseness	-0.1513163
-4.514499	baser	-0.1124327
-4.782413	basest	-0.1124327
-4.782413	bashfulness	-0.1124327
-4.782413	basilisks	-0.1124327
-4.622581	basis	-0.1124327
-4.782413	basket	-0.1124327
-4.782413	bass	-0.1124327
-3.853057	bassanio	-0.3242118
-4.038498	bastard	-0.1595289
-4.782413	bastardizing	-0.1124327
-4.514499	bastards	-0.1940265
-4.782413	bastardy	-0.1124327
-4.782413	basterd	-0.1124327
-4.782413	bastinado	-0.1124327
-4.622581	basting	-0.2413999
-4.622581	bat	-0.1124327
-4.259973	bate	-0.1124327
-4.622581	bated	-0.1124327
-4.782413	bates	-0.1124327
-4.622581	bathe	-0.1124327
-4.782413	bathed	-0.1124327
-4.782413	batler	-0.1124327
-4.782413	batt	-0.1124327
-4.782413	battalia	-0.1124327
-4.782413	batter	-0.1124327
-4.782413	battery	-0.1124327
-3.783475	battle	-0.2299705
-4.622581	battlements	-0.1124327
-4.259973	battles	-0.1595289
-4.514499	bauble	-0.1940265
-4.622581	bawcock	-0.2413999
-4.514499	bawd	-0.1124327
-4.782413	bawdry	-0.1124327
-4.782413	bawdy	-0.1124327
-4.368851	bay	-0.1124327
-4.782413	bayed	-0.1124327
-4.782413	baynard	-0.1124327
-2.578644	be	-0.3479481
-4.782413	beadle	-0.1124327
-4.514499	beads	-0.1124327
-4.782413	beagle	-0.1124327
-4.622581	beam	-0.1124327
-4.259973	beams	-0.1595289
-3.219431	bear	-0.3841517
-4.782413	bear-baiting	-0.1124327
-3.646722	beard	-0.3979977
-4.782413	bearded	-0.1124327
-4.514499	beards	-0.1124327
-4.782413	bearherd	-0.1124327
-4.172993	bearing	-0.1124327
-4.782413	bearlike	-0.1124327
-3.853057	bears	-0.1467727
-4.10056	beast	-0.1996884
-4.514499	beastly	-0.1124327
-4.038498	beasts	-0.2182728
-3.752462	beat	-0.2793745
-3.984207	beaten	-0.1124327
-4.172993	beating	-0.1124327
-3.646722	beatrice	-0.2523959
-4.622581	beats	-0.1124327
-4.782413	beau	-0.1124327
-4.782413	beaumont	-0.1124327
-4.259973	beauteous	-0.1124327
-4.782413	beauties	-0.1124327
-4.514499	beautiful	-0.1721466
-3.62387	beauty	-0.2363333
-4.514499	beaver	-0.1124327
-4.368851	became	-0.1124327
-3.670842	because	-0.318942
-4.782413	bechanced	-0.1124327
-4.622581	beck	-0.1124327
-4.622581	beckons	-0.1124327
-3.507416	become	-0.3282153
-3.853057	becomes	-0.1672501
-4.782413	becomings	-0.1124327
-3.507416	bed	-0.3701708
-4.782413	bed-right	-0.1124327
-4.782413	bedchamber	-0.1124327
-4.782413	bedded	-0.1124327
-4.514499	bedfellow	-0.1721466
-4.782413	bedfellows	-0.1124327
-4.782413	bedford	-0.1124327
-4.622581	bedlam	-0.1124327
-4.368851	beds	-0.1595289
-4.622581	bedtime	-0.1124327
-4.514499	beef	-0.1595289
-4.782413	beefs	-0.1124327
-4.622581	beelzebub	-0.1124327
-3.429683	been	-0.1802632
-4.782413	beer	-0.1124327
-4.622581	bees	-0.1124327
-4.782413	beest	-0.1124327
-4.782413	beetle	-0.1124327
-4.782413	beetles	-0.1124327
-4.172993	befall	-0.1513163
-4.782413	befallen	-0.1124327
-4.622581	befits	-0.1124327
-2.89914	before	-0.4902412
-4.782413	befriend	-0.1124327
-3.853057	beg	-0.1379645
-4.172993	began	-0.1721466
-4.514499	beget	-0.1124327
-4.10056	beggar	-0.1945976
-4.622581	beggared	-0.1124327
-4.514499	beggarly	-0.1124327
-4.368851	beggars	-0.1124327
-4.622581	beggary	-0.1124327
-4.10056	begged	-0.1353427
-4.782413	begging	-0.1124327
-3.723517	begin	-0.2363333
-4.514499	beginning	-0.1124327
-4.782413	beginnings	-0.1124327
-3.935954	begins	-0.1697252
-4.782413	begnaw	-0.1124327
-4.622581	begone	-0.1940265
-4.514499	begot	-0.1124327
-4.782413	begrimed	-0.1124327
-4.782413	begs	-0.1124327
-4.259973	beguile	-0.2334982
-4.514499	beguiled	-0.1124327
-4.514499	begun	-0.1124327
-4.259973	behalf	-0.1940265
-4.782413	behaved	-0.1124327
-3.984207	behavior	-0.1353427
-4.782413	behaviors	-0.1124327
-4.622581	beheaded	-0.1124327
-4.259973	beheld	-0.1124327
-3.670842	behind	-0.202822
-3.670842	behold	-0.2493134
-4.782413	beholders	-0.1124327
-4.172993	beholding	-0.445978
-4.782413	behooves	-0.1124327
-3.256017	being	-0.1766089
-4.622581	belch	-0.1124327
-4.782413	beldams	-0.1124327
-4.622581	belie	-0.1124327
-4.622581	belied	-0.1124327
-4.368851	belief	-0.1124327
-4.782413	beliest	-0.1124327
-3.581486	believe	-0.2140901
-4.782413	believed	-0.1124327
-4.782413	believes	-0.1124327
-4.782413	believing	-0.1124327
-4.514499	belike	-0.1513163
-4.038498	bell	-0.2066467
-4.172993	bellario	-0.181389
-4.782413	bellow	-0.1124327
-4.782413	bellowing	-0.1124327
-4.782413	bellows	-0.1124327
-4.782413	bellows-mender	-0.1124327
-4.514499	bells	-0.1124327
-4.514499	belly	-0.1721466
-4.782413	belly-pinchèd	-0.1124327
-4.782413	bellyful	-0.1124327
-4.782413	belman	-0.1124327
-4.514499	belmont	-0.3382579
-4.622581	belong	-0.1124327
-4.782413	belonged	-0.1124327
-4.782413	belongs	-0.1124327
-4.038498	beloved	-0.2698868
-4.782413	beloving	-0.1124327
-4.622581	belovèd	-0.1124327
-4.622581	below	-0.1124327
-4.782413	belt	-0.1124327
-4.782413	bemonster	-0.1124327
-4.782413	bench	-0.1124327
-4.782413	bench-holes	-0.1124327
-4.10056	bend	-0.1124327
-4.782413	bended	-0.1124327
-4.368851	bending	-0.1124327
-4.368851	beneath	-0.1721466
-3.602162	benedick	-0.3470439
-4.782413	benedict	-0.1124327
-4.782413	benediction	-0.1124327
-4.622581	beneficial	-0.1124327
-4.514499	benefit	-0.1940265
-4.782413	benefited	-0.1124327
-4.622581	benison	-0.1124327
-4.782413	bennet	-0.1124327
-3.984207	bent	-0.1867576
-4.782413	bentivolii	-0.1124327
-4.622581	bequeath	-0.1124327
-4.782413	berattle	-0.1124327
-4.782413	bereft	-0.1124327
-4.782413	bergamo	-0.1124327
-4.782413	bergomask	-0.1124327
-4.782413	berkeley	-0.1124327
-4.782413	berri	-0.1124327
-4.622581	berries	-0.1124327
-3.935954	beseech	-0.2865978
-4.622581	beseeched	-0.1124327
-4.782413	beseeching	-0.1124327
-4.782413	beset	-0.1124327
-4.514499	beshrew	-0.1595289
-4.368851	beside	-0.1124327
-3.984207	besides	-0.182813
-4.782413	besmear	-0.1124327
-4.782413	besmeared	-0.1124327
-4.782413	besmirched	-0.1124327
-4.514499	bespeak	-0.1595289
-4.782413	bespoke	-0.1124327
-3.317417	best	-0.213289
-4.782413	bestial	-0.1124327
-4.038498	bestow	-0.15503
-4.10056	bestowed	-0.1412641
-4.782413	bestows	-0.1124327
-4.622581	bestride	-0.1124327
-4.782413	bet	-0.1124327
-4.782413	betake	-0.1124327
-4.622581	beteem	-0.1124327
-4.514499	bethink	-0.1721466
-4.622581	betide	-0.1124327
-3.984207	betimes	-0.1949406
-4.782413	betoken	-0.1124327
-4.368851	betray	-0.1124327
-4.10056	betrayed	-0.1124327
-4.782413	betrayèd	-0.1124327
-4.622581	betrothed	-0.1124327
-4.782413	betroths	-0.1124327
-3.15438	better	-0.2645244
-4.782413	better-fashioned	-0.1124327
-4.782413	bettered	-0.1124327
-4.622581	bettering	-0.1124327
-4.514499	betters	-0.1124327
-4.782413	betting	-0.1124327
-3.306562	between	-0.2799532
-3.89253	betwixt	-0.1332093
-4.172993	beware	-0.2369923
-4.782413	bewhored	-0.1124327
-4.782413	bewray	-0.1124327
-3.935954	beyond	-0.1353427
-3.89253	bianca	-0.174462
-4.622581	bias	-0.1124327
-3.490716	bid	-0.3604506
-4.782413	bidden	-0.1124327
-4.514499	bidding	-0.1940265
-4.782413	biddy	-0.1124327
-4.514499	bide	-0.1124327
-4.514499	bides	-0.1124327
-3.935954	bids	-0.15503
-4.259973	big	-0.1513162
-4.514499	bigger	-0.1940265
-4.782413	bilboes	-0.1124327
-4.368851	bill	-0.1595289
-4.782413	billeted	-0.1124327
-4.782413	billiards	-0.1124327
-4.622581	billow	-0.1124327
-4.622581	billows	-0.1124327
-4.514499	bills	-0.1124327
-4.038498	bind	-0.2115248
-4.514499	biondello	-0.1595289
-3.984207	bird	-0.228034
-4.368851	birds	-0.1124327
-4.172993	birnam	-0.2357412
-4.368851	birth	-0.1513163
-4.782413	birthday	-0.1124327
-4.782413	birthdom	-0.1124327
-4.782413	bishop	-0.1124327
-4.782413	bishops	-0.1124327
-4.782413	bit	-0.1124327
-4.172993	bite	-0.1940266
-4.782413	bites	-0.1124327
-4.622581	biting	-0.1124327
-3.723517	bitter	-0.1353427
-4.782413	bitterly	-0.1124327
-4.622581	bitterness	-0.2413999
-4.782413	blabs	-0.1124327
-3.542874	black	-0.2637515
-4.622581	blacker	-0.1124327
-4.782413	blackest	-0.1124327
-4.782413	blackheath	-0.1124327
-4.782413	blackness	-0.1124327
-4.622581	blade	-0.1124327
-4.782413	bladed	-0.1124327
-4.782413	blades	-0.1124327
-3.670842	blame	-0.2083927
-4.622581	blamed	-0.1124327
-4.782413	blameless	-0.1124327
-4.782413	blanch	-0.1124327
-4.514499	blank	-0.1940265
-4.622581	blanket	-0.1124327
-4.782413	blanks	-0.1124327
-4.622581	blast	-0.1124327
-4.782413	blasted	-0.1124327
-4.782413	blastments	-0.1124327
-4.514499	blasts	-0.1124327
-4.782413	blaze	-0.1124327
-4.782413	blazon	-0.1124327
-4.782413	bleak	-0.1124327
-4.782413	bleared	-0.1124327
-4.782413	blearèd	-0.1124327
-3.783475	bleed	-0.2694254
-4.514499	bleeding	-0.1124327
-4.622581	bleeds	-0.1124327
-4.622581	blemish	-0.1124327
-4.782413	blench	-0.1124327
-3.89253	bless	-0.3033323
-3.816874	blessed	-0.127571
-4.622581	blessedly	-0.1124327
-4.782413	blesseth	-0.1124327
-4.10056	blessing	-0.2182728
-4.514499	blessings	-0.1124327
-4.782413	blessè	-0.1124327
-4.172993	blessèd	-0.1124327
-4.782413	blest	-0.1124327
-3.935954	blind	-0.2148164
-4.782413	blinding	-0.1124327
-4.172993	bliss	-0.1813891
-4.782413	blister	-0.1124327
-4.782413	blisters	-0.1124327
-4.782413	blithild	-0.1124327
-4.622581	block	-0.2413999
-3.265666	blood	-0.4194051
-4.782413	bloodier	-0.1124327
-4.514499	bloodily	-0.1124327
-4.782413	bloodless	-0.1124327
-4.622581	bloods	-0.1124327
-3.490716	bloody	-0.1821848
-4.782413	bloom	-0.1124327
-4.782413	blossoms	-0.1124327
-4.622581	blot	-0.1124327
-4.622581	blotted	-0.1124327
-3.783475	blow	-0.1412641
-4.782413	blowed	-0.1124327
-4.782413	blowing	-0.1124327
-4.172993	blown	-0.1124327
-3.853057	blows	-0.2240657
-4.514499	blue	-0.1124327
-4.782413	blue-eyed	-0.1124327
-4.782413	bluest	-0.1124327
-4.259973	blunt	-0.1513162
-4.622581	bluntly	-0.1124327
-4.782413	bluntness	-0.1124327
-4.10056	blush	-0.1721465
-4.622581	blushed	-0.1124327
-4.622581	blushes	-0.1124327
-4.782413	blushest	-0.1124327
-4.622581	blushing	-0.1124327
-4.622581	boar	-0.1124327
-4.514499	board	-0.1124327
-4.622581	boarded	-0.1124327
-4.782413	boards	-0.1124327
-4.782413	boarish	-0.1124327
-4.782413	boars	-0.1124327
-4.259973	boast	-0.1124327
-4.782413	boasting	-0.1124327
-4.622581	boat	-0.1124327
-4.622581	boatswain	-0.1124327
-4.622581	bob	-0.1124327
-4.782413	bobtail	-0.1124327
-4.622581	bode	-0.1124327
-4.782413	bodements	-0.1124327
-4.782413	bodes	-0.1124327
-3.89253	bodies	-0.1299475
-4.782413	bodily	-0.1124327
-4.782413	boding	-0.1124327
-3.696382	body	-0.2761503
-4.782413	bodykins	-0.1124327
-4.782413	boggler	-0.1124327
-4.782413	bogs	-0.1124327
-4.782413	boil	-0.1124327
-4.622581	boiled	-0.1124327
-4.782413	boist	-0.1124327
-4.782413	boisterous	-0.1124327
-3.816874	bold	-0.2155363
-4.782413	boldened	-0.1124327
-4.782413	bolder	-0.1124327
-4.622581	boldest	-0.1124327
-4.622581	boldly	-0.1124327
-4.782413	boldness	-0.1124327
-4.782413	bolster	-0.1124327
-4.514499	bolt	-0.1124327
-4.782413	bolted	-0.1124327
-4.782413	bombard	-0.1124327
-4.782413	bon	-0.1124327
-4.782413	bona	-0.1124327
-3.89253	bond	-0.2301436
-4.782413	bond-slaves	-0.1124327
-4.514499	bondage	-0.1124327
-4.782413	bondmaid	-0.1124327
-4.514499	bondman	-0.1124327
-4.782413	bondmen	-0.1124327
-4.514499	bonds	-0.1124327
-4.782413	bondslave	-0.1124327
-4.782413	bone	-0.1124327
-3.853057	bones	-0.2200191
-4.782413	bonjour	-0.1124327
-4.514499	bonnet	-0.1124327
-4.622581	bonny	-0.1124327
-4.782413	bonos	-0.1124327
-4.259973	book	-0.1813891
-4.172993	books	-0.2123606
-4.514499	boon	-0.1124327
-4.259973	boot	-0.1455437
-4.368851	bootless	-0.1124327
-4.782413	boots	-0.1124327
-4.514499	borachio	-0.1940265
-4.782413	bordered	-0.1124327
-4.782413	borders	-0.1124327
-4.514499	bore	-0.1124327
-3.696382	born	-0.2305048
-4.038498	borne	-0.1332093
-4.172993	borrow	-0.1124327
-4.622581	borrowed	-0.1124327
-4.782413	borrower	-0.1124327
-3.984207	bosom	-0.1816533
-4.782413	bosomed	-0.1124327
-4.368851	bosoms	-0.1595289
-4.782413	botch	-0.1124327
-4.782413	botcher	-0.1124327
-3.193881	both	-0.3076534
-4.172993	bottle	-0.1840628
-4.782413	bottle-ale	-0.1124327
-4.782413	bottled	-0.1124327
-4.782413	bottles	-0.1124327
-3.89253	bottom	-0.2579972
-4.782413	bottomless	-0.1124327
-4.782413	bottoms	-0.1124327
-4.782413	bough	-0.1124327
-4.782413	boughs	-0.1124327
-3.984207	bought	-0.1332093
-4.782413	bouncing	-0.1124327
-3.561751	bound	-0.361692
-4.782413	bounden	-0.1124327
-4.782413	boundless	-0.1124327
-4.259973	bounds	-0.1513163
-4.514499	bounteous	-0.1124327
-4.782413	bounteously	-0.1124327
-4.782413	bountiful	-0.1124327
-4.172993	bounty	-0.1379645
-4.782413	bourbier	-0.1124327
-4.782413	bourbon	-0.1124327
-4.622581	bourn	-0.1124327
-4.514499	bout	-0.1940265
-4.782413	bove	-0.1124327
-4.10056	bow	-0.1379645
-4.782413	bow-string	-0.1124327
-4.782413	bowed	-0.1124327
-4.782413	bowels	-0.1124327
-4.622581	bower	-0.1124327
-4.622581	bowl	-0.1124327
-4.782413	bows	-0.1124327
-4.782413	bowstrings	-0.1124327
-4.782413	box	-0.1124327
-4.782413	boxtree	-0.1124327
-3.524783	boy	-0.3278294
-3.935954	boys	-0.2478494
-4.782413	brabant	-0.1124327
-4.368851	brabantio	-0.1124327
-4.782413	brace	-0.1124327
-4.622581	brach	-0.1124327
-4.514499	brag	-0.1124327
-4.622581	braggart	-0.1124327
-4.622581	braggarts	-0.1124327
-4.622581	bragging	-0.1124327
-4.622581	brags	-0.1124327
-3.984207	brain	-0.1124327
-4.782413	brained	-0.1124327
-4.10056	brains	-0.1949406
-4.622581	brake	-0.1124327
-4.622581	brakenbury	-0.2413999
-4.782413	brakes	-0.1124327
-4.782413	brambles	-0.1124327
-4.782413	branch	-0.1124327
-4.782413	branches	-0.1124327
-4.782413	brand	-0.1124327
-4.782413	branded	-0.1124327
-4.782413	brandished	-0.1124327
-4.782413	brandon	-0.1124327
-4.622581	brands	-0.1124327
-4.622581	brass	-0.1124327
-4.782413	brat	-0.1124327
-4.782413	brats	-0.1124327
-3.723517	brave	-0.1266092
-4.368851	braved	-0.1124327
-4.622581	bravely	-0.1124327
-4.622581	bravery	-0.1124327
-4.368851	brawl	-0.2698868
-4.622581	brawling	-0.1124327
-4.782413	brawls	-0.1124327
-4.782413	brazed	-0.1124327
-4.782413	brazen-faced	-0.1124327
-4.514499	breach	-0.1513162
-4.622581	bread	-0.1124327
-4.622581	breadth	-0.1124327
-3.524783	break	-0.2152978
-4.514499	breakfast	-0.1124327
-4.514499	breaking	-0.1940265
-4.368851	breaks	-0.1124327
-4.172993	breast	-0.2509136
-4.782413	breasting	-0.1124327
-4.782413	breasts	-0.1124327
-3.581486	breath	-0.3194917
-4.172993	breathe	-0.1124327
-4.368851	breathed	-0.1124327
-4.782413	breather	-0.1124327
-4.259973	breathes	-0.1595289
-4.259973	breathing	-0.1124327
-4.782413	breaths	-0.1124327
-4.782413	brecknock	-0.1124327
-4.259973	bred	-0.1124327
-4.782413	breeched	-0.1124327
-4.782413	breeches	-0.1124327
-3.816874	breed	-0.1656614
-4.368851	breeding	-0.2698868
-4.782413	breeds	-0.1124327
-4.782413	brethren	-0.1124327
-4.782413	breton	-0.1124327
-4.782413	brevity	-0.1124327
-4.782413	brewing	-0.1124327
-4.622581	bribes	-0.1124327
-4.622581	bridal	-0.1124327
-4.368851	bride	-0.1721466
-4.514499	bridegroom	-0.1124327
-4.782413	bridge	-0.1124327
-4.782413	bridget	-0.1124327
-4.782413	bridled	-0.1124327
-3.783475	brief	-0.2232713
-4.782413	briefest	-0.1124327
-4.259973	briefly	-0.181389
-4.782413	briefness	-0.1124327
-4.782413	brier	-0.1124327
-4.782413	briers	-0.1124327
-3.984207	bright	-0.1595289
-4.782413	brightest	-0.1124327
-4.782413	brightly	-0.1124327
-4.622581	brim	-0.1124327
-4.782413	brim-full	-0.1124327
-4.782413	brimful	-0.1124327
-4.782413	brimstone	-0.1124327
-4.782413	brinded	-0.1124327
-4.514499	brine	-0.1940265
-3.429683	bring	-0.4183688
-4.782413	bringer	-0.1124327
-4.622581	bringing	-0.1124327
-4.038498	brings	-0.1513162
-4.782413	british	-0.1124327
-4.782413	brittany	-0.1124327
-4.622581	broached	-0.1124327
-4.782413	broad	-0.1124327
-4.782413	broader	-0.1124327
-4.782413	broil	-0.1124327
-4.782413	broils	-0.1124327
-3.984207	broke	-0.163327
-4.038498	broken	-0.1332093
-4.782413	brokenly	-0.1124327
-4.782413	brooch	-0.1124327
-4.782413	brooched	-0.1124327
-4.368851	brook	-0.1124327
-4.514499	brooked	-0.1124327
-4.782413	brooks	-0.1124327
-4.782413	brothel	-0.1124327
-3.415677	brother	-0.325682
-4.782413	brotherly	-0.1124327
-3.935954	brothers	-0.1412641
-3.581486	brought	-0.2483825
-4.038498	brow	-0.1379645
-4.172993	brown	-0.1940265
-4.782413	browner	-0.1124327
-4.782413	brownist	-0.1124327
-4.368851	brows	-0.1124327
-4.622581	bruise	-0.1124327
-4.782413	bruised	-0.1124327
-4.622581	bruisèd	-0.1124327
-4.782413	bruited	-0.1124327
-4.782413	brundusium	-0.1124327
-4.622581	brushed	-0.1124327
-4.782413	brushes	-0.1124327
-3.285633	brutus	-0.3633663
-4.782413	bubble	-0.1124327
-4.782413	bubbles	-0.1124327
-4.782413	buck	-0.1124327
-3.935954	buckingham	-0.2568774
-4.622581	buckle	-0.1124327
-4.782413	buckled	-0.1124327
-4.782413	buckler	-0.1124327
-4.782413	buckles	-0.1124327
-4.782413	budding	-0.1124327
-4.259973	budge	-0.1595289
-4.622581	buds	-0.1124327
-4.782413	buff	-0.1124327
-4.782413	buffet	-0.1124327
-4.782413	buffets	-0.1124327
-4.514499	build	-0.1124327
-4.782413	building	-0.1124327
-4.782413	buildings	-0.1124327
-4.622581	builds	-0.1124327
-4.622581	built	-0.1124327
-4.368851	bulk	-0.1124327
-4.622581	bull	-0.1124327
-4.782413	bullocks	-0.1124327
-4.782413	bulls	-0.1124327
-4.514499	bully	-0.1940265
-4.782413	bully-monster	-0.1124327
-4.782413	bulwarks	-0.1124327
-4.782413	bum-baily	-0.1124327
-4.622581	bunch-backed	-0.2413999
-4.782413	bunghole	-0.1124327
-4.782413	bungle	-0.1124327
-4.782413	buoyed	-0.1124327
-4.368851	burden	-0.1455437
-4.782413	burdened	-0.1124327
-4.622581	burdens	-0.1124327
-4.782413	burglary	-0.1124327
-4.172993	burgundy	-0.2978818
-4.259973	burial	-0.3126794
-4.038498	buried	-0.2377903
-4.622581	burièd	-0.2413999
-3.984207	burn	-0.1650915
-4.622581	burned	-0.1124327
-4.782413	burneth	-0.1124327
-4.038498	burning	-0.1379645
-4.368851	burns	-0.2698868
-4.514499	burnt	-0.1940265
-4.038498	burst	-0.1124327
-4.782413	bursting	-0.1124327
-4.782413	burthen	-0.1124327
-4.782413	burton	-0.1124327
-4.368851	bury	-0.1124327
-4.172993	bush	-0.1813891
-4.622581	busied	-0.1124327
-4.782413	busiest	-0.1124327
-3.490716	business	-0.2680349
-4.782413	buskined	-0.1124327
-4.782413	bustle	-0.1124327
-4.038498	busy	-0.1379645
-2.551432	but	-0.3340887
-4.514499	butchered	-0.1940265
-4.622581	butcheries	-0.2413999
-4.782413	butchers	-0.1124327
-4.622581	butchery	-0.1124327
-4.782413	butcherèd	-0.1124327
-4.782413	butler	-0.1124327
-4.259973	butt	-0.1595289
-4.782413	butter-women	-0.1124327
-4.782413	butterflies	-0.1124327
-4.782413	buttery	-0.1124327
-4.782413	buttocks	-0.1124327
-4.782413	button	-0.1124327
-4.782413	buttress	-0.1124327
-3.853057	buy	-0.1641201
-4.782413	buying	-0.1124327
-4.514499	buys	-0.1124327
-4.514499	buzz	-0.1124327
-4.782413	buzzards	-0.1124327
-2.442082	by	-0.4485003
-4.368851	cabin	-0.1124327
-4.782413	cabins	-0.1124327
-4.782413	cables	-0.1124327
-4.782413	cadmus	-0.1124327
-4.782413	cadwallader	-0.1124327
-4.782413	caelius	-0.1124327
-2.934073	caesar	-0.4255179
-4.782413	caesarion	-0.1124327
-4.622581	cage	-0.1124327
-4.782413	cagèd	-0.1124327
-4.622581	caitiff	-0.2413999
-4.038498	caius	-0.205156
-4.622581	cake	-0.1124327
-4.622581	calamity	-0.1124327
-4.622581	calendar	-0.1595289
-4.782413	calflike	-0.1124327
-4.10056	caliban	-0.1813891
-3.202232	call	-0.3558265
-3.561751	called	-0.1671794
-4.514499	calling	-0.1124327
-3.783475	calls	-0.1771373
-4.782413	calm	-0.1124327
-4.368851	calphurnia	-0.1940265
-4.622581	cam	-0.2413999
-4.259973	cambio	-0.1513162
-4.782413	cambridge	-0.1124327
-3.37618	came	-0.2443427
-4.782413	camel	-0.1124327
-4.622581	camest	-0.1124327
-4.172993	camp	-0.2108296
-3.047776	can	-0.2371075
-4.622581	canary	-0.1124327
-4.622581	cancel	-0.2413999
-4.782413	candied	-0.1124327
-4.368851	candle	-0.1124327
-4.782413	candles	-0.1124327
-4.514499	canidius	-0.1721466
-4.622581	canker	-0.1124327
-4.782413	cankers	-0.1124327
-4.782413	cannon	-0.1124327
-4.782413	cannons	-0.1124327
-3.177647	cannot	-0.2277363
-4.782413	canonized	-0.1124327
-4.782413	canopy	-0.1124327
-3.984207	canst	-0.2434747
-4.782413	canterbury	-0.1124327
-4.782413	cantle	-0.1124327
-4.782413	cantons	-0.1124327
-4.038498	cap	-0.2103918
-4.622581	capable	-0.1124327
-4.622581	capacity	-0.2413999
-4.782413	caparisoned	-0.1124327
-4.782413	cape	-0.1124327
-4.782413	caper	-0.1124327
-4.622581	capers	-0.1124327
-4.782413	capet	-0.1124327
-4.782413	capilet	-0.1124327
-4.622581	capital	-0.1124327
-4.622581	capitol	-0.1412641
-4.622581	capon	-0.1124327
-4.782413	capons	-0.1124327
-4.622581	caps	-0.2413999
-3.723517	captain	-0.237144
-4.514499	captains	-0.1124327
-4.782413	captainship	-0.1124327
-4.622581	captive	-0.1124327
-4.782413	captives	-0.1124327
-4.622581	captivity	-0.2413999
-4.782413	car	-0.1124327
-4.782413	caracks	-0.1124327
-4.782413	carat	-0.1124327
-4.782413	carbonado	-0.1124327
-4.782413	carbuncle	-0.1124327
-4.782413	carbuncled	-0.1124327
-4.782413	carbuncles	-0.1124327
-4.782413	carcanet	-0.1124327
-4.782413	carcass	-0.1124327
-4.782413	cardmaker	-0.1124327
-3.524783	care	-0.3083688
-4.782413	cared	-0.1124327
-4.622581	career	-0.1124327
-4.782413	careers	-0.1124327
-4.172993	careful	-0.1124327
-4.514499	carefully	-0.1124327
-4.782413	careless	-0.1124327
-4.782413	carelessly	-0.1124327
-4.10056	cares	-0.181389
-4.782413	carest	-0.1124327
-4.782413	carlot	-0.1124327
-4.622581	carnal	-0.1124327
-4.782413	carnation	-0.1124327
-4.782413	carouses	-0.1124327
-4.782413	carp	-0.1124327
-4.622581	carpenter	-0.1124327
-4.782413	carpet	-0.1124327
-4.782413	carpets	-0.1124327
-4.782413	carping	-0.1124327
-4.782413	carrack	-0.1124327
-4.622581	carriage	-0.1124327
-4.368851	carriages	-0.2334982
-4.259973	carried	-0.1124327
-4.259973	carries	-0.1124327
-4.368851	carrion	-0.1124327
-4.622581	carrions	-0.1124327
-3.696382	carry	-0.2137916
-4.622581	cart	-0.1124327
-4.514499	carthage	-0.1124327
-4.622581	carve	-0.1124327
-4.622581	carved	-0.1124327
-4.622581	carving	-0.1124327
-3.935954	casca	-0.2777764
-3.935954	case	-0.188305
-4.782413	casement	-0.1124327
-4.782413	casements	-0.1124327
-4.514499	cases	-0.1124327
-4.782413	cash	-0.1124327
-4.782413	cashiered	-0.1124327
-4.782413	casing	-0.1124327
-4.782413	casion	-0.1124327
-4.622581	casket	-0.1124327
-4.782413	caskets	-0.1124327
-3.339977	cassio	-0.408104
-3.524783	cassius	-0.3250778
-3.783475	cast	-0.2175695
-4.782413	castaway	-0.1124327
-4.782413	casted	-0.1124327
-4.782413	castigation	-0.1124327
-4.172993	castle	-0.1650915
-4.782413	casts	-0.1124327
-4.782413	casualties	-0.1124327
-4.259973	cat	-0.1124327
-4.782413	catalogue	-0.1124327
-4.782413	cataracts	-0.1124327
-3.853057	catch	-0.1973661
-4.782413	catches	-0.1124327
-4.622581	catching	-0.1124327
-4.782413	catechise	-0.1124327
-4.782413	catechizing	-0.1124327
-4.782413	caterwauling	-0.1124327
-4.782413	cates	-0.1124327
-4.038498	catesby	-0.4081895
-4.368851	cato	-0.2413999
-4.782413	cats	-0.1124327
-4.368851	caught	-0.1513163
-4.514499	cauldron	-0.1124327
-3.295971	cause	-0.3948949
-4.622581	caused	-0.1124327
-4.782413	causer	-0.1124327
-4.259973	causes	-0.1124327
-4.782413	cautelous	-0.1124327
-4.622581	caution	-0.1124327
-4.782413	cautions	-0.1124327
-4.782413	cavalery	-0.1124327
-4.622581	cave	-0.1124327
-4.782413	cavern	-0.1124327
-4.782413	caves	-0.1124327
-4.622581	cawdor	-0.1124327
-4.10056	cease	-0.195333
-4.782413	ceased	-0.1124327
-4.782413	cedar	-0.1124327
-4.782413	celebrate	-0.1124327
-4.782413	celebration	-0.1124327
-4.514499	celerity	-0.1124327
-4.782413	celestial	-0.1124327
-4.622581	celia	-0.2413999
-4.10056	cell	-0.2182728
-4.782413	censer	-0.1124327
-4.259973	censure	-0.1124327
-4.782413	censured	-0.1124327
-4.782413	censures	-0.1124327
-4.782413	censuring	-0.1124327
-4.622581	centaur	-0.1124327
-4.782413	centaurs	-0.1124327
-4.782413	cerecloth	-0.1124327
-4.782413	cerements	-0.1124327
-4.259973	ceremonies	-0.1124327
-4.622581	ceremonious	-0.1124327
-3.89253	ceremony	-0.2209871
-4.622581	ceres	-0.1124327
-3.696382	certain	-0.2098997
-4.782413	certainer	-0.1124327
-4.172993	certainly	-0.1455437
-4.782413	certainty	-0.1124327
-4.782413	certified	-0.1124327
-4.782413	certifies	-0.1124327
-4.10056	cesario	-0.3304377
-4.622581	cessez	-0.1124327
-4.622581	chafes	-0.1124327
-4.782413	chafèd	-0.1124327
-4.038498	chain	-0.1987396
-4.782413	chains	-0.1124327
-4.259973	chair	-0.1721466
-4.782413	chairs	-0.1124327
-4.782413	chalked	-0.1124327
-4.782413	chalky	-0.1124327
-3.89253	challenge	-0.1883051
-4.514499	challenged	-0.1124327
-4.622581	challenger	-0.1124327
-3.816874	chamber	-0.2613584
-4.782413	chamberlain	-0.1124327
-4.782413	chambers	-0.1124327
-4.782413	chameleon	-0.1124327
-4.782413	champaign	-0.1124327
-3.853057	chance	-0.174462
-4.514499	chanced	-0.1721466
-4.622581	chances	-0.1124327
-3.561751	change	-0.2058902
-4.622581	changeable	-0.1124327
-4.10056	changed	-0.2051561
-4.622581	changeling	-0.1124327
-4.368851	changes	-0.1124327
-4.782413	changing	-0.1124327
-4.622581	changèd	-0.1124327
-4.782413	channel	-0.1124327
-4.782413	chanticleer	-0.1124327
-4.782413	chantries	-0.1124327
-4.622581	chapel	-0.1124327
-4.782413	chaplain	-0.1124327
-4.782413	chaps	-0.1124327
-4.782413	chapter	-0.1124327
-4.368851	character	-0.2334982
-4.782413	chares	-0.1124327
-3.581486	charge	-0.257893
-3.935954	charged	-0.1332093
-4.782413	chargeful	-0.1124327
-4.514499	charges	-0.1124327
-4.782413	chariot	-0.1124327
-4.259973	charitable	-0.1124327
-4.782413	charitably	-0.1124327
-3.984207	charity	-0.301982
-4.172993	charles	-0.1455437
-3.89253	charm	-0.1332093
-4.622581	charmed	-0.1124327
-4.782413	charmeth	-0.1124327
-4.10056	charmian	-0.3054307
-4.782413	charmingly	-0.1124327
-4.10056	charms	-0.1379645
-4.782413	charmèd	-0.1124327
-4.622581	charter	-0.1124327
-4.782413	charybdis	-0.1124327
-4.259973	chase	-0.2334982
-4.782413	chased	-0.1124327
-4.514499	chaste	-0.1124327
-4.782413	chastise	-0.1124327
-4.782413	chastised	-0.1124327
-4.514499	chastisement	-0.1124327
-4.514499	chastity	-0.1940265
-4.782413	chasèd	-0.1124327
-4.368851	chat	-0.2334982
-4.782413	chattels	-0.1124327
-4.782413	chattering	-0.1124327
-4.782413	cheap	-0.1124327
-4.782413	cheat	-0.1124327
-4.782413	cheaters	-0.1124327
-4.368851	check	-0.1124327
-4.622581	checks	-0.1124327
-3.984207	cheek	-0.174462
-4.514499	cheeks	-0.1124327
-3.816874	cheer	-0.1754951
-4.622581	cheered	-0.1124327
-4.782413	cheerer	-0.1124327
-4.782413	cheerest	-0.1124327
-4.782413	cheerful	-0.1124327
-4.514499	cheerfully	-0.1124327
-4.782413	cheering	-0.1124327
-4.782413	cheerless	-0.1124327
-4.514499	cheerly	-0.3382579
-4.782413	cheese	-0.1124327
-4.514499	cherish	-0.1124327
-4.622581	cherished	-0.1124327
-4.514499	cherry	-0.1124327
-4.782413	cherry-pit	-0.1124327
-4.782413	chertsey	-0.1124327
-4.782413	cherubim	-0.1124327
-4.782413	cherubin	-0.1124327
-4.782413	cheshu	-0.1124327
-4.782413	chest	-0.1124327
-4.782413	chestnuts	-0.1124327
-4.782413	chests	-0.1124327
-4.782413	cheval	-0.1124327
-4.782413	chew	-0.1124327
-4.782413	chickens	-0.1124327
-4.514499	chid	-0.1595289
-4.622581	chidden	-0.1124327
-4.10056	chide	-0.1412641
-4.514499	chides	-0.1124327
-4.622581	chiding	-0.1124327
-4.368851	chief	-0.1124327
-4.622581	chiefest	-0.1124327
-4.514499	chiefly	-0.1124327
-4.782413	chien	-0.1124327
-3.816874	child	-0.2622411
-4.782413	childeric	-0.1124327
-4.622581	childhood	-0.1124327
-4.782413	childing	-0.1124327
-4.782413	childlike	-0.1124327
-3.62387	children	-0.291755
-4.782413	chill	-0.1124327
-4.782413	chimney	-0.1124327
-4.782413	chimneys	-0.1124327
-4.368851	chin	-0.1595289
-4.782413	chink	-0.1124327
-4.514499	chins	-0.1124327
-4.782413	chirurgeonly	-0.1124327
-4.782413	chivalry	-0.1124327
-4.038498	choice	-0.1867576
-4.514499	choke	-0.1124327
-4.782413	choked	-0.1124327
-4.782413	choler	-0.1124327
-4.172993	choleric	-0.1513162
-3.752462	choose	-0.2182699
-4.782413	chooseth	-0.1124327
-4.782413	choosing	-0.1124327
-4.622581	chop	-0.1124327
-4.782413	chopped	-0.1124327
-4.782413	chorus	-0.1124327
-4.622581	chose	-0.1124327
-4.782413	chosen	-0.1124327
-4.782413	chough	-0.1124327
-4.782413	choughs	-0.1124327
-4.514499	chrish	-0.1940265
-4.782413	christ	-0.1124327
-4.622581	christendom	-0.1124327
-4.782413	christened	-0.1124327
-4.038498	christian	-0.1729195
-4.514499	christians	-0.1124327
-4.782413	christopher	-0.1124327
-4.782413	christophero	-0.1124327
-4.622581	chronicle	-0.1124327
-4.782413	chronicled	-0.1124327
-4.782413	chronicles	-0.1124327
-4.782413	chrysolite	-0.1124327
-4.622581	chuck	-0.1124327
-4.10056	church	-0.1780638
-4.782413	churchman	-0.1124327
-4.782413	churchmen	-0.1124327
-4.782413	churchyards	-0.1124327
-4.782413	churl	-0.1124327
-4.514499	churlish	-0.1124327
-4.782413	chus	-0.1124327
-4.782413	ciceley	-0.1124327
-4.259973	cicero	-0.1124327
-4.514499	cimber	-0.1513162
-4.782413	cine	-0.1124327
-4.10056	cinna	-0.3357684
-4.782413	cinquepace	-0.1124327
-4.782413	cipher	-0.1124327
-4.622581	circle	-0.1124327
-4.782413	circumcisèd	-0.1124327
-4.172993	circumstance	-0.1455437
-4.782413	circumstanced	-0.1124327
-4.368851	circumstances	-0.1124327
-4.782413	circumstantial	-0.1124327
-4.622581	cistern	-0.1124327
-4.782413	citadel	-0.1124327
-4.782413	cited	-0.1124327
-4.514499	cities	-0.1124327
-4.782413	citizen	-0.1124327
-4.038498	citizens	-0.2250278
-4.368851	city	-0.1379645
-4.514499	civet	-0.1124327
-3.935954	civil	-0.1353427
-4.514499	civility	-0.1124327
-4.782413	clad	-0.1124327
-3.783475	claim	-0.143256
-4.782413	claimed	-0.1124327
-4.782413	claiming	-0.1124327
-4.782413	claims	-0.1124327
-4.514499	clamor	-0.1124327
-4.782413	clamored	-0.1124327
-4.368851	clamorous	-0.1124327
-4.514499	clamors	-0.1124327
-4.622581	clap	-0.1124327
-4.622581	clapped	-0.1124327
-4.782413	clapper	-0.1124327
-3.670842	clarence	-0.2937331
-4.514499	claribel	-0.1124327
-4.782413	clatter	-0.1124327
-3.602162	claudio	-0.3824984
-4.782413	claws	-0.1124327
-4.782413	clay	-0.1124327
-4.259973	clean	-0.1124327
-4.782413	cleanliest	-0.1124327
-4.782413	cleanse	-0.1124327
-4.038498	clear	-0.1124327
-4.622581	clearly	-0.1124327
-4.622581	clears	-0.1124327
-4.514499	cleave	-0.1940265
-4.622581	cleft	-0.1124327
-3.723517	cleopatra	-0.2035352
-4.782413	clepe	-0.1124327
-4.782413	clept	-0.1124327
-4.782413	clerestories	-0.1124327
-4.782413	clergymen	-0.1124327
-4.259973	clerk	-0.1455437
-4.622581	cliff	-0.2413999
-4.514499	climate	-0.1124327
-4.782413	climb	-0.1124327
-4.782413	climbing	-0.1124327
-4.782413	clime	-0.1124327
-4.622581	cling	-0.1124327
-4.622581	clip	-0.1124327
-4.782413	clipped	-0.1124327
-4.782413	clipper	-0.1124327
-4.622581	clitus	-0.1124327
-4.622581	cloak	-0.2413999
-4.172993	clock	-0.1353427
-4.782413	clod	-0.1124327
-4.782413	clodpole	-0.1124327
-4.782413	clogs	-0.1124327
-4.782413	cloistered	-0.1124327
-3.723517	close	-0.1937432
-4.782413	closely	-0.1124327
-4.782413	closeness	-0.1124327
-4.368851	closet	-0.1721466
-4.782413	clothair	-0.1124327
-4.622581	clothe	-0.1124327
-4.514499	clothes	-0.1124327
-4.782413	clotpoll	-0.1124327
-4.368851	cloud	-0.1721466
-4.782413	clouds	-0.1124327
-4.782413	cloudy	-0.1124327
-4.782413	clout	-0.1124327
-4.782413	clouts	-0.1124327
-4.782413	cloven	-0.1124327
-4.782413	clowder	-0.1124327
-4.622581	clown	-0.1124327
-4.782413	cloy	-0.1124327
-4.782413	cloyment	-0.1124327
-4.782413	clubs	-0.1124327
-4.782413	co-mates	-0.1124327
-4.782413	coach	-0.1124327
-4.782413	coals	-0.1124327
-4.782413	coasting	-0.1124327
-4.368851	coat	-0.1721466
-4.622581	coats	-0.1124327
-4.782413	cobble	-0.1124327
-4.782413	cobbler	-0.1124327
-4.259973	cobweb	-0.1595289
-4.782413	cobwebs	-0.1124327
-4.172993	cock	-0.195333
-4.782413	cock-	-0.1124327
-4.782413	cock-a-diddle-dow	-0.1124327
-4.782413	cockatrices	-0.1124327
-4.782413	cockerel	-0.1124327
-4.782413	cockle	-0.1124327
-4.782413	cockney	-0.1124327
-4.782413	cocks	-0.1124327
-4.782413	cockshut	-0.1124327
-4.782413	codling	-0.1124327
-4.782413	codpiece	-0.1124327
-4.782413	cods	-0.1124327
-4.622581	coffer	-0.1124327
-4.782413	coffers	-0.1124327
-4.782413	coffin	-0.1124327
-4.782413	cogging	-0.1124327
-4.782413	cognizance	-0.1124327
-4.782413	coign	-0.1124327
-4.622581	coil	-0.1124327
-4.782413	coin	-0.1124327
-4.782413	coistrel	-0.1124327
-3.542874	cold	-0.2457857
-4.782413	colder	-0.1124327
-4.782413	coldhearted	-0.1124327
-4.514499	coldly	-0.1124327
-4.782413	collect	-0.1124327
-4.782413	collected	-0.1124327
-4.782413	college	-0.1124327
-4.782413	collied	-0.1124327
-4.782413	collier	-0.1124327
-4.782413	colme	-0.1124327
-4.782413	colmekill	-0.1124327
-4.782413	coloquintida	-0.1124327
-3.816874	color	-0.1564309
-4.259973	colors	-0.1124327
-4.782413	colossus	-0.1124327
-4.782413	colt	-0.1124327
-4.782413	colts	-0.1124327
-4.514499	com	-0.3382579
-4.782413	comb	-0.1124327
-4.782413	combated	-0.1124327
-4.782413	combating	-0.1124327
-4.782413	combed	-0.1124327
-4.782413	combine	-0.1124327
-4.782413	combined	-0.1124327
-4.782413	combinèd	-0.1124327
-4.782413	combustion	-0.1124327
-2.920642	come	-0.4991975
-4.782413	comedian	-0.1124327
-4.514499	comedy	-0.1124327
-4.782413	comely	-0.1124327
-3.185688	comes	-0.2936766
-4.622581	comest	-0.1124327
-4.782413	comets	-0.1124327
-4.782413	comfect	-0.1124327
-3.561751	comfort	-0.2277172
-4.622581	comfortable	-0.1124327
-4.782413	comforted	-0.1124327
-4.782413	comforter	-0.1124327
-4.368851	comforts	-0.1124327
-3.602162	coming	-0.289941
-4.782413	comings	-0.1124327
-3.490716	command	-0.2672091
-4.172993	commanded	-0.1124327
-4.622581	commander	-0.1124327
-4.622581	commanders	-0.1124327
-4.514499	commandment	-0.1940265
-4.172993	commands	-0.1513162
-4.782413	commencement	-0.1124327
-3.89253	commend	-0.2543661
-4.622581	commendable	-0.1124327
-4.368851	commendation	-0.1124327
-4.782413	commended	-0.1124327
-4.259973	commends	-0.2968889
-4.782413	comment	-0.1124327
-4.782413	commenting	-0.1124327
-4.622581	commerce	-0.1124327
-4.10056	commission	-0.1595289
-4.782413	commissioners	-0.1124327
-4.514499	commit	-0.1721466
-4.622581	commits	-0.1124327
-4.038498	committed	-0.2182728
-4.622581	commodities	-0.1124327
-4.622581	commodity	-0.1124327
-3.752462	common	-0.1292861
-4.782413	commoner	-0.1124327
-4.622581	commonly	-0.1124327
-4.782413	commons	-0.1124327
-4.782413	commonwealth	-0.1124327
-4.622581	commune	-0.2413999
-4.782413	communication	-0.1124327
-4.259973	compact	-0.1124327
-4.514499	companies	-0.1940265
-4.259973	companion	-0.1940265
-4.622581	companions	-0.1124327
-3.38895	company	-0.4496949
-4.172993	compare	-0.1513162
-4.782413	comparison	-0.1124327
-4.622581	comparisons	-0.1124327
-4.259973	compass	-0.1595289
-4.782413	compassed	-0.1124327
-4.782413	compasses	-0.1124327
-4.782413	compassing	-0.1124327
-4.782413	compassion	-0.1124327
-4.622581	compel	-0.1124327
-4.622581	compelled	-0.1124327
-4.782413	compelling	-0.1124327
-4.782413	competent	-0.1124327
-4.514499	competitors	-0.1124327
-4.622581	complain	-0.1124327
-4.782413	complained	-0.1124327
-4.782413	complainest	-0.1124327
-4.782413	complaining	-0.1124327
-4.782413	complains	-0.1124327
-4.622581	complaints	-0.2413999
-4.10056	complexion	-0.175495
-4.368851	compliment	-0.1124327
-4.782413	complots	-0.1124327
-4.622581	comply	-0.1124327
-4.782413	compose	-0.1124327
-4.514499	composed	-0.1124327
-4.622581	composition	-0.1124327
-4.514499	compound	-0.1124327
-4.622581	compounded	-0.1124327
-4.782413	comprised	-0.1124327
-4.622581	compt	-0.1124327
-4.782413	comptible	-0.1124327
-4.782413	compulsatory	-0.1124327
-4.782413	compulsion	-0.1124327
-4.782413	computation	-0.1124327
-4.782413	con	-0.1124327
-4.782413	concavities	-0.1124327
-4.514499	conceal	-0.1124327
-4.622581	concealed	-0.1124327
-4.782413	concealment	-0.1124327
-4.782413	conceals	-0.1124327
-4.10056	conceit	-0.2053943
-4.622581	conceited	-0.1124327
-4.782413	conceits	-0.1124327
-4.259973	conceive	-0.1513162
-4.622581	conceived	-0.1124327
-4.368851	conception	-0.1124327
-4.622581	concern	-0.1124327
-4.782413	concernancy	-0.1124327
-4.368851	concerning	-0.1124327
-4.782413	concernings	-0.1124327
-4.368851	concerns	-0.1124327
-4.368851	conclude	-0.2698868
-4.368851	concluded	-0.1124327
-4.259973	conclusion	-0.2108296
-4.514499	conclusions	-0.1940265
-4.622581	concord	-0.1124327
-4.782413	concurs	-0.1124327
-4.368851	condemn	-0.1721466
-4.782413	condemnation	-0.1124327
-4.368851	condemned	-0.1721465
-4.782413	condemning	-0.1124327
-3.816874	condition	-0.2108417
-4.368851	conditions	-0.1721466
-4.782413	condole	-0.1124327
-4.782413	condoling	-0.1124327
-4.10056	conduct	-0.181389
-4.782413	conductor	-0.1124327
-4.622581	confederacy	-0.1124327
-4.622581	confederates	-0.1124327
-4.622581	confer	-0.2413999
-3.984207	conference	-0.2051561
-4.782413	conferring	-0.1124327
-3.783475	confess	-0.2307408
-4.259973	confessed	-0.1595289
-4.782413	confesses	-0.1124327
-4.622581	confession	-0.1124327
-4.782413	confessions	-0.1124327
-4.622581	confidence	-0.1124327
-4.782413	confident	-0.1124327
-4.514499	confine	-0.1124327
-4.368851	confined	-0.1124327
-4.514499	confines	-0.1124327
-4.782413	confining	-0.1124327
-4.782413	confinèd	-0.1124327
-4.514499	confirm	-0.1124327
-4.259973	confirmed	-0.1595289
-4.782413	confirms	-0.1124327
-4.782413	confiscate	-0.1124327
-4.782413	conflict	-0.1124327
-4.782413	conflicting	-0.1124327
-4.782413	conformable	-0.1124327
-4.514499	confound	-0.1124327
-4.782413	confounds	-0.1124327
-4.514499	confused	-0.1124327
-4.10056	confusion	-0.195333
-4.622581	congealed	-0.1124327
-4.782413	congregation	-0.1124327
-4.782413	conjecture	-0.1124327
-4.782413	conjoin	-0.1124327
-4.622581	conjoined	-0.1124327
-4.782413	conjointly	-0.1124327
-4.782413	conjunct	-0.1124327
-4.622581	conjunction	-0.1124327
-4.782413	conjunctive	-0.1124327
-4.782413	conjuration	-0.1124327
-4.259973	conjure	-0.1513162
-4.622581	conjured	-0.1124327
-4.782413	conjurer	-0.1124327
-4.782413	conjures	-0.1124327
-4.782413	conned	-0.1124327
-4.782413	conqu	-0.1124327
-4.622581	conquer	-0.1124327
-4.622581	conquered	-0.1124327
-4.622581	conquering	-0.1124327
-4.514499	conqueror	-0.1940265
-4.782413	conquerors	-0.1124327
-4.10056	conquest	-0.1124327
-4.782413	conquests	-0.1124327
-4.368851	conrade	-0.1721466
-3.752462	conscience	-0.2258196
-4.782413	consciences	-0.1124327
-4.782413	consecrate	-0.1124327
-3.853057	consent	-0.187283
-4.622581	consented	-0.1124327
-4.172993	consequence	-0.1455437
-4.782413	consequences	-0.1124327
-4.782413	conserved	-0.1124327
-4.782413	conserves	-0.1124327
-4.10056	consider	-0.127571
-4.782413	consideration	-0.1124327
-4.622581	considered	-0.1124327
-4.622581	consign	-0.1124327
-4.782413	consist	-0.1124327
-4.782413	consistory	-0.1124327
-4.782413	consists	-0.1124327
-4.782413	consolation	-0.1124327
-4.514499	consort	-0.1124327
-4.782413	consorted	-0.1124327
-4.514499	conspiracy	-0.1124327
-4.622581	conspirator	-0.2413999
-4.782413	conspirators	-0.1124327
-4.622581	conspire	-0.1124327
-4.782413	conspired	-0.1124327
-4.782413	conspirers	-0.1124327
-4.259973	constable	-0.2455918
-4.368851	constancy	-0.2698868
-3.89253	constant	-0.143256
-4.622581	constantly	-0.2413999
-4.782413	constellation	-0.1124327
-4.622581	conster	-0.1124327
-4.622581	constitution	-0.2413999
-4.782413	constrain	-0.1124327
-4.782413	constrained	-0.1124327
-4.782413	constrains	-0.1124327
-4.782413	constraint	-0.1124327
-4.514499	construction	-0.1124327
-4.514499	construe	-0.1124327
-4.514499	consuls	-0.1940265
-4.782413	consult	-0.1124327
-4.622581	consume	-0.1124327
-4.782413	consumed	-0.1124327
-4.782413	consummate	-0.1124327
-4.782413	consummation	-0.1124327
-4.622581	consumption	-0.1124327
-4.622581	contagion	-0.1124327
-4.259973	contagious	-0.1124327
-4.622581	contain	-0.1124327
-4.782413	contained	-0.1124327
-4.782413	containing	-0.1124327
-4.514499	contains	-0.1940266
-4.622581	contaminate	-0.1124327
-4.782413	contaminated	-0.1124327
-4.782413	contemned	-0.1124327
-4.782413	contemning	-0.1124327
-4.782413	contemns	-0.1124327
-4.514499	contemplation	-0.1124327
-4.782413	contemplative	-0.1124327
-4.514499	contempt	-0.1940265
-4.782413	contemptible	-0.1124327
-4.622581	contending	-0.1124327
-3.542874	content	-0.3709165
-4.10056	contented	-0.1840628
-4.622581	contention	-0.1124327
-4.782413	contentious	-0.1124327
-4.368851	contents	-0.1595289
-4.782413	contest	-0.1124327
-4.782413	contestation	-0.1124327
-4.514499	continent	-0.1124327
-4.782413	continents	-0.1124327
-4.782413	continual	-0.1124327
-4.622581	continually	-0.1124327
-4.514499	continue	-0.1124327
-4.782413	continuer	-0.1124327
-4.622581	continues	-0.1124327
-4.514499	contract	-0.1124327
-4.782413	contracted	-0.1124327
-4.782413	contradict	-0.1124327
-4.782413	contradiction	-0.1124327
-4.514499	contrary	-0.1595289
-4.782413	contrite	-0.1124327
-4.514499	contrive	-0.1124327
-4.622581	contriver	-0.1124327
-4.782413	contriving	-0.1124327
-4.514499	control	-0.1124327
-4.782413	controlment	-0.1124327
-4.782413	controversy	-0.1124327
-4.259973	convenient	-0.1513163
-4.782413	conveniently	-0.1124327
-4.514499	conversation	-0.1124327
-4.622581	converse	-0.1124327
-4.782413	conversed	-0.1124327
-4.782413	conversion	-0.1124327
-4.782413	convert	-0.1124327
-4.622581	converted	-0.1124327
-4.782413	converting	-0.1124327
-4.782413	convertites	-0.1124327
-4.172993	convey	-0.1124327
-4.782413	conveyance	-0.1124327
-4.514499	conveyed	-0.1124327
-4.782413	convict	-0.1124327
-4.782413	convinces	-0.1124327
-4.782413	convoy	-0.1124327
-4.782413	convulsions	-0.1124327
-4.782413	cony	-0.1124327
-4.782413	cony-catched	-0.1124327
-4.514499	cook	-0.1940265
-4.782413	cookery	-0.1124327
-4.259973	cool	-0.1124327
-4.514499	cooled	-0.1124327
-4.622581	cooling	-0.1124327
-4.782413	cools	-0.1124327
-4.782413	cope	-0.1124327
-4.782413	coped	-0.1124327
-4.782413	copied	-0.1124327
-4.782413	copulation	-0.1124327
-4.782413	copy	-0.1124327
-4.782413	coraggio	-0.1124327
-4.782413	coral	-0.1124327
-4.782413	coranto	-0.1124327
-3.935954	cordelia	-0.3054307
-4.782413	cordial	-0.1124327
-4.782413	cords	-0.1124327
-4.622581	corin	-0.2413999
-4.514499	corinth	-0.1940265
-4.782413	cork	-0.1124327
-4.782413	corky	-0.1124327
-4.782413	corn	-0.1124327
-4.622581	corner	-0.1124327
-4.622581	corners	-0.1124327
-4.622581	cornish	-0.1124327
-4.259973	cornwall	-0.1721466
-4.782413	corollary	-0.1124327
-4.622581	coronation	-0.1124327
-4.622581	corporal	-0.1940265
-4.782413	corpse	-0.1124327
-4.782413	correct	-0.1124327
-4.622581	correction	-0.1124327
-4.782413	correspondent	-0.1124327
-4.782413	corrupt	-0.1124327
-4.514499	corrupted	-0.1124327
-4.622581	corrupting	-0.1124327
-4.368851	corruption	-0.1124327
-4.782413	corruptly	-0.1124327
-4.622581	corse	-0.1124327
-4.10056	cost	-0.1953329
-4.782413	costard	-0.1124327
-4.622581	costly	-0.1124327
-4.782413	costs	-0.1124327
-4.622581	cote	-0.1124327
-4.782413	cottage	-0.1124327
-4.259973	couch	-0.1124327
-4.782413	couching	-0.1124327
-4.782413	couchings	-0.1124327
-4.782413	cough	-0.1124327
-3.228292	could	-0.296936
-4.368851	couldst	-0.175495
-4.782413	coulter	-0.1124327
-4.172993	council	-0.1124327
-4.782413	councilor	-0.1124327
-4.514499	councils	-0.1940265
-3.581486	counsel	-0.2796197
-4.782413	counseled	-0.1124327
-4.782413	counselor	-0.1124327
-4.782413	counselors	-0.1124327
-4.514499	counsels	-0.1124327
-3.89253	count	-0.2413238
-3.984207	countenance	-0.1124327
-4.622581	counter	-0.1124327
-4.782413	countercheck	-0.1124327
-3.816874	counterfeit	-0.1945976
-4.782413	counterfeited	-0.1124327
-4.782413	counterfeiting	-0.1124327
-4.622581	counterfeits	-0.1124327
-4.782413	countermand	-0.1124327
-4.782413	countermines	-0.1124327
-4.782413	counterpoise	-0.1124327
-4.782413	countess	-0.1124327
-4.782413	counties	-0.1124327
-4.622581	countries	-0.1124327
-3.816874	country	-0.1899093
-4.259973	countryman	-0.1940265
-4.10056	countrymen	-0.2334982
-4.782413	counts	-0.1124327
-4.622581	county	-0.1124327
-4.259973	couple	-0.1124327
-4.782413	coupled	-0.1124327
-4.782413	couplet	-0.1124327
-4.782413	couplets	-0.1124327
-3.984207	courage	-0.1949406
-4.622581	courageous	-0.1124327
-4.782413	courageously	-0.1124327
-3.581486	course	-0.3670786
-4.782413	coursed	-0.1124327
-4.622581	courser	-0.1124327
-4.782413	coursers	-0.1124327
-4.782413	coursing	-0.1124327
-3.62387	court	-0.3475907
-4.259973	courteous	-0.1124327
-4.782413	courtesans	-0.1124327
-4.368851	courtesies	-0.1124327
-3.853057	courtesy	-0.2695673
-4.368851	courtier	-0.1721466
-4.622581	courtiers	-0.1124327
-4.782413	courtly	-0.1124327
-4.782413	courtney	-0.1124327
-4.782413	courtship	-0.1124327
-3.62387	cousin	-0.3249989
-4.259973	cousins	-0.1595289
-4.782413	covenants	-0.1124327
-4.038498	cover	-0.1124327
-4.368851	covered	-0.1721466
-4.782413	coverlet	-0.1124327
-4.782413	covers	-0.1124327
-4.782413	covertly	-0.1124327
-4.782413	covet	-0.1124327
-4.782413	covetous	-0.1124327
-4.622581	covetousness	-0.2413999
-4.782413	cow	-0.1124327
-3.984207	coward	-0.1936901
-4.622581	cowardice	-0.2413999
-4.259973	cowardly	-0.1595289
-4.259973	cowards	-0.1513162
-4.782413	cowardship	-0.1124327
-4.622581	cowslip	-0.1124327
-4.782413	cowslips	-0.1124327
-4.038498	coxcomb	-0.3151829
-4.622581	coxcombs	-0.1124327
-4.782413	coy	-0.1124327
-4.172993	coz	-0.5129248
-4.782413	cozen	-0.1124327
-4.782413	cozenage	-0.1124327
-4.782413	cozener	-0.1124327
-4.782413	cozening	-0.1124327
-4.514499	crab	-0.1595289
-4.782413	crabbed	-0.1124327
-4.038498	crack	-0.1412642
-4.514499	cracked	-0.1124327
-4.782413	cracks	-0.1124327
-4.622581	cradle	-0.2413999
-4.782413	craft	-0.1124327
-4.782413	craftily	-0.1124327
-4.782413	crafty	-0.1124327
-4.782413	cram	-0.1124327
-4.782413	cramp	-0.1124327
-4.622581	cramps	-0.2413999
-4.782413	cranny	-0.1124327
-4.782413	crants	-0.1124327
-4.782413	crassus	-0.1124327
-4.259973	crave	-0.1813891
-4.782413	craved	-0.1124327
-4.782413	craven	-0.1124327
-4.259973	craves	-0.1940265
-4.782413	craving	-0.1124327
-4.782413	crawling	-0.1124327
-4.782413	crazed	-0.1124327
-4.782413	crazèd	-0.1124327
-4.782413	cream-faced	-0.1124327
-4.622581	create	-0.1124327
-4.782413	created	-0.1124327
-4.782413	creating	-0.1124327
-3.853057	creature	-0.2371089
-3.935954	creatures	-0.1595289
-4.782413	credent	-0.1124327
-4.038498	credit	-0.1851418
-4.782413	creditor	-0.1124327
-4.622581	creditors	-0.1124327
-4.622581	credulous	-0.1124327
-4.782413	creeks	-0.1124327
-4.514499	creep	-0.1124327
-4.514499	creeping	-0.1124327
-4.622581	creeps	-0.1124327
-4.259973	crept	-0.1124327
-4.782413	crescent	-0.1124327
-4.782413	cressid	-0.1124327
-4.782413	crest	-0.1124327
-4.782413	crested	-0.1124327
-4.622581	crests	-0.1124327
-4.782413	cretan	-0.1124327
-4.782413	crete	-0.1124327
-4.514499	crew	-0.1124327
-4.782413	cricket	-0.1124327
-4.782413	crickets	-0.1124327
-3.816874	cried	-0.2777764
-4.782413	criedst	-0.1124327
-3.853057	cries	-0.1800543
-4.622581	crime	-0.1124327
-4.514499	crimes	-0.1124327
-4.782413	crimson	-0.1124327
-4.782413	cringe	-0.1124327
-4.782413	cripple	-0.1124327
-4.782413	crispianus	-0.1124327
-4.782413	crispin	-0.1124327
-4.782413	crispèd	-0.1124327
-4.622581	critical	-0.1124327
-4.782413	croak	-0.1124327
-4.782413	croaking	-0.1124327
-4.782413	crocodile	-0.1124327
-4.782413	crook	-0.1124327
-4.782413	crooked	-0.1124327
-4.782413	cropped	-0.1124327
-4.782413	crosby	-0.1124327
-3.853057	cross	-0.1672501
-4.368851	cross-gartered	-0.2123605
-4.782413	cross-gartering	-0.1124327
-4.622581	crossed	-0.1124327
-4.514499	crosses	-0.1124327
-4.782413	crossing	-0.1124327
-4.782413	crossrow	-0.1124327
-4.782413	crost	-0.1124327
-4.259973	crow	-0.1455437
-4.782413	crowd	-0.1124327
-4.782413	crowing	-0.1124327
-3.723517	crown	-0.1996885
-4.782413	crown-color	-0.1124327
-4.172993	crowned	-0.1650915
-4.622581	crowner	-0.1124327
-4.782413	crownets	-0.1124327
-4.782413	crowning	-0.1124327
-3.89253	crowns	-0.1739161
-4.622581	crownèd	-0.2413999
-4.514499	crows	-0.1124327
-4.782413	cru	-0.1124327
-4.038498	cruel	-0.1124327
-4.782413	cruelly	-0.1124327
-4.10056	cruelty	-0.3796262
-4.782413	crumb	-0.1124327
-4.782413	crupper	-0.1124327
-4.782413	crusadoes	-0.1124327
-4.622581	crush	-0.1124327
-4.622581	crushed	-0.1124327
-4.622581	crust	-0.1124327
-4.782413	cruèl	-0.1124327
-4.782413	cruèls	-0.1124327
-3.459128	cry	-0.3758162
-4.514499	crying	-0.1124327
-4.782413	crystal	-0.1124327
-4.782413	crystals	-0.1124327
-4.782413	cub-drawn	-0.1124327
-4.622581	cuckold	-0.1124327
-4.782413	cuckolds	-0.1124327
-4.782413	cuckoo	-0.1124327
-4.514499	cudgel	-0.1940265
-4.514499	cudgeled	-0.1124327
-4.622581	cudgels	-0.2413999
-4.514499	cue	-0.2413999
-4.782413	cues	-0.1124327
-4.622581	cuff	-0.1124327
-4.782413	cuffs	-0.1124327
-4.782413	cullions	-0.1124327
-4.782413	cum	-0.1124327
-4.782413	cumber	-0.1124327
-3.752462	cunning	-0.1467727
-4.368851	cup	-0.1412641
-3.984207	cupid	-0.2694254
-4.782413	cupids	-0.1124327
-4.514499	cups	-0.1940265
-3.984207	cur	-0.1124327
-4.782413	curan	-0.1124327
-4.782413	curate	-0.1124327
-4.782413	curb	-0.1124327
-3.89253	cure	-0.2011155
-4.782413	cured	-0.1124327
-4.782413	cureless	-0.1124327
-4.782413	curfew	-0.1124327
-4.782413	curing	-0.1124327
-4.782413	curio	-0.1124327
-4.622581	curiosity	-0.1124327
-4.622581	curious	-0.1124327
-4.782413	curiously	-0.1124327
-4.782413	curl	-0.1124327
-4.782413	curlèd	-0.1124327
-4.259973	current	-0.1124327
-4.622581	currents	-0.1124327
-4.514499	currish	-0.1124327
-4.368851	curs	-0.1721466
-3.646722	curse	-0.1863896
-4.172993	cursed	-0.1124327
-4.259973	curses	-0.1940265
-4.782413	cursing	-0.1124327
-4.782413	cursitory	-0.1124327
-4.368851	curst	-0.1595289
-4.782413	curstest	-0.1124327
-4.368851	cursèd	-0.1721466
-4.622581	curtain	-0.1124327
-4.782413	curtains	-0.1124327
-4.782413	curtal	-0.1124327
-4.622581	curtis	-0.1940265
-4.782413	curtsies	-0.1124327
-4.622581	curtsy	-0.1124327
-4.782413	curvets	-0.1124327
-4.782413	cushions	-0.1124327
-4.782413	custard-coffin	-0.1124327
-4.622581	custody	-0.1124327
-4.10056	custom	-0.1687605
-4.782413	customers	-0.1124327
-4.782413	customs	-0.1124327
-3.429683	cut	-0.2400558
-4.782413	cutler	-0.1124327
-4.782413	cutout	-0.1124327
-4.782413	cutpurse	-0.1124327
-4.368851	cuts	-0.2698868
-4.782413	cutthroat	-0.1124327
-4.782413	cutthroats	-0.1124327
-4.782413	cutting	-0.1124327
-4.10056	cyprus	-0.3317527
-4.514499	d	-0.1199359
-4.782413	daff	-0.1124327
-4.782413	daffed	-0.1124327
-4.038498	dagger	-0.2023468
-4.038498	daggers	-0.1379645
-4.622581	daily	-0.1124327
-4.782413	dainties	-0.1124327
-4.782413	daintily	-0.1124327
-4.622581	dainty	-0.1124327
-4.782413	dale	-0.1124327
-4.622581	dalliance	-0.1124327
-4.782413	dallied	-0.1124327
-4.514499	dally	-0.1124327
-4.622581	dallying	-0.1124327
-4.368851	dam	-0.1124327
-4.782413	damask	-0.1124327
-4.622581	dame	-0.1124327
-4.782413	dames	-0.1124327
-4.259973	damn	-0.1595289
-4.782413	damnable	-0.1124327
-4.10056	damnation	-0.1455437
-3.783475	damned	-0.1702621
-4.038498	damnèd	-0.1299475
-4.514499	dance	-0.1124327
-4.782413	danced	-0.1124327
-4.782413	dancer	-0.1124327
-4.514499	dances	-0.1124327
-4.622581	dancing	-0.1124327
-4.259973	dane	-0.2601821
-3.723517	danger	-0.2683237
-3.816874	dangerous	-0.1739161
-4.368851	dangers	-0.1124327
-4.622581	daniel	-0.1124327
-4.622581	danish	-0.1124327
-4.782413	dank	-0.1124327
-4.782413	dapples	-0.1124327
-4.368851	dar	-0.4631967
-4.782413	dardanian	-0.1124327
-4.622581	dardanius	-0.1124327
-3.783475	dare	-0.2258136
-4.782413	dared	-0.1124327
-4.782413	dareful	-0.1124327
-4.514499	dares	-0.1124327
-4.622581	darest	-0.1124327
-4.782413	daring	-0.1124327
-3.752462	dark	-0.1900136
-4.782413	dark-eyed	-0.1124327
-4.782413	dark-working	-0.1124327
-4.782413	darkens	-0.1124327
-4.622581	darkling	-0.1124327
-4.172993	darkness	-0.1455437
-4.782413	darling	-0.1124327
-4.782413	darnel	-0.1124327
-4.622581	dart	-0.1124327
-4.782413	darted	-0.1124327
-4.782413	darting	-0.1124327
-4.622581	darts	-0.1124327
-4.782413	dash	-0.1124327
-4.622581	dashed	-0.1124327
-4.782413	dashes	-0.1124327
-4.368851	dat	-0.1721466
-4.782413	date	-0.1124327
-4.782413	daubed	-0.1124327
-3.524783	daughter	-0.3331652
-3.723517	daughters	-0.3044774
-4.782413	dauntless	-0.1124327
-4.368851	dauphin	-0.163327
-4.782413	davy	-0.1124327
-4.782413	daw	-0.1124327
-4.622581	dawning	-0.1124327
-4.782413	daws	-0.1124327
-3.185688	day	-0.3997242
-4.368851	daylight	-0.1124327
-3.524783	days	-0.3218592
-4.10056	de	-0.1124327
-4.782413	de-de	-0.1124327
-3.202232	dead	-0.4384083
-4.782413	dead-killing	-0.1124327
-4.038498	deadly	-0.1124327
-4.782413	deaf	-0.1124327
-4.782413	deafness	-0.1124327
-4.038498	deal	-0.1379645
-4.782413	dealers	-0.1124327
-4.622581	dealing	-0.1124327
-4.782413	dealings	-0.1124327
-4.622581	dealt	-0.1124327
-3.429683	dear	-0.1993455
-4.782413	dear-belovèd	-0.1124327
-4.782413	deared	-0.1124327
-4.514499	dearer	-0.1124327
-4.172993	dearest	-0.1124327
-3.935954	dearly	-0.2587757
-4.782413	dearness	-0.1124327
-4.622581	dearth	-0.1124327
-3.219431	death	-0.4460146
-4.782413	deathbed	-0.1124327
-4.622581	deaths	-0.1124327
-4.514499	debate	-0.1124327
-4.782413	debated	-0.1124327
-4.622581	debating	-0.1124327
-4.782413	debauched	-0.1124327
-4.782413	debility	-0.1124327
-4.259973	debt	-0.195333
-4.782413	debted	-0.1124327
-4.622581	debtor	-0.2413999
-4.782413	debts	-0.1124327
-4.782413	decay	-0.1124327
-4.782413	decays	-0.1124327
-4.782413	decayèd	-0.1124327
-4.782413	deceased	-0.1124327
-4.782413	deceasèd	-0.1124327
-4.514499	deceitful	-0.1124327
-4.782413	deceivable	-0.1124327
-4.172993	deceive	-0.1513162
-3.89253	deceived	-0.3966932
-4.782413	deceiver	-0.1124327
-4.622581	deceiving	-0.1124327
-4.782413	december	-0.1124327
-4.259973	decius	-0.3126794
-4.622581	deck	-0.1124327
-4.622581	decked	-0.1124327
-4.782413	decking	-0.1124327
-4.622581	declare	-0.1124327
-4.622581	decline	-0.1940265
-4.622581	declined	-0.2413999
-4.622581	declining	-0.1124327
-4.782413	decorum	-0.1124327
-4.782413	decreased	-0.1124327
-4.622581	decree	-0.1124327
-4.622581	decreed	-0.1124327
-4.782413	decrees	-0.1124327
-4.782413	dedicated	-0.1124327
-4.782413	dedication	-0.1124327
-3.783475	deed	-0.2108353
-3.935954	deeds	-0.1353427
-3.602162	deep	-0.1789158
-4.782413	deep-mouthed	-0.1124327
-4.514499	deeper	-0.1940265
-4.368851	deeply	-0.1124327
-4.368851	deer	-0.1124327
-4.782413	deface	-0.1124327
-4.368851	defeat	-0.1124327
-4.782413	defeated	-0.1124327
-4.782413	defeatures	-0.1124327
-4.622581	defect	-0.1124327
-4.782413	defective	-0.1124327
-4.622581	defects	-0.1124327
-3.853057	defend	-0.1884654
-4.782413	defendant	-0.1124327
-4.782413	defends	-0.1124327
-4.038498	defense	-0.2533249
-4.782413	defenses	-0.1124327
-4.782413	deferred	-0.1124327
-4.514499	defiance	-0.1940265
-4.782413	defies	-0.1124327
-4.782413	defiled	-0.1124327
-4.782413	define	-0.1124327
-4.782413	definement	-0.1124327
-4.782413	deform	-0.1124327
-4.622581	deformed	-0.1124327
-4.782413	deformity	-0.1124327
-4.782413	deformèd	-0.1124327
-4.782413	defunct	-0.1124327
-4.782413	defused	-0.1124327
-4.259973	defy	-0.1124327
-4.782413	degenerate	-0.1124327
-4.038498	degree	-0.1840628
-4.622581	degrees	-0.1124327
-4.782413	deifying	-0.1124327
-4.782413	deign	-0.1124327
-4.622581	deity	-0.1124327
-4.038498	delay	-0.205156
-4.782413	deliberate	-0.1124327
-3.89253	delicate	-0.127571
-4.782413	delicious	-0.1124327
-3.853057	delight	-0.308884
-4.368851	delights	-0.2698868
-3.816874	deliver	-0.1702621
-3.984207	delivered	-0.1650915
-4.782413	delivering	-0.1124327
-4.622581	delivers	-0.1124327
-4.782413	deliverèd	-0.1124327
-4.782413	deluding	-0.1124327
-4.782413	delver	-0.1124327
-4.10056	demand	-0.1412641
-4.622581	demanded	-0.2413999
-4.782413	demanding	-0.1124327
-4.622581	demands	-0.1124327
-4.782413	demean	-0.1124327
-4.782413	demeanor	-0.1124327
-4.782413	demerits	-0.1124327
-3.853057	demetrius	-0.2078974
-4.782413	demi-cannon	-0.1124327
-4.782413	demi-devil	-0.1124327
-4.782413	demi-wolves	-0.1124327
-4.782413	demonstrable	-0.1124327
-4.782413	demonstrate	-0.1124327
-4.782413	demonstrating	-0.1124327
-4.782413	demonstration	-0.1124327
-4.782413	demurely	-0.1124327
-4.782413	demuring	-0.1124327
-4.782413	den	-0.1124327
-4.622581	denial	-0.2413999
-4.10056	denied	-0.1513162
-4.622581	denier	-0.1124327
-4.622581	denies	-0.1124327
-4.172993	denmark	-0.1851418
-4.782413	dennis	-0.1124327
-4.782413	denounced	-0.1124327
-4.782413	dens	-0.1124327
-3.542874	deny	-0.2775932
-4.622581	denying	-0.1124327
-4.782413	dep-artedst	-0.1124327
-3.816874	depart	-0.2361029
-4.514499	departure	-0.1721466
-4.622581	dependants	-0.1124327
-4.782413	dependency	-0.1124327
-4.514499	depends	-0.3382579
-4.782413	depositaries	-0.1124327
-4.782413	deposèd	-0.1124327
-4.782413	deprive	-0.1124327
-4.782413	deprived	-0.1124327
-4.782413	depth	-0.1124327
-4.782413	deputation	-0.1124327
-4.782413	depute	-0.1124327
-4.782413	deputing	-0.1124327
-4.782413	deracinate	-0.1124327
-4.782413	derby	-0.1124327
-4.782413	dercetus	-0.1124327
-4.782413	derides	-0.1124327
-4.782413	derived	-0.1124327
-4.622581	derives	-0.2413999
-4.782413	derogate	-0.1124327
-4.782413	descant	-0.1124327
-4.622581	descend	-0.1124327
-4.514499	descended	-0.1940265
-4.782413	described	-0.1124327
-4.782413	descried	-0.1124327
-4.622581	descry	-0.1124327
-3.723517	desdemona	-0.2108384
-4.10056	desert	-0.1455437
-4.622581	deserts	-0.1124327
-3.89253	deserve	-0.174462
-3.853057	deserved	-0.2098997
-4.782413	deservedly	-0.1124327
-4.782413	deserves	-0.1124327
-4.368851	deserving	-0.1124327
-4.782413	design	-0.1124327
-4.782413	designment	-0.1124327
-4.782413	designs	-0.1124327
-3.459128	desire	-0.314533
-4.172993	desired	-0.1455437
-3.816874	desires	-0.1780638
-4.782413	desirest	-0.1124327
-4.782413	desist	-0.1124327
-4.782413	desk	-0.1124327
-4.782413	desolate	-0.1124327
-4.782413	desolation	-0.1124327
-4.172993	despair	-0.1455437
-3.935954	desperate	-0.15503
-4.782413	desperately	-0.1124327
-4.782413	desperation	-0.1124327
-4.368851	despise	-0.1721466
-4.782413	despised	-0.1124327
-4.782413	despiser	-0.1124327
-4.782413	despisèd	-0.1124327
-4.172993	despite	-0.1721465
-4.782413	destined	-0.1124327
-4.368851	destiny	-0.2334982
-4.259973	destroy	-0.1124327
-4.514499	destroyed	-0.1124327
-4.368851	destruction	-0.1595289
-4.259973	detain	-0.1124327
-4.782413	detains	-0.1124327
-4.782413	detect	-0.1124327
-4.782413	determinate	-0.1124327
-4.038498	determine	-0.1412641
-4.368851	determined	-0.1124327
-4.782413	determines	-0.1124327
-4.622581	determinèd	-0.2413999
-4.782413	detest	-0.1124327
-4.622581	detested	-0.1124327
-4.782413	detract	-0.1124327
-4.038498	device	-0.1379645
-4.782413	devices	-0.1124327
-3.723517	devil	-0.2174847
-4.782413	devil-porter	-0.1124327
-4.782413	devilish	-0.1124327
-3.935954	devils	-0.1800543
-3.984207	devise	-0.1332093
-4.368851	devised	-0.1721465
-4.782413	devising	-0.1124327
-4.782413	devonshire	-0.1124327
-4.622581	devoted	-0.1124327
-4.368851	devotion	-0.1124327
-4.782413	devour	-0.1124327
-4.782413	devoured	-0.1124327
-4.514499	devout	-0.1124327
-4.782413	devoutly	-0.1124327
-4.172993	dew	-0.1513162
-4.782413	dewberries	-0.1124327
-4.782413	dewdrops	-0.1124327
-4.782413	dewlap	-0.1124327
-4.782413	dewy	-0.1124327
-4.782413	dexterously	-0.1124327
-4.782413	diablo	-0.1124327
-4.782413	diadem	-0.1124327
-4.622581	dial	-0.1124327
-4.782413	dialect	-0.1124327
-4.782413	dialogue	-0.1124327
-4.622581	diamond	-0.1124327
-4.622581	dian	-0.1124327
-4.622581	diana	-0.1124327
-4.514499	dice	-0.1124327
-2.833099	did	-0.2597446
-4.782413	dido	-0.1124327
-3.723517	didst	-0.2338194
-3.306562	die	-0.382424
-3.752462	died	-0.1463983
-4.038498	dies	-0.1481984
-4.782413	diest	-0.1124327
-4.782413	diet	-0.1124327
-4.259973	difference	-0.1412642
-4.514499	different	-0.1124327
-4.782413	difficult	-0.1124327
-4.782413	difficulty	-0.1124327
-4.782413	diffuse	-0.1124327
-4.782413	diffused	-0.1124327
-4.782413	dig	-0.1124327
-4.368851	digest	-0.1124327
-4.622581	digested	-0.1124327
-4.782413	digestions	-0.1124327
-4.782413	dighton	-0.1124327
-4.782413	dignities	-0.1124327
-4.368851	dignity	-0.1595289
-4.782413	digt	-0.1124327
-4.782413	dilate	-0.1124327
-4.782413	dilatory	-0.1124327
-4.514499	diligence	-0.1940265
-4.782413	diligent	-0.1124327
-4.782413	dim	-0.1124327
-4.622581	dimension	-0.1124327
-4.782413	dimensions	-0.1124327
-4.782413	diminutive	-0.1124327
-4.782413	diminutives	-0.1124327
-4.782413	dimmed	-0.1124327
-4.782413	dimming	-0.1124327
-4.782413	dimpled	-0.1124327
-4.782413	din	-0.1124327
-4.10056	dine	-0.1840629
-4.259973	dined	-0.1513162
-4.782413	ding	-0.1124327
-3.853057	dinner	-0.3502349
-4.622581	dinners	-0.2413999
-4.514499	dinnertime	-0.1940265
-4.782413	dint	-0.1124327
-4.622581	diomed	-0.1124327
-4.368851	dire	-0.1124327
-4.368851	direct	-0.1124327
-4.514499	directed	-0.1124327
-4.038498	direction	-0.2182729
-4.514499	directions	-0.1940265
-3.984207	directly	-0.2228008
-4.782413	direful	-0.1124327
-4.622581	dirt	-0.1124327
-4.622581	dirty	-0.1124327
-4.782413	dis	-0.1124327
-4.782413	disarm	-0.1124327
-4.782413	disasters	-0.1124327
-4.782413	disbranch	-0.1124327
-4.782413	disbursed	-0.1124327
-4.782413	discandying	-0.1124327
-4.782413	discard	-0.1124327
-4.622581	discarded	-0.1124327
-4.622581	discern	-0.1124327
-4.782413	discerns	-0.1124327
-4.368851	discharge	-0.1124327
-4.514499	discharged	-0.1940265
-4.782413	dischargèd	-0.1124327
-4.514499	discipline	-0.3382579
-4.514499	disciplines	-0.1940265
-4.782413	disclose	-0.1124327
-4.622581	disclosed	-0.1124327
-4.782413	discomfort	-0.1124327
-4.782413	discommend	-0.1124327
-4.782413	disconsolate	-0.1124327
-4.514499	discontent	-0.1124327
-4.782413	discontinue	-0.1124327
-4.782413	discontinued	-0.1124327
-4.368851	discord	-0.1721466
-3.984207	discourse	-0.1687605
-4.782413	discoursed	-0.1124327
-4.259973	discover	-0.1595289
-4.622581	discovered	-0.2413999
-4.622581	discovers	-0.1124327
-4.368851	discovery	-0.1124327
-4.782413	discredit	-0.1124327
-4.782413	discreet	-0.1124327
-4.782413	discreetly	-0.1124327
-4.038498	discretion	-0.2694254
-4.622581	discuss	-0.2413999
-4.368851	disdain	-0.1124327
-4.782413	disdained	-0.1124327
-4.514499	disdainful	-0.1124327
-4.368851	disease	-0.1124327
-4.782413	diseased	-0.1124327
-4.622581	diseases	-0.1124327
-4.782413	disfigure	-0.1124327
-4.259973	disgrace	-0.1124327
-4.622581	disgraced	-0.1124327
-4.782413	disgracious	-0.1124327
-4.368851	disguise	-0.1124327
-4.514499	disguised	-0.1124327
-4.259973	dish	-0.1595289
-4.782413	dishearten	-0.1124327
-4.782413	dishes	-0.1124327
-4.368851	dishonest	-0.1124327
-4.622581	dishonesty	-0.1124327
-4.259973	dishonor	-0.1124327
-4.782413	dishonorable	-0.1124327
-4.514499	dishonored	-0.1721466
-4.782413	dishonors	-0.1124327
-4.782413	disinherited	-0.1124327
-4.782413	disjoins	-0.1124327
-4.782413	dislike	-0.1124327
-4.782413	dislikes	-0.1124327
-4.782413	dislimns	-0.1124327
-4.782413	dislocate	-0.1124327
-4.514499	disloyal	-0.1940265
-4.622581	dismal	-0.1124327
-4.622581	dismay	-0.1124327
-4.514499	dismayed	-0.1124327
-4.782413	dismember	-0.1124327
-4.514499	dismiss	-0.1124327
-4.782413	dismissed	-0.1124327
-4.782413	dismissing	-0.1124327
-4.782413	dismount	-0.1124327
-4.782413	dismounted	-0.1124327
-4.622581	disorder	-0.1124327
-4.514499	disordered	-0.1124327
-4.514499	disorders	-0.1124327
-4.782413	disparagement	-0.1124327
-3.935954	dispatch	-0.22716
-4.368851	dispatched	-0.2698868
-4.782413	disperse	-0.1124327
-4.514499	dispersed	-0.1124327
-4.782413	displaced	-0.1124327
-4.782413	displanting	-0.1124327
-4.782413	displayed	-0.1124327
-4.782413	displease	-0.1124327
-4.782413	displeased	-0.1124327
-4.038498	displeasure	-0.1353427
-4.259973	dispose	-0.2108297
-4.10056	disposed	-0.2937331
-4.782413	disposing	-0.1124327
-4.10056	disposition	-0.1721466
-4.782413	dispositions	-0.1124327
-4.782413	dispossess	-0.1124327
-4.782413	dispraised	-0.1124327
-4.622581	disproportioned	-0.1124327
-4.782413	disprove	-0.1124327
-4.782413	disputable	-0.1124327
-4.782413	disputations	-0.1124327
-4.782413	dispute	-0.1124327
-4.782413	disquiet	-0.1124327
-4.782413	disquietly	-0.1124327
-4.782413	disrobe	-0.1124327
-4.782413	disseat	-0.1124327
-4.368851	dissemble	-0.1721465
-4.622581	dissembler	-0.1124327
-4.782413	dissembling	-0.1124327
-4.782413	dissension	-0.1124327
-4.368851	dissolve	-0.1721466
-4.514499	dissuade	-0.338258
-4.782413	distaff	-0.1124327
-4.782413	distant	-0.1124327
-4.782413	distaste	-0.1124327
-4.622581	distemper	-0.1124327
-4.368851	distempered	-0.1721466
-4.782413	distill	-0.1124327
-4.368851	distilled	-0.1124327
-4.622581	distinction	-0.1124327
-4.622581	distinctly	-0.2413999
-4.622581	distinguish	-0.1124327
-4.514499	distract	-0.1124327
-4.368851	distracted	-0.1124327
-4.782413	distractedly	-0.1124327
-4.514499	distraction	-0.3382579
-4.782413	distractions	-0.1124327
-4.514499	distress	-0.1940265
-4.782413	distressèd	-0.1124327
-4.782413	distrust	-0.1124327
-4.514499	disturbed	-0.1940265
-4.782413	disturbers	-0.1124327
-4.782413	disturbèd	-0.1124327
-4.622581	ditch	-0.1124327
-4.782413	ditty	-0.1124327
-4.514499	divers	-0.1124327
-4.782413	divers-colored	-0.1124327
-4.622581	diverse	-0.1124327
-4.782413	diverted	-0.1124327
-4.368851	divide	-0.1721466
-4.10056	divided	-0.1455437
-4.10056	divine	-0.2182728
-4.782413	divines	-0.1124327
-4.10056	division	-0.2357412
-4.782413	divorce	-0.1124327
-4.782413	divorced	-0.1124327
-4.782413	divorcement	-0.1124327
-4.782413	divulged	-0.1124327
-4.782413	divulging	-0.1124327
-4.622581	dizzy	-0.1124327
-2.725165	do	-0.3701026
-4.782413	do-de	-0.1124327
-4.782413	dobbin	-0.1124327
-4.782413	docks	-0.1124327
-4.038498	doctor	-0.1780054
-4.782413	doctors	-0.1124327
-4.622581	doctrine	-0.1124327
-4.782413	dodge	-0.1124327
-4.782413	doe	-0.1124327
-4.782413	doer	-0.1124327
-4.622581	doers	-0.2413999
-3.228292	does	-0.2098302
-3.670842	dog	-0.4036269
-4.782413	dog-	-0.1124327
-4.782413	dog-hearted	-0.1124327
-4.782413	dogged	-0.1124327
-3.935954	dogs	-0.1867576
-4.10056	doing	-0.1353427
-4.622581	doit	-0.1124327
-4.514499	dolabella	-0.2334982
-4.622581	dole	-0.1124327
-4.782413	dollar	-0.1124327
-4.782413	dollars	-0.1124327
-4.622581	dolor	-0.1124327
-4.782413	dolorous	-0.1124327
-4.782413	dolors	-0.1124327
-4.782413	dolt	-0.1124327
-4.782413	dolts	-0.1124327
-4.622581	domestic	-0.1124327
-4.782413	domitius	-0.1124327
-4.038498	don	-0.4527838
-4.368851	donalbain	-0.1124327
-4.782413	donation	-0.1124327
-3.295971	done	-0.345048
-4.782413	dong	-0.1124327
-4.259973	doom	-0.1124327
-4.782413	doomed	-0.1124327
-4.514499	doomsday	-0.1940265
-3.89253	door	-0.2806951
-3.984207	doors	-0.2366297
-4.782413	dormouse	-0.1124327
-4.368851	dorset	-0.3667968
-3.783475	dost	-0.2030105
-4.622581	dotage	-0.1124327
-4.622581	dotard	-0.1124327
-4.10056	dote	-0.2937331
-4.782413	dotes	-0.1124327
-2.96713	doth	-0.2355515
-4.368851	doting	-0.1124327
-3.984207	double	-0.1124327
-4.782413	double-dealer	-0.1124327
-4.782413	double-dealing	-0.1124327
-4.782413	doubled	-0.1124327
-4.782413	doubler	-0.1124327
-4.259973	doublet	-0.195333
-4.622581	doubly	-0.1124327
-3.670842	doubt	-0.2615351
-4.622581	doubted	-0.1124327
-4.172993	doubtful	-0.1124327
-4.782413	doubts	-0.1124327
-4.782413	dough	-0.1124327
-4.514499	dove	-0.1124327
-4.782413	dove-drawn	-0.1124327
-4.622581	dover	-0.1721466
-4.782413	dowager	-0.1124327
-4.622581	dower	-0.1124327
-4.782413	dowered	-0.1124327
-4.782413	dowerless	-0.1124327
-4.782413	dowers	-0.1124327
-3.193881	down	-0.4256399
-4.782413	downfall	-0.1124327
-4.514499	downright	-0.1124327
-4.782413	downward	-0.1124327
-4.622581	downy	-0.1124327
-4.10056	dowry	-0.1455437
-4.782413	dowsabel	-0.1124327
-4.622581	dozen	-0.1124327
-4.782413	drabbing	-0.1124327
-4.782413	dragon	-0.1124327
-4.782413	drain	-0.1124327
-4.514499	dram	-0.1940265
-4.782413	draught	-0.1124327
-3.62387	draw	-0.2053522
-3.89253	drawn	-0.174462
-4.368851	draws	-0.1721466
-4.172993	dread	-0.1124327
-4.622581	dreaded	-0.1124327
-3.935954	dreadful	-0.1124327
-3.581486	dream	-0.2784162
-4.622581	dreamed	-0.1124327
-4.782413	dreamer	-0.1124327
-3.984207	dreams	-0.2051561
-4.368851	dreamt	-0.1455437
-4.622581	dregs	-0.2413999
-4.782413	drench	-0.1124327
-4.622581	drenched	-0.1124327
-4.368851	dress	-0.1513162
-4.514499	dressed	-0.1124327
-4.782413	dresser	-0.1124327
-4.514499	drew	-0.1124327
-4.368851	dried	-0.1124327
-4.782413	dries	-0.1124327
-4.514499	drift	-0.1940265
-3.490716	drink	-0.243348
-4.172993	drinking	-0.1940265
-4.622581	drinks	-0.1124327
-4.259973	drive	-0.1124327
-4.622581	driven	-0.1124327
-4.514499	drives	-0.1124327
-4.782413	drizzled	-0.1124327
-4.782413	drizzles	-0.1124327
-3.89253	dromio	-0.2929065
-4.782413	dromios	-0.1124327
-4.782413	drones	-0.1124327
-4.782413	droop	-0.1124327
-4.622581	drooping	-0.1124327
-3.670842	drop	-0.1980632
-4.259973	dropped	-0.1595289
-4.782413	droppeth	-0.1124327
-4.782413	dropping	-0.1124327
-3.853057	drops	-0.1721466
-4.782413	dropsy	-0.1124327
-4.782413	dross	-0.1124327
-4.782413	droven	-0.1124327
-4.782413	drover	-0.1124327
-3.935954	drown	-0.143256
-3.984207	drowned	-0.2346013
-4.368851	drowning	-0.1124327
-4.782413	drowns	-0.1124327
-4.622581	drownèd	-0.1124327
-4.782413	drowsily	-0.1124327
-4.782413	drowsiness	-0.1124327
-4.259973	drowsy	-0.1124327
-4.782413	drudge	-0.1124327
-4.622581	drugs	-0.1124327
-4.172993	drum	-0.1813891
-4.782413	drums	-0.1124327
-3.62387	drunk	-0.1784638
-4.259973	drunkard	-0.1595289
-4.514499	drunkards	-0.1124327
-4.172993	drunken	-0.1650915
-4.782413	drunkenness	-0.1124327
-3.89253	dry	-0.1550983
-4.782413	dryfoot	-0.1124327
-4.782413	dryness	-0.1124327
-4.782413	dst	-0.1124327
-4.782413	dub	-0.1124327
-4.622581	dubbed	-0.1124327
-3.89253	ducats	-0.2358069
-4.622581	duchess	-0.1124327
-4.622581	duck	-0.1124327
-3.984207	due	-0.1299475
-4.782413	duello	-0.1124327
-4.782413	duff	-0.1124327
-4.782413	dug	-0.1124327
-4.782413	dugs	-0.1124327
-3.581486	duke	-0.2591078
-4.368851	dukedom	-0.1455437
-4.514499	dukedoms	-0.1124327
-4.514499	dukes	-0.1595289
-3.853057	dull	-0.1780638
-4.782413	dull-eyed	-0.1124327
-4.782413	dullard	-0.1124327
-4.782413	dulling	-0.1124327
-4.782413	dullness	-0.1124327
-4.172993	dumb	-0.1124327
-4.782413	dumbed	-0.1124327
-4.782413	dumbness	-0.1124327
-4.782413	dumps	-0.1124327
-4.782413	dun-colored	-0.1124327
-4.259973	duncan	-0.1513163
-4.514499	dungeon	-0.1124327
-4.782413	dungeons	-0.1124327
-4.782413	dunghill	-0.1124327
-4.782413	dunghills	-0.1124327
-4.368851	dunsinane	-0.1124327
-4.782413	durance	-0.1124327
-4.514499	during	-0.1940265
-4.172993	durst	-0.2352154
-4.622581	dusky	-0.1124327
-4.259973	dust	-0.1124327
-4.782413	dusty	-0.1124327
-4.514499	duteous	-0.1124327
-4.368851	duties	-0.1124327
-3.646722	duty	-0.272836
-3.853057	dwell	-0.1883051
-4.622581	dwelling	-0.1124327
-4.368851	dwells	-0.1124327
-4.782413	dwindle	-0.1124327
-4.782413	dye	-0.1124327
-4.782413	dyed	-0.1124327
-4.172993	dying	-0.1949406
-4.782413	dæmon	-0.1124327
-3.853057	e	-0.5301435
-3.444156	each	-0.2747644
-4.782413	eager	-0.1124327
-4.782413	eagerly	-0.1124327
-4.622581	eagle	-0.1124327
-4.514499	eagles	-0.1124327
-3.602162	ear	-0.3284741
-4.782413	ear-piercing	-0.1124327
-4.782413	earing	-0.1124327
-4.172993	earl	-0.3851208
-4.622581	earldom	-0.1940265
-4.782413	earlier	-0.1124327
-4.622581	earliest	-0.1124327
-4.622581	earls	-0.1124327
-3.984207	early	-0.1124327
-4.514499	earn	-0.1124327
-4.782413	earned	-0.1124327
-4.038498	earnest	-0.175495
-4.782413	earnestly	-0.1124327
-4.782413	earnestness	-0.1124327
-3.646722	ears	-0.3599197
-3.646722	earth	-0.2717213
-4.782413	earthbound	-0.1124327
-4.172993	earthly	-0.1124327
-4.782413	earthquake	-0.1124327
-4.782413	earthquakes	-0.1124327
-4.172993	ease	-0.2108296
-4.782413	eased	-0.1124327
-4.368851	easier	-0.1721466
-4.259973	easily	-0.1124327
-4.259973	east	-0.1412641
-4.622581	eastern	-0.1124327
-3.984207	easy	-0.1353427
-3.646722	eat	-0.2110671
-4.259973	eaten	-0.1124327
-4.782413	eating	-0.1124327
-4.622581	eats	-0.1124327
-4.782413	eaves	-0.1124327
-4.782413	eavesdropper	-0.1124327
-4.622581	ebb	-0.1124327
-4.782413	ebbed	-0.1124327
-4.782413	ebbing	-0.1124327
-4.782413	ebbs	-0.1124327
-4.782413	ebony	-0.1124327
-4.368851	echo	-0.1124327
-4.782413	eclipsed	-0.1124327
-4.782413	eclipses	-0.1124327
-4.259973	ecstasy	-0.1595289
-4.10056	edgar	-0.2777764
-4.368851	edge	-0.1721466
-4.622581	edges	-0.1124327
-4.782413	edict	-0.1124327
-4.622581	edified	-0.1124327
-3.89253	edmund	-0.3142424
-4.514499	education	-0.1940265
-3.62387	edward	-0.2422101
-4.782413	eel	-0.1124327
-3.853057	effect	-0.2066467
-4.782413	effected	-0.1124327
-4.368851	effects	-0.1124327
-4.782413	effigies	-0.1124327
-4.782413	effusion	-0.1124327
-4.782413	eftest	-0.1124327
-4.622581	egeon	-0.2413999
-4.368851	egeus	-0.2413999
-4.782413	egg	-0.1124327
-4.622581	eggs	-0.1124327
-3.89253	egypt	-0.2236742
-4.368851	egyptian	-0.1124327
-4.514499	egyptians	-0.1124327
-3.89253	eight	-0.1588504
-4.782413	eighth	-0.1124327
-4.782413	eightscore	-0.1124327
-3.62387	either	-0.1711479
-4.622581	eke	-0.2413999
-4.622581	elbow	-0.1124327
-4.622581	elbows	-0.1124327
-4.172993	elder	-0.1124327
-4.368851	eldest	-0.1124327
-4.622581	election	-0.1124327
-4.782413	elegies	-0.1124327
-4.514499	element	-0.1124327
-4.259973	elements	-0.181389
-4.782413	elephant	-0.1124327
-4.782413	elephants	-0.1124327
-4.259973	eleven	-0.2123605
-4.782413	eleventh	-0.1124327
-4.782413	elf	-0.1124327
-4.514499	elizabeth	-0.3382579
-4.782413	eloquence	-0.1124327
-4.622581	eloquent	-0.1124327
-3.275535	else	-0.2618653
-4.782413	elsewhere	-0.1124327
-4.622581	elsinore	-0.1124327
-4.514499	elves	-0.1124327
-4.782413	ely	-0.1124327
-4.782413	elysium	-0.1124327
-4.514499	em	-0.1412641
-4.514499	embarked	-0.1124327
-4.622581	embassy	-0.1124327
-4.782413	embattled	-0.1124327
-4.782413	embayed	-0.1124327
-4.782413	embossed	-0.1124327
-4.782413	embossèd	-0.1124327
-3.935954	embrace	-0.1519078
-4.622581	embraced	-0.1124327
-4.782413	embracements	-0.1124327
-4.782413	embracèd	-0.1124327
-4.10056	emilia	-0.3667968
-4.782413	eminent	-0.1124327
-4.10056	emperor	-0.1949406
-4.782413	emphasis	-0.1124327
-4.514499	empire	-0.1124327
-4.622581	employ	-0.1124327
-4.368851	employed	-0.2968889
-4.514499	employment	-0.1124327
-4.782413	empoison	-0.1124327
-4.514499	empress	-0.1940265
-4.782413	empties	-0.1124327
-3.853057	empty	-0.1455437
-4.782413	empty-hearted	-0.1124327
-4.782413	emptying	-0.1124327
-4.782413	emulation	-0.1124327
-4.782413	emulator	-0.1124327
-4.782413	en	-0.1124327
-4.514499	enact	-0.1124327
-4.782413	enacted	-0.1124327
-4.782413	enacts	-0.1124327
-4.782413	enameled	-0.1124327
-4.782413	enamelèd	-0.1124327
-4.782413	enamored	-0.1124327
-4.782413	enchafèd	-0.1124327
-4.782413	enchanted	-0.1124327
-4.782413	enchanting	-0.1124327
-4.782413	enchantment	-0.1124327
-4.782413	encompassed	-0.1124327
-3.984207	encounter	-0.1940265
-4.622581	encourage	-0.2413999
-4.782413	encouraged	-0.1124327
-3.402108	end	-0.335728
-4.514499	endeavor	-0.1124327
-4.782413	endeavors	-0.1124327
-4.782413	endeavours	-0.1124327
-4.259973	ended	-0.1595289
-4.782413	endings	-0.1124327
-4.622581	endowed	-0.1124327
-4.172993	ends	-0.2108297
-4.782413	endue	-0.1124327
-4.782413	endued	-0.1124327
-4.782413	endues	-0.1124327
-3.816874	endure	-0.2349809
-4.368851	endured	-0.1595289
-4.782413	endymion	-0.1124327
-3.89253	enemies	-0.20067
-3.696382	enemy	-0.2732443
-4.782413	enfold	-0.1124327
-4.514499	enforce	-0.1124327
-4.259973	enforced	-0.2334982
-4.782413	enforces	-0.1124327
-4.368851	enforcèd	-0.1124327
-4.782413	enfranchisement	-0.1124327
-4.622581	engage	-0.2413999
-4.10056	engaged	-0.1124327
-4.782413	engender	-0.1124327
-4.782413	engendered	-0.1124327
-4.782413	engilds	-0.1124327
-4.782413	engineer	-0.1124327
-4.622581	engines	-0.1124327
-3.542874	england	-0.3205081
-3.646722	english	-0.2366099
-4.622581	englishman	-0.1124327
-4.782413	englishmen	-0.1124327
-4.782413	englishwoman	-0.1124327
-4.782413	englutted	-0.1124327
-4.782413	engross	-0.1124327
-4.782413	engrossed	-0.1124327
-4.782413	enigmatical	-0.1124327
-4.782413	enjoined	-0.1124327
-4.10056	enjoy	-0.1124327
-4.514499	enjoyed	-0.1124327
-4.514499	enlarge	-0.1124327
-4.782413	enmesh	-0.1124327
-4.782413	enmities	-0.1124327
-4.622581	enmity	-0.1124327
-4.782413	ennoble	-0.1124327
-4.782413	eno	-0.1124327
-4.259973	enobarbus	-0.2053943
-3.193881	enough	-0.6928906
-4.782413	enquire	-0.1124327
-4.514499	enraged	-0.1124327
-4.782413	enrages	-0.1124327
-4.622581	enragèd	-0.1124327
-4.782413	enrich	-0.1124327
-4.782413	enriches	-0.1124327
-4.782413	enrolled	-0.1124327
-4.782413	ensheltered	-0.1124327
-4.782413	ensign	-0.1124327
-4.782413	ensnared	-0.1124327
-4.782413	ensnareth	-0.1124327
-4.368851	ensue	-0.1721466
-4.782413	ensuing	-0.1124327
-4.782413	entangled	-0.1124327
-4.782413	entangles	-0.1124327
-3.816874	enter	-0.2500401
-4.259973	entered	-0.2334982
-4.782413	entering	-0.1124327
-4.10056	enterprise	-0.2182728
-4.782413	enterprises	-0.1124327
-4.10056	entertain	-0.1124327
-4.622581	entertained	-0.1124327
-4.782413	entertainest	-0.1124327
-4.10056	entertainment	-0.1455437
-4.782413	enthroned	-0.1124327
-4.782413	entice	-0.1124327
-4.622581	entire	-0.1124327
-4.514499	entirely	-0.1124327
-4.259973	entrails	-0.1124327
-4.368851	entrance	-0.1721466
-4.782413	entrances	-0.1124327
-4.782413	entrap	-0.1124327
-3.670842	entreat	-0.3159004
-4.368851	entreated	-0.1940265
-4.622581	entreaties	-0.1124327
-4.622581	entreats	-0.1124327
-4.782413	entreaty	-0.1124327
-4.782413	entry	-0.1124327
-4.622581	envenomed	-0.1124327
-4.782413	envenoms	-0.1124327
-4.782413	envenomèd	-0.1124327
-4.782413	envied	-0.1124327
-4.368851	envious	-0.1124327
-4.172993	envy	-0.1124327
-4.782413	enwheel	-0.1124327
-4.622581	ephesus	-0.1940265
-4.782413	epicures	-0.1124327
-4.782413	epicurism	-0.1124327
-4.782413	epicurus	-0.1124327
-4.782413	epidamnum	-0.1124327
-4.782413	epigram	-0.1124327
-4.622581	epilogue	-0.1124327
-4.782413	epistles	-0.1124327
-4.622581	epitaph	-0.1124327
-4.782413	epitaphs	-0.1124327
-4.782413	epithet	-0.1124327
-4.259973	equal	-0.1124327
-4.782413	equalities	-0.1124327
-4.514499	equally	-0.1124327
-4.782413	equals	-0.1124327
-4.782413	equivocator	-0.1124327
-4.782413	er	-0.1124327
-4.782413	er-yet-beaten	-0.1124327
