kingship sovereignty 0.0666667
kingship yet 0.0018349
kingship t 0.0026316
kingship ’ 0.0003043
greeting greeting 0.4444444
proven NULL 0.0000414
proven a 0.0002316
proven proved 0.1578947
proven herself 0.0263158
proven prove 0.0136986
proven approved 0.3000000
proven been 0.0042017
proven coward 0.0400000
proven needless 0.3333333
unsure relate 0.1666667
unsure falsing 0.2000000
unsure unsure 1.0000000
unsure thing 0.0069444
issue issue 0.0333333
issue theme 0.1000000
kates kates 1.0000000
richer enriches 0.3333333
richer him 0.0005760
harp harp 0.5000000
harp disdainful 0.1111111
harp instrument 0.1428571
distinguished exalt 0.5000000
pike the 0.0001218
pike pike 0.5000000
pike thou 0.0005238
pike puissant 0.1666667
pike trail 0.1666667
pike st 0.0045045
pike ’ 0.0003043
dwelling mansionry 0.3333333
dwelling dwelling 0.1428571
dwelling private 0.0526316
dwelling cell 0.1666667
nearest next 0.0188679
nearest nearest 0.2857143
nearest near 0.0090090
taken done 0.0033003
taken led 0.0476190
taken NULL 0.0002484
taken humanely 0.2500000
taken took 0.0208333
taken 'd 0.0079523
taken deflower 1.0000000
taken 'en 0.1956522
taken have 0.0008313
taken taken 0.3870968
taken raught 1.0000000
taken from 0.0012361
taken countermand 0.5000000
taken suspicion 0.0588235
taken quite 0.0270270
taken ta 0.3600000
taken marvelously 0.3333333
taken holiday 0.0909091
taken bestow 0.0370370
taken so 0.0005131
taken registered 0.3333333
taken relieved 0.1000000
taken captivity 0.1428571
taken provided 0.0625000
taken omitted 0.3333333
taken lord 0.0008818
taken offense 0.0204082
taken batter 0.2500000
taken screen 0.5000000
taken be 0.0004032
taken finished 0.1428571
london london 1.0000000
load loading 0.5000000
load able 0.0769231
load burden 0.0769231
load groaned 0.3333333
load load 0.3333333
misremembered nothing 0.0036630
resents doth 0.0036496
resents bear 0.0046729
resents hard 0.0144928
agitation agitation 0.1666667
dukedom island 0.0357143
dukedom bare 0.0714286
dukedom got 0.0263158
dukedom bands 0.2500000
dukedom pardoned 0.3333333
dukedom dukedom 0.6923077
joyfully delight 0.0434783
joyfully joyfully 0.5000000
joyfully with 0.0004695
venice disposition 0.0555556
venice calling 0.1111111
venice senate 0.0769231
venice all 0.0008354
venice venice 0.8113208
petticoats petticoats 1.0000000
petticoats very 0.0027100
petticoats them 0.0016181
petticoats catch 0.0270270
counted 'd 0.0019881
counted prick 0.0384615
counted numbered 0.2500000
counted reckoned 0.3333333
gray grizzled 0.3333333
gray NULL 0.0000414
gray no 0.0006698
gray grey 0.0909091
experts masters 0.0185185
experts elder 0.0714286
experts some 0.0019569
experts by 0.0008795
experts reconcilement 0.2000000
inventor dizzy 0.2500000
inventor inventorially 0.2000000
conclusions conclusions 0.3333333
supporters money 0.0111111
supporters gets 0.2000000
declared made 0.0084388
declared lepidus 0.0333333
declared have 0.0004156
declared proclaimed 0.0833333
declared known 0.0126582
fast-moving our 0.0010707
fast-moving tott 0.5000000
leis slander 0.0476190
corn blasting 0.3333333
descend could 0.0045249
descend descend 0.1000000
bankrupted undone 0.0416667
clinging one 0.0017094
clinging cling 0.3333333
clinging samphire 0.2500000
clinging that 0.0005419
clinging gathers 0.2500000
settling setting 0.1000000
mi mi 1.0000000
unite unite 0.5000000
unite atone 0.1428571
unite together 0.0094340
gloves or 0.0014451
gloves gloves 0.5714286
gloves perfume 0.1000000
exercise here 0.0011534
exercise of 0.0002128
exercise me 0.0003368
exercise exercise 0.1818182
exercise s 0.0006325
exercise devout 0.1666667
exercise ’ 0.0003043
exercise indeed 0.0039683
exercise day 0.0040984
exercise sport 0.0192308
exercise breathing 0.1250000
exercise with 0.0004695
can deform 0.3333333
can hood 0.2000000
can unlocked 1.0000000
can remembrance 0.1034483
can print 0.5000000
can see 0.0200364
can curing 0.1428571
can abode 0.2500000
can veiling 0.2500000
can makes 0.0104167
can overcome 0.1250000
can soothsayer 0.2000000
can serve 0.0123457
can ll 0.0063898
can what 0.0024486
can deny 0.0114943
can paunch 0.5000000
can willing 0.0833333
can talkest 0.2000000
can vales 0.2000000
can pull 0.1111111
can title 0.0384615
can tailor 0.0555556
can abilities 0.6666667
can expressing 0.1000000
can dinner 0.0384615
can dealt 0.2500000
can laps 0.1000000
can matters 0.0500000
can all 0.0008354
can is 0.0036188
can ’ 0.0036519
can weather 0.0714286
can will 0.0082406
can have 0.0037406
can suspects 0.1666667
can lie 0.0076336
can afflict 0.1111111
can forfeit 0.0625000
can revels 0.0666667
can art 0.0056497
can athwart 0.5000000
can churl 0.5000000
can secret 0.0434783
can common 0.0185185
can 's 0.0014493
can height 0.0833333
can can 0.6725000
can ocular 0.2500000
can coraggio 1.0000000
can simplicity 0.1428571
can flight 0.0476190
can obtained 0.1666667
can comforted 0.2000000
can thought 0.0140845
can lead 0.0215054
can remedy 0.0857143
can would 0.0068627
can understand 0.0333333
can succeeds 0.2500000
can can- 0.5000000
can compass 0.0666667
can might 0.0240964
can in 0.0002998
can malice 0.0588235
can eros 0.0769231
can quite 0.0270270
can perceive 0.0227273
can knows 0.0113636
can uttermost 0.1764706
can may 0.2142857
can addition 0.0526316
can s 0.0025300
can payest 0.1250000
can bail 0.1428571
can feel 0.0312500
can sees 0.0476190
can thrice-blessed 1.0000000
can virtue 0.0151515
can otherwise 0.0434783
can : 0.0030864
can surgery 0.1428571
can assurance 0.0555556
can am 0.0016207
can get 0.0064516
can limned 1.0000000
can hates 0.0588235
can make 0.0057692
can uncouth 0.2000000
can legs 0.0277778
can answer 0.0055556
can sooth 0.0416667
can joys 0.1428571
can well 0.0010010
can amend 0.0909091
can as 0.0005669
can desolate 0.1250000
can news 0.0050761
can why 0.0029542
can 'erhear 0.1666667
can whisper 0.0769231
can qualify 0.3333333
can know 0.0105263
can cannot 0.1975737
can dare 0.0270270
can that 0.0005419
can not 0.0008410
can take 0.0023148
can dares 0.0769231
can shall 0.0275229
can rememb 0.3333333
can imperfections 0.2000000
can further 0.0107527
can furnish 0.0833333
can out 0.0020534
can pleasest 0.3333333
can crafts 0.2500000
can high-sighted 0.1428571
can covertly 0.2500000
can warranty 0.2500000
can must 0.0210843
can quarter 0.1000000
can do 0.0055679
can eunuch 0.1666667
can find 0.0051546
can we 0.0007782
can pity 0.0108696
can afeard 0.0370370
can to 0.0049219
can whip 0.0625000
can kneeled 0.2000000
can enlarge 0.1666667
can deceive 0.0625000
can able 0.0769231
can unmannerly 0.3333333
can any 0.0037313
can royal 0.0163934
can sanctimony 1.0000000
can shalt 0.0298507
can stopped 0.1428571
can seest 0.0714286
can now 0.0016779
can then 0.0011976
can hearer 0.2000000
can arrows 0.3333333
can canst 0.4927536
can more 0.0011862
can enamelèd 0.2500000
can speak 0.0049834
can applaud 0.2500000
can light-foot 0.2500000
can advantage 0.0384615
can jest 0.0263158
can hear 0.0059055
can amends 0.0588235
can state 0.0120482
can attempt 0.1428571
can let 0.0129310
can directed 0.1111111
can could 0.0135747
can wonder 0.0123457
can read 0.0144928
can alter 0.0714286
can excepted 0.1000000
can failing 1.0000000
can for 0.0016064
can fittest 0.0909091
can prevention 0.1000000
can authorities 0.3333333
can other 0.0050251
can be 0.0032258
can honestly 0.1666667
can away 0.0057971
can borne 0.1111111
can remembering 0.5000000
can NULL 0.0042640
can needs 0.0285714
can merchant-marring 0.2000000
can place 0.0066667
can mayst 0.0833333
can are 0.0020134
can disorder 0.1111111
can look 0.0027548
can use 0.0258621
can cure 0.0476190
can long 0.0116959
can should 0.0052265
can at 0.0024907
can bethink 0.0714286
can log 0.3333333
can scarcely 0.1538462
can bald 0.1666667
can guess 0.1052632
can hearing 0.0555556
can hath 0.0015723
can convenient 0.1111111
can hatch 0.3333333
can reply 0.0625000
can question 0.0133333
can smell 0.0952381
can troublous 0.2000000
nymphs country 0.0208333
nymphs nymphs 1.0000000
nymphs footing 0.2000000
nymphs naiads 0.5000000
survivors men 0.0032895
survivors bring 0.0051546
wait way 0.0046296
wait waited 0.2000000
wait a 0.0004633
wait you 0.0007003
wait yet 0.0018349
wait laertes 0.0270270
wait — 0.0008143
wait , 0.0001562
wait soft 0.1940299
wait take 0.0023148
wait ho 0.0079365
wait leisures 0.3333333
wait pause 0.1111111
wait mark 0.0066667
wait bear 0.0046729
wait our 0.0010707
wait kiss 0.0178571
wait patient 0.0370370
wait does 0.0054054
wait peace 0.0060976
wait give 0.0018622
wait expect 0.0555556
wait stand 0.0100503
wait hours 0.0192308
wait awhile 0.0270270
wait thee 0.0018182
wait tarrying 0.3333333
wait hold 0.0162162
wait softly 0.0555556
wait walk 0.0147059
wait abide 0.0400000
wait hardly 0.2000000
wait but 0.0014521
wait with 0.0004695
wait reckoning 0.2000000
wait ophelia 0.0434783
wait NULL 0.0000414
wait tarry 0.3846154
wait frame 0.0714286
wait temporize 1.0000000
wait bide 0.1111111
wait good 0.0017361
wait patience 0.0112360
wait watch 0.0416667
wait will 0.0008241
wait long 0.0116959
wait exceed 0.1428571
wait attend 0.1044776
wait i 0.0001169
wait make 0.0038462
wait stay 0.1145833
wait there 0.0023095
wait now 0.0016779
wait wait 0.4347826
wait hot 0.0294118
haste over-credulous 0.5000000
haste speed 0.0263158
haste haste 0.0136986
haste rashness 0.1666667
puffing swelling 0.3333333
favor favor 0.1363636
favor requite 0.0769231
favor degree 0.0714286
favor NULL 0.0001656
favor hands 0.0086957
favor good 0.0017361
favor turn 0.0172414
favor at 0.0012453
favor christian 0.0227273
favor towards 0.0384615
favor courteous 0.0769231
favor loves 0.0116279
favor request 0.1000000
favor entreat 0.0166667
favor me 0.0006736
favor grace 0.0053763
favor favors 0.0588235
favor best 0.0065359
favor tidings 0.0555556
favor suit 0.0754717
favor boon 0.2000000
mockers mockers 1.0000000
lovable grace 0.0053763
warriors myrmidons 1.0000000
warriors warriors 0.5000000
warriors nervii 0.3333333
wealthy pursy 1.0000000
wealthy hebrew 0.2500000
wealthy wealthy 0.7142857
wealthy sufficient 0.0769231
merchant rocks 0.2500000
merchant merchant 0.7272727
merchant bentivolii 0.5000000
diseased cankers 0.2000000
thorn-bushes mallows 0.5000000
thorn-bushes docks 0.5000000
thorn-bushes or 0.0014451
thorn-bushes , 0.0000390
satisfying become 0.0188679
address alone 0.0112360
address dress 0.1111111
desdemona once 0.0070423
desdemona lady 0.0080321
desdemona procure 0.1250000
desdemona NULL 0.0000828
desdemona : 0.0061728
desdemona of 0.0002128
desdemona wooed 0.0666667
desdemona riches 0.1250000
desdemona well 0.0010010
desdemona cyprus 0.0333333
desdemona virtuous 0.0666667
desdemona desdemon 0.3333333
desdemona desdemona 0.8333333
fortune-teller a 0.0002316
fortune-teller fortune-teller 0.5000000
warden lieutenant 0.0217391
warden keeper 0.2500000
restful sweet 0.0040816
restful drowsy 0.1111111
restful of 0.0002128
restful syrups 0.5000000
considers thrice- 0.3333333
considers in 0.0002998
considers call 0.0040816
considers all 0.0016708
considers full 0.0075758
siege given 0.0149254
siege siege 0.3333333
siege see 0.0018215
reminder admonishing 0.3333333
complicate on 0.0009372
complicate out 0.0020534
complicate cry 0.0117647
mild learnedly 0.1666667
mild most 0.0019493
mild a 0.0004633
mild NULL 0.0000414
mild he 0.0004143
mild my 0.0002263
mild mild 0.3750000
mild words 0.0081301
mild as 0.0005669
mild subtle 0.5714286
mild in 0.0002998
mild tender 0.0250000
learns knows 0.0113636
learns image 0.0555556
learns loves 0.0116279
smells smells 0.7500000
smells nimbly 0.2000000
smells freckles 0.2500000
unrealistic improbable 0.5000000
unrealistic as 0.0005669
unrealistic fiction 1.0000000
unrealistic an 0.0018083
undeniable most 0.0019493
undeniable certain 0.0113636
fair justly 0.0555556
fair fair 0.2244898
fair most 0.0019493
fair it 0.0003283
fair NULL 0.0000828
fair meet 0.0206897
fair pleases 0.1111111
fair indian 0.1000000
fair unjustly 0.2000000
fair just 0.0192308
oath oath 0.6363636
oath sworn 0.0400000
oath forsworn 0.0588235
glazing at 0.0012453
glazing eight 0.0357143
glazing set 0.0076923
glazing were 0.0016155
tragic the 0.0001218
tragic doth 0.0036496
tragic alas 0.0083333
tragic tragic 1.0000000
tragic tragedians 0.3333333
tragic day 0.0040984
tragic therein 0.0400000
project project 0.2000000
ruler burgundy 0.0476190
ruler rule 0.1333333
ruler governs 0.2500000
ruler president 0.5000000
deprived bereft 0.2500000
deprived deprived 1.0000000
deprived sense 0.0416667
solemnized 'd 0.0019881
solemnized solemniz 1.0000000
advise friendship 0.0588235
advise bid 0.0069930
advise entreat 0.0166667
advise should 0.0017422
advise counsel 0.1627907
advise advise 0.1052632
advise desire 0.0098039
cool blood 0.0058480
cool NULL 0.0000414
cool safer 0.0769231
cool begins 0.0370370
cool cool 0.3846154
cool guides 0.5000000
cool by 0.0008795
hats exhibition 0.5000000
hats coronets 0.2500000
hats put 0.0049020
hats hats 0.8000000
streetwalker public 0.1000000
streetwalker commoner 0.5000000
share shares 0.3333333
share show 0.0065789
share he 0.0004143
share place 0.0066667
share part 0.0121951
share my 0.0004527
share commend 0.0312500
share note 0.0125000
share world-sharers 0.2000000
share whole 0.0208333
share dear 0.0047393
share share 0.5555556
share but 0.0004840
share commune 0.3333333
grunts pioneers 0.2000000
death-hour hour 0.0076336
death-hour death 0.0040650
valiantly good 0.0008681
valiantly welshmen 0.1666667
valiantly valiantly 1.0000000
valiantly service 0.0119048
option humility 0.1428571
option fittest 0.0909091
option end 0.0093458
option choose 0.0151515
hopeful yourself 0.0082645
hopeful dressed 0.0909091
death dishonored 0.1111111
death debt 0.0666667
death a 0.0002316
death dying 0.0526316
death death-counterfeiting 0.3333333
death instant 0.0333333
death heavy 0.0212766
death crimeful 0.2000000
death reversed 0.2000000
death famished 0.2000000
death grind 0.1428571
death head 0.0080645
death lease 0.1666667
death proscription 0.2857143
death doom 0.0909091
death utterance 0.2500000
death starve 0.0833333
death one 0.0017094
death price 0.1428571
death fate 0.0454545
death NULL 0.0004554
death fear 0.0026316
death condemnation 0.5000000
death die 0.0115607
death knell 0.2727273
death moiety 0.1428571
death dearly 0.0476190
death death 0.5650407
death dangers 0.0833333
death graves 0.0769231
death it 0.0006566
death briefest 0.5000000
death deadly 0.0625000
death single 0.0833333
death counterfeit 0.0416667
death blood 0.0058480
death talk 0.0109890
death journey 0.1111111
death slain 0.0270270
tyrannous tyrannous 0.1428571
legacies legacies 0.2000000
courtiers courtiers 0.3333333
courtiers little 0.0058824
courtiers your 0.0004263
courtiers ” 0.0031646
courtiers courtier 0.1111111
courtiers some 0.0019569
courtiers train 0.0769231
courtiers with 0.0004695
courtiers “ 0.0040323
meaner meaner 0.1250000
parrots parrots 0.1666667
proof trial 0.1250000
proof satisfy 0.1666667
proof my 0.0002263
proof ’ 0.0003043
proof to 0.0001697
proof say 0.0013228
proof this 0.0004354
proof relative 0.5000000
proof show 0.0065789
proof warrant 0.0142857
proof answer 0.0055556
proof satisfied 0.0227273
proof can 0.0025000
proof ocular 0.2500000
proof proof 0.4230769
proof lord 0.0008818
proof prove 0.0136986
proof satisfaction 0.1052632
proof speedy 0.0714286
proof be 0.0004032
proof some 0.0019569
indirect indirect 0.3333333
indirect needs 0.0142857
indirect no 0.0006698
kindled feeds 0.1666667
kindled their 0.0017921
kindled fury 0.0454545
inadequacy disdainful 0.1111111
inadequacy me 0.0003368
inadequacy such 0.0020619
inadequacy manner 0.0322581
lies lies 0.3125000
lies forgeries 0.2500000
lies NULL 0.0000414
lies false 0.0107527
lies still 0.0055866
lies invention 0.0833333
lies traitors 0.0322581
lies blushes 0.5000000
lies savagery 0.3333333
lies wrong 0.0071942
lies reports 0.1111111
lies jealousy 0.0555556
lies lie 0.0229008
lies slanders 0.2000000
lies shapes 0.0909091
lies gives 0.0217391
lies falsehood 0.2500000
flatter NULL 0.0000414
flatter dismayed 0.1250000
flatter flattered 0.2500000
flatter flatter 0.1666667
flatter praise 0.0196078
enchanting that 0.0002709
enchanting enchanting 1.0000000
appropriate appertain 0.5000000
appropriate forth 0.0068027
appropriate a 0.0004633
appropriate otherwise 0.0434783
appropriate NULL 0.0000414
appropriate jest 0.0263158
appropriate that 0.0002709
appropriate fitter 0.3333333
appropriate good 0.0008681
appropriate him 0.0005760
appropriate better 0.0040650
appropriate proper 0.0322581
appropriate sorting 0.5000000
appropriate fittest 0.0909091
appropriate fitting 0.1666667
appropriate belongs 0.2500000
appropriate become 0.0188679
appropriate season 0.0303030
unlawful unlawful 0.4000000
rate rate 0.3333333
rate we 0.0007782
gone made 0.0042194
gone NULL 0.0001656
gone yet 0.0018349
gone fortnight 0.2000000
gone found 0.0119048
gone is 0.0002413
gone avaunt 0.0909091
gone absent 0.1764706
gone gone 0.4078212
gone gap 0.5000000
gone from 0.0012361
gone long 0.0058480
gone great 0.0038610
gone hence 0.0051546
gone out 0.0041068
gone mute 0.2000000
gone harsh 0.0625000
gone me 0.0003368
gone perfume 0.1000000
gone torch 0.1250000
gone lunacy 0.1666667
gone flight 0.0476190
gone thereon 1.0000000
gone spirits 0.0181818
gone removed 0.1111111
gone distract 0.2000000
gone grows 0.0392157
lament lamentation 1.0000000
gluttons make 0.0019231
gluttons lust 0.0434783
gluttons epicurism 0.2500000
gluttons more 0.0011862
invited gone 0.0055866
invited bid 0.0069930
invited forth 0.0068027
invited invited 0.5000000
invited he 0.0004143
invited do 0.0005568
invited somewhere 0.2500000
owned due 0.0434783
owned fee-grief 0.2500000
owned owed 0.2500000
ran met 0.0144928
ran NULL 0.0000414
ran daughter 0.0055556
ran did 0.0043860
ran coursed 0.3333333
ran purpose 0.0153846
ran my 0.0004527
ran is 0.0002413
ran fled 0.1304348
ran flew 0.2500000
ran run 0.0515464
ran ran 0.3076923
ran started 0.1250000
ran o 0.0009681
disciplined no 0.0006698
disciplined discipline 0.1428571
grapes bunches 0.2000000
grapes grapes 0.1428571
grapes vine 0.3333333
cinna cinna 0.9375000
cinna NULL 0.0000414
yorks york 0.0434783
miserable made 0.0042194
miserable wretched 0.0769231
miserable tempest-tossed 0.2000000
miserable miserable 0.5555556
miserable marked 0.1111111
miserable frustrate 0.1428571
miserable proud 0.0322581
miserable unhappy 0.0555556
dammed damned 0.0444444
crown wears 0.0833333
crown NULL 0.0002070
crown crowns 0.0500000
crown crown 0.6825397
crown wring 0.5000000
crown perforce 0.0454545
crown top 0.0476190
crown sovereignty 0.0666667
crown inclusive 0.5000000
crown fortinbras 0.0909091
crown diadem 0.5000000
open-eyed open-eyed 0.5000000
cobweb cobweb 1.0000000
ionian ionian 1.0000000
guest whilst 0.0344828
guest NULL 0.0000828
guest guest 0.5000000
guest s 0.0006325
conditions doth 0.0036496
conditions swear 0.0091743
conditions one 0.0017094
conditions injunctions 0.5000000
conditions as 0.0005669
conditions every 0.0057143
conditions conditions 0.1666667
protection protection 1.0000000
protection friendship 0.0588235
protection universal 0.1111111
protection warrant 0.0285714
protection landlord 1.0000000
protection shade 0.1250000
protection sweet 0.0040816
protection shroud 0.1111111
protection ' 0.0011655
penalty forfeit 0.1875000
penalty forfeiture 0.5555556
penalty penalty 0.8000000
penalty judgement 0.2000000
penalty heavy 0.0212766
penalty sooner 0.0714286
penalty bond 0.0219780
penalty peril 0.0384615
recover recovery 0.5000000
recover soon 0.0270270
recover yet 0.0036697
recover recover 0.3529412
recover his 0.0005408
recover quick 0.0227273
ashamed shame 0.1046512
ashamed sorry 0.0217391
ashamed would 0.0009804
ashamed for 0.0004016
ashamed ashamed 0.6000000
ashamed dishonest 0.1111111
ashamed asham 1.0000000
ashamed 'd 0.0019881
ashamed ashamèd 0.3333333
ashamed shamest 0.1666667
ashamed shamed 0.1000000
ashamed blush 0.2000000
ashamed touch 0.0188679
ashamed myself 0.0046512
thunderclap greater 0.0312500
thunderclap crack 0.0769231
sink wi 0.0714286
sink power 0.0101010
sink ' 0.0023310
sink bark 0.0454545
sink burial 0.0769231
sink th 0.0036496
sink sink 0.4375000
outcome arbitrate 0.5000000
outcome NULL 0.0000414
outcome strokes 0.0909091
outcome issue 0.0333333
hecate hecate 0.7500000
disarm here 0.0011534
disarm disarm 1.0000000
disarm beauty 0.0250000
disarm again 0.0035088
disarm unprovide 0.2500000
disarm mind 0.0066667
striking struck 0.0277778
striking strik 0.3333333
striking now 0.0008389
striking striking 1.0000000
reproach his 0.0005408
sweating sweating 0.2500000
sweating fall 0.0089286
sweating let 0.0010776
sweating thy 0.0009756
sweating lance 0.5000000
education education 0.6000000
valentine valentine 0.2500000
valentine saint 0.0400000
employ entertain 0.1000000
separating parting 0.1111111
peter good 0.0008681
peter peter 0.8235294
barnardo has 0.0076336
barnardo barnardo 0.6000000
double-dealing counsel 0.0232558
double-dealing double-dealing 0.5000000
double-dealing sinner 0.2500000
mementos remembrances 0.5000000
powder powder 1.0000000
hacked 'd 0.0019881
hacked sides 0.0555556
hacked hack 0.1666667
hacked til 0.5000000
hacked ’ 0.0003043
harfleur you 0.0001751
harfleur harfleur 1.0000000
harfleur and 0.0001395
temperance temperance 0.1333333
temperance should 0.0017422
temperance temper 0.0769231
thrush throstle 1.0000000
proclamation proclamation 0.0909091
thornbush thornbush 0.6666667
safest safest 0.2500000
hear know 0.0011696
hear partake 0.5000000
hear content 0.0121951
hear urine 0.3333333
hear hear 0.4035433
hear not 0.0002103
hear damnèd 0.0555556
hear mark 0.0133333
hear bear 0.0046729
hear blazon 0.3333333
hear music 0.0202020
hear perceive 0.0227273
hear this 0.0004354
hear told 0.0099010
hear glad 0.0147059
hear sorry 0.0217391
hear laughable 0.2500000
hear tend 0.0833333
hear fellow 0.0085470
hear heard 0.0372671
hear shrive 0.3333333
hear ought 0.1111111
hear but 0.0004840
hear learn 0.0263158
hear embassy 0.5000000
hear hither 0.0070423
hear NULL 0.0008693
hear do 0.0005568
hear edgar 0.0769231
hear terribly 0.2500000
hear aloud 0.1111111
hear deafness 0.1666667
hear woman 0.0061728
hear mourner 0.3333333
hear thrusting 0.1666667
hear distinguish 0.1428571
hear fame 0.0555556
hear hearing 0.1388889
hear shalt 0.0074627
hear suffer 0.0303030
hear dost 0.0102564
hear wake 0.0303030
hear apprehension 0.1666667
hear coming 0.0158730
hear ear 0.0232558
hear news 0.0050761
signiory , 0.0000390
signiory signiory 0.2000000
knots knots 0.2500000
once-trimmed hedges 1.0000000
joseph joseph 1.0000000
misguided erring 1.0000000
hops brier 0.3333333
hairs hairs 0.3157895
hairs been 0.0042017
hairs which 0.0016556
hairs feu 1.0000000
show lead 0.0322581
show know 0.0011696
show laertes 0.0270270
show signify 0.0769231
show drollery 0.5000000
show see 0.0018215
show sacrifice 0.0769231
show seen 0.0103093
show let 0.0032328
show nativity 0.0909091
show render 0.0476190
show show 0.4407895
show boast 0.0909091
show prouder 0.3333333
show appear 0.0377358
show be 0.0008065
show tell 0.0022936
show their 0.0089606
show unkennel 0.5000000
show NULL 0.0004554
show do 0.0011136
show merciful 0.0769231
show ceres 0.1428571
show hung 0.1428571
show basis 0.2000000
show will 0.0008241
show counterfeited 0.2000000
show bring 0.0103093
show much 0.0024450
show teach 0.0196078
show crests 0.3333333
show tardy 0.0714286
show bowstrings 0.2000000
show ostentation 0.2500000
show winged 0.1666667
show make 0.0038462
show it 0.0003283
show go 0.0012407
show counterfeit 0.0416667
show then 0.0035928
show sport 0.0384615
show dallying 0.1428571
show shows 0.0294118
depended depended 0.3333333
depended own 0.0039683
depended contain 0.2000000
depended life 0.0042553
obedience fearfulness 1.0000000
obedience homage 0.1250000
obedience duty 0.0120482
obedience obedience 0.3846154
casts doth 0.0036496
casts substance 0.1666667
casts noble 0.0048544
casts all 0.0008354
sobering sober 0.0833333
lack here 0.0011534
lack upon 0.0015674
lack pain 0.0454545
lack want 0.0666667
lack forehead 0.1111111
lack leisure 0.0333333
lack my 0.0002263
lack children 0.0185185
lack lack 0.0689655
lack such 0.0020619
lack mistrust 0.2500000
lack overtake 0.2500000
bids bids 0.0869565
bids ruined 0.1250000
bids this 0.0004354
bridegroom you 0.0001751
bridegroom a 0.0002316
bridegroom say 0.0013228
bridegroom bridegroom 0.4285714
bridegroom , 0.0000390
bridegroom wants 0.0454545
offender offender 0.5000000
petitioner suitor 0.2857143
wheel nave 0.5000000
wheel NULL 0.0000414
wheel fixed 0.0909091
wheel wheel 0.4285714
wash wash 0.8000000
wash bathe 0.2500000
wash NULL 0.0000414
wash weather 0.0714286
wash clears 0.2500000
even unworthy 0.1250000
even dignity 0.0833333
even signor 0.0416667
even if 0.0049834
even beats 0.1428571
even better 0.0040650
even herod 0.3333333
even mountains 0.1428571
even life 0.0042553
even e 0.0392157
even what 0.0004897
even decays 0.1250000
even exquisite 0.0909091
even but 0.0048403
even though 0.2093023
even howsoever 0.2000000
even catching 0.2000000
even goodness 0.0476190
even bore 0.1000000
even void 0.1111111
even still 0.0055866
even brutus 0.0050251
even nor 0.0027473
even sweeter 0.1428571
even have 0.0004156
even think 0.0038168
even imbar 1.0000000
even estimable 0.2500000
even throw 0.0789474
even albeit 0.0833333
even erebus 0.1428571
even bandy 0.1428571
even career 0.3333333
even quake 0.1250000
even pursues 0.2500000
even can 0.0050000
even thou 0.0005238
even fouler 0.1000000
even sport 0.0384615
even were 0.0080775
even lead 0.0107527
even a 0.0006949
even heavier 0.1666667
even sermons 0.1428571
even lived 0.0333333
even merrier 0.2500000
even sebastian 0.0312500
even in 0.0005995
even latter 0.1666667
even very 0.0027100
even denying 0.1666667
even addition 0.0526316
even dreamt 0.0769231
even robs 0.2000000
even convict 0.2500000
even cloy 1.0000000
even calling 0.1111111
even angry 0.0232558
even assurance 0.0555556
even sparing 0.3333333
even honorable 0.0196078
even self-endeared 0.2500000
even amaze 0.1428571
even i 0.0001169
even five 0.0263158
even assault 0.1250000
even blacker 0.2857143
even as 0.0011338
even inevitable 0.2500000
even chastised 0.2500000
even fleeting 0.5000000
even however 0.1428571
even know 0.0035088
even unscorch 0.3333333
even contents 0.0434783
even interpret 0.1666667
even not 0.0039950
even , 0.0009761
even that 0.0010837
even on 0.0009372
even wast 0.0285714
even wondering 0.1666667
even happier 0.1666667
even out 0.0041068
even fierce 0.0909091
even boast 0.0909091
even brain 0.0500000
even sweats 0.2500000
even sooner 0.0714286
even pebbles 0.5000000
even obey 0.0178571
even leave 0.0035971
even actions 0.1250000
even wonderful 0.0434783
even ethiope 0.3333333
even deign 0.2500000
even meet 0.0068966
even whipped 0.1000000
even body 0.0125000
even to 0.0001697
even maritime 0.3333333
even pluck 0.0333333
even full-fraught 0.2500000
even enemies 0.0370370
even suffer 0.0303030
even now 0.0008389
even ruminate 0.2500000
even more 0.0035587
even the 0.0018264
even yet 0.0201835
even innocents 0.2000000
even farthest 0.1428571
even need 0.0263158
even gross 0.0400000
even or 0.0028902
even 'en 0.0434783
even went 0.0200000
even denial 0.1666667
even so 0.0005131
even intelligence 0.0833333
even for 0.0012048
even reprove 1.0000000
even vilely 0.1666667
even nay 0.0133929
even such 0.0020619
even 'erpast 0.5000000
even evened 0.5000000
even even 0.3015075
even NULL 0.0021113
even jot 0.0526316
even corrupted 0.1666667
even scratch 0.0769231
even brow 0.0625000
even outstrike 0.2500000
even should 0.0017422
even except 0.0555556
even edge 0.1428571
even had 0.0017921
even space 0.0555556
even puddle 0.2500000
abuser abuser 1.0000000
dull-eyed 'd 0.0019881
dull-eyed dull-ey 1.0000000
rumble bellyful 0.5000000
rumble rumble 1.0000000
rumble great 0.0038610
rumble thy 0.0009756
breath make 0.0019231
breath breathes 0.0769231
breath merriman 0.2500000
breath stirs 0.1111111
breath NULL 0.0001242
breath would 0.0009804
breath breathed 0.1250000
breath than 0.0017857
breath wind 0.0140845
breath distraction 0.2000000
breath breath 0.4166667
breath exhale 0.2500000
breath but 0.0004840
breath gasp 1.0000000
breath noise 0.0126582
marle marle 1.0000000
immediately discharged 0.1111111
immediately NULL 0.0002070
immediately straightway 0.2000000
immediately time 0.0028329
immediately audience 0.0625000
immediately sacrifice 0.0769231
immediately expediently 1.0000000
immediately straight 0.0136986
immediately at 0.0024907
immediately immediately 0.8000000
immediately once 0.0211268
immediately yourselves 0.0270270
immediately instantly 0.2307692
immediately presently 0.0746269
immediately present 0.0270270
immediately ready 0.0133333
immediately and 0.0001395
immediately suddenly 0.0714286
horsemen leading 0.2000000
horsemen peeps 0.1666667
horsemen horsemen 1.0000000
trinculos trinculos 0.5000000
acceptance our 0.0010707
acceptance pass 0.0188679
acceptance accept 0.2000000
acceptance peremptory 0.1666667
acceptance suddenly 0.0714286
fresh breathes 0.0769231
fresh furbished 0.2500000
fresh springs 0.1250000
fresh nuts 0.2000000
fresh reek 0.1428571
fresh fresh 0.4864865
fresh provoketh 0.2500000
fresh green 0.0434783
fresh gash 0.3333333
fresh reeking 0.3333333
fresh crisp 1.0000000
fresh best 0.0065359
condemn well 0.0010010
condemn done 0.0033003
condemn NULL 0.0000414
condemn have 0.0004156
condemn damn 0.0476190
condemn condemn 0.1428571
condemn afterwards 0.1428571
condemn found 0.0119048
involve inclining 0.2000000
involve subdue 0.1250000
figured know 0.0011696
figured hand 0.0035842
figured at 0.0012453
figured but 0.0004840
figured not 0.0002103
figured hit 0.0416667
figured choose 0.0151515
gallops gallops 0.5000000
mason mason 1.0000000
attendant attendant 0.2000000
attendant asses 0.1666667
bravest valorous 0.3333333
gather woo 0.0212766
gather muster 0.2500000
gather up 0.0031546
gather levy 0.2000000
gather assemble 0.1666667
gather straight 0.0136986
gather him 0.0005760
gather collect 1.0000000
gather pluck 0.0333333
gather and 0.0001395
crumb morsel 0.5000000
nippy eager 0.5000000
nippy air 0.0129870
nippy and 0.0001395
nippy an 0.0018083
housewife housewife 0.2500000
begging bade 0.0454545
begging prithee 0.0119760
begging most 0.0019493
begging bootless 0.0714286
begging petitionary 0.5000000
begging prayers 0.0277778
begging vehemence 1.0000000
begging beseech 0.0309278
begging pray 0.0028653
begging giving 0.0769231
begging beggar 0.0344828
begging asked 0.1666667
begging with 0.0004695
swinger gallant 0.0714286
handling handling 1.0000000
grievances ye 0.0227273
grievances between 0.0135135
grievances enforce 0.1428571
grievances griefs 0.1052632
grievances stomaching 0.3333333
wears wear 0.0405405
wears one 0.0034188
wears wears 0.3333333
wears yoked 0.2000000
wears wasp 0.3333333
wears is 0.0002413
wears deformed 0.1428571
repeating iterance 0.2000000
repeating after 0.0064935
repeating needs 0.0142857
repeating echo 0.1428571
repeating this 0.0004354
explode blows 0.0555556
explode this 0.0004354
thoughtless rash 0.0526316
jupiter juno 0.1111111
jupiter jupiter 0.3000000
rose rose 0.5333333
rocks high 0.0172414
rocks rocks 0.5000000
rocks flints 0.2500000
rocks merchant-marring 0.2000000
reconcile atone 0.2857143
reconcile reconcile 0.1428571
artless artless 1.0000000
stirring stirring 0.0714286
stirring ardor 0.2500000
unwashed peasant 0.1000000
roared pronounced 0.0909091
roared roared 0.3333333
hedge boxtree 0.2500000
hedge hedge 0.1666667
supply interpret 0.1666667
supply furnish 0.1666667
supply supply 0.1428571
possesses possesses 0.2000000
em em 0.0392157
em NULL 0.0000414
em up 0.0031546
final latest 0.6666667
adores met 0.0144928
adores lies 0.0089286
adores for 0.0004016
adores well 0.0010010
adores prays 0.0769231
adores one 0.0017094
adores dearly 0.0476190
adores adores 0.6666667
sting nettle-seed 0.3333333
sting sting 0.2500000
sting pinch 0.1250000
sting more 0.0011862
sting stinging 0.3333333
leaders leaders 0.3333333
affectionate fond 0.0416667
affectionate iniquity 0.1111111
panel casement 0.5000000
queens queens 1.0000000
surprise wonder 0.0123457
surprise marvel 0.0714286
surprise admiration 0.1111111
surprise up 0.0031546
surprise take 0.0023148
surprise though 0.0077519
excess excess 0.1428571
excess is 0.0002413
marcus marcus 0.9090909
la la 0.2500000
la without 0.0074627
fleece fleece 1.0000000
fleece fells 0.5000000
already given 0.0149254
already done 0.0066007
already lust-stained 0.1428571
already cheerly 0.1250000
already burièd 0.2500000
already has 0.0076336
already come 0.0008857
already employed 0.1250000
already cudgel 0.1666667
already southampton 0.1666667
already iron 0.1000000
already known 0.0126582
already offered 0.0370370
already before 0.0038610
already struck 0.0277778
already crow 0.0833333
already love-springs 0.5000000
already embarked 0.0909091
already ready 0.0133333
already too 0.0024272
already NULL 0.0008280
already plainness 0.0769231
already aboard 0.0357143
already confessed 0.1250000
already enkindled 0.2500000
already midnight 0.0526316
already tis 0.0012500
already is 0.0002413
already hadst 0.0344828
already already 0.7413793
already long 0.0058480
already footed 0.2500000
already strucken 0.1428571
already dined 0.1111111
already under 0.0119048
already foreknowledge 1.0000000
already moved 0.0882353
already hath 0.0015723
already slain 0.0270270
already an 0.0018083
thanked 'erpaid 0.3333333
thanked NULL 0.0000414
thanked thanked 0.1428571
thanked thank 0.0082645
thanked any 0.0037313
thanked o 0.0009681
immortal in 0.0002998
immortal me 0.0003368
immortal longings 0.3333333
immortal immortal 0.7058824
immortal itself 0.0188679
shhh hush 0.0909091
shhh no 0.0006698
shhh more 0.0011862
vengeful revengeful 0.5000000
vengeful murderers 0.1000000
ghost vision 0.0833333
ghost pin 0.3333333
ghost shadow 0.0400000
ghost ghost 0.5454545
ghost a 0.0004633
ghost he 0.0004143
ghost terms 0.0454545
ghost spirit 0.0634921
ghost is 0.0002413
ghost apparition 0.2857143
ghost night-shriek 0.2500000
ghost this 0.0004354
knowledge intelligence 0.0833333
knowledge philosophy 0.1000000
knowledge deserving 0.0714286
knowledge knowledge 0.1142857
lena lena 0.5000000
lena speaks 0.0144928
danger lead 0.0107527
danger it 0.0003283
danger fear 0.0052632
danger NULL 0.0000828
danger danger 0.3703704
danger wants 0.0454545
danger peril 0.0769231
danger courser 0.1666667
danger hazard 0.0416667
danger lighted 0.0909091
colme colmekill 0.3333333
colme colme 1.0000000
dripped sweaten 0.3333333
dripped 's 0.0014493
victory helm 0.2500000
victory NULL 0.0000414
victory put 0.0049020
victory victorious 0.1666667
victory on 0.0028116
victory sit 0.0123457
victory victory 0.5384615
victory triumph 0.0526316
victory sits 0.0454545
victory palm 0.1111111
victory have 0.0004156
victory loured 1.0000000
victory conquest 0.0833333
victory thy 0.0009756
victory life 0.0042553
second-in-command ingraft 1.0000000
second-in-command second 0.0212766
second-in-command infirmity 0.0625000
second-in-command own 0.0039683
second-in-command an 0.0018083
cares may 0.0018797
cares of 0.0002128
cares do 0.0005568
cares come 0.0008857
cares that 0.0002709
cares thee 0.0009091
cares maintains 0.2500000
cares ' 0.0011655
cares i 0.0001169
cares adore 0.1666667
exchange even 0.0050251
exchange NULL 0.0001242
exchange change 0.0491803
exchange me 0.0003368
exchange chrysolite 0.2000000
exchange bequeath 0.2500000
exchange exchange 0.2857143
exchange frown 0.0666667
insults offense 0.0204082
insults detract 0.5000000
insults dishonor 0.0625000
insults indignation 0.1250000
insults derision 0.2500000
insults injuries 0.1428571
saxony saxony 1.0000000
square satisfaction 0.0526316
square make 0.0019231
square pulpit 0.2000000
heavily life-blood 1.0000000
heavily in 0.0002998
heavily measure 0.0384615
heavily great 0.0038610
heavily perfumèd 0.3333333
heavily stoutly 0.2500000
veteran good 0.0008681
veteran old 0.0051546
attractive a 0.0002316
attractive dwell 0.0384615
attractive what 0.0004897
attractive do 0.0005568
attractive smiles 0.0476190
attractive my 0.0002263
attractive graces 0.0526316
attractive attractive 0.1428571
attractive nature 0.0088496
attractive fairer 0.0500000
attractive gracious 0.0161290
attractive person 0.0285714
attractive dimension 0.2500000
attractive in 0.0002998
attractive become 0.0188679
attractive love 0.0013569
gleam luster 0.2500000
triumph triumph 0.4736842
triumph home 0.0140845
triumph with 0.0004695
revered dread 0.0625000
arms so 0.0005131
arms limbs 0.1000000
arms NULL 0.0000828
arms arms 0.4871795
arms lived 0.0333333
arms death 0.0040650
full-scale only 0.0116279
full-scale snatchers 0.2000000
full-scale coursing 0.2500000
reminds lively 0.2000000
reminds does 0.0054054
reminds remember 0.0095238
reminds some 0.0019569
reminds ditty 0.1111111
blessedness blessedness 1.0000000
synagogue tubal 0.0555556
synagogue good 0.0008681
synagogue synagogue 0.3333333
pile caliban 0.0434783
pile them 0.0016181
pile pile 0.6000000
envy so 0.0005131
envy was 0.0013106
envy he 0.0004143
envy envy 0.1111111
envy his 0.0005408
envy envenom 0.5000000
doubts shake 0.0217391
doubts scruples 0.5000000
doubts NULL 0.0000414
doubts doubts 0.6000000
doubts us 0.0014599
doubts doubt 0.0162602
doubts that 0.0002709
lisbon lisbon 1.0000000
recline couch 0.0769231
recline do 0.0005568
busily it 0.0003283
busily most 0.0019493
busily busiest 0.2000000
astounds doth 0.0036496
astounds amaze 0.1428571
surrendered s 0.0006325
surrendered vassal 0.2000000
surrendered ’ 0.0003043
foix foix 1.0000000
sees show 0.0065789
sees NULL 0.0000414
sees shapes 0.0909091
sees danger 0.0370370
sees judgment 0.0204082
sees look 0.0027548
sees drowned 0.0416667
sees shall 0.0007057
sees then 0.0011976
sees doubly 0.3333333
sees reading 0.1111111
sees sees 0.5238095
sees waking 0.0555556
sees eyes 0.0085106
unstable foul 0.0096154
unstable vulcan 0.2000000
virtue virtue 0.4090909
virtue it 0.0006566
virtue in 0.0002998
virtue privilege 0.0833333
virtue my 0.0002263
virtue is 0.0004825
hunts hunts 0.3333333
debauchery fuming 1.0000000
debauchery of 0.0002128
debauchery brain 0.0500000
debauchery feasts 0.3333333
debauchery field 0.0250000
deal made 0.0084388
deal lady 0.0040161
deal NULL 0.0001242
deal ourself 0.0500000
deal tis 0.0012500
deal gone 0.0055866
deal deal 0.2307692
deal bear 0.0093458
deal matter 0.0052910
deal in 0.0002998
deal business 0.0085470
deal bargain 0.1666667
deal it 0.0006566
deal match 0.0625000
deal changed 0.0454545
deal be 0.0008065
deal hand 0.0035842
deal faith 0.0062112
deal dealest 1.0000000
gospel gospell 0.5000000
gospel gospels 1.0000000
personal person 0.0285714
personal his 0.0005408
personal personal 0.6000000
personal stomaching 0.3333333
personal more 0.0011862
dighton dighton 1.0000000
disposal compt 0.2000000
disposal highness 0.0200000
commendable commendable 0.2500000
lordship lordship 0.2321429
lordship our 0.0010707
lordship sovereignty 0.0666667
lordship accept 0.2000000
lordship please 0.0069930
lordship duty 0.0120482
owner owner 0.5000000
owner parings 0.3333333
owner ' 0.0011655
owner keeper 0.2500000
owner lord 0.0008818
owner o 0.0009681
subsidy exhibition 0.5000000
buds buds 0.2000000
smudge smirch 1.0000000
smudge umber 1.0000000
obligations obligation 0.2500000
soundless soundless 1.0000000
infatuation erflows 0.3333333
infatuation o 0.0009681
seductive songs 0.1111111
seductive me 0.0003368
seductive timelier 0.5000000
seductive t 0.0026316
seductive called 0.0185185
wart wart 0.5000000
pearl pearl 0.4000000
pearl union 0.2857143
chapped chopped 1.0000000
chargers coursers 0.5000000
drunkard drunkard 0.4545455
drunkard dead 0.0049261
dido she 0.0012240
dido ‘ 0.0476190
dido &ket; 0.0069930
dido dido 0.5882353
dido NULL 0.0000414
dido gonzalo 0.0357143
beautifully well 0.0010010
beautifully NULL 0.0000414
beautifully how 0.0011710
beautifully but 0.0004840
affections affection 0.0666667
affections affections 0.1428571
strangeness strangeness 0.2500000
trauma anguish 0.1428571
up-to-the-minute modern 0.2500000
revolting quite 0.0270270
revolting forsworn 0.0588235
milk milch-kine 1.0000000
milk NULL 0.0000414
milk milk 0.5000000
hereafter hereafter 0.0714286
compelled 'd 0.0019881
compelled compell 1.0000000
dipped envenomed 0.2000000
riled storm 0.0344828
riled heated 0.5000000
riled how 0.0011710
earring in 0.0002998
earring pearl 0.1000000
ooze bedded 0.2000000
nastily kind 0.0087719
nastily yields 0.1666667
nastily answer 0.0055556
nastily never 0.0026525
meantime lady 0.0040161
meantime court 0.0161290
meantime s 0.0006325
meantime ’ 0.0003043
meantime vices 0.2500000
meantime while 0.0312500
meantime encounter 0.0476190
meantime meantime 0.2432432
meantime say 0.0013228
meantime too 0.0024272
meantime interim 0.2000000
meantime mine 0.0025575
sweaty sweating 0.2500000
feasting plenty 0.1666667
feasting good 0.0008681
feasting cheer 0.0178571
feasting feasting 0.2500000
yellow in 0.0002998
yellow mind 0.0066667
yellow though 0.0038760
yellow yellow 0.6923077
yellow saffron 1.0000000
mender mender 0.5000000
mender cobbler 0.2000000
gambling slips 1.0000000
gambling wanton 0.0555556
gambling dice 0.3333333
gambling wild 0.0384615
gambling such 0.0020619
gambling swoopstake 0.3333333
gambling but 0.0004840
gambling and 0.0001395
gambling usual 0.2500000
adultery adultery 1.0000000
whenever 'st 0.0108696
whenever tyranny 0.0714286
whenever even 0.0050251
whenever leisure 0.0333333
whenever therefore 0.0033445
whenever never 0.0053050
whenever kind 0.0175439
whenever skirmish 0.3333333
whenever patience 0.0112360
whenever at 0.0024907
whenever upon 0.0015674
whenever when 0.0105422
whenever what 0.0004897
whenever where 0.0038536
whenever by 0.0008795
whenever when- 1.0000000
exaggerate they 0.0012005
exaggerate brutus 0.0050251
exaggerate NULL 0.0000414
exaggerate greater 0.0312500
exaggerate makes 0.0104167
exaggerate are 0.0006711
exaggerate than 0.0017857
exaggerate set 0.0076923
hellish toss 1.0000000
hellish hellish 1.0000000
disrespect shame 0.0116279
accomplishing the 0.0001218
accomplishing which 0.0016556
accomplishing for 0.0004016
accomplishing we 0.0007782
accomplishing act 0.0277778
b in 0.0002998
b back 0.0093458
b proof 0.0384615
b blast 0.2000000
logic it 0.0003283
logic syllogism 0.5000000
logic NULL 0.0000414
logic how 0.0011710
logic reason 0.0080000
logic chase 0.1111111
logic dost 0.0051282
logic will 0.0004120
logic thou 0.0005238
logic simple 0.0416667
logic fondly 0.1666667
breastplate breast 0.0555556
breastplate which 0.0016556
breastplate scuffles 1.0000000
dorset marquess 0.1818182
dorset dorset 1.0000000
oops barren 0.0476190
oops now 0.0008389
oops marry 0.0053191
oops am 0.0008104
thought-out thus 0.0029070
delay tardy 0.0714286
delay NULL 0.0000414
delay delay 0.4375000
delay stay 0.0052083
delay by 0.0008795
delay 'en 0.0217391
delay unwise 1.0000000
delay ta 0.0400000
delay more 0.0011862
seconds twenty 0.0175439
web thee 0.0009091
web web 0.6666667
web about 0.0060976
web ensnareth 1.0000000
partly in 0.0002998
partly wretch 0.0526316
partly partly 0.5000000
partly do 0.0005568
partly part 0.0121951
enlarge have 0.0004156
enlarge warranty 0.2500000
teach teaches 0.2500000
teach NULL 0.0000414
teach teacheth 0.3333333
teach teachest 0.2000000
teach teaching 0.2500000
teach counsel 0.0232558
teach teach 0.4313725
teach learn 0.0789474
teach break 0.0117647
teach lute 0.2500000
horns NULL 0.0000414
horns hornmaker 0.2500000
horns mad 0.0079365
horns horn 0.0625000
horns horns 0.5454545
commanders battles 0.1428571
commanders know 0.0011696
commanders heads 0.0555556
commanders many 0.0060976
commanders prepare 0.0263158
commanders commanders 0.5714286
set savors 0.3333333
set made 0.0042194
set pawn 0.1250000
set NULL 0.0003312
set odorous 0.5000000
set discharge 0.1176471
set let 0.0010776
set fire 0.0101010
set hoist 0.1111111
set befits 0.1000000
set down 0.0051282
set this 0.0008707
set prize 0.0714286
set lawful 0.0909091
set set 0.2000000
set prepare 0.0263158
set make 0.0038462
set determined 0.1111111
set me 0.0006736
set doubts 0.2000000
set afire 0.3333333
berated rated 0.2857143
jig jig 0.5000000
tapestry arras 0.2000000
tapestry ducats 0.0181818
tapestry myself 0.0046512
tapestry tapestry 0.5000000
job well-took 0.2500000
job done 0.0033003
job NULL 0.0001656
job rise 0.0238095
job limited 0.5000000
job place 0.0200000
job employment 0.1666667
job supplied 0.3333333
job called 0.0185185
job brakenbury 0.1250000
job enterprise 0.0555556
job it 0.0003283
job dispatch 0.0270270
job spirit 0.0079365
job drawn 0.0555556
job service 0.0119048
job affair 0.0769231
job ercles 0.3333333
job office 0.2777778
job ill 0.0136986
job talk 0.0109890
job was 0.0013106
hawked 'd 0.0019881
hawked mousing 1.0000000
hawked hawk 0.2500000
hawked owl 0.1428571
hawked by 0.0008795
rainbow bow 0.1052632
rainbow heavenly 0.0303030
boar boar 0.7142857
pious holy 0.0238095
pious pious 0.4000000
pious gospeled 0.2500000
stained out 0.0020534
stained purpled 0.5000000
stained lust-stained 0.1428571
stained blotted 0.2500000
stained stain 0.1428571
stained can 0.0025000
stained 'd 0.0019881
stained vile 0.0222222
stained blot 0.2000000
stained hero 0.0444444
stained stained 0.1428571
stained itself 0.0094340
leader so 0.0005131
leader sword 0.0086957
leader leader 0.3333333
leader unswayed 0.2500000
leader majesty 0.0123457
met seen 0.0206186
met saw 0.0075758
met trencher 0.2000000
met met 0.2608696
met NULL 0.0000414
met meet 0.0068966
met found 0.0238095
double-crossed traduced 0.2500000
tooth tooth 0.1666667
white hairs 0.0526316
white white 0.5483871
white NULL 0.0000828
white flaxen 1.0000000
capture NULL 0.0000414
capture taken 0.0322581
capture taking 0.0833333
capture entrap 0.2500000
capture fetch 0.0138889
capture take 0.0023148
capture achieve 0.2000000
wonder jove 0.0357143
wonder zealous 0.3333333
wonder peseech 0.5000000
wonder wonder 0.2345679
wonder think 0.0019084
wonder marvel 0.1071429
wonder though 0.0038760
representation counterfeit 0.0416667
representation presentment 1.0000000
urgings persuasion 0.1000000
saint saint 0.6400000
saint puissance 0.2000000
susceptible themselves 0.0175439
susceptible in 0.0002998
susceptible imminent 0.1428571
disgusting tar 0.3333333
disgusting abhorring 0.5000000
disgusting foul 0.0384615
disgusting name 0.0048780
disgusting my 0.0002263
disgusting gross 0.1600000
disgusting s 0.0006325
disgusting ’ 0.0003043
disgusting pish 0.1666667
disgusting kind 0.0087719
disgusting fie 0.0113636
disgusting macbeth 0.0158730
disgusting abhorrèd 0.2000000
disgusting fault 0.0175439
torso sides 0.0555556
frowns doth 0.0036496
frowns frowning 0.2500000
frowns frowns 0.8000000
frowns checks 0.3333333
frowns skill 0.2000000
frowns — 0.0008143
frowns frown 0.0666667
invented from 0.0012361
invented fire-new 0.5000000
violet violet 0.5000000
gracefully it 0.0003283
gracefully softly 0.0555556
gracefully featly 1.0000000
disobedient obedient 0.0833333
disobedient as 0.0005669
disobedient not 0.0002103
disobedient beldams 0.1666667
unwatched 'd 0.0019881
unwatched unwatch 0.5000000
unwatched go 0.0012407
betrothed betrothed 0.5000000
betrothed contract 0.1428571
betrothed substitute 0.2500000
betrothed by 0.0008795
cawdor thane 0.0370370
cawdor glamis 0.2000000
cawdor it 0.0003283
cawdor NULL 0.0000414
cawdor cawdor 0.8823529
cawdor very 0.0027100
cawdor him 0.0005760
dared NULL 0.0000414
dared dared 0.5000000
dared tempted 0.2222222
dared durst 0.0851064
dared lord 0.0008818
duel reckoning 0.2000000
duel desert 0.0555556
duel NULL 0.0000414
duel withdraw 0.0294118
duel orchard 0.1000000
duel end 0.0093458
duel satisfaction 0.0526316
duel challenged 0.1666667
duel challenge 0.0833333
duel call 0.0040816
duel field 0.0250000
bats bats 1.0000000
anticipate anticipatest 1.0000000
visitor visitor 1.0000000
freeman freeman 1.0000000
doll baby 0.1818182
brow brow 0.1250000
brow brows 0.0909091
brow looks 0.0119048
aleppo aleppo 0.6666667
parties revels 0.0666667
parties pomp 0.0666667
parties masques 0.0769231
parties guests 0.2000000
deeds exploits 0.2000000
deeds NULL 0.0000414
deeds relate 0.1666667
deeds play 0.0062112
deeds exercise 0.0909091
deeds all 0.0008354
deeds feats 0.2000000
deeds business 0.0085470
deeds deeds 0.4782609
deeds strokes 0.0909091
deeds mischiefs 0.2500000
dragged 'd 0.0019881
dragged dragg 1.0000000
dragged rather 0.0075758
dragged drawn 0.0555556
dragged hath 0.0015723
taunting taunting 1.0000000
taunting mock 0.0172414
taunting very 0.0027100
taunting st 0.0045045
sight swoons 0.1666667
sight NULL 0.0001242
sight ill-favoredly 0.2500000
sight come 0.0008857
sight lurk 0.2000000
sight late 0.0163934
sight apparition 0.1428571
sight see 0.0018215
sight face 0.0079365
sight our 0.0021413
sight from 0.0012361
sight thy 0.0009756
sight hence 0.0051546
sight sight 0.4875000
sight spectacle 0.2000000
sight hatred 0.1666667
sight eye 0.0300000
sight sense 0.0208333
sight vanish 0.1111111
sight eyes 0.0042553
sight mine 0.0025575
religion religion 0.3333333
religion tribe 0.0714286
outrageous most 0.0019493
outrageous monster 0.0128205
outrageous tyrannically 0.5000000
outrageous lewd 0.1666667
gentleman gallant 0.0714286
gentleman seigneur 0.5000000
gentleman gentleman 0.5937500
gentleman NULL 0.0000828
gentleman counseled 0.2500000
gentleman books 0.0714286
gentleman gallants 0.1428571
gentleman lord 0.0008818
gentleman gently 0.0416667
gentleman gen- 0.6666667
gentleman qualities 0.3333333
gentleman sir 0.0011312
gentleman spoken 0.0357143
protected ensheltered 0.5000000
protected it 0.0003283
protected walled 0.1666667
protected claimed 0.2500000
lateness tardy 0.0714286
lateness come 0.0008857
lateness off 0.0069930
oppression yoke 0.0909091
oppression the 0.0001218
oppression sufferance 0.0909091
misses lack 0.0172414
misses shall 0.0007057
misses mistake 0.0270270
misses totally 0.1666667
perfect very 0.0027100
perfect NULL 0.0000414
perfect perfectest 0.5000000
perfect for 0.0004016
perfect form 0.0384615
perfect convenient 0.0555556
perfect all 0.0008354
perfect fullness 0.2500000
perfect created 0.2500000
perfect perfect 0.2608696
perfect gods 0.0098039
perfect stillness 0.1666667
perfect perfection 0.1250000
mend cobble 0.5000000
mend mend 0.1428571
driven threaden 0.3333333
driven made 0.0042194
driven draw 0.0105263
driven thence 0.0294118
driven moved 0.0294118
driven turned 0.0384615
driven rebuked 0.3333333
driven from 0.0012361
driven beat 0.0408163
driven came 0.0070922
driven driven 0.2500000
driven droven 0.5000000
bedrooms chambers 0.1111111
unworthy unworthy 0.1250000
unworthy unworthiness 0.3333333
unworthy NULL 0.0000414
unworthy improper 0.2000000
unworthy mine 0.0025575
unworthy worthless 0.1250000
birth birth 0.3636364
birth whelpèd 0.3333333
birth NULL 0.0000828
birth a 0.0002316
birth born 0.0862069
birth breeding 0.1111111
birth burden 0.0769231
birth at 0.0012453
birth gender 0.3333333
birth shambles 0.1666667
birth stars 0.0555556
birth rounded 0.2000000
birth men-children 0.1666667
birth breeder 0.5000000
birth blood 0.0058480
birth minute 0.0909091
birth be 0.0004032
birth rear 0.1000000
heaviness heaviness 0.2000000
illusion cinquepace 1.0000000
illusion a 0.0002316
illusion dream 0.0161290
illusion illusion 0.1111111
illusion proud 0.0322581
both tripped 0.2500000
both woo 0.0212766
both majesties 0.1666667
both false 0.0107527
both NULL 0.0005382
both : 0.0030864
both of 0.0004255
both both 0.5384615
both two 0.0147783
both gone 0.0055866
both good 0.0008681
both matter 0.0105820
both eaten 0.0833333
both jointly 0.5000000
both article 0.1000000
both power 0.0101010
both revenged 0.0769231
both ambles 0.1666667
both yourselves 0.0540541
both covenants 0.2000000
both re 0.0666667
both them 0.0016181
both stocking 0.3333333
both sure 0.0142857
both graces 0.0526316
both crab 0.0909091
signor him 0.0005760
signor signor 0.2916667
signor signior 0.0694444
signor commends 0.0833333
flew flung 1.0000000
farmworker swain 0.2500000
vices make 0.0019231
vices vices 0.5000000
vices in 0.0002998
vices instruments 0.0625000
vices viciousness 0.3333333
sailor you 0.0001751
sailor now 0.0008389
sailor sailor 0.6000000
sailor have 0.0004156
sailor no 0.0006698
sailor sea-cap 0.2000000
dug digt 0.2500000
oyster oyster 0.5000000
shameless varlet 0.2500000
shameless brazen-faced 1.0000000
cheated beguile 0.1000000
cheated false 0.0215054
cheated cheated 1.0000000
cheated turned 0.0384615
cheated unscarred 0.2500000
cheated 'erraught 0.1428571
cheated was 0.0013106
cheated some 0.0019569
cheated fopped 0.2000000
graft so 0.0005131
graft inoculate 0.2000000
proculeius proculeius 0.7500000
hedonism wassails 1.0000000
pharsalia pharsalia 1.0000000
spouse fellow 0.0085470
general-honest general 0.0111111
general-honest honest 0.0069444
harassed worried 0.2500000
morocco morocco 1.0000000
mainly 'd 0.0019881
mainly up 0.0031546
mainly stirr 0.5000000
mainly mainly 1.0000000
toiled 'd 0.0019881
toiled unbreathed 0.5000000
toiled toil 0.0625000
toiled with 0.0004695
toiled memories 0.5000000
banquo deep 0.0208333
banquo flight 0.0476190
banquo stick 0.0666667
banquo banquo 0.9459459
banquo feared 0.0625000
anytime or 0.0014451
anytime now 0.0008389
anytime provided 0.0625000
anytime whensoever 0.2500000
anytime ready 0.0133333
plotted did 0.0029240
plotted plot 0.1538462
drinking NULL 0.0000828
drinking unfilled 0.3333333
drinking s 0.0006325
drinking potting 0.5000000
drinking our 0.0010707
drinking throats 0.1000000
drinking used 0.0322581
drinking pledge 0.1428571
drinking drinking 0.6000000
drinking drink 0.0285714
drinking leave 0.0035971
dangers perils 0.3333333
dangers dangers 0.4166667
regular fourteen 0.1428571
regular that 0.0002709
erotic wanton 0.0555556
artemidorus artemidorus 0.5000000
pellet pelleted 1.0000000
takethe the 0.0001218
takethe take 0.0023148
relief hour 0.0076336
relief relief 0.0833333
relief NULL 0.0000414
relief physic 0.1250000
relief therein 0.0400000
wet wet 1.0000000
wet bedabbled 0.5000000
wet woe 0.0294118
wet wetting 1.0000000
twisted on 0.0009372
twisted made 0.0042194
twisted waved 1.0000000
twisted is 0.0002413
world-traveled bentivolii 0.5000000
signals us 0.0014599
signals astonish 0.3333333
signals heralds 0.3333333
signals dreadful 0.0588235
no these 0.0023256
no you 0.0003501
no come 0.0008857
no remembrance 0.0344828
no nobody 0.1538462
no heavy 0.0212766
no degrees 0.1111111
no longer 0.0425532
no extravagancy 0.1666667
no anchoring 0.1666667
no lost 0.0162602
no chill 0.1428571
no night 0.0033784
no strained 0.1428571
no deny 0.0459770
no honored 0.0909091
no appear 0.0188679
no celerity 0.1666667
no betide 0.1111111
no but 0.0014521
no too 0.0024272
no stir 0.0270270
no perforce 0.0454545
no guiltiness 0.1428571
no nor 0.0439560
no neither 0.0309278
no it 0.0009849
no saying 0.0370370
no 's 0.0014493
no man 0.0013755
no unfellowed 0.3333333
no thou 0.0005238
no truly 0.0112360
no prithee 0.0059880
no a 0.0025481
no false 0.0215054
no — 0.0008143
no giant-rude 1.0000000
no howso 0.5000000
no no 0.4681849
no off 0.0069930
no natural 0.0416667
no inferior 0.2500000
no m.o.a.i. 0.5000000
no in 0.0008993
no remorse 0.0909091
no madam 0.0088496
no alas 0.0500000
no permission 0.1111111
no me 0.0013473
no by 0.0017590
no teeth 0.0526316
no passy-measures 1.0000000
no surgery 0.1428571
no wither 0.1250000
no rogue 0.0588235
no vouch 0.0909091
no believed 0.1111111
no oliver 0.2500000
no standing 0.0909091
no beauty 0.0250000
no choice 0.0434783
no i 0.0010521
no understands 0.2500000
no doubt 0.0731707
no there 0.0046189
no launcelot 0.0333333
no falstaff 0.2000000
no why 0.0029542
no nothing 0.0146520
no o 0.0029042
no swoons 0.1666667
no yes 0.0232558
no unbound 0.2000000
no cannot 0.0051993
no not 0.0082002
no that 0.0008128
no flatter 0.1111111
no whatever 0.2000000
no on 0.0009372
no gone 0.0111732
no slept 0.0500000
no years 0.0169492
no veins 0.0833333
no day 0.0040984
no race 0.2000000
no regard 0.0526316
no grief 0.0188679
no impossible 0.0434783
no pacified 0.1666667
no faith 0.0248447
no love 0.0013569
no none 0.1111111
no velvet 0.3333333
no indeed 0.0119048
no oh 0.0117647
no school 0.0526316
no barefaced 0.2500000
no till 0.0043478
no master 0.0042017
no sure 0.0071429
no stopped 0.1428571
no little 0.0058824
no non 1.0000000
no more 0.0023725
no let 0.0021552
no suspicion 0.0588235
no blank 0.1111111
no this 0.0013061
no so 0.0010262
no for 0.0012048
no refused 0.1250000
no protest 0.0322581
no nay 0.5982143
no advancement 0.0666667
no lover 0.0416667
no rather 0.0151515
no chapless 0.5000000
no NULL 0.0024011
no jot 0.0526316
no never 0.0185676
no rebels 0.0769231
no soldiership 0.1111111
no at 0.0037360
no lusted 0.2500000
no cease 0.0714286
no undone 0.0416667
no conqueror 0.3333333
no first 0.0059880
no legitimate 0.1666667
no he 0.0008285
no demean 0.3333333
no shallow 0.0769231
no play 0.0062112
no sans 0.2500000
no hand 0.0071685
no nonpareil 0.1428571
no 'm 0.2000000
anxious fain 0.0416667
anxious been 0.0042017
anxious much 0.0024450
anxious hotly 0.2000000
anxious careful 0.1428571
anxious called 0.0185185
anxious dismay 0.1111111
mixes seasons 0.1666667
agincourt agincourt 1.0000000
agincourt they 0.0012005
agincourt it 0.0003283
agincourt call 0.0040816
accommodation accommodation 1.0000000
dumps your 0.0004263
dumps dumps 0.5000000
gnats gnats 0.2000000
gnats degrees 0.1111111
lorded overmastered 0.3333333
self-delusions the 0.0001218
self-delusions initiate 1.0000000
self-delusions fear 0.0026316
self-delusions is 0.0002413
self-delusions self-abuse 0.3333333
self-delusions and 0.0001395
object question 0.0133333
object make 0.0019231
object object 0.3750000
object annexment 0.5000000
object poisons 0.0833333
shedding floods 0.1666667
shedding the 0.0001218
shedding till 0.0043478
shedding legerity 0.2000000
shedding envious 0.0833333
shedding thee 0.0009091
shedding like 0.0020704
shedding again 0.0035088
shedding 'errun 0.3333333
shedding o 0.0009681
shedding shed 0.0714286
invent invent 0.1250000
pinch tweaks 0.5000000
pinch over-red 0.1666667
pinch pinch 0.6250000
pinch unwrung 0.5000000
pinch by 0.0008795
tyrannically tyrannically 0.5000000
tyrannically clapped 0.1666667
woe woe 0.1764706
marching marching 0.5000000
beauties beauties 0.2000000
gentles gentles 0.3333333
salisbury salisbury 1.0000000
dissuade persuaded 0.2000000
dissuade so 0.0005131
dissuade have 0.0004156
dissuade mightily 0.1111111
go chastisement 0.1250000
go forth 0.0544218
go wend 0.5000000
go dwell 0.0384615
go you 0.0070028
go importuned 0.2000000
go fly 0.0306122
go come 0.0132861
go prayers 0.0277778
go see 0.0145719
go broached 0.1666667
go hogs 0.2500000
go fairs 0.3333333
go suits 0.1428571
go keep 0.0053763
go business 0.0085470
go serve 0.0246914
go extend 0.1000000
go pronounce 0.0714286
go ll 0.0111821
go them 0.0064725
go bite 0.1000000
go savage 0.0714286
go aroint 0.2222222
go lord 0.0008818
go borders 0.3333333
go nunnery 0.0714286
go spade 0.1000000
go inclined 0.1428571
go again 0.0070175
go commanded 0.0555556
go and 0.0002791
go rest 0.0140845
go stir 0.1081081
go descend 0.1000000
go will 0.0012361
go unsafe 0.1428571
go dismiss 0.0833333
go press 0.0476190
go orderly 0.1666667
go revels 0.0666667
go pass 0.0377358
go said 0.0065359
go going 0.0833333
go transform 0.1428571
go part 0.0060976
go wander 0.1428571
go whistle 0.1666667
go sauce 0.1428571
go wait 0.0434783
go haste 0.0136986
go fret 0.0588235
go vanish 0.1111111
go way 0.0092593
go circumvent 0.5000000
go relief 0.0833333
go pay 0.0188679
go — 0.0032573
go depart 0.0303030
go post 0.0800000
go no 0.0006698
go off 0.0139860
go soft 0.0149254
go wildcat 0.1428571
go contriving 0.3333333
go got 0.0263158
go in 0.0008993
go presence 0.0454545
go fetch 0.1250000
go perish 0.1000000
go stand 0.0050251
go toward 0.0555556
go caelius 0.2500000
go s 0.0012650
go ask 0.0147059
go hot-blooded 0.2500000
go c 0.5000000
go unwatch 0.5000000
go pack 0.1000000
go quickly 0.0312500
go cast 0.0250000
go resurvey 0.2500000
go withdraw 0.1764706
go hit 0.0416667
go mad 0.0079365
go after 0.0584416
go run 0.0412371
go begone 0.8000000
go us 0.0014599
go get 0.1935484
go attend 0.0298507
go hence 0.0824742
go i 0.0012859
go farther 0.0454545
go conduct 0.0714286
go goest 0.2000000
go quiet 0.0277778
go unfold 0.0526316
go crowner 0.1250000
go make 0.0057692
go heart 0.0031546
go sue 0.1111111
go minstrels 0.3333333
go back 0.0654206
go go 0.5285360
go there 0.0011547
go well 0.0030030
go everyone 0.1000000
go cullions 1.0000000
go avoided 0.1666667
go forward 0.1333333
go along 0.0476190
go , 0.0006638
go not 0.0004205
go grow 0.0208333
go gate 0.0434783
go take 0.0023148
go on 0.0065604
go gone 0.0670391
go slept 0.0500000
go gently 0.0416667
go further 0.0430108
go break 0.0117647
go out 0.0041068
go departure 0.0714286
go thee 0.0054545
go madness 0.0645161
go uncle 0.0178571
go adriana 0.3333333
go walk 0.0294118
go budge 0.2857143
go obey 0.0357143
go fished 0.2000000
go i. 0.0170940
go with 0.0004695
go leave 0.0179856
go must 0.0165663
go visit 0.0869565
go meet 0.0068966
go goes 0.0392157
go do 0.0038976
go into 0.0047847
go avaunt 0.2727273
go good 0.0017361
go to 0.0061100
go incontinently 0.2000000
go from 0.0012361
go towards 0.0384615
go motion 0.0476190
go home 0.0281690
go set 0.0153846
go complain 0.2000000
go repair 0.1538462
go &amp; 0.3333333
go comfort 0.0140845
go females 0.5000000
go pursue 0.0454545
go ones 0.0400000
go thither 0.1388889
go heigh 0.3333333
go little 0.0058824
go wake 0.0303030
go proceed 0.2222222
go then 0.0023952
go unhand 0.5000000
go traverse 0.5000000
go bed 0.0162602
go speak 0.0016611
go yet 0.0018349
go beseech 0.0206186
go went 0.0400000
go about 0.0243902
go t 0.0026316
go lay 0.0116279
go swim 0.1250000
go sojourn 0.3333333
go whither 0.0188679
go enter 0.1395349
go near 0.0090090
go abed 0.1111111
go ways 0.0294118
go nay 0.0044643
go miss 0.1111111
go be 0.0056452
go away 0.1304348
go undertake 0.0666667
go NULL 0.0030220
go needs 0.0285714
go hasten 0.1250000
go therefore 0.0200669
go up 0.0063091
go amp 0.5000000
go look 0.0055096
go use 0.0086207
go been 0.0042017
go bring 0.0103093
go say 0.0079365
go counsel 0.0232558
go fust 0.5000000
go hunt 0.2000000
go moveables 0.3333333
go return 0.0833333
go question 0.0133333
go prevailed 0.0909091
go disperse 0.2000000
go speedy 0.1428571
go air 0.0129870
go decius 0.0714286
go somewhere 0.2500000
go sleep 0.0078740
go seek 0.0277778
unaware wrong 0.0071942
unaware knowledge 0.0285714
unaware from 0.0012361
unaware imaginations 0.5000000
unaware woes 0.1111111
unaware lose 0.0158730
unaware by 0.0008795
toasts meeting 0.0714286
toasts welcome 0.0056818
toasts drinking 0.1000000
toasts with 0.0009390
toasts healths 0.2500000
brilliant most 0.0019493
brilliant gull-catcher 0.2500000
brilliant exquisite 0.1818182
brilliant my 0.0004527
coroner on 0.0009372
coroner crowner 0.2500000
coroner let 0.0010776
coroner sat 0.1111111
coroner ' 0.0011655
coroner her 0.0008432
chink chink 0.5000000
dish dish 0.5000000
dish again 0.0035088
tree tree 0.9411765
tree may 0.0018797
tree verse 0.2000000
tree pine 0.2222222
tree oak 0.2000000
tree nonny 1.0000000
emperor NULL 0.0000414
emperor emperor 0.7142857
emperor imperious 0.3333333
emperor continues 0.2500000
emperor leather 0.1666667
emperor s 0.0006325
third good 0.0008681
third for 0.0004016
third part 0.0121951
third third 0.5172414
third play 0.0062112
third all 0.0008354
third pays 0.1250000
superseded way 0.0046296
superseded give 0.0018622
forgery baseness 0.0769231
profound awful 0.2000000
imperfections out 0.0020534
imperfections piece 0.0303030
imperfections ill-well 0.3333333
imperfections imperfections 0.2000000
imperfections him 0.0005760
imperfections unless 0.0200000
imperfections with 0.0004695
folks bedfellows 0.5000000
folks folks 0.5000000
govern govern 0.2142857
govern in 0.0002998
govern nonage 0.1666667
govern rules 0.2000000
defy 'd 0.0019881
defy defy 0.1250000
defy mock 0.0172414
defy fear 0.0026316
defy drugg 1.0000000
defy brave 0.0196078
defy her 0.0008432
faithless faithless 1.0000000
route way 0.0092593
route shorter 0.1666667
route safest 0.1250000
disease the 0.0002435
disease upon 0.0015674
disease NULL 0.0000414
disease which 0.0016556
disease up 0.0031546
disease s 0.0012650
disease disease 1.0000000
disease ’ 0.0006086
disease pestilence 0.5000000
disease thee 0.0009091
disease imminent 0.1428571
disease dropsy 0.2500000
disease contagion 0.1666667
disease plague 0.0357143
tortures pinched 0.1666667
tortures death 0.0040650
tortures torture 0.1250000
cobbler cobbler 0.6000000
shriveling blastments 0.3333333
shriveling are 0.0006711
thunder bellyful 0.5000000
thunder thunders 0.2500000
thunder break 0.0117647
thunder thunder 0.5500000
stole stolen 0.0769231
stole NULL 0.0000414
stole pay 0.0188679
stole perforce 0.0454545
stole took 0.0416667
stole steal 0.0384615
stole dear 0.0047393
stole shall 0.0007057
stole got 0.0263158
stole as 0.0005669
stole lapsèd 1.0000000
stole in 0.0008993
stole usurp 0.1538462
stole stole 0.5000000
stole usurped 0.2500000
accused so 0.0005131
accused upon 0.0015674
accused wronged 0.0555556
accused accused 0.5000000
accused belied 0.1428571
accused are 0.0006711
accused bewhored 0.3333333
accused accusers 0.2500000
accused falsely 0.0769231
accused cause 0.0076336
accused her 0.0008432
unbelievable wonderful 0.0869565
unbelievable most 0.0019493
unbelievable rarities 0.2000000
unbelievable vouched 0.2000000
unbelievable many 0.0060976
unbelievable blood 0.0058480
unbelievable insupportable 0.3333333
unbelievable rarity 0.1428571
unbelievable and 0.0001395
behind brine 0.2500000
behind left 0.0116279
behind behind 0.5319149
behind leaves 0.0909091
behind wood 0.0196078
behind NULL 0.0001242
behind find 0.0051546
behind him 0.0005760
behind pool 0.5000000
behind in 0.0002998
behind at 0.0024907
behind out 0.0020534
behind second 0.0212766
behind back 0.0186916
behind exercise 0.0909091
behind within 0.0080645
behind one 0.0017094
behind gifts 0.0714286
behind hand 0.0035842
behind driven 0.2500000
behind boxtree 0.2500000
behind leave 0.0035971
behind practices 0.1250000
hysterically laughable 0.2500000
bad corruption 0.1111111
bad damnable 0.2500000
bad pitiful 0.0714286
bad contents 0.0434783
bad untimely 0.0625000
bad that 0.0010837
bad portents 0.1428571
bad exclaim 0.0833333
bad fortune 0.0158730
bad witless 0.2500000
bad mischief 0.0666667
bad foul 0.0576923
bad shapes 0.0909091
bad 'red 0.2500000
bad monstrous 0.0344828
bad hard 0.0144928
bad steps 0.1666667
bad moody 0.1250000
bad pity 0.0434783
bad to 0.0001697
bad good 0.0008681
bad bad 0.6229508
bad oh 0.0039216
bad knavery 0.0625000
bad takes 0.0384615
bad from 0.0012361
bad tales 0.1000000
bad abound 0.1428571
bad wretched 0.0384615
bad effect 0.0344828
bad rash 0.0526316
bad faults 0.0434783
bad michael 0.0625000
bad man 0.0013755
bad ear 0.0116279
bad governed 0.1111111
bad an 0.0018083
bad unbreathed 0.5000000
bad sermons 0.1428571
bad fright 0.0833333
bad disturbèd 1.0000000
bad 'en 0.0217391
bad wrong 0.0143885
bad might 0.0060241
bad so 0.0005131
bad sorrows 0.0500000
bad alas 0.0166667
bad predictions 0.1666667
bad else 0.0054645
bad s 0.0006325
bad ill 0.2465753
bad their 0.0017921
bad such 0.0020619
bad begun 0.0909091
bad shoes 0.0666667
bad thick 0.0625000
bad miscarry 0.1250000
bad NULL 0.0008693
bad harmed 0.2500000
bad knavish 0.3333333
bad lamented 0.2500000
bad totters 0.2500000
bad lawful 0.0909091
bad fortunes 0.0434783
bad naught 0.0666667
bad lives 0.0102041
bad marred 0.1428571
bad while 0.0104167
bad vile 0.0222222
bad dishonor 0.0625000
bad tale 0.0250000
skirmish grapple 0.3333333
occasion mortal-staring 1.0000000
occasion time 0.0028329
occasion occasion 0.1315789
occasion season 0.0303030
ashes the 0.0001218
ashes engineer 0.5000000
ashes did 0.0014620
ashes burièd 0.2500000
ashes his 0.0005408
ashes dust 0.0714286
ashes hoist 0.1111111
something you 0.0007003
something come 0.0008857
something not 0.0008410
something employed 0.1250000
something that 0.0035221
something see 0.0018215
something retrograde 0.2000000
something peculiar 0.1428571
something dross 0.2500000
something mischief 0.1333333
something what 0.0024486
something laughable 0.2500000
something greek 0.1428571
something trash 0.0833333
something ought 0.1111111
something falsing 0.2000000
something again 0.0070175
something some 0.0156556
something promise 0.0161290
something leave 0.0071942
something is 0.0002413
something all 0.0008354
something aught 0.0208333
something will 0.0004120
something teach 0.0196078
something something 0.5131579
something sparks 0.1428571
something cozen 0.1666667
something readiest 0.3333333
something remembered 0.0833333
something now 0.0008389
something thou 0.0005238
something consent 0.0322581
something speak 0.0166113
something way 0.0046296
something page 0.1111111
something a 0.0018531
something yet 0.0036697
something neck 0.0500000
something compulsatory 0.1666667
something might 0.0240964
something clothes 0.2500000
something transgresses 0.1666667
something deed 0.0120482
something this 0.0008707
something write 0.0227273
something so 0.0005131
something ignorant 0.1875000
something hideous 0.1250000
something word 0.0104167
something dismal 0.1666667
something be 0.0012097
something shrewd 0.0666667
something worse 0.0147059
something lined 0.1666667
something suit 0.0188679
something NULL 0.0008693
something : 0.0030864
something trick 0.0500000
something angry 0.0232558
something means 0.0200000
something embrace 0.0434783
something seriously 0.2000000
something note 0.0250000
something question 0.0133333
something smell 0.0476190
something commits 0.2500000
something positively 0.1666667
something amend 0.0909091
something thing 0.0277778
something difficult 0.2500000
cheered 'd 0.0019881
cheered cheer 0.0178571
oats provender 0.0769231
oats oats 0.4285714
gall avouch 0.2500000
gall dare 0.0090090
pulling to 0.0001697
pulling germane 1.0000000
pulling be 0.0004032
pulling would 0.0009804
pulling ravish 0.5000000
pulling more 0.0011862
pulling pulling 1.0000000
drowsy drowsy 0.3333333
eloquence utterance 0.2500000
eloquence eloquence 1.0000000
hot a 0.0002316
hot NULL 0.0000414
hot southwest 0.2500000
hot snow 0.0588235
hot stinking 0.1428571
hot heat 0.0833333
hot over-earnest 1.0000000
hot chastity 0.1428571
hot little 0.0058824
hot scotch 0.3333333
hot thy 0.0009756
hot snuff 0.2500000
hot choleric 0.0714286
hot hot 0.5000000
horrible heavy 0.0212766
horrible fore-vouched 1.0000000
horrible liberal 0.1428571
horrible loathèd 0.5000000
horrible unnatural 0.0526316
horrible terrible 0.0909091
horrible dreaded 0.2500000
horrible alas 0.0083333
horrible foul 0.0384615
horrible plagues 0.5000000
horrible hideous 0.1250000
horrible monstrous 0.1724138
horrible horrid 0.0909091
horrible dismal 0.3333333
horrible your 0.0004263
horrible counselor 0.3333333
horrible and 0.0006977
horrible too 0.0024272
horrible unhappy 0.1111111
horrible affection 0.0222222
horrible most 0.0077973
horrible NULL 0.0001242
horrible taint 0.0909091
horrible into 0.0047847
horrible conceit 0.0833333
horrible england 0.0096154
horrible villainous 0.0909091
horrible fall 0.0089286
horrible affairs 0.0500000
horrible woe 0.0588235
horrible profane 0.1000000
horrible tormenting 0.3333333
horrible vile 0.0222222
horrible nose 0.0416667
horrible horrible 0.5652174
beams beams 0.1428571
maimed 'd 0.0019881
maimed maim 1.0000000
piety earthlier 0.1666667
piety happy 0.0117647
greeks greeks 0.5000000
hardships from 0.0012361
belong hers 0.0384615
belong been 0.0042017
belong has 0.0076336
belong perpetual 0.1428571
belong slave 0.0158730
belong are 0.0006711
character qual- 1.0000000
character to 0.0003394
character ification 0.5000000
character name 0.0048780
character extremities 0.2000000
character soto 0.1666667
character honesty 0.0243902
behaved been 0.0042017
behaved behaved 0.3333333
behaved unfitness 0.5000000
enter NULL 0.0000828
enter intermingle 0.3333333
enter at 0.0012453
enter st 0.0045045
enter ’ 0.0003043
enter com 0.2500000
enter go 0.0024814
enter enter 0.1860465
foreign foreign 0.2500000
foreign the 0.0001218
foreign tributaries 0.1250000
foreign NULL 0.0000414
foreign be 0.0004032
foreign scythian 0.5000000
willfully 'st 0.0108696
willfully wilfully 0.3333333
willfully thy 0.0009756
willfully knaveries 0.3333333
unfair NULL 0.0000414
unfair a 0.0002316
unfair false 0.0107527
unfair not 0.0002103
unfair are 0.0006711
unfair as 0.0005669
unfair nor 0.0027473
unfair unmerciful 1.0000000
unfair bondmaid 1.0000000
fairy-land land 0.0140845
fairy-land fairy 0.0294118
tolerate lordship 0.0178571
tolerate receive 0.0243902
tolerate bear 0.0046729
tolerate brook 0.1000000
tolerate forbear 0.0312500
tolerate brooked 0.3333333
closely alexander 0.0555556
closely NULL 0.0000414
closely pry 0.2000000
closely we 0.0007782
closely heedful 0.3333333
closely scann 0.2500000
closely note 0.0250000
closely 'd 0.0019881
closely well 0.0010010
closely swashers 0.5000000
closely close 0.0571429
pembroke pembroke 0.5000000
age NULL 0.0000414
age time 0.0028329
age both 0.0048077
age decays 0.1250000
age them 0.0016181
age age 0.4109589
age prop 0.1111111
age strange 0.0070423
age years 0.0508475
age mutations 0.1428571
age devour 0.1428571
age thy 0.0009756
scrawny choppy 0.2500000
scrawny once 0.0070423
scrawny laying 0.1666667
scrawny her 0.0008432
plain plain 0.2790698
plain NULL 0.0000414
plain discommend 0.3333333
plain gross 0.0400000
plain uncoined 0.5000000
lions lions 0.7777778
lions rather 0.0075758
lions NULL 0.0000414
lions frame 0.1428571
lions beasts 0.0625000
bleeding issuing 1.0000000
bleeding bleed 0.1052632
bleeding bold 0.0256410
bleeding apace 0.1111111
bleeding bleeding 0.4285714
bleeding reeking 0.3333333
bleeding . 0.0000499
bleeding sir 0.0011312
cure recover 0.1176471
cure remedy 0.0571429
cure expel 0.2000000
cure do 0.0005568
cure physic 0.1250000
cure charm 0.0952381
cure cure 0.4285714
cure give 0.0018622
loving of 0.0002128
loving die 0.0057803
loving obedience 0.0769231
loving surfeiting 0.2500000
loving nuptial 0.0833333
loving sisters 0.0434783
loving our 0.0010707
loving bear 0.0046729
loving loving 0.6363636
loving long 0.0058480
loving love 0.0067843
loving lovely 0.0666667
loving lost 0.0081301
loving loves 0.0116279
higher thee 0.0009091
higher NULL 0.0000414
higher better 0.0040650
higher larger 0.1666667
higher mounted 0.3333333
higher higher 0.3636364
hug upon 0.0015674
hug fall 0.0089286
hug let 0.0010776
hug tears 0.0185185
hug cheek 0.0454545
tests test 0.5000000
rouse variance 0.1428571
rouse their 0.0017921
rouse condole 0.2500000
rouse if 0.0008306
results success 0.0588235
results none 0.0037037
results ends 0.1818182
tenants tenants 1.0000000
tradesman tradesman 0.1428571
tradesman with 0.0004695
wreath garland 0.6000000
wreath wreath 0.5000000
late the 0.0001218
late hour 0.0152672
late NULL 0.0000828
late almost 0.0151515
late steals 0.0666667
late into 0.0047847
late d 0.0208333
late late 0.3278689
late far 0.0120482
late repents 0.1428571
late on 0.0009372
late past 0.0681818
late once 0.0070423
late tardy 0.0714286
late morning 0.0166667
late wait 0.0434783
late crept 0.0909091
late lated 0.2500000
late too 0.0024272
late promise 0.0161290
turk a 0.0002316
turk turk 0.3333333
turk turbaned 0.5000000
turk took 0.0208333
turk state 0.0120482
matching matching 0.3333333
bed-time bed-time 1.0000000
nourished head 0.0080645
experiences thousand 0.0104167
foot 'send 1.0000000
foot NULL 0.0001242
foot foot 0.4222222
foot fights 0.3333333
stored dalliance 0.1666667
stored silken 0.1666667
christian NULL 0.0000414
christian humility 0.1428571
christian christian 0.7500000
christian burial 0.0769231
comets seen 0.0103093
comets comets 0.2500000
plan law 0.0175439
plan way 0.0092593
plan you 0.0001751
plan heed 0.0555556
plan likeness 0.1111111
plan cannot 0.0017331
plan pretense 0.1111111
plan directed 0.1111111
plan practice 0.0344828
plan sharp 0.0588235
plan business 0.0170940
plan drift 0.1666667
plan t 0.0026316
plan course 0.0392157
plan night 0.0033784
plan schoolmasters 0.1666667
plan blast 0.2000000
plan determinèd 0.5000000
plan purposes 0.0666667
plan tomorrow 0.0092593
plan contrive 0.2000000
plan villainy 0.0454545
plan athenian 0.0555556
plan story 0.0666667
plan NULL 0.0002070
plan wrestling 0.2500000
plan purpose 0.0615385
plan conceit 0.0833333
plan is 0.0002413
plan intend 0.0303030
plan ’ 0.0003043
plan direction 0.0625000
plan good 0.0008681
plan us 0.0029197
plan bassanio 0.0243902
plan unfold 0.0526316
plan make 0.0019231
plan devised 0.1000000
plan enterprise 0.0555556
plan it 0.0006566
plan part 0.0060976
plan play 0.0062112
plan determine 0.0666667
plan can 0.0025000
plan mean 0.0320513
plan device 0.2666667
plan pursue 0.0454545
plan then 0.0011976
plan consent 0.0322581
shag-haired 'd 0.0019881
shag-haired shag-ear 1.0000000
offends wrong 0.0071942
offends wrongs 0.0625000
endanger pin 0.3333333
sums sums 1.0000000
conquered erthrown 0.5000000
conquered NULL 0.0000414
conquered 'erthrown 0.5000000
conquered o 0.0009681
conquered conquered 0.2500000
replaced displanting 0.3333333
worker diligence 0.0833333
worker workman 0.2500000
charter upon 0.0015674
charter charter 0.1666667
charter your 0.0004263
charter light 0.0099010
charter danger 0.0370370
thrice-gentle gentle 0.0071942
thrice-gentle thrice 0.0192308
ecstatic upon 0.0015674
ecstatic dote 0.0416667
devours on 0.0009372
devours feeds 0.1666667
bluntness bluntness 0.3333333
artfully withal 0.0129870
spineless waterish 0.2500000
syracusians the 0.0001218
syracusians syracusians 1.0000000
syracusians by 0.0008795
mangled mangled 0.5000000
mangled poor 0.0049751
mangled thus 0.0029070
mangled splitted 1.0000000
mangled confining 0.2500000
scarce scarce 0.0434783
scarce hold 0.0054054
knife deep 0.0208333
knife lucrece 1.0000000
knife knife 0.6666667
knife rapier 0.1111111
husband husbands 0.0384615
husband NULL 0.0001656
husband husbanded 0.3333333
husband woes 0.1111111
husband him 0.0011521
husband husband 0.8372093
husband sir 0.0011312
husband prince 0.0114943
husband house 0.0061350
husband hast 0.0091324
husband he 0.0008285
husband working 0.1666667
husband lord 0.0123457
husband plight 0.3333333
husband man 0.0013755
husband one 0.0034188
husband their 0.0017921
husband eye 0.0100000
husband obey 0.0178571
husband hornmaker 0.2500000
dotes dotes 0.3333333
hagar hagar 0.5000000
blanch blanch 0.5000000
hasty hasty 0.1818182
hasty 'erhasty 0.5000000
hasty salved 1.0000000
hasty haste 0.0136986
hasty quick 0.0227273
greets greet 0.0500000
greets doth 0.0036496
greets greeting 0.1111111
greets does 0.0054054
greets salute 0.1428571
greets but 0.0004840
greets sends 0.0714286
distasteful of 0.0002128
distasteful despite 0.0500000
sheet shrouding 0.5000000
sheet sheet 0.2500000
immature raw 0.1428571
turquoise turquoise 0.5000000
phoebe-ing phoebes 0.3333333
chime bennet 0.5000000
chime put 0.0049020
chime mind 0.0066667
sweetness voice 0.0125000
sweetness honey 0.1250000
sweetness honey-heavy 0.5000000
sweetness sermons 0.1428571
sweetness sugar 0.2000000
sweetness paramour 0.1250000
sweetness dew 0.0714286
gets remove 0.0555556
gets rise 0.0238095
gets NULL 0.0000414
gets begins 0.0370370
gets that 0.0002709
gets we 0.0007782
gets is 0.0004825
gets deck 0.1666667
gets nightly 0.1428571
gets riseth 0.5000000
gets makes 0.0104167
gets undertaker 0.1250000
gets fetch 0.0138889
gets escapes 0.3333333
gets increaseth 0.3333333
gets quit 0.0769231
gets win 0.0270270
gets may 0.0018797
gets receives 0.3333333
gets provided 0.0625000
gets s 0.0006325
gets gets 0.2000000
gets birnam 0.0555556
gets totally 0.1666667
gets shows 0.0294118
gets itself 0.0094340
gets entangles 0.2000000
gets consume 0.2000000
groan general 0.0111111
groan groaning 0.1428571
groan did 0.0014620
groan groan 0.4444444
defended them 0.0016181
defended down 0.0051282
defended poured 0.2000000
criminal usurer 0.2500000
criminal malefactor 1.0000000
criminal commonwealth 0.1250000
criminal knave 0.0151515
criminal NULL 0.0000414
criminal cozener 0.2500000
criminal find 0.0051546
criminal all 0.0008354
criminal villain 0.0082645
criminal try 0.0192308
criminal knaves 0.0625000
criminal villainy 0.0454545
criminal transgression 0.2000000
criminal arrant 0.0588235
right you 0.0005252
right laertes 0.0540541
right come 0.0026572
right instant 0.0333333
right pit 0.0625000
right vein 0.1666667
right wise 0.0149254
right perigouna 0.5000000
right beggar 0.0344828
right persuasion 0.1000000
right fit 0.0757576
right god 0.0030488
right profoundest 0.2500000
right spirit 0.0079365
right wit 0.0114943
right vulture 0.3333333
right furze 0.5000000
right your 0.0017050
right and 0.0012559
right pat 0.2857143
right time 0.0028329
right tide 0.0769231
right true 0.0185185
right briefly 0.0588235
right scanned 0.1666667
right have 0.0004156
right husband 0.0077519
right befits 0.1000000
right thy 0.0039024
right knocks 0.0833333
right commission 0.0500000
right hasty 0.0909091
right said 0.0130719
right it 0.0019698
right right 0.2831858
right charge 0.0128205
right haste 0.0136986
right chose 0.1666667
right straightway 0.1000000
right a 0.0009266
right — 0.0040717
right redress 0.1250000
right honesty 0.0243902
right attractive 0.1428571
right fitted 0.1000000
right in 0.0011990
right stand 0.0100503
right very 0.0054201
right may 0.0018797
right me 0.0006736
right presently 0.1641791
right caesar 0.0023474
right certainer 0.5000000
right twelve 0.0454545
right upright 0.2000000
right hit 0.0416667
right solemnized 0.2000000
right council 0.0666667
right aimed 0.1666667
right horatio 0.0222222
right implacable 0.3333333
right i 0.0003507
right heart 0.0031546
right decorum 0.1666667
right go 0.0037221
right there 0.0023095
right well 0.0340340
right mended 0.2000000
right nothing 0.0036630
right thing 0.0069444
right why 0.0029542
right happy 0.0235294
right yes 0.0116279
right lies 0.0178571
right third 0.0344828
right contents 0.0434783
right secure 0.1000000
right , 0.0010933
right not 0.0010513
right mark 0.0066667
right on 0.0037488
right matter 0.0105820
right apt 0.0500000
right widow 0.0285714
right scope 0.1111111
right out 0.0061602
right govern 0.0714286
right thence 0.0294118
right smites 1.0000000
right crown 0.0158730
right one 0.0017094
right softly 0.0555556
right fished 0.2000000
right with 0.0004695
right suddenly 0.0714286
right season 0.0606061
right leave 0.0035971
right goes 0.0098039
right meet 0.0344828
right durst 0.0212766
right certain 0.0113636
right to 0.0016972
right indeed 0.0039683
right brooch 0.1428571
right home 0.0070423
right set 0.0076923
right forthwith 0.1000000
right invisible 0.0454545
right any 0.0037313
right grace 0.0053763
right directly 0.0322581
right now 0.0067114
right respect 0.0208333
right ' 0.0034965
right spoken 0.0357143
right the 0.0004870
right done 0.0066007
right supposition 0.2500000
right lecher 0.2500000
right could 0.0045249
right wits 0.0294118
right laced 1.0000000
right this 0.0013061
right t 0.0026316
right so 0.0061570
right told 0.0099010
right enough 0.0136986
right for 0.0016064
right carefully 0.1428571
right wench 0.0400000
right event 0.0909091
right ursula 0.1000000
right doth 0.0036496
right be 0.0016129
right such 0.0020619
right most 0.0019493
right NULL 0.0014075
right even 0.0351759
right wing 0.0555556
right young 0.0070423
right straight 0.3287671
right at 0.0062267
right counsel 0.0232558
right peremptory 0.1666667
right grizzled 0.3333333
right stop 0.0294118
right admittance 0.1111111
right masterly 0.3333333
right he 0.0004143
right hearing 0.0277778
right prevailed 0.0909091
right mend 0.0285714
right present 0.0270270
right air 0.0129870
secret-keeping discretion 0.1250000
devastating earth 0.0113636
devastating terrors 1.0000000
necessary answerable 1.0000000
necessary almost 0.0151515
necessary need 0.0131579
necessary no 0.0006698
necessary warranted 1.0000000
necessary tis 0.0012500
necessary needful 0.1250000
necessary go 0.0012407
necessary matter 0.0052910
necessary further 0.0107527
necessary such 0.0020619
necessary ' 0.0011655
necessary ” 0.0031646
necessary necessary 0.2000000
protecting those 0.0065789
protecting of 0.0002128
protecting seemed 0.0714286
withdrawing reprieve 0.2500000
withdrawing of 0.0002128
withdrawing token 0.0370370
testify this 0.0004354
testify vouch 0.0909091
doorway door 0.0270270
doorway chamber 0.0217391
doorway hold 0.0054054
doorway pander 0.5000000
monsieur good 0.0008681
monsieur monsieur 0.5483871
unclean apprehensions 0.5000000
unclean unpurged 1.0000000
unclean uncleanly 0.6666667
reacts takes 0.0384615
ho madam 0.0044248
ho it 0.0003283
ho common 0.0185185
ho is 0.0002413
ho ho 0.3174603
excavators given 0.0149254
excavators pioneers 0.2000000
excavators 'er 0.0062500
excavators o 0.0009681
light-hearted jocund 0.1428571
hawk hawk 0.2500000
hawk argus 0.5000000
pot pot 0.1428571
tail sack 0.2500000
tail hath 0.0015723
tail tongue 0.0091743
tail drowned 0.0416667
tail tail 0.8181818
tail horse-tail 0.5000000
tail fawn 0.1111111
tail bobtail 0.2500000
tail man-monster 1.0000000
blatant uncovered 1.0000000
extent a 0.0002316
extent bourn 0.1666667
extent set 0.0076923
heirs heirs 0.4000000
heirs succeeders 1.0000000
heirs issue 0.0333333
ours had 0.0017921
ours our 0.0032120
ours ours 0.3684211
ours demands 0.1666667
ours NULL 0.0000414
ours nought 0.1428571
ours own 0.0039683
ours we 0.0007782
ours tott 0.5000000
ours countermines 1.0000000
fix lies 0.0178571
fix you 0.0003501
fix a 0.0002316
fix of 0.0002128
fix redress 0.1250000
fix ’ 0.0003043
fix in 0.0002998
fix splinter 0.3333333
fix ; 0.0006640
fix make 0.0019231
fix pheeze 1.0000000
fix s 0.0006325
fix device 0.0666667
fix amend 0.1818182
fix mend 0.1142857
fix become 0.0188679
fix fault 0.0175439
chilly cold 0.0327869
chilly unwilling 0.2000000
chilly a- 0.5000000
chilly icy 0.5000000
chilly a-cold 1.0000000
booze well 0.0010010
booze spade 0.1000000
booze drink 0.0142857
sick grievous 0.1000000
sick toys 0.1666667
sick NULL 0.0001242
sick remediate 0.2500000
sick almost 0.0151515
sick not 0.0004205
sick surfeit 0.2500000
sick sicken 0.2500000
sick midwife 0.5000000
sick look 0.0027548
sick pale 0.0416667
sick on 0.0009372
sick horses 0.0476190
sick brutus 0.0050251
sick am 0.0016207
sick at 0.0012453
sick i 0.0003507
sick wether 0.5000000
sick odious 0.2500000
sick when 0.0045181
sick light 0.0099010
sick health 0.0294118
sick abhor 0.1250000
sick well 0.0020020
sick ill 0.0547945
sick sick 0.6818182
sick infirm 0.2500000
sick but 0.0004840
sick sickly 0.1111111
four upon 0.0015674
four steep 0.1428571
four NULL 0.0000414
four two 0.0049261
four twice 0.0606061
four four 0.8139535
taxes tribute 0.1666667
introduce make 0.0019231
introduce friends 0.0052356
introduce do 0.0005568
introduce grace 0.0053763
introduce thyself 0.0147059
introduce present 0.0135135
introduce give 0.0018622
introduce welcome 0.0056818
exeter well 0.0010010
exeter thee 0.0009091
exeter doth 0.0036496
exeter love 0.0013569
exeter exeter 1.0000000
upkeep house 0.0061350
upkeep doth 0.0036496
upkeep prop 0.1111111
upkeep sustain 0.1000000
upkeep that 0.0002709
verse groans 0.1428571
verse you 0.0001751
verse verse 0.2000000
verse chapter 0.3333333
verse give 0.0018622
fire smother 0.2000000
fire prodigal 0.1250000
fire stellèd 0.5000000
fire NULL 0.0001656
fire how 0.0011710
fire drowns 0.2000000
fire me 0.0003368
fire place 0.0066667
fire babe 0.1666667
fire soul 0.0061350
fire blood 0.0058480
fire lends 0.2000000
fire inflame 0.2500000
fire fire 0.6666667
fire burns 0.1111111
fire cities 0.1666667
extol deserved 0.0344828
extol from 0.0012361
extol vary 1.0000000
fills washes 0.5000000
fills harrows 0.2500000
fills all 0.0008354
fills pale 0.0208333
honors NULL 0.0000414
honors glories 0.1428571
honors honors 0.3125000
honors worships 0.2500000
honors honour 0.0344828
attend on 0.0018744
attend abode 0.1250000
attend matter 0.0052910
attend hear 0.0019685
attend and 0.0001395
attend attend 0.0746269
attend see 0.0018215
whirling whirling 0.2000000
reynaldo reynaldo 1.0000000
four-day will 0.0004120
four-day his 0.0005408
four-day peat 0.2000000
four-day four 0.0232558
four-day i 0.0001169
weathered upon 0.0015674
weathered fortune 0.0079365
weathered casts 1.0000000
meat upon 0.0015674
meat shambles 0.1666667
meat meat 0.3043478
forgets matter 0.0052910
forgets let 0.0021552
forgets him 0.0005760
forgets slip 0.5000000
graceful renown 0.1000000
graceful show 0.0065789
graceful knowledge 0.0285714
graceful your 0.0008525
graceful grace 0.0107527
graceful graceful 0.5000000
affected the 0.0001218
affected penetrable 0.2000000
affected pass 0.0188679
affected taint 0.0909091
hearers hearers 0.5000000
experience small 0.0303030
experience of 0.0002128
experience taste 0.0322581
experience custom 0.0476190
experience experience 0.5000000
experience never 0.0026525
experience old 0.0051546
experience grows 0.0196078
individual and 0.0001395
daydream dream 0.0161290
daydream 'ring 0.0666667
apology reconcilement 0.2000000
escapes detecting 0.5000000
escapes scape 0.2000000
escapes ’ 0.0006086
true-love true-love 0.5000000
topic argument 0.0416667
topic nation 0.0769231
topic holds 0.0312500
topic controversy 1.0000000
seller NULL 0.0000414
stabbing bing 0.5000000
stabbing stab- 1.0000000
chained pinioned 0.2500000
chained at 0.0012453
chained rome 0.0123457
loans made 0.0042194
loans moan 0.1000000
loans at 0.0012453
loans times 0.0161290
sores declining 0.3333333
sores carbuncles 1.0000000
decayed decayèd 0.5000000
blast on 0.0009372
blast large 0.0769231
blast a 0.0002316
blast fuller 0.2500000
blast charter 0.1666667
blast methinks 0.0088496
blast blow 0.0263158
wine want 0.0666667
wine bottle 0.1578947
wine NULL 0.0001656
wine of 0.0006383
wine rhenish 0.4000000
wine exclaim 0.0833333
wine ho 0.0079365
wine known 0.0126582
wine stoup 0.1666667
wine cup 0.0476190
wine liquor 0.0833333
wine invisible 0.0454545
wine spirit 0.0079365
wine bung-hole 0.5000000
wine wine 0.8292683
wine alms-drink 0.1250000
wine malmsey 1.0000000
imperious imperious 0.1666667
purchased bought 0.0714286
purchased purchas 0.3333333
luck you 0.0008754
luck sermons 0.1428571
luck take 0.0023148
luck grow 0.0208333
luck fortune 0.2301587
luck thrift 0.1538462
luck happiness 0.0454545
luck success 0.0588235
luck out 0.0020534
luck hap 0.1666667
luck may 0.0018797
luck full 0.0075758
luck with 0.0004695
luck steps 0.1666667
luck luck 0.9166667
luck NULL 0.0000828
luck most 0.0019493
luck heels 0.0434783
luck objects 0.2500000
luck speed 0.0263158
luck at 0.0012453
luck haps 0.5000000
luck thy 0.0009756
luck fortunes 0.0434783
luck fare 0.0512821
luck waist 0.1428571
luck higher 0.0909091
luck go 0.0012407
luck fortunate 0.0666667
luck chance 0.0571429
luck happy 0.0117647
luck why 0.0014771
handkerchief gladly 0.2500000
handkerchief ‘ 0.0476190
handkerchief even 0.0050251
handkerchief handkerchief 0.9512195
handkerchief that 0.0005419
handkerchief same 0.0222222
handkerchief was 0.0013106
handkerchief now 0.0008389
handkerchief napkin 0.3750000
handkerchief handkercher 1.0000000
witnesses witness 0.0400000
witnesses witnesses 0.5000000
witnesses many 0.0060976
witnesses witnesseth 0.3333333
desired desired 0.1666667
desired else 0.0054645
imperial type 0.5000000
imperial imperial 0.3076923
affirm first 0.0059880
affirm even 0.0050251
affirm their 0.0017921
affirm protest 0.0322581
risen the 0.0002435
risen ascended 0.1428571
risen buoyed 1.0000000
risen roof 0.1428571
risen writ 0.0416667
listened NULL 0.0000414
listened importuned 0.2000000
prudish customs 0.3333333
prudish curtsy 0.3333333
prudish nice 0.2000000
hair the 0.0003653
hair hairs 0.1052632
hair it 0.0003283
hair NULL 0.0001656
hair very 0.0027100
hair singe 0.2500000
hair them 0.0016181
hair do 0.0016704
hair locks 0.1666667
hair poll 1.0000000
hair flakes 0.2500000
hair unpin 0.1666667
hair blood-bolter 0.1666667
hair hair 0.7750000
reared beauteous 0.0833333
strive strive 0.1111111
strive tinctures 0.5000000
strive for 0.0004016
strive press 0.0476190
tie tied 0.1000000
tie bound 0.0307692
tie enforce 0.1428571
tie pinion 0.5000000
tie tie 0.1428571
tie bind 0.3529412
tie fast 0.0212766
tie hard 0.0144928
melted melted 0.3333333
enjoys of 0.0002128
enjoys joy 0.0185185
mistreat wrong 0.0071942
mercury should 0.0017422
sweet-faced sweet-faced 0.3333333
thriving breton 0.5000000
jowl jowl 0.5000000
firebrands firebrands 0.3333333
firebrands ho 0.0079365
firebrands brands 0.1428571
amble withal 0.0129870
amble ambles 0.1666667
sickening fulsome 0.5000000
phoebe phoebe 0.9285714
phoebe her 0.0008432
shark usurer 0.2500000
jobs offices 0.0588235
jobs parts 0.0294118
jobs service 0.0119048
chances made 0.0042194
chances NULL 0.0000414
chances may 0.0018797
chances thrive 0.0526316
chances forsook 0.1250000
chances as 0.0005669
chances chance 0.0285714
chances shall 0.0007057
chances unto 0.0072464
chances be 0.0004032
chances hazard 0.0416667
chances likelihood 0.2000000
chances i 0.0002338
achieves darkens 1.0000000
achieves which 0.0016556
achieves gain 0.0476190
achieves does 0.0054054
swiftest swiftest 1.0000000
swiftest wing 0.0555556
blocking intercepts 0.2500000
blocking my 0.0002263
blocking expedition 0.1111111
humid rheumy 0.5000000
humid NULL 0.0000414
humid twere 0.0149254
humid as 0.0005669
humid — 0.0008143
humid sultry 0.5000000
haunt haunt 0.3000000
haunt haunts 0.1111111
tuned tuned 0.1250000
water-tight yare 0.0769231
water-tight tight 0.3333333
calculate NULL 0.0000414
calculate account 0.0476190
calculate reckon 0.2000000
columbines columbines 1.0000000
shoot waste 0.0769231
shoot shoot 0.4000000
shoot a 0.0002316
shoot no 0.0006698
leading lead 0.0107527
leading leading 0.2000000
leading NULL 0.0000828
leading bring 0.0051546
leading of 0.0002128
leading conductor 1.0000000
leading officer 0.0454545
hymen hymen 0.2500000
abused misused 0.3333333
abused abuse 0.0666667
abused did 0.0014620
abused ourself 0.0500000
abused was 0.0013106
abused abused 0.1250000
abused deserve 0.0454545
abused didst 0.0096154
ruthless stony 0.2500000
ruthless piteous 0.1428571
ruthless arch 0.5000000
ruthless adversary 0.1666667
virtuous virtue 0.0303030
virtuous NULL 0.0000414
virtuous of 0.0002128
virtuous virtuous 0.5000000
virtuous evidence 0.1111111
virtuous grace 0.0053763
virtuous full 0.0075758
knit knit 0.0909091
advance harbingers 0.5000000
advance dispose 0.0909091
advance on 0.0018744
advance march 0.0256410
advance day 0.0040984
advance tender 0.0250000
advance set 0.0153846
advance pleasest 0.3333333
advance prefer 0.0909091
advance how 0.0011710
advance god 0.0030488
advance go 0.0012407
advance orléans 0.2500000
advance thou 0.0005238
advance away 0.0028986
advance approach 0.0303030
new-crowned monarch 0.1111111
new-crowned new-crowned 1.0000000
temple naught 0.0333333
temple temple 0.7500000
temple habitation 1.0000000
daybreak the 0.0001218
daybreak of 0.0002128
daybreak day 0.0122951
daybreak break 0.0117647
foxes foxes 1.0000000
bloodshed there 0.0011547
bloodshed he 0.0004143
bloodshed bloody 0.0126582
bloodshed rake 1.0000000
bloodshed constraint 1.0000000
calpurnia 's 0.0014493
calpurnia calpurnia 1.0000000
calpurnia by 0.0008795
cliff hill 0.0476190
cliff cliff 0.6666667
cliff extreme 0.2000000
cliff NULL 0.0000414
cliff crown 0.0158730
cliff a-height 0.1111111
cliff same 0.0111111
cliff bourn 0.1666667
cliff ' 0.0034965
cliff th 0.0036496
cliff o 0.0009681
contradict contradict 0.2000000
contradict cross 0.0434783
contradict in 0.0002998
contradict nothing 0.0036630
harsh so 0.0005131
harsh breath 0.0166667
harsh harsh 0.2500000
harsh rough 0.1111111
harsh shrewd 0.1333333
harsh speeches 0.0714286
harsh hard 0.0144928
player question 0.0133333
player went 0.0200000
player player 0.1000000
player merèd 0.2000000
engulfing poring 0.5000000
trapped ensnared 0.2500000
trapped when 0.0015060
trapped caught 0.0833333
trapped NULL 0.0000414
trapped has 0.0076336
trapped thus 0.0029070
trapped one 0.0017094
trapped fast 0.0212766
trapped her 0.0008432
action forgo 0.3333333
action course 0.0196078
action cowards 0.1111111
action NULL 0.0000828
action fit 0.0151515
action purpose 0.0153846
action redress 0.1250000
action appear 0.0188679
action batter 0.2500000
action word 0.0052083
action wrong 0.0071942
action their 0.0017921
action at 0.0012453
action business 0.0085470
action action 0.0967742
action peace 0.0060976
ruining in 0.0002998
ruining all 0.0008354
ruining grating 0.3333333
hallucination shadow 0.0400000
destitute 'd 0.0019881
destitute beggar 0.0344828
shine once 0.0070423
shine show 0.0065789
shine shine 0.2692308
shine me 0.0003368
shine glimmering 0.1250000
shine foggy 0.2500000
brightly brightly 0.5000000
blustery lusty 0.0909091
shepherdess shepherdess 0.3333333
recoil recoil 0.4000000
charles so 0.0005131
charles he 0.0004143
charles clear 0.0555556
charles wrestler 0.2000000
charles served 0.0285714
charles charles 0.7500000
charles shall 0.0007057
charles this 0.0004354
opponent opposite 0.1250000
opponent to 0.0001697
opponent cope 0.1428571
opponent withal 0.0129870
opponent fatal 0.0769231
opponent come 0.0008857
opponent adversary 0.3333333
opponent that 0.0002709
ireland ireland 0.5000000
lacks is 0.0002413
lacks wants 0.0454545
lacks doth 0.0036496
lacks tive 1.0000000
lacks lack 0.0172414
lacks lacks 0.0666667
lacks in 0.0002998
lacks defec- 1.0000000
slave NULL 0.0000414
slave minion 0.3333333
slave engaged 0.0833333
slave fellow 0.0085470
slave bondman 0.5000000
slave bondslave 1.0000000
slave thou 0.0005238
slave slave 0.5555556
slave become 0.0188679
slave seek 0.0069444
slave wheel 0.1428571
stubbornest stubbornest 1.0000000
menas menas 0.8750000
bare barren 0.0476190
bare these 0.0023256
bare NULL 0.0000414
bare bare 0.2142857
bare anatomize 0.3333333
sacrificed upon 0.0015674
sacrificed such 0.0020619
sacrificed offering 0.2500000
sacrificed sacrifices 0.3333333
lawfully NULL 0.0000828
lawfully claim 0.0454545
lord shine 0.0384615
lord you 0.0001751
lord catesby 0.0526316
lord jupiter 0.1000000
lord appears 0.0277778
lord charles 0.1250000
lord gracious 0.0161290
lord rougemont 0.3333333
lord acquaint 0.1250000
lord swear 0.0091743
lord him 0.0005760
lord alas 0.0083333
lord honored 0.0909091
lord signior 0.0138889
lord lord 0.8059965
lord warned 0.5000000
lord tell 0.0022936
lord burgundy 0.0476190
lord noon 0.1111111
lord i. 0.0085470
lord troth 0.0238095
lord foulness 0.2000000
lord none 0.0037037
lord NULL 0.0002898
lord havior 0.1666667
lord same 0.0111111
lord is 0.0002413
lord heavens 0.0144928
lord good 0.0138889
lord straight 0.0136986
lord boys 0.1250000
lord unrespective 0.5000000
lord i 0.0002338
lord lordship 0.1428571
lord master 0.0126050
lord pudding 0.3333333
lord fancy 0.0357143
lord sooth 0.0416667
lord thane 0.0370370
lord liege 0.3250000
lord salerio 0.1666667
congregate congregate 0.2000000
congregate merchants 0.2000000
congregate do 0.0005568
wanting disposed 0.0625000
wanting whose 0.0080000
wanting foolish 0.0243902
surprised wonder 0.0123457
surprised marvel 0.1428571
surprised wildness 0.3333333
surprised why 0.0014771
outstay time 0.0028329
outstay outstay 0.3333333
possessions movables 1.0000000
possessions spoiled 0.1666667
possessions goods 0.1666667
possessions my 0.0002263
possessions whereof 0.0500000
possessions moveables 0.3333333
challenger on 0.0009372
challenger the 0.0001218
challenger mount 0.0909091
challenger challenger 0.3750000
elderly reverend 0.0833333
lieutenantry lieutenantry 1.0000000
widespread thought 0.0070423
advocate shall 0.0007057
advocate solicitor 0.5000000
overactive compact 0.0588235
act subjects 0.0714286
act a 0.0002316
act both 0.0048077
act affections 0.0476190
act kitchens 1.0000000
