sovereignty kingship 0.2500000
yet kingship 0.2500000
t kingship 0.2500000
’ kingship 0.2500000
greeting greeting 1.0000000
NULL proven 0.0769231
a proven 0.0769231
proved proven 0.2307692
herself proven 0.0769231
prove proven 0.0769231
approved proven 0.2307692
been proven 0.0769231
coward proven 0.0769231
needless proven 0.0769231
relate unsure 0.2500000
falsing unsure 0.2500000
unsure unsure 0.2500000
thing unsure 0.2500000
issue issue 0.5000000
theme issue 0.5000000
kates kates 1.0000000
enriches richer 0.5000000
him richer 0.5000000
harp harp 0.4285714
disdainful harp 0.1428571
instrument harp 0.4285714
exalt distinguished 1.0000000
the pike 0.1428571
pike pike 0.1428571
thou pike 0.1428571
puissant pike 0.1428571
trail pike 0.1428571
st pike 0.1428571
’ pike 0.1428571
mansionry dwelling 0.1666667
dwelling dwelling 0.1666667
private dwelling 0.1666667
cell dwelling 0.5000000
next nearest 0.2500000
nearest nearest 0.5000000
near nearest 0.2500000
done taken 0.0149254
led taken 0.0149254
NULL taken 0.0895522
humanely taken 0.0149254
took taken 0.0149254
'd taken 0.0597015
deflower taken 0.0149254
'en taken 0.1343284
have taken 0.0298507
taken taken 0.1791045
raught taken 0.0149254
from taken 0.0149254
countermand taken 0.0149254
suspicion taken 0.0149254
quite taken 0.0149254
ta taken 0.1343284
marvelously taken 0.0149254
holiday taken 0.0149254
bestow taken 0.0149254
so taken 0.0149254
registered taken 0.0149254
relieved taken 0.0149254
captivity taken 0.0149254
provided taken 0.0149254
omitted taken 0.0149254
lord taken 0.0149254
offense taken 0.0149254
batter taken 0.0149254
screen taken 0.0149254
be taken 0.0149254
finished taken 0.0149254
london london 1.0000000
loading load 0.1250000
able load 0.1250000
burden load 0.1250000
groaned load 0.1250000
load load 0.5000000
nothing misremembered 1.0000000
doth resents 0.3333333
bear resents 0.3333333
hard resents 0.3333333
agitation agitation 1.0000000
island dukedom 0.0714286
bare dukedom 0.0714286
got dukedom 0.0714286
bands dukedom 0.0714286
pardoned dukedom 0.0714286
dukedom dukedom 0.6428571
delight joyfully 0.3333333
joyfully joyfully 0.3333333
with joyfully 0.3333333
disposition venice 0.0212766
calling venice 0.0212766
senate venice 0.0212766
all venice 0.0212766
venice venice 0.9148936
petticoats petticoats 0.4000000
very petticoats 0.2000000
them petticoats 0.2000000
catch petticoats 0.2000000
'd counted 0.2500000
prick counted 0.2500000
numbered counted 0.2500000
reckoned counted 0.2500000
grizzled gray 0.2500000
NULL gray 0.2500000
no gray 0.2500000
grey gray 0.2500000
masters experts 0.2000000
elder experts 0.2000000
some experts 0.2000000
by experts 0.2000000
reconcilement experts 0.2000000
dizzy inventor 0.5000000
inventorially inventor 0.5000000
conclusions conclusions 1.0000000
money supporters 0.5000000
gets supporters 0.5000000
made declared 0.3333333
lepidus declared 0.1666667
have declared 0.1666667
proclaimed declared 0.1666667
known declared 0.1666667
our fast-moving 0.5000000
tott fast-moving 0.5000000
slander leis 1.0000000
blasting corn 1.0000000
could descend 0.5000000
descend descend 0.5000000
undone bankrupted 1.0000000
one clinging 0.1666667
cling clinging 0.1666667
samphire clinging 0.1666667
that clinging 0.3333333
gathers clinging 0.1666667
setting settling 1.0000000
mi mi 1.0000000
unite unite 0.3333333
atone unite 0.3333333
together unite 0.3333333
or gloves 0.1666667
gloves gloves 0.6666667
perfume gloves 0.1666667
here exercise 0.0769231
of exercise 0.0769231
me exercise 0.0769231
exercise exercise 0.1538462
s exercise 0.0769231
devout exercise 0.0769231
’ exercise 0.0769231
indeed exercise 0.0769231
day exercise 0.0769231
sport exercise 0.0769231
breathing exercise 0.0769231
with exercise 0.0769231
deform can 0.0009242
hood can 0.0009242
unlocked can 0.0009242
remembrance can 0.0027726
print can 0.0009242
see can 0.0101664
curing can 0.0009242
abode can 0.0018484
veiling can 0.0009242
makes can 0.0009242
overcome can 0.0009242
soothsayer can 0.0009242
serve can 0.0009242
ll can 0.0036969
what can 0.0046211
deny can 0.0009242
paunch can 0.0009242
willing can 0.0009242
talkest can 0.0009242
vales can 0.0009242
pull can 0.0009242
title can 0.0009242
tailor can 0.0009242
abilities can 0.0018484
expressing can 0.0009242
dinner can 0.0018484
dealt can 0.0009242
laps can 0.0009242
matters can 0.0009242
all can 0.0009242
is can 0.0138632
’ can 0.0110906
weather can 0.0009242
will can 0.0184843
have can 0.0083179
suspects can 0.0009242
lie can 0.0009242
afflict can 0.0009242
forfeit can 0.0009242
revels can 0.0009242
art can 0.0018484
athwart can 0.0009242
churl can 0.0009242
secret can 0.0009242
common can 0.0009242
's can 0.0009242
height can 0.0009242
can can 0.2486137
ocular can 0.0009242
coraggio can 0.0009242
simplicity can 0.0009242
flight can 0.0009242
obtained can 0.0009242
comforted can 0.0009242
thought can 0.0018484
lead can 0.0018484
remedy can 0.0027726
would can 0.0064695
understand can 0.0018484
succeeds can 0.0009242
can- can 0.0009242
compass can 0.0009242
might can 0.0036969
in can 0.0009242
malice can 0.0009242
eros can 0.0009242
quite can 0.0009242
perceive can 0.0009242
knows can 0.0009242
uttermost can 0.0027726
may can 0.1053604
addition can 0.0009242
s can 0.0036969
payest can 0.0009242
bail can 0.0009242
feel can 0.0009242
sees can 0.0009242
thrice-blessed can 0.0009242
virtue can 0.0009242
otherwise can 0.0009242
: can 0.0009242
surgery can 0.0009242
assurance can 0.0009242
am can 0.0018484
get can 0.0009242
limned can 0.0009242
hates can 0.0009242
make can 0.0027726
uncouth can 0.0009242
legs can 0.0009242
answer can 0.0009242
sooth can 0.0009242
joys can 0.0009242
well can 0.0009242
amend can 0.0009242
as can 0.0009242
desolate can 0.0009242
news can 0.0009242
why can 0.0018484
'erhear can 0.0009242
whisper can 0.0009242
qualify can 0.0009242
know can 0.0083179
cannot can 0.1053604
dare can 0.0027726
that can 0.0018484
not can 0.0036969
take can 0.0009242
dares can 0.0009242
shall can 0.0360444
rememb can 0.0009242
imperfections can 0.0009242
further can 0.0009242
furnish can 0.0009242
out can 0.0009242
pleasest can 0.0009242
crafts can 0.0009242
high-sighted can 0.0009242
covertly can 0.0009242
warranty can 0.0009242
must can 0.0129390
quarter can 0.0009242
do can 0.0092421
eunuch can 0.0009242
find can 0.0009242
we can 0.0009242
pity can 0.0009242
afeard can 0.0009242
to can 0.0268022
whip can 0.0009242
kneeled can 0.0009242
enlarge can 0.0009242
deceive can 0.0009242
able can 0.0009242
unmannerly can 0.0018484
any can 0.0009242
royal can 0.0009242
sanctimony can 0.0009242
shalt can 0.0036969
stopped can 0.0009242
seest can 0.0018484
now can 0.0018484
then can 0.0009242
hearer can 0.0009242
arrows can 0.0009242
canst can 0.0314233
more can 0.0009242
enamelèd can 0.0009242
speak can 0.0027726
applaud can 0.0009242
light-foot can 0.0009242
advantage can 0.0009242
jest can 0.0009242
hear can 0.0027726
amends can 0.0018484
state can 0.0009242
attempt can 0.0018484
let can 0.0110906
directed can 0.0009242
could can 0.0027726
wonder can 0.0009242
read can 0.0009242
alter can 0.0009242
excepted can 0.0009242
failing can 0.0009242
for can 0.0036969
fittest can 0.0009242
prevention can 0.0009242
authorities can 0.0009242
other can 0.0009242
be can 0.0073937
honestly can 0.0009242
away can 0.0018484
borne can 0.0018484
remembering can 0.0009242
NULL can 0.0951941
needs can 0.0018484
merchant-marring can 0.0009242
place can 0.0009242
mayst can 0.0018484
are can 0.0027726
disorder can 0.0009242
look can 0.0009242
use can 0.0027726
cure can 0.0009242
long can 0.0018484
should can 0.0027726
at can 0.0018484
bethink can 0.0009242
log can 0.0009242
scarcely can 0.0018484
bald can 0.0009242
guess can 0.0018484
hearing can 0.0018484
hath can 0.0009242
convenient can 0.0018484
hatch can 0.0009242
reply can 0.0009242
question can 0.0009242
smell can 0.0018484
troublous can 0.0009242
country nymphs 0.1428571
nymphs nymphs 0.5714286
footing nymphs 0.1428571
naiads nymphs 0.1428571
men survivors 0.5000000
bring survivors 0.5000000
way wait 0.0073529
waited wait 0.0073529
a wait 0.0147059
you wait 0.0294118
yet wait 0.0073529
laertes wait 0.0073529
— wait 0.0073529
, wait 0.0294118
soft wait 0.0955882
take wait 0.0073529
ho wait 0.0073529
leisures wait 0.0073529
pause wait 0.0147059
mark wait 0.0073529
bear wait 0.0073529
our wait 0.0073529
kiss wait 0.0073529
patient wait 0.0147059
does wait 0.0073529
peace wait 0.0073529
give wait 0.0073529
expect wait 0.0073529
stand wait 0.0147059
hours wait 0.0073529
awhile wait 0.0147059
thee wait 0.0147059
tarrying wait 0.0073529
hold wait 0.0220588
softly wait 0.0073529
walk wait 0.0073529
abide wait 0.0073529
hardly wait 0.0073529
but wait 0.0220588
with wait 0.0073529
reckoning wait 0.0073529
ophelia wait 0.0073529
NULL wait 0.0073529
tarry wait 0.0735294
frame wait 0.0073529
temporize wait 0.0073529
bide wait 0.0073529
good wait 0.0147059
patience wait 0.0073529
watch wait 0.0220588
will wait 0.0147059
long wait 0.0147059
exceed wait 0.0073529
attend wait 0.0514706
i wait 0.0073529
make wait 0.0147059
stay wait 0.1617647
there wait 0.0147059
now wait 0.0147059
wait wait 0.0735294
hot wait 0.0073529
over-credulous haste 0.2500000
speed haste 0.2500000
haste haste 0.2500000
rashness haste 0.2500000
swelling puffing 1.0000000
favor favor 0.1666667
requite favor 0.0277778
degree favor 0.0277778
NULL favor 0.1111111
hands favor 0.0277778
good favor 0.0555556
turn favor 0.0555556
at favor 0.0277778
christian favor 0.0277778
towards favor 0.0277778
courteous favor 0.0277778
loves favor 0.0277778
request favor 0.0555556
entreat favor 0.0277778
me favor 0.0555556
grace favor 0.0277778
favors favor 0.0277778
best favor 0.0277778
tidings favor 0.0277778
suit favor 0.1111111
boon favor 0.0277778
mockers mockers 1.0000000
grace lovable 1.0000000
myrmidons warriors 0.3333333
warriors warriors 0.3333333
nervii warriors 0.3333333
pursy wealthy 0.1250000
hebrew wealthy 0.1250000
wealthy wealthy 0.6250000
sufficient wealthy 0.1250000
rocks merchant 0.1000000
merchant merchant 0.8000000
bentivolii merchant 0.1000000
cankers diseased 1.0000000
mallows thorn-bushes 0.2500000
docks thorn-bushes 0.2500000
or thorn-bushes 0.2500000
, thorn-bushes 0.2500000
become satisfying 1.0000000
alone address 0.5000000
dress address 0.5000000
once desdemona 0.0163934
lady desdemona 0.0327869
procure desdemona 0.0163934
NULL desdemona 0.0327869
: desdemona 0.0327869
of desdemona 0.0163934
wooed desdemona 0.0163934
riches desdemona 0.0163934
well desdemona 0.0163934
cyprus desdemona 0.0163934
virtuous desdemona 0.0327869
desdemon desdemona 0.0163934
desdemona desdemona 0.7377049
a fortune-teller 0.5000000
fortune-teller fortune-teller 0.5000000
lieutenant warden 0.5000000
keeper warden 0.5000000
sweet restful 0.2500000
drowsy restful 0.2500000
of restful 0.2500000
syrups restful 0.2500000
thrice- considers 0.1666667
in considers 0.1666667
call considers 0.1666667
all considers 0.3333333
full considers 0.1666667
given siege 0.2500000
siege siege 0.5000000
see siege 0.2500000
admonishing reminder 1.0000000
on complicate 0.3333333
out complicate 0.3333333
cry complicate 0.3333333
learnedly mild 0.0555556
most mild 0.0555556
a mild 0.1111111
NULL mild 0.0555556
he mild 0.0555556
my mild 0.0555556
mild mild 0.1666667
words mild 0.0555556
as mild 0.0555556
subtle mild 0.2222222
in mild 0.0555556
tender mild 0.0555556
knows learns 0.3333333
image learns 0.3333333
loves learns 0.3333333
smells smells 0.6000000
nimbly smells 0.2000000
freckles smells 0.2000000
improbable unrealistic 0.2500000
as unrealistic 0.2500000
fiction unrealistic 0.2500000
an unrealistic 0.2500000
most undeniable 0.5000000
certain undeniable 0.5000000
justly fair 0.0149254
fair fair 0.8208955
most fair 0.0149254
it fair 0.0149254
NULL fair 0.0298507
meet fair 0.0447761
pleases fair 0.0149254
indian fair 0.0149254
unjustly fair 0.0149254
just fair 0.0149254
oath oath 0.9333333
sworn oath 0.0333333
forsworn oath 0.0333333
at glazing 0.2500000
eight glazing 0.2500000
set glazing 0.2500000
were glazing 0.2500000
the tragic 0.1428571
doth tragic 0.1428571
alas tragic 0.1428571
tragic tragic 0.1428571
tragedians tragic 0.1428571
day tragic 0.1428571
therein tragic 0.1428571
project project 1.0000000
burgundy ruler 0.2000000
rule ruler 0.4000000
governs ruler 0.2000000
president ruler 0.2000000
bereft deprived 0.2000000
deprived deprived 0.4000000
sense deprived 0.4000000
'd solemnized 0.5000000
solemniz solemnized 0.5000000
friendship advise 0.0714286
bid advise 0.0714286
entreat advise 0.0714286
should advise 0.0714286
counsel advise 0.5000000
advise advise 0.1428571
desire advise 0.0714286
blood cool 0.0909091
NULL cool 0.0909091
safer cool 0.0909091
begins cool 0.0909091
cool cool 0.4545455
guides cool 0.0909091
by cool 0.0909091
exhibition hats 0.1428571
coronets hats 0.1428571
put hats 0.1428571
hats hats 0.5714286
public streetwalker 0.5000000
commoner streetwalker 0.5000000
shares share 0.0500000
show share 0.0500000
he share 0.0500000
place share 0.0500000
part share 0.1000000
my share 0.1000000
commend share 0.0500000
note share 0.0500000
world-sharers share 0.0500000
whole share 0.0500000
dear share 0.0500000
share share 0.2500000
but share 0.0500000
commune share 0.0500000
pioneers grunts 1.0000000
hour death-hour 0.5000000
death death-hour 0.5000000
good valiantly 0.2500000
welshmen valiantly 0.2500000
valiantly valiantly 0.2500000
service valiantly 0.2500000
humility option 0.2500000
fittest option 0.2500000
end option 0.2500000
choose option 0.2500000
yourself hopeful 0.5000000
dressed hopeful 0.5000000
dishonored death 0.0052083
debt death 0.0052083
a death 0.0052083
dying death 0.0052083
death-counterfeiting death 0.0052083
instant death 0.0052083
heavy death 0.0052083
crimeful death 0.0052083
reversed death 0.0052083
famished death 0.0052083
grind death 0.0052083
head death 0.0052083
lease death 0.0052083
proscription death 0.0104167
doom death 0.0052083
utterance death 0.0052083
starve death 0.0052083
one death 0.0052083
price death 0.0052083
fate death 0.0052083
NULL death 0.0572917
fear death 0.0052083
condemnation death 0.0052083
die death 0.0104167
knell death 0.0156250
moiety death 0.0052083
dearly death 0.0052083
death death 0.7239583
dangers death 0.0052083
graves death 0.0052083
it death 0.0104167
briefest death 0.0052083
deadly death 0.0052083
single death 0.0052083
counterfeit death 0.0052083
blood death 0.0052083
talk death 0.0052083
journey death 0.0052083
slain death 0.0052083
tyrannous tyrannous 1.0000000
legacies legacies 1.0000000
courtiers courtiers 0.1111111
little courtiers 0.1111111
your courtiers 0.1111111
” courtiers 0.1111111
courtier courtiers 0.1111111
some courtiers 0.1111111
train courtiers 0.1111111
with courtiers 0.1111111
“ courtiers 0.1111111
meaner meaner 1.0000000
parrots parrots 1.0000000
trial proof 0.0312500
satisfy proof 0.0312500
my proof 0.0312500
’ proof 0.0312500
to proof 0.0312500
say proof 0.0312500
this proof 0.0312500
relative proof 0.0312500
show proof 0.0312500
warrant proof 0.0312500
answer proof 0.0312500
satisfied proof 0.0312500
can proof 0.0312500
ocular proof 0.0312500
proof proof 0.3437500
lord proof 0.0312500
prove proof 0.0312500
satisfaction proof 0.0625000
speedy proof 0.0312500
be proof 0.0312500
some proof 0.0312500
indirect indirect 0.5000000
needs indirect 0.2500000
no indirect 0.2500000
feeds kindled 0.3333333
their kindled 0.3333333
fury kindled 0.3333333
disdainful inadequacy 0.2500000
me inadequacy 0.2500000
such inadequacy 0.2500000
manner inadequacy 0.2500000
lies lies 0.6603774
forgeries lies 0.0188679
NULL lies 0.0188679
false lies 0.0188679
still lies 0.0188679
invention lies 0.0188679
traitors lies 0.0188679
blushes lies 0.0188679
savagery lies 0.0188679
wrong lies 0.0188679
reports lies 0.0188679
jealousy lies 0.0188679
lie lies 0.0566038
slanders lies 0.0188679
shapes lies 0.0188679
gives lies 0.0188679
falsehood lies 0.0188679
NULL flatter 0.1250000
dismayed flatter 0.1250000
flattered flatter 0.2500000
flatter flatter 0.3750000
praise flatter 0.1250000
that enchanting 0.5000000
enchanting enchanting 0.5000000
appertain appropriate 0.0526316
forth appropriate 0.0526316
a appropriate 0.1052632
otherwise appropriate 0.0526316
NULL appropriate 0.0526316
jest appropriate 0.0526316
that appropriate 0.0526316
fitter appropriate 0.0526316
good appropriate 0.0526316
him appropriate 0.0526316
better appropriate 0.0526316
proper appropriate 0.0526316
sorting appropriate 0.0526316
fittest appropriate 0.0526316
fitting appropriate 0.0526316
belongs appropriate 0.0526316
become appropriate 0.0526316
season appropriate 0.0526316
unlawful unlawful 1.0000000
rate rate 0.8000000
we rate 0.2000000
made gone 0.0094340
NULL gone 0.0377358
yet gone 0.0094340
fortnight gone 0.0094340
found gone 0.0094340
is gone 0.0094340
avaunt gone 0.0094340
absent gone 0.0283019
gone gone 0.6886792
gap gone 0.0094340
from gone 0.0094340
long gone 0.0094340
great gone 0.0094340
hence gone 0.0094340
out gone 0.0188679
mute gone 0.0094340
harsh gone 0.0094340
me gone 0.0094340
perfume gone 0.0094340
torch gone 0.0094340
lunacy gone 0.0094340
flight gone 0.0094340
thereon gone 0.0094340
spirits gone 0.0094340
removed gone 0.0094340
distract gone 0.0094340
grows gone 0.0188679
lamentation lament 1.0000000
make gluttons 0.2500000
lust gluttons 0.2500000
epicurism gluttons 0.2500000
more gluttons 0.2500000
gone invited 0.0909091
bid invited 0.0909091
forth invited 0.0909091
invited invited 0.4545455
he invited 0.0909091
do invited 0.0909091
somewhere invited 0.0909091
due owned 0.3333333
fee-grief owned 0.3333333
owed owned 0.3333333
met ran 0.0344828
NULL ran 0.0344828
daughter ran 0.0344828
did ran 0.1034483
coursed ran 0.0344828
purpose ran 0.0344828
my ran 0.0689655
is ran 0.0344828
fled ran 0.2068966
flew ran 0.0344828
run ran 0.1724138
ran ran 0.1379310
started ran 0.0344828
o ran 0.0344828
no disciplined 0.5000000
discipline disciplined 0.5000000
bunches grapes 0.3333333
grapes grapes 0.3333333
vine grapes 0.3333333
cinna cinna 0.9375000
NULL cinna 0.0625000
york yorks 1.0000000
made miserable 0.0769231
wretched miserable 0.1538462
tempest-tossed miserable 0.0769231
miserable miserable 0.3846154
marked miserable 0.0769231
frustrate miserable 0.0769231
proud miserable 0.0769231
unhappy miserable 0.0769231
damned dammed 1.0000000
wears crown 0.0175439
NULL crown 0.0877193
crowns crown 0.0175439
crown crown 0.7543860
wring crown 0.0175439
perforce crown 0.0175439
top crown 0.0175439
sovereignty crown 0.0175439
inclusive crown 0.0175439
fortinbras crown 0.0175439
diadem crown 0.0175439
open-eyed open-eyed 1.0000000
cobweb cobweb 1.0000000
ionian ionian 1.0000000
whilst guest 0.0833333
NULL guest 0.1666667
guest guest 0.6666667
s guest 0.0833333
doth conditions 0.1428571
swear conditions 0.1428571
one conditions 0.1428571
injunctions conditions 0.1428571
as conditions 0.1428571
every conditions 0.1428571
conditions conditions 0.1428571
protection protection 0.1000000
friendship protection 0.1000000
universal protection 0.1000000
warrant protection 0.2000000
landlord protection 0.1000000
shade protection 0.1000000
sweet protection 0.1000000
shroud protection 0.1000000
' protection 0.1000000
forfeit penalty 0.1666667
forfeiture penalty 0.2777778
penalty penalty 0.2222222
judgement penalty 0.0555556
heavy penalty 0.0555556
sooner penalty 0.0555556
bond penalty 0.1111111
peril penalty 0.0555556
recovery recover 0.0833333
soon recover 0.0833333
yet recover 0.1666667
recover recover 0.5000000
his recover 0.0833333
quick recover 0.0833333
shame ashamed 0.2812500
sorry ashamed 0.0312500
would ashamed 0.0312500
for ashamed 0.0312500
ashamed ashamed 0.2812500
dishonest ashamed 0.0312500
asham ashamed 0.0312500
'd ashamed 0.0312500
ashamèd ashamed 0.0312500
shamest ashamed 0.0312500
shamed ashamed 0.0312500
blush ashamed 0.0937500
touch ashamed 0.0312500
myself ashamed 0.0312500
greater thunderclap 0.5000000
crack thunderclap 0.5000000
wi sink 0.0714286
power sink 0.0714286
' sink 0.1428571
bark sink 0.0714286
burial sink 0.0714286
th sink 0.0714286
sink sink 0.5000000
arbitrate outcome 0.2500000
NULL outcome 0.2500000
strokes outcome 0.2500000
issue outcome 0.2500000
hecate hecate 1.0000000
here disarm 0.1666667
disarm disarm 0.1666667
beauty disarm 0.1666667
again disarm 0.1666667
unprovide disarm 0.1666667
mind disarm 0.1666667
struck striking 0.2500000
strik striking 0.2500000
now striking 0.2500000
striking striking 0.2500000
his reproach 1.0000000
sweating sweating 0.2000000
fall sweating 0.2000000
let sweating 0.2000000
thy sweating 0.2000000
lance sweating 0.2000000
education education 1.0000000
valentine valentine 0.6666667
saint valentine 0.3333333
entertain employ 1.0000000
parting separating 1.0000000
good peter 0.0666667
peter peter 0.9333333
has barnardo 0.2500000
barnardo barnardo 0.7500000
counsel double-dealing 0.3333333
double-dealing double-dealing 0.3333333
sinner double-dealing 0.3333333
remembrances mementos 1.0000000
powder powder 1.0000000
'd hacked 0.2000000
sides hacked 0.2000000
hack hacked 0.2000000
til hacked 0.2000000
’ hacked 0.2000000
you harfleur 0.1111111
harfleur harfleur 0.7777778
and harfleur 0.1111111
temperance temperance 0.5000000
should temperance 0.2500000
temper temperance 0.2500000
throstle thrush 1.0000000
proclamation proclamation 1.0000000
thornbush thornbush 1.0000000
safest safest 1.0000000
know hear 0.0035211
partake hear 0.0035211
content hear 0.0035211
urine hear 0.0035211
hear hear 0.7218310
not hear 0.0035211
damnèd hear 0.0035211
mark hear 0.0070423
bear hear 0.0035211
blazon hear 0.0035211
music hear 0.0070423
perceive hear 0.0035211
this hear 0.0035211
told hear 0.0035211
glad hear 0.0035211
sorry hear 0.0035211
laughable hear 0.0035211
tend hear 0.0035211
fellow hear 0.0035211
heard hear 0.0211268
shrive hear 0.0070423
ought hear 0.0035211
but hear 0.0035211
learn hear 0.0035211
embassy hear 0.0035211
hither hear 0.0035211
NULL hear 0.0739437
do hear 0.0035211
edgar hear 0.0035211
terribly hear 0.0035211
aloud hear 0.0035211
deafness hear 0.0035211
woman hear 0.0035211
mourner hear 0.0035211
thrusting hear 0.0035211
distinguish hear 0.0035211
fame hear 0.0035211
hearing hear 0.0176056
shalt hear 0.0035211
suffer hear 0.0035211
dost hear 0.0070423
wake hear 0.0035211
apprehension hear 0.0035211
coming hear 0.0035211
ear hear 0.0070423
news hear 0.0035211
, signiory 0.5000000
signiory signiory 0.5000000
knots knots 1.0000000
hedges once-trimmed 1.0000000
joseph joseph 1.0000000
erring misguided 1.0000000
brier hops 1.0000000
hairs hairs 0.6666667
been hairs 0.1111111
which hairs 0.1111111
feu hairs 0.1111111
lead show 0.0220588
know show 0.0073529
laertes show 0.0073529
signify show 0.0073529
drollery show 0.0073529
see show 0.0073529
sacrifice show 0.0073529
seen show 0.0073529
let show 0.0220588
nativity show 0.0073529
render show 0.0073529
show show 0.4926471
boast show 0.0073529
prouder show 0.0073529
appear show 0.0147059
be show 0.0147059
tell show 0.0073529
their show 0.0367647
unkennel show 0.0073529
NULL show 0.0808824
do show 0.0147059
merciful show 0.0073529
ceres show 0.0073529
hung show 0.0073529
basis show 0.0073529
will show 0.0147059
counterfeited show 0.0073529
bring show 0.0147059
much show 0.0073529
teach show 0.0073529
crests show 0.0073529
tardy show 0.0073529
bowstrings show 0.0073529
ostentation show 0.0073529
winged show 0.0073529
make show 0.0147059
it show 0.0073529
go show 0.0073529
counterfeit show 0.0073529
then show 0.0220588
sport show 0.0147059
dallying show 0.0073529
shows show 0.0073529
depended depended 0.2500000
own depended 0.2500000
contain depended 0.2500000
life depended 0.2500000
fearfulness obedience 0.1250000
homage obedience 0.1250000
duty obedience 0.1250000
obedience obedience 0.6250000
doth casts 0.2500000
substance casts 0.2500000
noble casts 0.2500000
all casts 0.2500000
sober sobering 1.0000000
here lack 0.0588235
upon lack 0.0588235
pain lack 0.0588235
want lack 0.1176471
forehead lack 0.0588235
leisure lack 0.0588235
my lack 0.0588235
children lack 0.0588235
lack lack 0.2352941
such lack 0.0588235
mistrust lack 0.1176471
overtake lack 0.0588235
bids bids 0.5000000
ruined bids 0.2500000
this bids 0.2500000
you bridegroom 0.1250000
a bridegroom 0.1250000
say bridegroom 0.1250000
bridegroom bridegroom 0.3750000
, bridegroom 0.1250000
wants bridegroom 0.1250000
offender offender 1.0000000
suitor petitioner 1.0000000
nave wheel 0.1666667
NULL wheel 0.1666667
fixed wheel 0.1666667
wheel wheel 0.5000000
wash wash 0.7500000
bathe wash 0.0625000
NULL wash 0.0625000
weather wash 0.0625000
clears wash 0.0625000
unworthy even 0.0024213
dignity even 0.0024213
signor even 0.0024213
if even 0.0145278
beats even 0.0024213
better even 0.0024213
herod even 0.0024213
mountains even 0.0024213
life even 0.0024213
e even 0.0048426
what even 0.0024213
decays even 0.0024213
exquisite even 0.0024213
but even 0.0242131
though even 0.1307506
howsoever even 0.0024213
catching even 0.0024213
goodness even 0.0024213
bore even 0.0024213
void even 0.0024213
still even 0.0024213
brutus even 0.0024213
nor even 0.0024213
sweeter even 0.0048426
have even 0.0024213
think even 0.0048426
imbar even 0.0024213
estimable even 0.0024213
throw even 0.0072639
albeit even 0.0024213
erebus even 0.0024213
bandy even 0.0024213
career even 0.0024213
quake even 0.0024213
pursues even 0.0024213
can even 0.0048426
thou even 0.0024213
fouler even 0.0024213
sport even 0.0048426
were even 0.0121065
lead even 0.0024213
a even 0.0072639
heavier even 0.0024213
sermons even 0.0024213
lived even 0.0024213
merrier even 0.0024213
sebastian even 0.0024213
in even 0.0048426
latter even 0.0024213
very even 0.0024213
denying even 0.0024213
addition even 0.0024213
dreamt even 0.0024213
robs even 0.0024213
convict even 0.0024213
cloy even 0.0024213
calling even 0.0024213
angry even 0.0024213
assurance even 0.0024213
sparing even 0.0024213
honorable even 0.0024213
self-endeared even 0.0024213
amaze even 0.0024213
i even 0.0024213
five even 0.0024213
assault even 0.0024213
blacker even 0.0048426
as even 0.0048426
inevitable even 0.0024213
chastised even 0.0024213
fleeting even 0.0024213
however even 0.0024213
know even 0.0072639
unscorch even 0.0024213
contents even 0.0024213
interpret even 0.0024213
not even 0.0460048
, even 0.0605327
that even 0.0096852
on even 0.0024213
wast even 0.0024213
wondering even 0.0024213
happier even 0.0024213
out even 0.0048426
fierce even 0.0024213
boast even 0.0024213
brain even 0.0024213
sweats even 0.0024213
sooner even 0.0024213
pebbles even 0.0024213
obey even 0.0024213
leave even 0.0024213
actions even 0.0024213
wonderful even 0.0024213
ethiope even 0.0024213
deign even 0.0024213
meet even 0.0024213
whipped even 0.0024213
body even 0.0024213
to even 0.0024213
maritime even 0.0024213
pluck even 0.0024213
full-fraught even 0.0024213
enemies even 0.0024213
suffer even 0.0024213
now even 0.0024213
ruminate even 0.0024213
more even 0.0072639
the even 0.0363196
yet even 0.0266344
innocents even 0.0024213
farthest even 0.0024213
need even 0.0048426
gross even 0.0024213
or even 0.0048426
'en even 0.0048426
went even 0.0024213
denial even 0.0024213
so even 0.0024213
intelligence even 0.0024213
for even 0.0072639
reprove even 0.0024213
vilely even 0.0024213
nay even 0.0072639
such even 0.0024213
'erpast even 0.0024213
evened even 0.0024213
even even 0.1452785
NULL even 0.1234867
jot even 0.0024213
corrupted even 0.0024213
scratch even 0.0024213
brow even 0.0024213
outstrike even 0.0024213
should even 0.0024213
except even 0.0024213
edge even 0.0024213
had even 0.0024213
space even 0.0024213
puddle even 0.0024213
abuser abuser 1.0000000
'd dull-eyed 0.5000000
dull-ey dull-eyed 0.5000000
bellyful rumble 0.2500000
rumble rumble 0.2500000
great rumble 0.2500000
thy rumble 0.2500000
make breath 0.0243902
breathes breath 0.0243902
merriman breath 0.0243902
stirs breath 0.0243902
NULL breath 0.0731707
would breath 0.0243902
breathed breath 0.0243902
than breath 0.0243902
wind breath 0.0243902
distraction breath 0.0243902
breath breath 0.6097561
exhale breath 0.0243902
but breath 0.0243902
gasp breath 0.0243902
noise breath 0.0243902
marle marle 1.0000000
discharged immediately 0.0250000
NULL immediately 0.1250000
straightway immediately 0.0500000
time immediately 0.0250000
audience immediately 0.0250000
sacrifice immediately 0.0250000
expediently immediately 0.0250000
straight immediately 0.0250000
at immediately 0.0500000
immediately immediately 0.2000000
once immediately 0.0750000
yourselves immediately 0.0250000
instantly immediately 0.0750000
presently immediately 0.1250000
present immediately 0.0500000
ready immediately 0.0250000
and immediately 0.0250000
suddenly immediately 0.0250000
leading horsemen 0.3333333
peeps horsemen 0.3333333
horsemen horsemen 0.3333333
trinculos trinculos 1.0000000
our acceptance 0.2000000
pass acceptance 0.2000000
accept acceptance 0.2000000
peremptory acceptance 0.2000000
suddenly acceptance 0.2000000
breathes fresh 0.0344828
furbished fresh 0.0344828
springs fresh 0.0344828
nuts fresh 0.0344828
reek fresh 0.0344828
fresh fresh 0.6206897
provoketh fresh 0.0344828
green fresh 0.0344828
gash fresh 0.0344828
reeking fresh 0.0344828
crisp fresh 0.0344828
best fresh 0.0344828
well condemn 0.1250000
done condemn 0.1250000
NULL condemn 0.1250000
have condemn 0.1250000
damn condemn 0.1250000
condemn condemn 0.1250000
afterwards condemn 0.1250000
found condemn 0.1250000
inclining involve 0.5000000
subdue involve 0.5000000
know figured 0.1428571
hand figured 0.1428571
at figured 0.1428571
but figured 0.1428571
not figured 0.1428571
hit figured 0.1428571
choose figured 0.1428571
gallops gallops 1.0000000
mason mason 1.0000000
attendant attendant 0.5000000
asses attendant 0.5000000
valorous bravest 1.0000000
woo gather 0.1000000
muster gather 0.1000000
up gather 0.1000000
levy gather 0.1000000
assemble gather 0.1000000
straight gather 0.1000000
him gather 0.1000000
collect gather 0.1000000
pluck gather 0.1000000
and gather 0.1000000
morsel crumb 1.0000000
eager nippy 0.2500000
air nippy 0.2500000
and nippy 0.2500000
an nippy 0.2500000
housewife housewife 1.0000000
bade begging 0.0625000
prithee begging 0.1250000
most begging 0.0625000
bootless begging 0.0625000
petitionary begging 0.0625000
prayers begging 0.0625000
vehemence begging 0.0625000
beseech begging 0.1875000
pray begging 0.0625000
giving begging 0.0625000
beggar begging 0.0625000
asked begging 0.0625000
with begging 0.0625000
gallant swinger 1.0000000
handling handling 1.0000000
ye grievances 0.1666667
between grievances 0.1666667
enforce grievances 0.1666667
griefs grievances 0.3333333
stomaching grievances 0.1666667
wear wears 0.2307692
one wears 0.1538462
wears wears 0.3076923
yoked wears 0.0769231
wasp wears 0.0769231
is wears 0.0769231
deformed wears 0.0769231
iterance repeating 0.2000000
after repeating 0.2000000
needs repeating 0.2000000
echo repeating 0.2000000
this repeating 0.2000000
blows explode 0.5000000
this explode 0.5000000
rash thoughtless 1.0000000
juno jupiter 0.2500000
jupiter jupiter 0.7500000
rose rose 1.0000000
high rocks 0.2000000
rocks rocks 0.4000000
flints rocks 0.2000000
merchant-marring rocks 0.2000000
atone reconcile 0.6666667
reconcile reconcile 0.3333333
artless artless 1.0000000
stirring stirring 0.5000000
ardor stirring 0.5000000
peasant unwashed 1.0000000
pronounced roared 0.5000000
roared roared 0.5000000
boxtree hedge 0.5000000
hedge hedge 0.5000000
interpret supply 0.2500000
furnish supply 0.5000000
supply supply 0.2500000
possesses possesses 1.0000000
em em 0.5000000
NULL em 0.2500000
up em 0.2500000
latest final 1.0000000
met adores 0.1111111
lies adores 0.1111111
for adores 0.1111111
well adores 0.1111111
prays adores 0.1111111
one adores 0.1111111
dearly adores 0.1111111
adores adores 0.2222222
nettle-seed sting 0.1428571
sting sting 0.4285714
pinch sting 0.1428571
more sting 0.1428571
stinging sting 0.1428571
leaders leaders 1.0000000
fond affectionate 0.5000000
iniquity affectionate 0.5000000
casement panel 1.0000000
queens queens 1.0000000
wonder surprise 0.1250000
marvel surprise 0.2500000
admiration surprise 0.1250000
up surprise 0.1250000
take surprise 0.1250000
though surprise 0.2500000
excess excess 0.5000000
is excess 0.5000000
marcus marcus 1.0000000
la la 0.6666667
without la 0.3333333
fleece fleece 0.6666667
fells fleece 0.3333333
given already 0.0096154
done already 0.0192308
lust-stained already 0.0096154
cheerly already 0.0096154
burièd already 0.0096154
has already 0.0096154
come already 0.0096154
employed already 0.0096154
cudgel already 0.0096154
southampton already 0.0096154
iron already 0.0096154
known already 0.0096154
offered already 0.0096154
before already 0.0096154
struck already 0.0096154
crow already 0.0096154
love-springs already 0.0096154
embarked already 0.0096154
ready already 0.0096154
too already 0.0096154
NULL already 0.1923077
plainness already 0.0096154
aboard already 0.0096154
confessed already 0.0096154
enkindled already 0.0096154
midnight already 0.0096154
tis already 0.0096154
is already 0.0096154
hadst already 0.0096154
already already 0.4134615
long already 0.0096154
footed already 0.0096154
strucken already 0.0096154
dined already 0.0096154
under already 0.0096154
foreknowledge already 0.0096154
moved already 0.0288462
hath already 0.0096154
slain already 0.0096154
an already 0.0096154
'erpaid thanked 0.1666667
NULL thanked 0.1666667
thanked thanked 0.1666667
thank thanked 0.1666667
any thanked 0.1666667
o thanked 0.1666667
in immortal 0.0588235
me immortal 0.0588235
longings immortal 0.0588235
immortal immortal 0.7058824
itself immortal 0.1176471
hush shhh 0.3333333
no shhh 0.3333333
more shhh 0.3333333
revengeful vengeful 0.5000000
murderers vengeful 0.5000000
vision ghost 0.0312500
pin ghost 0.0312500
shadow ghost 0.0312500
ghost ghost 0.3750000
a ghost 0.0625000
he ghost 0.0312500
terms ghost 0.0312500
spirit ghost 0.2500000
is ghost 0.0312500
apparition ghost 0.0625000
night-shriek ghost 0.0312500
this ghost 0.0312500
intelligence knowledge 0.1428571
philosophy knowledge 0.1428571
deserving knowledge 0.1428571
knowledge knowledge 0.5714286
lena lena 0.6666667
speaks lena 0.3333333
lead danger 0.0454545
it danger 0.0454545
fear danger 0.0909091
NULL danger 0.0909091
danger danger 0.4545455
wants danger 0.0454545
peril danger 0.0909091
courser danger 0.0454545
hazard danger 0.0454545
lighted danger 0.0454545
colmekill colme 0.3333333
colme colme 0.6666667
sweaten dripped 0.5000000
's dripped 0.5000000
helm victory 0.0434783
NULL victory 0.0434783
put victory 0.0434783
victorious victory 0.0434783
on victory 0.1304348
sit victory 0.0434783
victory victory 0.3043478
triumph victory 0.0434783
sits victory 0.0434783
palm victory 0.0434783
have victory 0.0434783
loured victory 0.0434783
conquest victory 0.0434783
thy victory 0.0434783
life victory 0.0434783
ingraft second-in-command 0.2000000
second second-in-command 0.2000000
infirmity second-in-command 0.2000000
own second-in-command 0.2000000
an second-in-command 0.2000000
may cares 0.1000000
of cares 0.1000000
do cares 0.1000000
come cares 0.1000000
that cares 0.1000000
thee cares 0.1000000
maintains cares 0.1000000
' cares 0.1000000
i cares 0.1000000
adore cares 0.1000000
even exchange 0.0769231
NULL exchange 0.2307692
change exchange 0.2307692
me exchange 0.0769231
chrysolite exchange 0.0769231
bequeath exchange 0.0769231
exchange exchange 0.1538462
frown exchange 0.0769231
offense insults 0.1666667
detract insults 0.1666667
dishonor insults 0.1666667
indignation insults 0.1666667
derision insults 0.1666667
injuries insults 0.1666667
saxony saxony 1.0000000
satisfaction square 0.3333333
make square 0.3333333
pulpit square 0.3333333
life-blood heavily 0.1666667
in heavily 0.1666667
measure heavily 0.1666667
great heavily 0.1666667
perfumèd heavily 0.1666667
stoutly heavily 0.1666667
good veteran 0.5000000
old veteran 0.5000000
a attractive 0.0625000
dwell attractive 0.0625000
what attractive 0.0625000
do attractive 0.0625000
smiles attractive 0.0625000
my attractive 0.0625000
graces attractive 0.0625000
attractive attractive 0.0625000
nature attractive 0.0625000
fairer attractive 0.0625000
gracious attractive 0.0625000
person attractive 0.0625000
dimension attractive 0.0625000
in attractive 0.0625000
become attractive 0.0625000
love attractive 0.0625000
luster gleam 1.0000000
triumph triumph 0.7500000
home triumph 0.1666667
with triumph 0.0833333
dread revered 1.0000000
so arms 0.0400000
limbs arms 0.0400000
NULL arms 0.0800000
arms arms 0.7600000
lived arms 0.0400000
death arms 0.0400000
only full-scale 0.3333333
snatchers full-scale 0.3333333
coursing full-scale 0.3333333
lively reminds 0.2000000
does reminds 0.2000000
remember reminds 0.2000000
some reminds 0.2000000
ditty reminds 0.2000000
blessedness blessedness 1.0000000
tubal synagogue 0.2500000
good synagogue 0.2500000
synagogue synagogue 0.5000000
caliban pile 0.2000000
them pile 0.2000000
pile pile 0.6000000
so envy 0.1428571
was envy 0.1428571
he envy 0.1428571
envy envy 0.2857143
his envy 0.1428571
envenom envy 0.1428571
shake doubts 0.1000000
scruples doubts 0.1000000
NULL doubts 0.1000000
doubts doubts 0.3000000
us doubts 0.1000000
doubt doubts 0.2000000
that doubts 0.1000000
lisbon lisbon 1.0000000
couch recline 0.5000000
do recline 0.5000000
it busily 0.3333333
most busily 0.3333333
busiest busily 0.3333333
doth astounds 0.5000000
amaze astounds 0.5000000
s surrendered 0.3333333
vassal surrendered 0.3333333
’ surrendered 0.3333333
foix foix 1.0000000
show sees 0.0400000
NULL sees 0.0400000
shapes sees 0.0400000
danger sees 0.0400000
judgment sees 0.0400000
look sees 0.0400000
drowned sees 0.0400000
shall sees 0.0400000
then sees 0.0400000
doubly sees 0.0400000
reading sees 0.0400000
sees sees 0.4400000
waking sees 0.0400000
eyes sees 0.0800000
foul unstable 0.5000000
vulcan unstable 0.5000000
virtue virtue 0.7941176
it virtue 0.0588235
in virtue 0.0294118
privilege virtue 0.0294118
my virtue 0.0294118
is virtue 0.0588235
hunts hunts 1.0000000
fuming debauchery 0.2000000
of debauchery 0.2000000
brain debauchery 0.2000000
feasts debauchery 0.2000000
field debauchery 0.2000000
made deal 0.0666667
lady deal 0.0333333
NULL deal 0.1000000
ourself deal 0.0333333
tis deal 0.0333333
gone deal 0.0333333
deal deal 0.1000000
bear deal 0.0666667
matter deal 0.0333333
in deal 0.0333333
business deal 0.0333333
bargain deal 0.1000000
it deal 0.0666667
match deal 0.0666667
changed deal 0.0333333
be deal 0.0666667
hand deal 0.0333333
faith deal 0.0333333
dealest deal 0.0333333
gospell gospel 0.5000000
gospels gospel 0.5000000
person personal 0.1428571
his personal 0.1428571
personal personal 0.4285714
stomaching personal 0.1428571
more personal 0.1428571
dighton dighton 1.0000000
compt disposal 0.5000000
highness disposal 0.5000000
commendable commendable 1.0000000
lordship lordship 0.7222222
our lordship 0.0555556
sovereignty lordship 0.0555556
accept lordship 0.0555556
please lordship 0.0555556
duty lordship 0.0555556
owner owner 0.1666667
parings owner 0.1666667
' owner 0.1666667
keeper owner 0.1666667
lord owner 0.1666667
o owner 0.1666667
exhibition subsidy 1.0000000
buds buds 1.0000000
smirch smudge 0.5000000
umber smudge 0.5000000
obligation obligations 1.0000000
soundless soundless 1.0000000
erflows infatuation 0.5000000
o infatuation 0.5000000
songs seductive 0.2000000
me seductive 0.2000000
timelier seductive 0.2000000
t seductive 0.2000000
called seductive 0.2000000
wart wart 1.0000000
pearl pearl 0.6666667
union pearl 0.3333333
chopped chapped 1.0000000
coursers chargers 1.0000000
drunkard drunkard 0.8333333
dead drunkard 0.1666667
she dido 0.0666667
‘ dido 0.0666667
&ket; dido 0.0666667
dido dido 0.6666667
NULL dido 0.0666667
gonzalo dido 0.0666667
well beautifully 0.2500000
NULL beautifully 0.2500000
how beautifully 0.2500000
but beautifully 0.2500000
affection affections 0.5000000
affections affections 0.5000000
strangeness strangeness 1.0000000
anguish trauma 1.0000000
modern up-to-the-minute 1.0000000
quite revolting 0.5000000
forsworn revolting 0.5000000
milch-kine milk 0.1250000
NULL milk 0.1250000
milk milk 0.7500000
hereafter hereafter 1.0000000
'd compelled 0.5000000
compell compelled 0.5000000
envenomed dipped 1.0000000
storm riled 0.3333333
heated riled 0.3333333
how riled 0.3333333
in earring 0.5000000
pearl earring 0.5000000
bedded ooze 1.0000000
kind nastily 0.2500000
yields nastily 0.2500000
answer nastily 0.2500000
never nastily 0.2500000
lady meantime 0.0434783
court meantime 0.0434783
s meantime 0.0434783
’ meantime 0.0434783
vices meantime 0.0434783
while meantime 0.1304348
encounter meantime 0.0434783
meantime meantime 0.3913043
say meantime 0.0434783
too meantime 0.0434783
interim meantime 0.0869565
mine meantime 0.0434783
sweating sweaty 1.0000000
plenty feasting 0.2000000
good feasting 0.2000000
cheer feasting 0.2000000
feasting feasting 0.4000000
in yellow 0.0769231
mind yellow 0.0769231
though yellow 0.0769231
yellow yellow 0.6923077
saffron yellow 0.0769231
mender mender 0.5000000
cobbler mender 0.5000000
slips gambling 0.1111111
wanton gambling 0.1111111
dice gambling 0.1111111
wild gambling 0.1111111
such gambling 0.1111111
swoopstake gambling 0.1111111
but gambling 0.1111111
and gambling 0.1111111
usual gambling 0.1111111
adultery adultery 1.0000000
'st whenever 0.0384615
tyranny whenever 0.0384615
even whenever 0.0384615
leisure whenever 0.0384615
therefore whenever 0.0384615
never whenever 0.0769231
kind whenever 0.0769231
skirmish whenever 0.0384615
patience whenever 0.0384615
at whenever 0.0769231
upon whenever 0.0384615
when whenever 0.2692308
what whenever 0.0384615
where whenever 0.0769231
by whenever 0.0384615
when- whenever 0.0384615
they exaggerate 0.1250000
brutus exaggerate 0.1250000
NULL exaggerate 0.1250000
greater exaggerate 0.1250000
makes exaggerate 0.1250000
are exaggerate 0.1250000
than exaggerate 0.1250000
set exaggerate 0.1250000
toss hellish 0.5000000
hellish hellish 0.5000000
shame disrespect 1.0000000
the accomplishing 0.2000000
which accomplishing 0.2000000
for accomplishing 0.2000000
we accomplishing 0.2000000
act accomplishing 0.2000000
in b 0.2500000
back b 0.2500000
proof b 0.2500000
blast b 0.2500000
it logic 0.0909091
syllogism logic 0.0909091
NULL logic 0.0909091
how logic 0.0909091
reason logic 0.0909091
chase logic 0.0909091
dost logic 0.0909091
will logic 0.0909091
thou logic 0.0909091
simple logic 0.0909091
fondly logic 0.0909091
breast breastplate 0.3333333
which breastplate 0.3333333
scuffles breastplate 0.3333333
marquess dorset 0.2857143
dorset dorset 0.7142857
barren oops 0.2500000
now oops 0.2500000
marry oops 0.2500000
am oops 0.2500000
thus thought-out 1.0000000
tardy delay 0.0666667
NULL delay 0.0666667
delay delay 0.4666667
stay delay 0.0666667
by delay 0.0666667
'en delay 0.0666667
unwise delay 0.0666667
ta delay 0.0666667
more delay 0.0666667
twenty seconds 1.0000000
thee web 0.2000000
web web 0.4000000
about web 0.2000000
ensnareth web 0.2000000
in partly 0.0769231
wretch partly 0.0769231
partly partly 0.6153846
do partly 0.0769231
part partly 0.1538462
have enlarge 0.5000000
warranty enlarge 0.5000000
teaches teach 0.0303030
NULL teach 0.0303030
teacheth teach 0.0303030
teachest teach 0.0303030
teaching teach 0.0303030
counsel teach 0.0303030
teach teach 0.6666667
learn teach 0.0909091
break teach 0.0303030
lute teach 0.0303030
NULL horns 0.1000000
hornmaker horns 0.1000000
mad horns 0.1000000
horn horns 0.1000000
horns horns 0.6000000
battles commanders 0.1111111
know commanders 0.1111111
heads commanders 0.1111111
many commanders 0.1111111
prepare commanders 0.1111111
commanders commanders 0.4444444
savors set 0.0175439
made set 0.0175439
pawn set 0.0175439
NULL set 0.1403509
odorous set 0.0175439
discharge set 0.0350877
let set 0.0175439
fire set 0.0175439
hoist set 0.0175439
befits set 0.0175439
down set 0.0175439
this set 0.0350877
prize set 0.0175439
lawful set 0.0175439
set set 0.4561404
prepare set 0.0175439
make set 0.0350877
determined set 0.0175439
me set 0.0350877
doubts set 0.0175439
afire set 0.0175439
rated berated 1.0000000
jig jig 1.0000000
arras tapestry 0.2500000
ducats tapestry 0.2500000
myself tapestry 0.2500000
tapestry tapestry 0.2500000
well-took job 0.0243902
done job 0.0243902
NULL job 0.0975610
rise job 0.0243902
limited job 0.0243902
place job 0.0731707
employment job 0.0243902
supplied job 0.0243902
called job 0.0243902
brakenbury job 0.0243902
enterprise job 0.0243902
it job 0.0243902
dispatch job 0.0243902
spirit job 0.0243902
drawn job 0.0243902
service job 0.0243902
affair job 0.0243902
ercles job 0.0243902
office job 0.3658537
ill job 0.0243902
talk job 0.0243902
was job 0.0243902
'd hawked 0.2000000
mousing hawked 0.2000000
hawk hawked 0.2000000
owl hawked 0.2000000
by hawked 0.2000000
bow rainbow 0.6666667
heavenly rainbow 0.3333333
boar boar 1.0000000
holy pious 0.2500000
pious pious 0.5000000
gospeled pious 0.2500000
out stained 0.0769231
purpled stained 0.0769231
lust-stained stained 0.0769231
blotted stained 0.0769231
stain stained 0.0769231
can stained 0.0769231
'd stained 0.0769231
vile stained 0.0769231
blot stained 0.0769231
hero stained 0.1538462
stained stained 0.0769231
itself stained 0.0769231
so leader 0.2000000
sword leader 0.2000000
leader leader 0.2000000
unswayed leader 0.2000000
majesty leader 0.2000000
seen met 0.0769231
saw met 0.0384615
trencher met 0.0384615
met met 0.6923077
NULL met 0.0384615
meet met 0.0384615
found met 0.0769231
traduced double-crossed 1.0000000
tooth tooth 1.0000000
hairs white 0.0476190
white white 0.8095238
NULL white 0.0952381
flaxen white 0.0476190
NULL capture 0.1428571
taken capture 0.1428571
taking capture 0.1428571
entrap capture 0.1428571
fetch capture 0.1428571
take capture 0.1428571
achieve capture 0.1428571
jove wonder 0.0370370
zealous wonder 0.0370370
peseech wonder 0.0370370
wonder wonder 0.7037037
think wonder 0.0370370
marvel wonder 0.1111111
though wonder 0.0370370
counterfeit representation 0.5000000
presentment representation 0.5000000
persuasion urgings 1.0000000
saint saint 0.9411765
puissance saint 0.0588235
themselves susceptible 0.3333333
in susceptible 0.3333333
imminent susceptible 0.3333333
tar disgusting 0.0500000
abhorring disgusting 0.0500000
foul disgusting 0.2000000
name disgusting 0.0500000
my disgusting 0.0500000
gross disgusting 0.2000000
s disgusting 0.0500000
’ disgusting 0.0500000
pish disgusting 0.0500000
kind disgusting 0.0500000
fie disgusting 0.0500000
macbeth disgusting 0.0500000
abhorrèd disgusting 0.0500000
fault disgusting 0.0500000
sides torso 1.0000000
doth frowns 0.1000000
frowning frowns 0.1000000
frowns frowns 0.4000000
checks frowns 0.1000000
skill frowns 0.1000000
— frowns 0.1000000
frown frowns 0.1000000
from invented 0.5000000
fire-new invented 0.5000000
violet violet 1.0000000
it gracefully 0.3333333
softly gracefully 0.3333333
featly gracefully 0.3333333
obedient disobedient 0.2500000
as disobedient 0.2500000
not disobedient 0.2500000
beldams disobedient 0.2500000
'd unwatched 0.3333333
unwatch unwatched 0.3333333
go unwatched 0.3333333
betrothed betrothed 0.2500000
contract betrothed 0.2500000
substitute betrothed 0.2500000
by betrothed 0.2500000
thane cawdor 0.0476190
glamis cawdor 0.0476190
it cawdor 0.0476190
NULL cawdor 0.0476190
cawdor cawdor 0.7142857
very cawdor 0.0476190
him cawdor 0.0476190
NULL dared 0.1111111
dared dared 0.1111111
tempted dared 0.2222222
durst dared 0.4444444
lord dared 0.1111111
reckoning duel 0.0833333
desert duel 0.0833333
NULL duel 0.0833333
withdraw duel 0.0833333
orchard duel 0.0833333
end duel 0.0833333
satisfaction duel 0.0833333
challenged duel 0.0833333
challenge duel 0.1666667
call duel 0.0833333
field duel 0.0833333
bats bats 1.0000000
anticipatest anticipate 1.0000000
visitor visitor 1.0000000
freeman freeman 1.0000000
baby doll 1.0000000
brow brow 0.5000000
brows brow 0.2500000
looks brow 0.2500000
aleppo aleppo 1.0000000
revels parties 0.2500000
pomp parties 0.2500000
masques parties 0.2500000
guests parties 0.2500000
exploits deeds 0.0476190
NULL deeds 0.0476190
relate deeds 0.0476190
play deeds 0.0476190
exercise deeds 0.0476190
all deeds 0.0476190
feats deeds 0.0476190
business deeds 0.0476190
deeds deeds 0.5238095
strokes deeds 0.0476190
mischiefs deeds 0.0476190
'd dragged 0.2000000
dragg dragged 0.2000000
rather dragged 0.2000000
drawn dragged 0.2000000
hath dragged 0.2000000
taunting taunting 0.2500000
mock taunting 0.2500000
very taunting 0.2500000
st taunting 0.2500000
swoons sight 0.0156250
NULL sight 0.0468750
ill-favoredly sight 0.0156250
come sight 0.0156250
lurk sight 0.0156250
late sight 0.0156250
apparition sight 0.0156250
see sight 0.0156250
face sight 0.0156250
our sight 0.0312500
from sight 0.0156250
thy sight 0.0156250
hence sight 0.0156250
sight sight 0.6093750
spectacle sight 0.0156250
hatred sight 0.0156250
eye sight 0.0468750
sense sight 0.0156250
vanish sight 0.0156250
eyes sight 0.0156250
mine sight 0.0156250
religion religion 0.5000000
tribe religion 0.5000000
most outrageous 0.2500000
monster outrageous 0.2500000
tyrannically outrageous 0.2500000
lewd outrageous 0.2500000
gallant gentleman 0.0140845
seigneur gentleman 0.0140845
gentleman gentleman 0.8028169
NULL gentleman 0.0281690
counseled gentleman 0.0140845
books gentleman 0.0140845
gallants gentleman 0.0140845
lord gentleman 0.0140845
gently gentleman 0.0140845
gen- gentleman 0.0281690
qualities gentleman 0.0140845
sir gentleman 0.0140845
spoken gentleman 0.0140845
ensheltered protected 0.2500000
it protected 0.2500000
walled protected 0.2500000
claimed protected 0.2500000
tardy lateness 0.3333333
come lateness 0.3333333
off lateness 0.3333333
yoke oppression 0.3333333
the oppression 0.3333333
sufferance oppression 0.3333333
lack misses 0.2500000
shall misses 0.2500000
mistake misses 0.2500000
totally misses 0.2500000
very perfect 0.0526316
NULL perfect 0.0526316
perfectest perfect 0.0526316
for perfect 0.0526316
form perfect 0.0526316
convenient perfect 0.0526316
all perfect 0.0526316
fullness perfect 0.0526316
created perfect 0.0526316
perfect perfect 0.3157895
gods perfect 0.0526316
stillness perfect 0.0526316
perfection perfect 0.1052632
cobble mend 0.1666667
mend mend 0.8333333
threaden driven 0.0769231
made driven 0.0769231
draw driven 0.0769231
thence driven 0.0769231
moved driven 0.0769231
turned driven 0.0769231
rebuked driven 0.0769231
from driven 0.0769231
beat driven 0.1538462
came driven 0.0769231
driven driven 0.0769231
droven driven 0.0769231
chambers bedrooms 1.0000000
unworthy unworthy 0.1666667
unworthiness unworthy 0.1666667
NULL unworthy 0.1666667
improper unworthy 0.1666667
mine unworthy 0.1666667
worthless unworthy 0.1666667
birth birth 0.1481481
whelpèd birth 0.0370370
NULL birth 0.0740741
a birth 0.0370370
born birth 0.1851852
breeding birth 0.0370370
burden birth 0.0370370
at birth 0.0370370
gender birth 0.0370370
shambles birth 0.0370370
stars birth 0.0370370
rounded birth 0.0370370
men-children birth 0.0740741
breeder birth 0.0370370
blood birth 0.0370370
minute birth 0.0370370
be birth 0.0370370
rear birth 0.0370370
heaviness heaviness 1.0000000
cinquepace illusion 0.2000000
a illusion 0.2000000
dream illusion 0.2000000
illusion illusion 0.2000000
proud illusion 0.2000000
tripped both 0.0064516
woo both 0.0064516
majesties both 0.0064516
false both 0.0064516
NULL both 0.0838710
: both 0.0064516
of both 0.0129032
both both 0.7225806
two both 0.0193548
gone both 0.0064516
good both 0.0064516
matter both 0.0129032
eaten both 0.0064516
jointly both 0.0064516
article both 0.0064516
power both 0.0064516
revenged both 0.0064516
ambles both 0.0064516
yourselves both 0.0129032
covenants both 0.0064516
re both 0.0064516
them both 0.0064516
stocking both 0.0064516
sure both 0.0129032
graces both 0.0064516
crab both 0.0064516
him signor 0.0714286
signor signor 0.5000000
signior signor 0.3571429
commends signor 0.0714286
flung flew 1.0000000
swain farmworker 1.0000000
make vices 0.1666667
vices vices 0.3333333
in vices 0.1666667
instruments vices 0.1666667
viciousness vices 0.1666667
you sailor 0.1250000
now sailor 0.1250000
sailor sailor 0.3750000
have sailor 0.1250000
no sailor 0.1250000
sea-cap sailor 0.1250000
digt dug 1.0000000
oyster oyster 1.0000000
varlet shameless 0.5000000
brazen-faced shameless 0.5000000
beguile cheated 0.1000000
false cheated 0.2000000
cheated cheated 0.1000000
turned cheated 0.1000000
unscarred cheated 0.1000000
'erraught cheated 0.1000000
was cheated 0.1000000
some cheated 0.1000000
fopped cheated 0.1000000
so graft 0.5000000
inoculate graft 0.5000000
proculeius proculeius 1.0000000
wassails hedonism 1.0000000
pharsalia pharsalia 1.0000000
fellow spouse 1.0000000
general general-honest 0.5000000
honest general-honest 0.5000000
worried harassed 1.0000000
morocco morocco 1.0000000
'd mainly 0.2500000
up mainly 0.2500000
stirr mainly 0.2500000
mainly mainly 0.2500000
'd toiled 0.2000000
unbreathed toiled 0.2000000
toil toiled 0.2000000
with toiled 0.2000000
memories toiled 0.2000000
deep banquo 0.0256410
flight banquo 0.0256410
stick banquo 0.0256410
banquo banquo 0.8974359
feared banquo 0.0256410
or anytime 0.2000000
now anytime 0.2000000
provided anytime 0.2000000
whensoever anytime 0.2000000
ready anytime 0.2000000
did plotted 0.5000000
plot plotted 0.5000000
NULL drinking 0.1111111
unfilled drinking 0.0555556
s drinking 0.0555556
potting drinking 0.0555556
our drinking 0.0555556
throats drinking 0.0555556
used drinking 0.0555556
pledge drinking 0.0555556
drinking drinking 0.3333333
drink drinking 0.1111111
leave drinking 0.0555556
perils dangers 0.1666667
dangers dangers 0.8333333
fourteen regular 0.5000000
that regular 0.5000000
wanton erotic 1.0000000
artemidorus artemidorus 1.0000000
pelleted pellet 1.0000000
the takethe 0.5000000
take takethe 0.5000000
hour relief 0.2000000
relief relief 0.2000000
NULL relief 0.2000000
physic relief 0.2000000
therein relief 0.2000000
wet wet 0.4000000
bedabbled wet 0.2000000
woe wet 0.2000000
wetting wet 0.2000000
on twisted 0.2500000
made twisted 0.2500000
waved twisted 0.2500000
is twisted 0.2500000
bentivolii world-traveled 1.0000000
us signals 0.2500000
astonish signals 0.2500000
heralds signals 0.2500000
dreadful signals 0.2500000
these no 0.0008326
you no 0.0016653
come no 0.0008326
remembrance no 0.0008326
nobody no 0.0016653
heavy no 0.0008326
degrees no 0.0008326
longer no 0.0016653
extravagancy no 0.0008326
anchoring no 0.0008326
lost no 0.0016653
chill no 0.0008326
night no 0.0008326
strained no 0.0008326
deny no 0.0033306
honored no 0.0008326
appear no 0.0008326
celerity no 0.0008326
betide no 0.0008326
but no 0.0024979
too no 0.0008326
stir no 0.0008326
perforce no 0.0008326
guiltiness no 0.0008326
nor no 0.0133222
neither no 0.0024979
it no 0.0024979
saying no 0.0008326
's no 0.0008326
man no 0.0008326
unfellowed no 0.0008326
thou no 0.0008326
truly no 0.0008326
prithee no 0.0008326
a no 0.0091590
false no 0.0016653
— no 0.0008326
giant-rude no 0.0008326
howso no 0.0008326
no no 0.5820150
off no 0.0008326
natural no 0.0008326
inferior no 0.0008326
m.o.a.i. no 0.0008326
in no 0.0024979
remorse no 0.0008326
madam no 0.0016653
alas no 0.0049958
permission no 0.0008326
me no 0.0033306
by no 0.0016653
teeth no 0.0008326
passy-measures no 0.0008326
surgery no 0.0008326
wither no 0.0008326
rogue no 0.0008326
vouch no 0.0008326
believed no 0.0008326
oliver no 0.0008326
standing no 0.0008326
beauty no 0.0008326
choice no 0.0008326
i no 0.0074938
understands no 0.0008326
doubt no 0.0074938
there no 0.0033306
launcelot no 0.0008326
falstaff no 0.0008326
why no 0.0016653
nothing no 0.0033306
o no 0.0024979
swoons no 0.0008326
yes no 0.0016653
unbound no 0.0008326
cannot no 0.0024979
not no 0.0324729
that no 0.0024979
flatter no 0.0016653
whatever no 0.0008326
on no 0.0008326
gone no 0.0016653
slept no 0.0008326
years no 0.0008326
veins no 0.0008326
day no 0.0008326
race no 0.0008326
regard no 0.0008326
grief no 0.0008326
impossible no 0.0008326
pacified no 0.0008326
faith no 0.0033306
love no 0.0008326
none no 0.0249792
velvet no 0.0008326
indeed no 0.0024979
oh no 0.0024979
school no 0.0008326
barefaced no 0.0008326
till no 0.0008326
master no 0.0008326
sure no 0.0008326
stopped no 0.0008326
little no 0.0008326
non no 0.0008326
more no 0.0016653
let no 0.0016653
suspicion no 0.0008326
blank no 0.0008326
this no 0.0024979
so no 0.0016653
for no 0.0024979
refused no 0.0008326
protest no 0.0008326
nay no 0.1115737
advancement no 0.0008326
lover no 0.0008326
rather no 0.0016653
chapless no 0.0008326
NULL no 0.0482931
jot no 0.0008326
never no 0.0058285
rebels no 0.0008326
soldiership no 0.0008326
at no 0.0024979
lusted no 0.0008326
cease no 0.0008326
undone no 0.0008326
conqueror no 0.0008326
first no 0.0008326
legitimate no 0.0008326
he no 0.0016653
demean no 0.0008326
shallow no 0.0008326
play no 0.0008326
sans no 0.0008326
hand no 0.0016653
nonpareil no 0.0008326
'm no 0.0008326
fain anxious 0.1428571
been anxious 0.1428571
much anxious 0.1428571
hotly anxious 0.1428571
careful anxious 0.1428571
called anxious 0.1428571
dismay anxious 0.1428571
seasons mixes 1.0000000
agincourt agincourt 0.4000000
they agincourt 0.2000000
it agincourt 0.2000000
call agincourt 0.2000000
accommodation accommodation 1.0000000
your dumps 0.5000000
dumps dumps 0.5000000
gnats gnats 0.5000000
degrees gnats 0.5000000
overmastered lorded 1.0000000
the self-delusions 0.1666667
initiate self-delusions 0.1666667
fear self-delusions 0.1666667
is self-delusions 0.1666667
self-abuse self-delusions 0.1666667
and self-delusions 0.1666667
question object 0.1428571
make object 0.1428571
object object 0.4285714
annexment object 0.1428571
poisons object 0.1428571
floods shedding 0.0909091
the shedding 0.0909091
till shedding 0.0909091
legerity shedding 0.0909091
envious shedding 0.0909091
thee shedding 0.0909091
like shedding 0.0909091
again shedding 0.0909091
'errun shedding 0.0909091
o shedding 0.0909091
shed shedding 0.0909091
invent invent 1.0000000
tweaks pinch 0.1111111
over-red pinch 0.1111111
pinch pinch 0.5555556
unwrung pinch 0.1111111
by pinch 0.1111111
tyrannically tyrannically 0.5000000
clapped tyrannically 0.5000000
woe woe 1.0000000
marching marching 1.0000000
beauties beauties 1.0000000
gentles gentles 1.0000000
salisbury salisbury 1.0000000
persuaded dissuade 0.2500000
so dissuade 0.2500000
have dissuade 0.2500000
mightily dissuade 0.2500000
chastisement go 0.0008865
forth go 0.0070922
wend go 0.0008865
dwell go 0.0008865
you go 0.0354610
importuned go 0.0008865
fly go 0.0026596
come go 0.0132979
prayers go 0.0008865
see go 0.0070922
broached go 0.0008865
hogs go 0.0008865
fairs go 0.0008865
suits go 0.0008865
keep go 0.0008865
business go 0.0008865
serve go 0.0017730
extend go 0.0008865
pronounce go 0.0008865
ll go 0.0062057
them go 0.0035461
bite go 0.0008865
savage go 0.0008865
aroint go 0.0017730
lord go 0.0008865
borders go 0.0008865
nunnery go 0.0008865
spade go 0.0008865
inclined go 0.0008865
again go 0.0017730
commanded go 0.0008865
and go 0.0017730
rest go 0.0017730
stir go 0.0035461
descend go 0.0008865
will go 0.0026596
unsafe go 0.0008865
dismiss go 0.0008865
press go 0.0008865
orderly go 0.0008865
revels go 0.0008865
pass go 0.0017730
said go 0.0008865
going go 0.0026596
transform go 0.0008865
part go 0.0008865
wander go 0.0017730
whistle go 0.0008865
sauce go 0.0017730
wait go 0.0008865
haste go 0.0008865
fret go 0.0008865
vanish go 0.0008865
way go 0.0017730
circumvent go 0.0008865
relief go 0.0008865
pay go 0.0008865
— go 0.0035461
depart go 0.0008865
post go 0.0017730
no go 0.0008865
off go 0.0017730
soft go 0.0008865
wildcat go 0.0008865
contriving go 0.0008865
got go 0.0008865
in go 0.0026596
presence go 0.0008865
fetch go 0.0079787
perish go 0.0008865
stand go 0.0008865
toward go 0.0026596
caelius go 0.0008865
s go 0.0017730
ask go 0.0008865
hot-blooded go 0.0008865
c go 0.0008865
unwatch go 0.0008865
pack go 0.0008865
quickly go 0.0008865
cast go 0.0008865
resurvey go 0.0008865
withdraw go 0.0053191
hit go 0.0008865
mad go 0.0008865
after go 0.0079787
run go 0.0035461
begone go 0.0035461
us go 0.0008865
get go 0.0265957
attend go 0.0017730
hence go 0.0141844
i go 0.0097518
farther go 0.0008865
conduct go 0.0008865
goest go 0.0008865
quiet go 0.0008865
unfold go 0.0008865
crowner go 0.0008865
make go 0.0026596
heart go 0.0008865
sue go 0.0008865
minstrels go 0.0008865
back go 0.0062057
go go 0.3776596
there go 0.0008865
well go 0.0026596
everyone go 0.0008865
cullions go 0.0008865
avoided go 0.0008865
forward go 0.0035461
along go 0.0017730
, go 0.0150709
not go 0.0017730
grow go 0.0008865
gate go 0.0008865
take go 0.0008865
on go 0.0062057
gone go 0.0106383
slept go 0.0008865
gently go 0.0008865
further go 0.0035461
break go 0.0008865
out go 0.0017730
departure go 0.0008865
thee go 0.0053191
madness go 0.0017730
uncle go 0.0008865
adriana go 0.0008865
walk go 0.0017730
budge go 0.0017730
obey go 0.0017730
fished go 0.0008865
i. go 0.0017730
with go 0.0008865
leave go 0.0044326
must go 0.0097518
visit go 0.0017730
meet go 0.0008865
goes go 0.0035461
do go 0.0062057
into go 0.0008865
avaunt go 0.0026596
good go 0.0017730
to go 0.0319149
incontinently go 0.0008865
from go 0.0008865
towards go 0.0008865
motion go 0.0008865
home go 0.0035461
set go 0.0017730
complain go 0.0008865
repair go 0.0017730
&amp; go 0.0008865
comfort go 0.0008865
females go 0.0008865
pursue go 0.0008865
ones go 0.0008865
thither go 0.0044326
heigh go 0.0008865
little go 0.0008865
wake go 0.0008865
proceed go 0.0070922
then go 0.0017730
unhand go 0.0008865
traverse go 0.0017730
bed go 0.0017730
speak go 0.0008865
yet go 0.0008865
beseech go 0.0017730
went go 0.0017730
about go 0.0035461
t go 0.0008865
lay go 0.0008865
swim go 0.0008865
sojourn go 0.0008865
whither go 0.0008865
enter go 0.0053191
near go 0.0008865
abed go 0.0008865
ways go 0.0008865
nay go 0.0008865
miss go 0.0008865
be go 0.0124113
away go 0.0398936
undertake go 0.0008865
NULL go 0.0647163
needs go 0.0017730
hasten go 0.0008865
therefore go 0.0053191
up go 0.0017730
amp go 0.0008865
look go 0.0017730
use go 0.0008865
been go 0.0008865
bring go 0.0017730
say go 0.0053191
counsel go 0.0008865
fust go 0.0008865
hunt go 0.0017730
moveables go 0.0008865
return go 0.0053191
question go 0.0008865
prevailed go 0.0008865
disperse go 0.0008865
speedy go 0.0017730
air go 0.0008865
decius go 0.0008865
somewhere go 0.0008865
sleep go 0.0008865
seek go 0.0035461
wrong unaware 0.1428571
knowledge unaware 0.1428571
from unaware 0.1428571
imaginations unaware 0.1428571
woes unaware 0.1428571
lose unaware 0.1428571
by unaware 0.1428571
meeting toasts 0.1666667
welcome toasts 0.1666667
drinking toasts 0.1666667
with toasts 0.3333333
healths toasts 0.1666667
most brilliant 0.1666667
gull-catcher brilliant 0.1666667
exquisite brilliant 0.3333333
my brilliant 0.3333333
on coroner 0.1428571
crowner coroner 0.2857143
let coroner 0.1428571
sat coroner 0.1428571
' coroner 0.1428571
her coroner 0.1428571
chink chink 1.0000000
dish dish 0.8000000
again dish 0.2000000
tree tree 0.6956522
may tree 0.0434783
verse tree 0.0434783
pine tree 0.0869565
oak tree 0.0869565
nonny tree 0.0434783
NULL emperor 0.0625000
emperor emperor 0.6250000
imperious emperor 0.1250000
continues emperor 0.0625000
leather emperor 0.0625000
s emperor 0.0625000
good third 0.0454545
for third 0.0454545
part third 0.0909091
third third 0.6818182
play third 0.0454545
all third 0.0454545
pays third 0.0454545
way superseded 0.5000000
give superseded 0.5000000
baseness forgery 1.0000000
awful profound 1.0000000
out imperfections 0.1428571
piece imperfections 0.1428571
ill-well imperfections 0.1428571
imperfections imperfections 0.1428571
him imperfections 0.1428571
unless imperfections 0.1428571
with imperfections 0.1428571
bedfellows folks 0.5000000
folks folks 0.5000000
govern govern 0.5000000
in govern 0.1666667
nonage govern 0.1666667
rules govern 0.1666667
'd defy 0.1428571
defy defy 0.1428571
mock defy 0.1428571
fear defy 0.1428571
drugg defy 0.1428571
brave defy 0.1428571
her defy 0.1428571
faithless faithless 1.0000000
way route 0.5000000
shorter route 0.2500000
safest route 0.2500000
the disease 0.0769231
upon disease 0.0384615
NULL disease 0.0384615
which disease 0.0384615
up disease 0.0384615
s disease 0.0769231
disease disease 0.3846154
’ disease 0.0769231
pestilence disease 0.0384615
thee disease 0.0384615
imminent disease 0.0384615
dropsy disease 0.0384615
contagion disease 0.0384615
plague disease 0.0384615
pinched tortures 0.3333333
death tortures 0.3333333
torture tortures 0.3333333
cobbler cobbler 1.0000000
blastments shriveling 0.5000000
are shriveling 0.5000000
bellyful thunder 0.0714286
thunders thunder 0.0714286
break thunder 0.0714286
thunder thunder 0.7857143
stolen stole 0.0476190
NULL stole 0.0476190
pay stole 0.0476190
perforce stole 0.0476190
took stole 0.0952381
steal stole 0.0476190
dear stole 0.0476190
shall stole 0.0476190
got stole 0.0476190
as stole 0.0476190
lapsèd stole 0.0476190
in stole 0.1428571
usurp stole 0.0952381
stole stole 0.1428571
usurped stole 0.0476190
so accused 0.0833333
upon accused 0.0833333
wronged accused 0.0833333
accused accused 0.1666667
belied accused 0.0833333
are accused 0.0833333
bewhored accused 0.0833333
accusers accused 0.0833333
falsely accused 0.0833333
cause accused 0.0833333
her accused 0.0833333
wonderful unbelievable 0.2000000
most unbelievable 0.1000000
rarities unbelievable 0.1000000
vouched unbelievable 0.1000000
many unbelievable 0.1000000
blood unbelievable 0.1000000
insupportable unbelievable 0.1000000
rarity unbelievable 0.1000000
and unbelievable 0.1000000
brine behind 0.0196078
left behind 0.0196078
behind behind 0.4901961
leaves behind 0.0196078
wood behind 0.0196078
NULL behind 0.0588235
find behind 0.0196078
him behind 0.0196078
pool behind 0.0196078
in behind 0.0196078
at behind 0.0392157
out behind 0.0196078
second behind 0.0196078
back behind 0.0392157
exercise behind 0.0196078
within behind 0.0196078
one behind 0.0196078
gifts behind 0.0196078
hand behind 0.0196078
driven behind 0.0196078
boxtree behind 0.0196078
leave behind 0.0196078
practices behind 0.0196078
laughable hysterically 1.0000000
corruption bad 0.0062112
damnable bad 0.0062112
pitiful bad 0.0062112
contents bad 0.0062112
untimely bad 0.0062112
that bad 0.0248447
portents bad 0.0062112
exclaim bad 0.0062112
fortune bad 0.0124224
witless bad 0.0062112
mischief bad 0.0062112
foul bad 0.0372671
shapes bad 0.0062112
'red bad 0.0062112
monstrous bad 0.0062112
hard bad 0.0062112
steps bad 0.0062112
moody bad 0.0062112
pity bad 0.0248447
to bad 0.0062112
good bad 0.0062112
bad bad 0.2360248
oh bad 0.0062112
knavery bad 0.0062112
takes bad 0.0062112
from bad 0.0062112
tales bad 0.0062112
abound bad 0.0062112
wretched bad 0.0062112
effect bad 0.0062112
rash bad 0.0062112
faults bad 0.0062112
michael bad 0.0062112
man bad 0.0062112
ear bad 0.0062112
governed bad 0.0062112
an bad 0.0062112
unbreathed bad 0.0062112
sermons bad 0.0062112
fright bad 0.0062112
disturbèd bad 0.0062112
'en bad 0.0062112
wrong bad 0.0124224
might bad 0.0062112
so bad 0.0062112
sorrows bad 0.0062112
alas bad 0.0124224
predictions bad 0.0062112
else bad 0.0062112
s bad 0.0062112
ill bad 0.1118012
their bad 0.0062112
such bad 0.0062112
begun bad 0.0062112
shoes bad 0.0062112
thick bad 0.0062112
miscarry bad 0.0062112
NULL bad 0.1304348
harmed bad 0.0062112
knavish bad 0.0062112
lamented bad 0.0062112
totters bad 0.0062112
lawful bad 0.0062112
fortunes bad 0.0124224
naught bad 0.0124224
lives bad 0.0062112
marred bad 0.0062112
while bad 0.0062112
vile bad 0.0062112
dishonor bad 0.0062112
tale bad 0.0062112
grapple skirmish 1.0000000
mortal-staring occasion 0.1250000
time occasion 0.1250000
occasion occasion 0.6250000
season occasion 0.1250000
the ashes 0.1428571
engineer ashes 0.1428571
did ashes 0.1428571
burièd ashes 0.1428571
his ashes 0.1428571
dust ashes 0.1428571
hoist ashes 0.1428571
you something 0.0208333
come something 0.0052083
not something 0.0208333
employed something 0.0052083
that something 0.0677083
see something 0.0052083
retrograde something 0.0052083
peculiar something 0.0052083
dross something 0.0052083
mischief something 0.0104167
what something 0.0260417
laughable something 0.0052083
greek something 0.0052083
trash something 0.0052083
ought something 0.0052083
falsing something 0.0052083
again something 0.0104167
some something 0.0416667
promise something 0.0052083
leave something 0.0104167
is something 0.0052083
all something 0.0052083
aught something 0.0052083
will something 0.0052083
teach something 0.0052083
something something 0.2031250
sparks something 0.0052083
cozen something 0.0052083
readiest something 0.0052083
remembered something 0.0052083
now something 0.0052083
thou something 0.0052083
consent something 0.0052083
speak something 0.0520833
way something 0.0052083
page something 0.0052083
a something 0.0416667
yet something 0.0104167
neck something 0.0052083
compulsatory something 0.0052083
might something 0.0208333
clothes something 0.0052083
transgresses something 0.0052083
deed something 0.0052083
this something 0.0104167
write something 0.0052083
so something 0.0052083
ignorant something 0.0156250
hideous something 0.0052083
word something 0.0104167
dismal something 0.0052083
be something 0.0156250
shrewd something 0.0052083
worse something 0.0052083
lined something 0.0052083
suit something 0.0052083
NULL something 0.1093750
: something 0.0052083
trick something 0.0052083
angry something 0.0052083
means something 0.0104167
embrace something 0.0052083
seriously something 0.0052083
note something 0.0104167
question something 0.0052083
smell something 0.0052083
commits something 0.0052083
positively something 0.0052083
amend something 0.0052083
thing something 0.0208333
difficult something 0.0052083
'd cheered 0.5000000
cheer cheered 0.5000000
provender oats 0.2500000
oats oats 0.7500000
avouch gall 0.5000000
dare gall 0.5000000
to pulling 0.1428571
germane pulling 0.1428571
be pulling 0.1428571
would pulling 0.1428571
ravish pulling 0.1428571
more pulling 0.1428571
pulling pulling 0.1428571
drowsy drowsy 1.0000000
utterance eloquence 0.3333333
eloquence eloquence 0.6666667
a hot 0.0333333
NULL hot 0.0333333
southwest hot 0.0333333
snow hot 0.0333333
stinking hot 0.0333333
heat hot 0.0333333
over-earnest hot 0.0333333
chastity hot 0.0333333
little hot 0.0333333
scotch hot 0.0333333
thy hot 0.0333333
snuff hot 0.0333333
choleric hot 0.0333333
hot hot 0.5666667
heavy horrible 0.0151515
fore-vouched horrible 0.0151515
liberal horrible 0.0151515
loathèd horrible 0.0151515
unnatural horrible 0.0151515
terrible horrible 0.0151515
dreaded horrible 0.0151515
alas horrible 0.0151515
foul horrible 0.0606061
plagues horrible 0.0151515
hideous horrible 0.0151515
monstrous horrible 0.0757576
horrid horrible 0.0151515
dismal horrible 0.0303030
your horrible 0.0151515
counselor horrible 0.0151515
and horrible 0.0757576
too horrible 0.0151515
unhappy horrible 0.0303030
affection horrible 0.0151515
most horrible 0.0606061
NULL horrible 0.0454545
taint horrible 0.0151515
into horrible 0.0151515
conceit horrible 0.0151515
england horrible 0.0151515
villainous horrible 0.0151515
fall horrible 0.0151515
affairs horrible 0.0151515
woe horrible 0.0303030
profane horrible 0.0151515
tormenting horrible 0.0151515
vile horrible 0.0151515
nose horrible 0.0151515
horrible horrible 0.1969697
beams beams 1.0000000
'd maimed 0.5000000
maim maimed 0.5000000
earthlier piety 0.5000000
happy piety 0.5000000
greeks greeks 1.0000000
from hardships 1.0000000
hers belong 0.1666667
been belong 0.1666667
has belong 0.1666667
perpetual belong 0.1666667
slave belong 0.1666667
are belong 0.1666667
qual- character 0.1250000
to character 0.2500000
ification character 0.1250000
name character 0.1250000
extremities character 0.1250000
soto character 0.1250000
honesty character 0.1250000
been behaved 0.3333333
behaved behaved 0.3333333
unfitness behaved 0.3333333
NULL enter 0.1176471
intermingle enter 0.0588235
at enter 0.0588235
st enter 0.0588235
’ enter 0.0588235
com enter 0.0588235
go enter 0.1176471
enter enter 0.4705882
foreign foreign 0.1666667
the foreign 0.1666667
tributaries foreign 0.1666667
NULL foreign 0.1666667
be foreign 0.1666667
scythian foreign 0.1666667
'st willfully 0.2500000
wilfully willfully 0.2500000
thy willfully 0.2500000
knaveries willfully 0.2500000
NULL unfair 0.1111111
a unfair 0.1111111
false unfair 0.1111111
not unfair 0.1111111
are unfair 0.1111111
as unfair 0.1111111
nor unfair 0.1111111
unmerciful unfair 0.1111111
bondmaid unfair 0.1111111
land fairy-land 0.5000000
fairy fairy-land 0.5000000
lordship tolerate 0.1666667
receive tolerate 0.1666667
bear tolerate 0.1666667
brook tolerate 0.1666667
forbear tolerate 0.1666667
brooked tolerate 0.1666667
alexander closely 0.0769231
NULL closely 0.0769231
pry closely 0.0769231
we closely 0.0769231
heedful closely 0.0769231
scann closely 0.0769231
note closely 0.1538462
'd closely 0.0769231
well closely 0.0769231
swashers closely 0.0769231
close closely 0.1538462
pembroke pembroke 1.0000000
NULL age 0.0232558
time age 0.0232558
both age 0.0232558
decays age 0.0232558
them age 0.0232558
age age 0.6976744
prop age 0.0232558
strange age 0.0232558
years age 0.0697674
mutations age 0.0232558
devour age 0.0232558
thy age 0.0232558
choppy scrawny 0.2500000
once scrawny 0.2500000
laying scrawny 0.2500000
her scrawny 0.2500000
plain plain 0.7500000
NULL plain 0.0625000
discommend plain 0.0625000
gross plain 0.0625000
uncoined plain 0.0625000
lions lions 0.5833333
rather lions 0.0833333
NULL lions 0.0833333
frame lions 0.1666667
beasts lions 0.0833333
issuing bleeding 0.0714286
bleed bleeding 0.2857143
bold bleeding 0.0714286
apace bleeding 0.1428571
bleeding bleeding 0.2142857
reeking bleeding 0.0714286
. bleeding 0.0714286
sir bleeding 0.0714286
recover cure 0.1052632
remedy cure 0.1052632
expel cure 0.0526316
do cure 0.0526316
physic cure 0.0526316
charm cure 0.1052632
cure cure 0.4736842
give cure 0.0526316
of loving 0.0322581
die loving 0.0322581
obedience loving 0.0322581
surfeiting loving 0.0322581
nuptial loving 0.0322581
sisters loving 0.0322581
our loving 0.0322581
bear loving 0.0322581
loving loving 0.4516129
long loving 0.0322581
love loving 0.1612903
lovely loving 0.0322581
lost loving 0.0322581
loves loving 0.0322581
thee higher 0.1111111
NULL higher 0.1111111
better higher 0.1111111
larger higher 0.1111111
mounted higher 0.1111111
higher higher 0.4444444
upon hug 0.2000000
fall hug 0.2000000
let hug 0.2000000
tears hug 0.2000000
cheek hug 0.2000000
test tests 1.0000000
variance rouse 0.2500000
their rouse 0.2500000
condole rouse 0.2500000
if rouse 0.2500000
success results 0.2500000
none results 0.2500000
ends results 0.5000000
tenants tenants 1.0000000
tradesman tradesman 0.5000000
with tradesman 0.5000000
garland wreath 0.6000000
wreath wreath 0.4000000
the late 0.0232558
hour late 0.0465116
NULL late 0.0465116
almost late 0.0232558
steals late 0.0232558
into late 0.0232558
d late 0.0232558
late late 0.4651163
far late 0.0232558
repents late 0.0232558
on late 0.0232558
past late 0.0697674
once late 0.0232558
tardy late 0.0232558
morning late 0.0232558
wait late 0.0232558
crept late 0.0232558
lated late 0.0232558
too late 0.0232558
promise late 0.0232558
a turk 0.1428571
turk turk 0.4285714
turbaned turk 0.1428571
took turk 0.1428571
state turk 0.1428571
matching matching 1.0000000
bed-time bed-time 1.0000000
head nourished 1.0000000
thousand experiences 1.0000000
'send foot 0.0416667
NULL foot 0.1250000
foot foot 0.7916667
fights foot 0.0416667
dalliance stored 0.5000000
silken stored 0.5000000
NULL christian 0.0277778
humility christian 0.0277778
christian christian 0.9166667
burial christian 0.0277778
seen comets 0.5000000
comets comets 0.5000000
law plan 0.0144928
way plan 0.0289855
you plan 0.0144928
heed plan 0.0144928
likeness plan 0.0144928
cannot plan 0.0144928
pretense plan 0.0144928
directed plan 0.0144928
practice plan 0.0144928
sharp plan 0.0144928
business plan 0.0289855
drift plan 0.0144928
t plan 0.0144928
course plan 0.0289855
night plan 0.0144928
schoolmasters plan 0.0144928
blast plan 0.0144928
determinèd plan 0.0144928
purposes plan 0.0144928
tomorrow plan 0.0144928
contrive plan 0.0144928
villainy plan 0.0144928
athenian plan 0.0144928
story plan 0.0289855
NULL plan 0.0724638
wrestling plan 0.0144928
purpose plan 0.0579710
conceit plan 0.0144928
is plan 0.0144928
intend plan 0.0144928
’ plan 0.0144928
direction plan 0.0144928
good plan 0.0144928
us plan 0.0289855
bassanio plan 0.0144928
unfold plan 0.0144928
make plan 0.0144928
devised plan 0.0144928
enterprise plan 0.0144928
it plan 0.0289855
part plan 0.0144928
play plan 0.0144928
determine plan 0.0144928
can plan 0.0144928
mean plan 0.0724638
device plan 0.0579710
pursue plan 0.0144928
then plan 0.0144928
consent plan 0.0144928
'd shag-haired 0.5000000
shag-ear shag-haired 0.5000000
wrong offends 0.5000000
wrongs offends 0.5000000
pin endanger 1.0000000
sums sums 1.0000000
erthrown conquered 0.2000000
NULL conquered 0.2000000
'erthrown conquered 0.2000000
o conquered 0.2000000
conquered conquered 0.2000000
displanting replaced 1.0000000
diligence worker 0.5000000
workman worker 0.5000000
upon charter 0.2000000
charter charter 0.2000000
your charter 0.2000000
light charter 0.2000000
danger charter 0.2000000
gentle thrice-gentle 0.5000000
thrice thrice-gentle 0.5000000
upon ecstatic 0.5000000
dote ecstatic 0.5000000
on devours 0.5000000
feeds devours 0.5000000
bluntness bluntness 1.0000000
withal artfully 1.0000000
waterish spineless 1.0000000
the syracusians 0.3333333
syracusians syracusians 0.3333333
by syracusians 0.3333333
mangled mangled 0.2000000
poor mangled 0.2000000
thus mangled 0.2000000
splitted mangled 0.2000000
confining mangled 0.2000000
scarce scarce 0.5000000
hold scarce 0.5000000
deep knife 0.0909091
lucrece knife 0.0909091
knife knife 0.7272727
rapier knife 0.0909091
husbands husband 0.0068027
NULL husband 0.0272109
husbanded husband 0.0068027
woes husband 0.0068027
him husband 0.0136054
husband husband 0.7346939
sir husband 0.0068027
prince husband 0.0068027
house husband 0.0068027
hast husband 0.0136054
he husband 0.0136054
working husband 0.0068027
lord husband 0.0952381
plight husband 0.0068027
man husband 0.0068027
one husband 0.0136054
their husband 0.0068027
eye husband 0.0068027
obey husband 0.0068027
hornmaker husband 0.0068027
dotes dotes 1.0000000
hagar hagar 1.0000000
blanch blanch 1.0000000
hasty hasty 0.3333333
'erhasty hasty 0.1666667
salved hasty 0.1666667
haste hasty 0.1666667
quick hasty 0.1666667
greet greets 0.1428571
doth greets 0.1428571
greeting greets 0.1428571
does greets 0.1428571
salute greets 0.1428571
but greets 0.1428571
sends greets 0.1428571
of distasteful 0.5000000
despite distasteful 0.5000000
shrouding sheet 0.5000000
sheet sheet 0.5000000
raw immature 1.0000000
turquoise turquoise 1.0000000
phoebes phoebe-ing 1.0000000
bennet chime 0.3333333
put chime 0.3333333
mind chime 0.3333333
voice sweetness 0.1428571
honey sweetness 0.1428571
honey-heavy sweetness 0.1428571
sermons sweetness 0.1428571
sugar sweetness 0.1428571
paramour sweetness 0.1428571
dew sweetness 0.1428571
remove gets 0.0333333
rise gets 0.0333333
NULL gets 0.0333333
begins gets 0.0333333
that gets 0.0333333
we gets 0.0333333
is gets 0.0666667
deck gets 0.0333333
nightly gets 0.0333333
riseth gets 0.0666667
makes gets 0.0333333
undertaker gets 0.0333333
fetch gets 0.0333333
escapes gets 0.0333333
increaseth gets 0.0333333
quit gets 0.0333333
win gets 0.0333333
may gets 0.0333333
receives gets 0.0333333
provided gets 0.0333333
s gets 0.0333333
gets gets 0.0333333
birnam gets 0.0333333
totally gets 0.0333333
shows gets 0.0333333
itself gets 0.0333333
entangles gets 0.0333333
consume gets 0.0333333
general groan 0.1428571
groaning groan 0.1428571
did groan 0.1428571
groan groan 0.5714286
them defended 0.3333333
down defended 0.3333333
poured defended 0.3333333
usurer criminal 0.0714286
malefactor criminal 0.0714286
commonwealth criminal 0.0714286
knave criminal 0.0714286
NULL criminal 0.0714286
cozener criminal 0.0714286
find criminal 0.0714286
all criminal 0.0714286
villain criminal 0.0714286
try criminal 0.0714286
knaves criminal 0.0714286
villainy criminal 0.0714286
transgression criminal 0.0714286
arrant criminal 0.0714286
you right 0.0069124
laertes right 0.0046083
come right 0.0069124
instant right 0.0023041
pit right 0.0023041
vein right 0.0023041
wise right 0.0023041
perigouna right 0.0023041
beggar right 0.0023041
persuasion right 0.0023041
fit right 0.0115207
god right 0.0023041
profoundest right 0.0023041
spirit right 0.0023041
wit right 0.0023041
vulture right 0.0023041
furze right 0.0023041
your right 0.0092166
and right 0.0207373
pat right 0.0046083
time right 0.0023041
tide right 0.0023041
true right 0.0115207
briefly right 0.0023041
scanned right 0.0023041
have right 0.0023041
husband right 0.0023041
befits right 0.0023041
thy right 0.0092166
knocks right 0.0023041
commission right 0.0023041
hasty right 0.0023041
said right 0.0046083
it right 0.0138249
right right 0.0737327
charge right 0.0023041
haste right 0.0023041
chose right 0.0023041
straightway right 0.0023041
a right 0.0092166
— right 0.0115207
redress right 0.0023041
honesty right 0.0023041
attractive right 0.0023041
fitted right 0.0023041
in right 0.0092166
stand right 0.0046083
very right 0.0046083
may right 0.0023041
me right 0.0046083
presently right 0.0253456
caesar right 0.0023041
certainer right 0.0023041
twelve right 0.0023041
upright right 0.0023041
hit right 0.0023041
solemnized right 0.0023041
council right 0.0023041
aimed right 0.0023041
horatio right 0.0023041
implacable right 0.0023041
i right 0.0069124
heart right 0.0023041
decorum right 0.0023041
go right 0.0069124
there right 0.0046083
well right 0.0783410
mended right 0.0023041
nothing right 0.0023041
thing right 0.0023041
why right 0.0046083
happy right 0.0046083
yes right 0.0023041
lies right 0.0046083
third right 0.0023041
contents right 0.0023041
secure right 0.0023041
, right 0.0645161
not right 0.0115207
mark right 0.0023041
on right 0.0092166
matter right 0.0046083
apt right 0.0023041
widow right 0.0023041
scope right 0.0023041
out right 0.0069124
govern right 0.0023041
thence right 0.0023041
smites right 0.0023041
crown right 0.0023041
one right 0.0023041
softly right 0.0023041
fished right 0.0023041
with right 0.0023041
suddenly right 0.0023041
season right 0.0046083
leave right 0.0023041
goes right 0.0023041
meet right 0.0115207
durst right 0.0023041
certain right 0.0023041
to right 0.0230415
indeed right 0.0023041
brooch right 0.0023041
home right 0.0023041
set right 0.0023041
forthwith right 0.0023041
invisible right 0.0023041
any right 0.0023041
grace right 0.0023041
directly right 0.0023041
now right 0.0184332
respect right 0.0023041
' right 0.0069124
spoken right 0.0023041
the right 0.0092166
done right 0.0046083
supposition right 0.0023041
lecher right 0.0023041
could right 0.0023041
wits right 0.0023041
laced right 0.0023041
this right 0.0069124
t right 0.0023041
so right 0.0276498
told right 0.0023041
enough right 0.0046083
for right 0.0092166
carefully right 0.0023041
wench right 0.0023041
event right 0.0023041
ursula right 0.0023041
doth right 0.0023041
be right 0.0092166
such right 0.0023041
most right 0.0023041
NULL right 0.0783410
even right 0.0161290
wing right 0.0023041
young right 0.0023041
straight right 0.0552995
at right 0.0115207
counsel right 0.0023041
peremptory right 0.0023041
grizzled right 0.0023041
stop right 0.0023041
admittance right 0.0023041
masterly right 0.0023041
he right 0.0023041
hearing right 0.0023041
prevailed right 0.0023041
mend right 0.0023041
present right 0.0046083
air right 0.0023041
discretion secret-keeping 1.0000000
earth devastating 0.5000000
terrors devastating 0.5000000
answerable necessary 0.0666667
almost necessary 0.0666667
need necessary 0.0666667
no necessary 0.0666667
warranted necessary 0.0666667
tis necessary 0.0666667
needful necessary 0.0666667
go necessary 0.0666667
matter necessary 0.0666667
further necessary 0.0666667
such necessary 0.0666667
' necessary 0.0666667
” necessary 0.0666667
necessary necessary 0.1333333
those protecting 0.3333333
of protecting 0.3333333
seemed protecting 0.3333333
reprieve withdrawing 0.3333333
of withdrawing 0.3333333
token withdrawing 0.3333333
this testify 0.5000000
vouch testify 0.5000000
door doorway 0.2500000
chamber doorway 0.2500000
hold doorway 0.2500000
pander doorway 0.2500000
good monsieur 0.0555556
monsieur monsieur 0.9444444
apprehensions unclean 0.2500000
unpurged unclean 0.2500000
uncleanly unclean 0.5000000
takes reacts 1.0000000
madam ho 0.0227273
it ho 0.0227273
common ho 0.0227273
is ho 0.0227273
ho ho 0.9090909
given excavators 0.2500000
pioneers excavators 0.2500000
'er excavators 0.2500000
o excavators 0.2500000
jocund light-hearted 1.0000000
hawk hawk 0.5000000
argus hawk 0.5000000
pot pot 1.0000000
sack tail 0.0588235
hath tail 0.0588235
tongue tail 0.0588235
drowned tail 0.0588235
tail tail 0.5294118
horse-tail tail 0.0588235
fawn tail 0.0588235
bobtail tail 0.0588235
man-monster tail 0.0588235
uncovered blatant 1.0000000
a extent 0.3333333
bourn extent 0.3333333
set extent 0.3333333
heirs heirs 0.5000000
succeeders heirs 0.2500000
issue heirs 0.2500000
had ours 0.0555556
our ours 0.1666667
ours ours 0.3888889
demands ours 0.0555556
NULL ours 0.0555556
nought ours 0.0555556
own ours 0.0555556
we ours 0.0555556
tott ours 0.0555556
countermines ours 0.0555556
lies fix 0.0869565
you fix 0.0869565
a fix 0.0434783
of fix 0.0434783
redress fix 0.0434783
’ fix 0.0434783
in fix 0.0434783
splinter fix 0.0434783
; fix 0.0434783
make fix 0.0434783
pheeze fix 0.0434783
s fix 0.0434783
device fix 0.0434783
amend fix 0.0869565
mend fix 0.1739130
become fix 0.0434783
fault fix 0.0434783
cold chilly 0.2222222
unwilling chilly 0.1111111
a- chilly 0.1111111
icy chilly 0.1111111
a-cold chilly 0.4444444
well booze 0.3333333
spade booze 0.3333333
drink booze 0.3333333
grievous sick 0.0114943
toys sick 0.0114943
NULL sick 0.0344828
remediate sick 0.0114943
almost sick 0.0114943
not sick 0.0229885
surfeit sick 0.0114943
sicken sick 0.0229885
midwife sick 0.0114943
look sick 0.0114943
pale sick 0.0229885
on sick 0.0114943
horses sick 0.0114943
brutus sick 0.0114943
am sick 0.0229885
at sick 0.0114943
i sick 0.0344828
wether sick 0.0114943
odious sick 0.0114943
when sick 0.0344828
light sick 0.0114943
health sick 0.0114943
abhor sick 0.0114943
well sick 0.0229885
ill sick 0.0459770
sick sick 0.5172414
infirm sick 0.0114943
but sick 0.0114943
sickly sick 0.0114943
upon four 0.0243902
steep four 0.0243902
NULL four 0.0243902
two four 0.0243902
twice four 0.0487805
four four 0.8536585
tribute taxes 1.0000000
make introduce 0.1250000
friends introduce 0.1250000
do introduce 0.1250000
grace introduce 0.1250000
thyself introduce 0.1250000
present introduce 0.1250000
give introduce 0.1250000
welcome introduce 0.1250000
well exeter 0.0769231
thee exeter 0.0769231
doth exeter 0.0769231
love exeter 0.0769231
exeter exeter 0.6923077
house upkeep 0.2000000
doth upkeep 0.2000000
prop upkeep 0.2000000
sustain upkeep 0.2000000
that upkeep 0.2000000
groans verse 0.2000000
you verse 0.2000000
verse verse 0.2000000
chapter verse 0.2000000
give verse 0.2000000
smother fire 0.0119048
prodigal fire 0.0119048
stellèd fire 0.0119048
NULL fire 0.0476190
how fire 0.0119048
drowns fire 0.0119048
me fire 0.0119048
place fire 0.0119048
babe fire 0.0119048
soul fire 0.0119048
blood fire 0.0119048
lends fire 0.0119048
inflame fire 0.0119048
fire fire 0.7857143
burns fire 0.0119048
cities fire 0.0119048
deserved extol 0.3333333
from extol 0.3333333
vary extol 0.3333333
washes fills 0.2500000
harrows fills 0.2500000
all fills 0.2500000
pale fills 0.2500000
NULL honors 0.1111111
glories honors 0.1111111
honors honors 0.5555556
worships honors 0.1111111
honour honors 0.1111111
on attend 0.1666667
abode attend 0.0833333
matter attend 0.0833333
hear attend 0.0833333
and attend 0.0833333
attend attend 0.4166667
see attend 0.0833333
whirling whirling 1.0000000
reynaldo reynaldo 1.0000000
will four-day 0.2000000
his four-day 0.2000000
peat four-day 0.2000000
four four-day 0.2000000
i four-day 0.2000000
upon weathered 0.3333333
fortune weathered 0.3333333
casts weathered 0.3333333
upon meat 0.1111111
shambles meat 0.1111111
meat meat 0.7777778
matter forgets 0.2000000
let forgets 0.4000000
him forgets 0.2000000
slip forgets 0.2000000
renown graceful 0.1250000
show graceful 0.1250000
knowledge graceful 0.1250000
your graceful 0.2500000
grace graceful 0.2500000
graceful graceful 0.1250000
the affected 0.2500000
penetrable affected 0.2500000
pass affected 0.2500000
taint affected 0.2500000
hearers hearers 1.0000000
small experience 0.1000000
of experience 0.1000000
taste experience 0.1000000
custom experience 0.1000000
experience experience 0.3000000
never experience 0.1000000
old experience 0.1000000
grows experience 0.1000000
and individual 1.0000000
dream daydream 0.5000000
'ring daydream 0.5000000
reconcilement apology 1.0000000
detecting escapes 0.1666667
scape escapes 0.5000000
’ escapes 0.3333333
true-love true-love 1.0000000
argument topic 0.2500000
nation topic 0.2500000
holds topic 0.2500000
controversy topic 0.2500000
NULL seller 1.0000000
bing stabbing 0.5000000
stab- stabbing 0.5000000
pinioned chained 0.3333333
at chained 0.3333333
rome chained 0.3333333
made loans 0.2500000
moan loans 0.2500000
at loans 0.2500000
times loans 0.2500000
declining sores 0.5000000
carbuncles sores 0.5000000
decayèd decayed 1.0000000
on blast 0.1428571
large blast 0.1428571
a blast 0.1428571
fuller blast 0.1428571
charter blast 0.1428571
methinks blast 0.1428571
blow blast 0.1428571
want wine 0.0338983
bottle wine 0.0508475
NULL wine 0.0677966
of wine 0.0508475
rhenish wine 0.0338983
exclaim wine 0.0169492
ho wine 0.0169492
known wine 0.0169492
stoup wine 0.0169492
cup wine 0.0169492
liquor wine 0.0169492
invisible wine 0.0169492
spirit wine 0.0169492
bung-hole wine 0.0169492
wine wine 0.5762712
alms-drink wine 0.0169492
malmsey wine 0.0169492
imperious imperious 1.0000000
bought purchased 0.5000000
purchas purchased 0.5000000
you luck 0.0617284
sermons luck 0.0123457
take luck 0.0123457
grow luck 0.0123457
fortune luck 0.3580247
thrift luck 0.0246914
happiness luck 0.0123457
success luck 0.0123457
out luck 0.0123457
hap luck 0.0123457
may luck 0.0123457
full luck 0.0123457
with luck 0.0123457
steps luck 0.0123457
luck luck 0.1358025
NULL luck 0.0246914
most luck 0.0123457
heels luck 0.0123457
objects luck 0.0123457
speed luck 0.0123457
at luck 0.0123457
haps luck 0.0123457
thy luck 0.0123457
fortunes luck 0.0246914
fare luck 0.0493827
waist luck 0.0123457
higher luck 0.0123457
go luck 0.0123457
fortunate luck 0.0123457
chance luck 0.0246914
happy luck 0.0123457
why luck 0.0123457
gladly handkerchief 0.0192308
‘ handkerchief 0.0192308
even handkerchief 0.0192308
handkerchief handkerchief 0.7500000
that handkerchief 0.0384615
same handkerchief 0.0384615
was handkerchief 0.0192308
now handkerchief 0.0192308
napkin handkerchief 0.0576923
handkercher handkerchief 0.0192308
witness witnesses 0.3333333
witnesses witnesses 0.3333333
many witnesses 0.1666667
witnesseth witnesses 0.1666667
desired desired 0.6666667
else desired 0.3333333
type imperial 0.2000000
imperial imperial 0.8000000
first affirm 0.2500000
even affirm 0.2500000
their affirm 0.2500000
protest affirm 0.2500000
the risen 0.3333333
ascended risen 0.1666667
buoyed risen 0.1666667
roof risen 0.1666667
writ risen 0.1666667
NULL listened 0.5000000
importuned listened 0.5000000
customs prudish 0.2500000
curtsy prudish 0.2500000
nice prudish 0.5000000
the hair 0.0566038
hairs hair 0.0377358
it hair 0.0188679
NULL hair 0.0754717
very hair 0.0188679
singe hair 0.0188679
them hair 0.0188679
do hair 0.0566038
locks hair 0.0188679
poll hair 0.0188679
flakes hair 0.0188679
unpin hair 0.0377358
blood-bolter hair 0.0188679
hair hair 0.5849057
beauteous reared 1.0000000
strive strive 0.2500000
tinctures strive 0.2500000
for strive 0.2500000
press strive 0.2500000
tied tie 0.0714286
bound tie 0.1428571
enforce tie 0.0714286
pinion tie 0.0714286
tie tie 0.0714286
bind tie 0.4285714
fast tie 0.0714286
hard tie 0.0714286
melted melted 1.0000000
of enjoys 0.5000000
joy enjoys 0.5000000
wrong mistreat 1.0000000
should mercury 1.0000000
sweet-faced sweet-faced 1.0000000
breton thriving 1.0000000
jowl jowl 1.0000000
firebrands firebrands 0.3333333
ho firebrands 0.3333333
brands firebrands 0.3333333
withal amble 0.5000000
ambles amble 0.5000000
fulsome sickening 1.0000000
phoebe phoebe 0.9285714
her phoebe 0.0714286
usurer shark 1.0000000
offices jobs 0.3333333
parts jobs 0.3333333
service jobs 0.3333333
made chances 0.0714286
NULL chances 0.0714286
may chances 0.0714286
thrive chances 0.0714286
forsook chances 0.0714286
as chances 0.0714286
chance chances 0.0714286
shall chances 0.0714286
unto chances 0.0714286
be chances 0.0714286
hazard chances 0.0714286
likelihood chances 0.0714286
i chances 0.1428571
darkens achieves 0.2500000
which achieves 0.2500000
gain achieves 0.2500000
does achieves 0.2500000
swiftest swiftest 0.5000000
wing swiftest 0.5000000
intercepts blocking 0.3333333
my blocking 0.3333333
expedition blocking 0.3333333
rheumy humid 0.1428571
NULL humid 0.1428571
twere humid 0.1428571
as humid 0.1428571
— humid 0.1428571
sultry humid 0.2857143
haunt haunt 0.7500000
haunts haunt 0.2500000
tuned tuned 1.0000000
yare water-tight 0.5000000
tight water-tight 0.5000000
NULL calculate 0.3333333
account calculate 0.3333333
reckon calculate 0.3333333
columbines columbines 1.0000000
waste shoot 0.2000000
shoot shoot 0.4000000
a shoot 0.2000000
no shoot 0.2000000
lead leading 0.1250000
leading leading 0.1250000
NULL leading 0.2500000
bring leading 0.1250000
of leading 0.1250000
conductor leading 0.1250000
officer leading 0.1250000
hymen hymen 1.0000000
misused abused 0.1000000
abuse abused 0.1000000
did abused 0.1000000
ourself abused 0.1000000
was abused 0.1000000
abused abused 0.3000000
deserve abused 0.1000000
didst abused 0.1000000
stony ruthless 0.2500000
piteous ruthless 0.2500000
arch ruthless 0.2500000
adversary ruthless 0.2500000
virtue virtuous 0.0909091
NULL virtuous 0.0454545
of virtuous 0.0454545
virtuous virtuous 0.6818182
evidence virtuous 0.0454545
grace virtuous 0.0454545
full virtuous 0.0454545
knit knit 1.0000000
harbingers advance 0.0555556
dispose advance 0.0555556
on advance 0.1111111
march advance 0.0555556
day advance 0.0555556
tender advance 0.0555556
set advance 0.1111111
pleasest advance 0.0555556
prefer advance 0.0555556
how advance 0.0555556
god advance 0.0555556
go advance 0.0555556
orléans advance 0.0555556
thou advance 0.0555556
away advance 0.0555556
approach advance 0.0555556
monarch new-crowned 0.5000000
new-crowned new-crowned 0.5000000
naught temple 0.0909091
temple temple 0.8181818
habitation temple 0.0909091
the daybreak 0.1666667
of daybreak 0.1666667
day daybreak 0.5000000
break daybreak 0.1666667
foxes foxes 1.0000000
there bloodshed 0.2000000
he bloodshed 0.2000000
bloody bloodshed 0.2000000
rake bloodshed 0.2000000
constraint bloodshed 0.2000000
's calpurnia 0.2000000
calpurnia calpurnia 0.6000000
by calpurnia 0.2000000
hill cliff 0.0714286
cliff cliff 0.1428571
extreme cliff 0.0714286
NULL cliff 0.0714286
crown cliff 0.0714286
a-height cliff 0.0714286
same cliff 0.0714286
bourn cliff 0.0714286
' cliff 0.2142857
th cliff 0.0714286
o cliff 0.0714286
contradict contradict 0.2500000
cross contradict 0.2500000
in contradict 0.2500000
nothing contradict 0.2500000
so harsh 0.0833333
breath harsh 0.0833333
harsh harsh 0.3333333
rough harsh 0.1666667
shrewd harsh 0.1666667
speeches harsh 0.0833333
hard harsh 0.0833333
question player 0.2500000
went player 0.2500000
player player 0.2500000
merèd player 0.2500000
poring engulfing 1.0000000
ensnared trapped 0.1111111
when trapped 0.1111111
caught trapped 0.1111111
NULL trapped 0.1111111
has trapped 0.1111111
thus trapped 0.1111111
one trapped 0.1111111
fast trapped 0.1111111
her trapped 0.1111111
forgo action 0.0526316
course action 0.0526316
cowards action 0.0526316
NULL action 0.1052632
fit action 0.0526316
purpose action 0.0526316
redress action 0.0526316
appear action 0.0526316
batter action 0.0526316
word action 0.0526316
wrong action 0.0526316
their action 0.0526316
at action 0.0526316
business action 0.0526316
action action 0.1578947
peace action 0.0526316
in ruining 0.3333333
all ruining 0.3333333
grating ruining 0.3333333
shadow hallucination 1.0000000
'd destitute 0.5000000
beggar destitute 0.5000000
once shine 0.0833333
show shine 0.0833333
shine shine 0.5833333
me shine 0.0833333
glimmering shine 0.0833333
foggy shine 0.0833333
brightly brightly 1.0000000
lusty blustery 1.0000000
shepherdess shepherdess 1.0000000
recoil recoil 1.0000000
so charles 0.0769231
he charles 0.0769231
clear charles 0.0769231
wrestler charles 0.0769231
served charles 0.0769231
charles charles 0.4615385
shall charles 0.0769231
this charles 0.0769231
opposite opponent 0.1111111
to opponent 0.1111111
cope opponent 0.1111111
withal opponent 0.1111111
fatal opponent 0.1111111
come opponent 0.1111111
adversary opponent 0.2222222
that opponent 0.1111111
ireland ireland 1.0000000
is lacks 0.1250000
wants lacks 0.1250000
doth lacks 0.1250000
tive lacks 0.1250000
lack lacks 0.1250000
lacks lacks 0.1250000
in lacks 0.1250000
defec- lacks 0.1250000
NULL slave 0.0196078
minion slave 0.0392157
engaged slave 0.0196078
fellow slave 0.0196078
bondman slave 0.1176471
bondslave slave 0.0196078
thou slave 0.0196078
slave slave 0.6862745
become slave 0.0196078
seek slave 0.0196078
wheel slave 0.0196078
stubbornest stubbornest 1.0000000
menas menas 1.0000000
barren bare 0.1428571
these bare 0.1428571
NULL bare 0.1428571
bare bare 0.4285714
anatomize bare 0.1428571
upon sacrificed 0.2500000
such sacrificed 0.2500000
offering sacrificed 0.2500000
sacrifices sacrificed 0.2500000
NULL lawfully 0.6666667
claim lawfully 0.3333333
shine lord 0.0010020
you lord 0.0010020
catesby lord 0.0010020
jupiter lord 0.0010020
appears lord 0.0010020
charles lord 0.0010020
gracious lord 0.0010020
rougemont lord 0.0010020
acquaint lord 0.0010020
swear lord 0.0010020
him lord 0.0010020
alas lord 0.0010020
honored lord 0.0010020
signior lord 0.0010020
lord lord 0.9158317
warned lord 0.0010020
tell lord 0.0010020
burgundy lord 0.0010020
noon lord 0.0010020
i. lord 0.0010020
troth lord 0.0010020
foulness lord 0.0010020
none lord 0.0010020
NULL lord 0.0070140
havior lord 0.0010020
same lord 0.0010020
is lord 0.0010020
heavens lord 0.0010020
good lord 0.0160321
straight lord 0.0010020
boys lord 0.0020040
unrespective lord 0.0010020
i lord 0.0020040
lordship lord 0.0080160
master lord 0.0030060
pudding lord 0.0010020
fancy lord 0.0010020
sooth lord 0.0010020
thane lord 0.0010020
liege lord 0.0130261
salerio lord 0.0010020
congregate congregate 0.3333333
merchants congregate 0.3333333
do congregate 0.3333333
disposed wanting 0.3333333
whose wanting 0.3333333
foolish wanting 0.3333333
wonder surprised 0.1428571
marvel surprised 0.5714286
wildness surprised 0.1428571
why surprised 0.1428571
time outstay 0.5000000
outstay outstay 0.5000000
movables possessions 0.2857143
spoiled possessions 0.1428571
goods possessions 0.1428571
my possessions 0.1428571
whereof possessions 0.1428571
moveables possessions 0.1428571
on challenger 0.1666667
the challenger 0.1666667
mount challenger 0.1666667
challenger challenger 0.5000000
reverend elderly 1.0000000
lieutenantry lieutenantry 1.0000000
thought widespread 1.0000000
shall advocate 0.5000000
solicitor advocate 0.5000000
compact overactive 1.0000000
subjects act 0.0140845
a act 0.0140845
both act 0.0140845
affections act 0.0140845
kitchens act 0.0140845
